zymske zymske 0.5714286
zymske runje 0.0033445
zymske zymski 0.2000000
njezalubujo njezalubuje 1.0000000
žeńscyny žónski 0.3333333
kólasaŕskich kolesowanskich 1.0000000
pśepórało přebywa 0.1111111
słonu słonu 1.0000000
tr tr 1.0000000
póžycyli spožčili 0.4000000
póžycyli požčili 0.7500000
bomami štomami 1.0000000
bomami alejemi 1.0000000
centralnje centralnje 1.0000000
zarěz zarěz 1.0000000
zacytali začitali 1.0000000
měrniwa měrliwa 1.0000000
twajrana tveiranowy 0.3750000
twajrana tveiranowym 0.5000000
twajrana zahrodźe 0.0285714
twajrana NULL 0.0004325
twajrana doporučenje 0.0370370
twajrana tveirana 0.7857143
twajrana wězo 0.0044843
twajrana twelgi 0.0625000
twajrana kóčka 0.0400000
twajrana dom 0.0204082
twajrana zahrody 0.1250000
twajrana doma 0.0192308
twajrana domej 0.1250000
twajrana kuzłarja 0.0434783
religioznem nabožnym 1.0000000
wopyt posypt 0.5000000
wopyt pospyt 0.9583333
mě druhe 0.0030211
mě směju 0.2500000
mě mnu 0.0526316
mě prašeš 0.1111111
mě pomham 0.0769231
mě nimam 0.0169492
mě šwórči 0.2500000
mě boli 0.1428571
mě hódnotu 0.0307692
mě njemyslu 0.1153846
mě mam 0.0117647
mě mje 0.8435374
mě móhło 0.0157480
mě proksy-nastajenja 0.0769231
mě myslu 0.2426471
mě tute 0.0005977
mě wotměny 0.2000000
mě sej 0.0005653
mě njepředrěju 0.5000000
mě nadpad 0.0625000
mě ćěłu 0.5000000
mě pastyrja 0.0909091
mě někajki 0.0285714
mě mojej 0.0153846
mě słuchać 0.0769231
mě hižo 0.0015256
mě wuměnił 0.1250000
mě njerady 0.1250000
mě jón 0.0025253
mě wumyslu 0.3333333
mě najskerje 0.0131579
mě lóštny 0.2500000
mě kij 0.0555556
mě nikim 0.1666667
mě wjedu 0.0357143
mě tajku 0.0200000
mě prawje 0.0062500
mě nochcu 0.0018519
mě rěka 0.0052083
mě zajim 0.0147059
mě mlokom 0.1111111
mě brunči 0.2500000
mě kuzłanje 0.2307692
mě bow 0.0666667
mě měšk 0.0294118
mě lunk 0.1250000
mě krabat 0.0064935
mě podaš 0.2000000
mě přeradźić 0.0714286
mě njeńdźe 0.0250000
mě ja 0.0116279
mě so 0.0000772
mě mi 0.8766859
mě měnju 0.1111111
mě přilubi 0.0769231
mě wužitna 0.0800000
mě mjeno 0.9506494
mě póčnje 0.5000000
mě hłupak 0.1000000
mě rěkam 0.3333333
mě NULL 0.0051896
mě njepředrěje 0.3333333
mě pohladam 0.0434783
mě magiski 0.0666667
mě korčma 0.1666667
mě pomhać 0.0040486
mě kisały 0.0769231
mě njedźiwam 0.3333333
mě njesłyšiš 0.1666667
mě zło 0.0714286
mě chłóšćak 0.2500000
mě kałnyć 0.2500000
mě je 0.0002687
mě wzda 0.5000000
mě wěsće 0.0202703
mě nochcyše 0.0714286
mě runu 0.1428571
mě po 0.0005741
mě mnje 0.0400000
mě bukecy 0.1428571
mě trjebać 0.0151515
mě lačna 0.0588235
mě mni 0.0512821
mě njerodźi 0.2500000
mě hrabnje 0.3333333
mě moju 0.0270270
mě domjacnosći 0.1666667
mě powědachu 0.2500000
mě puls 0.5000000
mě grawoćiwych 0.2500000
mě zaspěwam 0.5000000
mě padnje 0.0625000
mě kajki 0.0212766
mě sym 0.0093897
mě wodaj 0.0833333
mě škit 0.0041152
mě zaćišć 0.0454545
mě maćijo 0.1111111
mě radźi 0.1250000
mě prajiła 0.0588235
mě njejsym 0.0172414
mě spinaja 0.2500000
mě chwilku 0.0434783
mě njeby 0.0112360
mě bahno 0.0714286
programěrowarjow programowarjow 0.5000000
0000ff 0000ff 1.0000000
pśibliženja přibliženja 1.0000000
njezacytujo njezačituje 1.0000000
pśedawaŕka předawarka 0.7500000
pśesuńśo přesuńće 1.0000000
pakśiki pakćiki 0.9230769
wugroniłej wuprajiłoj 1.0000000
krydnjoš dóstanješ 0.0434783
gronidło2 hesło2 1.0000000
płatowy płatowy 0.3333333
płatowy płatowe 1.0000000
płatowy płatowa 1.0000000
wuzamknjenje wuzamknjenje 1.0000000
traktoroma traktoromaj 0.5000000
małkich drobnych 1.0000000
wótnutśika wotnutřka 0.5000000
rogatemu widłakej 1.0000000
pśidatnemu přidatny 0.0666667
pśidatnemu přidatnemu 1.0000000
zmejstrowało zmištrowało 1.0000000
wudaś NULL 0.0001442
wudaś wudać 0.9047619
wudaś podać 0.0114943
mjaseca.zjawne měsaca 0.0555556
mjaseca.zjawne přepisuje.zjawne 1.0000000
miłosćiwje miłosćiwje 1.0000000
smjerśi smjerći 0.8181818
smjerśi NULL 0.0002883
smjerśi nastróžił 0.2500000
smjerśi nastróži 0.2500000
smjerśi zahuby 0.3333333
smjerśi smjerće 1.0000000
pótajmstow potajnstwo 0.0285714
kulturnego kulturneho 1.0000000
kulturnego serbskeho 0.0049875
njewjericka wjewjerčka 1.0000000
spušćobny spušćomny 1.0000000
twarog twaroh 1.0000000
zuki zwuki 1.0000000
zuki zynki 1.0000000
‒ ‒ 0.5000000
‒ njekryjetej 0.3333333
gódnych hódnych 1.0000000
gódnych hódnej 1.0000000
sobupowědanje soburěčenje 1.0000000
jawišćowym jewišćowym 1.0000000
pozach pozach 1.0000000
nacijow nacijow 1.0000000
jěźi kupju 0.2500000
jěźi njesłodźi 0.0909091
jěźi jědźi 0.7619048
zabawy wólnočasne 0.2500000
zabawy zabawy 0.2000000
šulskeje šulskeho 0.0943396
šulskeje šulskeje 0.7142857
hermetiski hermetisce 1.0000000
lěwe lěwe 1.0000000
precatio precatio 1.0000000
wobłukowy wobłukowy 1.0000000
definicija definicija 1.0000000
nowelěrowanej nowelěrowanemu 1.0000000
pšawiznicam prawiznicam 1.0000000
webkanale webkanale 1.0000000
zajmna zajimawa 0.3333333
cerkwinego cyrkwineje 1.0000000
cerkwinego cyrkwinskeho 0.5555556
frakcijow frakcijow 1.0000000
towaristwa towaršnosće 0.1724138
towaristwa towarstwa 0.9846154
towaristwa sobustawojo 0.1176471
towaristwa towarstwow 0.0140845
nawušniki wuchajcy 1.0000000
nawušniki nawušnicy 1.0000000
wuzwólowarjow wolerjow 0.2500000
wuzwólowarjow lisćiny 0.0322581
pśedstajał předstajił 0.0588235
pśedstajał předstajał 1.0000000
kinsporka kinsporka 1.0000000
njeinforměrowaś njeinformować 0.7500000
konfiguracijami konfiguracijemi 1.0000000
zawězany zasukany 0.7500000
zawězany NULL 0.0001442
zawězany winowaty 0.1666667
zawězany zawjazany 1.0000000
zawězany winowatosć 0.0289855
njewuzbytne njeparujomni 1.0000000
swg přewza 0.0344828
swg swg 1.0000000
maks maks 1.0000000
wopušcijo wopušci 1.0000000
njekula njekuli 1.0000000
srcdir srcdir 1.0000000
bórka bórka 1.0000000
nocow třiceći 0.0666667
nocow nocow 0.8000000
nocow dołhich 0.2000000
čechojskeje kraja 0.0081301
čechojskeje čěskeho 1.0000000
měra njenamakaja 0.2500000
měra měra 0.7826087
inženjerskej inženjerskej 1.0000000
derbstwa namrěwstwa 1.0000000
derbstwa herbstwa 0.8888889
kwalita kwalita 0.8000000
kwalita žiwjenska 0.6666667
pśistoj hudźbu 0.0303030
pśistoj přisteji 0.5000000
pśistoj z 0.0002697
bjesady bjesady 0.3333333
wudopołnjece wudospołnjace 1.0000000
ma-li ma 0.0006658
ma-li žadatej 0.0909091
ma-li ma-li 0.6666667
ma-li jeli 0.0010020
wobinuś wobeńć 0.1818182
kontakty kontaktow 0.2500000
kontakty styki 0.7500000
kontakty kontakty 1.0000000
pšutom prutom 1.0000000
kompleksa kompleksa 1.0000000
3d-graśa 3d-hry 1.0000000
cynitosćow činitosćow 1.0000000
magistrom magistrom 1.0000000
oranžojtem oranžojtym 1.0000000
pósejźenjowu posedźenjow 0.2857143
wiju wija 0.5000000
” ” 0.9353846
” pomjenowali 0.2000000
” njebuchu 0.1250000
” sobuskutkowanju 0.1818182
” hórše 0.2000000
” “ 0.0174793
” NULL 0.0004325
” " 0.0078918
” wotměja 0.3333333
” łastojčce 0.2500000
pontoon pontoon 1.0000000
wurosćece wurosćace 1.0000000
pśewóźowachu přewodźachu 1.0000000
seśoweje syćoweje 1.0000000
seśoweje syćoweho 0.0833333
pśedšulske předšulske 1.0000000
event event 1.0000000
wuwólnjony wuwólnjeny 1.0000000
sta sta 0.3023256
sta wone 0.0043668
sta NULL 0.0001442
sta lětstotki 0.1052632
lěsny lěsny 0.6000000
kecke kecke 0.5000000
słopotaś wjazoliš 0.5000000
pśirownaś přirunać 1.0000000
koordiněrowała koordinowała 1.0000000
pisnje pisomnje 1.0000000
28 28 1.0000000
cołniki čołmiki 1.0000000
zwuconymi zwučenymi 1.0000000
sam sama 0.0526316
sam hišće 0.0015117
sam hałzy 0.2000000
sam pomhać 0.0040486
sam samu 0.1428571
sam trjebać 0.0151515
sam sam 0.8644068
sam ty 0.0019011
sam samočinjena 0.2500000
sam samokubłacym 0.2500000
sam jednotliwje 0.5000000
sam swjaty 0.0400000
sam trjebam 0.0064935
sam , 0.0000639
sam derje 0.0026810
sam NULL 0.0002883
wobźěłujo wobdźěłuje 1.0000000
žycyś přeć 0.4000000
žycyś popřeć 1.0000000
wuměnja -moz-inline-box 0.3333333
wuměnja wuměnja 1.0000000
wopaliś spalić 0.1111111
uniwersitneju unikliniku 0.5000000
statnymi statnymi 1.0000000
trajne naslědne 0.1666667
trajne trajne 0.1111111
funkcioněrujecego fungowaceho 1.0000000
zgubijo ćerpjeć 0.0769231
zgubijo zhubi 0.8214286
zgubijo NULL 0.0002883
zgubijo zhubja 0.0588235
specifisku specifiska 1.0000000
specifisku specifisku 1.0000000
zraduj zraduj 1.0000000
atmosferisko-optiski atmosferisko-optiski 1.0000000
njepłaśiweje njepłaćiweje 0.5000000
wupłaśony wupłaćeny 1.0000000
zachopinali započinali 1.0000000
nazymskich nazymskich 1.0000000
cejdejku cejdejku 1.0000000
źěłowemu wobchodniskemu 0.5000000
źěłowemu dźěłowemu 0.6000000
michael michael 1.0000000
michael michał 0.0800000
krydnu změju 0.2105263
pśepódawa přepodawa 1.0000000
pśipušćenje dopušćenje 0.5000000
pśizjawjenjow přizjewjenjow 1.0000000
pśizawjeńske přizjewjenske 0.0256410
dołowy-rybińska dołowy-rybińska 1.0000000
mjeńšynowu mjeńšinowu 1.0000000
nocnem nócnej 1.0000000
nocnem nócnym 0.6666667
carneje čorneje 0.6666667
referencnu referencnu 1.0000000
mjadwjeźe mjedwjedźe 0.7142857
mjadwjeźe mjedwjedźa 0.0192308
akceptěrujo akceptuje 1.0000000
njrwěstemu njewěste 0.0500000
powšyknowužytne powšitkownowužitne 0.3333333
powšyknowužytne powšitkownowužitnym 0.5000000
bruk hnójnik 0.5000000
bruk bruk 1.0000000
bruk kuli 0.2000000
zwignuli hrozy 0.0526316
zwignuli zběhnychu 0.5000000
zwignuli zběžk 0.5000000
zwignuli zběhali 1.0000000
rozpśedany wupředaty 1.0000000
wótrězany wotrězany 1.0000000
strukturna strukturna 0.9000000
nagronjony narěčany 1.0000000
pśiśěguju přićahuja 1.0000000
zdalonosć zdalenosć 1.0000000
dobrowólnikach dobrowólnikach 1.0000000
domenami domenami 1.0000000
analyzěrujśo analyzujće 1.0000000
pógódnosenje pohódnoćenje 0.0169492
pśedpśedank předpředań 1.0000000
korporacije korporacije 1.0000000
profesurow profesurow 1.0000000
wuderiła mór 0.0454545
wuderiła wudyrił 0.1666667
wuderiła howrješe 0.3333333
wuderiła zaso 0.0021413
lisema měšćanski 0.1250000
lisema lisema 1.0000000
spiwaŕka spěwarka 1.0000000
poměrje poměrje 1.0000000
nješifrěruju njezaklučuja 1.0000000
starał postarał 0.4000000
starał staraše 0.2000000
starał přiwzał 0.2000000
starał 1922 0.2500000
starał starał 1.0000000
ansambloju ansamblej 1.0000000
pówušonu powyšenu 1.0000000
regularnej regularnej 1.0000000
wóspjetowanem wospjetowanym 1.0000000
pśigótowańske přihotowanske 0.5000000
zacytanjeju začitanju 0.4444444
jě-jěkotam ja-jakotam 1.0000000
źělaš dźěłaš 0.1250000
njepokazuju njepokazuja 1.0000000
njepokazuju njepokazaja 0.8333333
njepokazuju njejewja 1.0000000
słowakskeje słowakskeje 1.0000000
zwótkšywał wotkrywał 1.0000000
marketplace.firefox.com marketplace.firefox.com 1.0000000
dajom zakuzłanu 0.3333333
dajom sadźam 1.0000000
dajom wróćić 0.0333333
dajom za 0.0001272
dajom to 0.0002115
dajom swój 0.0018727
dajom NULL 0.0007208
dajom žołty 0.0526316
dajom dowěrju 1.0000000
dajom dam 0.4324324
dajom dała 0.0400000
tšojeńkow stawiznow 0.0740741
tšojeńkow stawizničkow 0.1818182
tšojeńkow podawkow 0.0714286
góspodow hospodow 1.0000000
wolumenom wolumenom 1.0000000
twaŕska twarska 1.0000000
znjewužywało znjewužiwali 1.0000000
znjewužywało znjewužiwało 1.0000000
ansamblu ansamblu 1.0000000
live live 1.0000000
raźona wuspěšna 0.2500000
žrědłowem žórłowym 1.0000000
zgromadnosćach zhromadnosćach 1.0000000
linguae linguae 1.0000000
wugódnośenja wuhódnoćenja 1.0000000
skazański skazanski 1.0000000
wótźěła wotdźěła 1.0000000
wuproběrujom spytam 0.0517241
wuproběrujom wuspytam 0.5000000
jubilaroju jubilarej 1.0000000
jubilaroju jubilara 0.5000000
pśilubjenjoma přilubjenjomaj 1.0000000
wužadanju wužadanju 0.3333333
stara stary 0.0441176
stara wowka 0.0294118
stara wuměnkar 0.5000000
stara na 0.0001166
stara njestala 1.0000000
stara nó 0.0120482
stara wulkoćeta 0.5000000
stara NULL 0.0002883
stara stara 0.9120879
1205133 1205133 1.0000000
dopušćenju dopušćenju 1.0000000
wobchadatej wobchadźetej 1.0000000
zakóńcona nimo 0.0025189
pśeznanijo přeswědči 1.0000000
wisecy ju 0.0025974
wisecy na 0.0001166
wisecy tam 0.0014347
wisecy sćěnje 0.0476190
gymnaziumow gymnazijow 0.3333333
skłaźonych składowanych 0.4000000
originelnje originelnje 1.0000000
źewjeś dźewjeć 1.0000000
źewjeś nad 0.0052910
wuproznjowaś wuprózdnić 0.1250000
mjeńšymi mjeńšimi 1.0000000
mužakow mužakow 1.0000000
pšosbach próstwach 1.0000000
zachadnych zašłych 0.2083333
zachadnych zańdźenych 0.8571429
zachadnych minjenych 0.2413793
planowańske planowanske 1.0000000
wutšobu wuroni 0.3333333
wutšobu wutrobu 0.5217391
wutšobu pola 0.0018051
pirat pirat 1.0000000
chłošćonkow słodźeć 0.3333333
chłošćonkow chłóšćenki 0.1666667
regionalizaciju regionalizaciju 1.0000000
pśewušyli přesćahnyli 1.0000000
śamnosć ćěmnosć 0.6666667
śamnosć ćma 0.1111111
śamnosć hidźeše 0.5000000
křesćan křesćan 0.6000000
kipate wašničkojte 1.0000000
warcachu mórkotachu 1.0000000
glucna była 0.0126582
glucna zbožowna 0.8888889
glucna być 0.0028090
glucna po 0.0005741
glucna wšěm 0.0089286
glucna zdaću 0.0185185
wopaka wopaka 0.6000000
zgronijo so 0.0001545
zgronijo wobjeda 0.4000000
wjercham wjercham 1.0000000
pśeźěłał předźěłał 0.2500000
njepomagaju njebudu 0.0080645
njepomagaju njepomhaja 0.2500000
njepomagaju tu 0.0010616
igit tykń 0.0909091
igit iiih 0.5000000
igit iih 0.3333333
kordula cordula 0.1666667
aspekt aspekt 1.0000000
aspekt aspekta 0.6666667
jězdźidłom haj 0.0038760
rozesłała rozesłała 1.0000000
gójcowych lěkarskich 1.0000000
didaktiskimi didaktiskimi 1.0000000
wugótował wuhotował 0.5000000
dopomnjejoš dopomniš 0.5000000
prědka prědka 1.0000000
prědka přinjeseće 0.5000000
tšojeńskego podawkoweho 1.0000000
dopomnjeł dopomnił 0.6666667
dopomnjeł skedźbnił 0.5000000
dialekśe dialekće 1.0000000
wiźece widźace 1.0000000
pšašanjam prašenjam 1.0000000
dynamizaciju dynamizaciju 1.0000000
potencielnymi potencielnymi 1.0000000
marku wikowanske 0.1000000
marku marku 1.0000000
marku wikach 0.0857143
marku znamjo 0.0322581
marku wuwića 0.0294118
marku hriwnu 1.0000000
marku tu 0.0010616
marku njezwučene 0.3333333
narodniny narodniny 0.8000000
pśizwóliju přizwola 0.1666667
sportnišćo sportnišćo 1.0000000
pśewobrośenje přewobroćenje 1.0000000
piknuł piknył 1.0000000
piknuł njebě 0.0078740
alias alias 1.0000000
casnik wječornik 0.4000000
casnik ju 0.0025974
casnik nowina 0.7500000
casnik casnik 1.0000000
casnik nowinu 1.0000000
pśekśiwjenja zranjenja 0.2000000
njegótuj nječiń 0.4000000
njegótuj njestarosć 0.1538462
wóźidłom wodźidłom 1.0000000
znajo ma 0.0006658
znajo wě 0.0128205
znajo znaje 0.9642857
wótśišće wotćišće 0.8181818
póchłostane pochłostane 1.0000000
organizowanje organizowanje 0.5000000
wopytajomy spytamy 1.0000000
soketa socketa 0.5000000
zastajiło zawrěło 1.0000000
zastajiło zastajiło 1.0000000
wědomnosćow zaručić 0.0888889
wědomnosćow wědomosćow 1.0000000
wědomnosćow wědomosće 0.2631579
wóžywiś wožiwić 1.0000000
palce klanki 0.1176471
palce porsty 0.8000000
palce mjasne 0.5000000
palce palcy 1.0000000
mdn-dokumentacija mdn-dokumentacija 1.0000000
stawaj stawaj 1.0000000
młynskeje młynskeje 0.1250000
festiwala festiwala 1.0000000
festiwala spočatkow 0.4000000
dodawa dodawa 1.0000000
zdobywanje zdobyće 0.3333333
gumna jeho 0.0011848
gumna ćehnje 0.1250000
gumna tveiranoweje 1.0000000
gumna zahrody 0.2500000
gumna wróćo 0.0049261
gumna NULL 0.0001442
kokuli sekli 1.0000000
sudnikowu sudnikow 0.0645161
kołowrotny kołwrótny 1.0000000
zajtšu juhowuchodźe 0.5000000
klasiskego klasiskeho 1.0000000
pósejźenski posedźenski 0.0909091
sprjewja-nysa sprjewja-nysa 1.0000000
wurědnu wulkotnu 1.0000000
wurědnu nimorjadnu 1.0000000
wurědnu wurjadnu 0.5000000
minjonym minjenym 0.5000000
struktura struktura 1.0000000
voigt voigt 1.0000000
brjazyny brjazynu 0.3333333
dopórucenjami doporučenjemi 1.0000000
wěcejwarstowych wjaceworštowe 0.2500000
wuwołał wuwołał 0.2000000
pśemało přemało 0.9411765
zgubjowało wona 0.0014306
pśirucnik přewodnik 0.0454545
rozpšawjał nam 0.0022936
rozpšawjał rozprawjał 0.6666667
rozpšawjał rozprawješe 0.5000000
šlejfu seklu 1.0000000
metodowe metodowe 0.6666667
msg msg 1.0000000
das wostaju 0.0204082
das wačku 0.1000000
das to 0.0002115
das dać 0.0050761
glitch glitch 1.0000000
młodeju młodej 0.1818182
krotke krótke 1.0000000
krotke lěta 0.0022523
krotke hižo 0.0007628
krotke najdlěše 0.3333333
wikowarja wikowarja 0.5000000
unit unit 1.0000000
cesćejwužywańskich wróćomnych 1.0000000
digitalnem digitalnym 0.8000000
tšojenim podawkom 1.0000000
wjednikow wjednikow 0.7500000
wjednikow nawodow 0.8518519
morfologije morfologije 1.0000000
wójaka regimenta 0.1666667
wójaka wojaka 0.8928571
wójaka móhło 0.0078740
wójaka nahłownik 1.0000000
pśisłušajucych přisłušacych 0.3636364
pśěgom zapřah 0.2222222
pśěgom zapřahom 0.6666667
wjelikimi wulkimi 0.8333333
wjelikimi wulke 0.0137931
hymaptego čumpacy 0.0769231
hymaptego njeje 0.0006317
hymaptego čołmik 0.0400000
hymaptego za 0.0001272
pśistajone přistajeni 0.9411765
pśistajone personal 0.0192308
pśistajone přistajene 0.5000000
pśistajone institucijow 0.0298507
pśistajone dźěłaćerki 0.5000000
wobtužyjo tyši 1.0000000
płaśiwy płaćiwe 0.0222222
płaśiwy NULL 0.0002883
płaśiwy płaćiwy 0.9516129
zwobraznjone pokazane 0.5000000
pśesłaby přesłaby 1.0000000
pódawa poda 0.0555556
pódawa skići 0.0273973
pódawa podawa 0.8823529
pódawa podawajo 1.0000000
pódawa dawa 0.0281690
kralojske kralowscy 1.0000000
kralojske kralowske 0.5000000
słuchograśami słuchohrami 1.0000000
koslowa koslowa 1.0000000
d-derje d-derje 1.0000000
zaźarž NULL 0.0001442
wobstate wobstate 1.0000000
zaběrała zaběrała 1.0000000
big big 1.0000000
zakłoje žratwa 0.2500000
zakłoje za 0.0001272
zakłoje wójska 0.1000000
zakłoje być 0.0014045
slinik šlink 1.0000000
wusokošulskej wysokošulskej 1.0000000
manager managera 0.1000000
manager manager 1.0000000
manager organizowana 0.5000000
decentralizaciju decentralizaciju 1.0000000
roznosował roznošował 1.0000000
wudobył wudoby 0.3333333
towarišow towaršow 1.0000000
judaš judaš 1.0000000
wótrědnica wotrjadnica 0.1428571
twóŕbow wudźěłkow 1.0000000
formularowu formularow 0.1111111
cuśniwe čućiwe 1.0000000
źěłach zdźěla 0.0181818
źěłach dźěłach 1.0000000
załožyjośo załožiće 1.0000000
po-po-pomoc pomoc 0.0045455
po-po-pomoc n-na 0.3333333
ndrskem ndrskim 0.5000000
pśisłušnymi přisłušnymi 1.0000000
wognjowa wohnjowa 1.0000000
wognjowa wohnjomurja 0.5000000
źěło komuny 0.0392157
źěło dźěło 0.9654428
źěło přinjesło 0.1666667
źěło nadawk 0.0099502
źěło wěcka 0.1000000
źěło dźěła 0.0095847
źěło wěc 0.0222222
źěło zaběra 0.0277778
źěło wosadu 0.1818182
źěło NULL 0.0007208
źěło 13.2.1 0.2500000
źěło dojězdźowarjow 0.3333333
źěło dźěłać 0.0166667
źěło skepsana 0.3333333
źěło horić 0.5000000
pólskeje pólskeje 1.0000000
póraju pohonjeja 0.6666667
póraju su 0.0003007
lodowu lodarnju 0.5000000
lodowu lodowu 1.0000000
wupomogański wupomocny 1.0000000
nimsko-słowjańskeje němsko-słowjanskeje 1.0000000
zeserbšćiła zeserbšćiła 0.2500000
spóznajomne spóznajomne 0.2857143
xpath-wuraza xpath-wuraza 1.0000000
běłučke sněhběłe 0.1111111
boga wboha 0.6666667
boga wočomaj 0.2000000
boga bohom 0.1000000
boga boha 0.9117647
boga wbohe 0.1666667
wurědnjaju porjeńša 1.0000000
dimensiji dimensiji 1.0000000
koresponděrujo koresponduje 1.0000000
wgótujoš činiš 0.0434783
regina regina 1.0000000
wulaś. wuleć 1.0000000
drježdźańskeju drježdźanskej 0.3333333
stojało steješe 0.2203390
stojało stało 0.0400000
bórkowam borkowam 1.0000000
wurejtował wujěchał 1.0000000
studěrujuce studenća 0.0400000
źiwajuce wobkedźbowace 1.0000000
studiumje studiju 0.0833333
wobměru wobjim 0.2000000
pódaneju podatej 0.6666667
slědny poslednje 0.0322581
slědny minjeny 0.4666667
slědny posledni 0.8421053
slědny tydźenja 0.0153846
slědny poslednja 0.2142857
slědny prěni 0.0049505
stephanowa stephanowa 1.0000000
kórtow kartow 1.0000000
zrozměś zrozumić 0.1666667
gótujo budźe 0.0017452
gótujo pječe 0.3333333
gótujo zabawja 0.5000000
gótujo zhotowja 0.6666667
gótujo zda 0.0090090
gótujo čini 0.1159420
suknje šat 0.1428571
suknje płaće 1.0000000
suknje šaty 0.3333333
chódotu wjeru 1.0000000
padnuła padnyła 0.6666667
padnuła padny 0.5000000
padnuła w 0.0001031
pódpěras podpěrać 0.0149254
kótrež kotrež 0.0042787
zestawa zestawa 0.3750000
familiju swójbu 0.5312500
familiju swójbje 0.0357143
webzgromaźeństwa webzhromadźenstwa 1.0000000
objekty objekty 0.8571429
objekty zarjadnišća 0.1000000
rědnjejša je 0.0000896
rědnjejša rjeńša 1.0000000
rědnjejša rjeńši 1.0000000
107 107 1.0000000
4,60 4,60 1.0000000
opcije opcije 0.8333333
kompleksna kompleksna 1.0000000
ndrskego ndrskeho 1.0000000
absolwěrowanje absolwowanje 1.0000000
śišćaŕska někajka 0.1428571
śišćaŕska ćišćerska 1.0000000
zacytajotej začitatej 1.0000000
diplomowych diplomowych 1.0000000
popajźeństwa odnorfa 0.1250000
popajźeństwa jastwa 0.3200000
popajźeństwa swobody 0.2000000
popajźeństwa sćazanja 0.4285714
popajźeństwa zajeća 1.0000000
popajźeństwa přistupi 0.1666667
kuchnje kuchnje 0.9166667
twórjeńskim twarjenskim 1.0000000
spěchowanju spěchowanju 0.9180328
spěchowanju spěchowanja 0.0188679
spěchowanju spěchowanje 0.0134228
śěžko chětro 0.0078740
śěžko wotmołwju 0.1111111
śěžko NULL 0.0001442
śěžko ćežce 1.0000000
śěžko běše 0.0152905
śěžko wostudło 0.2000000
śěžko ćežko 0.8732394
śěžko smjerć 0.0526316
nastupaju zaměra 0.0666667
nastupaju activity 0.1250000
nastupaju nastupaja 0.6153846
nastupaju załožboweho 0.1111111
kólasowaś kolesować 1.0000000
pśedboki předstrony 1.0000000
wjelikowezir wulkowezir 1.0000000
intensiwnje intensiwnje 1.0000000
intensiwnje naležnje 1.0000000
intensiwnje mjeztym 0.0120968
pśedznaśami předznajomosćemi 1.0000000
wěcejprocesowy wjaceprocesowy 1.0000000
pśedawaś předawać 0.7500000
dowjadło wjedł 0.2500000
dowjadło dowjedło 1.0000000
pśěglědowanjeju přepruwowanju 0.0357143
njebja wyše 0.0153846
njebja njebjes 1.0000000
njebja ' 0.0016807
njebja raja 0.1000000
njebja njebjesa 0.4545455
njebja njebja 1.0000000
bójach bojach 1.0000000
faraŕski farski 1.0000000
faraŕski měšniski 1.0000000
swójich srjedźizny 0.2500000
swójich wašich 0.0076923
swójich rozjasni 0.1111111
swójich swojich 0.9397590
swójich NULL 0.0001442
swójich swójskich 0.1333333
swójich swojej 0.0090090
swójich přiwisnikam 0.5000000
swójich swojeje 0.0163934
swójich jeje 0.0040650
swójich syncbrand.shortname.label 0.0370370
kaznju zakonjom 1.0000000
openpgp-kluca openpgp-kluča 1.0000000
bjeru wozmu 0.0571429
bjeru bjeru 0.6000000
bjeru NULL 0.0001442
góra hora 1.0000000
kmótšojska kmótřiska 1.0000000
wuběgaju ćěkaja 1.0000000
njepśigódnego njepřihódneho 1.0000000
2020 2020 1.0000000
napšawam naprawam 1.0000000
napšawam komunalnych 0.0476190
napšawam teritorialnych 0.5000000
pśełožowaś přełožować 0.9411765
1300 1300 1.0000000
załamowała załamowała 1.0000000
reducěrujo redukuje 1.0000000
tłustej tołstej 1.0000000
rěčice rěčicy 0.6000000
pólach polach 0.9411765
pólach honach 1.0000000
pólach NULL 0.0001442
pólach skutkowanja 0.0185185
klapowało so 0.0003862
klapowało poradźi 0.0384615
klapowało wotběžało 0.2500000
klapowało poradźiło 0.0588235
njewótpowěduju njewotpowěduja 1.0000000
tśiapołsta třiapołsta 1.0000000
tradicionelny tradicionelny 1.0000000
narodnemu narodnemu 0.5000000
narodnemu narodninam 0.2000000
wikowanišćotorhošćo torhošćo 0.0769231
katolikam katolikam 1.0000000
personalizěrowany personalizowany 1.0000000
rězbarja rězbarja 1.0000000
zwuraznijośo zwurazniće 1.0000000
pśiwdał přizna 0.1000000
spóznała spóznała 1.0000000
spóznała spóznało 0.5000000
spóznała zeznała 0.2000000
spóznała spózna 0.5000000
wjelickano wulce 0.0769231
akademikarjow akademikarjow 1.0000000
drěś wołać 0.0909091
engelskorěcneje jendźelskorěčneje 1.0000000
zastajali zašlahali 1.0000000
źěłazamóžnosći dźěłakmanosće 0.2500000
cyta čita 0.9411765
marta marta 1.0000000
politiki politiki 1.0000000
pódpołdnjowy južnje 1.0000000
pódpołdnjowy južny 1.0000000
zubow zubow 1.0000000
nawěza nawjaza 0.2500000
napadojte wohrožene 0.0909091
wusći zo 0.0001739
wusći powalił 0.3333333
wusći by 0.0009050
swójstwa swójstwa 1.0000000
8.2.3 8.2.3 1.0000000
licho wólnje 1.0000000
licho swobodnje 0.3571429
dodali dodali 1.0000000
listowej lisćowej 0.3333333
doglědował dohladował 1.0000000
wuznamom wuznamom 1.0000000
jatšownej jutrownej 0.8888889
wěstota wěstota 1.0000000
wikach wikach 0.9142857
wikach přewzali 0.3333333
wikach torhošću 0.0357143
tekstowe tekstowe 1.0000000
tekstowe tekstowy 0.2000000
problemy problemow 0.0294118
problemy problemy 0.9841270
problemy starosće 0.0384615
problemy rozrisajće 0.2000000
problemy ćeže 0.0238095
problemy naležnosće 0.0084746
wótkubłarjow kubłarjow 0.7692308
wótkubłarjow pěstowarkow 0.2500000
wótkubłarjow kubłarjam 0.2500000
synka synka 1.0000000
spiwała zaspěwała 1.0000000
spiwała spěwała 1.0000000
zaspiwaj zaspěwaj 1.0000000
dowole dowoleja 0.5000000
debitnu debitnu 1.0000000
wuźěkowaś dźakować 0.1363636
wuźěkowaś mam 0.0029412
zwěazaś zwjazać 0.0163934
wisajucym wisacym 1.0000000
zagóritosć zahoritosć 0.5000000
zagóritosć wubudźeć 0.5000000
zagóritosć serbsku 0.0050000
zagóritosć kulturu 0.0114943
drjewowe šćěpki 0.1250000
nabydnu nabudźe 0.2500000
nabydnu nabudu 0.4000000
smtp-serwerom smtp-serwerom 1.0000000
snapdragon snapdragon 1.0000000
pśichadachu přińdźechu 0.1666667
technologiskim technologiskim 0.5000000
njejsui protyki 0.0400000
njejsui namakane 0.0270270
njewuslěźujośo njewuslědźiće 1.0000000
pattarina pattarina 1.0000000
nagrona narěče 1.0000000
bryzgawy pryskadle 1.0000000
lašujo haša 1.0000000
lašujo zhaša 0.0487805
bonował roboćił 1.0000000
musył dyrbjach 0.0588235
musył dyrbještej 0.2500000
musył dyrbjał 0.0650407
musył dyrbjesće 0.5000000
raz128 128 0.3333333
raz128 króć 0.0178571
wikowym wikowanskim 1.0000000
studied studied 1.0000000
wobrězujo běli 0.5000000
kótarejž kotraž 0.0024450
kótarejž kiž 0.0021142
kótarejž kotrajž 0.7500000
kótarejž kotrejuž 0.1666667
kótarejž kotremuž 0.0434783
kótarejž kotrež 0.0012225
kótarejž kotrejž 0.6170213
kótarejž kotrymž 0.0063694
kótarejž kotryž 0.0015221
kótarejž artikla 0.0833333
kótarejž NULL 0.0001442
eksperimentelne eksperimentelne 1.0000000
eksperimentelne wujasńće 0.3333333
slědkwołanje wróćowołanje 1.0000000
watšow plistow 0.5000000
wašnju nawróćić 0.1666667
wašnju mnohostronsce 0.3333333
wašnju zachribjetne 0.2000000
wašnju puću 0.0084034
wašnju wašnju 0.1111111
wašnju tak 0.0012771
wašnju wašnja 0.0454545
wašnju wašni 0.3333333
wašnju wašnje 0.5937500
wašnju tworu 0.1428571
wašnju rjadowanje 0.0476190
wašnju prošu 0.0013158
wašnju po 0.0005741
wašnju někak 0.0140845
wobkšuśiło přepruwowane 0.0526316
wobkšuśiło wobkrućiło 1.0000000
zapśisegańcam přisahancam 1.0000000
pśirodneju přirodnej 0.2000000
pósćiwamy wěnujmy 1.0000000
wobglědowašo wobkedźbowaše 1.0000000
wobglědowašo wobhladowaše 1.0000000
dobre słódne 0.0909091
dobre dobre 0.8897059
dobre dobry 0.0329670
dobre wulkotne 0.0222222
dobre skepsana 0.3333333
dobre dobro 0.0833333
dobre přećelne 0.1000000
dobre zmysł 0.1250000
dobre fungować 0.0526316
dobre dušni 1.0000000
dobre wušne 1.0000000
dobre wuspěcha 0.0625000
dobre toho 0.0014771
dobre dobrym 0.0666667
dobre NULL 0.0005766
dobre dobrych 0.0714286
dobre derje 0.0026810
dobre krasna 0.1000000
dobre čołmika 0.0833333
dobre njemóhła 0.2000000
dobre wjele 0.0016287
dobre wozjewjam 0.5000000
bdu NULL 0.0001442
bdu přemyslu 0.0909091
februarom februarom 1.0000000
jěźenju jědźenju 1.0000000
warnowaś warnować 1.0000000
warnowaś hesło 0.0030488
warnowaś hłowne 0.0147059
warnowaś wužiwało 0.1250000
wobpśimuju wobsahuja 0.0909091
georgiskeje georgiskeje 1.0000000
datajowu datajowu 0.7142857
pśisłušnego přisłušneje 0.3333333
tweety tweety 1.0000000
składowało składował 0.0526316
składowało powěsćowy 0.0476190
składowało składowało 0.1666667
formujom formuju 1.0000000
notny nastroj 0.0294118
notny trěbny 0.0370370
pśeznanjone přeswědčeni 1.0000000
dogronach zrěčenjow 0.0500000
dogronach dojednanjach 1.0000000
nowowusměrjenje nowowusměrjenje 1.0000000
casowem časowym 0.3000000
pódpołnocneje sewjerneje 1.0000000
pódpołnocneje sewjerorynsko-westfalskeje 0.3333333
wzeło to 0.0002115
wzeło tebje 0.0084034
wzeło zlě 0.0769231
wzeło za 0.0001272
njeskłaźone njeskładowane 0.7142857
njeskłaźone hišće 0.0007559
kazał přeprosył 0.0833333
kazał přikazał 0.1250000
zmarzlinu zmjerzlinu 1.0000000
ceptarja wučerja 0.2000000
pśežywimy wójnu 0.1111111
10-lětny 10-lětny 1.0000000
drastwa drasty 0.0063694
drastwa drasta 1.0000000
zasuwałko zasmyk 1.0000000
makowa makowa 0.3333333
klawsula klawsula 1.0000000
slanju slanju 1.0000000
srjejźonimskego srjedźoněmskeho 1.0000000
appbuildid appbuildid 1.0000000
cil cil 0.6458333
dogrono zrěčenju 0.0277778
dogrono zrěčenje 0.9302326
zagrajśo lóštny 0.2500000
zagrajśo zahrajće 0.6666667
wótpósłarjeju wotpósłarjej 1.0000000
pśeźěłało předźěłał 0.2500000
pśeźěłało předźěłało 1.0000000
jadnosame jednotliwe 0.0119048
pógódnośćo pohódnoćće 1.0000000
referendarow referendarow 1.0000000
rědnučki wulkotny 0.0555556
rědnučki potom 0.0036563
rědnučki krasny 0.0769231
menijoju menijej 1.0000000
menijoju dodać 0.2000000
synchronizěrowanym synchronizowane 0.0666667
nimjernego wěčneho 0.5000000
njewócakowanu njewočakowane 0.0909091
zběranišćow zběranišćow 1.0000000
pómjenjona mjenowana 0.1428571
wuwinuś wuwinyć 0.5000000
nazwucowali sej 0.0005653
nazwucowali nazwučowali 1.0000000
nazwucowali nazwučowachu 0.5000000
nazwucowali NULL 0.0001442
njesromna šamały 1.0000000
njesromna lóza 1.0000000
njesromna ty 0.0019011
zagnězdźiju zahnězdźa 1.0000000
ześěgowanju sćahowanju 0.6666667
ześěgowanju sćehnjenju 0.5000000
gaty haty 1.0000000
pózabył pozabył 1.0000000
łdganim tebje 0.0084034
łdganim za 0.0001272
łdganim łžě 0.1250000
5000 5000 0.6666667
kamjenjowe kamjentnowuhlowu 0.2500000
adresěrowańskemu adresowemu 1.0000000
teptane steptani 1.0000000
symetriju symetriju 1.0000000
pückler pückler 1.0000000
wudrogowanych wupućowanych 1.0000000
wobhladujo so 0.0000772
kontrolow kontrolow 1.0000000
aktiwizm zajimujeće 0.0434783
aktiwizm aktiwizm 1.0000000
slědujśo sćěhujće 0.3333333
slědujśo slědujće 0.9565217
burom burom 1.0000000
pśedsedarjeju so 0.0001545
pśedsedarjeju předsydźe 0.5714286
intelektuelnego intelektualneho 1.0000000
licadła.šćita ličaka.škita 1.0000000
zarjagotało zawrjeskało 1.0000000
wótchylne wotchilne 1.0000000
tabela tabela 1.0000000
póśěgow poćahow 1.0000000
noser nošer 0.0123457
rownała runała 1.0000000
rownała maturantam 0.3333333
casowego časoměra 0.5000000
casowego časoweho 0.5000000
mytowych mytowanskich 1.0000000
nazgóniju dožiwja 0.1666667
nazgóniju dožiwjeja 0.2307692
běžnjejše běžniše 1.0000000
wowčerjowa wowčerjowa 1.0000000
startowany startowany 1.0000000
aktualizěrowali aktualizowali 1.0000000
aktualizěrowali zaktualizowali 0.1428571
aktualizěrowali aktualizowachu 1.0000000
pód psychiskej 0.5000000
pód po 0.0011481
pód strowota 0.3333333
pód NULL 0.0001442
pód wětřikej 0.3333333
pód w 0.0003094
pód pod 0.9506579
pód z 0.0001349
pód wienom 0.3333333
pód pozdźišej 0.2000000
pód njebudźe 0.0173913
narska sama 0.0263158
narska wćipna 0.5555556
winicaŕka winicarka 1.0000000
basenku basenku 1.0000000
interagěrujomy interagujemy 1.0000000
njepasujo njendźe 0.2500000
njepasujo njehodźi 0.0465116
njepasujo jim 0.0042194
njepasujo łopaću 0.1250000
njepasujo so 0.0000772
njepasujo reliefa 0.3333333
njepasujo njeńdźe 0.0500000
milinoweje milinoweje 1.0000000
cerwjow wački 0.1000000
pśewiźonem přewidnym 1.0000000
amo-admins amo-admins 1.0000000
měšane měšane 0.2000000
měšane měšany 0.3333333
wólnosć bydlenskeho 1.0000000
wólnosć swobodu 0.1200000
wólnosć wuzwolenja 0.5000000
wólnosć městna 0.0190476
zabrał minimalny 0.2500000
zabrał wobsadźił 1.0000000
zabrał zabra 0.2500000
rozměli rozumil 1.0000000
rozměli zrozumili 0.6153846
rozměli rozumili 0.7500000
pufrowakowym pufrowakowym 1.0000000
« " 0.0033822
« « 1.0000000
pśedkładkami předłohami 1.0000000
pśedkładkami předłohi 0.0869565
pódpołdnjowego južneho 1.0000000
startowało startowało 1.0000000
startowało startowaše 0.5000000
tym preč 0.0192308
tym započał 0.0227273
tym nastaćom 1.0000000
tym to 0.0010573
tym nimi 0.0075758
tym slědami 0.2000000
tym dawajo 0.2500000
tym wothłosujo 0.2500000
tym rozbudźenym 0.5000000
tym přidawajo 0.2500000
tym słóncom 0.1666667
tym wulkim 0.0204082
tym zwonić 0.1000000
tym was 0.0023866
tym zwarnuj 0.2000000
tym wuměłstwje 0.1250000
tym samsnym 0.1212121
tym darujo 0.2500000
tym eurom 0.3333333
tym startujo 0.2500000
tym tak 0.0006386
tym slědej 0.5000000
tym napinać 0.1250000
tym předchadny 0.2500000
tym přizjewjejo 0.2500000
tym tłóčo 0.3333333
tym tworjo 0.2500000
tym zjednorja 0.1666667
tym njespja 0.5000000
tym konta 0.0085470
tym čitanjom 0.1428571
tym nim 0.0165289
tym wužiwajo 0.0833333
tym pokročować 0.0363636
tym wobswětom 0.5000000
tym wonym 0.2500000
tym přepruwowanjom 0.5000000
tym čitajo 0.2500000
tym knižneho 0.3333333
tym skenowanja 0.5000000
tym jenakim 0.4000000
tym chlěbom 0.5000000
tym NULL 0.0031714
tym wuběrajo 0.2500000
tym toho 0.0014771
tym přepruwujo 0.3333333
tym broju 0.0714286
tym knize 0.0476190
tym rozhorju 0.2000000
tym informujo 0.2500000
tym tej 0.0833333
tym njej 0.0183486
tym kruchom 0.2000000
tym tym 0.2886683
tym ćahajo 0.3333333
tym mučne 0.4000000
tym tu 0.0010616
tym kombinujo 0.2500000
tym kliknjo 0.2500000
tym njekedźbuje 0.1666667
tym njeplecha 0.2500000
tym zjewić 0.1250000
tym tutym 0.1258106
tym njewupada 0.0476190
tym njezwjazam 0.5000000
tym kralom 0.0625000
tym njemóžu 0.0121212
tym smjertnym 0.2500000
tym pytajo 0.2500000
tym aktualizujo 0.2500000
tym groćikom 0.1250000
lětnem počasu 0.1818182
wobdariju wobdarja 1.0000000
pótrěbnosćami potrěbnosćemi 1.0000000
cakańske čakanske 1.0000000
zwobraznijo zwobrazni 1.0000000
zwobraznijo zwobraznja 0.0952381
wobwězk dał 0.0158730
wobwězk mjedwjedźa 0.0192308
wobwězk naručnicu 0.2500000
wobwězk šijowy 0.5000000
wobwězk rynku 0.0833333
2010 2010 0.9230769
2010 NULL 0.0001442
kólasaŕske kolesowanske 1.0000000
nicogo ničeho 0.5000000
nicogo wjace 0.0012438
nicogo druhim 0.0061728
nicogo ničim 0.5000000
dyrdakojstwach sej 0.0005653
dyrdakojstwach dyrdomdejach 1.0000000
zagłowku spaše 1.0000000
zagłowku zawku 1.0000000
toaletowa wustupowa 1.0000000
toaletowa nuznikowa 0.5000000
toaletowa hajzlowa 1.0000000
źěłanju dźěłanju 1.0000000
wjeńcyna wjeńcyna 0.6666667
pómjeńšyś pomjeńšić 0.6923077
zacynja začinja 0.6666667
ześěgnjeńskemu sćehnjenskej 1.0000000
pointerevent.pressure pointerevent.pressure 1.0000000
pśerejował přerejował 1.0000000
fokusěrowaś fokusować 1.0000000
jadnarja jednaćela 1.0000000
jadnarja jednaćelej 0.5000000
janka janka 0.7272727
janka johnny 1.0000000
janka stać 0.0107527
janka wulkotnym 0.2000000
zwisujuce zwisowacych 0.3333333
zabra zabra 0.5000000
papjeru papjery 0.0500000
papjeru papjeru 0.3750000
papjeru nochcu 0.0018519
papjeru dokument 0.0144928
papjeru wěrnosću 0.2500000
zwězkowych zwjazkowych 1.0000000
panweje pónoje 1.0000000
zapisany zapisany 1.0000000
zapisany zakótwjeny 0.0909091
tykańca tykancu 0.3333333
tykańca tykanca 1.0000000
pódwjacornego zapadneho 1.0000000
diskutěrujomy diskutujemy 1.0000000
kowaloju kowarjej 1.0000000
kowaloju jón 0.0025253
spěcha pohonili 0.3333333
wobtykowaś wobtykać 0.2000000
dojśpiśo docpějće 1.0000000
bsz bsz 1.0000000
spódobało spodobało 0.7500000
spódobało lubiło 0.5714286
kóńcuju niča 0.6666667
kóńcuju přiwěški 0.0909091
future future 1.0000000
mjoda płasta 0.2000000
mjoda dla 0.0034722
mjoda mjedu 0.2666667
glucnje zbóžnje 0.5000000
glucnje zbožowni 0.2000000
glucnje zbožownje 0.2500000
glucnje wšitcy 0.0078125
glucnje njejsu 0.0024390
dochadajucu dochadźacu 0.5000000
zwěrjetach zwěrjatach 0.3333333
njelažy tola 0.0029240
njelažy NULL 0.0002883
njelažy njepowali 0.5000000
njelažy njeleži 0.2500000
pantochlach toflach 1.0000000
pśepódał přepodał 0.7368421
pśepódał NULL 0.0002883
miły miły 1.0000000
koparje koparjo 0.7500000
kapałka kapałka 1.0000000
znjemóžniś. znjemóžnić. 0.5000000
duch ducho 1.0000000
duch duch 0.7209302
duch dalši 0.0092593
duch – 0.0014684
duch NULL 0.0002883
duch demonje 0.5000000
duch nahrabny 0.0666667
numeroju čisłu 0.5000000
wobstaraŕ zastaraćel 0.3333333
dopóruconym doporučenym 1.0000000
dopóruconym přebywał 1.0000000
pórědnosć porjadnosć 1.0000000
zastupnikojskich zastupniskich 1.0000000
.txt .txt 1.0000000
kontaktěrował zwiska 0.0086207
kontaktěrował tutoho 0.0024510
kontaktěrował stajić 0.0105263
kontaktěrował kontaktował 1.0000000
šaparjam wowčerjam 1.0000000
kóleni kolena 1.0000000
font-variant font-variant 1.0000000
komunikaciju komunikaciju 1.0000000
lšowaś zhašeć 0.0053191
njedotyknjom dótkać 0.1111111
njedotyknjom jeje 0.0040650
njedotyknjom ćernjow 0.5000000
zawěraju zawru 0.6666667
grodu moritzburga 0.1250000
grodu nutř 0.0208333
grodu hroda 0.7142857
grodu hrodu 0.3000000
grodu NULL 0.0001442
kw. kw. 1.0000000
tšosšku něšto 0.0017986
tšosšku marmelady 0.5000000
pśepšosenjow přeprošenjow 1.0000000
tutych tutych 0.0041841
pśistajenja přistajenja 1.0000000
pśistajenja garantiju 0.1428571
cełostne cyłostne 1.0000000
cełostne cyłotne 1.0000000
cełostne dožiwjenje 0.0307692
½ ½ 1.0000000
smolerja smolerja 0.1250000
režiju režiju 1.0000000
svg-reference svg-referency 1.0000000
rozdźělenim rozdźělenjom 1.0000000
tšojicy trojicy 0.5000000
voice voice 0.9896907
spěšnemu spěšnemu 0.5000000
zběrašo zběraše 0.5000000
busowy šofer 0.2500000
póstupowanja wotewrjeny 0.0333333
póstupowanja postupowanja 1.0000000
póstupowanja puća 0.0740741
póstupowanja jednanja 0.0243902
póstupowanja zakročenja 1.0000000
połoženja stejnišća 0.0952381
połoženja połoženja 1.0000000
zjadnośeństwam zjednoćenstwam 0.3333333
mójomu mój 0.0035461
mójomu swojemu 0.0434783
mójomu mojemu 0.3333333
mójomu zatepił 0.2000000
worklecy worklecy 0.5555556
worklecy přewjedźeny 0.3333333
ewangelskeju ewangelskej 0.2500000
manźelsku mandźelsku 0.5000000
měkeje mjechkeho 1.0000000
pśědu přadu 1.0000000
fryšnem čerstwym 0.5000000
lětnego lětneho 1.0000000
opozicije opozicije 1.0000000
góspodaŕskim hospodarskim 0.2142857
góspodaŕskim hospodarski 0.0227273
zaguslowaś zakuzłać 1.0000000
stajarjami stajerjemi 1.0000000
muzealna muzealna 1.0000000
lězenjeju krosnowanju 1.0000000
žołtobruny žołtobruny 1.0000000
połkupa połkupa 1.0000000
ravensbourne ravensbourne 1.0000000
best best 1.0000000
etiskimi etiskimi 1.0000000
wopisanym wopisanym 1.0000000
solidarnej solidarnej 1.0000000
wukubłańskich wukubłanskich 0.7142857
knězowej domje 0.0131579
zajmjejośo zhašeš 1.0000000
wótrězkom wotrězkom 0.5000000
pušelom čećikom 1.0000000
pódzajtšna wuchodna 1.0000000
góleśim dźěsćom 1.0000000
prewentaciske prewenciske 1.0000000
pśisegam přisaham 0.5000000
gólnik hajnik 0.2000000
gólnik lěsnik 0.7142857
pśedšulskich předšulskich 0.9166667
kupowaŕ kupc 0.5000000
wě-wětšy w-wjetšina 0.5000000
mandragora mandragora 1.0000000
wójcu namakał 0.0087719
wójcu wowcu 1.0000000
markěrowane woznamjenjene 0.1250000
markěrowane markěrowane 1.0000000
naglědniwych cyle 0.0114943
naglědniwych nazornych 1.0000000
nadebor nadebor 1.0000000
operetowymi operetowymi 1.0000000
njewubójana njehaćene 0.1250000
ł wočinił 0.0714286
železniskej železniskej 0.3333333
łužycanaŕ łužičan 1.0000000
preload preload 1.0000000
preload začitała 0.1666667
li hač 0.0012610
li jeli 0.0030060
li puć 0.0081301
li nazymnju 0.1000000
li li 0.0666667
li tola 0.0029240
startowej startowej 0.3333333
kšasna krasna 0.1000000
kšasna překrasna 1.0000000
wótegrona wažnymi 0.2000000
wótegrona wotmołwy 0.9661017
wótegrona wotmowłwy 1.0000000
wótegrona nimaja 0.0161290
wótegrona wotmołwami 0.0625000
krawčikec hodź 0.1250000
krawčikec krawčikec 1.0000000
krawčikec do 0.0003275
krawčikec chrósćic 0.0588235
mandatom mandatom 1.0000000
nadrědowane nadrjadowane 1.0000000
pókładami bohatstwa 0.0434783
pókładami pokładami 1.0000000
tšachach strachach 1.0000000
planowanemu planowanemu 1.0000000
pómyslone namyslene 1.0000000
magacin magacin 1.0000000
konsultěrujśo konsultujće 1.0000000
konsultěrujśo skonsultujće 0.5000000
grědu hrjady 0.1666667
grědu hrjadu 1.0000000
wumucyli rozzłobi 0.1428571
wumucyli času 0.0068493
wumucyli na 0.0001166
wumucyli mučne 0.2000000
wumucyli čert 0.0588235
dolnoserb delnjoserb 0.6666667
njemódlimy modlić 0.0769231
rozmějuce zrozumjace 0.8461538
rozmějuce rozumjace 1.0000000
njegótuju njezhotowja 1.0000000
bity bity 1.0000000
partnaŕske partnerske 1.0000000
wuźenju wuda 0.0769231
tusniśo podótkńće 0.1363636
tłocćo klikńće 0.0054054
tłocćo tłóčće 1.0000000
koleginy koleginy 0.7142857
fantaziji fantaziji 0.5000000
layouśe kónčiny 0.0256410
tśeśim třećim 0.7500000
tśeśim na 0.0001166
tśeśim třećich 0.0158730
šulach šulach 0.9731544
šulach NULL 0.0002883
šulach šuli 0.0056818
docynjenju spjelnjenu 1.0000000
pśeskokujo přeskakuje 1.0000000
wóstaś wona 0.0028612
wóstaś kwasej 1.0000000
wóstaś wostać 0.9393939
wóstaś wostanje 0.0119760
wóstaś być 0.0014045
wóstaś tam 0.0014347
wóstaś NULL 0.0001442
wóstaś dźeržała 0.1666667
klincaś klinčeć 1.0000000
pišćo spisajće 0.3333333
pišćo pisajće 1.0000000
pišćo zdźělće 0.0071942
matematikarja mandźelskeju-matematikarjow 0.2000000
94 94 1.0000000
cerwjenem čerwjenym 0.2000000
towarišnych zabawnych 0.2857143
prjatkowała prědowała 1.0000000
pśesuwaś přesuwać 1.0000000
tekstury tekstury 1.0000000
wupłakaś wupłakać 1.0000000
wótzamknjenjach , 0.0000320
wótzamknjenjach master-dźěłach 0.5000000
parisoju parisej 1.0000000
wulu kołću 1.0000000
zešywk zešiwk 0.9583333
zešywk zešiwku 0.4000000
zešywk w 0.0002063
nslź nsldź 0.8260870
api-wersija api-wersija 1.0000000
kompetency kompetency 0.0312500
hygienu ćěła 0.1000000
mějarjami mějićelemi 1.0000000
wótźělenja wotrjadnik 0.5000000
wótźělenja wotrjadnica 0.4285714
kaccynym kačej 1.0000000
pśikrotcyli skrótšili 0.5000000
wjednikowu wjednikow 0.2500000
wjednikowu nawodow 0.0740741
pšosyśo prosyće 1.0000000
getattributenode getattributenode 1.0000000
centojsku centowsku 1.0000000
238210 238210 1.0000000
mjazenarodnje mjezynarodnje 0.1818182
sek sek 1.0000000
pśemjeniś přemjenować 0.8000000
susanny susanny 1.0000000
priwatna priwatna 0.7142857
góspodarje hospodarjeja 1.0000000
guslowarja kuzłarjow 0.2000000
guslowarja kuzłarjom 0.2000000
guslowarja kuzłarja 0.6521739
guslowarja kuzłar 0.0344828
guslowarja kuzłarnika 1.0000000
guslowarja činkarja 1.0000000
ześěgujo sćahuje 0.7500000
krynhelec krynhelec 1.0000000
muzeja muzeja 0.8750000
grafikaŕku grafikarku 1.0000000
njezlěkajśo njestróžće 0.5000000
wótkšytymi wotkrytymi 1.0000000
zapśimjejo zapřija 0.2777778
zapśimjejo zapřijmje 1.0000000
telemetrijowyma telemetrijowymaj 1.0000000
šapaŕnju wowčernju 1.0000000
sseamonkeys sseamonkeys 1.0000000
teje prowincy 0.5000000
teje tohole 0.1304348
teje wona 0.0014306
teje poslešća 0.0526316
teje teje 0.5833333
teje tuteje 0.3833333
teje přińć 0.0344828
teje křižerjo 0.0222222
teje helskim 0.5000000
teje čorneje 0.3333333
teje zela 0.0909091
teje cyłowokrjesneje 1.0000000
teje wustawy 0.0909091
teje bědneho 0.2000000
teje nahraća 0.1428571
teje kuli 0.2000000
teje krasna 0.1000000
teje jastwa 0.0400000
teje cokora 0.0909091
teje wotwidźeć 0.5000000
teje prózdnjeńcy 0.0416667
teje sam 0.0056497
teje tež 0.0004021
teje schwalenja 0.2500000
teje produktowej 0.0769231
teje tutoho 0.0147059
teje lodźaneje 0.5000000
teje samsneje 0.2727273
teje króny 0.1666667
teje toho 0.0044313
teje dźensa 0.0061350
teje sławneje 0.3333333
teje hele 0.1428571
teje NULL 0.0014415
teje hladatej 1.0000000
płomje dźěćiznak 0.5000000
płomje płomjo 0.7500000
płomje płomjom 1.0000000
wócko wóčko 0.5714286
wócko njewidźi 0.1428571
sblokěrowaki wuběra 0.0909091
sblokěrowaki sblokowak 1.0000000
kupujośo kupujeće 1.0000000
pógnuwajuce pohonjace 1.0000000
wobělony struhany 0.6666667
napity napity 1.0000000
napity alkoholizowany 1.0000000
pósłuchaś słuša 0.0060976
pósłuchaś poskać 0.3529412
pósłuchaś posłuchać 0.8000000
wótgraśe wothraće 1.0000000
kristu chrystusu 0.2727273
nawigaciju nawigaciju 1.0000000
njejěźe rozzłobjenemu 0.3333333
njewěriš wěrić 0.1428571
stśělbow třělbow 1.0000000
stwóŕba njemóže 0.0072464
stwóŕba nowe 0.0023866
stwóŕba NULL 0.0001442
stwóŕba stworjenje 0.1818182
nježenjoš njejsy 0.0169492
wopisujom wopisuju 1.0000000
zginuli wutupichu 0.2000000
njepłaśiwa njepłaćiwa 0.9615385
rozkšajany nakraty 1.0000000
8.2 8.2 1.0000000
woblutowaś ty 0.0019011
woblutowaś wobžarować 0.4000000
pisani pisani 1.0000000
domchowance domchowance 1.0000000
guslickach husličkach 1.0000000
wašyma swojimi 0.0100000
pśeśěgujośo přećahujeće 1.0000000
parki parki 1.0000000
póbywa přebywaše 0.2000000
hanuša hanuša 1.0000000
wobgranicowanego wobmjezowaneho 1.0000000
wužywanju wužiwanju 0.7428571
wužywanju nałožowanju 0.0666667
wobstaranja wobstaranja 1.0000000
mloko bow 0.0333333
mloko čerstwe 0.1333333
mloko mloko 0.8611111
loduju swojim 0.0023202
loduju zběram 0.3333333
loduju wozu 0.0666667
wózjawili NULL 0.0002883
wózjawili wozjewili 0.7142857
spušć wopušć 0.8000000
źiśece dźěćace 0.8000000
źiśece něšto 0.0035971
nawabjenjow nawabjenjow 1.0000000
pósuźowarje posudźowarjo 1.0000000
źěłaŕni dźěłarni 1.0000000
źěłaŕni kfz-dźěłarni 0.3333333
funkciski funkciski 0.5000000
direktor direktor 1.0000000
direktor załožbowemu 0.5000000
dožywiłej dožiwjałoj 1.0000000
temu temje 0.0416667
temu temu 0.6808511
2013 2013 1.0000000
cerwjenu čerwjena 0.2222222
cerwjenu běłu 0.5000000
http-daty http-daty 1.0000000
rejoiced rejoiced 1.0000000
mazany mazany 0.3333333
mazany do 0.0003275
mazany trika 0.5000000
mazany kołmaz 0.0588235
mazany mazanu 0.5000000
mazany mazana 0.2000000
wukubłane wukubłanych 0.1250000
wukubłane wukubłani 1.0000000
bóśony baćony 1.0000000
bóśony tute 0.0005977
rownosć jenakosć 1.0000000
rownosć wobraz 0.0067114
wótkubłarjam kubłarjam 0.7500000
informacijam informacijam 1.0000000
informacijam informacije 0.0053004
zawupytnuła pytnyła 1.0000000
zawupytnuła nadešła 0.2000000
caroba jědź 0.0833333
caroba cyroba 1.0000000
caroba cyrobizna 1.0000000
rědki lajsty 1.0000000
pśeměnjenje změnu 0.0224719
pśeměnjenje klimy 0.0500000
pśeměnjenje přeměnjenje 1.0000000
znajomy znajemy 0.8888889
wusokošulskego wysokošulskeho 1.0000000
zarownanje zarunanje 0.9736842
zarownanje wotrunanje 0.3333333
zarownanje narunanje 0.2000000
wěcywuznatego wěcywustojneho 1.0000000
wótše sylne 0.0333333
wótše tute 0.0005977
wótše wótre 0.6666667
wótše wótry 0.0833333
pópowěda porěči 1.0000000
idejowe idejowe 1.0000000
pśecytana přečitana 0.3333333
njemjelcaś njemjelčeć 1.0000000
šmarnuś šmórnyć 1.0000000
napśeśiwnym napřećiwnym 0.4285714
advance advance 1.0000000
wótškrabaś wotškrabać 0.3333333
tastow tastow 1.0000000
napominanju namołwje 1.0000000
zwězowanjeju zwjazowanju 0.0625000
wósobinskim wosobinskim 0.6363636
pśedawarja předawarjej 0.5000000
pśedawarja předawarja 1.0000000
testament zakoń 0.0055556
bga bga 1.0000000
žywśo žiwće 0.5000000
žycenje přeće 0.9090909
žycenje próstwu 0.0222222
generacijow generacijow 0.8000000
pósrědnjajucych posrědkowacych 1.0000000
quirks quirks 1.0000000
policist policist 1.0000000
kšajźnych tajne 0.0526316
tabindex tabindex 1.0000000
wuknice šulerki 1.0000000
stilowu stilowu 1.0000000
našymi našimi 1.0000000
našymi našim 0.0064935
nałožowarjow nałožowarjow 0.5000000
kamjenicańske kamjeničanscy 0.3333333
kamjenicańske kamjeničanske 1.0000000
gójcu kraju 0.0142857
gójcu na 0.0001166
gójcu lěkarju 0.5000000
ignaca ignaca 1.0000000
wuceńskich wučenskich 1.0000000
filip filipo 1.0000000
filip filip 1.0000000
zaktualizěrujśo zaktualizujće 0.8000000
njenałožuju njenałožuja 1.0000000
zwiganje zběhanka 1.0000000
pśiměrjona přiměrjena 1.0000000
institut institut 0.9850746
kubłańsko-politiskich kubłansko-politiskich 1.0000000
hórnik hórnik 1.0000000
žycony chcyty 1.0000000
wugba stawa 0.0142857
arest domjacy 0.3333333
arest arest 0.5000000
šło mjasa 0.1428571
šło było 0.0072464
šło zwrěšćiło 0.5000000
šło šło 0.4615385
šło fungowało 0.2000000
šło dźěše 0.3870968
šło wotběžało 0.2500000
šło nimokuliło 0.0217391
nowolětnej nowolětnej 0.5000000
cłoński dźesaćčłonski 0.5000000
zschopau zschopauwu 0.5000000
zschopau zschopau 1.0000000
zschopau stanje 0.0666667
zschopau zapławjena 0.5000000
jamy jamy 1.0000000
jamy njemóža 0.0188679
jamy prózdnjeńcy 0.5833333
jamy palčikoweje 1.0000000
zdźělone zdźěleny 0.5000000
bariera bariera 0.5000000
lokale lokale 1.0000000
lokale lokaly 1.0000000
brave brave 1.0000000
weześ namazać 0.2500000
weześ wzać 0.1250000
weześ dyrbju 0.0039841
weześ skónča 0.1428571
weześ něhdźe 0.0037175
weześ jón 0.0050505
weześ sobuwzać 0.5000000
njepódawa kodowanje 0.0500000
njepódawa njemóže 0.0072464
njepódawa njedodawa 1.0000000
licadłom ličakom 1.0000000
wótcakujom wočakuju 0.3750000
tša-zšacha so 0.0000772
afrikańske afriske 1.0000000
wjeraškow wjerškow 1.0000000
wugbał pomhał 0.0166667
wugbał zworał 0.1666667
wugbał skutkowaše 0.0869565
wugbał činił 0.0140845
wugbał wukonješe 0.3333333
wugbał skućił 0.1111111
wugbał zdokonjał 0.6666667
wugbał dokonjał 1.0000000
zwěrjetka zwěrjatka 1.0000000
sušym lisća 0.1666667
sušym sušu 0.3333333
bajkowe bajowe 1.0000000
signěrowańskego signaturowym 0.5000000
wzdaś wzdać 0.7333333
zelko namakamoj 1.0000000
zelko zelo 0.0476190
kumšty kumšty 0.3333333
kumšty swojimi 0.0100000
kumšty njezměješ 0.2500000
pógibliwosći hibićiwosće 1.0000000
pórědnem porjadnym 1.0000000
łužyskego łužiskeho 0.6923077
łužyskego łužiskich 0.0444444
indiwidualny indiwidualny 0.8750000
indiwidualny indiwidualne 0.0689655
mužyka pěskowčika 0.5000000
mužyka pěskowčikom 1.0000000
lubijskej lubijskej 1.0000000
jadnoraznosći jónkrótnosće 1.0000000
jadnoraznosći jónkrótnosći 1.0000000
cystotu čistotu 1.0000000
muchow muchow 1.0000000
zabił zabił 1.0000000
paradizow rajow 1.0000000
idejam idejam 1.0000000
maturantow maturantow 0.2857143
informěrowali informowachu 0.2500000
informěrowali informowali 0.8888889
centruma-witaj centruma 0.0103093
nacynił načinił 1.0000000
nacynił načini 1.0000000
nacynił činił 0.0140845
nacynił kadla 0.0416667
nacynił jenož 0.0009074
běłem běłym 0.1666667
wunosnosći wunošliwosće 1.0000000
póstrowjenje postrowjenje 1.0000000
nektar nektar 1.0000000
znankow swědkow 1.0000000
dom.ipc.multioptout dom.ipc.multioptout 1.0000000
postaja tajke 0.0063694
postaja postaja 0.0555556
kandidatam kandidatam 1.0000000
kubłańskej kubłanskej 0.5000000
kubłańskej puć 0.0081301
kubłańskej kubłanskim 0.0526316
běłego lodoweho 0.3333333
běłego běłeho 1.0000000
buchu buchu 0.2264151
słup měznik 0.3333333
słup rjadowanja 0.0666667
słup stołp 0.6666667
organizacji organizaciji 0.0909091
wuwijańska wuwiwanska 1.0000000
nabity kopaty 1.0000000
sejźeło sedźało 1.0000000
datami datami 1.0000000
1958 1958 1.0000000
srjejźneje srjedźneje 1.0000000
srjejźneje srjedźoněmskeje 0.2500000
cesto častodosć 0.5000000
cesto často 0.8550725
cesto njepřiwozmu 0.5000000
cesto hup 0.2000000
cesto husto 0.9692308
cesto započatku 0.2500000
cesto hustodosć 0.5000000
prožym prožym 1.0000000
elka elka 1.0000000
pśeto NULL 0.0001442
pśeto dokelž 0.0113452
pśeto wšako 0.0857143
pśeto haj 0.0038760
pśeto přetož 0.9384615
pśeto honač 0.5000000
pśeto přiwšěm 0.0307692
pśeto wón 0.0014035
pśeto tola 0.0029240
platformu platformu 1.0000000
gronje rěka 0.0312500
gronje twjerdźa 0.5000000
gronje mjenuja 0.2857143
gronje praji 0.0172414
gronje jowle 0.3333333
gronje rěkaš 0.0769231
gronje štó 0.0051020
gronje mjenom 0.0128205
gronje rěkam 0.0833333
gronje jich 0.0015823
gronje sym 0.0046948
gronje rěkaja 0.0769231
gronje „ 0.0011891
gronje jenož 0.0009074
gronje krabat 0.0129870
gronje zwuraznja 0.0500000
gronje praja 0.9565217
gronje rjeknu 0.5000000
suknach płatach 1.0000000
zesěgnjone sćehnjene 0.1666667
wuproběrował wuspytał 1.0000000
pókšyjo zawodźěła 1.0000000
swěśe syći 0.1818182
swěśe so 0.0000772
swěśe hwězdow 0.2500000
swěśe błyšća 0.5000000
swěśe swjećiće 0.2500000
swěśe zemi 0.0416667
swěśe runje 0.0033445
swěśe swětadoloko 0.3333333
swěśe swjeći 0.0344828
swěśe wobhladam 0.0769231
swěśe swětodaloko 0.1250000
swěśe swěće 0.9436620
swěśe syće 0.0350877
swěśe NULL 0.0004325
swěśe rozpósłać 0.3333333
swěśe syć 0.0833333
swěśe swjeća 0.7000000
ramjenju ramjenju 1.0000000
glědała hladała 0.6666667
glědała to 0.0002115
glědała sudobjo 0.0500000
glědała njekedźbuje 0.1666667
njewótpokažo alkohol 0.2500000
njewótpokažo ženje 0.0056497
njewótpokažo wotpokazować 0.5000000
pomógał pomhał 0.0333333
smužkow smužkow 1.0000000
smužkow linkow 1.0000000
smužkow hłowow 0.4285714
kompilěrowane kompilowane 1.0000000
integrěrujo integruje 0.5000000
žywy duny 0.5000000
žywy bydlu 0.1250000
žywy NULL 0.0004325
žywy wožiwi 0.3333333
žywy čiły 1.0000000
žywy ducha 0.0434783
žywy woł 0.0555556
žywy žiwy 0.7108434
žywy žiwe 0.0270270
žywy wožiwjeny 1.0000000
žywy hana 0.0769231
žywy bydli 0.1176471
žywy wón 0.0007018
stow stow 1.0000000
stow sta 0.0232558
worklecanskeje worklečanskeje 1.0000000
systemach systemach 1.0000000
charaktery charaktery 1.0000000
kokoše kokoše 0.2666667
kokoše moje 0.0063694
kokoše jeje 0.0040650
kokoše tu 0.0010616
kokoše ty 0.0019011
hobbyja hobbyja 1.0000000
swojej swojej 0.0045045
wubuźiju napadnje 0.0909091
wubuźiju wubudźeja 0.6000000
cysćiś čisćić 1.0000000
cysćiś wurjedźa 0.5000000
cysćiś njech 0.0098039
cysćiś druzy 0.0144928
nejrědnjejšy najrjeńši 0.7500000
najnowšem najnowše 0.0200000
tengrib hrib 0.0454545
rozdźělony rozdźěleny 1.0000000
rozdźělony hromadźe 0.0126582
rozdźělony so 0.0001545
rozdźělony wužił 0.0454545
rozdźělony njewužiwa 0.0833333
pókšacował pokročował 0.9677419
emoźijow emodźijow 1.0000000
bóžej božej 0.8000000
modulowego moduloweho 1.0000000
napismo napismo 1.0000000
wobšudy wobšudstwa 1.0000000
toflicki taflički 0.4000000
toflicki zahaji 0.0909091
awtochtonych awtochtonych 1.0000000
alkohola alkohola 1.0000000
małkušow palčikow 0.5000000
carnice holanske 0.1428571
carnice jahodki 0.1000000
pśepodał přepodał 0.2631579
pśepodał do 0.0003275
zwucowanju wulkozwučowanju 0.5000000
zwucowanju zwučowanju 1.0000000
póglědnica pohladnica 1.0000000
2050 2050 1.0000000
piše webadresy 0.2500000
piše zwjetša 0.0102041
warianty warianty 1.0000000
lěwicy lěwicy 0.5714286
fondsu fondsu 1.0000000
pśeglěda je 0.0000896
pśeglěda ćišerskeho 0.5000000
pśeglěda nadawka 0.0416667
pśeglěda přehlada 0.8750000
wótcakany wočakowany 0.0526316
cesćona wažena 1.0000000
źewjeśaźewjeśźaset dźewjećadźewjećdźesat 0.2500000
źewjeśaźewjeśźaset njewostajił 1.0000000
krotko krótko 0.9285714
krotko skrótka 0.3125000
krotko ja 0.0016611
krotko wokomik 0.0222222
nastupijom wojować 0.1000000
nastupijom zarkyranom 0.1250000
nastupijom ze 0.0005750
tšašydłam šerjenjam 1.0000000
ewaluaciju ewaluaciju 1.0000000
sněg sněhběłe 0.3333333
sněg sněhować 0.5000000
sněg sněh 0.9285714
kana karan 0.0555556
kana kana 1.0000000
datajowem datajowym 1.0000000
sekty sekty 1.0000000
typiske typiske 1.0000000
typiske typiska 0.3333333
njezjadnaŕske njezjednoćomnej 1.0000000
złamaś skóncować 0.0270270
złamaś wotłamam 1.0000000
złamaś hewak 0.0054348
kryptokopakami kryptokopakami 1.0000000
wuwězaś popadnyć 0.1250000
wuwězaś z 0.0001349
wuwězaś powjazom 0.0833333
wuwězaś přiwjazać 0.1666667
wobmócnjujo posylnja 0.3333333
myšce myšce 1.0000000
wótpóranje wotstronjenje 0.6666667
aprylu aprylu 1.0000000
wobźěłała wobdźěłała 0.5000000
wólažcenjach powólnjenjach 1.0000000
cytańskego čitanskeho 1.0000000
cytańskego zapołožki 0.0093897
móžóśo móžeš 0.0196078
stanuli twojehoklina 1.0000000
stanuli stanyli 1.0000000
stanuli z 0.0001349
nastanjotej nastanjetej 1.0000000
lubujo wón 0.0007018
lubujo ma 0.0026631
lubujo l-lubuje 1.0000000
lubujo lubuje 0.8333333
njegótujśo nječińće 0.3333333
dało zdźěliło 0.1785714
dało přiležnosć 0.1000000
dało wone 0.0043668
dało bě 0.0015564
dało dawaše 0.5000000
dało wšeho 0.0277778
dało zdźělena 0.0740741
dało rozdźělneho 0.3333333
dało zatrašić 0.3333333
dało NULL 0.0004325
dało zhotowjenju 0.2500000
dało běchu 0.0042017
dało zdźěliła 0.1666667
dało tebje 0.0084034
dało dało 1.0000000
dało dóstachu 0.0270270
dało zdźělene 0.2142857
dało eksistowaše 0.3333333
dało krasne 0.0588235
kategorjiow kategorjiow 1.0000000
wuwabi wuwabi 1.0000000
modalnych modalnych 1.0000000
8.1 8.1 1.0000000
gluskoco pluskota 1.0000000
pśipołožonem připołoženym 1.0000000
dodała doda 0.2500000
śišćanju ćišćenju 1.0000000
mišno mišno 1.0000000
aryu arya 0.0333333
aryu aryju 0.1333333
bookmark bookmark 1.0000000
dwaźasća dwaceći 1.0000000
team-teachingu team-teachingu 1.0000000
rozpowědał rozpowědał 1.0000000
pilni pilni 1.0000000
chto nadpad 0.0625000
chto nadpada 0.4000000
chto štó 0.9132653
chto što 0.0023148
chto štóž 0.0235294
chto tajku 0.0200000
chto koho 0.0476190
chto NULL 0.0002883
chto jeli 0.0010020
chto te 0.0068966
addons.thunderbird.net addons.thunderbird.net 1.0000000
zaměr zaměr 0.9102564
zaměr njedocpěje 0.2666667
zaměr cil 0.0416667
zaměr wotmysł 0.1818182
zaměr załožbowy 0.4666667
zaměr zaměrom 0.0454545
zaměr zaměra 0.0666667
zaměr NULL 0.0002883
paralelne paralelne 1.0000000
certifikaty certifikata 0.0625000
certifikaty NULL 0.0001442
certifikaty certifikaty 0.9487179
certifikaty wěstotne 0.0204082
certifikaty ca-certifikaty 0.3333333
naraźił namjetował 1.0000000
naraźił namjetowaše 0.1875000
mócnjejša sylniša 1.0000000
wěcki wěcki 0.7142857
luźam chodźach 0.3333333
luźam ludźi 0.0085470
luźam powšitkownosći 0.0247934
luźam dóstanu 0.0175439
luźam čłowjekam 0.2500000
luźam čłowjekej 0.1250000
luźam mnohim 0.0666667
luźam ludźom 0.8421053
interministerielny interministerielny 1.0000000
2023 2023 1.0000000
dawarja dawarja 1.0000000
błudnego błudźa 1.0000000
instalował instalował 0.0250000
łazojskej łazowskej 0.3333333
zawjadli zawjedli 1.0000000
zawjadli zawjedźe 0.3636364
zbytkow z-zbytkow 1.0000000
zbytkow jědźe 0.0303030
njewólniki njewólnicy 0.5000000
zapłaśijośo njeseće 0.5000000
kamjentna kamjentna 1.0000000
enormnym w 0.0002063
enormnym enormnej 0.5000000
woglědanje wopytanje 1.0000000
spamom dale 0.0015408
spamom spamej 0.3333333
wobgranicowany wobmjezowany 1.0000000
logor lěhwo 0.1111111
logor tydźenja 0.0153846
logor stany 0.1666667
chaśe chaće 1.0000000
nowopśeglědanjow nowopřepruwowanjow 1.0000000
graśeju zabawje 0.3333333
aptejkarjom apotekarjom 1.0000000
updateurl updateurl 1.0000000
mytujoš mytuješ 0.3333333
rožu krasnu 0.1666667
rožu róžu 0.8666667
wótpósćełanje wotposyłanje 1.0000000
wótpósćełanje wotesyłanje 1.0000000
wutwarjonu wutwarjenu 1.0000000
dokumentom dokumentom 1.0000000
ldap-zapisa ldap-zapisa 1.0000000
znosowałej znošowałoj 1.0000000
dotěrowane dotěrowane 1.0000000
hamor hamor 0.8823529
wobźěłanje wobdźěłanje 1.0000000
braunschweigu braunschweigu 1.0000000
tomasa žerješe 0.2500000
cynjašo činješe 0.1428571
njewugótujomy nječinimy 0.2500000
adresaty adresaća 1.0000000
document.execcommand document.execcommand 1.0000000
symbolizěrowała symbolizuje 0.5000000
źenikow dźenikow 1.0000000
01.09.2019 01.09.2019 1.0000000
collapse collapse 1.0000000
njepšawe wopačne 0.0370370
njepšawe čini 0.0144928
njepšawe wuwróćić 0.3333333
njepšawe namjety 0.0092593
luksuriozne luksuriozne 1.0000000
zajmcow zajimcy 0.0500000
zajmcow zajimcow 0.9272727
up up 1.0000000
wótnapinańske wotpinanske 1.0000000
ekonomiskego ekonomiskeho 1.0000000
pódtłocowanja potłóčowanja 1.0000000
wó nwo 0.5000000
wó dóńdźenja 0.5000000
wó NULL 0.0018740
wó jednoru 0.1250000
wó byšće 0.0007294
wó njerozsudźi 0.3333333
wó stało 0.0133333
wó próstwami 0.3333333
wó prosy 0.0270270
wó wupisanju 0.1666667
wó njeakceptuje 0.2500000
wó wjelkow 0.1250000
wó špatne 0.0666667
wó zarkyranowe 0.3333333
wó wotzamknjenju 0.0769231
wó nas 0.0032258
wó wot 0.0028539
wó serwer 0.0080000
wó k 0.0003962
wó naspomnił 0.1666667
wó přeswědčić 0.1621622
wó nječinju 0.1250000
wó znowawužiwanje 0.5000000
wó azylowe 0.3333333
wó bugzilla 0.1111111
wó starosći 0.1111111
wó za 0.0001272
wó přistupna 0.0476190
wó žadajće 0.5000000
wó krokach 0.1666667
wó ekonomija 0.5000000
wó produktowej 0.1538462
wó wěna 0.5000000
wó njeměnjach 0.5000000
wó klimu 0.1000000
wó rozsudźić 0.0338983
wó wo 0.9418103
wó přiwzaću 0.2500000
wó sudniskeho 0.2857143
wó cyłkownje 0.0083333
wó přimać 0.1000000
wó přidatkej 0.0476190
wó njestaraja 0.2500000
wó israelitow 0.5000000
wó nałoženju 0.0243902
wó azyla 0.4666667
wó kopoła 0.1428571
wopóznał spóznał 0.0588235
bydliłej bydliłoj 1.0000000
pśiběraś přiběrać 1.0000000
staramy staramy 1.0000000
kompetencam kompetencam 1.0000000
pšawopisna prawopisna 1.0000000
pśisuda wosud 0.0588235
pśekrotka překrótke 0.0909091
pśekrotka překrótka 0.5000000
pśekrotka njedosaha 0.0370370
wótliceńskeje wotličenskeje 0.5000000
kury sama 0.0263158
kury kokoše 0.1333333
awtodroze awtodróze 1.0000000
młyńske młynske 0.5714286
młyńske młynscy 1.0000000
zaźaržyju zadźerželi 1.0000000
awtorkowu awtorow 0.0666667
awtorkowu angele 0.5000000
roli polach 0.0294118
roli knježich 0.2500000
48 48 1.0000000
zeblaconu wuslěkanu 1.0000000
wócakowana wočakowana 0.0357143
pta žaneje 0.3333333
pśipowjesył připowěsnył 1.0000000
namšaŕki kemšerki 1.0000000
ně-něco n-něšto 1.0000000
jen njón 0.0434783
jen róžk 0.0465116
jen jeho 0.0047393
jen mazaneho 0.0909091
jen zničić 0.0769231
jen hubku 0.2500000
jen někajki 0.0285714
jen tón 0.0189573
jen so 0.0002317
jen ćerpjeć 0.0769231
jen zmóžnić 0.0112360
jen njemóžu 0.0060606
jen lědma 0.0487805
jen ju 0.0363636
jen NULL 0.0007208
jen jón 0.8484848
jen dyrbjała 0.0156250
jen štryčk 0.0666667
jen najwjetši 0.0303030
jen powjaz 0.1562500
jen wón 0.0007018
jen zawalić 0.1666667
jen woznamjenił 0.0909091
jen moch 0.0303030
jen to 0.0021146
jen na 0.0001166
jen próšk 0.3333333
jen přewzać 0.0869565
jen cyłu 0.0212766
jen karan 0.1111111
jen w 0.0001031
jen nałožić 0.0400000
jen měšku 0.1250000
jen měše 0.0714286
jen znjemóžńće 0.0555556
jen bow 0.0333333
jen je 0.0011646
jen maš 0.0064103
jen njespalu 0.3333333
jen pjeku 0.2000000
giacomo giacomo 1.0000000
interny interny 0.2000000
awtentificěrowańska awtentifikacisku 0.1000000
burowkami burowkami 1.0000000
zaměroma zaměromaj 1.0000000
pjerko pjerjo 0.7500000
webnapšašowanje webnaprašowanje 1.0000000
njetužniśo njerudźiće 1.0000000
ssl-sokeśe dowolene 0.0112360
ssl-sokeśe ssl-sokeće 1.0000000
póžeda požada 0.2000000
katastrofa katastrofa 1.0000000
katastrofa katastlofa 1.0000000
turistiskem turistiskim 0.4000000
česki čěsce 1.0000000
wokable wokable 1.0000000
lipjo tobołku 0.1250000
lipjo pytać 0.0099010
lipjo ničo 0.0025907
lipjo měšku 0.1250000
lipjo zalěpił 0.5000000
lipjo nima 0.0056497
lipjo lěpi 0.2222222
lipjo – 0.0014684
lipjo tak 0.0006386
lipjo cyłu 0.0212766
daliny daloka 0.5000000
pśedewześam předewzaćam 0.8571429
pśedewześam předewzaća 0.0194175
pśedewześam zadźěwa 0.0357143
sorabistiki sorabistiki 0.8333333
wótcakował wočakował 0.4285714
wótcakował zwóńk 0.5000000
wuwijarskich wuwiwarskich 0.5555556
implicitnje implicitnje 1.0000000
wórjejskim wojerowskim 0.3333333
raketow raketow 1.0000000
profilow profilow 1.0000000
wucabnicow wučerkow 0.2500000
systemowemu systemowemu 1.0000000
mustrach mustrach 1.0000000
źewjetem dźewjatym 1.0000000
slobrane slěborne 1.0000000
nožom nožom 0.8333333
wótzamknjone wotzamknjene 0.8260870
wótzamknjone zakónčenje 0.2857143
haseloff haseloff 1.0000000
tšochu drohometal 0.5000000
tšochu přehnawać 0.5000000
tšochu mazane 0.0263158
tšochu předmjeće 0.1000000
tšochu chětro 0.0236220
tšochu něšto 0.0089928
tšochu mnóstwo 0.2500000
tšochu tróšku 0.1428571
tšochu měd 0.0256410
tšochu hrózbna 0.3333333
tšochu składy 0.2000000
tšochu spodźiwny 0.0625000
tšochu telko 0.0114943
tšochu zdźeržliwy 0.5000000
tšochu zběhń 0.2500000
tšochu pře 0.0169492
tšochu trochu 0.3243243
tšochu změšam 0.6666667
tšochu někajku 0.0714286
pókšačowaś pokročować 0.0363636
strukturnego strukturneho 1.0000000
wupijom wupiju 0.1666667
iniciatiwna iniciatiwna 1.0000000
wobsejźarje firmownicy 0.5000000
wobsejźarje mějićeljo 0.2857143
wobsejźarje wobsedźerjo 1.0000000
jaku kabat 1.0000000
dowěrliwje dowěrliwje 1.0000000
wikogóspodaŕskego wičnohospodarskeho 1.0000000
108 108 1.0000000
wóra twora 1.0000000
šćitnego škitneho 0.5000000
šćitnego wróćosadźenju 0.3333333
pprint pprint 1.0000000
pśestajenim přestajenjom 1.0000000
direktnje > 0.0384615
direktnje runjewon 0.0588235
direktnje hišće 0.0007559
direktnje direktnje 0.9662921
direktnje smuhu 0.3333333
direktnje runu 0.2857143
direktnje njeposrědnje 0.6000000
pytnica pytawa 1.0000000
rozsuźujo rozsudźa 0.5925926
rozsuźujo rozsudźuje 1.0000000
dostanjo nabudźe 0.1250000
dostanjo přija 0.0114943
dostanjo dóstawa 0.0357143
dostanjo dóstał 0.0090090
dostanjo dóstanje 0.8787879
dostanjo přewozmje 0.0555556
dostanjo dósta 0.0243902
rubišća ruba 1.0000000
i. i. 1.0000000
formularoju formular 0.0425532
wušaltujo wušaltuje 1.0000000
wušaltujo wupina 1.0000000
pólěpšćo polěpšće 1.0000000
wónjanja čucha 1.0000000
email email 1.0000000
email e-mejl 0.0125000
pśenajmaju přenajimaja 1.0000000
wósadnego wosadneho 1.0000000
swojimi swojimi 0.0100000
pśestarcyju přestorča 1.0000000
pśestarcyju přemjetaja 1.0000000
pijotej pijetaj 1.0000000
pijotej pijetej 1.0000000
filmowy filmowy 1.0000000
źiśownja přebywanišćo 0.1818182
źiśownja pěstowarnja 1.0000000
nóc nóc 0.0238095
wótwobarajo wotwobara 1.0000000
kataloga kataloga 1.0000000
słyšy słyši 0.9166667
słyšy słyša 0.1428571
słyšy posłucha 1.0000000
rěcnopedagogiskim rěčnopedagogiskim 1.0000000
njeby njeměł 0.1000000
njeby je 0.0000896
njeby njeby 0.7191011
njeby njebyštej 1.0000000
njeby njewěm 0.0064516
njeby njebychmy 0.5454545
njeby njepřidajće 0.3333333
njeby poliwce 0.3333333
njeby njedyrbjał 0.2000000
njeby tola 0.0029240
njeby njeměli 0.1025641
njeby dožiwić 0.0357143
njeby njebychu 0.6756757
njeby facebook 0.0091743
njeby njemóhł 0.3333333
njeby NULL 0.0011532
njeby njerady 0.2500000
njeby njebyšće 0.5333333
njeby njepytnje 0.1250000
njeby potom 0.0036563
njeby njejsu 0.0048780
njeby njemóžeće 0.0078740
njeby zarkyrana 0.0303030
njeby njemóhli 0.2500000
njeby njebych 0.4857143
njeby by 0.0009050
njeby njeměl 0.5000000
njeby měł 0.0038462
njeby bych 0.0042194
njeby rozsudźił 0.0400000
njeby njewopušćić 0.3333333
njeby njeměło 0.2500000
njeby spóznali 0.2000000
njeby t 0.3333333
njeby drje 0.0073529
njeby požiwać 0.5000000
njeby njejsmy 0.0392157
thunberg thunberg 1.0000000
gwězda padaca 0.5000000
gwězda hwězda 0.8181818
gwězda je 0.0000896
gwězda to 0.0002115
prezentne prezentni 1.0000000
prezentne prezentne 1.0000000
wuběra wuběra 0.1818182
wuběra wuzwola 0.0833333
wuběra NULL 0.0001442
zdźěleńskeje zdźělenskeje 1.0000000
wótwardujomy wothladujemy 1.0000000
spadoju spadej 1.0000000
zmógnuli zhrabali 1.0000000
dług dołh 0.5000000
dług pola 0.0018051
dostaśeju dóstaću 1.0000000
dostaśeju docpějomne 0.4285714
dostaśeju NULL 0.0002883
blawkaca blawkača 1.0000000
kultiwěrowamja kultiwěrowanja 0.5000000
gaszi gaszi 1.0000000
póspytali wuspytali 1.0000000
dynamiskeje dynamiskeje 1.0000000
njewinowate njewinowate 1.0000000
wurěž wurězaj 1.0000000
wótkazami wotkazami 1.0000000
wótkazami wotkazy 0.0250000
wuchowało wobchowało 0.3333333
spóraju jenož 0.0009074
wědomnostnych wědomostnych 1.0000000
spěchowańskeju runočasnym 0.3333333
spěchowańskeju spěchowanskim 0.0909091
zasadow zasadow 0.6666667
grodowem dźiwadle 0.3076923
grodowem na 0.0004663
zarucony zaručeny 0.5555556
njebył był 0.0061728
njebył wjace 0.0012438
njebył maksimus 0.2500000
dwójrěcnu dwurěčne 0.0270270
pśipad připad 0.7500000
skóńcnem zakónčacym 0.5000000
wupyšnjona banty 0.3333333
wupyšnjona pyšna 0.5000000
wupyšnjona wupyšena 1.0000000
procowanju paruju 0.4000000
procowanju prócowanju 1.0000000
praktiskem praktiskim 1.0000000
zarkytan zarkyran 0.0232558
kupkach dźěćimi 0.0120482
kupkach skupinach 1.0000000
kupkach wotkrychu 0.1428571
kupkach skupinje 0.0091743
kupkach němskeje 0.0107527
kupkach skupinkach 1.0000000
spirituelne spirituelne 1.0000000
wjelikopśerady wulkopřerady 0.5000000
wobradowarja poradźowarja 0.6666667
wliwa wliwa 1.0000000
woglědjaśo wobhladajće 0.0222222
angažěrowaś angažować 1.0000000
lorenc-zalěski lorenc-zalěski 1.0000000
lorenc-zalěski ” 0.0061538
motiwacija motiwacija 0.6666667
cołn kajkim 0.2000000
cołn hnydom 0.0301205
cołn jězbu 0.1666667
cołn čołmik 0.6000000
cołn z 0.0001349
cołn tak 0.0006386
cołn čołmikowanje 0.3333333
cołn čołm 0.8888889
cołn čołmikom 0.5000000
cołn trěbna 0.0333333
cołn čołmom 0.2500000
cołn sće 0.0012706
cołn přijěł 0.2500000
cołn da 0.0040000
zwuraznjaś zwuraznić 0.1250000
zwěž naposledk 0.0555556
zwěž zwjazaj 0.5000000
zachowajo zachowa 0.4000000
stupała razantnje 0.5000000
stupała stupała 1.0000000
wódowego wodosportoweje 0.5000000
wódowego sezony 0.1250000
wódowego mi 0.0019268
wódowego mojemu 0.0555556
wódowego wodosportowu 0.2000000
facebooka facebooka 1.0000000
facebooka facebook 0.0091743
literatura literatura 1.0000000
doł doł 1.0000000
njewócakane njewočakowane 0.0909091
njewócakane njewočakowany 0.0833333
njewócakane njewočakowana 0.5000000
njewócakane překwapja 0.3333333
běrokratiju běrokratiju 1.0000000
pominatej sej 0.0022612
pominatej žadatej 0.8181818
pominatej žadataj 1.0000000
wikowańske wikowanske 0.1000000
płodowe płodowe 1.0000000
płodowe zela 0.0909091
digitalizacija digitalizacija 1.0000000
horta horta 0.5000000
bala bule 1.0000000
bala bala 1.0000000
chapjam swoje 0.0008554
chapjam wěcy 0.0089286
wobgóspodarjeńske wobhospodarjenske 1.0000000
pśetergnjone přetorhnjene 1.0000000
chórownjow chorownjow 1.0000000
zwěrjeńce zwěrjency 1.0000000
wěstotny wěstotny 0.8333333
majsku mejsku 1.0000000
pśidanki pisać 0.0161290
pśidanki . 0.0000211
pśidanki přiražki 0.0937500
pśidanki přesta 0.1250000
pśidanki přiwěški 0.5454545
fatcow fatcow 1.0000000
zwjaseliś wobradźeć 0.2500000
zwjaseliś zabawjeć 0.2000000
zwjaseliś jim 0.0042194
zwjaseliś w 0.0001031
zwjaseliś wjeselo 0.0243902
zwjaseliś serbšćinje 0.0156250
zwjaseliś zwjeselić 1.0000000
wjaselimy wjeselimy 0.9600000
wjaselimy wjeselmy 1.0000000
jwt jwt 1.0000000
sezona sezona 0.5000000
sezona nowu 0.0173913
sezona sezonu 0.0625000
roland roland 1.0000000
ceły cyłu 0.1702128
ceły cyły 0.9200000
ceły kajkiž 0.2000000
ceły tola 0.0029240
ceły wjele 0.0016287
ceły retomas 1.0000000
ceły wšón 0.1250000
ceły NULL 0.0001442
ceły cyle 0.0057471
ceły durje 0.0175439
ceły cylički 1.0000000
wótchylecy wotchilejo 1.0000000
table-column table-column 1.0000000
orchestrom orchestrom 1.0000000
pyšnych debjenskich 1.0000000
medicinskim medicinskim 0.5000000
policy regalu 0.1666667
policy policy 1.0000000
wuzgónjujomy zwěsćamy 0.1428571
rědachh nastrojach 0.5000000
123456 123456 1.0000000
witaj-model witaj-model 0.5000000
witaj-model sylnić 0.0500000
heap heap 1.0000000
staty staty 1.0000000
zapłaśiś NULL 0.0001442
zapłaśiś płaćić 0.0571429
zapłaśiś płaćomny 0.2142857
zapłaśiś zapłaćić 0.8333333
dajmy dajmy 0.6666667
pódajśo podaj 0.2500000
pódajśo prošu 0.0013158
pódajśo podajće 1.0000000
pódajśo přidaće 0.3333333
tudejše to 0.0002115
tudejše tudyši 1.0000000
tudejše tudyše 1.0000000
pśesuwanim njefunguje 0.0303030
pśesuwanim přesuwanjom 1.0000000
spańske spanske 1.0000000
chałupje chěžce 1.0000000
nalicyli nalistowali 1.0000000
wuspešnje wuspešnje 1.0000000
pśispórjaś přisporjować 1.0000000
krabatoweju krabatowej 0.5000000
wužiwa so 0.0000772
pśedawarjach předawarjach 1.0000000
oktobrje oktobrje 1.0000000
oktobrje oktobru 0.3333333
oktobrje winowcu 1.0000000
pśidawanje přidawanje 1.0000000
pismo doporučenje 0.1481481
pismo spis 0.2857143
pismo pokaž 0.0625000
pismo mi 0.0019268
pismo napisał 0.1000000
pismo pismo 0.6666667
absurdne absurdne 1.0000000
energija energija 0.2000000
energija energijownistwo 0.3333333
špěrku pokazowakom 0.7500000
špěrku pokazowak 0.6666667
špěrku pokazowar 0.2500000
žytowe žitne 1.0000000
znowegozacytowanju znowazačitowanju 1.0000000
znowegozacytowanju zhubja 0.0588235
1.1alpha1 1.1alpha1 1.0000000
show show 1.0000000
plusdypki plusdypki 1.0000000
resursu resursu 0.8888889
resursu resursa 0.0384615
resursu waži 0.1250000
resursu globalna 0.1000000
rozymliwa zrozumliwa 0.6666667
zelezny železna 0.5000000
zelezny železny 1.0000000
wobstatkow po 0.0005741
wobstatkow wobstatkach 0.3333333
wobstatkow swojich 0.0040161
jadnobarwne jednobarbne 1.0000000
stawiznach stawiznow 0.0370370
stawiznach stawiznach 1.0000000
wupominanjam wužadanjam 1.0000000
zawěsćił zawěsćiło 0.2307692
zawěsćił zawěsćił 0.8918919
539 539 1.0000000
jerusalemom jerusalemom 0.5000000
rozpadane rozpadanki 0.5000000
gr. r. 0.5714286
pśizjawjenjam přizjewjenjam 1.0000000
pśizjawjenjam přizjewjenja 0.0483871
city-managerku managerku 1.0000000
demonstraciju demonstraciju 1.0000000
profesionalnosć profesionalita 1.0000000
pójědu pojědu 1.0000000
nastupnosću naležnosću 0.6250000
europska europska 0.3750000
wótkšył wotkrył 0.1818182
łazecy łazo 1.0000000
pśepšoseni přeprošeni 0.2222222
widna widźomne 0.0384615
widna te 0.0068966
antje antje 1.0000000
strukturnym strukturnym 1.0000000
wólejowych wolijowych 1.0000000
žanry žanry 1.0000000
wědoweje wědoweje 0.9600000
budyšynom budyšinom-wuchodom 0.5000000
budyšynom budyšinom 1.0000000
rozrěduju rozrjaduja 1.0000000
swětoznatem swětoznatym 1.0000000
naglědne nazorne 1.0000000
dłymokeje starosćili 0.3333333
dłymokeje hłubokeje 1.0000000
jenož słužownik 0.0769231
jenož jenož 0.0018149
wurědnem wurjadnym 0.3750000
tamnjejšy tamniši 0.5000000
roznosyło roznjesło 1.0000000
bretoniskej bretoniskej 1.0000000
krale wojowali 0.3333333
krale kralojo 0.8666667
wězaju walčkuja 0.5000000
musymy mamy 0.0582011
musymy dyrbimy 0.8172043
kopiju kopiju 1.0000000
nysowego nysoweho 1.0000000
žeńske žonu 0.0370370
žeńske žony 0.8200000
žeńske žónske 0.1666667
ftl ftl 1.0000000
pśednosuju přednošuja 1.0000000
pšašenja prašenja 0.0216216
łužyca-delnja łužica-delnja 0.0588235
žiwjenje žiwjenje 0.0050761
powěsćowe powěsćowe 1.0000000
gładka hładka 1.0000000
tabcrashed.restoreall tabcrashed.restoreall 1.0000000
kwartalnu kwartalnu 1.0000000
kulturje kulturje 1.0000000
kulturje kultury 0.0161290
magiii rozumi 0.0769231
póbědnych bědnych 0.2000000
mimo přetrał 0.2500000
mimo bjez 0.1478697
mimo nimo 0.8740554
mimo bjeztoho 0.2500000
mimo hašenju 0.1666667
mimo nimojěducych 0.5000000
mimo na 0.0001166
mimo dale 0.0061633
mimo nadměru 0.1250000
mimo chibazo 0.0540541
mimo nahrabne 0.2500000
mimo pčołarić 0.2500000
mimo zdobom 0.0089686
mimo přeradnikej 0.1666667
mimo skónči 0.0270270
mimo toho 0.0221566
mimo bjezwuwzaćnje 0.0666667
mimo minje 1.0000000
mimo NULL 0.0012974
mimo hewak 0.0054348
mimo směrach 0.5000000
mimo přidatnje 0.0303030
mimo korkom 0.2500000
mimo mimo 1.0000000
mimo porno 0.0196078
futuresax futuresax 1.0000000
źeń narodniny 0.1000000
źeń dźeń 0.9264069
źeń dźen 0.5000000
źeń posmjertniny 0.4000000
źeń wodnjo 0.0952381
źeń dźensa 0.0030675
źeń dnja 0.0136054
źeń pjećašěsćdźesaćiny 0.3333333
źeń NULL 0.0002883
źeń dnju 0.0425532
źeń dź 0.2000000
źeń swita 0.3333333
źeń třihodźinski 0.5000000
źeń wotmołwju 0.1111111
źeń cyłozwjazkowy 0.5000000
źeń mamy 0.0052910
głupak hłupako 0.6666667
głupak hłupak 0.3000000
pódermo na 0.0001166
pódermo podarmo 0.8000000
pódermo was 0.0023866
fararjoju fararjej 0.5000000
družki družču 1.0000000
družki družki 1.0000000
jeje dźakowano 0.0256410
jeje bych 0.0042194
jeje ju 0.0025974
jeje drjewjanu 0.3333333
jeje datumom 0.3333333
jeje skutkowanski 0.3333333
jeje swojemu 0.0144928
jeje jeje 0.8414634
jeje NULL 0.0002883
jeje jeho 0.0094787
jeje kotrejež 0.0555556
jeje amuletom 0.2500000
jeje była 0.0126582
diference diferency 1.0000000
póstawy postawy 0.3333333
nami fomular 0.2500000
nami nas 0.0064516
nami NULL 0.0001442
nami nami 0.9642857
nami sobu 0.0024155
nami pozběhń 0.3333333
christin christin 1.0000000
žrěśe žlokanje 0.7500000
žrěśe we 0.0006725
žrěśe nježlokaj 0.3333333
žrěśe hłowje 0.0555556
zastupnistwami zastupnistwami 1.0000000
relewantne relewantny 0.3333333
relewantne relewantne 1.0000000
doglědom dohladom 1.0000000
kenguruh kenguruh 1.0000000
žywidła zežiwidła 0.6000000
žywidła žiwidła 1.0000000
gódnotoweje hódnotoweje 1.0000000
nagego naheho 1.0000000
wuwjaźobne wuwjedźomne 1.0000000
dudakow dudakow 1.0000000
porucenja poručenja 0.1428571
womazaś womazać 0.1428571
sensomotoriske sensomotoriske 1.0000000
aditiwnych additiwnych 1.0000000
póbitujuce posrědkowace 0.3333333
naglědach naladach 1.0000000
noweje nowej 0.0175439
noweje noweje 0.9000000
noweje noweho 0.0083333
type type 1.0000000
njeźělobny njedźělomny 1.0000000
grankami kićemi 1.0000000
otr-powěsći otr-powěsće 1.0000000
otr-powěsći swójske 0.0147059
adekwatnje adekwatnje 1.0000000
mglyph mglyph 1.0000000
mósćikach mosćikach 1.0000000
m-m-mnjo m-mni 1.0000000
widlickami widličkami 1.0000000
pórěźił porjedźił 1.0000000
wuměnjenje předpokład 0.5000000
wuměnjenje wuměnjenje 0.9545455
rozćaklony rozzłobjeny 0.1000000
cookiejach plackach 1.0000000
zacyńśo začińće 0.9411765
zacyńśo zapińće 1.0000000
fantastiske fantastiske 1.0000000
knigłoweje regala 0.3333333
sthunderbirds sthunderbirds 1.0000000
katowaś dračować 1.0000000
farmaceutiskej farmaceutiskej 1.0000000
janšojskej janšojskej 1.0000000
s.opml s.opml 1.0000000
policistam policistam 1.0000000
kurjawkojty młowojte 1.0000000
žabkow žaby 0.0555556
silwija silwija 1.0000000
zarědowanjoma zarjadowanjomaj 1.0000000
pósoł posoł 1.0000000
pósoł japoštoł 1.0000000
górnoserbski serbsce 0.0034602
górnoserbski hornjoserbski 0.5714286
górnoserbski hornjoserbsce 0.6666667
nrozeznawa nwo 0.5000000
korla korle 1.0000000
korla korla 1.0000000
njeznajoš aryju 0.0666667
njeznajoš njeznaješ 0.2000000
pedagogow pedagogam 1.0000000
pedagogow pedagogow 0.8125000
zabijaś zabiwać 1.0000000
śěgnjomy ćahamy 1.0000000
pódzajtšneje wuchodneje 1.0000000
zemja zemja 1.0000000
zemja NULL 0.0004325
zemja podłoha 0.3333333
zemja ležownosć 0.1176471
zemja póda 1.0000000
wjelikanoju hobrej 1.0000000
wjelikanoju hobra 0.0833333
wuwiśoweje wuwićoweje 1.0000000
rěcnokubłańskem rěčnokubłanskim 1.0000000
dojadnali dojednałoj 0.1428571
dojadnali dojednali 1.0000000
dojadnali dojednachu 0.7500000
zaprědka najprjedy 0.0134228
zaprědka myslach 0.0270270
zaprědka druhdy 0.0089286
zaprědka sej 0.0005653
zaprědka spočatnje 0.2500000
wóttwarili wutwarichu 0.5000000
wóttwarili wottwarili 1.0000000
staršeje staršeje 1.0000000
kilometrach kilometrach 1.0000000
calendar calendar 1.0000000
blidku blidku 1.0000000
kristusa chrystoweje 1.0000000
kristusa chrysta 0.7500000
kristusa sćerpliwosći 0.5000000
kristusa chrystusu 0.0909091
kristusa so 0.0000772
kristusa chrystusa 0.9090909
kjarližami mudrosći 0.5000000
februarje februaru 1.0000000
februarje februarje 1.0000000
karastrofje wosudej 0.5000000
pśespytaś přepruwuwać 1.0000000
pśespytaś přepruwować 0.1224490
pregowane wobwliwowane 1.0000000
taku drohoćinku 0.5000000
taku tajke 0.0509554
taku błóćane 0.3333333
taku tajku 0.7400000
taku tule 0.0156250
taku ćikot 0.5000000
taku jednym 0.0150376
taku jenož 0.0009074
taku spodźiwnu 0.5000000
taku mam 0.0029412
taku tajka 0.0370370
taku za 0.0001272
taku zaklate 0.5000000
taku tak 0.0012771
taku NULL 0.0001442
taku masku 0.0500000
taku woprawdźe 0.0030864
taku mazane 0.0526316
mjenaś swarjeć 0.2500000
kutšank woteda 0.2500000
kutšank kućank 1.0000000
zapódatych zapodatych 0.2857143
byšće byšće 0.0014588
nejnowša najnowša 1.0000000
openpgp-softwaru openpgp-softwaru 1.0000000
bachelorskeho bachelorskeho 1.0000000
wótněta přisukać 0.5000000
wótněta nětko 0.0010081
sowjetskej sowjetskim 0.2000000
wěcywuznatymi wěcywustojnymi 1.0000000
małučkich dźělčkach 1.0000000
małučkich móličkich 1.0000000
wobgóńśo wobhońće 1.0000000
zakórjenjona zakótwjena 0.6666667
lokalizacije lokalizacije 1.0000000
wótstronjenju wotstronjenju 0.1111111
width width 1.0000000
zašćěpiś zašćěpić 1.0000000
pśepšoseńsku přeprošensku 1.0000000
dłymokotwaŕskich hłubokotwarskich 1.0000000
aktiwitam aktiwitam 1.0000000
aktiwitam aktiwity 0.0810811
liberalnych liberalnych 1.0000000
šacha šacha 1.0000000
wurownański změrcowski 0.7000000
gnojom hnojom 1.0000000
pomagaju tyja 1.0000000
pomagaju NULL 0.0001442
pomagaju pomhaja 0.8297872
pomagaju dobrowólnje 0.1111111
rozbuchnuł proch 0.1250000
rozbuchnuł rozbuchny 1.0000000
juristiskem juristiskim 1.0000000
nejlěpšemu najlěpšemu 1.0000000
ten pop3-serwer 0.2500000
ten swita 0.3333333
ten poziciju 0.0555556
ten wony 0.3750000
ten nima 0.0112994
ten zranjeny 0.2380952
ten so 0.0001545
ten wikistrona 0.3333333
ten tón 0.7630332
ten měnju 0.1111111
ten stólc 0.1666667
ten swětom 0.0909091
ten hej 0.0158730
ten ju 0.0025974
ten mjedwjedź 0.0789474
ten twój 0.0117647
ten měd 0.0512821
ten . 0.0000211
ten drohotny 0.0181818
ten NULL 0.0061986
ten najkrótše 0.2500000
ten hrib 0.1363636
ten pas 0.0416667
ten moch 0.1515152
ten skóncowanu 0.5000000
ten pokaže 0.2500000
ten pachoł 0.0625000
ten samsne 0.0212766
ten da 0.0040000
ten bydli 0.0147059
ten krasny 0.0769231
ten prašenje 0.0097087
ten čołmik 0.1600000
ten praji 0.0057471
ten młynske 0.1428571
ten kral 0.0089286
ten čertowy 0.1111111
ten je 0.0002687
ten přibližiła 0.2500000
ten dźiwny 0.1666667
ten lizak 0.1428571
ten hejzoli 0.2500000
ten pytam 0.0181818
ten po 0.0005741
ten swjeći 0.0689655
ten rukopis 0.0769231
ten zastojnstwo 0.0333333
ten wurězk 0.1428571
ten stutón 0.5000000
ten samsny 0.3720930
ten webstrona 0.4090909
ten hodźa 0.0142857
ten krasne 0.0588235
ten twarožk 0.0588235
ten přichada 0.3333333
ten chlěb 0.0793651
ten sud 0.3333333
ten hnój 0.1333333
ten wozydło 0.4000000
ten žołte 0.1000000
ten złotak 0.2000000
ten njebychmy 0.0909091
ten tónle 0.4473684
ten cajk 0.5000000
ten čorny 0.1111111
ten wuchod 0.0952381
ten knefl 0.1071429
ten wotłama 0.3333333
ten wostaju 0.0204082
ten njedźerži 0.1000000
ten kopjeno 0.1250000
ten pohódnocénje 0.2000000
ten awgust 0.0645161
ten djaboł 0.1666667
ten wjesny 0.0333333
ten list 0.0746269
ten tykń 0.0909091
ten roztřihać 0.5000000
ten dóstanje 0.0303030
ten hmm 0.0322581
ten jónkrótny 0.0909091
ten nawodom 0.0454545
ten amulet 0.0085470
ten zhašejće 0.0666667
ten njedočink 0.3333333
ten helski 0.5000000
ten ertifikat 0.5000000
ten kak 0.0023121
ten mór 0.0454545
ten tutu 0.0773694
ten mjechki 0.1428571
ten wokrjepić 0.0666667
ten zwónčk 0.2857143
ten našijnu 0.6666667
ten wrjesnyło 0.2500000
ten palčik 0.0769231
ten had 0.0384615
ten tutón 0.4700389
ten šěry 0.1250000
ten tute 0.0065750
ten nóž 0.1184211
ten samotny 0.2500000
ten tykanc 0.1052632
ten tuta 0.0587326
ten sarkofag 0.3333333
ten dyrbju 0.0039841
ten rozbita 0.5000000
ten tu 0.0031847
ten rěbl 0.2000000
ten nadpad 0.1250000
ten njebudu 0.0161290
ten cedlku 0.1428571
ten dokument 0.0144928
ten ahh 0.2500000
ten ty 0.0038023
ten wobsedźu 0.1428571
ten křipa 0.1481481
ten wotewri 0.1111111
ten ten 1.0000000
ten bych 0.0042194
ten zerzawa 0.1000000
ten posledni 0.0175439
ten prus 0.1666667
ten njerozrisa 1.0000000
ten młody 0.0606061
ten měch 0.0625000
ten wón 0.0035088
ten te 0.0206897
ten natykany 0.3333333
ten dešć 0.1428571
ten pjenjezy 0.0121951
ten rjedźić 0.2000000
ten bóh 0.0123457
ten jedyn 0.0040323
ten woł 0.0277778
ten jeničkemu 0.5000000
ten njewućahnu 0.2000000
ten twjerdźizna 0.3333333
ten imap-serwerej 0.3333333
ten maš 0.0064103
ten měšk 0.0588235
ten wobraz 0.0067114
ten dych 0.3333333
garantiju wěstotu 0.0240964
garantiju garantiju 0.5714286
garantiju přistajensku 1.0000000
pókšacowało pokročowało 1.0000000
njewomucnosć njesprócniwosć 1.0000000
wjednicam nawodnicam 1.0000000
wjednicam wjednicam 1.0000000
tachantska dźě 0.0270270
tachantska tachantska 0.7500000
pśeglědowanskim njeznajeće 0.2500000
nazymu nazymu 1.0000000
70-tych 70-tych 1.0000000
jězdźenju jězdźenjom 1.0000000
guslowaŕkim kuzłarskim 0.3333333
koronawirusa koronawirusa 1.0000000
habrachćicach habrachćicach 1.0000000
łažy je 0.0000896
łažy , 0.0000320
chórosć chorosće 0.0769231
chórosć chorosć 0.6000000
chwalony chwaleny 1.0000000
jadnora jednora 0.4782609
zastatki zastatki 1.0000000
njepóderbje njetrjebaju 1.0000000
slězy lipska 0.0555556
slězy zady 0.8823529
slězy za 0.0008904
slězy sušić 0.2500000
wóteměra wotemrěje 0.6666667
změrować změrować 0.3333333
wurownał pozběhny 1.0000000
handyja handyja 1.0000000
zala zala 1.0000000
zatykane zatykane 0.3750000
rybowa rybjaca 1.0000000
mórju morju 0.7500000
pówójnske powójnske 1.0000000
pówójnske powójnski 0.5000000
dwaadwaźasća dwajadwaceći 1.0000000
bywaju bywaja 1.0000000
bywaju stanu 0.7500000
njedowěriwje njedowěrliwje 1.0000000
widźobne widźomny 0.0416667
źěkownje dźakownje 1.0000000
akcijach akcijach 1.0000000
akcijach k 0.0007924
amisěruju jara 0.0016077
amisěruju lubi 0.0263158
amisěruju ludźom 0.0263158
kompleksnym kompleksnym 0.5000000
misiju misiju 1.0000000
misiju nadawk 0.0099502
njezachyś njezaćisń 1.0000000
wótwěraś wotwěrać 1.0000000
originale originale 0.7500000
wumrěju wumrěja 1.0000000
kursu kursu 1.0000000
datajowemu datajowemu 1.0000000
regstraciju regstraciju 1.0000000
pleśona plećena 0.5000000
ekstremne ekstremne 1.0000000
topi tepja 1.0000000
kwitowanku kwitowanku 0.6000000
iiih iiih 0.5000000
zagubje zahubje 1.0000000
kandidat kandidat 1.0000000
kandidat požadar 0.5000000
wótewześ wotewzać 1.0000000
wótewześ wotstronić 0.0089286
pśepytowańskego přepytowanskeho 1.0000000
góńtwarje hajnicy 1.0000000
pśipinanje připinanje 1.0000000
plakaty plakaty 1.0000000
wudankow wudawkow 0.8333333
pjeńku pjenku 1.0000000
citěruju cituja 1.0000000
nawabiś najeć 1.0000000
nawabiś nawabić 0.6000000
wulětam wulětam 1.0000000
rusow rusow 1.0000000
płaśizna płaćizna 0.8571429
kontra kontra 1.0000000
wjeliku wulki 0.0045045
wjeliku tajkale 0.3333333
wjeliku wulku 0.7671233
wjeliku mnohosć 0.5000000
wjeliku hobersku 0.1428571
wjeliku čwěla 0.5000000
wjeliku wulke 0.0137931
wjeliku přewulki 0.0476190
wjeliku njesměrnu 0.3333333
wjeliku NULL 0.0001442
chapjało započało 0.1111111
pśedsedarjach předsydach 1.0000000
pówětšowych powětrowych 1.0000000
wuraza wurazaj 1.0000000
wuraza wuraza 0.2000000
wopěranja spjećowanja 1.0000000
1934 1934 1.0000000
źěliła bariera 0.5000000
źěliła dźěliła 1.0000000
mfenced mfenced 1.0000000
zlodowali nakładował 1.0000000
strony pasma 0.0625000
strony strony 0.2102564
strony kónčiny 0.2051282
strony wočerstwjenišćom 0.3333333
strony přirodoškitne 0.5000000
strony hona 0.1666667
strony kraje 0.0312500
strony stronsce 0.5000000
strony kraj 0.0054945
strony kónčina 0.2666667
strony stronske 0.5000000
strony kónčinu 0.2222222
wobstojała wobsteješe 0.3000000
doźaržujomy dodźeržujomy 1.0000000
pśiběrajotej přiběratej 1.0000000
jeruzalema jerusalema 1.0000000
nadgóźiny nadhodźiny 1.0000000
brětni brětni 1.0000000
wuwijanju wuwiwanju 0.9523810
wuwijanju wuwiću 0.0238095
pśigranjaś docpěwać 1.0000000
suknowy płatowy 0.6666667
692 692 1.0000000
wódnych wódnych 1.0000000
wódnych wodowych 0.5000000
rozpósćelomy rozesćelemy 0.3333333
rozpósćelomy swoje 0.0008554
wuznajom wuznaju 0.3333333
wěcejnitkowu wjacenitkowu 1.0000000
pawcyna pawčina 0.7500000
pawcyna při 0.0006575
scynił składował 0.0350877
njepóstarcy njenasadźi 1.0000000
domacnego domjaceho 1.0000000
huzwólił wuzwolił 0.1428571
transparency transparency 0.4000000
baslenju paslenju 0.5000000
biopłunowe biopłunowe 1.0000000
zogol tołk 0.5000000
zogol to 0.0002115
zogol haruja 0.5000000
zogol hołk 0.3333333
zogol hara 1.0000000
zogol haru 0.5714286
zogol NULL 0.0001442
njepśistojne njepřistojne 1.0000000
městnoju podpěrał 0.0588235
městnoju městnu 0.7894737
městnoju stejnišćo 0.1521739
mrokam mjezam 1.0000000
konstituěrowanju skonstituowanju 1.0000000
konstituěrowanju konstituowanju 1.0000000
změrował změrowało 1.0000000
změrował změrował 1.0000000
změrował wopokojił 1.0000000
žałosny ty 0.0019011
žałosny zaklaty 0.3333333
wótrosć móhła 0.0066225
wótrosć wotrosć 1.0000000
cyklusami cyklusami 1.0000000
deska deska 0.3846154
wažnym wažnym 0.8750000
njespomnjeś njespomjatkować 0.6666667
jajach zajim 0.0147059
jajach jejkach 0.5000000
nabocnych nakromnych 1.0000000
tv tv 1.0000000
bazowych bazowych 1.0000000
šćitane NULL 0.0001442
šćitane škitane 0.8461538
njespódobaju njespodobaja 1.0000000
pśiběranja přiběranja 1.0000000
slědki be 0.2500000
slědki not 0.1250000
slědki should 1.0000000
slědki which 1.0000000
slědki posteriors 1.0000000
wódowódow wodowodow 1.0000000
chóśebuzu-knorawje choćebuzu-knorawje 1.0000000
pśilubiłej přilubiłoj 1.0000000
wuchad wuchad 1.0000000
optimalnego optimalneho 1.0000000
pśedskoka předskoka 1.0000000
pśedskoka kak 0.0023121
měrniwych měrliwych 1.0000000
zmilny smilny 0.8000000
zmilny nyronom 0.2500000
zmilny smilnosć 0.0714286
serbsko-nimske serbsko-němsku 1.0000000
serbsko-nimske serbsko-němske 1.0000000
pomjenjowanja pomjenowanja 0.5000000
pśipowěźenju wozjewjenju 0.0833333
oauth-klucow oauth-klučow 1.0000000
tog dyrbimoj 0.1250000
tog tutoho 0.0024510
tog dokelž 0.0097245
tog toho 0.0014771
tog tohodla 0.0028490
spěchowanje spěchowanju 0.0163934
spěchowanje spěchowanja 0.0566038
spěchowanje spěchowanje 0.9597315
srjejźnej srjedźnej 0.7096774
scasom sčasom 0.2413793
scasom wothladuje 0.5000000
lubin lubin 1.0000000
chillona chillona 0.8333333
póśěźenje poćeženje 0.6666667
muski muž 0.3563218
muski swak 0.1666667
muski muski 0.3333333
muski młodźenc 0.1428571
muski heju 0.2500000
talentěrowane talentowani 1.0000000
słownik słownik 1.0000000
žadławe wohidne 0.2000000
žadławe bědne 0.5000000
dowólonej dowolene 0.0224719
dowólonej dowolenej 0.6000000
navigator.mozfm navigator.mozfm 1.0000000
wótlicenja podlěšuje 0.5000000
wótlicenja wotličenja 0.9000000
wótlicenja doby 0.0555556
wótlicenja kóždu 0.0217391
pósćiwańsku darjensku 0.8000000
medalju medalju 1.0000000
wobstawnje wobstajnje 0.1500000
wobstawnje stajnje 0.0064935
wobstawnje jenako 1.0000000
wobstawnje runostajnje 1.0000000
pśichyla NULL 0.0001442
grěšył zhrěšił 0.5000000
grěšył by 0.0009050
supermarku superwikach 0.6666667
kontaktne kontaktne 1.0000000
wjeršku wjeršku 0.2857143
nedoma nedoma 1.0000000
wulašujomy zhašamy 0.6666667
nitkow nitkow 0.8000000
transformacije transformacije 1.0000000
pśinjasom přinjesu 0.1538462
pśinjasom wróćo 0.0049261
pśinjasom sudobjo 0.0500000
iniciěruju iniciěrować 0.4000000
bateriju bateriju 1.0000000
woku wóčku 0.0714286
woku wobchować 0.0256410
wulicowaŕsku powědacu 1.0000000
wušparanja wušparanja 0.1666667
informaciskeje informaciskeje 1.0000000
prima bahno 0.0714286
prima wulkotne 0.0222222
prima wurjadnje 0.3333333
prima prima 1.0000000
prima wulkotnje 0.0606061
wašomu wašej 0.0117647
wašomu waše 0.0067114
wašomu stejnišćo 0.0217391
wašomu waš 0.0114286
wašomu NULL 0.0001442
wašomu wašemu 0.8378378
snano snano 0.0052493
zgrabało nahrabało 1.0000000
pśistupiś je 0.0000896
pśistupiś přistupić 1.0000000
drogujośo waš 0.0019048
drogujośo wjedźe 0.0133333
drogujośo wy 0.0040486
drogujośo puć 0.0081301
zlubijom tebi 0.0103093
zlubijom slubju 0.6666667
zlubijom ja 0.0016611
wótgrali wothrali 1.0000000
pomocny pomocny 1.0000000
pomocny łatku 0.3333333
pomocnik pomocnik 0.6666667
pomocnik pomoc 0.0090909
wótworjone wotewrjene 0.0526316
ryby ryby 0.7500000
zwjeršny zwjeršny 1.0000000
wuměnjaśo wuměnjeće 1.0000000
nalětny nalětni 1.0000000
nalětny jutrownik 0.5000000
mycha hika 1.0000000
psow psow 1.0000000
někotarymi někotrymi 0.5454545
někotarymi wjacorymi 1.0000000
někotarymi něšto 0.0035971
posće posće 1.0000000
html5 html5 1.0000000
pówušyła powyšiła 1.0000000
pówušyła zwyšiła 1.0000000
łagodnje łahodnje 1.0000000
historiski historiski 0.8000000
historiski historisce 1.0000000
pśełožył přełožił 0.8750000
rěcnicowu rěčnicow 0.4000000
pjerwonaroźony tón 0.0047393
pjerwonaroźony narodźeny 1.0000000
pjerwonaroźony před 0.0022676
pjerwonaroźony prěni 0.0049505
sponsorow sponsorow 0.7500000
chudy chudy 1.0000000
łužycy łužicu 0.0151515
łužycy łužicy 0.7278351
halle halle 1.0000000
wucbneje wučbneje 1.0000000
spamowego spamoweho 1.0000000
pśimjeł přimnył 1.0000000
krajowej krajowej 1.0000000
wabi wabi 0.9523810
wabi maturantow 0.1428571
njesćelćo njesćelće 0.2500000
skrotcenjow skrótšenjow 0.6666667
wjeraškowe wjerškowe 1.0000000
zeškóźeś ha 0.0238095
zeškóźeś zeškodźeć 1.0000000
zeškóźeś hižo 0.0007628
andelu angelu 0.5000000
spiwaju spěwaja 1.0000000
spiwaju spěwaju 1.0000000
gymnazium gymnaziju 0.0238095
gymnazium gymnazij 0.1272727
kóńcne kónčne 0.8461538
kóńcne kónčni 1.0000000
kóńcne kónčnych 0.1428571
kontaktach kontaktach 1.0000000
wopśimjeśoma wopřijećomaj 0.5000000
pśibytnymi přitomnymi 0.8000000
10.2.2 10.2.2 1.0000000
wulosowałej wulosowałoj 1.0000000
dobyśaŕ dobyćer 0.6363636
zagronitostne zamołwite 0.1500000
pomagas pomhać 0.0040486
26a 26a 1.0000000
serbsko-nimskimi serbsko-němskimi 1.0000000
hackerow hackerow 1.0000000
younga younga 1.0000000
pótrjebje potrjebje 0.8888889
pótrjebje je-li 0.1111111
rumańkowych kamilkami 0.3333333
rumańkowych z 0.0001349
zwite zdaća 0.0454545
zwite njezwisowace 0.3333333
console.info console.info 1.0000000
kurs je 0.0000896
kurs kurs 1.0000000
kurs běh 0.2500000
rozpósłała rozpósłała 1.0000000
wócakaś wočakować 0.0909091
spoolowem spoolowym 1.0000000
zapodawańskeje zapodawanskeje 0.3333333
domami domami 1.0000000
pólěpšyś polěpšeć 0.2222222
pólěpšyś polěpšować 0.1111111
pólěpšyś polěpšić 0.9418605
pólěpšyś polěpšili 0.1000000
centra centra 1.0000000
filtry filtra 0.2222222
filtry filtry 0.9166667
filtry hač 0.0006305
linda linda 0.9495798
indoeuropskich indoeuropskich 1.0000000
hodźija hodźija 0.2500000
kwětkami kwětkami 0.5000000
njesćerpny njesćerpny 1.0000000
swójnej domjacej 1.0000000
góspodujo hospoduje 0.3333333
góspodujo hospodowany 0.3333333
rekordowe rekordne 0.5000000
portala portala 1.0000000
janhoefer janhoefer 1.0000000
lišeje lišeje 1.0000000
luba słódka 0.2500000
luba dobroćiwa 0.6666667
luba luba 0.7500000
njeźaržał njeměł 0.0500000
pśidatnje wudospołnjejo 1.0000000
pśidatnje přidatnje 0.9090909
wózyku chorobnym 0.2500000
wózyku jězbnym 0.5000000
njemyslimy njemyslimy 1.0000000
chowaj chowaj 1.0000000
energijowej energijowemu 0.5000000
energijowej energijowej 0.7142857
njewótwónoźijo njewotstroni 0.5000000
nico ničo 0.0051813
wobglědowanju wobhladowanju 1.0000000
wobglědowanju wobkedźbowanju 1.0000000
slězynje pozadku 1.0000000
rewěrowu rewěrow 0.5000000
wótłamjo . 0.0000211
wótłamjo wotłama 0.3333333
komplicěrowany komplikowany 0.6666667
rownaju podobne 0.0322581
rownaju NULL 0.0001442
kusoju hra 0.0370370
žerdka samočinjena 0.2500000
wusćełał wusyłał 1.0000000
gnała běžała 0.3333333
rewizorow rewizorow 1.0000000
nawopaki nawopak 0.2352941
zas božemje 0.0476190
zas přeco 0.0050761
zas hišće 0.0007559
zas znowa 0.0059172
zas cyła 0.0357143
zas knježkow 0.2500000
zas zaso 0.0406852
zas zabywam 0.5000000
zas pěši 0.0833333
zas stawiznu 0.0769231
zas chceš 0.0068027
zas wjace 0.0012438
zas raz 0.0015601
zas wróću 0.1250000
zas wot 0.0005708
zas sem 0.0194175
zas , 0.0000320
zas NULL 0.0004325
wóteběrajuceju woteběracej 0.3333333
swětosny swjatočny 1.0000000
zapłaśenja płaćenja 0.0769231
zapłaśenja NULL 0.0001442
zapłaśenja zapłaćenja 0.8181818
zapłaśenja zapłaćić 0.0555556
procesow procesow 1.0000000
pśitykajśo stykajće 1.0000000
rejtarje křižerjo 0.4444444
rejtarje kotrajž 0.1250000
rejtarje jěcharjo 1.0000000
rejtarje křižerjej 0.3333333
póbitowanjach poskitkach 0.2500000
derbiłej dyrbještaj 0.2500000
rozpósłanje rozesłanje 1.0000000
kuždeje kóždeje 0.7333333
pówabjenje powabjenje 1.0000000
wólbnu wólbnu 1.0000000
wólbnu dobu 0.0666667
twóriło tworiło 1.0000000
pśesuń přesuwaj 0.8888889
gmejnach gmejnow 0.0163934
gmejnach gmejnach 1.0000000
napisanu napisanu 1.0000000
koncepcijami koncepcijemi 1.0000000
barliń-chóśebuz-zgórjelc berlin-choćebuz-zhorjelc 1.0000000
planowańsku planowansku 1.0000000
wujkami wulkowujemi 0.5000000
wujkami wujemi 1.0000000
materielnje materielnje 1.0000000
stwórjonej měra 0.0434783
nosaŕstwa nošerstwa 0.8571429
myslona myslena 1.0000000
kśidłowu křidłow 0.3333333
organizmy organizmy 1.0000000
wokrjesnem wokrjesnym 0.1250000
max-age max-age 0.3333333
prezentěrujom prezentuju 1.0000000
zapódawanim zapodawanjom 1.0000000
tabeloweje cele 0.1428571
tabeloweje tabeloweje 1.0000000
wupowěźeł wupowědźił 0.6666667
zakładneju zakładnej 0.1538462
njestupijo njestupi 1.0000000
njestupijo mi 0.0019268
njestupijo njebudźe 0.0086957
njestupijo njeda 0.0026596
njestupijo nima 0.0056497
pśebył přebył 1.0000000
dwójosemesterski dwusemesterski 1.0000000
cynitosć činitosć 1.0000000
bóžy boži 0.6153846
bóžy ale 0.0006978
funkciske funkciski 0.5000000
webnałoženjow webnałoženjow 1.0000000
webnałoženjow ekosystemje 0.2500000
webnałoženjow weba 0.0400000
webnałoženjow wotewrjeneho 0.0140845
kubłarja kubłarja 0.5000000
kubłarja plahowarja 1.0000000
witśe jutře 1.0000000
gólneju tej 0.0277778
gólneju lěsnej 0.4000000
źěwin dźěwin 1.0000000
dowjeź dowjedź 1.0000000
dowjeź dowjědź 1.0000000
wobkšuśiju wobkrućeja 0.6666667
wobkšuśiju wobkruća 0.2000000
direktiwu prošu 0.0013158
direktiwu direktiwu 1.0000000
tweet tweet 1.0000000
wutwariś wutwarić 1.0000000
wupśestrěwa wupřestrěwa 1.0000000
pódanego njeporadźiło 0.0909091
pódanego podateho 1.0000000
wucył wučił 0.8333333
zawjeduju architektury 1.0000000
chora chóra 0.8666667
misioństwa misionstwa 1.0000000
1881 1881 1.0000000
składowanego składowaneho 1.0000000
składowanego składowaneje 0.2500000
dopołnili personalne 0.1000000
wustojaś wučuć 0.3333333
wustojaś čuć 0.0666667
zajmnymi zajimawymi 1.0000000
słowjańskeje słowjanskeje 1.0000000
dosća dosća 1.0000000
derbjaštej dyrbještej 0.5000000
protestěrowaś klimu 0.1000000
protestěrowaś nastupajo 0.0067568
protestěrowaś protestować 1.0000000
pśetergnuś publikować 0.2000000
pśetergnuś přetorhnyć 0.8965517
połdnjo připołdnjo 0.3333333
połdnjo juh 0.2500000
połdnjo połdnju 1.0000000
połdnjo wosrjedź 0.0327869
połdnjo měrna 0.2500000
połdnjo připołdnju 1.0000000
narodnymi awtochtone 0.3333333
narodnymi narodnymi 1.0000000
narodnymi narodne 0.0303030
promšt propst 1.0000000
145 145 1.0000000
biologiske biologiske 1.0000000
kapitelu kapitlu 0.2857143
młynom młynom 1.0000000
smječkecy smječkecy 1.0000000
pósejźenjach posedźenjach 0.8750000
pósejźenjach wuradźowanjach 0.7777778
pósejźenjach lońšich 1.0000000
barlinja berlina 1.0000000
indigo indigo 0.5000000
mycroft mycroft 1.0000000
powědałej rěčmoj 0.2500000
powědałej nětko 0.0010081
powědałej rěčałoj 1.0000000
programoju programej 1.0000000
programoju program 0.0084746
źěrach dźěrach 1.0000000
slědkoju tuta 0.0015456
slědkoju NULL 0.0001442
slědkoju jich 0.0015823
slědkoju budźeš 0.0285714
slědkoju žro 0.1000000
slědkoju wšako 0.0476190
slědkoju naposledk 0.2777778
slědkoju na 0.0002331
slědkoju kóncu 0.0476190
slědkoju sej 0.0005653
slědkoju skónčnje 0.0731707
myslim-li myslu-li 1.0000000
diskusijnych diskusijnych 1.0000000
měritkow časoměrow 0.5000000
transform transform 1.0000000
lažownosći ležownosće 0.1538462
zdźělenjach zdźělenjach 0.5000000
wužywanim wužiwanjom 1.0000000
zežywijom budu 0.0038168
zežywijom žiwy 0.0120482
zakon zakoń 0.0055556
pśedsedarku městopředsydku 0.2500000
pśedsedarku městopředsykum 0.5000000
źiwnego NULL 0.0001442
źiwnego spodźiwneho 1.0000000
zakóńceńskej zakónčacej 0.6666667
piśeju chwilu 0.0909091
piśeju pyskom 0.1666667
piśeju njedóstanu 0.0714286
piśeju piću 0.3333333
pasł překusał 0.5000000
pasł to 0.0002115
nazgónjonych nazhonjenych 0.6000000
casam počasy 0.0833333
casam časam 1.0000000
casam rěkaja 0.0769231
wobslěpjeś slepi 0.2000000
wobslěpjeś woči 0.0256410
wobslěpjeś mi 0.0019268
partnaŕskej partnerskej 0.5000000
kubic kubic 1.0000000
njerozmějuce njerozumjacy 1.0000000
pśedawanišćach předawanišćach 1.0000000
mjeńšynowe mjeńšinowe 1.0000000
ekspertow fachowcow 0.1052632
ekspertow ekspertow 1.0000000
informěrowane informowani 1.0000000
informěrowane informowane 1.0000000
płaćśznow płaćiznow 0.1666667
krajoju dźensa 0.0030675
krajoju krajej 0.0666667
operu operu 1.0000000
zwurazniło nominowanju 0.5000000
zwurazniło zwurazniło 1.0000000
grodka grodka 0.6666667
wólbach NULL 0.0001442
wólbach wólbach 0.8888889
maksimalne max-age 0.3333333
maksimalne maksimalne 1.0000000
maksimalne ’ 0.0188679
maksimalne ' 0.0016807
młyński młynkowy 1.0000000
młyński młynski 0.5000000
wobydlarja wobydlerja 1.0000000
grajki hrajki 1.0000000
grajki hru 0.0277778
glažku škličku 0.2500000
glažku škleńcu 0.0400000
pśedšulsku předšulsku 1.0000000
0,2 0,2 1.0000000
coło čoło 1.0000000
namša namša 1.0000000
starosćił starosće 0.0384615
starosćił starosćiwy 0.2000000
starosćił starosćach 0.3333333
wuwijarje wuwiwarjo 0.9565217
wuwijarje přepruwowarjow 0.0416667
wuwijarje přidatkowych 0.1428571
wuwijarje wuwiwarjow 0.2857143
wótedankowego wotedawkoweho 1.0000000
njewopytajoš njespytaš 1.0000000
kluznjam prosće 0.0073529
kluznjam celam 1.0000000
kluznjam k 0.0003962
spśistupniś spřistupnić 0.9090909
spśistupniś spřistupnjeć 0.5000000
tendencow tendencow 1.0000000
pupk pupk 1.0000000
zazwóniju zazwonju 0.5000000
konsekwence konsekwency 0.8750000
njewótcakaneje njewočakowaneho 0.5000000
njezranjobnej njezranjomne 0.3333333
zjewijo jewja 0.0476190
zjewijo zjewi 0.0666667
