atribuće atribuśe 1.0000000
wopicy nałpy 1.0000000
administratorowy administratorowy 1.0000000
encrypted encrypted 1.0000000
wužadanjach wupominanjach 0.3333333
wuznajće póznajśo 0.1000000
policistkam policistkam 1.0000000
konfigurujće konfigurěrujśo 1.0000000
wjeršny bog 0.0192308
přiswojili pśiswójli 0.5000000
webstrony webstrony 1.0000000
webstrony webowe 0.2500000
webstrony ako 0.0003185
webstrony webboki 0.9411765
webstrony webboka 0.8000000
webstrony boki 0.0181818
webstrony webbokam 1.0000000
400 400 1.0000000
stłóčenjom tusnjenim 1.0000000
stłóčenjom tipowanim 0.5000000
stłóčenjom tipnjenim 0.7500000
stłóčenjom tłocenim 0.5000000
nałožk nałog 0.2222222
pseudoklasowy pseudoklasowy 1.0000000
wobdźělił wobźělił 0.6000000
darju wósebnego 0.0416667
darju pósćiś 0.0400000
darju pósćiwam 1.0000000
noworěčnikach nowopowědarjach 1.0000000
wudata rolnikaŕstwo 0.0833333
namakajće namakajśo 0.7441860
přehrěšili zgrěšyli 0.5000000
certs certs 1.0000000
njepřepisujomny njeśřepisujobna 1.0000000
titlow titelow 0.2500000
titlow wót 0.0005359
titlow tych 0.0044643
zeznał w 0.0001044
zeznał budyšynje 0.0063694
zeznał zeznał 1.0000000
zeznał póznał 0.3333333
zeznał wupóznał 1.0000000
hlada wobija 0.2222222
hlada glěda 0.2500000
hlada rukoma 0.0357143
hlada paso 0.3333333
hlada tužnje 0.5000000
čołmikowanja cołnowanja 1.0000000
kontekstach kontekstach 1.0000000
šansowu šansowu 1.0000000
pětrowsku pětšowskej 1.0000000
wjerchowska wjerchojska 1.0000000
pytanjom pytanim 1.0000000
dźi póraj 0.2500000
dźi śisnuś 0.1250000
dźi stup 0.5000000
dźi źi 0.8412698
dźi pśejź 0.5000000
dźi měj 0.0512821
pokaže dejał 0.0052910
pokaže kak 0.0011274
pokaže ten 0.0008547
pokaže pokazaś 0.0068966
skripta skripta 1.0000000
slaknyć cuznikam 0.2000000
direkciju direkciju 1.0000000
ewangelske ewangelske 0.7777778
milinarnjach milinaŕnjach 1.0000000
lubje lubje 0.6666667
lubje wutšobnje 0.1000000
forumach forumach 1.0000000
brošurki brošurki 1.0000000
pytamoj pytamej 1.0000000
rutiny wótběgi 0.0769231
rutiny zwucone 0.0769231
rutiny rutiny 0.7500000
rutiny dnju 0.0322581
rutiny we 0.0011521
documentfragment documentfragment 1.0000000
rozšěrće rozšyrśo 1.0000000
rozšěrće rozšyŕśo 1.0000000
matematiki matematiki 1.0000000
njeeksistowace njeeksistěrujuce 1.0000000
milionomaj milionoma 1.0000000
handyjom handyjom 1.0000000
kreji kšwě 0.2500000
wobrazowka wobrazowka 1.0000000
stać rozměś 0.0185185
stać starstwo 0.0434783
stać wuknuś 0.0235294
stać asimilěrujo 0.5000000
stać k 0.0003378
stać wobstatkoju 0.2500000
stać wordowaś 0.1250000
stać NULL 0.0004649
stać wuwiś 0.1428571
stać źěłaś 0.0176991
stać byś 0.0096419
stać staś 0.8064516
stać janka 0.0909091
stać moment 0.1666667
stać stojaś 0.7916667
rumej rumoju 1.0000000
lilija lilija 1.0000000
wočakń wobcakaj 1.0000000
nóžkowali nožkowali 1.0000000
zazběh zachopk 0.2500000
zazběh k 0.0006757
zazběh zachopjeńk 0.0298507
spočatkom zachopjeńkom 0.2500000
runostajeni NULL 0.0002325
wužitny wšě 0.2000000
wužitny wužytny 0.4736842
wužitny wužytne 0.0217391
wužitny wužytna 0.0400000
zaplanuja zaplanuju 1.0000000
zasadźamy zasajźujomy 0.6666667
zasadźamy zasajźamy 1.0000000
parki parki 1.0000000
zakitujće zašćitujśo 1.0000000
zakitujće zašćitaśo 1.0000000
kwitowanku wobtwarźenje 0.0909091
kwitowanku dostaśa 0.2500000
kwitowanku kwitowanku 1.0000000
přeměnjał pśemjenjał 1.0000000
nazwučowanych nazwucowanych 0.3333333
nazwučowanych z 0.0005409
rjeńše rědnjejše 1.0000000
rjeńše rědnjejšy 1.0000000
suknjemi kóšulami 1.0000000
zynk zukk 1.0000000
zynk zuk 0.3529412
zynk zuka 0.5000000
wotmołwa wótegrono 0.1913043
wotmołwa njwótegronijo 0.5000000
wotmołwa to 0.0005612
nalistowanu naliconu 1.0000000
poměr poměr 0.9545455
server server 1.0000000
server serwer 0.0076336
l-lubuje lubujo 0.0476190
nastawali nastawali 1.0000000
swětłej swětłej 0.7500000
swětłej zwobraznjenim 0.2500000
narěču narěcu 1.0000000
frekwencu frekwencu 1.0000000
funkcijam funkcijam 0.1666667
překrótka pśekrotke 0.0769231
překrótka pśekrotka 0.3333333
chłostanski chłostański 1.0000000
teho togo 0.0095785
teho NULL 0.0002325
ratarjow rolnikarjow 1.0000000
ratarjow rolnikarjam 1.0000000
dobremu dobremu 1.0000000
baza baza 1.0000000
charakterje charakterje 1.0000000
horiła górjeła 1.0000000
optimalnych optimalnych 1.0000000
optimalnych było 0.0051282
ćichim w 0.0002087
ćichim śišynje 0.3333333
ćichim sćichim 1.0000000
rjemjeslniske rucnikaŕske 1.0000000
chudy chudy 1.0000000
fotografować fotografěrowaś 0.9000000
přisprawne pśiměrjone 0.0400000
wotkubłała mnjo 0.0068493
wotkubłała wótrosła 0.5000000
wotkubłała pśi 0.0006447
čitajomne cytajobne 1.0000000
čitajomne cytajobna 1.0000000
pjelnjena połnjona 1.0000000
njechamy dajomy 0.0434783
kulimano kuliman 0.0714286
lisćowy listowy 1.0000000
kulowscy kulojske 0.5000000
přećehnjemy pśeśěgnjomy 1.0000000
wohrožuja NULL 0.0004649
wohrožuja wobgrozuju 0.2000000
seniorojo seniory 1.0000000
grabičanski grabicański 1.0000000
najznaćišim nejwěcej 0.0272727
najznaćišim znatym 0.1666667
jednostronska jadnobocna 1.0000000
2.2.5 2.2.5 1.0000000
kodej kodoju 1.0000000
pólne pólne 0.3333333
wobradu skamsone 0.3333333
wobradu wše 0.0058824
wobradu jěze 0.0370370
hinaše hynakšego 0.2000000
hinaše hynac 0.0461538
hinaše drugu 0.0322581
hinaše hynakše 0.9130435
hinaše druge 0.0144928
předpołožimy pśedpołožujomy 1.0000000
předpołožimy pšawidłownje 0.0204082
2012 2012 1.0000000
startowane NULL 0.0002325
startowane startowane 1.0000000
informatiki informatiki 1.0000000
listowej lista 0.1111111
listowej friedricha 0.3333333
tr-trjebaš tr-trjebaš 1.0000000
přiwěškowy pśiłožkowa 1.0000000
štyristronskim styribocnej 1.0000000
měnjenje groniš 0.0434783
měnjenje měnjenje 1.0000000
měnjenje NULL 0.0002325
pječat zygel 1.0000000
plěki prěki 0.1250000
prastara prastara 1.0000000
wjazaneje wězaneje 1.0000000
importowanje njedajo 0.0024331
importowanje importěrowanje 0.5882353
importowanje dataje 0.0069930
importowanje import 0.1250000
po-po-poprawom za-za-zapšawym 1.0000000
hwězdow cełem 0.0273973
hwězdow póznajo 0.2000000
hwězdow gwězdow 0.6000000
hwězdow swěśe 0.0194175
bachtaja wulicuju 0.0555556
bachtaja rozgranjaju 0.1000000
rjadowane zrědowane 1.0000000
rjadowane rědowane 0.8750000
wokrjesne wokrejsne 0.6363636
retoromanow retoromanow 1.0000000
změnjena změniła 0.0370370
změnjena změnjona 1.0000000
bloga bloga 1.0000000
nanowy nanowy 1.0000000
městnosćemi městnosćami 1.0000000
kónčk kusk 0.0666667
kónčk kus 0.0250000
kónčk kóńcyk 1.0000000
kónčk špica 1.0000000
wowčernju šapaŕnju 1.0000000
archiwowany archiwěrowany 1.0000000
instancami instancami 1.0000000
wječerju wjacerju 0.1250000
łuchowom łuchowom 1.0000000
zakładźe zakłaźe 0.9940120
zakładźe póstajenju 0.2400000
zakładźe tom 0.0007893
zakładźe pó 0.0012477
zakładźe póśěgujuce 0.5000000
zakładźe pódłoze 1.0000000
grönlandskej grönlandskej 1.0000000
lubijski lubijski 1.0000000
jörg jörg 1.0000000
čumpacaceho hympatemu 0.5000000
přichodnymi pśiducymi 1.0000000
přichodnymi pśichodnymi 1.0000000
přikładźe pśikłaźe 1.0000000
kajka NULL 0.0002325
kajka co 0.0008177
kajka kaki 0.0576923
kajka kake 0.0869565
kajka kaka 0.5357143
wopomjatnu wopomnjeńsku 0.6666667
rajtarkom rejtarkom 0.6666667
rajtarkom rejtarikom 0.5000000
nječłowječeje cłowjeskego 0.2500000
nječłowječeje zalubował 0.1428571
rosćace rosćece 1.0000000
day day 1.0000000
rozuma pśiś 0.0212766
rozuma k 0.0003378
rozuma pócnosći 1.0000000
přepytujće pśepytujśo 0.9000000
witaj witaj-źiśi 0.1111111
witaj witaj-modelu 0.4000000
witaj witam 0.0769231
witaj witaj 0.9962963
njezakónčeny njeskóńcony 1.0000000
linijomaj linijoma 1.0000000
prašenje pšašenje 1.0000000
prašenje pśinosk 0.0217391
prašenje něco 0.0061983
prašenje ja 0.0007168
prašenje pšašanje 0.9381443
prašenje pšašanjow 0.0833333
prašenje pšašaś 0.0172414
prašenje pšašanja 0.0114943
prašenje ten 0.0008547
wodopada we 0.0005760
wodopada wódopaźe 0.2000000
bydlenjom bydlenim 1.0000000
wudaćach wudaśach 1.0000000
spis pismo 0.1818182
spis publikacije 0.5000000
spis spis 1.0000000
pućował drogował 0.6666667
zastał wustał 1.0000000
hodźijskeje hodźijskeje 1.0000000
projektowymaj projektowyma 1.0000000
dokónčiće dokóńcyjośo 1.0000000
słužba proksyjowa 0.6666667
słužba słužba 0.9259259
domoródnymi domorodnymi 1.0000000
zasadźał zasajźał 0.6000000
zasadźał zasajźił 0.2222222
pohladnył póglědnuł 1.0000000
rajtarkowej rejtarikowej 1.0000000
płata płata 0.3750000
płata sukna 0.3333333
čołmik lubjej 0.0058140
čołmik cołn 0.3846154
čołmik pón 0.0044444
čołmik hymaptego 0.2500000
čołmik ten 0.0034188
čołmik trěbny 0.0344828
čołmik zalipaś 0.2500000
čołmik hympatego 0.5000000
ptačeje ptaškoweje 0.1818182
naspomnjena naspomnjejo 0.6000000
praktikami praktikami 0.6666667
wusušena sprěta 0.5000000
njedocpěwaja njedojśpiwaju 1.0000000
tattoowow tattoo 1.0000000
fachowej fachowej 0.9047619
fachowej fachoweju 1.0000000
wotrězkach wótrězkach 1.0000000
wotkryli namakali 0.0327869
wotkryli wótkšyli 0.3333333
wotkryli wótekšyli 0.8333333
wotnožkow w 0.0001044
wotnožkow nosaŕstwje 0.0625000
wotnožkow wótnožkow 1.0000000
zalěsnjenja z 0.0001352
zalěsnjenja pósajźanja 1.0000000
zalěsnjenja bomkami 1.0000000
program pórědy 0.2500000
program nałoženje 0.0063898
program pódrědowane 0.2500000
program to 0.0001871
program programoju 0.2500000
program program 0.9911504
potajny pótajmny 0.1250000
prěd to 0.0001871
prěd juž 0.0070922
prěd pśed 0.0044944
prěd dawnymi 0.5000000
prěd jo 0.0000693
stadła rědownje 0.0952381
stadła zgromaźiś 0.2500000
domizniski domowniski 1.0000000
wědu znaśim 1.0000000
wědu swóju 0.0046838
wědu wěda 0.2500000
wědu wědu 0.9325843
zrunali zrownali 1.0000000
ljubljany ljubljany 1.0000000
zapokazuja zapokazuju 1.0000000
wuličenske wótliceńske 0.5000000
drohoćinkam drogotkam 1.0000000
nitce nitce 1.0000000
widejoklipy wideoklipy 1.0000000
zdźělena k 0.0030405
zdźělena dane 0.0833333
zdźělena wěsći 0.0432692
zdźělena dało 0.0434783
zdźělena dała 0.0256410
zdźělena dał 0.0403226
njerěču dlej 0.0188679
njerěču njepowědam 0.6000000
njerěču rozgranjaś 0.0250000
njerěču pópowědam 0.5000000
prócowarjam akteram 0.5000000
prócowarjam procowarjam 0.4000000
potajnstwo pótajmstwo 0.7428571
potajnstwo listowe 0.1538462
potajnstwo zatajony 0.5000000
potajnstwo njepócynk 1.0000000
potajnstwo někaki 0.0333333
potajnstwo kšajźnu 0.5000000
potajnstwo pótajmstow 1.0000000
potajnstwo gluku 0.0312500
potajnstwo słabosć 0.3333333
wuspěch wuspěch 0.9736842
jedno- jadno- 1.0000000
nerwozny nerwozny 0.8333333
grólmusec grólmusec 1.0000000
sudobjom wobrědom 0.3333333
najchudša nejchudša 1.0000000
motiwaciju motiwaciju 1.0000000
motiwaciju na 0.0002278
wabimy wabimy 1.0000000
najlóše nejlažčejša 0.5000000
najlóše nejlažčejše 1.0000000
kodować koděrowaś 0.1250000
štwórtu stwórtu 1.0000000
stejće stojśo 0.5000000
wobarać wobaraś 1.0000000
wobarać źaržaś 0.0169492
warnowanjom warnowanjami 0.5000000
warnowanjom warnowanim 0.5000000
pokazał pokazała 0.0384615
pokazał menij 0.1000000
pokazał pokazał 0.4242424
pokazał zwobraznił 0.1333333
pokazał webbok 0.0400000
pokazał NULL 0.0002325
kiwa kiwa 1.0000000
scenarijow knigłow 0.0212766
scenarijow scenariskich 1.0000000
skóncowanu zezłamowany 1.0000000
skóncowanu ten 0.0008547
56.0.1 56.0.1 1.0000000
transportne transportne 1.0000000
operatora operatora 1.0000000
importscripts importscripts 1.0000000
wuwića wuwiśe 0.0114943
wuwića marku 0.0769231
wuwića wuwiśa 0.9677419
wuwića wuwiśim 0.1176471
šulskemu šulskemu 0.8333333
šulskemu NULL 0.0002325
bjezbóžne deje 0.0105263
bjezbóžne prozne 0.0256410
bjezbóžne hucby 0.2500000
bjezbóžne pódla 0.0158730
marće marśe 1.0000000
inicializować inicializěrowaś 1.0000000
njerozmołwjam wšednymi 0.5000000
honjachu leśeli 1.0000000
honjachu góńtwowali 1.0000000
kompletny kompletny 1.0000000
žiwjenske moto 0.4000000
žiwjenske žywjeńske 1.0000000
kćenjow kwiśonkow 0.5000000
poslednjeje slědneje 1.0000000
wudźenka wužeńc 0.0769231
wudźenka łapotka 0.6666667
wudźenka na 0.0001139
meek meek 1.0000000
twelze by 0.0011111
twelze teke 0.0004312
twelze twjelze 0.3333333
instabilna instabilna 1.0000000
zabawjenska rozdrosćenja 1.0000000
homogenity homogenosći 1.0000000
žwjenkam swój 0.0019881
žwjenkam žwanklim 1.0000000
prašało pšašało 1.0000000
prašało stajiło 0.1428571
nowowotewrjenje nowe 0.0022727
nowowotewrjenje wótwórjenje 0.1250000
analytics analytics 0.8750000
swětle swětle 0.7500000
smětaj smějotej 0.2500000
silwesterski silwesterski 1.0000000
wobdźěłanym wobźěłanym 1.0000000
njeseriozne njeseriozne 1.0000000
hódnoćić wuchwalowaś 1.0000000
hódnoćić gódnośiś 1.0000000
wiki pśedank 0.3333333
wiki wiki 0.9459459
wiki tyźeński 0.0714286
staćanske staśańske 1.0000000
lětnje raz 0.0037267
lětnje wob 0.0428571
lětnje lěśojske 0.5000000
lětnje lětnje 1.0000000
dokumenta dokumenta 0.9230769
raduja dobrego 0.0400000
raduja luštuju 1.0000000
raduja kružk 0.1111111
space space 1.0000000
pominy minuła 0.5000000
nyšpor wjacernja 1.0000000
zraništaj zraniłej 1.0000000
přirunuje pśirownujo 1.0000000
łazyš wokoło 0.0089286
łazyš łazyś 0.5000000
archiwom archiwom 1.0000000
trajneho wobstawnego 0.6666667
arya areyla 0.5000000
arya aryu 0.3333333
arya ayrje 0.1666667
arya arya 1.0000000
arya ga 0.0017123
arya a. 0.0400000
arya ayra 0.7500000
aesgcm aesgcm 1.0000000
přichodom pśichodom 1.0000000
tokenom tokenom 1.0000000
spjatych spětych 1.0000000
słódne lěbgodne 1.0000000
słódne słodnego 0.5000000
słódne słoźi 0.3333333
słódne dobrego 0.0400000
słódne dobre 0.0066225
słódne derje 0.0021142
słódne dobrych 0.0555556
słódne což 0.0019231
słódne słodne 0.5000000
inspektor inspektor 1.0000000
njeporjedźujomny njewótpórajobna 1.0000000
konflikta rozsudoju 0.1111111
konflikta konflikta 0.8750000
umsch umsch 1.0000000
wumolowanske wumólowańskimi 1.0000000
plaćenje plaśenje 1.0000000
plaćenje te 0.0014556
pokłada pokłada 1.0000000
wobsydstwa zamóženja 0.0909091
wobsydstwa zdobyś 0.0357143
wobsydstwa wobsejźeństwa 0.4666667
čistym cystymi 0.3333333
čistym běłymi 0.2500000
attribution-noncommercial-share attribution-noncommercial-share 1.0000000
plenumom plenumom 1.0000000
drježdźansko-mišnjanske drježdźańsko-mišnańske 1.0000000
drježdźansko-mišnjanske drježdźańsko 1.0000000
drježdźansko-mišnjanske drježdźańsko-mišnjańske 1.0000000
ptači ptaškowu 1.0000000
ptači ptaškowa 0.8000000
sprawidła spšawidła 1.0000000
bojosće měrom 0.2000000
bojosće bójaznosći 1.0000000
sydomnaće sedymnasćo 1.0000000
zybolenčka błyskotanja 1.0000000
strukturowane w 0.0001044
strukturowane strukturěrowanej 1.0000000
komdźił wótlěkaśo 0.3333333
šalce piśa 0.0625000
šalce połna 0.0250000
šalce taska 0.1111111
šalce guslowańskego 0.1666667
šalce ja 0.0007168
šalce tasce 1.0000000
falowaca felujuca 1.0000000
falowaca felujuce 0.0909091
falowaca NULL 0.0002325
ličbach licbach 1.0000000
naslědnej naslědnej 1.0000000
naslědnej naslědnem 0.5000000
10.2.4 10.2.4 1.0000000
nominalna nominalna 1.0000000
eksistujemy eksistěrujomy 1.0000000
pohibujeće gibjošośo 1.0000000
kołbaski jěšnice 0.5000000
wudźeržowanje wobstaranje 0.2000000
bronzoweho bronzowego 1.0000000
swačinje wjacerni 1.0000000
njepěstuje njeźiwa 0.1428571
kruteho kruteho 1.0000000
talerje talarje 1.0000000
specialne specialne 1.0000000
wobzamknjene wobzamknjene 1.0000000
wobzamknjene wobzamknjone 1.0000000
wjelb wjelb 1.0000000
wopytujeće se 0.0010434
wopytujeće kótarymž 0.0259740
wopytujeće kótaremuž 0.0555556
wopytujeće ku 0.0156250
wopytujeće woglědujośo 0.7500000
wopytujeće woglědujuśo 1.0000000
změrowanju změrowanju 1.0000000
publikacija publikacija 1.0000000
nowelěrowaneho nowelěrowaneje 1.0000000
hobersku wjelicku 1.0000000
hobersku wjeliku 0.0151515
připóznata pśipóznaty 0.0909091
připóznata pśipóznata 1.0000000
njedwěluje njecwiblujo 1.0000000
přepadnyło pśepadnuło 0.7777778
prasnyło prasnuło 0.2500000
berlinje barlinju 1.0000000
njehrozy zběgoju 1.0000000
njehrozy njegrozy 1.0000000
zhaša wulašujo 0.9714286
zhaša lašujo 0.4000000
zhaša wualšujo 1.0000000
zhaša buźo 0.0034247
zhaša lašowaś 0.0157480
zhusćenje zgusćenje 1.0000000
njepodpěrujetej njepódpěratej 1.0000000
nimamy njamamy 1.0000000
nimamy namamy 1.0000000
pytanskeje pytańskeje 1.0000000
powołansce pówołanju 0.1052632
powołansce pówołański 0.0555556
powołansce w 0.0002087
xpcom-programowarja xpcom-programěrowarja 1.0000000
załožbowym załožbowem 1.0000000
atrakcije atrakcije 1.0000000
dźěsći góleśi 1.0000000
dźěsći dwě 0.0082645
dźěsći źiśi 0.0011261
sćahnyła ześěgnuła 0.7500000
sćahnyła ześěgnuł 0.0400000
čłowjekom drugi 0.0063291
čłowjekom cłowjekom 0.4000000
začuwaće zacuwaśo 1.0000000
zahrodkami zagrodami 1.0000000
kopiju kopiju 1.0000000
rumować rumowaś 1.0000000
rumować zrumowaś 0.5000000
458 458 1.0000000
sensibelnych sensibelnych 1.0000000
interwalach interwalach 1.0000000
ministerstwje ministarstwje 1.0000000
ministerstwje ministaŕstwje 1.0000000
putace zapśimujuce 0.5000000
škitał šćitał 0.9687500
prawosć pšawosć 1.0000000
dalokostudiju dalokostudiju 1.0000000
pječwom tymi 0.0222222
pječwom pjacywami 0.5000000
pječwom drugimi 0.0102041
torhošća wikowanišća 1.0000000
torhošća města 0.0070423
torhošća wikowanišćo 0.0769231
italskich italskich 1.0000000
cyłoličbna cełolicbna 1.0000000
přihłosowaše pśigłosowała 0.3333333
njezmóžni njezmóžnijo 1.0000000
zawjedł zawjadł 1.0000000
wuhotuje wugótujo 0.7142857
komentarowymi komentarowymi 1.0000000
interpretował interpretěrował 1.0000000
zažnu ranu 0.5000000
spožčenju pśizwólenju 0.3333333
spožčenju pósćenju 1.0000000
spožčenju spósćenju 1.0000000
projektami projektami 1.0000000
nowinskim casnikowem 1.0000000
sobustawskimi cłonkojskimi 0.5000000
stwomaj śpoma 1.0000000
mjenowanje mjenowanje 1.0000000
měšaneje měšaneje 1.0000000
žohnowany žognowany 1.0000000
diferencowanemu diferencěrowanemu 1.0000000
bohatych pśisamem 0.0081967
bohatych bogatych 1.0000000
bohatych bogate 0.0666667
bohatych maju 0.0013986
nawuknył nawucyli 1.0000000
nawuknył nawuknuł 0.5454545
nawuknył kradu 0.0086957
lenu lana 0.7500000
studentowych studentowych 1.0000000
5.1.2 5.1.2 1.0000000
zdźělenki zdźělenjami 1.0000000
zdźělenki powěźeńki 0.8837209
zdźělenki powěźeńkami 0.1111111
zdźělenki zdźěleńki 1.0000000
zdźělenki ze 0.0005543
zdźělenki zdźělenja 0.6250000
notoweho notowego 1.0000000
wuměłska wuměłska 0.3333333
kameradow kameradow 1.0000000
pdf pdf 1.0000000
wudźerjow wuźarjow 1.0000000
abonujće aboněrujśo 0.9090909
pro-prosće ja-jadnorje 1.0000000
pjatnateho pěśnastego 1.0000000
censura censura 1.0000000
kliknjenjemi kliknjenjami 1.0000000
přemosćiłoj pśemósćiłej 1.0000000
pokazowace pokazowańske 1.0000000
dótkom dotyknjenim 0.2500000
přespěšnje pśemalsnje 0.3333333
latin latin 1.0000000
minjeneju zajźoneju 0.5000000
minjeneju protokola 0.2000000
minjeneju zachadneju 1.0000000
ličili licyli 1.0000000
pućowanje drogowanje 0.4642857
jubilar jubilar 1.0000000
wukubła jo 0.0001386
rozesyłanska rozpósłańska 1.0000000
wobarali woborali 1.0000000
centrumow centrumow 1.0000000
dešifruje dešifrěrujo 1.0000000
zwjazaće zwězajośo 0.5000000
wuprawy drogowanja 0.5000000
wuprawy ekskursije 0.4000000
organizacijemi organizacijami 1.0000000
chetře gaž 0.0015936
sćehńće ześěgniśo 0.9423077
sćehńće zesgniśo 1.0000000
kilometry wótnazdala 0.2500000
kilometry kilometry 0.3333333
modrowa modrowa 1.0000000
rewitalizaciju rewitalizěrowanje 1.0000000
rewitalizaciju rewitalizaciju 0.8571429
njezrałe njezdrjałe 1.0000000
njezrałe nješćipam 0.5000000
dohlady doglědy 0.6000000
režiji režiji 1.0000000
big big 1.0000000
najblišeje nejblišeje 1.0000000
podpěraćel pódpěrowaŕ 1.0000000
kapičkowych larbatych 1.0000000
rododendronoweje rododendronowego 1.0000000
tónle wumjeś 0.3333333
tónle toś 0.0111715
tónle ten 0.0290598
tónle ta 0.0042827
tónle wichor 0.1428571
tónle to 0.0001871
předstajeja pśedstajaju 0.6666667
předstajeja pśedstajiju 0.3333333
předstajeja pórucyju 0.2500000
pokažu pokažu 0.0909091
šuli šulach 0.0067568
šuli šuli 0.9259259
pijemy pijomy 0.5000000
drohoćinka dogostka 1.0000000
drohoćinka pšawa 0.0050761
drohoćinka kótaruž 0.0062500
drohoćinka drogotna 0.0666667
drohoćinka wjelgin 0.0015798
drohoćinka drogostka 0.6363636
tempje tempje 1.0000000
majkanju mechom 0.5000000
majkanju z 0.0001352
majkanju łakosćony 0.3333333
majkanju hajckanjeju 0.5000000
słónčnym wjedru 0.5000000
słónčnym swěśi 0.0285714
słónčnym słyńcnem 1.0000000
swóju swój 0.0019881
kaolin kaolin 1.0000000
městopředsydka pśedsedaŕka 0.0425532
městopředsydka zastupujuca 0.1111111
městopředsydka zastupna 1.0000000
pergamenće tamary 0.1428571
pergamenće pergamenśe 0.5000000
poddomenu póddomenu 1.0000000
hłownošulske głownošulske 1.0000000
hłownošulske głowneje 0.0526316
hłownošulske pśiznawa 0.5000000
lěkarjam gójcam 1.0000000
snadnym snadnym 1.0000000
mazanej njerěšnej 1.0000000
40 była 0.0038314
40 40 1.0000000
40 pósmjertny 1.0000000
wužitniši wužytnjejšy 1.0000000
persiskeje persiskeje 1.0000000
signowała wužył 0.2333333
signowała signěrował 0.0714286
signowała powěsći 0.0344828
signowała signěrowała 0.8571429
signowała signěrowanje 0.4375000
swětadoloko cełem 0.0273973
swětadoloko swěśe 0.0194175
swětadoloko pó 0.0012477
požadaja pśizjawiju 0.1666667
80-tych 80-tych 1.0000000
sahacu segajucu 1.0000000
přičinow NULL 0.0002325
přičinow zawinow 0.4000000
přičinow pśicynow 0.4545455
rubiška te 0.0029112
rubiška rubiška 1.0000000
zastupjerkow zastupnicow 1.0000000
rozrudźiło pótužyło 1.0000000
čitał NULL 0.0002325
čitał cytał 1.0000000
njepřizjewjeny njepśipowěźony 1.0000000
hospodarskimi góspodaŕskimi 0.6666667
tajneho pótajmnego 0.7500000
inwentarowe wěcy 0.0082645
koresponduje koresponděrujo 1.0000000
kanadźe kanaźe 1.0000000
energijowu energijowu 1.0000000
kuzłarnika guslowarja 0.0869565
lisema lisema 0.5000000
darjenskich pósćiwańskich 1.0000000
złamał złamał 1.0000000
załožbowy załožbowy 1.0000000
załožbowy zaměr 0.0434783
kirbs banja 0.6666667
solidneho za 0.0001234
solidneho wuspěšne 0.0333333
wobzamknyć wobzamknuś 0.9393939
dźěrkami źěrkami 1.0000000
zdźeržliwy tšochu 0.0163934
zdźeržliwy rozymny 0.1666667
muh muh 1.0000000
dujerskeho dujaŕskego 1.0000000
šćětki šćotki 1.0000000
hibićiwym pógibliwym 1.0000000
wbohim bogim 1.0000000
rozžohnowanja rozžognowanja 1.0000000
hromadźimy gromaźimy 1.0000000
hodźiny góźiny 0.9411765
hodźiny wuznamjenjenim 0.2222222
hodźiny rejowanje 0.1666667
hodźiny góźinow 0.0555556
kryć kšyś 1.0000000
kryć makaś 1.0000000
cioff-regulach cioff-regulach 0.5000000
wuzwola wuzwóliju 0.7272727
wuzwola wuzwólijo 0.0571429
wuzwola wuběra 0.2500000
wuzwola wuzwóle 0.5000000
barbojte barwojte 0.4000000
zaručenych zaruconych 1.0000000
kermuši kjarmušy 1.0000000
zworał tu 0.0025000
zworał casu 0.0056497
zworał wokolinu 0.1000000
zworał cełu 0.0243902
zworał wugbał 0.0909091
zworał pśewórał 0.2000000
6 6 1.0000000
wora napórajo 0.0645161
wora swójo 0.0018587
gymnaziju gymnaziju 1.0000000
gymnaziju gymnaziumje 1.0000000
gymnaziju gymnazium 0.1250000
dobropis pśipisanje 0.5000000
lětnu lětnu 0.6666667
lětnu lětny 0.2500000
swojoraznosće swójoraznosći 1.0000000
instalowanski instalěrowański 0.7692308
strowjeni was 0.0025381
dorosćeni dorosćone 0.6153846
škodowacych škódniwych 1.0000000
braniborsku bramborsku 1.0000000
braniborsku nju 0.0285714
meniju meniju 0.9473684
nastupaja pótrjefiju 0.6666667
nastupaja nastupaju 0.7272727
nastupaja pótrjefje 0.5000000
asistenta asistent 0.0625000
wuměłstwowu wuměłstwa 0.0800000
wuměłstwowu wusoku 0.1052632
kuntwora pšyca 1.0000000
wobmyslenje wobmyslenje 1.0000000
pozitiwny pozitiwny 1.0000000
podpěrać pódprěś 1.0000000
podpěrać studiju 0.0555556
podpěrać NULL 0.0002325
podpěrać pódeprěś 0.8000000
podpěrać pódpěras 1.0000000
podpěrać pódpěraś 0.7962963
podpěrać pódpěrowaś 0.5000000
sto co 0.0008177
sto sto 0.9230769
sto telik 0.0384615
wjacekróćne wěcejrazowe 1.0000000
zjednoćenstwo zjadnośeństwo 1.0000000
hospodujemy góspodujomy 1.0000000
połkupa połkupa 1.0000000
röhrscheidtoweje röhrscheidtowej 1.0000000
röhrscheidtoweje w 0.0001044
doporuča póbitujo 0.0259740
doporuča dopórucyjo 0.5000000
doporuča pórucyju 0.2500000
doporuča dopórucujo 0.5384615
doporuča pórucujo 0.2222222
doporuča pórucyjo 0.0967742
sydali gódam 0.3333333
rozsudźeć rozsuźiś 0.0508475
rozmołwami rozgronami 1.0000000
zmóžnješe jo 0.0000693
zmóžnješe zmóžniła 0.1000000
eksplozija eksplozija 0.5000000
nahrawa nagrawa 0.5714286
najsylniši nejsylnjejšy 1.0000000
njemóžeš nic 0.0013263
njemóžeš njedojźoš 0.2500000
njemóžeš njegóźi 0.0344828
njemóžeš móžoš 0.0085470
njemóžeš njamógu 0.0058480
njemóžeš njeroźitej 0.2000000
njemóžeš pśecej 0.0022371
njemóžeš NULL 0.0004649
njemóžeš njamóžośo 0.0082645
njemóžeš ty 0.0019268
njemóžeš swójima 0.2500000
njemóžeš pśekopaś 0.5000000
njemóžeš tebje 0.0046083
njemóžeš njamóžoś 1.0000000
njemóžeš njamóžoš 0.8478261
njemóžeš mógał 0.0032362
kožu ruku 0.0303030
kožu kóžu 0.8750000
wróćopłaćenje wopłaśenje 1.0000000
palizandrowu palizandrowu 1.0000000
cyłym cełem 0.5479452
cyłym cełym 0.6666667
cyłym cełej 0.0344828
prawidłownje pšawidłownje 0.9693878
kontekstowych kontekstowych 1.0000000
piło piło 1.0000000
najlubšimi woblubowaneju 1.0000000
najlubšimi swójeju 0.0200000
najlubšimi nejlubšymi 0.7500000
přesćěhowarjo pśeslědowarje 0.3333333
wobchadotechniske wobchadowotechniske 1.0000000
přidałoj mnogota 0.5000000
přidałoj pśidałej 1.0000000
zarjadujće zarědujśo 1.0000000
instalater instalater 1.0000000
křiwy kśiwy 1.0000000
křiwy njesłyšy 0.2000000
praktikantki praktikantki 1.0000000
njepředawamy njepśedawamy 1.0000000
sowjetskim sowjetskem 1.0000000
sowjetskim sowjetskej 1.0000000
sowjetskim sowjetskim 1.0000000
njepřewinje njamóžo 0.0074074
njepřewinje njepśewinjo 1.0000000
njepřewinje pśewinuś 0.1111111
px NULL 0.0002325
px px 1.0000000
estg estg 1.0000000
žołmje žwale 1.0000000
wotměnjawy wótměnjaty 0.7500000
wotměnjawy wótměnjate 0.5714286
lodarnje kafejownje 0.3333333
lodarnje lodowe 0.6666667
wuradźowaštej wobradujotej 1.0000000
hinašu drugu 0.0161290
hinašu něco 0.0020661
hinašu hynakšu 1.0000000
załoženje zarědowanje 0.1093750
załoženje załoženje 0.9230769
dźowkow źowkow 1.0000000
hrajkanskimi grajnymi 0.3333333
publikacijam publikacijam 0.5000000
znamješkowych znamuškowych 1.0000000
kamjencom kamjeńcom 1.0000000
hłuposć głuposć 1.0000000
předsydstwa pśedsedaŕstwa 0.9750000
předsydstwa pśedsedarstwa 1.0000000
produktowe produktowym 1.0000000
produktowe produktowe 1.0000000
starosćiwje kradosćiwje 0.3076923
starosćiwje wobglědniwje 0.2500000
powjerchu pówjerchu 1.0000000
posedźensku póseźeńsku 1.0000000
kultiwěrowanja generacije 0.0238095
kultiwěrowanja kultiwěrowamja 1.0000000
prawymi pšawymi 1.0000000
łopjenju łopjenje 0.1250000
profily profile 0.0454545
poćeženy wobśěžkujucy 1.0000000
adresnikowych adresnikowych 1.0000000
wjeseleše wjaselił 0.3750000
wjeseleše wjaseliła 0.3000000
wjeseleše jo 0.0004852
łžičku łžycki 1.0000000
łžičku łžycku 1.0000000
šulerske wuknikow 0.0064935
šulerske wuknikojske 1.0000000
šulerske wuměny 0.0909091
hysteriju hysteriju 1.0000000
přešoł šaltował 1.0000000
přešoł pśez 0.0009083
přešoł pśejšeł 0.8888889
stabilitu stabilitu 1.0000000
antiwirusowa antiwirusowa 1.0000000
připućowanskim zasedleńskej 1.0000000
njesměm zapšawym 0.0200000
njesměm njedejała 0.0714286
njesměm ja 0.0007168
njesměm njesmějom 1.0000000
seminarje seminarje 1.0000000
namjetujemoj naraźijomej 1.0000000
rjadowaku kontrolnego 0.2500000
rjadowaku zarědniku 1.0000000
rjadowaku zapisa 0.0666667
rjadowaku pódanem 0.3333333
rjadowaku zastojniku 0.0769231
rjadowaku samem 0.1000000
rjadowaku do 0.0003084
password password 1.0000000
twarskich twaŕskich 0.9583333
bluwać bluwaś 1.0000000
sakrowanje šćokanja 1.0000000
97,5 97,5 1.0000000
předležacej pśedlažecej 1.0000000
awatar awatar 1.0000000
wobšěrnu wobšyrne 0.0465116
wobšěrnu wobšyrnu 1.0000000
ćěkancow wuběgańcow 0.8461538
.doc .doc 0.3333333
manipulować manipulěrowaś 1.0000000
personalny personalny 1.0000000
wumyslu juž 0.0070922
wumyslu wumyslijom 0.5000000
wumyslu mě 0.0007746
mjenował pomjenjował 0.5000000
mjenował pomjenił 0.1764706
mjenował wołał 0.0714286
gif gif 1.0000000
wudawanje wudawanje 1.0000000
bašće bastaji 1.0000000
njewustupja wustupowaś 0.0714286
njewustupja pśedstajenje 0.0434783
ćahał śěgał 1.0000000
ćahał śěgnuł 0.3333333
morjow mórjow 0.6666667
landawa landawa 1.0000000
poddanow póddanow 1.0000000
industrijneho industrijnego 1.0000000
industrijneho industrielnym 1.0000000
wotkazanje blido 0.0526316
kolegam kolegam 1.0000000
jwt-token jwt-token 1.0000000
rozesyłace rozesćełaju 1.0000000
rozesyłace same 0.0156250
rozesyłace kótarež 0.0005640
njewidźa njewiźe 1.0000000
prašenjam pšašanjam 1.0000000
zawěranju zamknjenju 1.0000000
wójna wójna 1.0000000
swójsko-hospodarske prědnem 0.0113636
swójsko-hospodarske swójsko-góspodaŕske 1.0000000
podobje pódobje 1.0000000
wukrajneho wukrajnego 1.0000000
powětr pówětš 1.0000000
katastlofa katastrofa 0.2000000
cyłoněmske cełonimske 1.0000000
rezistentny rezistentny 1.0000000
zymskich zymskich 1.0000000
wučił wucył 1.0000000
wučił hucył 0.5000000
nałoženjemi wót 0.0005359
nałoženjemi nałoženjami 1.0000000
poražkach pórazkach 1.0000000
turněraj turněra 0.3333333
přepruwowanja pśeźěłane 0.1428571
přepruwowanja pśespytowanja 0.1666667
přepruwowanja rěda 0.0131579
přepruwowanja pśeglědanja 0.9166667
přepruwowanja pśeglědowanja 0.1111111
přepruwowanja pśeglědowanje 0.0090090
přepruwowanja pśeglědanje 0.0181818
přepruwowanja pśeglědanjow 0.2857143
přepruwowanja pséglědanja 1.0000000
zawěsćili zawěsćili 1.0000000
woneje wóneje 1.0000000
programach programach 1.0000000
languages-provided languages-provided 1.0000000
bože bože 1.0000000
bože bogowa 1.0000000
bože stupny 1.0000000
bože bóze 1.0000000
bože bóže 0.8333333
bože bóžych 0.3333333
bože bóža 0.3000000
bože bóžu 0.2500000
wotputanje cas 0.0020000
wotputanje spódobny 0.1250000
sydłowe websedłowych 0.2500000
sydłowe sedłowe 1.0000000
sydłowe wašych 0.0074074
šaty drastwu 0.0090090
šaty pałku 0.5000000
šaty buźo 0.0017123
šaty suknje 0.3333333
narěčow narěcow 1.0000000
narěčow nagronow 1.0000000
zjawnosć zjawnosć 0.7777778
rozčerćił sćaklił 0.3333333
tudyša , 0.0000318
tudyša to 0.0001871
tudyša tudejša 0.5000000
tudyša ako 0.0003185
dospołnych dopołnych 1.0000000
wuslědźće wuslěźćo 0.9142857
kročele kšace 0.1000000
kročele NULL 0.0002325
kročele kšoceni 1.0000000
kročele stupanje 1.0000000
njewobkrućeny njewobkšuśony 1.0000000
fiblu nimskeju 0.1250000
0123456789 0123456789 1.0000000
kristalowa kristalowa 1.0000000
nowej noweje 0.0263158
nowej nowej 1.0000000
nowej nowem 0.0508475
nowej noweju 1.0000000
lěkarkam gójcowkam 1.0000000
zminyła zminuła 0.2500000
fungowało funkcioněrowało 1.0000000
fungowało zewšym 0.0062500
fungowało šło 0.0270270
sobudźěłaćerku sobuźěłaśeŕku 1.0000000
budyšinskeho budyšyńskego 0.0322581
kubłało kubłało 1.0000000
institucije institucije 0.7500000
skočić skócyś 1.0000000
wuklukowarjo wucycowarje 1.0000000
dowolowym dowolowem 1.0000000
njeleži mnjo 0.0068493
njeleži njelažy 0.3333333
njeleži njejo 0.0005479
njeleži nic 0.0013263
njeleži za 0.0001234
njeleži to 0.0001871
słužbna słužbna 1.0000000
dorostowy dorostowe 0.1428571
pisanski pisańsku 1.0000000
pisanski pisańska 0.5000000
pisanski ruma 0.0092593
pisanski pisański 0.3333333
pisanski dosć 0.0051282
sellinom sellinom 1.0000000
towaršnosći zgromadnosći 0.0909091
towaršnosći towarišnosći 0.3611111
wopušći spušća 0.5000000
wopušći wopušći 1.0000000
wopušći spušćił 0.0400000
wopušći spušćijo 0.1666667
wobdźělnikam pomogała 1.0000000
wobdźělnikam k 0.0006757
wobdźělnikam pśedstajiłej 0.1666667
wobdźělnikam wobźělnikam 0.8333333
hrěšnikam ; 0.0013793
sposrědkowanym pósrědnjonem 1.0000000
rozrisać problema 0.1538462
rozrisać rozceriś 1.0000000
rozrisać rozwězaś 0.8727273
stawali stali 0.2500000
stawali stwali 1.0000000
módroćišćany módrośišćane 0.5000000
wuběr změnjanim 0.5000000
wuběr wuběranje 0.4000000
wuběr wubraśe 0.5000000
wuběr wuběrk 0.1092437
wuběr wuběr 1.0000000
wuběr pśed 0.0022472
wuběr rozglědniwy 0.1428571
maćerje maśerje 0.8666667
maćerje mama 0.0263158
maćerje maś 0.0208333
maćerje mamy 0.0118343
žiwicy smole 1.0000000
žiwicy žywice 0.5000000
sylnych mócne 0.0270270
sylnych mócnych 0.4444444
rozzłobił rozsćaklił 1.0000000
kubłarkam wótkubłarkam 1.0000000
kubłarkam wótkubłaŕkam 0.9090909
pěstowarnje źiśowni 0.0384615
pěstowarnje chójźe 0.2500000
pěstowarnje źiśownje 0.6891892
dźěwinje źěwinje 1.0000000
njenamakaš njogo 0.0108696
njenamakaš njenadejźoš 0.5000000
njenamakaš drogu 0.0120482
njenamakaš wuglědaś 0.0526316
njenamakaš njenamakajoš 0.7500000
njenamakaš z 0.0001352
njenamakaš namakaś 0.0045249
zasudźeny zasuźony 1.0000000
njewuchadźa njewujźo 0.7500000
płódnu płodne 0.5000000
katalansce katalański 1.0000000
přihotujetaj pśigótujotej 1.0000000
html5 html5 1.0000000
warimy ze 0.0005543
warimy zelami 0.1428571
warimy warimy 0.5000000
zawru zacynjaju 1.0000000
zawru zawěraju 1.0000000
wupytaj wupytaj 1.0000000
pumpy pumpy 1.0000000
wěnowany pósćony 0.6666667
inline-wobłukami wobłukami 0.5000000
wobstaće wobstaśe 1.0000000
njespóznaju tom 0.0007893
njespóznaju na 0.0001139
njespóznaju njespóznajom 0.1428571
statistiki pominaneje 0.5000000
statistiki statistiki 1.0000000
wobstejachu doźaržane 0.5000000
wobstejachu su 0.0004398
šwicarsku šwicaŕsku 1.0000000
duješ dujoš 1.0000000
klipoweho klipowego 1.0000000
koleso kolaso 1.0000000
koleso kólaso 0.7142857
stejiš stojš 0.8750000
zamóc rozeznawaś 0.5416667
zamóc zamóc 0.5000000
traće traśe 1.0000000
traće cas 0.0040000
narodnych drastwine 0.4000000
narodnych narodnych 1.0000000
akademiji akademiji 1.0000000
mytowanymi mytowanymi 1.0000000
melona melona 1.0000000
artikla artikla 1.0000000
artikla wujšli 0.0588235
artikla kótarejž 0.0135135
artikla artikela 1.0000000
artikla su 0.0002199
nahladać doglědaś 1.0000000
nahladać naglědaś 0.5000000
kaleb kaleb 1.0000000
přiwěšk pśidank 0.4347826
přiwěšk pśiłožk 1.0000000
wokolnosć za 0.0001234
wokolnosć wobstojnosći 0.0322581
wutworili. pśidank. 1.0000000
mostotwarc twaŕc 1.0000000
mostotwarc móstow 0.5000000
dołhim někakim 0.1428571
dołhim casami 0.3333333
dołhim dłujkem 0.6363636
dołhim dłujkim 0.5000000
horjo žałosć 0.5000000
hoń žeń 0.1666667
narodam narodam 1.0000000
kerk wišnje 0.3333333
kerk krick 0.3333333
kerk jagodowy 0.5000000
referata referata 1.0000000
wobsadźena wobsajźona 1.0000000
samozrozumliwosć samorozymliwosć 1.0000000
znošował znosował 0.5000000
oficialnym oficialnem 1.0000000
jabłukami jabłukami 1.0000000
kamor spižka 0.8333333
wuski wuski 0.6000000
wobnowjenje ześěgnuł 0.0400000
wobnowjenje dajśo 0.0099010
wobnowjenje k 0.0003378
wobnowjenje wótnowjanje 1.0000000
wobnowjenje wobnowjenje 0.2000000
wobnowjenje ; 0.0013793
wobnowjenje brandshortname 0.0051546
wobnowjenje & 0.0019608
wobnowjenje pśistup 0.0027933
wědomostnikow wědomostnikow 0.5000000
wědomostnikow wědomnostnikow 1.0000000
dowěri dowěrili 0.2857143
dowěri su 0.0004398
pjatach pětach 0.5000000
přepokazanku pśepokazanku 1.0000000
přepokazanku płaśeńsku 0.0833333
přepokazanku pśepokazanje 0.4285714
přepokazanku pśepokazanim 1.0000000
wobstejaceje wobstojeceje 1.0000000
přimjenje přimjenju 1.0000000
hawronow garo 1.0000000
hawronow garonow 1.0000000
přidruža pśizamkujo 1.0000000
wětrniki wětšniki 1.0000000
widejodožiwjenja wideodožywjenja 1.0000000
předsydku pśedsedaŕku 1.0000000
słowach słowach 0.9714286
naslědnikom naslědnikom 1.0000000
licencuje licencěrujo 1.0000000
chwalće chwalśo 1.0000000
talerju talarju 1.0000000
sćěhujo zakóńcenju 0.0909091
sćěhujo pó 0.0012477
being pśiźo 0.0094340
being pśez 0.0009083
pčołarjo pcołkarje 1.0000000
zańdźe zajźo 0.8000000
zańdźe minjo 0.4000000
zańdźe su 0.0004398
zańdźe minuli 0.5000000
poskitkowej brošurje 1.0000000
poskitkowej z 0.0001352
ródnej rodnej 1.0000000
ródnej rodneju 1.0000000
json json 1.0000000
zhotowjerjow zgótowarjow 1.0000000
nje-ascii-znamješka nje-ascii-znamuška 1.0000000
9.2 9.2 1.0000000
defaultprevented defaultprevented 1.0000000
planam planam 0.6250000
wotpósćelće wótpósćelśo 1.0000000
grawatary grawatary 1.0000000
poskitkom pórucenim 1.0000000
poskitkom póbitowanim 1.0000000
wjackróć raz 0.0037267
wjackróć rozestajała 1.0000000
wjackróć wěcej 0.0025316
bliskim tom 0.0007893
bliskim bliskem 0.9000000
bliskim bliskim 1.0000000
chillona chillona 1.0000000
chillona chillon 0.0500000
temow temow 1.0000000
xpcom-komponenty xpcom-komponenty 1.0000000
zatykać comu 0.0370370
zatykać zatkaś 0.1500000
zatykać zatykaś 0.2500000
kanalemi kanalami 1.0000000
doskónčnje ceło 0.0119048
doskónčnje dokóńcnje 1.0000000
future future 1.0000000
dźeržeštej stej 0.0025773
dźeržeštej źaržałej 1.0000000
potłóčowanja pódtłocowanja 1.0000000
runać rownaś 1.0000000
prezentaciju prezentaciju 1.0000000
dylbiš musyš 0.0089286
zymne zymne 0.2000000
zymne kamjeny 0.0714286
zymne tak 0.0006431
zymne pšawje 0.0055556
wotkryć wótekšyś 0.8571429
wotkryć wótwóriś 0.1111111
wotkryć namakaś 0.0271493
wotkryć kóže 0.3333333
etapa etapa 1.0000000
najhóršim nejgóršem 1.0000000
wašim twójogo 0.0416667
wašim wašyim 1.0000000
wašim wašo 0.0050000
wašim wašom 0.8828125
wašim wašim 1.0000000
wašim swójom 0.0085837
wašim wašeju 0.1500000
wašim wašej 0.0158730
wašim dochadnym 0.5000000
wašim štapanja 0.2000000
wašim gniwu 0.5000000
wašim serwerje 0.0416667
wašim wašym 0.8266667
taljěrowanym taljěrowanym 1.0000000
přełožkow pśełožkow 1.0000000
kucharjo kucharje 1.0000000
kucharjo dali 0.0169492
překročene pśestupjone 0.5000000
wupadam wuglědam 1.0000000
wupadam wuglědajom 0.6666667
přehladka pśeglědka 1.0000000
přehladka wustajeńca 0.1666667
přehladka rozpokazowanje 1.0000000
zabłudźił zabłuźił 0.6666667
měnow pjenjez 0.0487805
měnow měnow 1.0000000
wotpokaza.je wótpokazał.jo 1.0000000
comicoweho comicowego 1.0000000
rozumiš jo-lic 0.0178571
rozumiš co 0.0008177
rozumiš měnim 0.1428571
rozumiš wumějośo 1.0000000
rozumiš rozmějoš 0.6923077
rozumiš rotmějoš 0.5000000
zbóžnosć zbóžnosć 0.6666667
schilde schilde 1.0000000
accept-charset accept-charset 1.0000000
dowolnosću pśebywanju 0.3333333
dowolnosću dowólnosću 1.0000000
wosoba wósoba 1.0000000
wosoba wót 0.0010718
wosoba faworit 0.2500000
wosoba wósoby 0.0377358
wosoba paršona 0.5000000
kolesowanske kólasaŕske 1.0000000
słužownikow słužabnikow 0.3333333
archiwowanja archiwěrowanja 1.0000000
psychologa psycholog 1.0000000
noweje nowego 0.0243902
noweje śišćarskego 0.3333333
noweje noweje 0.9473684
slěpc njerodnik 1.0000000
mlokom buźo 0.0017123
mlokom mě 0.0007746
mlokom mlokom 0.8000000
mlokom mjodom 0.0277778
mlokom zbórk 0.0689655
wolumenom wolumenom 1.0000000
towarstwje towaristwje 1.0000000
dokónčna finalna 1.0000000
młodźinskeho młoźinskego 1.0000000
zalězł zalězł 0.6666667
zalězł wabił 0.1428571
znać znaś 0.6250000
wóskowanja wóskowanja 1.0000000
njeposrědnju njepósrědnu 1.0000000
čaporoweho papjernika 0.3333333
čaporoweho cajk 0.1000000
zebrać zajmjeś 1.0000000
znjewužiwanske znjewužywańske 0.6666667
spokojace spokojece 0.6666667
přihotowali pśigótowali 1.0000000
přihotowali psigótowali 1.0000000
wulkopřestrjenjowe wjelikopśestrjenjowe 1.0000000
rumpodich ruprajcht 1.0000000
kandidatami kandidatami 0.5000000
wotedam zaměnijom 0.6666667
wotedam wótedajom 1.0000000
bankach bankach 1.0000000
friwolna friwolny 1.0000000
politikarja politikarja 1.0000000
němsko-sowjetskeho nimsko-sowjetskego 1.0000000
wotradźowała wótraźowała 1.0000000
ludami luźi 0.0027933
ludami tatanjami 0.5000000
ludami ludami 1.0000000
ludami hoblicom 0.5000000
njewadźi rolu 0.0227273
njewadźi njegrajo 0.2000000
njewadźi njewobuzujo 1.0000000
njewadźi nješkóźi 0.5000000
njewadźi njewaźi 0.2500000
njewadźi žednu 0.0208333
njewadźi tek 0.0052083
njewadźi nic 0.0039788
njewadźi to 0.0001871
njewadźi pak 0.0013175
liniju liniju 1.0000000
wječorka wjacora 0.1250000
předstajamy pśedstajamy 0.7142857
přiswojić pśiswójś 0.8235294
sobustawa cłonka 0.0312500
daruja dawaju 0.0869565
měšeć měšaś 1.0000000
přetrjebowarjam pśetrjebowarje 1.0000000
dodatych pódanych 0.2500000
awdionatočenja awdionagraśa 1.0000000
přetorhnyło pśetergnuło 0.8000000
přetorhnyło pśetergnuła 0.1666667
chcyła ja 0.0007168
chcyła ju 0.0025840
chcyła som 0.0008889
chcyła kśěła 0.2054795
chcyła by 0.0033333
chcyła wulicowaś 0.0344828
chcyła kśěł 0.0094340
nuansy nuansy 1.0000000
praksowe praksowe 1.0000000
elefantowa elefantowa 1.0000000
starodawny ze 0.0011086
starodawny starodawny 0.8571429
wonej wónej 0.2285714
wonej wónych 0.2500000
wužiwajo tym 0.0035273
wužiwajo wužywarskego 0.0769231
wužiwajo šifrěrowańskeje 1.0000000
wužiwajo slědowacego 0.5000000
wužiwajo z 0.0008114
wužiwajo gaž 0.0015936
wužiwajo wašogo 0.0045249
wužiwajo wužywaš 0.5000000
wužiwajo pomocu 0.0257732
wužiwajo wužywaśo 0.0136054
wužiwajo wužywaju 0.0086957
wužiwajo až 0.0002495
widźi wiźiš 0.0232558
widźi wiźi 0.8780488
widźi togodla 0.0031546
widźi móžo 0.0016313
widźi wiźeś 0.0055556
this this 1.0000000
mollerja molerusa 1.0000000
mollerja rukopis 0.1000000
mollerja mollerusa 1.0000000
wobornika wobornika 1.0000000
rozjimali rozpominali 0.4444444
rozjimali rozpowědali 0.5000000
rozjimali wobjadnali 0.5000000
někajkemu někakej 0.3333333
někajkemu někakemu 1.0000000
pčołkacy pcołkowy 0.5000000
tepjenskeho topjeńskego 1.0000000
chłostajomne pokuśeńske 1.0000000
optisce optiski 1.0000000
medialna medialna 1.0000000
wulkopósłanc wjelikopósłańc 1.0000000
datajowymi datajowymi 1.0000000
aarch64 aarch64 1.0000000
mór wuderiła 0.2500000
mór mrětwu 0.2105263
mór kněžy 0.0500000
mór ten 0.0008547
mór mrětwa 0.6521739
rjelka rjelka 1.0000000
hstoriju hstoriju 1.0000000
wědomi togo 0.0019157
wědomi wědobne 0.3750000
předźěłać pśeźěłaś 1.0000000
warnuje warnujo 0.9166667
url-mjeno url-mě 1.0000000
zabawu rozwjaselenje 0.3333333
zabawu póžyś 0.5000000
zabawu zwjaselenju 0.5000000
zabawu rozdrosćenje 1.0000000
zabawu zabawu 1.0000000
zabawu chylu 0.0833333
zběrkach zběrkach 1.0000000
budźće rozglědniwa 0.1428571
budźće buźćo 0.7500000
budźće bušćo 1.0000000
budźće źěkujśo 0.3333333
budźće zmilujśo 0.5000000
budźće witam 0.0769231
chodojta chódota 1.0000000
městam městam 0.8000000
sociolinguistiske sociolinguistiske 1.0000000
zapołožkow znamjenow 1.0000000
zapołožkow znamjenjow 0.8666667
zapołožkow znamjenjopw 1.0000000
zapołožkow ześěgnuł 0.0400000
zapołožkow cytańskich 0.9393939
zaso płaca 0.5000000
zaso NULL 0.0011623
zaso zasej 0.8819599
zaso źěli 0.0555556
zaso znowego 0.0082305
zaso marušce 1.0000000
zaso carobu 0.1428571
zaso reju 0.1000000
zaso se 0.0003478
zaso materialow 0.3333333
zaso wuderijo 0.2000000
zaso měni 0.0294118
zaso wótnowiło 0.3333333
zaso hyšći 0.0015083
zaso póraś 0.1111111
zaso wuderiła 0.2500000
zaso wěcej 0.0016878
zaso pśecej 0.0178971
zaso zaejo 1.0000000
zaso zas 0.4523810
zaso błotach 0.0232558
zaso natwariś 0.0454545
zaso zsaej 1.0000000
zaso hujadnał 0.5000000
zaso pjaceń 0.0588235
zaso njepušćijom 0.3333333
zaso raz 0.0024845
zaso pópisaś 0.1428571
zaso nic 0.0013263
zaso južo 0.0009690
zaso pśepił 0.2500000
zaso nany 0.2000000
zaso móliš 0.1250000
rošty pótwaŕ 1.0000000
serbscy serbskich 0.0030488
serbscy serbske 0.0715706
łazom łazom 1.0000000
wupyšena wupyšnjona 0.5000000
křidłach kśidłoma 1.0000000
kwěćel kwětkowy 0.6250000
kwěćel strus 1.0000000
njezłob njegóŕ 0.5000000
dlěšim dlejšem 1.0000000
receptowa ako 0.0003185
receptowa by 0.0011111
receptowa byli 0.0035587
receptowa receptowe 1.0000000
receptowa to 0.0001871
třilětne tśilětne 1.0000000
wuradźuje pjenjezedawarjami 0.4285714
wuradźuje wuraźujo 1.0000000
ewangelskej ewangelskej 0.7500000
ewangelskej ewangelskeju 1.0000000
přihódneje pśigódneje 1.0000000
tajneje zatajonego 1.0000000
tajneje pótajmneje 0.5000000
tajneje pótajmnego 0.2500000
wuchodźenju skóńcenju 0.2500000
kotruž kótaregož 0.0545455
kotruž kótaruž 0.8687500
kotruž ako 0.0006369
kotruž kenž 0.0083195
kotruž kuždeju 0.1250000
kotruž kótaraž 0.0075188
kotruž faworit 0.2500000
kotruž kótaremuž 0.0277778
kotruž dalejpósrědnjenje 0.1666667
kotruž kótarež 0.0039481
kotruž nastajiś 0.0200000
kotruž ak 0.0289855
kotruž kótaryž 0.0521327
wobchowaja zachowaju 0.3333333
wobchowaja wobchowaju 0.1250000
wobchowaja z 0.0001352
wobchowaja našymi 0.0833333
wobchowaja w 0.0001044
wobchowaja makanju 1.0000000
wikowarjam wikowarjam 1.0000000
sepa sepa 1.0000000
plistu watšu 1.0000000
wukmanja pólěpšujo 0.0909091
wukmanja wudopołnjaju 0.2500000
wukmanja wuzamóžnja 1.0000000
temowe temowe 0.8571429
palčikej małkušoju 0.7142857
palčikej něco 0.0020661
natočenski nagrawański 1.0000000
zhonić symbolach 0.5000000
zhonić informacije 0.0017637
zhonić dalše 0.1111111
zhonić zgóniś 0.7959184
zhonić zajmowany 0.1111111
zhonić ton 0.5000000
zhonić žywjenja 0.0081967
chórowy chorowy 1.0000000
słowjanskeju słowjańskeju 1.0000000
zapalenju zapalenju 0.3333333
přeća žycenja 1.0000000
njedodźerža doźaržyju 0.5000000
młodźinski młoźinski 1.0000000
dowěrjene schow 0.2500000
dowěrjene NULL 0.0002325
dowěrjene dobry 0.0101010
dowěrjene dowěrjony 0.3333333
nowaka nowaka 1.0000000
dochadźe pśichadanju 1.0000000
dochadźe dochaźe 0.2500000
dochadźe posta 0.0666667
dochadźe jogo 0.0023895
kmk kmk 1.0000000
njewobjednawachu njejsu 0.0043478
njewobjednawachu wobjadnali 0.5000000
nykusej nykusoju 1.0000000
postupi póstupijo 1.0000000
rajtarkowe rejtarikowe 1.0000000
błótom bagnom 1.0000000
wuběranskimi wuběrańskimi 1.0000000
přemół pśemógł 1.0000000
přikładow pśikładow 1.0000000
lois lois 1.0000000
korseta korseta 1.0000000
mysliła mysliła 0.1666667
mysliła škóda 0.0588235
mysliła napšawdu 0.0028653
mysliła raz 0.0012422
dźesaćtysacym źaseśćtysacym 1.0000000
republice republice 1.0000000
zwóńk wótcakował 0.4000000
zwóńk měškaŕ 0.5000000
zawołanja zawołanja 1.0000000
měsačk mjaseck 0.8571429
měsačk śi 0.0022883
měsačk mjasec 0.0434783
młodźinskeju młoźinskeju 1.0000000
kandidaturu kandidaturu 1.0000000
chorhojčki chórgoji 0.3333333
powjazom wónej 0.0285714
powjazom powrjozu 0.5000000
powjazom powrjozkom 1.0000000
powjazom powrjozom 0.6363636
powjazom wuwězaś 0.2500000
powjazom nogowu 0.2500000
solistow solistow 1.0000000
wukonjeć wugbaś 0.5121951
wukonjeć statka 0.2000000
wukonjeć stajiś 0.0202020
wukonjeć do 0.0006167
sekwencielnje sekwencielnje 1.0000000
stiller stiller 1.0000000
planowachu jo 0.0000693
planowachu planowało 0.5000000
worker worker 1.0000000
azyl azyl 0.4736842
tino tino 1.0000000
ntak ntak 1.0000000
token token 1.0000000
token drm-wopśimjeśe 0.3333333
token znamuško 0.0731707
liču spušćenje 0.1666667
liču na 0.0001139
liču zlicyjom 0.1250000
liču licym 1.0000000
liču krabata 0.0294118
diskusijny diskusijowy 1.0000000
diskusijny diskusijny 0.6666667
rostlinoškitnych rostliny 0.1333333
rostlinoškitnych šćitajucych 1.0000000
kratu drobno 0.5000000
kratu na 0.0001139
kratu rozrězanu 1.0000000
kultury kulturje 0.0645161
kultury kultury 0.9918699
dušu dušu 0.5000000
dušu mysli 0.0119048
njenadźicy źělił 0.0588235
picnjo picnjo 0.6666667
sputała spinała 1.0000000
kozelej kozela 0.5000000
kozelej za 0.0002467
winowatosćow winowatosćow 0.7500000
winowatosćow zawězkow 0.5000000
wobchowowanje wobchowowanje 1.0000000
wobchowowanje wobchowanje 0.3333333
modelu modelu 1.0000000
modelu witaj-modelu 0.4000000
frankenberga frankenberga 1.0000000
pak kamjenami 0.2000000
pak tužne 0.1250000
pak jězy 0.5000000
pak ratwy 0.0384615
pak njejo 0.0005479
pak jo 0.0004159
pak płaśimy 0.2500000
pak zapšawym 0.0200000
pak woły 0.0526316
pak leśi 0.3333333
pak ga 0.0119863
pak zminjenje 0.5000000
pak pšusoju 0.5000000
pak hyšći 0.0007541
pak weto 0.0194805
pak njebuźoš 0.1250000
pak ja 0.0021505
pak bźez 0.0031348
pak nejpjerwjej 0.0071429
pak wuběrje 0.3333333
pak nejwažnjejše 0.0312500
pak pak 0.8669302
pak wawrje 0.1666667
pak mokša 0.1428571
pak tšašnje 0.0370370
pak drugu 0.0322581
pak wobrośijo 0.4000000
pak wukšadnuś 0.0833333
pak doskok 0.2000000
pak slědom 0.2500000
pak wiźiš 0.0232558
pak NULL 0.0069735
pak njewóstanjom 0.5000000
pak žada 0.2000000
pak póli 0.3333333
pak felowali 0.5000000
pak wobežrane 0.3333333
pak debu 0.0178571
pak gnada 0.1250000
pak jano 0.0008340
pak tšuśim 1.0000000
pak pón 0.0044444
pak abo 0.0015736
pak njepłaśi 0.0833333
pak dar 0.0153846
pak luštnje 0.1250000
pak format 0.0526316
pak zgłosom 0.2000000
pak hukniki 0.2500000
pak dejš 0.0454545
pak źiwnučka 0.3333333
pak gnoj 0.1111111
pak mech 0.0645161
pak tak 0.0006431
pak paksu 0.5000000
pak wzej 0.0222222
pak njepytam 0.5000000
pak ale 0.0304997
santrapantra njerozumliwa 0.3333333
balonkam pśityknjone 0.5000000
hraja wóni 0.0017271
hraja muziku 0.0144928
hraja graju 0.7142857
mjelčenja mjelcanja 1.0000000
javascriptowe javascriptowe 1.0000000
kontrolujeće kontrolěrujośo 1.0000000
złu złosći 1.0000000
złu twóju 0.0322581
złu wót 0.0005359
klient klient 0.8888889
zawodne NULL 0.0002325
zawodne zawodowe 0.3333333
zawodne zawodne 1.0000000
zawodne ncesto 0.5000000
stadionje stadionje 1.0000000
njenamakam njenamakajom 0.5714286
njenamakam njenamakaju 0.2857143
njenamakam nahnidy 1.0000000
njenamakam wjace 0.2500000
njenamakam namakaś 0.0361991
njenamakam njenamakam 1.0000000
njenamakam zasej 0.0022272
narěčenskich nagranjańskich 1.0000000
250,0 250,0 1.0000000
hródźemi groźami 1.0000000
njeznate kritiske 0.1111111
njeznate njeznata 0.0454545
njeznate njeznate 0.7368421
njeznate njepśeslěźone 1.0000000
njeznate jadne 0.0434783
njeznate zwónoźeś 0.0769231
njeznate njeznaty 0.0322581
trać traś 0.9545455
wuskutkował wustatkował 0.6666667
lajska lajska 1.0000000
policistkow policistkow 1.0000000
přisłušnym pśisłušnem 1.0000000
turizmje turizmje 0.5000000
něžna kněžnicka 0.5000000
něžna łagodna 1.0000000
wotkryju wupytnu 1.0000000
ekstremnych ekstremnych 1.0000000
wustorkował wustarkował 1.0000000
wobkrućenski wobkśuśeński 1.0000000
wobkrućenski wobkšuśeński 0.8750000
zmóžnjene zmóžnjone 1.0000000
zmóžnjene zmóznjone 0.5000000
fundowana funděrowana 1.0000000
dowolnikami dowolarjami 1.0000000
dźěži źěžy 1.0000000
dźěži buźo 0.0017123
papjerowa papjerowa 1.0000000
njedocpějemoj njedojśpijomej 1.0000000
ćopłe śopły 0.1428571
ćopłe śopłe 0.7500000
ćopłe śopłego 0.3333333
ochranowskim ochranojskeju 0.5000000
ochranowskim ochranojskem 1.0000000
popadnyli pópadnuli 0.5000000
popadnyli wułojli 1.0000000
podaja pódaju 0.6000000
funkcijemi funkcijami 1.0000000
korektneho korektnego 1.0000000
kralestwje kralojstwje 0.8000000
kralestwje kralejstwje 0.6666667
dóstańće dostańśo 0.9655172
dóstańće dóstańśo 1.0000000
sobustawskich cłonkojskich 0.6666667
sobustawskich cłonkojske 0.0833333
nichto nicht 0.0588235
powučna pówucna 1.0000000
statusoweje wótpórajo 0.0526316
statusoweje statusoweje 1.0000000
přeswědčeni pśeznanjone 1.0000000
nastawki nastawki 1.0000000
kónčna kóńcna 1.0000000
zjewitej zjawitej 1.0000000
en en 1.0000000
pjenjeze pjenjeze 0.0183486
njeličomne tšašnje 0.0185185
njeličomne njelicobne 0.8888889
njeličomne wjele 0.0030550
synka synka 1.0000000
materialijach materialijach 1.0000000
wohladał woglědał 0.0172414
wohladał wiźeł 0.0106383
aprylu aprylu 1.0000000
njelěpšinu njelěpšynu 1.0000000
přihotowane pśigótowane 0.8750000
přihotowane pśigótowany 0.3333333
přihotowane a. 0.0400000
přihotowane pśigótował 0.0714286
přihotowane / 0.0014815
sadźił sajźił 0.5000000
widłami widłami 1.0000000
awtorizowanskim awtorizěrowańskim 1.0000000
napisaneho napisanego 1.0000000
njejendźelskorěčneho njeengelskorěcnego 1.0000000
doporučenjemi dopórucenjami 1.0000000
wupłakać wupłakaś 1.0000000
mork mork 1.0000000
zarunanja zarownanja 0.6923077
zarunanja wurownanja 0.7142857
dwójny dwójny 1.0000000
dwójny 2x 1.0000000
sudnisce sudniski 0.5000000
wusměšowanje wusměšowanje 1.0000000
jědnateho jadnastego 1.0000000
husace gusece 0.5000000
dochodoweho zasłužbowego 1.0000000
přednjesć pśednjasć 1.0000000
samesite samesite 1.0000000
wideja kśěł 0.0094340
wideja wideo 0.4504505
wideja pśetergnuło 0.1000000
zahrodnu zagrodowu 1.0000000
mjelčicy mjelcyno 1.0000000
wužiwarju wužywarju 1.0000000
začituja zacytuju 1.0000000
692 692 1.0000000
wužił rozdźělony 0.1250000
wužił NULL 0.0002325
wužił wužył 0.6666667
lóštneje luštneje 1.0000000
rosćacej rosćeceju 1.0000000
rosćacej rosćecej 1.0000000
drježdźanskich drježdźańskich 1.0000000
zesylnjeja zmócnjujo 0.3333333
mencla mencla 1.0000000
ćehńće ześěgniśo 0.0096154
ćehńće śěgniśo 0.9090909
spodobuja spódobuju 1.0000000
hornej górnej 0.0192308
rozrisajće rozwězajśo 1.0000000
rozrisajće rozwěžćo 1.0000000
rozrisajće problemy 0.0077519
čisle cysle 1.0000000
čisle numerje 1.0000000
poradźowarjo póraźowarje 0.7500000
zwjazkami zwězkami 1.0000000
přesuchi suchy 0.2500000
swoje rozpósćelomy 0.5000000
swoje swóju 0.0234192
swoje swóje 0.9580093
swoje mójich 0.0384615
swoje swó 0.5000000
swoje pśipóznawa 0.1333333
swoje zatajony 0.5000000
swoje swójim 0.0821918
swoje wugbaśu 0.1111111
swoje mójo 0.0101010
swoje gluku 0.0625000
swoje swójecytańske 1.0000000
swoje wópóznawaju 0.5000000
swoje swójske 0.0140845
swoje proksy 0.0344828
swoje luźe 0.0032468
swoje swój 0.0139165
swoje swoje 0.4000000
swoje sejźeś 0.0769231
swoje swójo 0.8643123
swoje móje 0.0217391
swoje wzeła 0.1000000
swoje swětlik 0.2500000
swoje waše 0.0121951
swoje kśidli 0.5000000
swoje swójimi 0.0210526
swoje póglědał 0.1250000
swoje jich 0.0016474
swoje NULL 0.0020921
swoje swojo 1.0000000
swoje kšajźnu 0.5000000
swoje jogo 0.0035842
swoje swójomu 0.0571429
swoje chapjam 0.5000000
morjenych wusmjerśonych 1.0000000
njespomjatkuje rejtariki 0.0111111
njespomjatkuje synchronizěrowane 0.0714286
njespomjatkuje njespomnjejo 0.5000000
njespomjatkuje pytaś 0.0096154
přebywanja pśebywanja 0.1052632
zwjazaja zwězuju 0.2222222
zwjazaja zwězaju 1.0000000
skónčowało skóńcowało 1.0000000
skupemu póžytnemu 1.0000000
wotprajić wótgroniś 0.8000000
małki małki 0.3333333
nedo nedo 1.0000000
seklow wuwězkow 1.0000000
seklow šlejfow 1.0000000
jednoho młogego 0.2500000
jednoho ruiny 0.3333333
jednoho NULL 0.0009298
jednoho jadneje 0.0606061
jednoho typk 0.2500000
jednoho jadnogo 0.8210526
jednoho mjadwjeźa 0.0344828
jednoho něźi 0.0037313
jednoho luźa 0.3333333
jednoho jaden 0.0038023
jednoho a 0.0000623
jednoho wuměnk 0.5000000
jednoho raz 0.0012422
jednoho wót 0.0005359
eksemplar eksemplar 1.0000000
maćeršćinam wucbnicam 1.0000000
objekty objektow 0.1666667
objekty objekty 0.6666667
kontinuum kontinuum 1.0000000
wobdźěleni wobźělone 0.6666667
wobdźěleni wobźělniki 0.0185185
manifest.json manifest.json 1.0000000
zdźěłowanje wótkubłanje 0.0425532
dajmy dajomy 0.0434783
dajmy dajmy 1.0000000
njeměło njeměło 1.0000000
njeměło njeby 0.0173410
njeměło měło 0.0666667
rekursija rekursija 0.5000000
kupcyneje kupcyneje 0.3333333
tendencielnje tendencielnje 1.0000000
domowinje domowinje 0.9583333
domowinje domowiny 0.0026385
horka górjejce 0.0196078
horka napisane 0.0666667
žiwjenskej žywjeńskej 0.7500000
přeměstni pśesunjo 0.5000000
čestnohamtski cesnoamtski 0.2666667
kenija-zwjazkej kenija-zwězkoju 1.0000000
smorže wšojadno 0.1333333
smorže była 0.0038314
basnica basnikaŕka 1.0000000
podźakował wuźěkował 0.2222222
podźakował śi 0.0022883
podźakował juž 0.0070922
chuduškim chudučkej 1.0000000
šat suknje 0.3333333
šat suknju 0.5555556
šat bruslac 1.0000000
šat suknja 0.7500000
postarało zagronitosćow 0.1666667
picować sewo 0.0769231
picować futrowaś 0.7500000
błyšacy se 0.0000696
błyšacy błyšćecy 0.5000000
dotalne doněnta 0.0080000
dotalne doněntejšne 0.9583333
dotalne doněntajšne 1.0000000
dotalne pjerwjejšne 0.1000000
dotalne doněntne 1.0000000
dotalne dojśpite 1.0000000
dotalne doněntejšna 0.3333333
přizwolenske pśizwóleńske 0.6666667
rěkam mójo 0.0202020
rěkam gronje 0.0517241
rěkam se 0.0006260
rěkam mě 0.0092951
rěkam rěkam 1.0000000
rěkam groni 0.0338346
wobrotnišćo wobrotnišćo 1.0000000
přepytali pśepytali 1.0000000
silwija silwija 1.0000000
nižozemskeje nižozemskeje 1.0000000
jednotka jadnotka 1.0000000
přenjesli pśenjasli 1.0000000
kompromisa kompromisa 1.0000000
komolcyna komolcynu 1.0000000
komolcyna wuzwólili 0.0769231
přinošowało pśinosowało 0.6666667
přesłapjeć njewobtužyjom 1.0000000
wołajo wěsći 0.0048077
wołajo dawajucy 0.5000000
wołajo wołam 0.1000000
wołajo k 0.0003378
přetrać pśetraś 1.0000000
dochodach dochodach 1.0000000
dochodach nabrankach 1.0000000
zastupowaca zastupujuca 0.8888889
rjemjeslnisce rucnikaŕski 0.2500000
nječinimy njegótujomy 1.0000000
nječinimy njewugótujomy 1.0000000
nječinimy njecynimy 1.0000000
pomocliwym pomocniwym 1.0000000
’ ' 0.0275527
’ maksimalne 0.1000000
’ feluju 0.1111111
’ ’ 0.8095238
mytowachu su 0.0006596
mytowachu mytowali 0.2500000
sprjewiny sprjewiny 1.0000000
wocčini wócynił 0.0666667
přepruwujemy pśeglědujomy 1.0000000
statnych šefow 1.0000000
statnych statne 0.0500000
statnych statnych 1.0000000
statnych instance 0.1666667
žanrach žanrach 1.0000000
přiwučował pśiwucował 1.0000000
skotu skótu 1.0000000
wowcyne staŕcyne 1.0000000
wosobinskim wósobinskim 1.0000000
wosobinskim wósobinskem 0.6666667
kwětkami źěkowałej 1.0000000
kwětkami kwětkami 1.0000000
republiku republiki 0.1000000
republiku nimskeje 0.0108696
wosobinskeho wósobinskego 1.0000000
pytnjeće. problemy. 1.0000000
aleja aleja 1.0000000
chribjetom kśebjatom 1.0000000
zhorjelcom zgórjelcom 1.0000000
wobtwjerdźenjom wobtwarźenim 0.2500000
produkcije produkcije 1.0000000
móličku małučku 1.0000000
móličku lubuju 0.0416667
puća njeźiwał 0.3333333
puća puśa 1.0000000
puća póstupowanja 0.1250000
puća drogi 0.1772152
puća drožki 0.5714286
puća drogu 0.0120482
puća wobijam 0.2000000
puća bejnje 0.0104167
stajneho stawnego 0.6000000
podzemskej pódzemskeju 1.0000000
podzemskej pódzemskej 1.0000000
podzemskej do 0.0006167
nahraćom nagraśom 1.0000000
pasć pasć 1.0000000
pasć pasu 0.1428571
sadźam dajom 0.0333333
text text 1.0000000
zhromadźizny zgromaźiny 0.9411765
zhromadźizny zgromaźenja 1.0000000
cyłotnu za 0.0001234
cyłotnu cełostnu 1.0000000
wočinjenje wócynjanje 0.4444444
wočinjenje aby 0.0002032
přiwozmi pśiwzej 0.6666667
zestajachu zestajali 0.1428571
zestajachu su 0.0002199
zestajachu zestajili 0.5000000
inlinerach inlinerach 1.0000000
porstomaj palcoma 1.0000000
rozjasnjenja rozjasnjenja 1.0000000
podruž najm 1.0000000
multiprocesowym multiprocesowem 1.0000000
multiprocesowym multiprocesowym 1.0000000
dźěłopřijimarjo źěłobjeruce 1.0000000
nimatej wótegrono 0.0347826
iniciatiwne iniciatiwne 1.0000000
wobhoniło wobgóniło 1.0000000
dieter dieter 1.0000000
wopytali orientaciju 0.1428571
wopytali woglědali 0.1562500
komorowom komorowom 1.0000000
płakaše płakało 1.0000000
kusaty kusaty 1.0000000
připołdnja połdnja 0.3333333
iniciatiwach iniciatiwach 1.0000000
iniciatiwach gibanjach 1.0000000
polacy pólaki 1.0000000
mužaca muskeca 1.0000000
kruteju kšuteju 1.0000000
swětłe swětłe 0.6000000
swětłe swětłu 0.5000000
hojiš schórjeli 0.5000000
kryće pókšyśe 0.8333333
kryće staw 0.0178571
mijaw miau 1.0000000
rjadowali zastojali 1.0000000
dalewjedźacych dalewjeźecych 1.0000000
dalewjedźacych dalejwjeźecych 1.0000000
sedźo sejźecy 1.0000000
sedźo sejźeł 0.1250000
sedźo sejźecu 1.0000000
sólnicy solnicy 1.0000000
nahrabnosć pócynk 0.3333333
nahrabnosć a 0.0000623
nahrabnosć póžedanje 0.0263158
nahrabnosć to 0.0003741
nahrabnosć póžytnosć 1.0000000
nahrabnosć zekśěśe 1.0000000
nahrabnosć dobry 0.0101010
nahrabnosć bogatstwom 0.1666667
nahrabnosć – 0.0013870
krjepjawa pśisamem 0.0081967
krjepjawa woblewnica 0.6666667
přenošować pśenosowaś 1.0000000
wuwědomiš wuwědobnijoš 1.0000000
knižka knigły 0.0074074
přitomnymi njejo 0.0005479
přitomnymi pśibytnymi 1.0000000
identifikować identifikcěrowaś 1.0000000
identifikować identificěrowaś 1.0000000
identifikować markěrowaś 0.0769231
podšmórnje pódšmarnjo 0.3000000
pjekarnju pjakarnju 1.0000000
swinja swinje 0.2000000
wendicae wendicae 1.0000000
wupłaćeny wupłaśony 1.0000000
lětanskich lětaŕstwowych 1.0000000
zwobrazniło zwobrazniło 1.0000000
jezusowej jezusowej 1.0000000
pjeku ja 0.0007168
pjeku pjacom 1.0000000
pjeku jen 0.0023310
pjeku pjaku 1.0000000
sobupřinjesenymi sobu 0.0050378
sobupřinjesenymi pśinjasonymi 1.0000000
zahoritych zagóritych 1.0000000
zahoritych zapalonych 1.0000000
pisomnych pisnych 1.0000000
wujězdom wujězdom 1.0000000
pijetej pijotej 0.5000000
pi pi 1.0000000
rozdźělić rozdźěliś 0.8181818
rozdźělić pósćiś 0.0800000
rozdźělić póśěgaju 0.3333333
wopaka wopaku 0.3333333
wopaka wopaka 1.0000000
zasadźenju zasajźujo 0.0217391
zasadźenju zapśěgnjenju 1.0000000
zasadźenju jogo 0.0023895
zasadźenju zasajźenjoju 1.0000000
zasadźenju zasajźenju 1.0000000
zasadźenju zajźujo 0.0384615
zasadźenju zasajźenjeju 1.0000000
ležała lažała 0.3333333
stólc stoł 0.8333333
stólc ten 0.0008547
gesće gesće 1.0000000
podpěranskimi pódpěrowańskimi 1.0000000
tomule tomu 0.0044248
tomule toś 0.0006039
zemicach-tumicach zemicach-tumicach 1.0000000
njezmysłom njerozymom 1.0000000
směrnica směrnica 1.0000000
mjena te 0.0014556
mjena zarědnikowe 0.3333333
mjena dłujkosć 0.0500000
mjena mjena 0.2500000
mjena mjenja 0.8644068
mjena skrotcone 1.0000000
mjena mjenjam 1.0000000
priwatnośc priwatnośc 1.0000000
rysowanka kreslanka 1.0000000
přihoty pśigóty 1.0000000
tudyšeho městnego 0.6666667
ambra ta 0.0021413
ambra zelaŕka 0.1428571
ambra była 0.0038314
ambra ambra 0.9090909
ambra ambry 0.1333333
załožiće załožyjośo 1.0000000
płašć płašć 0.1666667
warnuju warnujom 1.0000000
warnuju warnuju 0.2500000
konfirmandami konfirmandami 1.0000000
slědowanja slědowanja 1.0000000
lin lin 0.5000000
stražnikach stražniku 0.5000000
frizerka frizerka 1.0000000
donatac donatojc 0.2000000
wothłosować wótgłosowaś 1.0000000
njemóža njemógu 1.0000000
njemóža jamy 0.0181818
njemóža njewuměju 1.0000000
njemóža wowalił 0.0714286
njemóža štapiś 0.1666667
njemóža njamóžo 0.0148148
njemóža pśedpisowaś 0.3333333
njemóža njamógu 0.2573099
stajiće stajiśo 1.0000000
stajiće płaśobny 0.5000000
stajiće stajijośo 0.7500000
zwrěšćiło šło 0.0540541
zwrěšćiło kamsy 0.3333333
dožiwjałoj dožywiłej 1.0000000
serbšćinje-němčinje serbšćinje-nimšćinje 0.5000000
mataj matej 0.3452381
spodźiwnu taku 0.0156250
spodźiwnu źiwnu 0.2500000
nošer noser 1.0000000
nošer nosaŕ 0.9753086
nošer nosaŕstwo 0.3333333
samoće samotnosći 1.0000000
mikroprojekty mikroprojekty 1.0000000
png png 1.0000000
čołmy tam 0.0014205
čołmy cołny 0.6666667
čołmy čołmy 1.0000000
lěwej lěweju 1.0000000
lěwej lěwem 0.3333333
lěwej lěwej 1.0000000
wužiwatej wužywatej 1.0000000
zběhnjene wótpórane 0.1111111
předswědčenja pśeznanjenja 0.2000000
nawuča pśinawucujo 1.0000000
zakótwił zakokulił 1.0000000
dualnym dualnem 1.0000000
dualnym dualnym 1.0000000
eksploziwnych eksploziwnych 1.0000000
wotewrěć wówtwóriś 1.0000000
wotewrěć alternatiwna 0.5000000
wotewrěć wótwóriś 0.7222222
zawěsćensku zawěsćeńsku 1.0000000
zawěsćensku šćita 0.0128205
nowojasčan nowojasčan 1.0000000
skulptury skulptury 1.0000000
ludej tatanjam 1.0000000
ludej ludoju 0.8000000
ludej k 0.0003378
njewobmjezowaneho njewobgranicowanego 1.0000000
powěsc powěsć 0.0045249
wsami jsami 1.0000000
lajskich lajskich 1.0000000
błota błota 0.0740741
signěruje tu. 1.0000000
signěruje wózjawijo 0.0909091
signěruje toś 0.0003019
kasěrarka kasěraŕka 1.0000000
atlasowe atlasowe 1.0000000
13.1 13.1 1.0000000
zawodnu zawodnu 1.0000000
prócowanjach procowanjach 1.0000000
hospodarskich etatowych 1.0000000
hospodarskich góspodaŕskich 0.9259259
hospodarskich góspodarskich 1.0000000
zdźěliło dałoo 1.0000000
zdźěliło markěrował 0.0909091
zdźěliło k 0.0027027
zdźěliło pśizjawiło 0.1666667
zdźěliło dało 0.1086957
zdźěliło dako 1.0000000
zdźěliło zdźěliło 0.2500000
zdźěliło wuwijarjeju 0.2500000
zdźěliło wěsći 0.0384615
princesny princesny 1.0000000
montažowych montažowych 1.0000000
wopytowanju woglědowanju 1.0000000
wopytowanju k 0.0003378
njeawtorizowany njeawtorizěrowany 1.0000000
přewodźeli pśewóźili 1.0000000
separatnje separatnje 1.0000000
běgarja běgarja 1.0000000
ćopłu woblacone 0.2500000
ćopłu śopło 0.1666667
ćopłu śopłu 1.0000000
picowali futrowali 1.0000000
zdźerženjom zdźaržanje 0.0625000
statokow dwórow 1.0000000
statokow statokow 1.0000000
statokow byśow 1.0000000
produktom produktom 1.0000000
njezboža njegluce 0.1428571
njezboža njegluki 0.3846154
njezboža znjeglucenja 1.0000000
najwyša nejwuša 1.0000000
pomhachu pomagali 0.1500000
pomhachu su 0.0006596
wobzamknyli wobzamknuli 0.8461538
jednanskeho jadnańskego 1.0000000
wotpósłancam wótpósłańcam 1.0000000
hladamoj glědamy 0.1111111
přepruwowarjam pśeglědowarjam 1.0000000
přepruwowarjam pśepytowarjam 1.0000000
produktowej teje 0.0063694
produktowej produktoweju 1.0000000
produktowej produktowem 0.7142857
produktowej produktowej 1.0000000
produktowej togo 0.0009579
produktowej toś 0.0006039
produktowej wó 0.0007402
widźach som 0.0008889
widźach wupytał 0.2000000
widźach wiźech 1.0000000
juristka juristka 1.0000000
pohibowanju gibanju 0.2500000
cyłkaj cełka 0.1666667
zwjadnyła sprěła 0.5000000
zwjadnyła ; 0.0013793
bydlachu bydlili 0.3333333
bydlachu su 0.0010994
šołćina šołśina 1.0000000
šołćina šołćina 1.0000000
skónči skóńcyjo 0.8461538
skónči jo 0.0002773
skónči měrnje 0.2000000
skónči zakóńcy 1.0000000
skónči mimo 0.0021277
skónči skóńcy 1.0000000
skónči wzejo 0.2857143
skónči teke 0.0004312
skónči skóncyjo 1.0000000
skónči zakóńcyjo 0.9000000
skónči zakóńcył 0.2000000
skónči kóńc 0.0069930
žołmu žwału 1.0000000
přepisuje.zjawne mjaseca.zjawne 0.5000000
black black 1.0000000
połwěrnosće połwěrnosći 1.0000000
połwěrnosće swětło 0.0384615
ligi ligi 1.0000000
bróžni brožni 1.0000000
bróžni we 0.0005760
bróžni bliskosći 0.0344828
bróžni brožnjach 0.2500000
andersena andersena 1.0000000
dźěwinskeje źěwinskeje 0.6000000
chirurg chirurg 1.0000000
zasydlić zasedliś 0.2500000
lord kněz 0.0120482
ličakowy licadłowy 1.0000000
ličakowy licakowy 1.0000000
ličakowy wašogo 0.0045249
nfirefox nfirefox 1.0000000
bydlił bydlił 0.1428571
dale mimo 0.0085106
dale njepśiźośo 0.3333333
dale pśekšasnje 0.5000000
dale zachopjonym 0.2500000
dale NULL 0.0002325
dale dalejwuwiśe 0.1111111
dale wušej 0.0080645
dale dalejdawaś 0.5000000
dale póramy 1.0000000
dale nabywał 0.5000000
dale wobźěłało 0.0769231
dale kwality 0.0645161
dale źeńk 0.2000000
dale starosćow 0.0666667
dale wěcej 0.0008439
dale wuchadaju 0.1000000
dale mócnjejše 0.2000000
dale dalejwjedujucych 0.5000000
dale nadalej 0.6250000
dale pomožo 0.0434783
dale dalejpósrědnjenje 0.1666667
dale dalej 0.9184290
dale spamom 0.5000000
dale njepśepušćiju 0.5000000
dale cyń 0.0526316
dale dalšne 0.0020704
dale how 0.0010288
dale dale 0.6666667
hajnikow góńtwarjow 0.5000000
adwent adwent 1.0000000
syćowych seśowych 1.0000000
kulturnikami kulturnikami 1.0000000
njesteja njestoje 1.0000000
njesteja njestoj 0.0476190
strukturow strukturow 1.0000000
zakrjejc zakrjejc 1.0000000
zaktiwizowany zaktiwěrowany 0.5000000
stoprocentnje stoprocentojski 1.0000000
zastojnstwje kolegu 0.1250000
zastojnstwje zastojnstwje 0.4000000
turněra turněra 0.6666667
twaroh twarog 1.0000000
wubědźowanje wódychanje 1.0000000
wubědźowanje pśewjeźenja 0.5000000
wubědźowanje wuběźowanje 0.9285714
dźělenemu źělonemu 1.0000000
rostlinske rostlinske 1.0000000
webowy webowy 1.0000000
snadź wjelikany 0.3333333
snadź namakajom 0.2000000
snadź było 0.0025641
snadź snaź 0.1026316
snadź mógu 0.0026247
snadź naru 0.1666667
snadź tu 0.0025000
snadź póglědnu 0.5000000
2005 2005 1.0000000
ruske ruske 1.0000000
schwaleneho wobzamknjonego 1.0000000
fara fara 1.0000000
wotposkowanje wótsłuchanje 1.0000000
měnimy měnimy 1.0000000
rozsudźeli rozsuźili 0.0357143
master master 1.0000000
dopušćeni pśizwólone 0.0400000
wopytać gymnazij 0.0408163
wopytać wopytaś 0.0149254
wopytać ku 0.0052083
wopytać woglědaś 0.2767857
wopytać wukubłanim 0.2500000
wopytać mnjo 0.0068493
wopytać hyś 0.0109890
wopytać chójźiś 0.4285714
wopytać wuglědaś 0.0526316
wopytać woglědat 1.0000000
wopytać zamóžne 0.4000000
zawdawk pódsajźonk 0.6666667
localmediastream localmediastream 0.5000000
nadawkej nadawkoju 1.0000000
nadawkej kak 0.0011274
nadawkej nadawkom 0.3333333
nadawkej mój 0.0036765
nadawkej dopołniś 0.0909091
dostojne płody 0.1111111
dostojne nadobnje 1.0000000
klinikow klinikow 1.0000000
1949 1949 1.0000000
hórnikecach hórnikecach 1.0000000
ember ember 1.0000000
předźěłuje pśeźěłuju 0.2500000
předźěłuje pśeźěłujo 1.0000000
předźěłuje přeźěłujo 1.0000000
wobćežnemu gramnemu 1.0000000
zwonkarěčnje nonwerbalnje 0.2222222
darmotnu dermotnu 1.0000000
darmotnu napórał 0.0285714
namjetowanych naraźonych 1.0000000
namjetowanych naraźowanych 1.0000000
njewunjesu zasłužbu 1.0000000
poruči pórucyła 0.5000000
poruči pórucyjo 0.1290323
poruči dopórucył 1.0000000
poruči pórucył 0.5000000
poruči jo 0.0002080
align align 1.0000000
rjadownjach rědownjach 1.0000000
wobknježić wobkněžyś 1.0000000
wobknježić rozymom 0.3333333
wobknježić luźi 0.0027933
wobknježić pśiswójś 0.0588235
barbojtej barwojteju 1.0000000
micka micka 1.0000000
zapisanje zapisanje 1.0000000
zapisanje zapisanim 1.0000000
zapisanje wobstojnosći 0.0645161
zapisanje było 0.0025641
us-dolarami us-dolarow 0.2000000
wysoce wusoko 0.2000000
knježa kněze 0.7142857
knježa kněže 0.6666667
spaduje spadujo 1.0000000
spaduje wowalujo 0.5000000
spaduje wowalujospaduje 1.0000000
koplowanski koplowański 1.0000000
cyžowu cyžowu 1.0000000
wobhldowak napšawa 0.0769231
wobhldowak wobglědowak 0.0038168
wobhldowak njewótwołujo 0.3333333
be do 0.0003084
be slědki 0.2000000
be NULL 0.0002325
be měli 0.0035842
najstarši nejstaršy 0.8750000
pij pij 1.0000000
staće staśe 1.0000000
měšeli měšali 1.0000000
wumolowanej wumólowane 1.0000000
ebenoweje ebenoweje 1.0000000
spušćomnosć spušćobnosć 1.0000000
praktiskej praktiskeju 1.0000000
praktiskej praktiskej 1.0000000
přihotowace pśigótujuce 1.0000000
husta gusta 0.5000000
husta guste 1.0000000
žehliweje hognjecego 1.0000000
wozydło wóz 0.0769231
wozydło ten 0.0017094
wopokaza jo 0.0001386
jordaniskej jordańskej 1.0000000
wirtualneho tłocenim 0.5000000
přikazowej pśikazowej 1.0000000
njeswačanskeho njeswačanskego 1.0000000
jordana jordana 1.0000000
njedźelemi tyźenjami 0.5000000
njedźelemi njeźelami 1.0000000
njezrani njezranijo 0.5000000
njezrani wón 0.0013596
njepřenošujomne njepśenosne 1.0000000
małosće małego 0.2173913
modusej modusoju 1.0000000
sprawnym spšawnym 1.0000000
awtenfikaciska awtentificěrowańsku 0.2000000
atomoweje atomoweje 1.0000000
hick hick 0.5000000
klaatu klaatu 1.0000000
transparentnje transparentnje 1.0000000
tykancy tykańce 1.0000000
kopanišćow kopańcowych 1.0000000
kopanišćow grajnišćow 0.5000000
wudobywaja wudobywaju 1.0000000
.load .load 1.0000000
njezapodawaće njezapódawaśo 1.0000000
zajimowanym zajmowanym 1.0000000
wotrostła wotrosła 1.0000000
x9.57 x9.57 1.0000000
zjewjena zjawjona 1.0000000
wotesłał pósłał 0.0153846
telewizija telewizija 0.6666667
wobstajna huwěrna 1.0000000
wobstajna wobstawna 1.0000000
miknył myknuł 1.0000000
zwuraznjene wugronjone 1.0000000
zawěsćić zawěsćiś 0.5961538
x1 x1 1.0000000
najpisaniša nejwěcej 0.0090909
najpisaniša pisanu 0.3333333
njepřipóznawa njepśipóznawa 1.0000000
kmjeny rody 1.0000000
křiwka kśiwule 1.0000000
křiwka kśiwula 0.9642857
poćahom póśěgom 1.0000000
poćahom zwězany 0.0185185
request request 1.0000000
charakteristiske charakteristiske 1.0000000
njewuběrajće njewuběrajśo 1.0000000
skóncował wobškóźeli 1.0000000
skóncował skóncował 1.0000000
nabožinje nabóžninje 1.0000000
dessau dessau 0.5000000
dessau był 0.0043290
recensije recensije 1.0000000
zaryjće zaryjśo 1.0000000
naruna narunajo 1.0000000
naruna narowna 1.0000000
twoje kusack 0.1428571
twoje waša 0.0068027
twoje twóje 0.7272727
twoje śi 0.0022883
twoje twójo 0.6078431
twoje swójo 0.0018587
twoje hucby 0.2500000
twoje twój 0.0555556
twoje kake 0.0217391
twoje co 0.0024530
twoje groniš 0.0434783
twoje twójomu 0.3333333
twoje , 0.0000318
twoje maš 0.0064516
twoje z 0.0002705
sytna lěpša 0.1111111
měšk małki 0.1111111
měšk mě 0.0007746
měšk to 0.0001871
měšk niok 0.5000000
měšk mały 0.0277778
měšk mój 0.0036765
měšk měšk 0.7666667
měšk ten 0.0017094
měšk sewo 0.0769231
měšk buźo 0.0017123
suchotu suchotu 1.0000000
wěstymi wěstymi 1.0000000
zabawje graśeju 1.0000000
zabawje zabawje 1.0000000
shopje online-knigłaŕni 0.3333333
regionalnu regionalnu 1.0000000
hódnoćitej gódnośiłej 1.0000000
hódnoćitej stej 0.0051546
kruteje kšuteje 0.6666667
kruteje twardeje 0.5000000
kruteje trjebał 0.0714286
frakciji frakciji 1.0000000
dźiwadźelnik za 0.0001234
dźiwadźelnik źiwadłownika 0.2500000
dźiwadźelnik kaž 0.0050505
dźiwadźelnik góle 0.0089286
dźiwadźelnik stwórjone 0.3333333
přestajenje pśestajenje 0.4444444
podstupimskeho pódstupimskego 1.0000000
žłobiki góletkownje 0.2222222
dótk dotyknjenje 1.0000000
dźěłali źěłali 0.6086957
kulowsku kulojsku 0.5000000
rěčow rěcy 0.0062208
rěčow rěcowu 1.0000000
rěčow rěcow 0.8860759
zdaluj zdaluj 0.5000000
zdaluj njebliž 0.3333333
zdaluj jomu 0.0030581
zdaluj źarž 0.1111111
zdaluj wót 0.0005359
2003 2003 1.0000000
dokonjane docynjone 0.0769231
dokonjane docynił 0.1666667
dokonjane raźiło 0.0086957
dokonjane zwónoźone 0.1000000
dokonjane zwónoźeł 0.2000000
dokonjane dokóńcyjo 0.2500000
dokonjane som 0.0017778
směšne směšne 0.8000000
najlěpša nejžlěpša 1.0000000
najlěpša nejžwětša 1.0000000
najlěpša nejlěpša 1.0000000
nawjaza nawězał 0.5000000
nawjaza nawěžo 0.5000000
nawjaza nawěza 1.0000000
hłódna głodny 0.0769231
hłódna głodna 1.0000000
hłódna snaź 0.0026316
1968 1968 1.0000000
zjednoćomnosći krajneje 0.0689655
zjednoćomnosći pśezjadnosći 0.5000000
zjednoćomnosći jadneje 0.0606061
7,5 7,5 1.0000000
wustajiło wustajiło 1.0000000
połožiła njasła 0.5000000
połožiła połožyła 1.0000000
njezjawnych njezjawnych 1.0000000
wotročkami wótroškami 1.0000000
awtentiski awtentiski 0.2500000
zoylano zoylan. 1.0000000
zoylano zoylan 0.7500000
ludojstwowej ludojstwoweju 1.0000000
komunami komunami 0.5000000
postupjenej póstupjonej 1.0000000
podkast podkast 1.0000000
nakładnistwom nakładnistwom 1.0000000
komentarach komentarach 1.0000000
palacym dokóńcuju 0.5000000
rjedźimoj cysćimej 1.0000000
praworóžkom pšawokutom 1.0000000
nastawace rozmógojuce 1.0000000
nastawace nastawajuce 1.0000000
forumowi forumowe 0.6666667
wuwiwanski wuwijański 1.0000000
operetowymi operetowymi 1.0000000
wujasnja pśewjeźonu 0.5000000
wujasnja wujasnjujo 0.1388889
wujasnja wujasnijo 0.1428571
splesć splasć 1.0000000
cila cela 0.6666667
radowała wjaseliła 0.1000000
płoda płodu 0.5000000
płoda jěźešo 0.3333333
wotamknjene wótzamknjona 0.5000000
wotamknjene wóttamknjona 1.0000000
zmawowali zmawowali 1.0000000
opcionelnymi opcionelnymi 1.0000000
maki brachi 1.0000000
stolica stolica 1.0000000
hosćencarjo na 0.0001139
hosćencarjo gósćeńcarje 1.0000000
wróćó slědk 0.0090909
zdźěłowansku kubłańsku 0.1111111
spomali spomałšyjo 1.0000000
spomali pómjeńšujo 0.3333333
anonymnych anonymnych 1.0000000
žołteje žołteje 1.0000000
chodźeše jo 0.0001386
chodźeše chójźił 0.2000000
chodźeše hobchójźi 1.0000000
zabyła zabyła 0.3846154
hłupaka głupaka 1.0000000
hłupaka głupjeńca 1.0000000
patrioća patrioty 1.0000000
domom domom 0.9000000
git git 1.0000000
sakskeho sakskego 0.9888889
sakskeho sakskeje 0.0312500
denaru krošu 1.0000000
slepemu slěpemu 1.0000000
3 3. 0.2631579
3 3 0.9939759
3 3000 0.5000000
cidr cidr 1.0000000
frakciskim frakciskem 1.0000000
pochłostać póchłostaś 0.3333333
přesahowacym pśesegajucym 1.0000000
słónčne słyńcna 0.2500000
słónčne słyńcne 1.0000000
jězbje drogowanju 0.4285714
jězbje jězbje 1.0000000
filter filter 1.0000000
přesłapjeny wobtužny 1.0000000
přesłapjeny wobtužony 1.0000000
słušatej słušatej 1.0000000
kralestwa kralojstwa 0.5000000
kralestwa kralejstwa 0.5000000
grawoćiwosće surowosći 1.0000000
běžeć gnaś 0.4000000
běžeć běžaś 0.8571429
ćěrili spórali 0.9600000
ćěrili minimyto 0.0500000
ćěrili pógónili 0.3333333
ćěrili ! 0.0004382
wurězaj wurěž 1.0000000
přistaw pśistaw 1.0000000
někotryžkuli žedne 0.0035461
někotryžkuli někotaryžkuli 1.0000000
někotryžkuli młogich 0.3333333
ralbic ralbic 0.7500000
zajimałe zajmne 0.0540541
přepoda wšogo 0.0333333
přepoda pśepódajo 0.9000000
přepoda jo 0.0002080
přepoda pśepódała 0.0909091
lipska drježdźan 0.0454545
lipska slězy 0.0416667
lipska lipska 1.0000000
móc gódnosć 1.0000000
móc kralojstwo 0.1250000
móc domacnosć 0.2000000
móc pón 0.0044444
móc dalejkubłaś 0.5000000
móc mócy 0.0156250
móc lazowaś 0.2500000
móc sykorce 0.1111111
móc móc 0.8394161
bevelled bevelled 1.0000000
open-air-kino open-air-kino 1.0000000
njewotćehń njewótśěgni 1.0000000
pragmatisce pragmatiski 1.0000000
srjedźneje srjejźneje 0.9230769
brěčku mězgu 1.0000000
wažni wažne 0.0080972
poklaknywši pśemódlachu 0.5000000
wopisowanju wopisowanju 1.0000000
agenda agenda 1.0000000
wćipna zgóniś 0.0408163
wćipna słucham 0.5000000
wćipna narska 0.8333333
wćipna napněta 0.2500000
fachowoteoretisku fachowoteoretisku 1.0000000
events events 1.0000000
sdojednanjom sdojadnanim 1.0000000
xpconnect xpconnect 1.0000000
rozbitu zbitego 1.0000000
literaturu literaturu 1.0000000
komunikujemy komunicěrujomy 1.0000000
njelubju njespódobam 1.0000000
zmištrujemy zmejstrujomy 1.0000000
kryptokopanske kryptokopańske 1.0000000
kryptokopanske kryptokopanske 1.0000000
ltr ltr 1.0000000
łužiske łužyske 0.3333333
łužiske łužyskich 0.0454545
smjetanowej zmjatanoweju 1.0000000
zapołoženych zgromaźeństwow 0.2000000
zapołoženych , 0.0000318
zapołoženych zapołožonych 1.0000000
tradicijemi tradicijami 0.7500000
pósłał.email pósłał.email 1.0000000
zwólniwa sama 0.0487805
zwólniwa zwólniwa 1.0000000
zwólniwa kontaktam 0.5000000
zwólniwa zwólna 0.6250000
pomoć pomoc 0.0037453
přidatkowe dodankowe 0.8750000
spěchowanju ze 0.0005543
spěchowanju spěchowanja 0.0370370
spěchowanju spěchowanju 0.9491525
spěchowanju spěchowanim 0.0588235
spěchowanju spěchowanje 0.0068027
demonstrowachu demonstrěrowali 0.3333333
wopisać wopisaś 1.0000000
natwar natwaŕ 0.7142857
natwar natwarjenje 1.0000000
njebychu nichten 0.0090090
njebychu njemusali 1.0000000
njebychu njezabydnjo 0.6666667
njebychu wy 0.0028169
njebychu aby 0.0006095
njebychu NULL 0.0002325
njebychu dali 0.0169492
njebychu njeby 0.1445087
njebychu njebychu 0.5000000
definowane definěrowane 0.8000000
přewjedźenje pśewjeźenje 1.0000000
bliskowobchada do 0.0009251
bliskowobchada bliskosći 0.1034483
bliskowobchada wobchada 0.0681818
prawopisnych pšawopisnych 1.0000000
koncepcija koncepcija 1.0000000
šesćiměstow šesćiměstow 1.0000000
pokazuj pokazuj 1.0000000
css-kajkosć css-kakosć 1.0000000
skrótšće skrotcćo 1.0000000
nossen nossen 1.0000000
najwoblubowanišich nejwoblubowanjejšych 1.0000000
rozpłomjeni zapalijo 0.5000000
patronatny patronatski 1.0000000
drježdźany drježdźany 1.0000000
vincze vincze 1.0000000
stile stile 1.0000000
bědu górim 1.0000000
slawisća slawisća 1.0000000
hrózbny grozny 0.2500000
rozjimowali diskutěrowali 0.0588235
šibjeńca šybjeńca 0.6666667
posrědkowane pósrědnjone 0.5000000
bajtow bajtow 0.9230769
přiběracym pśiběrajucym 0.5000000
přiběracym pśiběrajucej 0.1428571
přešaltować pśešaltowaś 0.4000000
palčikowy małkušowy 1.0000000
myć myli 0.3333333
wuměłstwow wuměłstwa 0.0400000
krótkodobneho krótkodobneho 1.0000000
wokřewjeć wochłoźowaś 1.0000000
marketingoweje marketingoweje 1.0000000
bratrowsku bratšojsku 1.0000000
dlěšodobny dłujkodobny 0.5000000
demokratiskimi demokratiskimi 1.0000000
zawiniło zawinowało 0.3333333
chorhoj chórgoj 1.0000000
chorhoj banaŕ 1.0000000
zemrě jo 0.0001386
zemrě wumrěła 0.2000000
zemrě wumrěł 0.5000000
zaleži swětojańskeje 0.5000000
zaleži něnt 0.0034483
zaleži lažy 0.0108696
zaleži zalažy 1.0000000
šawlom šalom 1.0000000
zrowastanjeneho z 0.0002705
zrowastanjeneho rowa 0.2857143
zrowastanjeneho stanjonego 1.0000000
wudobywanju wudobywanju 1.0000000
hudźby muziki 1.0000000
synchronizowana synchronizěrowana 1.0000000
wolił wubrali 0.0769231
wolił kórtu 0.0175439
wolił wólił 1.0000000
dobywanju dobywanju 1.0000000
brunicowemu brunicowemu 1.0000000
podpismowu pódpismowu 1.0000000
berners-lee berners-lee 1.0000000
tepju zatopijom 0.5000000
tepju pšawje 0.0055556
create create 1.0000000
žedźi górjejo 0.3333333
nałožił nałožył 0.8000000
wutworił.čitajće napórak.cytajśo 1.0000000
nadźijomnje naźejom 0.5000000
nadźijomnje wucytajom 0.3333333
nadźijomnje až 0.0037425
nadźijomnje se 0.0013216
nadźijomnje naźeju 0.1250000
nadźijomnje naźejam 0.3333333
nadźijomnje twajran 0.0222222
nadźijomnje naźejucy 1.0000000
přizwolichu su 0.0008795
přizwolichu pśizwólili 0.5714286
hóršili wobśěžkali 1.0000000
hóršili góršyli 1.0000000
poćahuje-li póśěgujo-li 1.0000000
lizaki lizaki 1.0000000
knježerstwa kněžarstwa 1.0000000
knježerstwa kněžaŕstwa 0.9557522
knježerstwa jadnańskem 0.1333333
knježerstwa sejma 0.0092593
rjaneho rědny 0.0161290
rjaneho jaden 0.0038023
rjaneho rědnego 0.7500000
wotwisuje wótwisujo 0.9230769
speculative speculative 1.0000000
technologijow technologijow 1.0000000
brjuchaty brjuchaty 1.0000000
wupi jo 0.0000693
wupi wupił 0.2500000
kozaki griby 0.0454545
chorosć do 0.0003084
chorosć chórosć 0.8571429
chorosć mrětwa 0.0434783
chorosć ta 0.0021413
chorosć města 0.0070423
napjelnjene połe 1.0000000
napjelnjene napołnjone 0.2500000
gourmeta gourmet 0.2000000
drobneju drobneju 1.0000000
njezwěri njezwěrijo 0.5000000
njezwěri njezwažyjo 1.0000000
twarsce twaŕski 0.0588235
wobchadne wobchadowe 1.0000000
wobchadne wobchadne 1.0000000
wužiwarjemi wužywarjami 0.7500000
katastrofami katastrofami 1.0000000
wjesneho wejsnego 0.8888889
mikławša nikolausa 0.6666667
přiměrjenja pśiměrjenja 1.0000000
přiměrjenja přiměrjenja 1.0000000
muku hyšći 0.0007541
muku muku 0.7272727
muku tu 0.0025000
royal kaž 0.0050505
royal bažant 1.0000000
b1 b1 1.0000000
wozjewimy wózjawijomy 1.0000000
protestantizm protestantizm 1.0000000
sławnej “ 0.0017841
sławnej znatej 0.2857143
trochujemy licymy 0.2000000
pokazku pokazku 0.2727273
pokazku pokazoju 0.3333333
młódšu se 0.0000696
młódšu młodšej 1.0000000
młódšu młodšu 1.0000000
hinternet internet 0.0081967
nasmjerć hyšći 0.0007541
nasmjerć smjerś 0.0476190
kupansku kupańsku 1.0000000
wukročenjow namócy 0.4000000
wołmjanu wałmjanu 1.0000000
žnjenc jacmjeński 1.0000000
wobličenych wobliconych 1.0000000
wosobow wósobow 0.8437500
wosobow wósobowu 1.0000000
fašizmej fašizmoju 1.0000000
skótni skótne 0.5000000
kubłuje kubła 0.3333333
52 52 1.0000000
waku wuž 0.1000000
pjekarka pjakaŕku 0.3333333
pjekarka kaž 0.0050505
pjekarka wóna 0.0014663
pjekarka za 0.0001234
pjekarka pjakarka 1.0000000
pjekarka pjakaŕ 0.0416667
česćić cesćiś 0.6000000
česćić ćimy 1.0000000
česćić kraja 0.0075758
přestupić pśestupiś 1.0000000
tuta taka 0.0175439
tuta kšasneje 0.5000000
tuta wužywaju 0.0086957
tuta slědkoju 0.0370370
tuta tuta 1.0000000
tuta toś 0.0981280
tuta ta 0.5845824
tuta tu 0.0025000
tuta ten 0.0324786
tuta zagrono 0.2500000
tuta kśikate 1.0000000
tuta NULL 0.0004649
myšku myšku 1.0000000
myšku kliknjenje 0.0769231
smtp-zwiski smtp-zwiski 0.5000000
spytamoj proběrujomy 0.5000000
spytamoj jadnotje 1.0000000
spytamoj wopytajmy 0.3333333
spytamoj my 0.0032573
sedźeć sejźeś 0.7692308
socializaciju socializaciju 1.0000000
fungowanje funkcioněrowanje 1.0000000
činohra graśe 0.0303030
činohra źiwadłowe 0.1176471
činohra cynogra 1.0000000
dodał dodał 0.2000000
stajće stajśo 0.9439252
stajće scyńśo 1.0000000
stajće pstajśo 1.0000000
stajće stejśo 1.0000000
napisachu su 0.0002199
wukrajnymi wukrajnymi 1.0000000
janku janku 1.0000000
twelginym twelzynem 1.0000000
twelginym domje 0.0800000
twelginym domu 0.0169492
śi maśerna 0.5000000
śi śi 0.0045767
časoweho casowego 0.8000000
časoweho casowa 0.0625000
časoweho casoweje 0.4285714
rozšěrjenjach rozšyrjenjach 1.0000000
wuhladnej rozglědnem 1.0000000
zamjezuje zagranicujo 1.0000000
nastorčili póstarcyli 1.0000000
baćonami bóśonami 1.0000000
ličakam licadłam 1.0000000
delegatami delegatami 1.0000000
hinje teke 0.0004312
njeparujomne njezbytne 1.0000000
přiwzaće wześe 1.0000000
přiwzaće pśiwześe 0.7777778
wotmołwće wótegrońśo 1.0000000
premisu premisu 1.0000000
dodźerženju doźaržanju 1.0000000
góry góry 0.1875000
dóńdźemy dojźomy 1.0000000
wobdźělnikami wobźělnikami 1.0000000
wučerjej wucabnika 0.4074074
wučerjej sporta 0.1666667
archiwowymi archiwowymi 1.0000000
chorhojčku chórgojcku 1.0000000
rozrěčenja debaty 0.5333333
wotedali wótedali 1.0000000
tysacami tysacami 1.0000000
tysacami towzyntami 1.0000000
šifru šyfru 1.0000000
namaka namaka 0.5000000
namaka namakała 0.0392157
namaka namakajo 0.7741935
namaka jo 0.0001386
signalow signalow 1.0000000
přiběra pśiběra 1.0000000
přiběra mócnosći 0.5000000
něštožkuli něcožkuli 1.0000000
tirolu tirolu 1.0000000
wopytam wopytam 0.3333333
wopytam woglědajom 0.1428571
wopytam NULL 0.0004649
gratuluju gratulěrujom 0.5000000
gratuluju gratulěruju 0.3333333
wurazaj wuraza 0.5000000
personalizował personalizěrował 1.0000000
zaručić zarucyś 0.5600000
zaručić nosak 0.5000000
zaručić NULL 0.0009298
zaručić směrow 0.2857143
zaručić garantěrowaś 0.2500000
zaručić wědomnosćow 0.3333333
zaručić picnjo 0.3333333
zaručić zawěsćiś 0.2884615
zaručić zawěsćone 0.0740741
10.0 10.0 1.0000000
studnje studnje 0.9545455
pokazany pokazany 1.0000000
čecham čecham 1.0000000
tučasnych něntejšnych 0.3333333
znowawužiwanje wó 0.0007402
znowawužiwanje znowawužywanje 1.0000000
ranje zajtšo 0.8000000
ranje stało 0.0131579
organizaciju organizaciju 1.0000000
organizaciju nastupa 0.0512821
organizaciju organizacija 0.0384615
doporučenych póruconych 1.0000000
doporučenych dopóruconych 1.0000000
kenclija kanclaja 1.0000000
towarstwa NULL 0.0002325
towarstwa pśedsedaŕstwo 0.0131579
towarstwa bituju 0.1111111
towarstwa towaristwa 0.9600000
konsulaće konsulaśe 1.0000000
nadrobnišo dokradnjej 0.2222222
smjertni smjertne 0.5000000
smjertni luźe 0.0032468
pochad póchad 1.0000000
pochad spócetk 1.0000000
ćisnyli wuchyśili 0.4285714
color color 1.0000000
wobhladniwje wobglědniwje 0.2500000
wobhladniwje kradosćiwje 0.1538462
services services 1.0000000
studijny studijny 0.8000000
dźěłaćerku źěłaśeŕku 1.0000000
binarne binarne 1.0000000
wuměnimy wuměnjamy 0.6666667
přepruwujo z 0.0001352
přepruwujo pśeglěduju 0.0555556
přepruwujo tym 0.0017637
abiturje abiturje 1.0000000
jěchanskim rejtaŕskem 1.0000000
wothłosowali wótgłosowali 1.0000000
zwěsćił zwěsćił 0.8461538
zwěsćił zawupytnuł 0.1000000
zwěsćił zawěsće 0.0046296
rozbrojili rozdrosćili 1.0000000
měsacami mjasecami 1.0000000
dodawali librowali 0.5000000
dodawali dodawali 1.0000000
dodawali pódawali 1.0000000
specifiski specifiski 1.0000000
konstelaciju konstelaciju 1.0000000
kumštnu kumštnu 1.0000000
sćin moja 0.5000000
sćin seń 0.1428571
zaćahnył zaśěgnuł 0.6666667
pohibam pógibowanjam 1.0000000
pohibam pógibam 1.0000000
means means 1.0000000
syćowy seśowy 1.0000000
syćowy syśowy 1.0000000
syćowy seśowa 1.0000000
syćowy pśekontrolěrujśo 0.0400000
waza waza 0.7500000
c2pnb163v1 c2pnb163v1 1.0000000
skenowanski skannowański 1.0000000
najmarkantnišich nejmarkantnjejšych 1.0000000
zabłudźu tšugow 0.3333333
zelenych zelenych 1.0000000
zrosćena zrosćony 0.3333333
mějachmoj měłej 0.1666667
mějachmoj smej 0.0256410
zdźěłanju zdźěłanju 1.0000000
zrozumiła rozměła 0.4000000
testpilot.stage.mozaws.net testpilot.stage.mozaws.net 1.0000000
rěčenskej powědańskej 1.0000000
rěčenskej powědańskeju 1.0000000
wuwjedźenje wuwjeźenje 1.0000000
družina sorta 0.5555556
družina družyna 0.8333333
ministerstwu ministaŕstwoju 1.0000000
ministerstwu ministaŕstwu 1.0000000
pospyt wopyt 0.9583333
pospyt wopytanje 0.3333333
snadnu snadnu 0.5000000
bibliskich bibliskich 1.0000000
chór chor 1.0000000
chór chór 1.0000000
přetož pśeto 0.7176471
přetož dokulaž 0.0033389
přetož NULL 0.0004649
njesamostatneje njesamostatneje 1.0000000
drasćenym drastwjonym 1.0000000
wotrjada wótrěda 1.0000000
1982 1982 1.0000000
šijowy mjadwjeźowy 0.5000000
šijowy wobwězk 0.2000000
towaršnowědnik towaršnowědnik 1.0000000
wosłabja wósłabijo 1.0000000
wobeńdźenja wobijanja 1.0000000
cdku cdku 1.0000000
proporcije proporcije 1.0000000
rakečanskeho rakecańskego 1.0000000
rakečanskeho rakečanskego 1.0000000
wuhódnoćenje wugódnośenje 1.0000000
belgiskeje belgiskeje 1.0000000
organach w 0.0002087
organach organach 1.0000000
šćipajo tergajucy 1.0000000
masterski masterski 1.0000000
přenošowali pśenosowali 0.3333333
wunjesć wunjasć 1.0000000
pokazanja pokazanja 1.0000000
němskeho za 0.0002467
němskeho nimskego 0.8823529
němskeho nimskeje 0.0217391
wučbnu wucbnu 1.0000000
kopěrować dała 0.0256410
kopěrować kopěrowaś 1.0000000
financował financěrował 1.0000000
financował financował 1.0000000
wukónc wukónc 1.0000000
poskićił póbitował 0.2000000
poskićił póbitowała 0.5000000
sponsorstwo sponsorstwo 1.0000000
stykanych stykanych 1.0000000
wurjadny wuběrny 0.3333333
wurjadny njewšedny 0.2000000
wurjadny wurědny 0.7500000
wurjadny wósebny 0.0227273
bookmark bookmark 1.0000000
mylić was 0.0025381
mylić wótjogo 1.0000000
mylić pśi 0.0006447
mylić źěle 0.0052083
mylić pópowědaś 0.1428571
mylić móliś 0.6666667
wuhrali dobyli 0.1428571
rejwansku rejowaŕski 1.0000000
rejwansku rejowańsku 0.5000000
přidatkami . 0.0000211
přidatkami dodankami 0.9000000
přidatkami wowalone 0.3333333
leksikaliske leksikaliske 1.0000000
materiala materiala 1.0000000
minjene slědne 0.0666667
minjene minjone 1.0000000
minjene minjonych 0.2500000
minjene zachadne 0.5000000
minjene NULL 0.0002325
inc. inc. 1.0000000
dobyłoj dobyłej 1.0000000
přikazanym pśikazanem 1.0000000
wusudźe wusuźe 1.0000000
wuwučował wuwucował 0.6666667
wuwučował něconawucyś 0.2500000
njepřežiwi pśežywiś 0.2000000
njepřežiwi tu 0.0025000
njepřežiwi njebuźo 0.0086957
delnjołužiskeje dolnołužyskeje 1.0000000
dompro dompro 1.0000000
předewzaćelski pśedewześowy 1.0000000
kolsku kolsku 1.0000000
prawu pšawu 0.8260870
prawu pšawy 0.0142857
prawu NULL 0.0002325
prawu pšawe 0.0428571
prawu pšawoju 1.0000000
wjeselće wjeselśo 1.0000000
wjeselće pógoń 1.0000000
wjeselće wjaselśo 1.0000000
přibrać rozpinaś 0.3333333
naměstnik zastupnik 0.1428571
wodaće aby 0.0002032
wodaće wódaśe 0.5000000
navigator.mozapps.installpackage navigator.mozapps.installpackage 1.0000000
kmanosćam zamóžnosćam 0.6250000
přećelemi pśijaśelami 1.0000000
wotpowědowace wótpowědujucy 0.0192308
wotpowědowace wótpowědujuce 0.1250000
wotpowědowace wótpowědne 0.1250000
wotpowědowace pśiměrjonu 0.0909091
kwaliće kwaliśe 1.0000000
plakatami plakatami 1.0000000
pukow pukow 0.5000000
dwěle cwible 1.0000000
dwěle dwěle 1.0000000
dwěle bejnje 0.0104167
připołdniši połdnjowe 1.0000000
posylnić zmócniś 0.0434783
zwěsćimy NULL 0.0002325
zwěsćimy zwěsćijomy 0.6666667
škitanja šćitanja 0.5000000
přežadanja pśepominanja 1.0000000
zerzawi bejnje 0.0104167
zerzawi zezarzaś 1.0000000
zerzawi zarzawy 0.5000000
zerzawi zarzaś 0.6666667
zerzawi buźo 0.0034247
mordarstwo mordaŕstwo 0.5000000
mjerzać wobuze 0.3333333
mjerzać njezmějoš 0.5000000
mjerzać z 0.0001352
mjerzać rozgóriś 0.2500000
mjerzać nimi 0.0077519
mjerzać žedneje 0.0400000
mjerzać ty 0.0019268
facebook wy 0.0028169
facebook facebook 0.9814815
facebook facebooka 0.5000000
facebook njeby 0.0057803
sejmej sejmoju 0.9473684
mustram mustram 1.0000000
wobstatkom wobstatkoju 0.2500000
wobstatkom wobstatk 0.1388889
wobstatkom NULL 0.0004649
wobstatkom wobstatkom 1.0000000
wěčnosće nimjerstwa 1.0000000
wěčnosće nimjernosći 0.7000000
zesłodźeć pśiswójźbnymi 0.5000000
zesłodźeć zesłoźeś 0.6666667
kałał štapał 1.0000000
kałał rubaś 0.2500000
lětstotku lětstotku 1.0000000
lětstotku stolěśu 1.0000000
nadpředmjetowym nadpśedmjatowym 1.0000000
mozamo mozamo 1.0000000
móžachmy mógali 0.0333333
móžachmy smy 0.0140105
powšitkownosće luźi 0.0167598
powšitkownosće wšych 0.0309278
powšitkownosće powšyknosći 1.0000000
wobchod loda 0.2727273
wobchod słušała 0.1250000
wobchod lodu 0.2000000
wobchod wobchod 1.0000000
wobchod pśedewześe 0.0263158
zezběrajće zezběrajśo 1.0000000
wojerowskich wórjejcańskich 0.6666667
rjadowniski rědowniski 1.0000000
burikow burikow 1.0000000
dypkami dypkami 0.6666667
lězu jětša 0.1428571
zasadźeja zasajźuju 0.0833333
pawšalu pawšalu 1.0000000
kołbasami jěšnicami 1.0000000
zwólniwosć zwólniwosć 1.0000000
bitow bitow 1.0000000
zmyj ga 0.0017123
zmyj humyj 1.0000000
porciju kopicu 0.0526316
hejsowachu , 0.0000318
hejsowachu jědli 0.5000000
andricki andricki 1.0000000
wućežechu wuśěgnuli 0.5000000
wućežechu su 0.0002199
wudawanski wudawańska 1.0000000
zasospóznawanje zasejspóznawanje 1.0000000
wiceprezidenta wiceprezidenta 1.0000000
wiceprezidenta prezidenta 0.0952381
wiceprezidenta zastupnego 0.5000000
lěwanćika lawendela 1.0000000
přibrjoze pśechójźowałej 0.3333333
přibrjoze pśibrjogu 1.0000000
zakładnu zakładnu 0.6500000
zakładnu zakładneje 0.0163934
wosom wósym 1.0000000
wosom zeger 0.0208333
lěpkom lipkom 0.6666667
lěpkom lipk 0.2000000
lěpkom comu 0.0370370
lěpkom wužytny 0.0263158
lěpkom jej 0.0086207
lěpkom dej 0.0043290
lěpkom byś 0.0013774
wolene wólone 0.8888889
wolene wóliś 0.1250000
wjelki wjelki 1.0000000
rozkazowarja rozkazowarja 1.0000000
božemu bóžemu 1.0000000
chatowych chatowych 1.0000000
pdf-pisma pdf-pisma 1.0000000
center-x center-x 1.0000000
změnowy elektrikaŕ 1.0000000
jěcharja muža 0.0909091
rozdźělnych wšakorakich 0.0303030
rozdźělnych rozdźělnych 0.8666667
rozdźělnych rozdźělne 0.0129870
analyzowanje analyzěrowanje 1.0000000
škitany šćitany 0.6666667
pisomny pisany 0.0769231
pisomny pisański 0.6666667
pisomny pisny 1.0000000
wóčkomaj wóckoma 1.0000000
wóčkomaj wócyma 0.0625000
mediatece mediatece 1.0000000
pjekarja pjakarja 0.6666667
0 0 1.0000000
0 mozilla.org. 0.0526316
lipowemu lipowemu 1.0000000
wobchadźeja wobchadaju 1.0000000
wikistronu wikibok 0.5000000
dokumentuja dokumentěruju 1.0000000
njeporjadnje njepórědnje 1.0000000
widejow wideo 0.0990991
snadniši nišy 0.3333333
mek cogo 0.0111111
mek mek 1.0000000
mek dla 0.0022075
konceptam konceptam 1.0000000
halštrowa halštera 1.0000000
indoneskeje indoneziskeje 1.0000000
fungował funkcioněrował 1.0000000
fungował funkciobněrował 1.0000000
jutry jutry 1.0000000
jutry jatšy 0.9230769
chcéce cośo 0.0032895
inwestor inwestor 1.0000000
zapisane njebjach 0.5000000
zapisane numer 0.0285714
zapisane napisane 0.0666667
zapisane zapisane 0.8260870
iphone iphone 1.0000000
šymku šymko 1.0000000
pěstowarskimi źiśowniskimi 1.0000000
c2tnb239v1 c2tnb239v1 1.0000000
hóršenje jo 0.0000693
hóršenje wobśěžkanje 0.2500000
krasnosći kšasnosći 0.1428571
krasnosći mócy 0.0156250
icalendar icalendar 1.0000000
jaroměr jaroměr 1.0000000
wobchodach wobchodach 1.0000000
nudlow nudlow 1.0000000
falšne kšajźojske 0.3333333
falšne falšne 1.0000000
ćisnyć schowaś 0.0212766
ćisnyć słužabnikow 0.1666667
ćisnyć zatkaś 0.0500000
ćisnyć zwuchytowaś 1.0000000
ćisnyć spaliś 0.0285714
ćisnyć chyśiś 0.7368421
ćisnyć śisnuś 0.5000000
ip-adresu ip-adresu 1.0000000
roztorhała wobškóźeła 1.0000000
wotličensku pśedlejšyjo 0.3333333
wotličensku kuždy 0.0022676
rozpušćenjom rozpušćenim 1.0000000
plahowanju kubłanju 0.0425532
dycha dycha 1.0000000
dycha dalšnego 0.0714286
dycha słowka 0.2500000
dycha ? 0.0002551
dodawać dodawaś 0.6666667
franc franc 1.0000000
predikantami predikantami 1.0000000
dobrota dobrota 1.0000000
dobrota dobroś 0.2000000
dobrota žywjenja 0.0081967
dobrota pśewóźujotej 1.0000000
přestajiła pśestajiła 0.5000000
inowatiwne inowatiwne 1.0000000
prašenski pšašański 1.0000000
pił pił 0.4000000
pił switanja 1.0000000
signuja signěruju 1.0000000
jónkrótnje jadnoraznje 0.3333333
sebjewědomja sebjerozměśa 1.0000000
wohnjowu wognjoweju 0.3000000
wohnjowu wognjowu 1.0000000
pohrjebnišćo kjarchob 0.2307692
strategiju strategiju 1.0000000
pósćelemy pósćelomy 1.0000000
wole woł 0.0303030
wole wole 0.5000000
wole wólu 0.0714286
wole wóle 0.7692308
wole zastupnika 0.0666667
wole kšuteje 0.3333333
pukloty klětki 0.3333333
wokołorěčenja wjelikego 0.0294118
wokołorěčenja powědanja 0.0454545
njećišćomne , 0.0000318
njećišćomne njeśišćajobne 1.0000000
neurologojo neurologi 1.0000000
dźakowano pomocu 0.0051546
dźakowano magiskemu 0.5000000
dźakowano dla 0.0066225
dźakowano jankoju 0.3333333
dźakowano źěkowano 1.0000000
dźakowano jeje 0.0044053
dźakowano kule 0.3333333
dźakowano z 0.0008114
dźakowano trika 0.1666667
čornych carnych 1.0000000
report-only report-only 1.0000000
alert alert 1.0000000
njespokojace njespokojece 1.0000000
njepřepoda njepśepódajo 1.0000000
aktiwěrował aktiwěrowali 1.0000000
sylni mócne 0.0540541
sylni zmócnijo 0.1111111
sylni mócna 0.0714286
wěcnej wěcnej 1.0000000
wěcnej wěcneje 0.5000000
wukonjeja wugbaju 0.6923077
wukonjeja wugbajotej 1.0000000
wukonjeja pśewjeduju 0.1538462
wušoł wujšeł 0.6250000
wušoł baćonju 0.5000000
detach detach 1.0000000
nuklace karnikelowe 1.0000000
šćuki šćipjełki 1.0000000
rozbite zezłamowane 1.0000000
rozbite rozbite 1.0000000
tematisku tematisku 1.0000000
złamany złamany 1.0000000
dalokeho dalokego 0.6666667
swědkom wót 0.0005359
swědkom wiźenja 0.0909091
wěkom wěkom 1.0000000
wudawki etata 0.2000000
wudawki wudawki 0.9069767
zmjerzlinowej zmarzlinowej 1.0000000
prawidłownu pšawidłownu 1.0000000
wužiwam wužywam 1.0000000
wužiwam zasajźijom 1.0000000
wužiwam wužywajom 0.5000000
alfabetizowanje alfabetizěrowanje 1.0000000
bazuja bazěruju 1.0000000
hotoweho pinguin 0.2000000
hotoweho gótowy 0.0243902
wobstajnje wobstawne 0.1000000
wobstajnje stawnje 0.0927152
wobstajnje wobstawnje 0.5000000
wobstajnje mógał 0.0064725
wobdźěłana pśeźěłała 0.5000000
cldr cldr 1.0000000
stała górnoserbšćina 0.2000000
stała stojała 0.2500000
stała stała 0.3333333
hornjoserbskej pó 0.0006238
hornjoserbskej górnoserbskej 0.7333333
hornjoserbskej górnjoserbskej 1.0000000
připóznateho pśipóznaty 0.0909091
připóznateho kšywowy 0.0454545
wunjesli wunjasli 1.0000000
skupinje kupkach 0.0263158
skupinje kupku 0.0128205
skupinje kupce 0.9285714
skupinje někotarych 0.0215054
skupinje diskusijnu 0.1250000
dworjanow dwórnikow 1.0000000
dedikowany dedicěrowany 1.0000000
didaktice didaktice 1.0000000
balast balast 1.0000000
zarjaduja pśeglědanjow 0.1428571
zarjaduja zarduju 1.0000000
strukturu strukturu 1.0000000
strukturu struktury 0.0357143
makowych semjenja 0.1250000
makowych połna 0.0250000
stajiš se 0.0000696
dočasa togo 0.0019157
dočasa do 0.0009251
dočasa zacytała 0.5000000
dočasa zawcasa 0.1250000
dočasa casa 0.0049261
opaqueredirect opaqueredirect 1.0000000
jabłučina jabłucyna 1.0000000
jabłučina bom 0.0294118
jabłučina jabłukowy 0.0232558
wjedrje wjedrje 0.9000000
wjedrje wjedru 0.5000000
wjedrje tam 0.0014205
kmanosće … 0.0050000
kmanosće znajobnosći 0.0217391
kmanosće pśemóžoš 0.2500000
kmanosće pšus 0.5000000
kmanosće zamóžnosći 0.6969697
kmanosće pócynki 1.0000000
kmanosće pśemóžnosći 0.2000000
kmanosće móc 0.0072993
kmanosće zamožnosći 1.0000000
ewaluował ewaluěrował 1.0000000
šěsćschodźenkowej šesćschójźeńkowej 1.0000000
url śamna 0.1250000
url NULL 0.0002325
url url 0.9903846
leag leag 1.0000000
słužownicy bóže 0.0277778
krizowy krizowy 1.0000000
betaaktualizacije betaaktualizacije 1.0000000
přizwolimy pśizwólijomy 1.0000000
njenegatiwna njenegatiwna 1.0000000
wozjewjena wózjawjona 1.0000000
wozjewjena wózjawiła 0.6666667
rozpadny rozpadnuł 1.0000000
rozpadny rozpadnuła 1.0000000
minimalny zabrał 0.2500000
minimalny městno 0.0045872
minimalny minimalny 1.0000000
wustajeńca wustajeńcu 0.0625000
wustajeńca wustajeńca 0.8333333
wustajeńca wustajeńcy 0.1428571
sponsorowane sponsorowane 0.5000000
520 520 1.0000000
rozšěrjowaše rozšyrjowało 1.0000000
nješwarny nješwarny 1.0000000
algi algi 0.5000000
konfigracija konfigracija 1.0000000
wódru odru 1.0000000
procentaj procenta 1.0000000
nabožina nabóžnina 0.8000000
jadwizyny nan 0.0232558
hida gramota 1.0000000
awtentifiakciju awtentifiakciju 1.0000000
přirodowědny pśirodowědny 1.0000000
předobywaja pśedobywaju 1.0000000
spóžnaća spóžnaśa 1.0000000
sekundow sekundow 1.0000000
zbrašenosću brachom 1.0000000
wizija wizija 1.0000000
čistu cystu 0.3333333
fantazijowych fantazijowych 1.0000000
pjekarska pjakarska 1.0000000
pjekarska pjakarski 1.0000000
kładźite bolane 1.0000000
koncipowanju koncipěrowanju 1.0000000
njestronjan njewězany 1.0000000
njestronjan stroński 1.0000000
webnałoženjam webnałoženjam 1.0000000
jakarta jakarta 1.0000000
zesylnjenju zmócnjenju 0.3478261
biologiskeje biomase 0.5000000
service service 0.9545455
tačelowy plaśe 0.2173913
tačelowy platowy 1.0000000
tačelowy na 0.0007973
tačelowy wótnowił 0.1250000
tačelowy rum 0.0674157
hromadźacych gromaźecych 1.0000000
wobstaranju wobstaranju 1.0000000
predestinowaše predestiněrowało 1.0000000
predestinowaše jo 0.0001386
zastupić NULL 0.0002325
zastupić pśiś 0.0212766
zastupić stupiś 0.4615385
zastupić momenśe 0.3333333
zastupić how 0.0010288
zastupić kuždem 0.0158730
zastupić nutś 0.0243902
zastupić zastupiś 0.6666667
zastupić stupić 1.0000000
relatiwnje relatiwnje 0.7142857
poručenjemi pórucenjami 0.0500000
snadnje snadnje 1.0000000
směšnje směšnje 0.5000000
sanitarna sanitarna 1.0000000
trjebaće trjebaśo 0.9863014
trjebaće bjerjośo 1.0000000
