blaškow blaškow 1.0000000
přez přez 0.5000000
słužownik přez 0.2500000
woči přez 0.2500000
antifašistiskej antifašistiskej 1.0000000
bić bijom 1.0000000
wučbnej wuceńskej 1.0000000
registrować registrowaś 1.0000000
porěči pópowěda 1.0000000
wokrjesomaj wokrejsoma 1.0000000
festiwalach festiwalach 1.0000000
nahromadźił nagromaźił 0.5000000
nazběrał nagromaźił 0.5000000
wustajenišćo wustajenišćo 1.0000000
překwapjeni załapjone 1.0000000
url śamna 0.1250000
swójski śamna 0.1250000
ćmowa śamna 0.7500000
łužiskeho łužyskego 0.8181818
łužiskich łužyskego 0.1818182
pomorskej pómóŕskej 1.0000000
maćernorěčnikami maćernorěčnikami 1.0000000
wuhódnoćenje wugódnośenje 1.0000000
njepřepruwujeće njepśeglědujośo 1.0000000
stejace stojece 0.8666667
stejo stojece 0.1333333
kultiwěrowanja kultiwěrowamja 1.0000000
rozjasnjacej rozjasnjujuceje 1.0000000
kónčnym kóńcnym 1.0000000
njepraji wšu 0.1111111
wšě wšu 0.1111111
wšu wšu 0.7777778
ćeže někakich 1.0000000
mikowje mikowje 1.0000000
wolće wuběrajśo 1.0000000
biskop biskup 1.0000000
semperoweje semperoweje 1.0000000
myslu myslu 1.0000000
katharina katharina 1.0000000
financujetej financujotej 1.0000000
zawěrow zawěrow 1.0000000
spinki glicki 0.1176471
jehlički glicki 0.8823529
płoty płoty 1.0000000
csp-rozprawa csp-rozpšawa 1.0000000
posudkow pósudkow 1.0000000
doborowólnik doborowólnik 1.0000000
doctype doctype 1.0000000
bedřichove bedřichove 1.0000000
powěsćow filtrujośo 0.2000000
sće filtrujośo 0.2000000
filtrowanja filtrujośo 0.2000000
procesu filtrujośo 0.2000000
w filtrujośo 0.2000000
płun płun 1.0000000
wotpinyć wótšaltowaś 0.5000000
wotšaltować wótšaltowaś 0.5000000
ladinam ladinarjam 1.0000000
trónje tronje 1.0000000
wowcy wójce 1.0000000
mamoj mamej 1.0000000
wot wenkownosći 0.5000000
wonkowneho wenkownosći 0.5000000
policiji policaje 1.0000000
kopěrowanske kopěrowańske 1.0000000
praktikumje praktikumje 1.0000000
němcaj nimca 1.0000000
11.2 11.2 1.0000000
će póstrowjony 1.0000000
wobkedźbował wobglědował 1.0000000
nektar nektar 1.0000000
młodu młode 0.0266667
młoda młode 0.0666667
přemłoda młode 0.0133333
młodźi młode 0.5200000
młodźata młode 0.0400000
młodych młode 0.0533333
młode młode 0.2533333
młodźeći młode 0.0266667
chrystusowej sćerpnemu 1.0000000
wobkedźbowaneho wobglědowanego 1.0000000
strachej tšachoju 1.0000000
wuhodnoćenski wugódnośeński 1.0000000
swjatkach swětkach 1.0000000
, instalěrowanju 0.1111111
instalowanju instalěrowanju 0.8888889
kubłanje susednorěcne 0.5000000
zažne susednorěcne 0.5000000
židowsku žydojsku 1.0000000
hrali grali 1.0000000
NULL wěmy 0.0416667
wěmy wěmy 0.9583333
přećiwnika winika 1.0000000
skupinomaj kupkoma 1.0000000
darjenska pósćiwańska 1.0000000
wólbami wólbami 1.0000000
eksistować eksistěrowaś 0.8000000
być eksistěrowaś 0.2000000
this this 1.0000000
rozdwoja rozdwóje 1.0000000
rěpa rěpa 1.0000000
kulturam kulturam 1.0000000
zwědawy wědu 0.0112360
towaršnowědu wědu 0.0561798
wědu wědu 0.9325843
klinčał klincał 1.0000000
wobnowi wobnowiło 1.0000000
rozmyslowaše rozmyslowała 1.0000000
njewučini njewucynijo 1.0000000
jaroměr jaroměr 1.0000000
wuzna wuzna 1.0000000
resursy resursy 1.0000000
wotzamknyć wótzamknuś 1.0000000
kinowy kinowy 1.0000000
wobraz žiwy 0.5000000
wonkowny žiwy 0.5000000
metadaty metadaty 1.0000000
dundamy dundamy 1.0000000
jednoriši jadnorjejšy 1.0000000
krótkofilm krotkofilm 1.0000000
duhra duhra 1.0000000
wutworili. pśidank. 1.0000000
basnik basnik 1.0000000
připósłał pśipósłał 1.0000000
powědkach powěsćach 0.2500000
fabulach powěsćach 0.1250000
powěsćach powěsćach 0.5000000
radźa powěsćach 0.1250000
šulerske wuknikojske 1.0000000
zamołwiće zagronitostnje 1.0000000
kaž akoe 1.0000000
tykń zatkaj 1.0000000
krokach kšacach 1.0000000
dyrbještaj stej 0.0051546
zhoništej stej 0.0025773
mandźelskeju-matematikarjow stej 0.0051546
swjećeštaj stej 0.0025773
byrnjež stej 0.0051546
měještej stej 0.0103093
byštej stej 0.0025773
rozsudźitaj stej 0.0025773
su stej 0.0180412
wobhoništej stej 0.0025773
lubještej stej 0.0025773
hódnoćitej stej 0.0051546
křćištaj stej 0.0051546
chodźeštaj stej 0.0025773
kolenje stej 0.0025773
chcyštej stej 0.0103093
wobrubištaj stej 0.0025773
mjenowaštej stej 0.0051546
knježitej stej 0.0051546
margeritow stej 0.0051546
kładźemy stej 0.0051546
woswjećištaj stej 0.0025773
knježeštej stej 0.0051546
dźeržeštej stej 0.0025773
sćěhowaštej stej 0.0051546
stej stej 0.4974227
přesydlištaj stej 0.0025773
steješe stej 0.0051546
poskićištej stej 0.0025773
daštej stej 0.0051546
wotměnještaj stej 0.0025773
staj stej 0.2164948
namjetowaštej stej 0.0025773
wopytaštaj stej 0.0025773
wopytaštej stej 0.0025773
NULL stej 0.0180412
wažnosć stej 0.0051546
zwěsćištaj stej 0.0051546
dwaj stej 0.0025773
běštaj stej 0.0360825
słušeštej stej 0.0128866
wuradźowaštaj stej 0.0025773
chcyštaj stej 0.0051546
přinošowałoj stej 0.0051546
předstajištej stej 0.0051546
wobkrućištaj stej 0.0051546
kliborje stej 0.0025773
podpisaštej stej 0.0025773
běštej stej 0.0231959
kraj stej 0.0025773
darištaj stej 0.0025773
energijowa energijowa 0.5000000
ig energijowa 0.5000000
wotprajeny wótgronił 1.0000000
wostachu wóstali 0.1818182
žiwe wóstali 0.1818182
zwostali wóstali 0.0454545
wostali wóstali 0.4090909
zwostachu wóstali 0.0454545
wuspěcha wóstali 0.0909091
njebychmy wóstali 0.0454545
deniedguid deniedguid 1.0000000
time time 1.0000000
prowincy prowince 1.0000000
chorobnym chórobnem 1.0000000
scriptsizemultiplier scriptsizemulitplier 1.0000000
najwobšěrniši nejwobšyrnjejšy 1.0000000
žiwicu śisnuś 0.1250000
z śisnuś 0.1250000
preč śisnuś 0.1250000
dźi śisnuś 0.1250000
ćisnyć śisnuś 0.5000000
zk zk 1.0000000
mułkecy mułkojce 1.0000000
kulturno-historiske kulturno-historiske 1.0000000
wobchoda optikarja 1.0000000
syptajće woptajśo 1.0000000
hrodźišćo kopšinje 1.0000000
e-mejl mejlku 0.0312500
mejlku mejlku 0.2604167
e-mejlku mejlku 0.6979167
spytał mejlku 0.0104167
přestworił pśetwórił 0.4000000
na pśetwórił 0.4000000
přetworił pśetwórił 0.2000000
škleńcu głažanym 0.5000000
škleńčanej głažanym 0.5000000
dojednanjam dojadnanjam 1.0000000
artikl artikl 1.0000000
zastupjerce zastupnicy 0.5000000
zastupnicy zastupnicy 0.5000000
wobdźiwajomnymi późiwabnymi 1.0000000
žiwić žywiś 1.0000000
předpołožiła pśedpołožyła 0.5000000
přepołožiła pśedpołožyła 0.5000000
stroweho strowego 1.0000000
bitcoinowe bitcoinowe 1.0000000
nmóžeće nmóžośo 1.0000000
čisle numerje 1.0000000
nóž nóž 1.0000000
pospěšił póspěšył 1.0000000
zakonjach kaznjach 1.0000000
wopřija wobpśimjejo 1.0000000
alkohol alkohol 1.0000000
zakoń testament 1.0000000
bacs bacs 1.0000000
kóncom kóńcom 1.0000000
najwažnišimi nejwažnješymi 1.0000000
temam temam 1.0000000
koparskich balokopaŕskich 1.0000000
prezentniša prezentnjejša 1.0000000
tuchwilneho tuchylneje 0.2857143
tuchwilneje tuchylneje 0.4285714
tučasneje tuchylneje 0.2857143
nominuje nominěrujo 1.0000000
konfigurował konfigurěrował 0.8000000
konfiurował konfigurěrował 0.1000000
konfigurowany konfigurěrował 0.1000000
knjeza knězowu 1.0000000
njeslědujemy njeslědujomy 1.0000000
njebě njebě 1.0000000
přełožena pśestajiło 1.0000000
nadrobnosće nadrobnosći 1.0000000
připadnych pśipadnych 1.0000000
žanych žednogo 0.0263158
technisce žednogo 0.0263158
chwile žednogo 0.1315789
žadaće žednogo 0.0263158
prosće žednogo 0.0263158
tajki žednogo 0.0263158
zmysła žednogo 0.0263158
njewěm žednogo 0.0263158
kuska žednogo 0.0263158
zdaća žednogo 0.0526316
nimaš žednogo 0.0263158
potomnika žednogo 0.0263158
žanoho žednogo 0.3684211
nadpadźe žednogo 0.0263158
chlěb žednogo 0.0263158
bjez žednogo 0.0263158
žadyn žednogo 0.1052632
twarskeho twaŕskego 1.0000000
namołwje napominanju 1.0000000
žiwjenski žywjeńska 0.5000000
žiwjenska žywjeńska 0.5000000
pozicijemi pozicijow 1.0000000
wotměram wótměram 1.0000000
wobsahował wopśimjeł 1.0000000
.jpg. .jpg. 1.0000000
wi-wi-wizije wi-wi-wizije 1.0000000
twarske twaŕske 0.9000000
twarscy twaŕske 0.0666667
herbskotwarske twaŕske 0.0333333
jednostronska jadnobocna 1.0000000
pomału pomałem 1.0000000
wobsahować wopśimowaś 0.9310345
dołhe wopśimowaś 0.0344828
być wopśimowaś 0.0344828
tajnych pótajmnych 1.0000000
wuznali wuznali 1.0000000
instalujće instalujěrśo 1.0000000
dno dno 1.0000000
realities realities 1.0000000
wobsadźenju wobsajźenju 1.0000000
podhladnymi suspektnymi 1.0000000
pdf-dokument pdf-dokument 1.0000000
wysokokwalifikowanych wusokokwalificěrowanych 1.0000000
wužiwar wužywaŕ 0.9868421
wužiwarjo wužywaŕ 0.0131579
½ ½ 1.0000000
njewobkedźbuje njewobmyslujo 1.0000000
-auth -auth 1.0000000
javascriptowy javascriptowy 1.0000000
wochoz wochoz 1.0000000
download-artikle download-artikle 1.0000000
podpěrać pódpěrowaś 0.5000000
intensiwne pódpěrowaś 0.0384615
podpěrować pódpěrowaś 0.4615385
internetneje internetnej 0.5000000
internetnej internetnej 0.5000000
wolić wuzwólowanja 0.0714286
wólbokmani wuzwólowanja 0.1428571
wólbokmanych wuzwólowanja 0.3571429
wólbach wuzwólowanja 0.1428571
prawo wuzwólowanja 0.1428571
wólbne wuzwólowanja 0.1428571
nućenjom nuźenim 1.0000000
zwučene zwucone 0.6153846
zwučeni zwucone 0.3076923
rutiny zwucone 0.0769231
wotzamknjenym wótzamknjonym 1.0000000
hewak wacej 0.6153846
poprawom wacej 0.1538462
krošiki wacej 0.0769231
druhdźe wacej 0.0769231
wikuju wacej 0.0769231
deficitow deficitow 1.0000000
wonknownych wenknownych 1.0000000
config config 1.0000000
šenkarjom šenkarjom 1.0000000
holanskeje gólańskeje 1.0000000
staramy staramy 1.0000000
posaarčanka pósaarska 0.5000000
posaarska pósaarska 0.5000000
kolesko bulawko 1.0000000
procha proch 0.1428571
proch proch 0.8571429
drje njeměrne 0.3333333
to njeměrne 0.3333333
njeměrne njeměrne 0.3333333
turkowskeho turkojskego 1.0000000
žito trajdu 1.0000000
lodoweje lodoweje 0.4285714
lodowej lodoweje 0.4285714
w lodoweje 0.1428571
šćěpki šćěpki 0.7500000
drjewo šćěpki 0.1250000
hromadu šćěpki 0.1250000
předewzaća pśedewzesá 1.0000000
přepytujetaj pśepytujotej 1.0000000
słanjom słanim 1.0000000
metrach metrach 1.0000000
witani witane 0.6363636
witane witane 0.3636364
wotměwali wótźaržowali 1.0000000
zahorići zagórite 1.0000000
wječornej wjacornej 1.0000000
roztorhać roztergaś 1.0000000
přewobroćenje pśewobrośenje 1.0000000
wopytaštaj młodostnej 0.5000000
młodostnaj młodostnej 0.5000000
filipo filip 0.2500000
filip filip 0.7500000
ua ua 1.0000000
wučerka wucabnik 0.0243902
wučerjow wucabnik 0.0243902
wučer wucabnik 0.9024390
předšule wucabnik 0.0487805
kubło kubło 1.0000000
płaćić zapłaśiś 0.0952381
NULL zapłaśiś 0.0476190
zapłaćić zapłaśiś 0.7142857
płaćomny zapłaśiś 0.1428571
tučasnu něntejšnu 1.0000000
nominował nominował 1.0000000
bostona bostona 1.0000000
wokomiku chyli 0.0270270
popisany chyli 0.0270270
nju chyli 0.0270270
runje chyli 0.0810811
chwili chyli 0.0270270
hródźi chyli 0.0270270
tuchwilu chyli 0.2432432
za chyli 0.0270270
měšćanosta chyli 0.0270270
wokomik chyli 0.0270270
prawe chyli 0.0270270
jozefo chyli 0.0270270
rozmołwjeć chyli 0.0270270
zhubjeja chyli 0.0270270
wokomiknje chyli 0.1621622
nětko chyli 0.1351351
kóždy chyli 0.0270270
NULL chyli 0.0270270
zwróćeć zwrośiś 1.0000000
produktow produktow 0.9375000
kupcowskich produktow 0.0625000
blešowe flašowe 1.0000000
nsidomwindow nsidomwindow 1.0000000
stary tucny 0.1666667
tučnu tucny 0.1666667
tučny tucny 0.6666667
financnje financnje 0.2500000
financielnje financnje 0.7500000
padle padle 1.0000000
powołanskej pówołańskej 1.0000000
stronce bokach 0.0434783
kwartalnje bokach 0.0434783
stronach bokach 0.9130435
kubłanskej kubłańskeju 0.5000000
kubłanskim kubłańskeju 0.5000000
znapřećiwjenja znapśeśiwjenja 1.0000000
knihowe knigłowe 0.4000000
knižne knigłowe 0.6000000
najwoblubowanišich nejwoblubowanjejšych 1.0000000
domskim chromje 1.0000000
wobsedźi wobsejźi 1.0000000
njezbožowym njegluki 0.1538462
přinjeseće njegluki 0.0769231
kasa njegluki 0.1538462
njezbožowe njegluki 0.1538462
wo njegluki 0.0769231
njezboža njegluki 0.3846154
přewzałoj pśewzełej 1.0000000
króna tta 1.0000000
cyrpto-key cyrpto-key 1.0000000
sćerpny sćerpny 0.5000000
sćerpliwy sćerpny 0.5000000
dobropisy bony 1.0000000
prašeće pšašaśo 1.0000000
brali brali 1.0000000
do šnapac 0.3333333
pysk šnapac 0.6666667
spodobne spódobne 0.3000000
přijomne spódobne 0.7000000
załamował załamował 1.0000000
sy póchadaš 1.0000000
twarnišća twaŕnišća 1.0000000
spěšniše maksnjejše 1.0000000
zaběry zaběry 1.0000000
eksperimentowanju eksperimentěrowanju 1.0000000
haćić zajźowaś 0.2307692
zadźěwać zajźowaś 0.5384615
sćazać zajźowaś 0.0769231
zadźěwał zajźowaś 0.0384615
znjemóžnić zajźowaś 0.0384615
wadźić zajźowaś 0.0769231
awdijokursa awdijokursa 1.0000000
racionalni racionalne 1.0000000
strg strg 1.0000000
blokujemy blokěrujomy 1.0000000
chemiske chemiske 1.0000000
wotkupić wótkupiś 1.0000000
mjenowanym pomjenjonej 0.6666667
pomjenowanu pomjenjonej 0.3333333
sej myslim 0.1538462
za myslim 0.0153846
hižo myslim 0.0153846
starosću myslim 0.0153846
te myslim 0.0153846
njemyslu myslim 0.0153846
myslu myslim 0.7230769
NULL myslim 0.0307692
što myslim 0.0153846
wopačne wopаcny 1.0000000
dopomha dopomaga 1.0000000
dźakuju źěk 0.1160714
ći źěk 0.0535714
wšudźe źěk 0.0089286
so źěk 0.1785714
dźak źěk 0.6428571
změrowanje wurownanje 0.4166667
wurunanje wurownanje 0.5833333
wottorhnył wótrył 1.0000000
přełam pśedrěśe 1.0000000
zadźerži zaźaržyjo 1.0000000
rozsudach rozsuźenjach 1.0000000
kampanja kampanja 1.0000000
cyžowu cyžowu 1.0000000
sněhaki sněgaki 1.0000000
wotpokazać wótpokazaś 0.8333333
zapowědźić wótpokazaś 0.1666667
wodopada wódopaźe 0.2000000
wodopadźe wódopaźe 0.8000000
prawniski pšawniske 0.0526316
prawniske pšawniske 0.8684211
prawniskich pšawniske 0.0263158
NULL pšawniske 0.0526316
zapisać zapisaś 0.8571429
zapisajće zapisaś 0.0714286
zakótwić zapisaś 0.0714286
njetrjebawšu trjebnu 0.0500000
žadanu trjebnu 0.1000000
trěbne trjebnu 0.1500000
trěbnu trjebnu 0.7000000
globalizaciju globalizaciju 1.0000000
lajskich lajskich 1.0000000
nadźěłachu naźěłali 0.2857143
NULL naźěłali 0.1428571
nadźěłali naźěłali 0.5714286
rumnosćach rumnosćach 1.0000000
wobrazowkach wobrazowkach 1.0000000
nsdap nsdap 1.0000000
webvr webvr 1.0000000
serwjety serwiety 1.0000000
minimalnemu minimalnemu 1.0000000
apple apple 1.0000000
přesahowacych pśesegujucych 1.0000000
nóc nóc 1.0000000
nasadźachu nasajźali 1.0000000
žatko chuźinka 1.0000000
póstoweho postowega 1.0000000
deleka dokojce 1.0000000
trjebina trjebina 1.0000000
aktualizowanskich aktualizěrowańskich 1.0000000
žitawa-zhorjelc-choćebuz žytawa-zgórjelc-chóśebuz 1.0000000
kulisami kulisami 1.0000000
ličaki licaki 1.0000000
laptopje laptopje 1.0000000
rjemjesła rucnikaŕstwa 1.0000000
zašłym zajźonej 1.0000000
stać asimilěrujo 0.5000000
asimilowani asimilěrujo 0.5000000
wopraša našu 0.0185185
zeznajće našu 0.0185185
naše našu 0.0370370
hymnu našu 0.0185185
NULL našu 0.0185185
wjesku našu 0.0185185
našu našu 0.8333333
rozesćelemy našu 0.0185185
našej našu 0.0185185
usa usa 1.0000000
wužiwarjam wužywarjam 0.9803922
wužiwarjow wužywarjam 0.0196078
NULL duchy 0.1250000
duchi duchy 0.7500000
wosebite duchy 0.1250000
woprašowanju wopšašanju 1.0000000
ty njesromna 0.3333333
lóza njesromna 0.3333333
šamały njesromna 0.3333333
wobdźěłowanju wobźěłowanju 1.0000000
přewjedźene pśewjeźone 1.0000000
chodźa chojźe 1.0000000
ewangelscy ewangelske 0.2222222
ewangelske ewangelske 0.7777778
swoje gluku 0.0625000
potajnstwo gluku 0.0312500
zbože gluku 0.0312500
přimnyć gluku 0.0312500
zbožo gluku 0.8437500
tutymi tutymi 1.0000000
darjenych pósćonych 1.0000000
kralestwo kralojstwu 1.0000000
zahoritosći zagóritosći 1.0000000
socialnje socialnje 1.0000000
slepjenjo slěpjanarje 1.0000000
tehdyši tegdejšy 1.0000000
angažowanje angažowanje 1.0000000
spodźiwneho źiwnego 0.5000000
NULL źiwnego 0.5000000
njewohroženy njewobgrozony 1.0000000
poswjećeny wuswěśiła 1.0000000
stilistisce stilistiski 1.0000000
NULL žeden 0.0370370
žanu žeden 0.0148148
jón žeden 0.0074074
za žeden 0.0148148
bjez žeden 0.0074074
žadyn žeden 0.7629630
nanihdy žeden 0.0074074
žanym žeden 0.0222222
wotpowědowało žeden 0.0074074
chwile žeden 0.0074074
žane žeden 0.0148148
njewjesćinske žeden 0.0074074
žadynžkuli žeden 0.0148148
kał žeden 0.0074074
hadow žeden 0.0074074
někajki žeden 0.0074074
nichtó žeden 0.0148148
njesmjertnych žeden 0.0074074
kotoł žeden 0.0074074
njesłuša žeden 0.0074074
njeskutkuje žeden 0.0074074
ćeknyli žeden 0.0074074
wotpowěduja starstwu 0.1666667
starobje starstwu 0.6666667
słodej starstwu 0.1666667
woprašowanych wopšašowanych 1.0000000
pozastać pśebywaś 0.5000000
e pśebywaś 0.5000000
wodźenska nawjedowańska 1.0000000
zaklučujemy koděrujomy 1.0000000
rěkaja casam 0.3333333
časam casam 0.3333333
počasy casam 0.3333333
abram abram 0.5000000
abramje abram 0.5000000
wupjelniło funkcionalnosći 0.1176471
funkcionalnosći funkcionalnosći 0.4705882
funkcionalnosće funkcionalnosći 0.4117647
2037 2037 1.0000000
njerozsudźi njerozsuźijo 1.0000000
knjezej knězoju 1.0000000
zetkajće zmakajśo 1.0000000
gabriela gabriela 1.0000000
dołhośc dłujkośc 1.0000000
słowoskładźe słowoskłaźe 0.6666667
znutřka słowoskłaźe 0.3333333
nakładne nakładne 1.0000000
modlenja módlitwy 0.4000000
modlitwy módlitwy 0.6000000
njewobknježa njewobkněžyju 1.0000000
swět swět 0.8030303
nječuješ swět 0.0151515
NULL swět 0.0151515
měr swět 0.0151515
swěta swět 0.0454545
swětej swět 0.0454545
swětom swět 0.0151515
napřećo swět 0.0303030
mjezwočo swět 0.0151515
pohibowu graśim 0.5000000
hru graśim 0.5000000
woborje woborje 1.0000000
niska niska 0.7500000
niski niska 0.2500000
zakładnymaj zakładnyma 1.0000000
přewodnika pśirucki 0.2500000
přiručki pśirucki 0.7500000
zwrěšćiłoj šłej 0.8000000
chodźeštaj šłej 0.2000000
zadźeržne stankowe 1.0000000
startujeće startujośo 0.6818182
startował startujośo 0.0909091
startujo startujośo 0.0454545
byšće startujośo 0.0454545
sće startujośo 0.0454545
tym startujośo 0.0454545
startujće startujośo 0.0454545
štryčki banśik 1.0000000
wšelaku rozdźělnu 1.0000000
pokliwanje zaklěwanja 1.0000000
zrěčenjom dogronom 1.0000000
wědomostnikow wědomostnikow 0.5000000
wot wědomostnikow 0.5000000
wupokazani wupokazane 0.5000000
wupokazane wupokazane 0.5000000
streamje streamje 1.0000000
aktualizujeće aktualizěrujośo 1.0000000
wołać wołaś 1.0000000
porstowe palcowe 1.0000000
stracciatella stracciatella 1.0000000
1911 1911 1.0000000
zbožopřejny glukužycecy 1.0000000
tym njedosegnu 0.1538462
rapaka njedosegnu 0.0769231
předaloko njedosegnu 0.0769231
njewobmjezuja njedosegnu 0.1538462
preč njedosegnu 0.0769231
njedosahnu njedosegnu 0.4615385
scriptminsize scriptminsize 1.0000000
lyceju lyceumje 1.0000000
zahuby skazenja 1.0000000
duć dunuś 1.0000000
symbolowej symbolowej 0.9411765
NULL symbolowej 0.0588235
tanki tanki 1.0000000
kałacymi štapatymi 1.0000000
jpeg jpeg 1.0000000
bismarckowej bismarckowem 1.0000000
karamelowe karamelowe 1.0000000
wužiwarskeho wužywaŕskego 1.0000000
parličkow parlickow 1.0000000
websydło websydło 1.0000000
cyłkowna cełkowna 1.0000000
njewopušćejće njespušćajśo 1.0000000
přesuwaj pśesuwaj 0.5000000
přesuń pśesuwaj 0.5000000
korektne korektne 1.0000000
kermuša kjarmuša 1.0000000
wudobywanja wudobywanja 1.0000000
66 66 1.0000000
username username 1.0000000
połch pjelch 1.0000000
zastaranju zastaranju 1.0000000
prawicarski pšawicaŕski 1.0000000
cuzorěčneje cuzorěcneje 1.0000000
wotewzał wótewzeł 1.0000000
wunošna wunosna 1.0000000
narěčani wobrośujomy 0.1428571
wobroćamy wobrośujomy 0.8571429
spontana spontana 1.0000000
NULL směś 0.0769231
směć směś 0.9230769
podzemskimi pódzemskimi 1.0000000
" “ 0.0178412
NULL “ 0.0035682
deformowany “ 0.0008921
dźiwadło “ 0.0008921
boju “ 0.0008921
sobuskutkowanju “ 0.0017841
njeeksistowaše “ 0.0017841
łastojčce “ 0.0008921
wuznamjenjenje “ 0.0008921
zmóžnił “ 0.0008921
” “ 0.0089206
pas “ 0.0017841
ja “ 0.0008921
nałoženje “ 0.0008921
“ “ 0.9313113
přepinać “ 0.0008921
„ “ 0.0231936
sławnej “ 0.0017841
nahe nage 1.0000000
kedźbliwosću glědanim 0.6666667
kedźbnosću glědanim 0.3333333
přistupne pśistupa 0.1000000
přistupnu pśistupa 0.1000000
skupina pśistupa 0.2000000
přistupa pśistupa 0.6000000
trajaceho trajucego 1.0000000
mašinelnym mašinelnym 1.0000000
hrimotało grimotało 1.0000000
salpetrom salpeterom 1.0000000
přewjedźeše pśewjadł 0.0500000
činił pśewjadł 0.0500000
přewjedźena pśewjadł 0.0500000
lěta pśewjadł 0.0500000
iniciěrowany pśewjadł 0.0500000
wuhotował pśewjadł 0.0500000
přewjedł pśewjadł 0.6000000
přewjedźeny pśewjadł 0.1000000
časowym casoweju 0.8571429
časowem casoweju 0.1428571
wuwiwarjow wuwijarje 0.3684211
wuwiwarjo wuwijarje 0.5789474
přidatkowych wuwijarje 0.0263158
přepruwowarjow wuwijarje 0.0263158
wopisany wopisany 1.0000000
wokablemi wokablami 1.0000000
maturantam rownała 0.3333333
runała rownała 0.6666667
ricardo ricardo 1.0000000
korektneho korektnego 1.0000000
mozcmd mozcmd 1.0000000
wočińće wócyńśo 1.0000000
njewěste njewěstemu 1.0000000
wučomnika wuknjeńca 1.0000000
165 165 1.0000000
čłonstwu cłonkojstwu 1.0000000
přihotujće pśigótujśo 1.0000000
zwyšimy pówušyjomy 1.0000000
pytnješ zawupytnjoš 0.3333333
to zawupytnjoš 0.3333333
zo zawupytnjoš 0.3333333
běžnym běžnem 0.8571429
wulkoćety běžnem 0.0714286
jich běžnem 0.0714286
njewobškodźena njewobškóźona 1.0000000
kuzłarkow guslowaŕkow 1.0000000
awtogramow awtogramow 1.0000000
artiklach artiklach 1.0000000
tunlom tunela 1.0000000
zajimawostkow zajimawostkow 1.0000000
pisała pisała 0.5000000
pisaše pisała 0.5000000
wuhladnej rozglědnem 1.0000000
p-planować pla-planowaś 1.0000000
sadźała kubłała 0.5000000
kubłała kubłała 0.5000000
gestami gestami 1.0000000
janedoe janedoe 1.0000000
najimowarjo najmarje 1.0000000
bankow bankow 1.0000000
poroda póroda 0.5000000
dla póroda 0.5000000
šeptnył pśišepnuł 1.0000000
porčmow klin 0.3333333
klin klin 0.6666667
trěbnych pótrjebnych 0.3333333
potrěbnych pótrjebnych 0.6666667
instalcija instalěrowanje 0.0434783
při instalěrowanje 0.0869565
instalowanje instalěrowanje 0.7391304
instalowanju instalěrowanje 0.1304348
startowanju startowanju 1.0000000
na zalicyś 0.6666667
přiličić zalicyś 0.3333333
pěstowarskej źiśownjowem 0.3333333
pěstowarskim źiśownjowem 0.6666667
mechatronikarja mechatronikarja 1.0000000
so wejsanari 0.5000000
wjesnjanow wejsanari 0.5000000
kročele stupanje 1.0000000
jadrowa jědrowy 1.0000000
zdźeržał źaržał 0.1538462
dźeržał źaržał 0.7692308
dźěržał źaržał 0.0769231
roztorhnyła zryli 1.0000000
nuzowachu nuzowali 1.0000000
měrješe měrił 0.5000000
měrił měrił 0.5000000
3.0 3.0 1.0000000
objektami objektami 1.0000000
damu danu 0.3333333
tu danu 0.3333333
pře danu 0.3333333
resp resp. 0.0069930
resp. resp. 0.9930070
zapisom zapisom 1.0000000
čakanskeho cakańskego 1.0000000
sebi wótwóźiś 1.0000000
wobmjezowane wobgranicone 1.0000000
warnowansku warnowańsku 1.0000000
přitomnosće pśibytnosći 0.1818182
přitomnosći pśibytnosći 0.8181818
wotbłyšćował wótbłyšćował 0.7142857
wobwliwować wótbłyšćował 0.1428571
synchronizowane wótbłyšćował 0.1428571
bazowodemokratiski bazowodemokratiski 1.0000000
dowoliło dowóliło 1.0000000
madrida madrida 1.0000000
bsd bsd 0.5000000
wuběra bsd 0.5000000
zhromadnosćach zgromadnosćach 1.0000000
tute wótše 0.1111111
wótry wótše 0.1111111
wótre wótše 0.6666667
sylne wótše 0.1111111
njetrjeba njetrjeba 0.8571429
manifestowu njetrjeba 0.0408163
je njetrjeba 0.0204082
kołmaz njetrjeba 0.0408163
róžk njetrjeba 0.0204082
dźěža njetrjeba 0.0204082
tendencu tendencu 1.0000000
sulfatom sulfatom 1.0000000
njewadźće njewaźćo 1.0000000
přehladować pśepytaś 0.2000000
přepytać pśepytaś 0.8000000
symboliskim symboliskim 1.0000000
łhał łdgał 1.0000000
ćišćene śišćane 0.2000000
ćišćane śišćane 0.4000000
stłóčene śišćane 0.2000000
nimo śišćane 0.2000000
hartmut hartmut 1.0000000
kubłanski wótkubłański 0.1428571
kubłarki wótkubłański 0.1428571
zdźěłowanski wótkubłański 0.1428571
wukubłanski wótkubłański 0.4285714
a wótkubłański 0.1428571
značku wobznamjeni 0.5000000
značce wobznamjeni 0.5000000
wjaceprocesowy wěcejprocesowy 1.0000000
speculative speculative 1.0000000
asociěrować asociěrowaś 1.0000000
zabitych zabitych 1.0000000
wotsćiny šerosći 0.5000000
šěre šerosći 0.5000000
najsylnišej nejmócnjejšeju 1.0000000
smochčanskeho smochčańskego 1.0000000
opole opole 1.0000000
wukubłanske wukubłańske 1.0000000
chroniskimi chroniskimi 1.0000000
přerjadowanju pśerědowanju 1.0000000
slepi wobslěpjeś 0.3333333
woči wobslěpjeś 0.3333333
mi wobslěpjeś 0.3333333
saek wobźěliłej 0.5000000
wobdźěliłoj wobźěliłej 0.5000000
informacisku informacisku 1.0000000
cyble cybulu 0.7500000
cyblu cybulu 0.2500000
zdobyće zdobywanje 1.0000000
zahinjetej zajźotej 1.0000000
magiski guslowarskeju 1.0000000
zmylk tymzmólkam 1.0000000
wuběranje wuběranje 0.6000000
wuběr wuběranje 0.4000000
mjelkliwosći mjelcatosći 1.0000000
inkluziskich inkluziskich 1.0000000
zdobywanjom zdobywanim 1.0000000
nazhonjenych nazgónitych 0.3333333
wěcywustojnych nazgónitych 0.6666667
ludźom luźom 1.0000000
metodach metodach 1.0000000
wbohich bogich 1.0000000
britiske britiske 1.0000000
nastudowała nastuděrowała 1.0000000
wupomhacemu wupomagajucemu 1.0000000
rozdźěla rozdźěliju 0.5000000
po rozdźěliju 0.5000000
wotležanym wótlažanym 1.0000000
přepołoženje pśepołoženje 1.0000000
brězanowa brězanowa 1.0000000
temporarneje nachylneje 1.0000000
njemu trało 0.1250000
trało trało 0.8750000
wopytali orientaciju 0.1428571
orientaciju orientaciju 0.8571429
mějach mějach 1.0000000
zaměrnym zaměrnem 1.0000000
figurow figurow 1.0000000
ssl-funkcija ssl-funkcija 1.0000000
zetkin cetkin 1.0000000
kodowanju koděrowanju 0.5000000
dekoděrowanju koděrowanju 0.1666667
zaklučowanju koděrowanju 0.3333333
w źiwnučkim 0.5000000
něšto źiwnučkim 0.5000000
přitomnych pśibytne 0.0588235
přitomni pśibytne 0.8823529
přitomne pśibytne 0.0588235
bartelsej bartelsoju 1.0000000
čehoždla cogoždla 1.0000000
testowanju testowanje 0.0769231
při testowanje 0.0769231
testowanje testowanje 0.8461538
... synje 0.3333333
syna synje 0.3333333
naspomnił synje 0.3333333
hódnota gódnota 0.9705882
składowanje gódnota 0.0294118
našeho našogo 0.8699187
hustych našogo 0.0081301
naju našogo 0.0081301
hnězda našogo 0.0081301
našeje našogo 0.0487805
nasěho našogo 0.0081301
zachodźe našogo 0.0081301
NULL našogo 0.0243902
soninow našogo 0.0081301
bohaće našogo 0.0081301
hornjeho górjejcneje 1.0000000
alkohola alkohola 1.0000000
pólska pólska 1.0000000
přewrótowym dramatiskem 1.0000000
wěšćerstwo zwěšćelujo 1.0000000
index.html index.html 1.0000000
dźěłom 13.2.1 0.2500000
ze 13.2.1 0.2500000
zhromadnym 13.2.1 0.2500000
13.2.1 13.2.1 0.2500000
imersiwnemu imersiwnemu 1.0000000
ranja zajtša 0.3000000
dźewjećich zajtša 0.1000000
rano zajtša 0.5000000
nazajtra zajtša 0.1000000
wysokorodźenym wusokoroźonym 1.0000000
korčmičce kjarcmicce 1.0000000
ehm hej 0.0156250
ohh hej 0.0156250
hej hej 0.8437500
NULL hej 0.0156250
hejda hej 0.0156250
ow hej 0.0156250
wuswobodźił hej 0.0156250
hehe hej 0.0156250
he hej 0.0468750
frazy fraze 1.0000000
poschod nastwaŕk 1.0000000
mozautogaincontrol mozautogaincontrol 1.0000000
njeje nejeje 1.0000000
sprawna spšawna 0.5000000
sprawnu spšawna 0.5000000
merkel merkel 1.0000000
najlěpšeje nejlěpšeje 1.0000000
klopeinskim klopeińskem 1.0000000
spřistupnjeć pósrědnjaś 0.0476190
sposrědkować pósrědnjaś 0.5238095
posrědkować pósrědnjaś 0.4285714
kokota kokota 0.6250000
honača kokota 0.2500000
kapona kokota 0.1250000
titule titele 1.0000000
krajnemu krajnego 0.0080000
NULL krajnego 0.0040000
statneho krajnego 0.0040000
krajneho krajnego 0.9680000
krajnym krajnego 0.0160000
dendrologiju dendrologiju 1.0000000
pl pl 1.0000000
miłoćic miłoćic 1.0000000
polěpšeja pólěpšaju 1.0000000
katastrofow katastrofow 0.7500000
přirodowych katastrofow 0.2500000
jejka kukawine 1.0000000
javascript pomina 0.0055249
wužadije pomina 0.0055249
žada pomina 0.3756906
sej pomina 0.1160221
wužaduje pomina 0.4254144
proksy-nastajenja pomina 0.0055249
pomina pomina 0.0055249
trjeba pomina 0.0386740
by pomina 0.0055249
kedźbliwosć pomina 0.0055249
wužada pomina 0.0110497
kamjeničanskeje kamjenicańskeje 1.0000000
přiwoła pśiwoła 1.0000000
kumšt kumšt 0.5000000
trysk kumšt 0.5000000
ćežišćo śěžyšćo 1.0000000
hóstne góstne 1.0000000
schadźowanka schadowanka 1.0000000
denomalign denomalign 1.0000000
basni basni 0.4166667
basnje basni 0.5833333
integrowany integrěrowany 0.4000000
integrowana integrěrowany 0.6000000
zamołwitym zagronitym 0.8333333
kładźechu zagronitym 0.1666667
korporacijach korporacijach 1.0000000
webje webje 0.9777778
z webje 0.0222222
wuraz znamjeni 1.0000000
skutkowaca statkujuca 1.0000000
najwšelakoriše wšakoraku 0.5000000
wšelake wšakoraku 0.2500000
wšelakore wšakoraku 0.2500000
html-entity html-entity 0.5000000
maskowali. html-entity 0.5000000
kowencionelneho konwencionelnego 1.0000000
100. 100. 0.7777778
100 100. 0.2222222
diskutowane diskutěrowane 1.0000000
nacizma nacizma 1.0000000
apotekarjom aptejkarjom 1.0000000
tastowymi tastowymi 1.0000000
wón kšanje 0.3333333
słóncu kšanje 0.3333333
wulkotnje kšanje 0.3333333
nóž man 1.0000000
spěšnje malsna 0.1666667
reagowaca malsna 0.1666667
spěšna malsna 0.6666667
trenowali treněrowali 1.0000000
kwětka macka 1.0000000
hołbiki gołubiki 0.8000000
kaž gołubiki 0.2000000
z sytego 0.3333333
tučneho sytego 0.6666667
window window 1.0000000
zezběrajće zezběrajśo 1.0000000
barbowu barwowu 1.0000000
mosty mósty 1.0000000
w brd 0.5000000
zrn brd 0.5000000
rozpušćeny rozpušćony 1.0000000
njezjawne zjawne 0.0126582
zjawna zjawne 0.0253165
zjawnu zjawne 0.0253165
zjawne zjawne 0.9367089
jednaćel jadnaŕ 1.0000000
nošny stabilny 0.5000000
stabilny stabilny 0.5000000
wojerowski wórjejski 1.0000000
blida blida 1.0000000
wobhladowakowe wobglědowakowe 1.0000000
definitiwnje definitiwnje 1.0000000
knježerski edikt 1.0000000
busach busach 1.0000000
setuserdata setuserdata 1.0000000
juška juška 1.0000000
wěcownje wěcownje 1.0000000
wotewrjenja wótwórjenja 1.0000000
zaručena zawěsćona 1.0000000
waženy waženy 1.0000000
zapućowała zasedliła 1.0000000
zdźěłujemy naźěłajomy 1.0000000
facto facto 1.0000000
etiopiska etiopiska 1.0000000
wumysliła wumysliła 1.0000000
předpokład pśedwuměnjenje 1.0000000
sobudźěłaćerkami sobuźěłaśeŕkami 1.0000000
dźeržała w 0.0001044
za w 0.0003131
najhusćišo w 0.0002087
nastupajo w 0.0005218
přichodne w 0.0003131
winowaty w 0.0002087
dźělnočasowej w 0.0001044
skupinkami w 0.0002087
nětko w 0.0002087
kóždy w 0.0001044
NULL w 0.0041741
rozestajenja w 0.0001044
srjedźnej w 0.0002087
skupinu w 0.0002087
pěstowarskeho w 0.0005218
hroženja w 0.0002087
lěsnych w 0.0002087
wohrožene w 0.0001044
spěchowanskim w 0.0002087
přepruwowanje w 0.0001044
kontrowersa w 0.0001044
do w 0.0011479
nalěto w 0.0006261
susodorěčne w 0.0002087
mojeje w 0.0001044
njesteji.jako w 0.0001044
lěsnej w 0.0001044
postupowanske w 0.0002087
hromadźa w 0.0001044
powołansce w 0.0002087
woměrje w 0.0003131
zdźěłuje w 0.0001044
internetnje w 0.0007305
had w 0.0001044
1995 w 0.0002087
wosrjedź w 0.0003131
wotmyslene w 0.0001044
porno w 0.0011479
hwězdarnje w 0.0001044
njetrjechi w 0.0001044
wo w 0.0005218
detailowanje w 0.0001044
druhim w 0.0002087
paliło w 0.0002087
rěčneho w 0.0002087
tam w 0.0005218
zašłe w 0.0001044
wobchowaja w 0.0001044
ćichim w 0.0002087
přirunujo w 0.0001044
zwjazanu w 0.0001044
skriptoweho w 0.0001044
wódneho w 0.0001044
zdźědźinstwo w 0.0001044
twojemu w 0.0001044
njetyknu w 0.0001044
měsačnje w 0.0002087
strukturowane w 0.0001044
wotpowědnej w 0.0001044
duchej w 0.0001044
wjelbika w 0.0001044
tuchwilu w 0.0002087
z w 0.0002087
zeznał w 0.0001044
přichodnje w 0.0005218
na w 0.0032349
barbowej w 0.0001044
lući w 0.0002087
italskeho w 0.0001044
znutřka w 0.0017740
skromne w 0.0001044
zapisana w 0.0001044
loni w 0.0002087
čołmiku w 0.0001044
paruju w 0.0002087
jasnosći w 0.0001044
po w 0.0017740
změješ w 0.0001044
połnočasowje w 0.0002087
spominaja w 0.0002087
při w 0.0007305
kóžde w 0.0002087
njeju w 0.0001044
wuskuš w 0.0002087
lěsnatych w 0.0001044
arest w 0.0001044
regalu w 0.0001044
wuskomyslni w 0.0001044
přirunajo w 0.0001044
prěnjotnje w 0.0001044
lěta w 0.0007305
cyła w 0.0001044
njedóstawa w 0.0002087
wokomik w 0.0002087
awstralskeje w 0.0002087
poskićachmy w 0.0001044
krótki w 0.0002087
časowem w 0.0001044
cyłeje w 0.0001044
prěnjorjadnje w 0.0004174
swěru w 0.0001044
jednotliwje w 0.0001044
we w 0.0096003
deleka w 0.0001044
wostanje w 0.0001044
twelgineje w 0.0001044
wobchodźe w 0.0001044
před w 0.0002087
w w 0.9509548
teamakmanosć w 0.0001044
choćebuskej w 0.0001044
słabša w 0.0001044
złotnikarja w 0.0001044
čitanske w 0.0002087
rozpušćimy w 0.0001044
měšćanski w 0.0001044
paranoidna w 0.0001044
röhrscheidtoweje w 0.0001044
pěstowarskim w 0.0003131
wotkrychu w 0.0001044
šulskeho w 0.0001044
našeje w 0.0001044
słyšenje w 0.0002087
kut w 0.0001044
magiju w 0.0001044
wokomiknje w 0.0001044
wot w 0.0001044
wašnju w 0.0001044
jušce w 0.0001044
muzejoweje w 0.0001044
mječa w 0.0003131
připowědał w 0.0001044
wotnožkow w 0.0001044
dopomnju w 0.0001044
organach w 0.0002087
pohubjeńšiło w 0.0002087
hłupakej w 0.0001044
wob w 0.0001044
byšće w 0.0001044
mnohe w 0.0004174
dorozumili w 0.0001044
hrodźišćo w 0.0002087
přewodnika w 0.0001044
klětu w 0.0002087
smetanu w 0.0001044
póćmje w 0.0006261
někajkej w 0.0001044
, w 0.0004174
gymnazijomaj w 0.0001044
kupał w 0.0001044
lěsu w 0.0001044
njedocpěju w 0.0001044
jěsć měso 0.0909091
mjaso měso 0.9090909
demokratiskim wótpowědowaś 0.1600000
wotpowědować wótpowědowaś 0.8400000
nastupiło nastupiło 1.0000000
narodopisnych ludowědnych 1.0000000
składowaneje wótkłaźonego 1.0000000
zastarska staromodna 1.0000000
delegujemy delegěrujomy 1.0000000
štyrjo styrjo 0.8571429
štyri styrjo 0.1428571
čitamy cytamy 1.0000000
kodowej kodoweju 1.0000000
b,alpha b,alpha 1.0000000
wědźenju wěźenju 1.0000000
hospitacijow hospitacijow 1.0000000
zbytneho zbytnego 1.0000000
městopředsydow pśedsedarjowu 1.0000000
njewróću njepójdu 0.1666667
njepóńdu njepójdu 0.3333333
wjace njepójdu 0.1666667
hibać njepójdu 0.1666667
njenapadnu njepójdu 0.1666667
mužny póznajo 0.2000000
je póznajo 0.2000000
spóznaje póznajo 0.2000000
hwězdow póznajo 0.2000000
čitar póznajo 0.2000000
žołmy žwały 1.0000000
spjelnjenju dopołnjenju 1.0000000
filtrowanju filtrowanju 1.0000000
zwisowacym zwisujucem 1.0000000
pruwował pśespytował 0.2500000
přepruwował pśespytował 0.5000000
přepytował pśespytował 0.2500000
maćeršćiny mamine 0.3333333
maćerne mamine 0.6666667
pagehide pagehide 1.0000000
třikrajowy tśikrajowy 1.0000000
trjebin trjebin 1.0000000
bjerwałdskemu bjerwałdskemu 1.0000000
njepředawa njepśedawa 1.0000000
šymku šymko 1.0000000
partnerskim partnaŕskem 1.0000000
kanaloweje kanaloweje 1.0000000
ambra ambra 1.0000000
natwariła natwariła 1.0000000
wotstroniće wótpórajośo 0.2500000
wotstronjeće wótpórajośo 0.7500000
předźěłowanje wobźěłowanje 0.1666667
wobdźěłowanje wobźěłowanje 0.8333333
zepěranske zepěrańske 1.0000000
konserwatiwnych konserwatiwnych 0.5000000
zetkali konserwatiwnych 0.5000000
pjeršćenja pjeršćenja 1.0000000
wuroni wutšobu 0.0714286
pola wutšobu 0.0714286
wutrobu wutšobu 0.8571429
njewopušći njespušć 0.3333333
njewopušć njespušć 0.6666667
korjeń kórjeń 1.0000000
wukmanjeć wudopołnjaś 1.0000000
kapitlow kapitlow 0.5000000
rozrjadował kapitlow 0.5000000
zjednorił zjadnorił 1.0000000
centralna centralna 1.0000000
dorostowi dorostowe 0.2857143
dorostowe dorostowe 0.5714286
dorostowy dorostowe 0.1428571
rozšěrjeli rozšyrjali 1.0000000
konfigurowaneho konfigurěrowanego 1.0000000
naměsta naměsta 1.0000000
pochadźe póchaźe 1.0000000
realny realny 1.0000000
pisana pisana 1.0000000
wustupił wustupił 0.5000000
wustupi wustupił 0.5000000
jezusoweho jezusowego 1.0000000
bohatej bogatym 1.0000000
jewili pokazowali 0.2000000
skedźbniłoj pokazowali 0.6000000
wutykowali pokazowali 0.2000000
zbytki zbytki 1.0000000
mjenowanju mjenowanju 1.0000000
hypermedijowa hypermedijowa 1.0000000
tež wulašowali 0.2000000
zhašeli wulašowali 0.4000000
zhašałoj wulašowali 0.2000000
zhašeja wulašowali 0.2000000
placki cookieje 0.9887640
cookieje cookieje 0.0112360
zwěsćenskim zwěsćeńskem 1.0000000
zakazuje zakazujo 1.0000000
rabaty rabaty 1.0000000
dóstać odstaśeju 1.0000000
zapodate zapódane 1.0000000
wuježku wuježku 1.0000000
zešrěbajće zešrěbajśo 1.0000000
hód gód 1.0000000
twarow formow 0.4615385
formow formow 0.5384615
brojić pśepóraś 0.2500000
a pśepóraś 0.2500000
přenocować pśepóraś 0.2500000
hłupe pśepóraś 0.2500000
blokuje blokuje 1.0000000
znowawužiwajomny cesćejwužywański 1.0000000
njebjom njebjom 0.9375000
njebjesami njebjom 0.0625000
ničo njenarownujo 1.0000000
1910 1910 1.0000000
porjedźimy pórěźamy 1.0000000
za wuźeńce 0.5000000
to wuźeńce 0.5000000
dźakny žnjowny 0.2500000
žnjowy žnjowny 0.2500000
domchowanku žnjowny 0.5000000
gabriel gabriel 1.0000000
słyšenje słyšanje 0.4000000
słuch słyšanje 0.1000000
prawniske słyšanje 0.2000000
słuchanje słyšanje 0.3000000
hrabju grobu 1.0000000
ewangelija ewangeliuma 1.0000000
njesłucha zu 1.0000000
móžeš móžóśo 1.0000000
inteligentneho inteligentnego 1.0000000
tkaja tkaju 1.0000000
přemyslowanje pśemyslowanje 1.0000000
prezentaciju prezentaciju 1.0000000
načinił nacynił 0.4285714
načini nacynił 0.1428571
kadla nacynił 0.1428571
jenož nacynił 0.1428571
činił nacynił 0.1428571
wuwity wuwyty 1.0000000
krabata-kuzłarja krabata-guslowarja 1.0000000
space space 1.0000000
synchronizaciju synchronizaciju 1.0000000
měrniwje měrniwje 1.0000000
amulet njedejała 0.0714286
njesměm njedejała 0.0714286
njeproš njedejała 0.0714286
činić njedejała 0.0714286
radšo njedejała 0.1428571
njeměła njedejała 0.3571429
njemóhła njedejała 0.0714286
NULL njedejała 0.1428571
lěttysacy guslowarje 0.2000000
kuzłarjo guslowarje 0.8000000
přehladom pśeglědom 1.0000000
wochozach wochozach 1.0000000
kótwička kokulka 0.5000000
njeje kokulka 0.5000000
! pśizemjeł 0.2500000
přizemił pśizemjeł 0.5000000
jenož pśizemjeł 0.2500000
předłohow pśedłogow 0.8000000
zakonskich pśedłogow 0.2000000
klankami pupkami 1.0000000
poćehnjemoj póśěgnjomej 1.0000000
ličba ličca 1.0000000
hulu hulu 1.0000000
swěry zwěrnosći 1.0000000
dictionary dictionary 1.0000000
dósta dóstał 0.3333333
dóstała dóstał 0.3333333
wón dóstał 0.3333333
juwel wobjadny 0.0476190
schowany wobjadny 0.0476190
přezjedny wobjadny 0.8571429
přezjedna wobjadny 0.0476190
aktiwnej aktiwneju 1.0000000
kwalifikowacym kwalificěrujuceju 1.0000000
dyrbiće muyśo 1.0000000
kontaktow kontaktow 1.0000000
neonowa neonowa 1.0000000
nałožujomny nałožujobny 1.0000000
samsneho samsnego 1.0000000
módrjeńcy flaki 1.0000000
neubrücku neubrücku 1.0000000
swjatočne swětosne 1.0000000
betty betttý 1.0000000
přirodoškitne šćitaneje 1.0000000
kamjeničanski kamjenicański 1.0000000
instabilna instabilna 1.0000000
z kak 0.0011274
lubi kak 0.0011274
to kak 0.0011274
bych kak 0.0011274
warić kak 0.0011274
pokaže kak 0.0011274
kaž kak 0.0045096
NULL kak 0.0112740
što kak 0.0045096
trjebamoj kak 0.0011274
kelko kak 0.0236753
kajki kak 0.0022548
kak kak 0.9346110
kajke kak 0.0045096
zo kak 0.0011274
nadawkej kak 0.0011274
ka kak 0.0011274
lawu kak 0.0011274
čim kak 0.0022548
sprawny spšawne 1.0000000
zo wažnych 0.0666667
wažnych wažnych 0.9333333
wuprajić wugroniś 0.5769231
wuprajeć wugroniś 0.1153846
jimać wugroniś 0.0769231
wopisować wugroniś 0.0384615
formulować wugroniś 0.0384615
NULL wugroniś 0.0384615
zwuraznić wugroniś 0.0384615
wurjekować wugroniś 0.0769231
njezmocował njezmócował 1.0000000
rjadowany rědowany 1.0000000
sprawneho spšawnego 1.0000000
wěžow derił 1.0000000
wotpohladnje wótglědanje 1.0000000
hornjoserbsko-jendźelski górnoserbsko-engelski 1.0000000
wój dejtej 0.1250000
dyrbjałoj dejtej 0.2500000
dyrbitej dejtej 0.2500000
matej dejtej 0.3750000
wuběranske wuběrańske 1.0000000
znamješkowych znamuškowych 1.0000000
wužiwa znemjenjow 1.0000000
konflikt konflikta 0.1250000
konflikta konflikta 0.8750000
154 154 1.0000000
wjerški wjeraški 1.0000000
tež prjatkowanja 0.2500000
prědowanja prjatkowanja 0.7500000
nastroje rěd 0.0119048
rjady rěd 0.0059524
gratownja rěd 0.0119048
rjećaz rěd 0.0119048
njeidentifikujomnych rěd 0.0059524
wjele rěd 0.0059524
graty rěd 0.0059524
sćahny rěd 0.0119048
NULL rěd 0.0059524
rynk rěd 0.0357143
gratownju rěd 0.0178571
grat rěd 0.4345238
łatku rěd 0.0119048
gratej rěd 0.0119048
nahrawane rěd 0.0059524
tool rěd 0.0059524
nastroj rěd 0.1726190
rjad rěd 0.2261905
jědźe jěźo 1.0000000
žonow žonow 1.0000000
procesach procesach 1.0000000
skazyć sabotěruj 0.5000000
dyrbiš sabotěruj 0.5000000
wokrjesnych wokrejsnych 1.0000000
njezajimuje njezajmujo 0.4615385
padźe njezajmujo 0.0769231
nimam njezajmujo 0.0769231
njejsym njezajmujo 0.0769231
zajim njezajmujo 0.1538462
tych njezajmujo 0.0769231
zajimowany njezajmujo 0.0769231
inprivate inprivate 1.0000000
sćahnyli ześěgnuli 1.0000000
přikład psikład 1.0000000
stawizna stšojenje 1.0000000
syćoweje seśoweje 0.6666667
syćoweho seśoweje 0.3333333
spomjatkować markowaś 0.8333333
. markowaś 0.1666667
srjedźostawskeje srjejźostawoweje 1.0000000
njezranjomne njezranjobne 1.0000000
slepej slěpej 1.0000000
induktiwnje induktiwnje 1.0000000
zestarjeneho zestarjonego 1.0000000
schwala signěrujo 1.0000000
swětliši swětlejšy 1.0000000
spytanu wopytanu 1.0000000
ćežišća změnili 0.2000000
změnili změnili 0.8000000
ministerskim ministaŕskim 1.0000000
droše drožej 1.0000000
publikowało publicěrowało 1.0000000
spominajće pómysliśo 0.5000000
spomjatkujće pómysliśo 0.5000000
pryskać woblewaś 0.0833333
měli woblewaś 0.0833333
pokrjepić woblewaś 0.0833333
na woblewaś 0.0833333
měła woblewaś 0.1666667
krjepić woblewaś 0.5000000
wusmjeli wusmjali 1.0000000
lěni synoju 0.3333333
synej synoju 0.6666667
wuwiwarskich wuwijarskich 1.0000000
wobužny wobuzny 1.0000000
tučel tyca 1.0000000
kompjuteru computerje 1.0000000
zajimach zajmach 1.0000000
hladar doglědowaŕ 1.0000000
wojowaše wójowašo 1.0000000
nawili nawili 1.0000000
zhašany wulašowany 1.0000000
kachličkoweho kachlickowego 1.0000000
wowčernja šapaŕnja 1.0000000
testowanske testowańske 1.0000000
komunalneje komunalneje 1.0000000
woprawdźitym wnapšawdnem 1.0000000
recepće recepśe 1.0000000
rumpodich ruprajcht 1.0000000
kwětku kwětk 0.5909091
kwětka kwětk 0.2727273
makoweje kwětk 0.0454545
je kwětk 0.0454545
nastupa kwětk 0.0454545
zjednoćenskim zjadnośeńskem 1.0000000
pósłane pósłana 0.3333333
pósłana pósłana 0.6666667
malinkowa malinkowa 1.0000000
zwjazowaca zwězujuca 1.0000000
nadźijeja naźejaju 1.0000000
zdźělenka pórokowajuca 1.0000000
jeho stakow 0.3333333
rozjasni stakow 0.3333333
jednanja stakow 0.3333333
wikowarjow wikowarjow 1.0000000
rozmołwneho rozgronowego 1.0000000
NULL buźotej 0.0625000
budźetaj buźotej 0.1250000
budźetej buźotej 0.8125000
radźa raźiju 1.0000000
jadroweje jědroweje 1.0000000
spowědźi spowěźi 1.0000000
lěnikowali gnilili 1.0000000
swěrnu zwěrnu 1.0000000
swak muski 0.0270270
młodźenc muski 0.0270270
heju muski 0.0270270
muski muski 0.0810811
muž muski 0.8378378
sćahnył wóśěgnuł 1.0000000
wuzběhnu wuzwignjom 1.0000000
1992 1992 1.0000000
prěnju wótwórił 0.3333333
wotewrěł wótwórił 0.6666667
bananu bananu 1.0000000
nastajenych nastajonych 1.0000000
e-mejli pódanych 0.2500000
podatych pódanych 0.2500000
k pódanych 0.2500000
dodatych pódanych 0.2500000
wuzwolimy wuzwólijomy 1.0000000
lěpšemu lěpšemu 0.6000000
sće lěpšemu 0.1000000
a lěpšemu 0.1000000
podpěrał lěpšemu 0.1000000
mozilla lěpšemu 0.1000000
duje duje 1.0000000
nadźijomnje naźejucy 1.0000000
kuzło guslowaŕsto 1.0000000
poslednje slědny 0.0133333
posledni slědny 0.6400000
prěni slědny 0.0133333
tydźenja slědny 0.0133333
minjeny slědny 0.2800000
poslednja slědny 0.0400000
přimać pśimjeś 1.0000000
regionalny wobceŕkowa 1.0000000
pokazowace pokazowańske 1.0000000
žiwjenja pśedpowěźeło 1.0000000
přeprošenje pśepšoba 1.0000000
wuchodnym pódzajtšnym 0.8571429
wuchodnych pódzajtšnym 0.1428571
centralistiska centralistiska 1.0000000
kontrolowali kontrolěrowali 1.0000000
bramborskem bramborskem 0.1428571
braniborskim bramborskem 0.8571429
humpawy kólebki 1.0000000
53 53 1.0000000
ewentualne ewentuelne 0.5000000
móžne ewentuelne 0.2500000
ewentuelne ewentuelne 0.2500000
was nas 0.0033557
nas nas 0.9261745
namaj nas 0.0067114
posylni nas 0.0033557
naju nas 0.0067114
na nas 0.0033557
njesu nas 0.0033557
nam nas 0.0067114
NULL nas 0.0234899
mjezach nas 0.0067114
smy nas 0.0033557
wašnje nas 0.0033557
sprawna nas 0.0033557
nabojała nabójała 1.0000000
hońtwjerskeho góńtwaŕskego 1.0000000
poliwce zupje 1.0000000
zaznać póznawaś 1.0000000
přewahuja pśewažuju 1.0000000
pozadkow slězynow 1.0000000
zadyri dobry 0.0202020
dowěrjene dobry 0.0101010
wulkotny dobry 0.0404040
wulkotnym dobry 0.0101010
słódki dobry 0.0101010
dobry dobry 0.7777778
dušny dobry 0.0101010
słódny dobry 0.0101010
NULL dobry 0.0101010
derje dobry 0.0101010
porjadny dobry 0.0202020
dobru dobry 0.0101010
kowar dobry 0.0101010
njesłodźi dobry 0.0101010
prawy dobry 0.0101010
wulki dobry 0.0101010
činju dobry 0.0101010
nahrabnosć dobry 0.0101010
pohonom wobrośiś 0.0588235
narěčeć wobrośiś 0.4117647
wobroćić wobrośiś 0.5294118
aktiwitow aktiwitow 1.0000000
woči wócy 0.9285714
wóčce wócy 0.0714286
turkowskemu turkojskemu 1.0000000
wobydlerskej wobydlaŕskej 1.0000000
zwjazkowej zwězkowej 0.9500000
zwjazkoweho zwězkowej 0.0500000
daniel daniel 1.0000000
kopěrowanemu kopěrowanemu 1.0000000
dźakownje źěkownje 1.0000000
módry módra 0.1818182
módra módra 0.7272727
módrawka módra 0.0909091
NULL gnaś 0.1000000
do gnaś 0.1000000
nanajspěšnišo gnaś 0.2000000
lučibarowe gnaś 0.1000000
běžeć gnaś 0.4000000
pochwatam gnaś 0.1000000
addons.thunderbird.net addons.thunderbird.net 1.0000000
přiběraceje pśiběrajuceje 0.5000000
prawje pśiběrajuceje 0.5000000
guru guru 1.0000000
skenowanje skanowanje 1.0000000
change change 1.0000000
prudow prudow 1.0000000
numalign numalign 1.0000000
karstena karstena 1.0000000
tykńće wobujśo 0.3333333
wobujće wobujśo 0.3333333
wobuwajće wobujśo 0.3333333
přirodnosć pśirodnosć 1.0000000
NULL samski 0.0909091
samsny samski 0.7272727
samsne samski 0.1818182
moja škrějny 1.0000000
kupał kupał 1.0000000
wokoło hokoło 1.0000000
kasu kasu 1.0000000
zhromadneje zgromadneje 1.0000000
njeskutkuje pśicyniś 0.3333333
hłowojca pśicyniś 0.3333333
wzać pśicyniś 0.3333333
ju pó-póstajaš 1.0000000
ćežko disciplinu 0.1666667
disciplinu disciplinu 0.3333333
padnje disciplinu 0.1666667
francoskeje disciplinu 0.1666667
disciplina disciplinu 0.1666667
setattributens setattributens 1.0000000
dnjow dnjowu 1.0000000
štwórteho stwórtego 1.0000000
ramikach ramikach 1.0000000
sydłe pśetrjebował 1.0000000
hłosowych głosowych 1.0000000
dźěža źěžu 0.0476190
dźěžu źěžu 0.8571429
pjecy źěžu 0.0476190
hdźež źěžu 0.0476190
wotćahować wótsajźowaś 1.0000000
tamnej drugej 0.0204082
druhej drugej 0.9795918
zatwarili tšugu 1.0000000
wobhospodarjenje wobgóspodarjenje 0.6666667
hospodarstwo wobgóspodarjenje 0.3333333
sensibelnosć sensibelnosć 1.0000000
ćišćeć śišćaś 1.0000000
ember ember 1.0000000
inkluzije inkluzije 1.0000000
poćežowanje póśěžkowanje 1.0000000
pearl pearla 1.0000000
plaćenje plaśenje 1.0000000
temporarny nachylny 0.1250000
nachwilny nachylny 0.8750000
removeattribute removeattribute 1.0000000
dołhodobny dłujkodobny 0.5000000
dlěšodobny dłujkodobny 0.5000000
skaka skoka 1.0000000
zapřimnyć zapśimnuś 1.0000000
centruma centruma-witaj 1.0000000
wobšudnym wobšudnym 0.6666667
wobšudiskim wobšudnym 0.3333333
90 90 1.0000000
njeeksistowaše eksistěrowała 1.0000000
do lěśe 0.0031546
40-lětne lěśe 0.0063091
lěta lěśe 0.0157729
loni lěśe 0.0063091
1995 lěśe 0.0063091
lěće lěśe 0.8958991
lěćo lěśe 0.0410095
lěto lěśe 0.0031546
lěću lěśe 0.0063091
NULL lěśe 0.0031546
pomjenowa lěśe 0.0031546
klětu lěśe 0.0063091
časowem lěśe 0.0031546
korektne korektna 0.0909091
korektna korektna 0.9090909
tonach tonach 1.0000000
njewotmołwja njewótegranja 1.0000000
wočiwidnych widobnych 1.0000000
internje internje 1.0000000
referrer-policy referrer-policy 1.0000000
samočinitosć samocynjatosć 1.0000000
nječesći njecesći 1.0000000
cedlku pśedaloko 0.5000000
njedosahnu pśedaloko 0.5000000
170 170 1.0000000
spontane spontane 1.0000000
ciwilistow ciwilistow 1.0000000
kawum kawum 1.0000000
scyła docełego 1.0000000
wikowali wikowali 1.0000000
rozhněwa rozgórił 0.2000000
rozzłobi rozgórił 0.4000000
rozmjerza rozgórił 0.2000000
złobił rozgórił 0.2000000
štwórte stwórte 1.0000000
gremijach gremiumach 1.0000000
rěčnistwo rěcnistwo 1.0000000
dworowe dwórsku 1.0000000
poliwki pólewanki 1.0000000
kabinetow kabinetow 1.0000000
žiwjenja derbnuli 0.5000000
namrěwcy derbnuli 0.5000000
čěsko-madźarscy česko-hungorske 1.0000000
wšěm glucna 0.0714286
być glucna 0.1428571
była glucna 0.0714286
po glucna 0.0714286
zbožowna glucna 0.5714286
zdaću glucna 0.0714286
winicarka winicaŕka 1.0000000
rozžohnowanju rozžognowanju 1.0000000
skótni skótne 0.5000000
skótne skótne 0.5000000
powjazu powrjozu 0.5000000
powjazom powrjozu 0.5000000
šćipać natergaś 1.0000000
wisaja ramje 0.2500000
ramjo ramje 0.5000000
ramjenjo ramje 0.2500000
jozefej josepoju 1.0000000
zo wobźěłanja 0.2500000
wobdźěłanja wobźěłanja 0.7500000
delnju dolnu 1.0000000
popołdnju wótpołdnja 0.7741935
NULL wótpołdnja 0.0645161
popołdnja wótpołdnja 0.1612903
skedźbni dopomnjejo 0.3333333
časy dopomnjejo 0.3333333
młynske dopomnjejo 0.3333333
5. 5. 1.0000000
profilowanje profilěrowanje 1.0000000
inspicěrował inspicěrował 1.0000000
computerowa computerowemu 1.0000000
zaktualizowali zaktualizěrowali 0.8571429
zaktualizowane zaktualizěrowali 0.1428571
mni mnje 0.7500000
mnje mnje 0.2500000
knježerstwowe kněžaŕstwowe 0.6666667
knježerstwowi kněžaŕstwowe 0.3333333
prawje dopominam 0.1111111
dopomnju dopominam 0.1111111
dopominam dopominam 0.7777778
iniciatiwam iniciatiwam 1.0000000
opml-dataja opml-dataja 0.5000000
njeje opml-dataja 0.5000000
nominowała nominěrowała 1.0000000
jednej jadnej 0.8387097
koza jadnej 0.0322581
budyskej jadnej 0.0322581
jednym jadnej 0.0322581
pomjenowanu jadnej 0.0322581
rostlinje jadnej 0.0322581
budźće źěkujśo 0.3333333
dźakujće źěkujśo 0.6666667
placka cookieja 1.0000000
muzejowy muzeumowy 1.0000000
podpěruja pódpěruju 0.7777778
podpěruju pódpěruju 0.0555556
podpěraja pódpěruju 0.1666667
njezranjomna njezranjobna 1.0000000
wotinstalował wótinstalował 1.0000000
sandalach sandalach 1.0000000
nakupnišćo nakupowanišćo 1.0000000
chróšćan chrósćańskej 0.4000000
chróšćanskej chrósćańskej 0.6000000
29 29 1.0000000
testowanska testowańska 1.0000000
wuchadźatej wuchójźujotej 1.0000000
jědźe zbytkow 0.5000000
z-zbytkow zbytkow 0.5000000
sobu zwěžo 0.2500000
mjez zwěžo 0.2500000
zwjaza zwěžo 0.5000000
61 61 1.0000000
zaslepiła zaslěpiła 1.0000000
tym lisće 0.1818182
lisće lisće 0.8181818
sseamonkeys sseamonkeys 1.0000000
łaža kśajźu 1.0000000
zbožopřejnu glukužyceńsku 1.0000000
faciće zespominanju 1.0000000
kuski kuskow 1.0000000
přisłušny pśisłušny 1.0000000
krynhelec krynhelec 1.0000000
bruneje bruneje 1.0000000
uniwersitam uniwersitam 1.0000000
inflaciju inflaciju 1.0000000
referencnym referencnem 0.7500000
referenčnym referencnem 0.2500000
kwalitatiwny kwalitatiwny 1.0000000
pseudoklasowy pseudoklasowy 1.0000000
optimowany optiměrowany 1.0000000
njepłaćiwu njepłaśiwu 1.0000000
referentow referentow 1.0000000
surowiznow surowiznow 0.6000000
prócować surowiznow 0.4000000
pohódnoćće pógódnośćo 1.0000000
signal signal 1.0000000
całta guska 1.0000000
přijimanje dostawanje 1.0000000
zeškodźował zeškóźował 1.0000000
žohnowało žognowało 1.0000000
znajetej znajotej 1.0000000
pensijow pensijow 1.0000000
wjednistwo wjednistwu 0.5000000
wjednistwu wjednistwu 0.5000000
skupinam kupkam 0.7857143
skupiny kupkam 0.1428571
ćělesam kupkam 0.0714286
spadowy wowaleński 1.0000000
ze žywicu 0.1666667
žiwicu žywicu 0.8333333
słabši wósłabjeł 1.0000000
dźe źo 0.3253731
je źo 0.0119403
schadźa źo 0.0029851
tón źo 0.0029851
NULL źo 0.0149254
dokal źo 0.0656716
ty źo 0.0029851
zapłaću źo 0.0029851
kak źo 0.0029851
mać źo 0.0029851
wjedźe źo 0.0208955
hródźi źo 0.0029851
z źo 0.0029851
wjedu źo 0.0029851
škrička źo 0.0029851
zachod źo 0.0029851
wuchod źo 0.0029851
wuńdźe źo 0.0029851
dodokal źo 0.0029851
hdźe źo 0.4985075
šło źo 0.0059701
kuzłarja źo 0.0029851
zwotkel źo 0.0059701
strowy źo 0.0029851
docyła źo 0.0029851
sudnicomaj sudnicoma 1.0000000
drohotnosćach drogostkach 1.0000000
znamješkowe znamuškowe 1.0000000
instalowana zainstalěrowana 1.0000000
wupytała wupytała 1.0000000
słužbudawarjej słužbudawarjeju 1.0000000
cuzbnika cuznika 1.0000000
směrnicu směrnicu 0.7777778
‘ směrnicu 0.1111111
' směrnicu 0.1111111
azije azije 1.0000000
přidatki pdodanki 1.0000000
1726 1726 1.0000000
c2tnb431r1 c2tnb431r1 1.0000000
wudworej wudwóroju 1.0000000
chłódkom chłodkom 1.0000000
njemóžu mógu 0.0026247
zwěsćenu mógu 0.0026247
ambru mógu 0.0013123
zamóža mógu 0.0026247
směm mógu 0.0052493
nyronom mógu 0.0013123
łopaće mógu 0.0013123
hodźi mógu 0.0039370
bychu mógu 0.0013123
činić mógu 0.0013123
kedźbować mógu 0.0013123
móžeja mógu 0.0078740
NULL mógu 0.0118110
snano mógu 0.0013123
su mógu 0.0013123
dóńdu mógu 0.0013123
zapřijeja mógu 0.0013123
smědźa mógu 0.0052493
mógu mógu 0.0026247
móža mógu 0.6482940
so mógu 0.0013123
stajeja mógu 0.0013123
posudźować mógu 0.0013123
móžeš mógu 0.0013123
ja mógu 0.0013123
činju mógu 0.0013123
móžu mógu 0.2375328
wě mógu 0.0013123
maja mógu 0.0026247
horde mógu 0.0026247
hodźa mógu 0.0170604
móhli mógu 0.0026247
wuchod mógu 0.0013123
k-kradnu mógu 0.0013123
trumf mógu 0.0013123
móže mógu 0.0026247
móhła mógu 0.0039370
snadź mógu 0.0026247
hołbiki mógu 0.0026247
mam mógu 0.0026247
zwólniła mógu 0.0013123
bych mógu 0.0013123
poslešćo mógu 0.0013123
nošerstwje nosarstwje 0.8000000
nošerstwach nosarstwje 0.2000000
window.controllers window.controllers 1.0000000
html-dataji html-dataji 1.0000000
otr otr 1.0000000
zaměrow zaměrow 1.0000000
rozesyłanskich rozpósłańskich 1.0000000
přebywa pśepórało 1.0000000
wuzběhnjenju wuzwignjenju 1.0000000
kanalowy kanalowy 1.0000000
prošu pšosy 0.0312500
zapodajće pšosy 0.0312500
darće pšosy 0.0312500
prosy pšosy 0.8750000
namołwja pšosy 0.0312500
bahnojtej bagniteju 1.0000000
wobhladać wogědaś 1.0000000
warnuju warnujom 1.0000000
webej weboju 0.2222222
web weboju 0.1111111
zwjazać weboju 0.3333333
webom weboju 0.3333333
visited visited 1.0000000
ćerpjenja kśiwdy 0.7500000
was kśiwdy 0.2500000
dožiwjenjowpołnych dožiwjenjowpołnych 1.0000000
žiwjena žywjenja 0.0081967
dźerželi žywjenja 0.0081967
žiwjenjahódnym žywjenja 0.0163934
zhonić žywjenja 0.0081967
hesło žywjenja 0.0163934
dobrota žywjenja 0.0081967
kwalita žywjenja 0.0163934
žiwjenja- žywjenja 0.0081967
stil žywjenja 0.0081967
wječork žywjenja 0.0081967
žiwjenje žywjenja 0.0327869
NULL žywjenja 0.0081967
žiwjenjahódne žywjenja 0.0245902
žiwjenjahódny žywjenja 0.0327869
žiwjenja žywjenja 0.7786885
žiwjenjahódna žywjenja 0.0163934
łopaću šupu 0.3333333
łopać šupu 0.6666667
wuknjenskim wuknjeńskim 1.0000000
witrinje witrinje 1.0000000
starosća starosće 1.0000000
wotpołožichu wótpołožyli 1.0000000
tragiskeje tragiskeje 1.0000000
hesłom noticku 1.0000000
jitkowskej jitkojskej 1.0000000
pomhaš pomoga 0.0270270
pomha pomoga 0.7027027
ma pomoga 0.0540541
pomhać pomoga 0.0810811
zrudnym pomoga 0.0270270
dopomha pomoga 0.0270270
bychu pomoga 0.0270270
lěk pomoga 0.0270270
skutkuje pomoga 0.0270270
muhh muhh 1.0000000
wukubłali wukubłali 1.0000000
kónčić pśestaś 0.5000000
přestać pśestaś 0.5000000
interkulturelnu interkulturelnu 1.0000000
je-li pótrjebje 0.0476190
potrjebje pótrjebje 0.9523810
.asc .asc 1.0000000
swjećiće swěśe 0.0097087
swjeća swěśe 0.0679612
runje swěśe 0.0097087
hwězdow swěśe 0.0194175
błyšća swěśe 0.0194175
syć swěśe 0.0582524
zemi swěśe 0.0097087
wobhladam swěśe 0.0097087
syći swěśe 0.0388350
syće swěśe 0.0194175
NULL swěśe 0.0291262
swětodaloko swěśe 0.0097087
swětadoloko swěśe 0.0194175
swěće swěśe 0.6504854
so swěśe 0.0097087
swjeći swěśe 0.0097087
rozpósłać swěśe 0.0097087
infoportal infoportal 1.0000000
kapitulaciji kapitulaciji 1.0000000
smartphony smartphony 1.0000000
zhromodźenstwo zgromoźeństwo 1.0000000
kilowattowa kilowattowa 1.0000000
pomoc pomc 0.3333333
trjebaja pomc 0.3333333
hródźach pomc 0.3333333
naćisku pśedłoze 0.0666667
naćiskej pśedłoze 0.0666667
zasćinja pśedłoze 0.0666667
zrěčenje pśedłoze 0.0666667
zakonja pśedłoze 0.1333333
předłoze pśedłoze 0.6000000
kindle kindle 1.0000000
wobsahuje wopśiujo 1.0000000
telemetrijowymaj telemetrijowyma 1.0000000
docpěću dojśpili 0.0666667
nabyli dojśpili 0.0666667
docpěli dojśpili 0.8000000
zdokonjeli dojśpili 0.0666667
strukturneje strukturneje 0.9259259
strukturna strukturneje 0.0740741
šikwanej pěknej 1.0000000
rěkaja mjasecam 0.5000000
měsacy mjasecam 0.5000000
bratrow bratšowu 1.0000000
cyła rěchu 0.2000000
porjadku rěchu 0.6000000
njetrjechi rěchu 0.2000000
lětdźesatku lětźasetku 1.0000000
přewidnych pśewidnych 1.0000000
starobne starstwowe 0.7777778
starobneho starstwowe 0.2222222
wužitych wužytych 1.0000000
krok kšaceń 0.2000000
kročel kšaceń 0.8000000
kupke kupke 1.0000000
2020-tych 2020-tych 1.0000000
hladar wótwardowaŕ 1.0000000
zdźěłali zdźěłali 1.0000000
wučeše hucašo 1.0000000
muzejowy muzejowy 1.0000000
nadrjadowanemu nadrědowanemu 1.0000000
european european 1.0000000
zdźělimy cynimy 0.1111111
činimy cynimy 0.8888889
type type 1.0000000
blešow flašow 1.0000000
wuknyła wuknuła 0.8333333
wona wuknuła 0.1666667
roll roll 1.0000000
słowom słowom 0.9000000
NULL słowom 0.1000000
wikowarjow rucnikarjow 0.3333333
rjemjeslnikow rucnikarjow 0.6666667
stawiznar stawiznaŕ 1.0000000
lodowej lodowej 0.3333333
lodarni lodowej 0.6666667
podpěra pódpěrowanje 0.5000000
podpěru pódpěrowanje 0.5000000
70-tych 70-tych 1.0000000
znajmjeńša najnejmjenjej 1.0000000
dožiwi dožywiła 0.3000000
dožiwiła dožywiła 0.4000000
wučena dožywiła 0.2000000
přežiwješe dožywiła 0.1000000
garantować garantěrowaś 0.7500000
zaručić garantěrowaś 0.2500000
dalekubłanskich kubłanišćow 0.1000000
kubłanišćow kubłanišćow 0.9000000
róčnica wrośenica 1.0000000
kónčenju kóńcenju 1.0000000
gmejnami gmejnami 1.0000000
njewjesty njewjesty 1.0000000
płaćiznowy płaśiznowy 1.0000000
zwobrazni zwobraznijo 0.3333333
zwobraznja zwobraznijo 0.6666667
firma firma 1.0000000
mjedwjedźe mjadwjeźe 0.8333333
mjedwjedźa mjadwjeźe 0.1666667
swětoznatym swětoznatem 1.0000000
njeznajeće pśeglědowanskim 1.0000000
cyrkwinskich cerkwinskich 1.0000000
nznowa nznowego 1.0000000
zamóženje zamóženje 1.0000000
woprawdźitej wopšawdnej 1.0000000
kritika kritika 1.0000000
filtra filtra 1.0000000
rěčnicam rěcnicam 1.0000000
wows wows 1.0000000
wužiwarskim wužywaŕskem 1.0000000
njehospoduje njegóspodujo 1.0000000
zdźěla źěłach 0.5000000
dźěłach źěłach 0.5000000
twarska twaŕska 1.0000000
grafisku grafisku 1.0000000
tudyšim tudejšem 1.0000000
hač gor 1.0000000
awdioklipy awdioklipy 1.0000000
připowědźa pśipowěźujo 0.5000000
připowědźi pśipowěźujo 0.5000000
rěčnych rěcnych 0.9750000
rěčneje rěcnych 0.0250000
luba luba 0.6666667
słódka luba 0.1111111
dobroćiwa luba 0.2222222
posrědkowanje pósrědnjanje 1.0000000
game game 1.0000000
najdlěši nejždlejša 1.0000000
alokacijow alokacijow 1.0000000
wójsko wójsko 1.0000000
pětrowym pětšowem 1.0000000
dobje statkowańskej 1.0000000
měšćanscy měsćańske 0.1666667
městnostne měsćańske 0.1666667
měšćanske měsćańske 0.6666667
wutworjeneho napóranego 1.0000000
wobškodźił wobškóźeł 1.0000000
němsko-słowjanskim nimsko-słowjańskem 1.0000000
informacijach informacijach 1.0000000
wobdźělam wobźělujom 1.0000000
wito wito 1.0000000
hymny hymny 1.0000000
nihdy nigda 0.0270270
ženje nigda 0.9729730
lětušim lětosnym 1.0000000
, póśěgaju 0.3333333
poćahuja póśěgaju 0.3333333
rozdźělić póśěgaju 0.3333333
napojom napoja 1.0000000
kćěje kwiśo 1.0000000
susanny susanny 1.0000000
jemu njezwěrijo 0.3333333
njezwěri njezwěrijo 0.6666667
woči wiźełej 0.1428571
stej wiźełej 0.1428571
widźałoj wiźełej 0.7142857
dudak dudak 1.0000000
bórkowčanow bórkowarjow 1.0000000
lindźe pśeraźiła 1.0000000
powšitkownym powšyknym 1.0000000
zapowědźene wótpokazany 0.2500000
wotpokazany wótpokazany 0.7500000
znajmjeńša najejmjenjej 1.0000000
swětłomódrej swětłomódrej 1.0000000
swědomiće wědobnosćiwje 0.3333333
wědomje wědobnosćiwje 0.6666667
starow sławnych 0.3333333
sławnych sławnych 0.6666667
mudri kólena 1.0000000
zemicach-tumicach zemicach-tumicach 1.0000000
dwurěčna dwójorěcna 1.0000000
fyzioterapija fyzioterapija 1.0000000
zasadnych zasadnych 1.0000000
přichodnej pśichodnej 1.0000000
pohončił pógónjował 1.0000000
wšědnemu wšednemu 1.0000000
grzyb grzyb 1.0000000
! guslujo 1.0000000
najćeši nejśěšy 1.0000000
pěstowarskeho źiśownjowego 1.0000000
fsj fsj 1.0000000
njewustanjemy njezmucyjomy 1.0000000
hamorec hamorec 1.0000000
solidarnej solidarnej 1.0000000
chromy chromy 0.5000000
twary chromy 0.5000000
kongresach kongresach 1.0000000
regularneho regularnego 1.0000000
wěrjomnosć wěrjobnosć 1.0000000
wozjewjenskeho wózjawjeńskego 1.0000000
přeńdźeće pśejźóśo 1.0000000
dorosta dorosta 1.0000000
chódbje chodu 1.0000000
kobołkowa kobołkowa 1.0000000
awtentifikaciju awtentifikaciju 1.0000000
pomjeńšiła pómjeńšyła 1.0000000
zajimawostka zajmnostka 1.0000000
puzolaka kjawkana 1.0000000
njeby njemógał 0.3333333
njemóže njemógał 0.3333333
slědy njemógał 0.3333333
schorjeł schorjeł 1.0000000
tasta tasta 1.0000000
měnjacym měnjecem 1.0000000
delnjoserb torsten 0.3333333
torsten torsten 0.6666667
čorne carne 0.6666667
čorny carne 0.0666667
módre carne 0.0666667
čornej carne 0.0666667
čorni carne 0.1333333
jquery jquery 1.0000000
twarjenja wobory 0.0833333
wobory wobory 0.9166667
hórnikečanskeje hórnikecańskeje 1.0000000
prezidentka prezidentka 1.0000000
miłoraskej miłoraskeju 1.0000000
wjetšeho wětšego 1.0000000
slědźerskich slěźaŕskich 1.0000000
njezrozumliwe njerozymliwe 1.0000000
zelo mjetwiny 0.5000000
mjatwičkowe mjetwiny 0.5000000
stupacej pśiběrajuceju 1.0000000
dźiwadźelenja źiwadłowego 0.3333333
dźiwadłoweho źiwadłowego 0.6666667
nałoženskeho nałožeńskego 1.0000000
zlěty zlěty 1.0000000
zbytk huzbytnych 1.0000000
słužbneho słužbnego 1.0000000
docpěje dojśpijo 0.6666667
wodźik dojśpijo 0.3333333
zetka zmakajo 0.6000000
zetkawa zmakajo 0.4000000
rozdźělić rozdźěliś 0.8181818
NULL rozdźěliś 0.0909091
žórle rozdźěliś 0.0909091
předrasćene pśewoblacone 1.0000000
kwětkach kwětkach 1.0000000
by pśiguslowała 0.5000000
dešćik pśiguslowała 0.5000000
tworić wutwóriś 0.0277778
wutworić wutwóriś 0.9444444
stworić wutwóriś 0.0277778
lawskich lawskich 1.0000000
čołmiki cołniki 1.0000000
přestajić pśestajiś 1.0000000
dojednać dojadnaś 1.0000000
hamtski amtski 0.2000000
čas amtski 0.7000000
hamtsce amtski 0.1000000
wobradźili wobraźili 1.0000000
ekosystemje wótwórjonych 0.0625000
nałoženjow wótwórjonych 0.0625000
wotewrjenych wótwórjonych 0.8750000
prócy proce 0.9000000
mojeje proce 0.1000000
wochožansku wochožansku 1.0000000
185 185 1.0000000
hašcyneje hašcyneje 1.0000000
sir sir 1.0000000
nóclěh spnaju 1.0000000
rozmołwjałoj rozgranjałej 1.0000000
scenu scenu 1.0000000
policija policaja 1.0000000
najkrasniše kšasnjejše 1.0000000
prěnjeho prědnego 0.9750000
prěni prědnego 0.0250000
darja pósćiwaju 1.0000000
pomjenowanje pomjenowanje 1.0000000
zwonami zwónami 1.0000000
zelenym zelenem 1.0000000
wačkami mjerwi 0.4000000
mjerwi mjerwi 0.4000000
NULL mjerwi 0.2000000
jahodkami carnicami 0.5000000
holanskimi carnicami 0.5000000
legitimny legitimny 1.0000000
konwertowali konwertěrowali 1.0000000
wojerowskej wórjejcańskej 1.0000000
schodźenkej schójźeńkoju 1.0000000
68 68 1.0000000
doda dodajo 1.0000000
jednanjach jadnanjach 1.0000000
hozdźikow glickow 0.6666667
jehličkow glickow 0.3333333
storybooks storybooks 1.0000000
wobrazowku wobrazowku 1.0000000
sćěhowaštej slědowałej 0.6666667
sćěhowałej slědowałej 0.3333333
wuzamkuj wugasni 1.0000000
trompetarjo trompetarjow 1.0000000
abstraktny abstraktego 1.0000000
prime239v3 prime239v3 1.0000000
praktikowane prakticěrowane 1.0000000
pěška pěška 1.0000000
stawiznam stawiznam 1.0000000
prawiznicam pšawiznicam 1.0000000
s-wotkazy s-wótkaze 1.0000000
dokumentacisku dokumentacisku 1.0000000
sakskeho sakskego 0.9888889
sakskeje sakskego 0.0111111
listowce listowce 1.0000000
sčesała scesała 1.0000000
wozrodźena wózroźiła 1.0000000
polěpšeć pólěpšaś 1.0000000
njepodpěranu njepódpěranu 0.4444444
njepodpěrowanu njepódpěranu 0.5555556
njestrowe njestrowe 1.0000000
bluzu bluzu 1.0000000
přispomnjenkach pśipiskach 1.0000000
firefox.com firefox.com 1.0000000
kuchnički kuchnicki 1.0000000
duplikaty duplikaty 1.0000000
jo nagraśo 1.0000000
nwužijće nwužyjśo 1.0000000
tuchwilny tuchylny 1.0000000
jednym jadnym 0.8250000
ze jadnym 0.0500000
jednej jadnym 0.0250000
jeničkim jadnym 0.0750000
jednom jadnym 0.0250000
přemysłowej źěłarstwowej 1.0000000
přebić riśi 1.0000000
njepřestawacym njepśestawajucym 1.0000000
wótry głosny 1.0000000
aryju aryja 1.0000000
proces proces 1.0000000
diskusije diskusije 0.9677419
diskusijne diskusije 0.0322581
raz.njemóžeće raz.njamóžośo 1.0000000
konkretnu konkretnu 1.0000000
posrědkowanja pósrědnjenja 1.0000000
wolfganga wolfganga 1.0000000
referendaram referendaram 1.0000000
předsłowa pśedsłowa 1.0000000
hłódnemu głodnemu 1.0000000
bankrotna bankrotna 1.0000000
scyła njedojśpijom 0.2500000
njedocpěju njedojśpijom 0.7500000
poradźowacym póraźujucym 1.0000000
zakónčene zakóńcone 0.8571429
zakónčena zakóńcone 0.1428571
direktorka direktorka 1.0000000
gantemara gantemarsa 1.0000000
wobstajniši wobstawnjejšy 1.0000000
płoninowymi płoninowymi 1.0000000
sekretarkow sekretaŕkow 1.0000000
wěru wěru 1.0000000
poradźenju raźenju 1.0000000
wospjetnym wóspjetnym 1.0000000
jězbnu jězdnu 0.8888889
jězdnu jězdnu 0.1111111
wobdźělnikej wobdźělnikoju 1.0000000
potrěbnosćemi pótrěbnosćami 1.0000000
bliskosć bliskosć 1.0000000
muškow muškowu 1.0000000
dypkowne dypkowne 1.0000000
jachtu jachtu 1.0000000
nucha nucha 1.0000000
znjewužiwanja znjewužywanja 1.0000000
zawru zacynjaju 1.0000000
darmotnych dermotnych 1.0000000
njezakrytej njezawobaloneju 1.0000000
njewopřijima digitalneje 0.1111111
digitalnu digitalneje 0.1111111
digitalneje digitalneje 0.7777778
rbb rbb 1.0000000
praktikarjo praktikarje 1.0000000
kajkosćach kakosćach 1.0000000
trjebinska trjebińska 1.0000000
knježerstwowu kněžaŕstwowu 0.2500000
knježerstwow kněžaŕstwowu 0.7500000
nječińće njebój 0.0625000
njeboj njebój 0.4375000
njebój njebój 0.3125000
njestarosć njebój 0.1875000
reparować reparěrowaś 1.0000000
wobkrući wobtwarźił 0.3333333
potwjerdźi wobtwarźił 0.6666667
financujemy financěrujomy 1.0000000
adelaidy adelaidy 1.0000000
někotružkuli musali 0.0512821
by musali 0.0512821
wuwojować musali 0.0256410
mějachu musali 0.0512821
dyrbjeli musali 0.1538462
dyrbjachmy musali 0.0512821
bychu musali 0.0512821
dyrbjachu musali 0.5641026
interagujeće interagěrujośo 0.7500000
interagěrujeće interagěrujośo 0.2500000
započatkarsku zachopjeńkaŕsku 1.0000000
ow nještycy 1.0000000
pokazowar špěrku 0.1666667
pokazowakom špěrku 0.5000000
pokazowak špěrku 0.3333333
česće cesći 0.1538462
chwalbje cesći 0.0769231
česći cesći 0.4615385
waži cesći 0.0769231
wysoko cesći 0.0769231
česćuje cesći 0.0769231
česć cesći 0.0769231
namakać namakś 1.0000000
readablestream readablestream 1.0000000
njenalistowanym njenaliconym 1.0000000
připowědźeny njeźiwa 0.2857143
NULL njeźiwa 0.1428571
njekedźbuje njeźiwa 0.2857143
njepěstuje njeźiwa 0.1428571
njewobkedźbowana njeźiwa 0.1428571
chłóšćenki lěbgody 1.0000000
šusterowym šusterowem 1.0000000
panda panda 1.0000000
přechody pśechody 1.0000000
stotej stoteju 1.0000000
klimy-neutralne klimy-neutralne 1.0000000
telekomunikaciskich telekomunikaciskich 1.0000000
dokónčna finalna 1.0000000
dwurěčni dwójorěcne 0.0277778
dwurěčna dwójorěcne 0.0555556
dwurěčne dwójorěcne 0.9166667
objektowych objektowych 1.0000000
wotkrywace wótkšywajuce 1.0000000
instalacije instalacije 1.0000000
frizow frizow 1.0000000
preferowaneje póžedaneje 1.0000000
hłownemu głownemu 0.6666667
hłowny głownemu 0.3333333
přemyslować pśemyslowaś 0.4583333
tym pśemyslowaś 0.0416667
derje pśemyslowaś 0.0416667
wo pśemyslowaś 0.0416667
rozmyslować pśemyslowaś 0.4166667
njesłyšu njesłyšym 1.0000000
karibiske karibiske 1.0000000
profilowanju profilěrowanju 1.0000000
najnuznišimi nejnuznjejšymi 1.0000000
roztorhane roztergane 1.0000000
imersiwneho imersiwnego 1.0000000
hrónčkami gronkami 1.0000000
1961 1961 1.0000000
dlěšej dlejšej 1.0000000
słabeho słabego 1.0000000
donatec donatec 1.0000000
pěstuje wótwardujo 0.8750000
wothladuje wótwardujo 0.1250000
wužiwarjow wužyiwarje 1.0000000
přeměsćenjom pśepołoženim 1.0000000
jako jako 0.5000000
kaž jako 0.5000000
naroki wupominanja 0.0370370
narok wupominanja 0.0370370
wužadanja wupominanja 0.8888889
naroka wupominanja 0.0370370
spjećowarce wopěraŕce 1.0000000
zapodajće zapódajsó 1.0000000
měšćanska měsćańska 1.0000000
partnerstwa partnarstwa 1.0000000
description description 1.0000000
huslerju fidlarju 1.0000000
wabiło wabiło 1.0000000
blokowanje blokěrowanje 1.0000000
fachowy fachowy 0.8333333
předmjet fachowy 0.1666667
přiwěški kóńcuju 0.3333333
niča kóńcuju 0.6666667
ze zbrojm 0.1666667
škoda zbrojm 0.0833333
swojim zbrojm 0.1666667
čas zbrojm 0.0833333
rozhorju zbrojm 0.0833333
broju zbrojm 0.2500000
časom zbrojm 0.1666667
aktualnej aktualneju 1.0000000
2.000 2.000 1.0000000
wulki wobuzu 0.5000000
problem wobuzu 0.5000000
sekretarojo sekretarje 0.5000000
sekretarje sekretarje 0.5000000
rewěra rewěra 1.0000000
powědančkow wulicowankow 1.0000000
skul.praworóžk wukul.pšawokut 1.0000000
sobotu sobotu 1.0000000
wašnja pśinosowali 0.1428571
přinošowali pśinosowali 0.8571429
zapłaćiło zapłaśiło 0.5000000
s zapłaśiło 0.5000000
purpose purpose 1.0000000
wulězli wulězli 1.0000000
přesydlenjom pśesedlenim 1.0000000
jozefom jozepom 1.0000000
tworili twórili 0.8333333
tworichu twórili 0.1666667
moje moje 0.6666667
to moje 0.3333333
wopłóčkowa wótwódowa 1.0000000
akciski akciski 1.0000000
złowólne złosne 0.5000000
złóstne złosne 0.5000000
policajske policajske 1.0000000
inscenaciju inscenaciju 1.0000000
napowědał nawulicował 1.0000000
ćahnyłoj śěgnułej 1.0000000
poražce póbiśu 1.0000000
při při 1.0000000
zranić zaštapiś 1.0000000
swjatkami swětnymi 1.0000000
successfully successfully 1.0000000
pokłoni pókłonił 1.0000000
dźesaćtysacy źaseśtysace 1.0000000
datowe datowe 1.0000000
bičwolejbulnišćo beachvolleyballowe 1.0000000
kampanje kampanje 1.0000000
njekřiwdźimy njekśiwźimy 1.0000000
třom tśim 1.0000000
tomaš tomas 1.0000000
słóncom słyńcom 0.8333333
horcotu słyńcom 0.1666667
swojej swojej 1.0000000
pachołom pachołom 1.0000000
swoje wópóznawaju 0.5000000
zeznaja wópóznawaju 0.5000000
njezawostaja njezawóstaju 1.0000000
asterki asterki 1.0000000
ja wěrim 0.1111111
dowěrjam wěrim 0.1111111
tak wěrim 0.1111111
wěrju wěrim 0.5555556
njewěrju wěrim 0.1111111
katolikow katolikow 1.0000000
dokładneje dokładneje 1.0000000
mužakowskim mužakojskim 1.0000000
NULL wótpósćelo 1.0000000
njespóznawajomna njespóznawajobna 1.0000000
hnadźe gnadu 0.0833333
smilnosć gnadu 0.0833333
hnadu gnadu 0.8333333
iranje iranje 1.0000000
wědomostny wědomostny 1.0000000
włosami włosami 1.0000000
budu pózwóniś 0.5000000
zwonić pózwóniś 0.5000000
towarstwoweho towaristwowego 1.0000000
njewěsteho njewěstego 1.0000000
kanona zeleza 0.5000000
železa zeleza 0.5000000
njewuhojena njezagójta 1.0000000
nakromna nakšomna 1.0000000
płaćiwa płaćiwa 1.0000000
płoninowy płoninowy 1.0000000
wuknyć wuknjenju 0.0952381
wuknjenju wuknjenju 0.9047619
wotpowědowało part 0.0714286
bohaty part 0.0714286
hrajenske part 0.0714286
horjach part 0.0714286
najspěšnišim part 0.0714286
padźe part 0.1428571
pad part 0.0714286
wašnje part 0.1428571
sej part 0.0714286
razu part 0.1428571
inteligentna part 0.0714286
přestać wopśestaś 1.0000000
kompatibelnu kompatibelnu 1.0000000
proksyserwer proksyserwer 1.0000000
wobjednanje wobjadnanje 0.3333333
wobjednanja wobjadnanje 0.3333333
wašnje wobjadnanje 0.3333333
tola ! 0.0004382
lězeš ! 0.0004382
přinjesu ! 0.0004382
– ! 0.0017528
přepruwowane ! 0.0004382
… ! 0.0008764
! ! 0.9465381
aladin ! 0.0004382
, ! 0.0026293
křesćansku ! 0.0004382
wuměnił ! 0.0004382
smjerdźi ! 0.0004382
ćěrili ! 0.0004382
hady ! 0.0004382
hasńće ! 0.0004382
NULL ! 0.0083260
praj ! 0.0004382
posłuchaj ! 0.0004382
muža ! 0.0004382
přimnyć1 ! 0.0004382
. ! 0.0302366
rozhladować ! 0.0004382
? ! 0.0021911
šerjenje ! 0.0004382
röhrscheidtoweje röhrscheidtowej 1.0000000
cyłoněmskim cełonimskem 1.0000000
research research 1.0000000
atributom atributom 1.0000000
najnowšim nejnowšym 1.0000000
přewuski pśewuska 1.0000000
potrjechja pótrjefiju 0.3333333
nastupaja pótrjefiju 0.6666667
majestosć majestosć 0.8888889
eh majestosć 0.1111111
nmóža nmógu 1.0000000
pražnik žnjojski 1.0000000
systemow systemow 0.8000000
rołowodow systemow 0.2000000
turizmom turizmom 1.0000000
telefoniju telefoniju 1.0000000
systemoweho systemoweje 1.0000000
pólneho pólnego 1.0000000
archive.org. archive.org. 1.0000000
njedźakuju źěkuju 0.0434783
rapaki źěkuju 0.0869565
wšitkim źěkuju 0.0869565
dźakuju źěkuju 0.6956522
dźak źěkuju 0.0434783
dźakujemy źěkuju 0.0434783
wašim twójogo 0.0416667
twojemu twójogo 0.0416667
škrěčenja twójogo 0.0416667
wot twójogo 0.0416667
twojeho twójogo 0.7083333
bych twójogo 0.0416667
žiwjenju twójogo 0.0416667
swojeho twójogo 0.0416667
ntuta ntoś 1.0000000
wuknješe wuknuł 0.2777778
wuknył wuknuł 0.5555556
napinał wuknuł 0.0555556
so wuknuł 0.0555556
NULL wuknuł 0.0555556
woprawdźitosći napšawdnosći 1.0000000
swójbnym familiarnym 1.0000000
wuchowansku wuchowańsku 1.0000000
přistawje pśistawje 1.0000000
podało pódało 1.0000000
rozmołwami rozgronami 1.0000000
uniwersum nadpśirodnych 1.0000000
přenjesć pśenjasć 0.9523810
prěsadźeć pśenjasć 0.0476190
w-w-wobjedu wob-wobjedoju 0.5000000
j-ješć wob-wobjedoju 0.5000000
wotpokazuje ndrobnostki 0.3333333
npodrobnosće ndrobnostki 0.6666667
nowoměšćanskej nowoměsćanaŕskej 1.0000000
hibićiwym pógibliwym 1.0000000
přewodnika pśewódnika 1.0000000
zdźeržu wobchowaś 0.1666667
zdźeržeć wobchowaś 0.1111111
wobchować wobchowaś 0.7222222
noworjadowanje nowoorganizacija 1.0000000
dnjowy dnjowny 1.0000000
zapřijate wopśimowany 1.0000000
žónski žeńscyny 1.0000000
čakanskeho cakańskemu 0.1428571
čakanskemu cakańskemu 0.8571429
c2tnb191v1 c2tnb191v1 1.0000000
njepřetorhnjeće njepśetergnjośo 1.0000000
inteligentnym inteligentnem 1.0000000
hižo kšacanje 1.0000000
ma instalěrowanim 0.2500000
hač instalěrowanim 0.2500000
instalowanjom instalěrowanim 0.5000000
faktory faktory 1.0000000
žane ně-někake 1.0000000
jewješe jawiśo 1.0000000
fornej woptajo 0.5000000
jón woptajo 0.5000000
serbsce serbšćinu 0.0253807
serbšćina serbšćinu 0.0101523
serbšćinu serbšćinu 0.9644670
so wobźělujuce 0.5000000
wobdźělace wobźělujuce 0.5000000
advocacy advocacy 1.0000000
přidatks dodanks 1.0000000
čisła numery 1.0000000
naspomni pśispomnjeł 0.6666667
přispomnił pśispomnjeł 0.3333333
wěšał powjesał 1.0000000
změrcowske wurownańske 1.0000000
zdźěli zdźěli 0.9583333
dźěli zdźěli 0.0416667
serbskorěčny spěchowańskej 0.2222222
poskitk spěchowańskej 0.2222222
spěchowanskeje spěchowańskej 0.2222222
spěchowanskej spěchowańskej 0.3333333
wotedał wótedał 0.1666667
ruki wótedał 0.1666667
ženje wótedał 0.1666667
zamołwitosć wótedał 0.1666667
dał wótedał 0.1666667
z wótedał 0.1666667
dama kněžna 0.5000000
sonina kněžna 0.5000000
nazorne naglědne 1.0000000
njezyboli njebłyšći 1.0000000
přičiny wobtwarźenim 0.2500000
wopodstatnjenjom wobtwarźenim 0.5000000
wobtwjerdźenjom wobtwarźenim 0.2500000
pěskowym pěskowem 0.5000000
pěskowčiku pěskowem 0.5000000
přewodne pśedsłowo 0.2000000
předsłowo pśedsłowo 0.6000000
słowo pśedsłowo 0.2000000
podroždźu podroždźu 1.0000000
k wašo 0.0075000
njećisńće wašo 0.0025000
rozmołwa wašo 0.0025000
waša wašo 0.0050000
wašim wašo 0.0050000
wašu wašo 0.0025000
awtentifikacija wašo 0.0025000
wašemu wašo 0.0050000
standardne wašo 0.0050000
waše wašo 0.8000000
byšće wašo 0.0050000
so wašo 0.0025000
standardnemu wašo 0.0050000
waš wašo 0.1500000
přinoškoweho pśinoskowego 1.0000000
akceptowanje akceptěrowanje 1.0000000
přihotowana pśigótowana 1.0000000
zadźiwany zaźiwany 1.0000000
spjelnili społnili 1.0000000
fornowa fornowa 1.0000000
rejwansku rejowańsku 0.5000000
rejowansku rejowańsku 0.5000000
defektna defektna 1.0000000
wuličili wulicyli 1.0000000
syčomłóćawu secomłośenicu 1.0000000
policistku policistku 1.0000000
přiležnosć pśigóźbu 1.0000000
domquad.getbounds domquad.getbounds 1.0000000
lubja lubje 0.3333333
lubje lubje 0.6666667
stajenja stajanja 1.0000000
zaručenych zaruconych 1.0000000
hrajerjam grajarjam 1.0000000
slěborne slobrane 1.0000000
spjelń rozwěž 1.0000000
nawodnica nawjedowaŕka 1.0000000
horicont horicont 1.0000000
rss-kanale rss-kanale 1.0000000
rěčnišća a 0.0000623
wočakuju a 0.0000623
knihow a 0.0001245
nahrabnosć a 0.0000623
přistajeny a 0.0000623
zo a 0.0001868
wšelakim a 0.0000623
dźěle a 0.0001245
inkluziwnje a 0.0000623
rjedźe a 0.0000623
čehodla a 0.0001868
zatamaja a 0.0000623
markěrowanju a 0.0000623
krónu a 0.0000623
njewěcowne a 0.0001245
šalkow a 0.0000623
tola a 0.0000623
nimaš a 0.0000623
– a 0.0001245
my a 0.0000623
rejuješ a 0.0000623
zapaduju a 0.0000623
amuletom a 0.0000623
widźeć a 0.0000623
wusłyša a 0.0000623
chcemoj a 0.0000623
daloko a 0.0000623
tłać a 0.0000623
ležownosć a 0.0001245
pěstowarkow a 0.0000623
rěčkow a 0.0003113
wón a 0.0000623
wostudło a 0.0000623
njezwisowace a 0.0000623
čerwjene a 0.0000623
schowaj a 0.0000623
štó a 0.0001245
tveiranowy a 0.0000623
wobdawaja a 0.0000623
zranjenych a 0.0000623
zbožownje a 0.0000623
wotewrja a 0.0000623
pěskojteje a 0.0000623
wuporjedźić a 0.0000623
dokal a 0.0000623
žołte a 0.0000623
sewjernje a 0.0000623
rozžohnuju a 0.0000623
nutřka a 0.0000623
tutón a 0.0000623
amulet a 0.0000623
rěčkach a 0.0000623
palčika a 0.0000623
spěchuje a 0.0000623
runjewon a 0.0000623
přeco a 0.0001245
ale a 0.0001868
kničomne a 0.0001245
měniš a 0.0000623
jónu a 0.0000623
nimo a 0.0001245
, a 0.0029263
zawěsće a 0.0000623
wojerstwo a 0.0000623
jednoho a 0.0000623
njesmjertnosć a 0.0000623
ramjeni a 0.0000623
dźewjećadźewjećdźesat a 0.0000623
nječaporowe a 0.0000623
płaći a 0.0000623
wukubłanja a 0.0000623
samo a 0.0000623
separatnych a 0.0000623
rěčał a 0.0000623
namakaš a 0.0000623
čertow a 0.0000623
etisce a 0.0000623
tež a 0.0000623
stražnik a 0.0000623
holanskej a 0.0001245
muž a 0.0000623
wušparanjow a 0.0000623
ty a 0.0000623
słyšeć a 0.0000623
měj a 0.0000623
swobodna a 0.0000623
přećelne a 0.0000623
kuzłarske a 0.0000623
lěpjacy a 0.0000623
NULL a 0.0094639
kuskow a 0.0000623
tohodla a 0.0001245
wěš a 0.0000623
zmiń a 0.0000623
njehraje a 0.0000623
lěpjate a 0.0000623
dyrbiš a 0.0006849
pozastać a 0.0000623
zdwórliwy a 0.0000623
njezdwórliwy a 0.0000623
schowam a 0.0000623
ćeknyli a 0.0000623
pospać a 0.0000623
króna a 0.0000623
płaćomny a 0.0001245
haruje a 0.0000623
potajkim a 0.0000623
pražić a 0.0000623
hdyž a 0.0001245
m-mam a 0.0000623
zabywam a 0.0000623
njewěrnosće a 0.0001245
synom a 0.0000623
nadosć a 0.0001245
a7b-test a 0.0000623
wostaju a 0.0000623
sensibilizować a 0.0000623
kak a 0.0001245
zahuby a 0.0000623
wuwučowarjo a 0.0001245
a a 0.9734139
kaž a 0.0005604
šćerčało a 0.0000623
wobrazozwukowe a 0.0000623
hadama a 0.0000623
zamóžnosć a 0.0001868
woznamjeni a 0.0001245
kotryž a 0.0000623
je a 0.0000623
ženje a 0.0000623
lute a 0.0000623
kisty a 0.0000623
budźe a 0.0000623
krjepjawy a 0.0000623
mokra a 0.0000623
wšej a 0.0000623
kontaktowy a 0.0000623
dam a 0.0000623
s a 0.0000623
brukow a 0.0000623
pjany a 0.0000623
mjerzaja a 0.0000623
pić a 0.0000623
kubłanjom a 0.0000623
přeslědźić a 0.0000623
pe a 0.0001245
abo a 0.0015566
waženi a 0.0000623
muža a 0.0000623
. a 0.0001245
sława a 0.0000623
z a 0.0001868
móra a 0.0000623
měła a 0.0000623
pomoc a 0.0000623
wobchodniske wobchodne 1.0000000
sćehnjeny ześěgnjony 1.0000000
prezentował prezentěrował 0.4000000
předstajił prezentěrował 0.2000000
prezentowaše prezentěrował 0.4000000
předaloko źěru 0.0322581
dźěra źěru 0.0967742
dźěru źěru 0.6129032
je źěru 0.0645161
dźěrku źěru 0.0645161
mjezotu źěru 0.0322581
nutřka źěru 0.0322581
skónčnje źěru 0.0322581
prózdnjeńcu źěru 0.0322581
bohatych bogatych 1.0000000
wopite wopite 1.0000000
c2onb239v4 c2onb239v4 1.0000000
rozłamaneho rozłamanego 1.0000000
inkubator inkubator 1.0000000
rjekow ryśarjow 1.0000000
zwobraznić zwobrazniś 1.0000000
hodowneje gódowneje 1.0000000
zajeći pśedsudkowne 1.0000000
slěborneho slobranego 1.0000000
kulšicu muku 0.0909091
měchi muku 0.0909091
jušku muku 0.0909091
muku muku 0.7272727
skruća skšuśiju 0.5000000
skrućeja skšuśiju 0.5000000
hodźacym góźecym 1.0000000
šćipał wuśěgnuł 0.2500000
namakał wuśěgnuł 0.2500000
wućahnył wuśěgnuł 0.5000000
rozwažeć rozwažowaś 0.3333333
rozwažować rozwažowaś 0.6666667
wuradźowanju wobradowanju 0.8400000
wuradźowanjow wobradowanju 0.1600000
zjednoćenstwach kružkach 1.0000000
podawaće dojźośo 0.5000000
so dojźośo 0.5000000
getuserdata getuserdata 1.0000000
studni našej 0.0138889
našej našej 0.9305556
našim našej 0.0416667
našeje našej 0.0138889
blunju blunju 1.0000000
njezapřijimajće njezapśimujśo 1.0000000
přeběžkoweho woběžkowego 1.0000000
dom2-metodu dom2-metodu 1.0000000
firmownikow firmow 0.0833333
firmownicy firmow 0.0833333
zeznać firmow 0.0833333
firmy firmow 0.0416667
firmow firmow 0.7083333
spytajće woytajśo 1.0000000
wuhojić gójś 0.2000000
hojić gójś 0.8000000
horco horco 1.0000000
fotami fotami 1.0000000
160 160 1.0000000
bolosće ból 0.5000000
boleše ból 0.5000000
stilowy stilowy 1.0000000
wudobywanski wudobywański 1.0000000
betakodowu betakodowu 1.0000000
wobmjezowana wobgranicowana 1.0000000
problem spómóžna 1.0000000
. nanuzowaś 0.3333333
chcył nanuzowaś 0.3333333
nanuzować nanuzowaś 0.3333333
wobličimy woblicyjomy 1.0000000
zrozumimy zrozmějomy 1.0000000
nuzne nuzowe 0.3333333
nuzowe nuzowe 0.6666667
wokolinach wokolinach 1.0000000
identifikowanje identificěrowanje 1.0000000
wuznamnych wuznamnych 1.0000000
twarjene twarjone 1.0000000
symješka semjenja 0.1250000
tutych semjenja 0.1250000
symjo semjenja 0.2500000
makowych semjenja 0.1250000
symješkow semjenja 0.3750000
dźěłarničkach źěłaŕnickach 1.0000000
raz wopytaju 0.1666667
spytaja wopytaju 0.5000000
pospytam wopytaju 0.3333333
města budyšyna 0.0169492
NULL budyšyna 0.0508475
dojěł budyšyna 0.0169492
budyšina budyšyna 0.9152542
njeskutki njestatki 1.0000000
pomazkowej skibkoweju 1.0000000
wurjedźena wurěšenje 1.0000000
wotmołwu wótegrono 0.6260870
wotmołwić wótegrono 0.0086957
NULL wótegrono 0.0086957
nimaja wótegrono 0.0260870
nimatej wótegrono 0.0347826
wotmołwy wótegrono 0.0086957
wotmołwa wótegrono 0.1913043
nima wótegrono 0.0782609
njewotmołwi wótegrono 0.0173913
ćežkozbrašenych śěžkobrašnych 1.0000000
hódnoćene cesćone 0.2000000
česćeni cesćone 0.6000000
waženi cesćone 0.2000000
wysokošulskeho wusokošulskego 1.0000000
direction direction 1.0000000
pakuju scynijom 1.0000000
nječušlu njesnuchlim 1.0000000
sulšečanski sulšecański 1.0000000
podsadźbu pódsajźbu 1.0000000
najstaršej nykusoweju 0.2000000
dźowku nykusoweju 0.4000000
wódneho nykusoweju 0.4000000
pětr pětš 0.5000000
pětrje pětš 0.3333333
hej pětš 0.1666667
doporučena dopórucona 1.0000000
rozpadnu rozpaduju 0.5000000
rozpadaja rozpaduju 0.5000000
žněješe žnějašo 1.0000000
rozsudźiš rozsuźijoš 1.0000000
zawróćił zawrośił 1.0000000
statneje statnego 0.0285714
statneho statnego 0.9714286
serbsko-němski serbsko-nimski 1.0000000
spěchowanjom spěchowanim 0.9411765
spěchowanju spěchowanim 0.0588235
rizikach rizikach 1.0000000
nóžki nožki 1.0000000
http-hłowu http-głowu 1.0000000
namakakami namakakami 1.0000000
kubłarku kubłaŕku 1.0000000
tachantskej tachantskeju 1.0000000
wotpowědnej danem 0.2000000
datym danem 0.6000000
datej danem 0.2000000
njezhašeće njewulašujośo 1.0000000
dowolili dowólili 1.0000000
hochozy hochozy 1.0000000
operatorow operatorow 1.0000000
zbožowni glucnje 0.1666667
njejsu glucnje 0.1666667
zbožownje glucnje 0.1666667
zbóžnje glucnje 0.3333333
wšitcy glucnje 0.1666667
wušomaj hušy 0.5000000
wuši hušy 0.5000000
tradicionelnje tradicionelnje 0.2857143
tradicionalnje tradicionelnje 0.7142857
modalitach modalitach 1.0000000
rewitalizaciju rewitalizěrowanje 1.0000000
senata senata 1.0000000
přebije naslězy 1.0000000
nałožowanje nałožowanje 0.9772727
nałožowanju nałožowanje 0.0227273
wužitniše wužytnjejše 1.0000000
zwiskowu zwiskowu 1.0000000
prudźacych tšugajucych 1.0000000
překročena pśekšocona 1.0000000
literarnu literarnu 1.0000000
bernd bernd 1.0000000
přistupnymi pšosbami 0.5000000
próstwami pšosbami 0.5000000
dowěrjeć dowěriś 0.1363636
dowěrić dowěriś 0.8636364
šefina šefowka 1.0000000
čuło pśiwzete 0.0714286
přiwzate pśiwzete 0.7142857
přiwzaty pśiwzete 0.2142857
sobudźěłaćerjomaj sobudźěłaćerjomaj 1.0000000
mjeńšinami mjeńšynami 0.9473684
mjeńšiny mjeńšynami 0.0526316
phi bak 1.0000000
naprašnik napšašnik 1.0000000
njeparujomni njewuzbytne 1.0000000
wuznawa wuznawa 1.0000000
pytanjach pytanjach 1.0000000
jatbowym popajźowańskem 1.0000000
dyrbiš musy 0.0043668
dyrbjała musy 0.0043668
steji musy 0.0043668
chce musy 0.0043668
NULL musy 0.0043668
dyrbja musy 0.0174672
zaručeny musy 0.0043668
dyrbi musy 0.9213974
ja musy 0.0043668
drje musy 0.0043668
ma musy 0.0218341
čini musy 0.0043668
najhładšo nejgładšej 1.0000000
prohowu progowu 1.0000000
atd atd 1.0000000
kěrimyri larifari 1.0000000
wotamknyć wótcyniś 0.1304348
wočinić wótcyniś 0.6521739
njewočinju wótcyniś 0.0434783
relief wótcyniś 0.0434783
njewočini wótcyniś 0.0869565
aryje wótcyniś 0.0434783
hładce zgładka 1.0000000
trochowaneju pjenjezneju 1.0000000
dźěło statki 0.1666667
skutki statki 0.6666667
narodne statki 0.1666667
mojekanale mójekanale 1.0000000
škleńčerstwo głažkaŕstwo 1.0000000
błudnemu njemudremu 1.0000000
mejemjetanju chytanje 1.0000000
podpěranymi pódprětymi 1.0000000
ćežišći śěžyšći 1.0000000
dźeržiće źaržiśo 1.0000000
ratifikacije ratifikacije 1.0000000
parlamentariski parlamentariski 1.0000000
strowšeho strowšego 1.0000000
sorabistiku sorabistiku 1.0000000
estetika estetika 1.0000000
jónkróćnych jadnoraznych 1.0000000
hochožanskim hochoskem 1.0000000
přesydlištaj pśesedliłej 1.0000000
připrawiło pśicyniło 1.0000000
poćežuje póśěžujo 0.7500000
poćeža póśěžujo 0.2500000
mjechku měku 1.0000000
sćěhuja sćěhuja 1.0000000
mnohoworštowe wjelewarstwowe 1.0000000
drěwčanske drěwcańske 1.0000000
zabawa rozluštowanje 1.0000000
pokročujemy pókšacujomy 1.0000000
“ pufrowane 0.3333333
pufrowane pufrowane 0.6666667
domowinskej domowinskej 1.0000000
spěchowany spěchowany 1.0000000
migrantow migrantow 1.0000000
rodźeni roźone 1.0000000
wěcka wěcka 1.0000000
regala knigłoweje 1.0000000
zbórboliš zaborbocoš 1.0000000
knihow knigłow 0.5957447
słuchoknihow knigłow 0.0212766
zakonika knigłow 0.0638298
scenarijow knigłow 0.0212766
nakładnistwa knigłow 0.0212766
knižkow knigłow 0.0425532
knihi knigłow 0.2340426
handrikowa handrikowa 1.0000000
polkami polkami 1.0000000
wužiwałoj wužywałej 1.0000000
bě pjerwjej 0.0175439
najprjedy pjerwjej 0.0175439
něhdy pjerwjej 0.0350877
NULL pjerwjej 0.0350877
prjedy pjerwjej 0.8421053
do pjerwjej 0.0175439
móžeš pjerwjej 0.0175439
začińće pjerwjej 0.0175439
začinjeće zacynjaśo 1.0000000
405000 405000 1.0000000
njewudate njewudate 1.0000000
zrozumił zrozměł 0.8000000
zrozumich zrozměł 0.2000000
napinace napinajuce 1.0000000
spóznawam spóznawam 1.0000000
6,3 6,3 1.0000000
referendar referendar 1.0000000
spěće stwórtk 0.0357143
štwórtk stwórtk 0.9642857
domizniskej domowniskej 1.0000000
profetiske profetisku 1.0000000
zamjezuje zagranicujo 1.0000000
płódne płodne 0.5000000
płódnu płodne 0.5000000
zakładne jadnore 0.0606061
jednora jadnore 0.0303030
proste jadnore 0.0303030
iban-čisłom jadnore 0.0303030
jednoru jadnore 0.0303030
jednori jadnore 0.0909091
jednore jadnore 0.7272727
jehła jehła 1.0000000
wobeńdźenju wobinjenje 0.5000000
při wobinjenje 0.5000000
wudźeržu wuźaržyjom 1.0000000
wojerske wójakach 0.5000000
su wójakach 0.5000000
časnikow zegerow 1.0000000
rozhorjenje pógóršenje 1.0000000
hišće pomocy 0.0068966
skutkom pomocy 0.0137931
pomocy pomocy 0.8551724
poboku pomocy 0.0689655
njetljebam pomocy 0.0068966
pomoc pomocy 0.0413793
pomocliwy pomocy 0.0068966
měłoj měłej 0.1666667
mějachmoj měłej 0.1666667
měještej měłej 0.6666667
wšelke wšelke 1.0000000
předrěć pśedobyś 1.0000000
hrajkow grajkow 1.0000000
njewumrěje njewumrějo 1.0000000
njenamołwimy njenapominajomy 1.0000000
stilemi stilami 1.0000000
metodam metodam 1.0000000
přesuwać pśesuwaś 1.0000000
płaty sukna 0.2222222
płatu sukna 0.2222222
płata sukna 0.3333333
płatomaj sukna 0.2222222
algoritmom algoritmusa 1.0000000
rubježny rubjažny 0.3333333
za rubjažny 0.3333333
nadpadom rubjažny 0.3333333
přiběra mócnosći 0.5000000
zaklučowansku mócnosći 0.5000000
hiccyna hiccyna 0.5000000
łužicy hiccyna 0.5000000
dirigent dirigent 1.0000000
koncertow koncertow 1.0000000
złym złem 1.0000000
inwestuje inwestěrujo 1.0000000
ondeviceorientation ondeviceorientation 1.0000000
třepjelcowych tšodlatych 1.0000000
wčerawše corajšne 1.0000000
jura pšawo 0.0025316
prawo pšawo 0.9493671
smě pšawo 0.0075949
NULL pšawo 0.0126582
prawa pšawo 0.0025316
wěcy pšawo 0.0025316
wobwinowany pšawo 0.0050633
narodoprawnik pšawo 0.0025316
prawiznu pšawo 0.0050633
narok pšawo 0.0101266
michałskeje michałskeje 1.0000000
wužitnosć wužytnosć 0.8333333
powšitkownowužitnosć wužytnosć 0.1666667
alexander alexander 1.0000000
" access-control-allow-origin 0.2000000
access-control-allow-origin access-control-allow-origin 0.8000000
licencny licencny 1.0000000
hibanje gibanje 1.0000000
wólbach wuskałanju 0.5000000
rozsudnych wuskałanju 0.5000000
belgiskeje belgiskeje 1.0000000
webkonsole webkonsole 1.0000000
referentce referentce 1.0000000
hmm hmmm 0.7500000
hmmm hmmm 0.2500000
kedźbyhódnej późiwanja 1.0000000
žołdk brjuch 0.2500000
cholowy brjuch 0.1250000
spinaja brjuch 0.1250000
brjuch brjuch 0.5000000
mejskej majskeju 1.0000000
zasozarjadowanje zasejzarědowanje 0.5000000
znowazarjadowanje zasejzarědowanje 0.5000000
wumóž wumóž 1.0000000
łžičku łžycku 1.0000000
wokomik njecakajśo 0.5000000
nic njecakajśo 0.5000000
skóncowany njeźěła 0.3333333
njefunguje njeźěła 0.6666667
wow wow 0.6666667
hej wow 0.3333333
rukuzawdaća pówitańsku 0.0322581
rukuzawdaćowu pówitańsku 0.0645161
poškodźenu pówitańsku 0.0967742
witansku pówitańsku 0.0322581
powěsć pówitańsku 0.7741935
žohnować žognowaś 1.0000000
wabjachu wabjachu 0.3333333
wabichu wabjachu 0.6666667
ludwiga ludwiga 1.0000000
samodruhosć samodrugosć 1.0000000
praktikumow praktikumow 1.0000000
wjedź chylaj 1.0000000
etažomaj etažoma 1.0000000
pomjenuja pomjeniju 1.0000000
slubiła zlubiła 1.0000000
duchownej duchowneju 1.0000000
njewotwisnemu njewótwisnemu 1.0000000
dns dns 1.0000000
chórje chorje 1.0000000
zwonka zwonka 1.0000000
popušćeja wuchadaju 0.1000000
wuchadźeja wuchadaju 0.5000000
woteběra wuchadaju 0.1000000
dale wuchadaju 0.1000000
wuchadźa wuchadaju 0.2000000
dowola dowólujo 0.6000000
NULL dowólujo 0.0250000
wam dowólujo 0.0250000
dowoluje dowólujo 0.3500000
płodźił płoźił 1.0000000
zastojnstwow zastojnstwow 0.2857143
zarjadnistwow zastojnstwow 0.2857143
zarjadnišćow zastojnstwow 0.1428571
zarjadow zastojnstwow 0.2857143
lećał leśel 1.0000000
wjeski jsy 0.0363636
wsy jsy 0.8969697
wsach jsy 0.0060606
je jsy 0.0060606
składźe jsy 0.0060606
brjazynu jsy 0.0060606
bukec jsy 0.0121212
wjesce jsy 0.0303030
słušeše słušał 0.8333333
słuša słušał 0.1666667
zasadźuje zasajźujo 0.7391304
zasadźenju zasajźujo 0.0217391
zasadźa zasajźujo 0.1304348
zasadźi zasajźujo 0.1086957
projektoweje projektoweje 0.8000000
projektneje projektoweje 0.2000000
wjedu wjadu 1.0000000
wudźeržeće wuźaržujośo 1.0000000
dóstawam dostawam 1.0000000
cisco cisco 1.0000000
NULL płaśiwy 0.0322581
płaćiwe płaśiwy 0.0161290
płaćiwy płaśiwy 0.9516129
wokomik wokognuśo 1.0000000
bołmončki palmice 1.0000000
pisany pisany 0.7692308
pisomny pisany 0.0769231
pisaniša pisany 0.0769231
barbny pisany 0.0769231
jebatemu jebatemu 1.0000000
čłowjekahódne dostojnu 1.0000000
idejoweho idejowego 1.0000000
rozestajeli rozestajali 0.7500000
rozestajeć rozestajali 0.2500000
css-dataja css-dataja 1.0000000
žadatej ma-li 0.2000000
ma ma-li 0.2000000
ma-li ma-li 0.4000000
jeli ma-li 0.2000000
wobeńć wobinuś 1.0000000
sowjetskich sowjetskich 1.0000000
kulturnymi kulturnymi 1.0000000
zwiskej zwiskoju 1.0000000
zeznał zeznał 1.0000000
rozkraj rozrěž 1.0000000
cyganka cyganka 1.0000000
trójnu tšojnu 1.0000000
swačinje wjacerni 1.0000000
kompetenca kompetenca 1.0000000
zjima zespominujo 1.0000000
budźił póbuźił 1.0000000
librispeech librispeech 1.0000000
kiwnyć kiwnuś 1.0000000
połoži połožy 1.0000000
prošu pšosymu 1.0000000
hrozy katowanja 0.5000000
čwělowanja katowanja 0.5000000
posrědkowace pósrědnjajuce 1.0000000
rozkazu rozkazu 1.0000000
wopytać.zmylkowy woglědaś.zmólkowy 1.0000000
rańšim zajtšnem 1.0000000
wosa wósa 1.0000000
krabatowa krabatowa 1.0000000
štomom bomom 1.0000000
dźělenym źělonem 1.0000000
praktikum praktikum 1.0000000
lětanišćo lětanišćo 1.0000000
kuzła koklujo 1.0000000
marki marki 0.3000000
znamjenja marki 0.7000000
koncentracija koncentracija 0.8000000
koncentraciju koncentracija 0.2000000
stefan stefan 1.0000000
zapřijeć zapśěgnuś 0.8571429
wóz zapśěgnuś 0.0476190
fachowcow zapśěgnuś 0.0476190
zwužitkować zapśěgnuś 0.0476190
nawody wjednika 0.5000000
nawodu wjednika 0.1071429
wjednika wjednika 0.2500000
nawodaj wjednika 0.1428571
karan kruž 1.0000000
wustawowu wustawowu 1.0000000
sekretarow sekretarjowu 1.0000000
wobnowi wobnowijo 1.0000000
teamowy teamowy 1.0000000
maćernorěčneho maminorěcnego 1.0000000
swójstwo swójstwo 0.8750000
mětki swójstwo 0.1250000
wolóžiła wólažcyła 1.0000000
za zaměra 0.1428571
zaměraj zaměra 0.0714286
zaměra zaměra 0.7857143
skupinskim kupkowem 1.0000000
će cymž 0.0769231
kapaliny cymž 0.0769231
čimž cymž 0.7692308
čim cymž 0.0769231
dźěćacej źiśecej 0.5000000
dźěćacym źiśecej 0.5000000
niše niše 1.0000000
wona wobrośiła 1.0000000
přiradźe pśiraźe 1.0000000
błažij błažij 1.0000000
być njemudry 0.2500000
błudny njemudry 0.7500000
swětlik swětlik 0.7500000
swoje swětlik 0.2500000
wumolowanju wumólowanju 1.0000000
sekretarki sekretaŕki 1.0000000
chronist chronist 1.0000000
anomaliju anomaliju 1.0000000
njenamaka-li njenamakajo-li 1.0000000
dobrota dobroś 0.2000000
wón dobroś 0.2000000
dobrotu dobroś 0.6000000
mjeńšina mjeńšyna 1.0000000
specifiku specifikaciju 0.5000000
specifikaciju specifikaciju 0.5000000
wjeleprocesowa wěcejprocesowa 0.5000000
wjaceprocesowa wěcejprocesowa 0.5000000
ležownosće lažownosćí 1.0000000
staplu štapjelu 1.0000000
pryskadle bryzgawy 1.0000000
božim božem 1.0000000
kěrlušom kjarližom 1.0000000
hrajneho partnera 1.0000000
stał stał 0.4444444
stanył stał 0.2222222
stało stał 0.2222222
sčłowječił stał 0.1111111
synchronizowanych synchronizěrowanych 1.0000000
sunu sunu 1.0000000
njezniču nicyś 1.0000000
pruhach pšugami 1.0000000
prawy napšawdny 0.2500000
woprawdźity napšawdny 0.5000000
woprawdźe napšawdny 0.2500000
porjady pórědy 0.7500000
program pórědy 0.2500000
družinach družynach 1.0000000
prjedy něga 0.1153846
tehdy něga 0.0192308
něhdy něga 0.8269231
wón něga 0.0192308
zašłosći něga 0.0192308
porodow naroźenjow 1.0000000
nawróćić pśiś 0.0212766
ličiće pśiś 0.0212766
roznjesć pśiś 0.0212766
dóstać pśiś 0.0638298
přemyslować pśiś 0.0212766
skóncuje pśiś 0.0212766
rozuma pśiś 0.0212766
zastupić pśiś 0.0212766
přińć pśiś 0.4893617
stwu pśiś 0.0212766
stupić pśiś 0.0212766
hić pśiś 0.0212766
wumyslić pśiś 0.0212766
NULL pśiś 0.0851064
přichadźeć pśiś 0.0212766
přińdu pśiś 0.0425532
ćeže pśiś 0.0212766
přistup pśiś 0.0212766
přeprěčić pśiś 0.0212766
zhubić minuś 0.6666667
zhubju minuś 0.3333333
dopomniš dopominaš 1.0000000
přesćěhować pśegónjowaś 1.0000000
kenclije kanclaje 1.0000000
krótkim krotkej 0.5000000
swojim krotkej 0.5000000
zasadźenje zasajźenje 1.0000000
chwalimy chwalimy 1.0000000
spožčichu pósćichu 1.0000000
njewunjesu zasłužbu 1.0000000
zawostajeć wjele 0.0010183
kuliło wjele 0.0010183
łopaću wjele 0.0010183
zbytkow wjele 0.0010183
tójšto wjele 0.0784114
lětstotkami wjele 0.0020367
mnoholičbnymi wjele 0.0010183
kelkož wjele 0.0020367
wjacorych wjele 0.0010183
dołhi wjele 0.0010183
přewjele wjele 0.0081466
NULL wjele 0.0050916
wudźerži wjele 0.0020367
słyša wjele 0.0010183
cyłkownje wjele 0.0010183
zbožowniši wjele 0.0010183
nadosć wjele 0.0010183
sta wjele 0.0010183
zwrěšćili wjele 0.0010183
zwučować wjele 0.0010183
mnoho wjele 0.0692464
hólcy wjele 0.0020367
wjele wjele 0.5865580
kelko wjele 0.0661914
bohatym wjele 0.0010183
kak wjele 0.0010183
jele wjele 0.0010183
rěčnišćo wjele 0.0010183
mnohim wjele 0.0020367
njeličene wjele 0.0020367
troštowani wjele 0.0010183
cyłu wjele 0.0010183
horstka wjele 0.0010183
mnozy wjele 0.0356415
njewjele wjele 0.0010183
lěttysacy wjele 0.0020367
telko wjele 0.0295316
mnohich wjele 0.0437882
špatniša wjele 0.0010183
jara wjele 0.0010183
multiprofesionalne wjele 0.0010183
lute wjele 0.0020367
njeličomne wjele 0.0030550
mnohe wjele 0.0285132
často wjele 0.0020367
wočiwidnje wjele 0.0020367
syntaksu syntaksu 1.0000000
dwójnym dwójnym 1.0000000
přewahu pśewagu 1.0000000
spožčerka pósćiwaŕka 1.0000000
wjelkami wjelkami 1.0000000
kwičeć kwicaś 0.5000000
kwik kwicaś 0.5000000
lejnjanskim lejnjańskim 1.0000000
zawěški zapowjeski 1.0000000
spěšnym spěšnym 1.0000000
dwaceteho dwaźastego 0.6666667
dwaceteje dwaźastego 0.3333333
kaleb kaleb 1.0000000
žona žona 0.6666667
jolka-žona žona 0.3333333
NULL stojnišćoju 1.0000000
nadróžny mawt 0.5000000
popłatk mawt 0.5000000
bědneho bědneje 1.0000000
spěšny malsny 0.9375000
błyskospěšny malsny 0.0416667
NULL malsny 0.0208333
kontekstom kontekstom 1.0000000
ze wowalone 0.3333333
znjemóžnjenymi wowalone 0.3333333
přidatkami wowalone 0.3333333
šěsnateho šesnastego 1.0000000
taborskeje taborskeje 1.0000000
prawicarskoekstremne pšawicaŕskoekstremne 1.0000000
52 52 1.0000000
planujemy planujemy 1.0000000
produkować producěrowaś 1.0000000
disconnect.me. disconnect.me. 1.0000000
čłowjeka pózmakajoš 1.0000000
městnach městnach 1.0000000
kombinacija kombinacija 1.0000000
v1 v1 1.0000000
zastupował zastupował 1.0000000
bydliłoj bydliłej 1.0000000
rozsudźacych rozsuźecych 1.0000000
samowodźene wjeźone 1.0000000
pannernode pannernode 1.0000000
bu pówołany 1.0000000
koncernow koncernow 1.0000000
přećelske pśijaśelske 0.8000000
přećelska pśijaśelske 0.2000000
colgroup colgroup 1.0000000
wupadnyć wupadnuś 1.0000000
čornak čornak 1.0000000
elementy elementy 1.0000000
móžno možno 1.0000000
lubowała lubowała 1.0000000
wopisuju wopisujom 1.0000000
samotnosć samotnosć 1.0000000
hodźinki štundki 1.0000000
kritikow kritikow 1.0000000
st. st. 1.0000000
porsche porsche 1.0000000
wobchadźamy wochadamy 1.0000000
zakładni wukniki 0.0101010
šulerjow wukniki 0.0858586
šulerjo wukniki 0.9040404
słowotwórby słowotwóŕby 1.0000000
podpěrała pódpěrała 0.7500000
podpěrowała pódpěrała 0.2500000
64-bitoweho 64-bitowego 1.0000000
připokazany pśipokazany 1.0000000
zetkawanskich schadowańskich 1.0000000
přepruwowanje pśeglědoanje 1.0000000
łopjeni papjery 0.0400000
kuski papjery 0.0400000
papjery papjery 0.7200000
pajera papjery 0.0400000
łopjeno papjery 0.0800000
cedlka papjery 0.0400000
dokumenty papjery 0.0400000
testujemy testujomy 1.0000000
kralom wachujo 0.2500000
stražuje wachujo 0.7500000
palernju palaŕnju 1.0000000
pomocnikow boršow 1.0000000
rozšěrjenje rozšěrjenje 1.0000000
miniměrował miniměrował 1.0000000
měrosława měrosława 1.0000000
striktny striktny 1.0000000
mentorojo mentory 1.0000000
wernisažu wernisažu 1.0000000
plakaty plakaty 1.0000000
přewróta pśewrota 0.7142857
přewrótowym pśewrota 0.1428571
změny pśewrota 0.1428571
sfałdowanych złožonych 1.0000000
powołanskeje pówołańsku 0.2857143
zasadźensku pówołańsku 0.2857143
powołansku pówołańsku 0.4285714
so njezwopšawdnjuju 0.5000000
same njezwopšawdnjuju 0.5000000
styskało styskało 0.6666667
styskaše styskało 0.3333333
prokuristka prokuristka 1.0000000
browsery browsery 1.0000000
wobhospodarjeć wobgóspodarjowaś 1.0000000
hinašim hynakšem 1.0000000
zmyslenje zmyslonosć 0.6666667
spušćeja zmyslonosć 0.3333333
trjebinskeje trjebinskego 1.0000000
politika politika 1.0000000
kontroluje kontrolěrujo 1.0000000
poćahuje-li póśěgujo-li 1.0000000
feature feature 1.0000000
stawnistwo stawnistwo 1.0000000
worješkec worješkojc 1.0000000
zdźěla informěrujo 0.0232558
informuje informěrujo 0.9767442
najchudša nejchudša 1.0000000
dožiwće dožywśo 1.0000000
dynamiki dynamiki 1.0000000
rafael rafael 1.0000000
zuynkonošaki zukowe 0.0625000
zwukowu zukowe 0.0625000
zynkowe zukowe 0.0625000
zwukowe zukowe 0.6250000
zynkonošaki zukowe 0.1875000
komunikujemy komunicěrujomy 1.0000000
swjedźenach swěźenjach 0.1111111
swjedźenjach swěźenjach 0.8888889
naležnosću naležnosću 1.0000000
hotuje woblaco 1.0000000
