kursanća kursisty 1.0000000
lorenz lorenz 1.0000000
ležownosće lažownosći 1.0000000
ležownosće grunty 0.6451613
ležownosće lažownosćí 1.0000000
nastajiće stajaśo 0.1666667
awtentifikaciski awtentifikaciski 1.0000000
šulskich šulskich 0.9444444
wjerškow wjeraškow 1.0000000
spěchowanskeje spěchowańskej 0.2222222
spěchowanskeje spěchowańskego 0.1250000
spěchowanskeje spěchowańskeje 1.0000000
wučerpać wupóceraś 1.0000000
pósłany wupósłany 1.0000000
pósłany pósłane 0.0909091
pósłany pósłany 0.5714286
wósomdźesat do 0.0006167
wósomdźesat wósymźaset 0.7500000
francosce francojski 0.2857143
sejmje njepósuźujo 0.5000000
sejmje sejmje 1.0000000
sejmje sejm 0.0064935
sejmje sejma 0.0092593
sejmje parlamenśe 0.1538462
přemysła źěłaŕstwa 1.0000000
wokablow wokablow 1.0000000
ekomiliny ekomiliny 1.0000000
ptaka ptaška 0.1666667
zbytki ruiny 0.3333333
zbytki zbytki 1.0000000
rampy rampy 1.0000000
šipka šypki 1.0000000
šěsnaće šesnasćo 1.0000000
berlinje-wartenbergu barlinju-wartenbergu 1.0000000
kandidatam kandidatam 1.0000000
předmjetom pśedmjat 0.0227273
napjelnić połniś 0.1666667
napjelnić napołniła 1.0000000
napjelnić napołniś 0.8571429
argumenta argumenta 1.0000000
werbow werbow 1.0000000
hłowny głowny 0.9411765
hłowny głowne 0.0400000
hłowny głownemu 0.3333333
hłowny główny 1.0000000
hłowny była 0.0076628
slědźenskich slěźeńskich 0.6666667
aktiwizował aktiwizował 1.0000000
aktiwizował aktiwěrował 1.0000000
tajkale wjeliku 0.0151515
tajkale maš 0.0064516
tajkale ty 0.0019268
přijimarjow pó 0.0006238
přijimarjow njamógu 0.0058480
přijimarjow dostawarje 0.5000000
přijimarjow dostawarjow 0.5714286
přijimarjow lisćinje 0.0178571
přijimarjow dostawarja 0.0500000
bitten kusnuś 0.5000000
bitten kótarychž 0.0076923
p-192 p-192 1.0000000
infostejnišćach infostojnicach 1.0000000
wurjadne wjelgickano 0.1111111
wurjadne wurědne 0.6190476
wurjadne wuběrne 0.1666667
sebje NULL 0.0004644
sebje sami 0.0212766
sebje wobchowajom 0.0217391
sebje ze 0.0005543
sebje mějśo 0.0238095
sebje se 0.0004869
sebje sebje 0.0531520
sebje z 0.0001352
sebje ja 0.0007168
sebje pósobicy 0.1666667
sebje tebje 0.0046083
sebje sobu 0.0025189
sebje źiwaj 0.3000000
słužitej słužytej 1.0000000
napomni jo 0.0000693
napomni napominała 0.2000000
wutwarimy napóraś 0.0106383
wutwarimy mócnjejše 0.2000000
krjudował kśudował 1.0000000
złym złem 1.0000000
złym złym 0.6250000
złym zły 0.0714286
njewohańbił njewósromośił 1.0000000
wótpósłać wótpósłaś 0.0555556
wrappers wrappers 1.0000000
ličakow licadłow 1.0000000
optimizować optiměrowaś 0.3333333
najstrašnišej nejtšašnjej 1.0000000
mróčelow mrokawow 1.0000000
wupućowaše wudrogował 1.0000000
ewangelskej ewangelskej 0.7500000
ewangelskej ewangelskeju 1.0000000
přeblisko pśeblisko 1.0000000
přednošk pśednosk 1.0000000
monarchiji monarchiji 1.0000000
ambry . 0.0000211
ambry ambry 0.4666667
ambry do 0.0003084
ambry namakaś 0.0045249
hasńće zagasćo 0.5000000
hasńće ! 0.0004380
mjezyskład mjazywótkład 1.0000000
boršičanka boršičanka 1.0000000
nazhonjenjow nazgónjenjow 0.9090909
lěšće- lěšće- 1.0000000
wuklukować wucycowaś 1.0000000
globowe globowe 1.0000000
židźino židźino 1.0000000
napohlad naglěd 0.8222222
napohlad póglěd 0.3333333
napohlad wuglědanje 0.1666667
napohlad wenkowny 0.1250000
aktualizaciskim aktualizaciskem 1.0000000
wopodstatnjenjom wobkšuśenim 0.5000000
wopodstatnjenjom wobtwarźenim 0.5000000
parisu parisu 1.0000000
wšón wšen 0.4285714
wšón wujšła 0.1250000
wšón wšyken 1.0000000
wšón ceły 0.0229885
wšón wšo 0.0218978
přewjedźemy pśewjeźomy 1.0000000
přewjedźemy pśewjedujomy 0.2857143
přewjedźemy NULL 0.0002322
přewjedźemy ako 0.0006369
jutře witśe 1.0000000
matyjojce matyjojce 1.0000000
procha pórał 0.5000000
procha proch 0.1428571
procha malsnje 0.0090090
procha pšec 0.0181818
procha gruzle 1.0000000
procha procha 0.7500000
balonku balonku 1.0000000
dohladowarskej doglědowańskego 1.0000000
zabyty zabyty 1.0000000
přewzajće pśewzejśo 0.5000000
mudru mudre 0.2000000
mudru mudru 1.0000000
debić pyšniś 1.0000000
železnicy daś 0.0061538
železnicy zeleznice 1.0000000
kwoće kwośe 1.0000000
dźensnišemu źinsajšnemu 1.0000000
1947 1947 1.0000000
wobsahi wopśimjeśa 0.3523810
wobsahi wopśimjeśe 0.0049261
njepisajće njepišćo 1.0000000
wuhotowanju wugótowanju 1.0000000
wuhotowanju wugótowanje 0.0212766
artiklej artikloju 1.0000000
wjerch taki 0.0079365
wjerch wjerch 0.6521739
wjerch helski 0.2500000
text text 1.0000000
wothrali wótgrali 1.0000000
statnej statnej 1.0000000
statnej statneju 0.2500000
wuwiwała dale 0.3333333
wuwiwała wuwijała 0.6666667
moch łakosćony 0.3333333
moch mech 0.7741935
moch měki 0.1000000
moch jen 0.0023310
moch buźo 0.0017123
moch ten 0.0042735
wuhotujeće wugótujośo 1.0000000
dach dał 0.0241935
dach som 0.0017778
wotkazej linkoju 1.0000000
wotkazej wótkazoju 0.9000000
ćěkancy wuběgańce 1.0000000
ćěkancy by 0.0011111
rozrjadowanym rozrědowanem 1.0000000
zašlahany sćěnu 0.3333333
zašlahany zastajili 0.6666667
zašlahany zarosćona 0.2000000
rozhladajće rozglědujśo 0.2500000
wotwołowanje wótwołowanje 1.0000000
lawy lawa 0.3333333
lawy lawy 0.8000000
badp badp 1.0000000
jewješe jawiśo 1.0000000
jewješe nastało 0.1250000
jewješe jo 0.0002080
pisali pisali 0.6666667
css-lěsycy css-kśidna 1.0000000
appy appy 1.0000000
pyšenku pyšnotku 0.2000000
předsydami pśedsedarjami 1.0000000
jakny twardy 0.2500000
jakny chytšy 0.5000000
mjezsobnej mjazsobnej 1.0000000
krawc krawc 1.0000000
krawc 2014 0.0277778
krawc šlodaŕ 0.5000000
cofnjeće anulěrujośo 0.5000000
linethickness linethickness 1.0000000
njewěcowne a 0.0001245
njewěcowne njewěcowne 1.0000000
njewěcowne kuždycke 0.4000000
podrobnosćow drobnostkow 1.0000000
schowam taše 0.0666667
schowam chowaś 0.2500000
schowam derje 0.0042283
schowam ja 0.0014337
schowam NULL 0.0002322
schowam zakšyto 0.2500000
schowam a 0.0000623
schowam wobchowajom 0.0217391
schowam schowajom 0.6000000
schowam wěsće 0.0166667
mylacy mólece 0.2222222
allow až 0.0002495
zachowaju zachowaju 0.3333333
stronske pśesegujucy 0.3333333
stronske strony 0.0151515
wěnuja pśiwobrośe 1.0000000
wěnuja zaběraju 0.0588235
wěnuja nadawkami 0.4000000
wěnuja zjawnymi 0.2000000
wěnuja ze 0.0011086
złotych złotych 0.6666667
starosćemi starosćow 0.2666667
starosćemi dla 0.0088300
starosćemi starosćami 1.0000000
płat płachtu 0.0322581
płat sukno 1.0000000
železnicu zeleznicu 0.8000000
teologiske teologiske 1.0000000
warnoćic warnoćic 1.0000000
tepta tepta 1.0000000
zatrašowace zdušajuce 1.0000000
cross-origin cross-origin 1.0000000
kónčna kóńcna 1.0000000
nadawkow nadawkow 0.9714286
hasow gasow 1.0000000
video video 1.0000000
wulězć wulězć 1.0000000
8000 8000 1.0000000
rozprawy lašowaś 0.0078740
rozprawy rozpšawy 1.0000000
rozprawy rozprawy 1.0000000
słyšacym słyšecym 0.3333333
lajskich lajskich 1.0000000
wupłakać wupłakaś 1.0000000
wědoweje wědoweje 1.0000000
wědoweje za 0.0001234
wolóžić wólažcyś 0.8000000
wolóžić wólažcujo 0.1818182
wolóžić wolažcyś 1.0000000
dobrowólnu dobrowólnu 1.0000000
přechad pśechad 0.1250000
paliło w 0.0002087
paliło paliło 0.6666667
optimalna optimalna 1.0000000
škitajcé šćitajśo 0.0454545
přibližnje pśibližnje 1.0000000
přibližnje něźi 0.0037313
tutomu za 0.0002467
tutomu tej 0.0050000
tutomu slědom 0.2500000
tutomu tomu 0.0951327
tutomu tutomu 1.0000000
tutomu toś 0.0105676
tutomu k 0.0003378
ptačka ptaška 0.8333333
sucha sucha 0.4285714
nuzowe nuzowe 0.6666667
namakankami namakankami 1.0000000
kasami kasami 1.0000000
wahu wagu 1.0000000
hodźinskich góźinskich 1.0000000
płokanska pałkańska 1.0000000
odnorfowe odnorfowe 1.0000000
wotrjadnicy wótrědnice 1.0000000
skutkom statkom 0.3333333
skutkom pomocy 0.0137931
skutkom na 0.0002278
móžeš móžo 0.0016313
móžeš kuse 0.1666667
móžeš móžos 0.7500000
móžeš dołoj 0.1250000
móžeš NULL 0.0004644
móžeš zwucowanjow 0.1666667
móžeš wumějoš 0.5000000
móžeš mógała 0.0064935
móžeš móžóśo 1.0000000
móžeš mógał 0.0291262
móžeš móžoš 0.7264957
móžeš rejujo 0.2000000
móžeš pjerwjej 0.0175439
móžeš mógu 0.0013123
móžeš rozmějoš 0.0769231
móžeš / 0.0014815
móžeš su 0.0002199
móžeš mózoš 1.0000000
móžeš móžośo 0.0014347
wosobje wósobje 0.7000000
wosobje wosobje 1.0000000
wosobje wósobnje 1.0000000
wotedaća wótedaśa 1.0000000
zapisować zapisowaś 0.7500000
zwuk zuk 0.3529412
naiwna naiwna 1.0000000
durinska durinska 1.0000000
pasioněrowanych pasioněrowanych 1.0000000
lěhwo lěgwo 0.8571429
lěhwo logor 0.3333333
lěhwo natwarili 0.0416667
lěhwo městka 0.3333333
megabytaj megabyta 1.0000000
matrix matrix 1.0000000
0.1 0.1 1.0000000
cyfru cyfru 0.5000000
pryskadłom bryzgowakom 1.0000000
pryskadłom wódowym 1.0000000
argumentowanju argumentěrowanju 1.0000000
pohonča kutšaka 1.0000000
kupcowskich za 0.0002467
kupcowskich produktow 0.0625000
ludy tatanje 0.6666667
ludy ludy 1.0000000
ludy ludow 0.1111111
1996 1996 0.7500000
klankow pupkow 0.7500000
mučnu wumucnjeło 0.5000000
podrjadowak pódzarědnik 0.5000000
wupada zdawa 0.0384615
wupada něźi 0.0037313
wupada wóna 0.0014663
wupada wón 0.0013596
wupada woglědajo 0.0666667
wupada było 0.0025641
wupada zmuśone 0.2000000
wupada myta 0.0370370
wupada to 0.0001871
wupada wuglěda 0.8571429
wupada zazdaśim 0.0158730
wupada młynikaŕ 1.0000000
wupada wuglědajo 0.4444444
wupada wšedne 0.0454545
wupada ga 0.0017123
wupada jo 0.0001386
wupada by 0.0011111
wupada NULL 0.0002322
wupada derje 0.0021142
wupada wóno 0.0111111
wupada wuglědaju 0.1578947
wólnu wólne 0.2000000
krótkorukawacy krotkorukawaty 1.0000000
štyrjomi styrjomi 1.0000000
štyrjomi styrimi 1.0000000
štyrjomi styri 0.0142857
njejewja njepokazuju 0.2000000
njekidnu wulaś 0.1666667
dźěławosć pó 0.0012477
dźěławosć źěłabnosć 0.9583333
dźěławosć źěła 0.0060976
dźěławosć pšawje 0.0111111
zmylk zmólka 0.9689922
zmylk pšosym 0.0013793
zmylk zmólku 0.8648649
zmylk zmylk 1.0000000
zmylk adresy 0.0500000
zmylk pśespytowanje 0.0126582
zmylk tymzmólkam 1.0000000
zmylk NULL 0.0006965
zaspěwaj zaspiwaj 1.0000000
mužu mužu 1.0000000
začitali zacytali 1.0000000
plestr flastaŕ 0.5000000
rewizorojo rewizory 1.0000000
wunuzowanu wunuźonu 1.0000000
spěchowanej spěchowanej 1.0000000
witaj-pěstowarnje witaj-źiśownje 1.0000000
wudaty wudany 1.0000000
wudaty wudaty 1.0000000
wudaty wudał 0.0833333
wudaty wudała 0.5000000
wobtwarjenje wobtwarjenje 1.0000000
wudaća wudaśa 1.0000000
přemyslował źěłaś 0.0088496
přemyslował weto 0.0064935
přemyslował cu 0.0080645
přemyslował wobmyslił 0.2000000
zhibadłowa zgibadłowa 1.0000000
wukonjanych wugbanych 1.0000000
bulank bulank 1.0000000
min-width min-width 1.0000000
njekomplikowane njekomplicěrowanu 0.8000000
njekomplikowane njekomplicěrowane 1.0000000
namjetować naraźiś 0.7142857
namjetować naraźowaś 1.0000000
alfabetizowanje alfabetizěrowanje 1.0000000
złobiš gniwaš 1.0000000
inowatiwne inowatiwne 1.0000000
přepytaj pśepytuj 1.0000000
přepytaj pśespytuj 1.0000000
přepisujeće pśepisujośo 1.0000000
zahrjebać zakopaś 1.0000000
wjacerěčnych wěcejrěcnych 0.5000000
bože bóžu 0.2500000
bože bogowa 1.0000000
bože bóže 0.8333333
bože bože 1.0000000
bože stupny 1.0000000
bože bóža 0.3000000
bože bóžych 0.3333333
bože bóze 1.0000000
zawitkom jabłukowym 1.0000000
zawitkom zawitkom 0.5000000
runjež wobsłuž 0.5000000
runjež jan 0.0120482
runjež jano 0.0008340
wohrožować něco 0.0020661
wohrožować nacyniś 0.3333333
stražuju žrědłu 0.3333333
stražuju kamjenja 0.1111111
stražuju kralojskim 0.5000000
stražuju tek 0.0052083
stražuju pśetrajom 1.0000000
stražuju nad 0.0054645
stražuju som 0.0008889
stražuju wachuju 0.5000000
pazorkow pazorkow 1.0000000
blečki flacki 1.0000000
regulowane regulěrowane 1.0000000
popcorn popcorn 1.0000000
žiwjenjahódne žywjenja 0.0245902
žiwjenjahódne gódne 0.1000000
softwarowej softwaroweju 1.0000000
neiß neiß 1.0000000
paslachu baslili 1.0000000
hmpff hmpff 1.0000000
woznamjenja ma 0.0041040
woznamjenja wóznamjenjuju 1.0000000
woznamjenja groni 0.0037594
woznamjenja wjelgin 0.0015798
woznamjenja wóznamjenijo 0.6764706
woznamjenja znani 0.2222222
woznamjenja NULL 0.0002322
woznamjenja drogotny 0.0357143
woznamjenja groniś 0.0168067
woznamjenja na 0.0006834
woznamjenja woznamjenijo 1.0000000
woznamjenja typk 0.2500000
woznamjenja co 0.0016353
woznamjenja ignorěrowany 0.5000000
woznamjenja wóznamjenjujo 0.7500000
woznamjenja prezentěrujo 0.2500000
woznamjenja markěrowaś 0.0769231
mjasa měsa 1.0000000
mjasa šło 0.0270270
wobeńć wobejś 0.6250000
wobeńć wobinuś 1.0000000
wobeńć až 0.0002495
wobeńć NULL 0.0002322
wobeńć wobijaś 1.0000000
uv-pruham uv-pšugam 1.0000000
wažniši wažniši 1.0000000
wažniši wažnjejše 0.2000000
wažniši wažnjejšy 0.1666667
wažniši wažnejše 1.0000000
nawjedowaše nawjedował 0.6363636
nawjedowaše jo 0.0006239
nawjedowaše nawjedowała 1.0000000
jednanskeho jadnańskego 1.0000000
dojednawatej dojadnatej 1.0000000
njeje njjeo 1.0000000
njeje ťeden 1.0000000
njeje až 0.0002495
njeje njejsu 0.0108696
njeje chórosći 0.0454545
njeje wózjawjanje 0.5000000
njeje njejpo 1.0000000
njeje ’ 0.0238095
njeje njamaju 0.0151515
njeje imap4 0.3333333
njeje njeje 0.6428571
njeje šyśu 0.3333333
njeje hymaptego 0.2500000
njeje rubaś 0.2500000
njeje njewótegronijo 0.2500000
njeje njogo 0.0108696
njeje njabogi 0.0588235
njeje njedej 0.1000000
njeje pśedpisany 0.5000000
njeje kompatibelny 0.1428571
njeje wuchójźišćow 0.5000000
njeje njama 0.0056180
njeje kokulka 0.5000000
njeje njegronje 0.2500000
njeje dispoziji 0.5000000
njeje wěźeł 0.0384615
njeje napisa 0.1666667
njeje drožki 0.1428571
njeje zewšym 0.0125000
njeje mysl 0.0344828
njeje njedajo 0.0535280
njeje cogodla 0.0056818
njeje do 0.0003084
njeje spózy 0.3333333
njeje dopołnjony 0.3333333
njeje nejeje 1.0000000
njeje kjarcmje 0.0588235
njeje procesami 0.5000000
njeje njekašli 0.3333333
njeje njegóźi 0.0689655
njeje herman 0.2500000
njeje wawrje 0.1666667
njeje njepikajucy 0.5000000
njeje njesmějo 0.0123457
njeje wopěrał 0.3333333
njeje wobkšuśony 0.2000000
njeje stwórśina 0.5000000
njeje wótpórane 0.1111111
njeje css-barwa 0.5000000
njeje ist 1.0000000
njeje importěrowańska 0.3333333
njeje hympjo 1.0000000
njeje njejp 1.0000000
njeje kśěn 0.0400000
njeje njejo 0.7764384
njeje cele 0.0131579
njeje tykni 0.5000000
njeje njamógu 0.0116959
njeje png-dataja 0.5000000
njeje njej 0.0389610
njeje xhtml 0.5000000
njeje wěriła 0.5000000
njeje njewiźim 0.0434783
njeje wóstaj 0.0769231
njeje opml-dataja 0.5000000
njeje jo 0.0014557
njeje łužyskeje 0.0285714
njeje zymna 0.1666667
njeje byś 0.0013774
njeje NULL 0.0030183
njeje njoco 0.0307692
njeje móžny 0.1785714
powólnjenjach wólažcenjach 1.0000000
boješe bójał 0.1666667
rěznistwu rěznikaŕni 1.0000000
čakajće cakajśo 0.9444444
kerku kricku 1.0000000
sewjerorynsko-westfalskeje nordrhein-westfalskeje 1.0000000
sewjerorynsko-westfalskeje pódpołnocneje 0.2500000
sewjerorynsko-westfalskeje póryńsko-westfalskeje 1.0000000
huškata mrozowata 0.7500000
přećelna pśijaśelna 0.5000000
přećelna pśijazna 0.5714286
přećelna , 0.0000318
pišćele orgele 1.0000000
kooperacija kooperacija 1.0000000
přewodźerkow pśewóźowaŕkow 1.0000000
wuchadźišćo wuchadnišćo 1.0000000
wuchadźišćo wuchaźišćo 1.0000000
koncepcija koncepcija 1.0000000
poćahuje póśěgujo 1.0000000
poćahuje pósěgujo 1.0000000
uuuhh nětko 0.2500000
čerwjena cerwjenu 0.5000000
čerwjena cerwjene 0.0769231
čerwjena cerwjena 0.7500000
hojer gójaŕ 0.6666667
hojer hojer 1.0000000
hojer chórosći 0.0454545
schadźenja schadanja 1.0000000
předpisane pśedpisane 0.2000000
argumentuje argumentěrujo 1.0000000
dopóznaću dopóznaśu 1.0000000
ryzy cysta 0.1250000
ryzy cysteju 1.0000000
ryzy cysty 0.1250000
ryzy cyste 0.2222222
ryzy sterjejšyńskich 0.5000000
ryzy cysto 1.0000000
ryzy cystego 0.3333333
pohodnoćenjom pógódnośenim 1.0000000
wopory wopory 1.0000000
konkretneje konkretneje 1.0000000
rana rana 1.0000000
přinoškam pśinoskow 0.1111111
přinoškam pomocu 0.0051546
holanska gólańska 1.0000000
25. 25. 1.0000000
měrić měriś 0.7500000
kosmosu kosmosu 1.0000000
njemóžeja njamógu 0.0058480
njemóžeja njejo 0.0005479
drje zbrašony 0.1000000
drje pśedłujko 0.1250000
drje NULL 0.0025540
drje napšawdu 0.0028653
drje se 0.0001391
drje sucha 0.1428571
drje musy 0.0043668
drje njeby 0.0057803
drje pśeklapanosću 0.5000000
drje drje 0.9315068
drje ga 0.0051370
drje źe 0.1888889
drje nejskerjej 0.0740741
drje mógał 0.0032362
drje pšawje 0.0055556
drje wutriksowaś 0.3333333
drje wužywał 0.0172414
drje labujo 0.3333333
drje napisane 0.0666667
drje uniforma 0.1666667
drje pótakem 0.0084746
drje daś 0.0030769
drje zazdaśim 0.0317460
drje mrětwa 0.0434783
drje słyšał 0.0256410
drje njeměrne 0.3333333
drje zawěsće 0.0138889
drje pali 0.1666667
přiwěšk pśidank 0.4347826
přiwěšk pśiłožk 1.0000000
cyłodnjowskich cełodnjowskich 1.0000000
přichodnemu wobźěłało 0.0769231
přichodnemu nejblišemu 1.0000000
přichodnemu pśiducemu 1.0000000
přichodnemu pśichodnemu 1.0000000
hosćej gósća 0.1666667
facebooka facebooka 0.5000000
idejam idejam 1.0000000
wustorči wustarkujo 1.0000000
premiumowe premiumowe 1.0000000
wobknježenje k 0.0003378
wobknježenje wobkněženje 1.0000000
próši sypjo 1.0000000
zwjazkowemu zwjazkowemu 1.0000000
zwjazkowemu zwězkowemu 1.0000000
worješkami wórješkami 1.0000000
wobzamknje wobzamknjo 0.9666667
nowowotewrjenje wótwórjenje 0.1250000
nowowotewrjenje nowe 0.0022727
zeznaću zeznaśu 1.0000000
zeznaću zeznaśe 0.3333333
zeznaću zeznaśeju 1.0000000
zawróćił zawrośił 1.0000000
přisłušacymi pśisłušajucymi 1.0000000
hwěžkow gwězdkow 0.8000000
zakótwjeny zapisany 0.2000000
zakótwjeny zakórjenity 1.0000000
zakótwjeny wustajone 0.1764706
zakótwjeny kšuśe 0.0400000
zakótwjeny zakokulone 0.5000000
zakótwjeny wustajony 1.0000000
13.1.1 13.1.1 1.0000000
mjerzanje górjenje 0.5000000
kontinuiće kontinuiśe 1.0000000
modlće módliśo 1.0000000
darniwej darniweju 1.0000000
romje romje 1.0000000
miliardźe miliarźe 1.0000000
pohóršk wobśěžkanje 0.7500000
mějachmy NULL 0.0002322
mějachmy sym 0.1250000
mějachmy raz 0.0012422
mějachmy smy 0.0192644
mějachmy měli 0.0358423
mějachmy dejali 0.0064103
rozłožowanja rozkładowanja 0.5000000
zelenych zelenych 1.0000000
mazaneho jen 0.0023310
mazaneho płachty 0.1250000
mazaneho trik 0.2000000
mazaneho wumazaneje 1.0000000
mazaneho njerěšne 0.1666667
mazaneho njerěšneje 0.8000000
mazaneho rog 0.0434783
rejwanske rejowańske 1.0000000
rejwanske rejowaŕske 1.0000000
zaznać póznawaś 1.0000000
chódba źurjami 0.1111111
chódba tymi 0.0222222
chódba za 0.0001234
baritona głosa 0.0625000
baritona połnego 0.2000000
sahaja segaju 1.0000000
sahaja dosegaju 0.6666667
wjazoliš słopotaś 1.0000000
wjazoliš buźoš 0.0333333
krajnoradneho krajneje 0.0689655
wobrazliwosć wobraznitosć 1.0000000
zasadźeja zasajźuju 0.0833333
zadźěrali grakałej 1.0000000
předstajeny pśedstajony 1.0000000
mamy-li mamy-li 1.0000000
windowsu windowsu 1.0000000
fibble filutekoju 1.0000000
postajeć póstajaś 0.6000000
postajeć póstajiś 0.1000000
dejki dojki 1.0000000
zwyšić zwušyś 1.0000000
pjekarkam pjakaŕkam 1.0000000
wotpočowanju wótpócywanju 1.0000000
type type 1.0000000
setattributenodens setattributenodens 1.0000000
wjedźetej wjeźotej 1.0000000
zadnjej slěznem 0.5000000
zadnjej slědnej 0.2500000
mytował mytował 1.0000000
temje temu 0.0303030
temje temje 1.0000000
wotkrywa wótekšyjo 1.0000000
wotkrywa pśichadajuce 0.5000000
kenclije kanclaje 1.0000000
ard ard 1.0000000
městach měsće 0.0084746
městach NULL 0.0002322
městach městach 0.8666667
interagěrujeće interagěrujośo 0.2500000
kóncuje kóńcujo 1.0000000
profiloweho profilowego 1.0000000
twojeho na 0.0001139
twojeho bogow 0.2500000
twojeho psom 0.2500000
twojeho twójogo 0.7083333
twojeho něco 0.0020661
twojeho njogo 0.0108696
twojeho NULL 0.0002322
mócnarstwo mócnaŕstwo 1.0000000
dźiwajo glědajucy 0.0111111
dźiwajo źiwajucy 0.5555556
zasadźena zasajźona 1.0000000
změrowany změrowany 1.0000000
policajskich policajskich 1.0000000
městnom běrowami 1.0000000
městnom městnom 0.5384615
flex flex 1.0000000
rěčiš powědaš 0.7368421
rěčiš powědaś 0.0142857
rěčiš wěste 0.0076923
rěčiš rozgranjaš 1.0000000
rěčiš my 0.0032573
rěčiš ty 0.0038536
rěčiš móžoś 1.0000000
rěčiš se 0.0000696
rěčiš powědała 0.0625000
rěčiš což 0.0019231
rěčiš měniš 0.0357143
rěčiš dogroniś 0.1666667
rěčiš smy 0.0017513
rěčiš sy 0.0021231
krjepjawy pórěźaś 0.1250000
krjepjawy kanu 0.3333333
krjepjawy / 0.0014815
krjepjawy a 0.0000623
lěsna gólna 0.8333333
dnjoweho dnjownego 1.0000000
dnjoweho źiśownje 0.0405405
pazory capy 1.0000000
pazory take 0.0049020
pazory pazory 1.0000000
nastup pśistup 0.0055866
speech speech 1.0000000
njewotćehń njewótśěgni 1.0000000
dorozumjenju dorozměśu 1.0000000
dorozumjenju dorozměśeju 1.0000000
dorozumjenju pśeśiwo 0.0057803
narysował namólował 1.0000000
iv iv 1.0000000
iv wugel 0.2000000
iv raźił 0.0416667
administratorowe administratorowe 0.3333333
někim někim 1.0000000
sćehnjeće ześěgnjośo 1.0000000
wozjewjenska wózjawjeńska 1.0000000
c2pnb163v3 c2pnb163v3 1.0000000
wuměnkarjo wuměńkarje 1.0000000
zapadołužiskeho pódwjarcornołužyskego 1.0000000
ćěrjakom gónjakom 1.0000000
ćěrjakom ) 0.0009398
ćěrjakom treiber 1.0000000
ćěrjakom ( 0.0009416
ćopło śopło 0.5000000
ćopło how 0.0010288
wobchowowanje wobchowanje 0.3333333
wobchowowanje wobchowowanje 1.0000000
horliwišo zapalono 1.0000000
horliwišo tomu 0.0022124
wukńće wukniśo 1.0000000
skoćata zbóžko 0.2500000
skoćata nabyty 0.1666667
skoćata woły 0.2105263
skoćata jim 0.0039370
skoćata gramny 0.2500000
skoćata zwěrjeta 0.0322581
skoćata te 0.0029112
os os 1.0000000
printmedije printmedije 1.0000000
njepřizwoli njepśigłosyjo-li 1.0000000
kalendra kalendaŕ 0.0714286
fantastiskich fantastiskich 1.0000000
škodowanju škódowanju 1.0000000
posłužbnistwa słužbywugbaśa 1.0000000
zežiwidła zežywidła 1.0000000
zežiwidła zežywadła 1.0000000
zežiwidła loda 0.0909091
zežiwidła žywidła 0.8571429
wobraz.gif wobraz.gif 1.0000000
sorna sarna 1.0000000
natwarili natwarili 0.2916667
twoji twóje 0.1136364
wudobyli wudobywali 1.0000000
wopokojił změrował 0.2500000
budźetaj buźotej 0.1250000
tajkemu zesrańca 0.5000000
tajkemu dla 0.0022075
tajkemu takemu 0.7500000
wobpřija wopśimjejo 0.0166667
błótach pśez 0.0009083
błótach drogowanje 0.1428571
błótach błotach 0.8139535
błótach NULL 0.0002322
zarjaduje-li zarědujo-li 1.0000000
file.lastmodifieddate file.lastmodifieddate 1.0000000
zwubrała wubrała 0.1250000
zwubrała now 0.3333333
přidźěluje pśipisujo 1.0000000
poćił znojł 1.0000000
dobyćach dobyśach 1.0000000
walkować walkowaś 1.0000000
natočenjemi nagraśami 1.0000000
chorhojemi chórgojami 1.0000000
íframe-zasadźenja íframe-zasajźenja 1.0000000
atraktiwniše atraktiwnjejše 1.0000000
ćežach śěžkosćach 0.5000000
ćežach śěžach 1.0000000
ani nim 0.0062893
ani jadnučkego 0.2000000
ani nic 0.0026525
ani wócka 0.5000000
ani njamaš 0.0370370
ani njegmjo 1.0000000
ani žedneje 0.0400000
ani kjarloju 0.3333333
ani na 0.0001139
ani my 0.0032573
ani słowka 0.2500000
ani ani 0.9090909
ani njemysli 0.2857143
ani zewšym 0.0562500
ani zeschnuło 0.2000000
ani minutki 1.0000000
ani wót 0.0005359
ani wěstosću 0.0833333
ani wótprěwaś 0.5000000
ani njesměju 0.0204082
ani njekśěšo 0.5000000
ani słyšaś 0.0149254
ani teke 0.0012937
ani NULL 0.0006965
ani samo 0.0222222
ani danži 1.0000000
ani daniž 0.6062500
ani razka 0.7906977
ani tek 0.0052083
předchadnicy wachowali 1.0000000
předchadnicy pśechadniki 1.0000000
předchadnicy pśed 0.0022472
předchadnicy su 0.0002199
předchadnicy prědowniki 0.2000000
předchadnicy nama 0.0666667
předchadnicy ako 0.0003185
superspěšny supermalsny 1.0000000
přepodał pśepódał 0.8750000
přepodał pśepodał 0.8333333
chwataše chwatała 1.0000000
chwataše jo 0.0000693
box box 1.0000000
box na 0.0001139
box pśikład 0.0025381
sposrědkowanym pósrědnjonem 1.0000000
sobe sobe 1.0000000
dypkaj dypka 0.3333333
ansamblej ansambloju 1.0000000
chodźće njom 0.0119048
wupjelnja pśez 0.0009083
wupjelnja stawa 0.0142857
wupjelnja stajenje 1.0000000
wupjelnja połni 1.0000000
wotměwaceho wótmětego 1.0000000
wěstnotnu wěstnotna 0.5000000
wěstnotnu wěstnotnu 1.0000000
wěstnotnu wěstotnu 0.1111111
ćišćerskeho śišćarskego 0.3333333
ćišćerskeho śišćaŕskego 0.6666667
rysuje kresli 1.0000000
rysuje wopisujo 0.0333333
mandźelsku žeńsku 0.0357143
mandźelsku manźelsku 1.0000000
122 122 1.0000000
sekretarach sekretarjach 1.0000000
navida navida 1.0000000
betakanala betakanala 1.0000000
změrcowske wurownańske 1.0000000
słuchanskich słuchańskich 1.0000000
swjedźensku swěźeńsku 1.0000000
limity limity 1.0000000
ekologiju ekologiju 1.0000000
stawk štrajk 1.0000000
powyšće pówušćo 1.0000000
samosignowany samosigněrowany 1.0000000
krajinoweho krajinowego 1.0000000
tr tr 1.0000000
łóju žaby 0.0454545
ženij mudry 0.0476190
ženij pśeliš 0.0113636
stykowałoj styknułej 1.0000000
hortowych hortowych 0.3333333
dopołdnišeho wob 0.0142857
dopołdnišeho dopołdnjejšego 1.0000000
dopołdnišeho cas 0.0020000
přewjedźeše jo 0.0001386
přewjedźeše pśewjadł 0.0500000
wokomikej wokognuśu 0.0476190
předźěła pśeźěła 1.0000000
manoush manoush 1.0000000
š-š-što co-co 1.0000000
š-š-što c-c-co 1.0000000
marcel marcel 1.0000000
substantiw substantiw 1.0000000
zašłosć zachadnosć 1.0000000
zwari zwarijo 1.0000000
znaty woblico 0.0526316
znaty znaty 0.8648649
znaty wuwołany 0.3333333
znaty s. 0.0043290
znaty južo 0.0009690
znaty NULL 0.0002322
znaty znata 0.0500000
znaty znate 0.0108696
wobdźělichmy smy 0.0017513
šěri rozšyrja 0.2857143
šěri rozšyrjujo 1.0000000
wobškodźiła wobškóźiła 0.2500000
wobškodźiła ms-exchange 0.5000000
utf-8 utf-8 0.9000000
nprjedy nnježli 1.0000000
posrědkowane pósrědnjone 0.5000000
zranjenych zrazonych 1.0000000
zranjenych zbrašonych 0.2142857
zranjenych a 0.0000623
aktualna aktualne 0.0192308
aktualna aktualny 0.0212766
aktualna aktualna 1.0000000
wudawarjej wudawarjeju 1.0000000
papjerowu papjerowu 1.0000000
pastora fararja 0.0454545
chutnje serioznje 0.6666667
chutnje akutnje 1.0000000
chutnje napšawdu 0.0028653
chutnje pówažnje 1.0000000
mazanu mazany 0.1666667
mazanu njerěšnu 0.2500000
kumštna kumštna 1.0000000
pyšić pyšić 1.0000000
okcitančankam okcitancankam 1.0000000
pawoła pawoła 1.0000000
składowali składłi 1.0000000
składowali składowali 1.0000000
składowali składli 0.8750000
naroka pominanja 0.0222222
naroka wupominanja 0.0370370
dwójka dwójka 1.0000000
hole góli 0.0212766
hole góle 0.0625000
přežiwiłoj njejo 0.0005479
přežiwiłoj pśežywiłej 1.0000000
přežiwiłoj k 0.0003378
přežiwiłoj pśisamem 0.0081967
21 21 1.0000000
špektakula pisanego 0.1666667
špektakula graśa 0.0081301
nsdap nsdap 1.0000000
pochadźace póchadajuce 1.0000000
spomalenje spómałšenje 0.6666667
šikwanu tek 0.0052083
šikwanu do 0.0003084
šikwanu rědneje 0.2500000
pokročowal pókšacowal 1.0000000
šwjerč šwjerc 0.5000000
strukturowany strukturěrowany 0.6666667
předstajene pśedstajone 1.0000000
kecke jo 0.0000693
kecke kecke 1.0000000
předchadny až 0.0002495
předchadny pjerwjejšny 0.2500000
předchadny tym 0.0017637
symantec symantec 1.0000000
awtentifikaciska awtentifikaciska 1.0000000
awtentifikaciska awtentificěrowańsku 0.2000000
wotesłać wótpósłaś 0.0555556
wotesłać wótesłaś 1.0000000
mimo mimo 0.0021277
wobohaćić wobogaśiś 0.6666667
zwučować wjele 0.0010183
zwučować zwucowaś 0.8181818
wuzwolenja wubraśe 0.5000000
wuzwolenja wólnosć 0.2222222
zwuraznjeja zwuraznjuju 1.0000000
zwuraznjeja zwuraznjatej-li 1.0000000
zwuraznjeja raźi 0.0833333
powěsćoweho powěsćowego 1.0000000
powěsćoweho tekstowy 0.1111111
zadźeržało zaźaržało 1.0000000
wosobinska wósobinska 1.0000000
telefonowe telefonowe 0.6000000
telefonowe telefonowy 1.0000000
najnišim nejnišem 1.0000000
režija režija 1.0000000
nabožniskich religioznych 1.0000000
dosłowa dosłowa 1.0000000
zapakowaneho zapakowanego 1.0000000
bohateje bogatego 1.0000000
połojca połojca 0.8571429
~ ~ 1.0000000
šansa šansa 1.0000000
gratulowała gratulěrowała 1.0000000
klaca klěco 1.0000000
winowatostneho obligatoriskego 1.0000000
wothrał wóthrał 1.0000000
wothrał wótgrał 1.0000000
parkowanišća parkowanišća 1.0000000
kěrchowy kjarchoby 1.0000000
marja maria 0.7777778
marja marija 0.2000000
marja marja 0.6666667
widejowobsaha wideowopśimjeśa 1.0000000
marsowi marsowe 1.0000000
1280x800 1280x800 1.0000000
wosadnemu wósadnemu 1.0000000
namjetami naraźenjami 0.8000000
dojednaneje dojadnaneje 1.0000000
populisća populisty 1.0000000
hriwnu marku 0.1538462
płachće płachśe 1.0000000
wjerćace wobwjertne 0.5000000
animować animěrowaś 1.0000000
kontrolnej kontrolnej 1.0000000
wubrana wubrana 1.0000000
wubrana wubrany 0.3076923
ručne rucne 0.8888889
wulětnišća wulětnišća 1.0000000
šijawu šyjarnu 1.0000000
sekretaromaj sekretarjoma 1.0000000
dobje statkowańskej 1.0000000
dobje planowanja 0.0476190
dobje dobje 1.0000000
dobje casu 0.0169492
dobje perioźe 0.7000000
dokumenta dokumenta 0.9230769
pódkowy pódkowy 0.8000000
pódkowy kopyta 0.4000000
frank frank 0.5000000
honjeńcam góńtwam 1.0000000
kubłanišća rěšeńske 0.5000000
kubłanišća NULL 0.0002322
kubłanišća kubłanišći 0.2500000
kubłanišća kubłanišćo 0.0476190
kubłanišća kubłanišća 0.9565217
kubłanišća kubłanja 0.0169492
kubłanišća šulu 0.0119048
lekcijow lekcijowu 1.0000000
lekcijow lekcijow 1.0000000
sadach sadach 0.6000000
8.2.1 8.2.1 1.0000000
wuwićowy wuwiśowy 1.0000000
nowoměšćanskej nowoměsćanaŕskej 1.0000000
wutworitej su 0.0004398
wutworitej wutwórili 0.2857143
swětlinow swětlinow 1.0000000
deskriptor deskriptor 1.0000000
hewake howacne 0.7142857
zrozumliwe jasne 0.0138889
zrozumliwe rozymliwe 0.8000000
zrozumliwe rozměśu 0.3333333
zrozumliwe k 0.0006757
zrozumliwe NULL 0.0004644
komdźenjom wokomuźenim 1.0000000
ministerski ministaŕski 1.0000000
plackom cookiejom 1.0000000
łužiskeje łužyskeje 0.8285714
metropoli metropoli 1.0000000
metropoli wuwił 0.0512821
ćišćenje śišćanje 0.9166667
ćišćenje NULL 0.0002322
městopředsydku zastupnego 0.1250000
městopředsydku zastupnicu 0.5000000
městopředsydku pśedsedarku 0.5000000
městopředsydku pśedsedarja 0.0204082
serbskimi serbskimi 0.9178082
serbskimi ze 0.0005543
serbskimi serbskim 0.0140845
nich wódnjo 0.0555556
nich tom 0.0007893
nich pomjenili 0.5000000
nich NULL 0.0002322
nich nje 0.2162162
nich nich 0.8322581
nich šulow 0.0144928
nich połojca 0.0714286
doskónčnje dokóńcnje 1.0000000
doskónčnje ceło 0.0119048
mnichowa mnichowa 0.9130435
psm psm 1.0000000
lěpšemu lěpšemu 0.6000000
šěrokosć šyrokosć 1.0000000
šěrokosć šyrokosći 1.0000000
jancy jancy 1.0000000
traće cas 0.0040000
traće traśe 1.0000000
wustawoškit šćit 0.0087719
wustawoškit wustawowy 0.3333333
připokazanje dispoziciji 0.0023981
připokazanje k 0.0003378
připokazanje pśipokazanje 1.0000000
jano jan 0.0120482
migrantow migrantow 1.0000000
čisće wótpisaś 0.2500000
čisće do 0.0003084
čisće wewšosć 1.0000000
čisće nowučke 0.5000000
čisće napśeśiwneju 0.3333333
čisće nowučki 0.5000000
hłosowanje głosowanje 0.3157895
nastrojam rědam 0.1666667
http-hłowu http-głowu 1.0000000
filmowa filmowa 1.0000000
1915 1915 1.0000000
sčasom nigdy 0.0263158
sčasom jěsno 0.1250000
sčasom z 0.0001352
sčasom ja 0.0007168
sčasom scasom 0.8750000
sčasom we 0.0005760
sčasom zawcasa 0.8750000
sčasom casom 0.0666667
sčasom póstarało 0.5000000
wotpósłanju dochaźe 0.1250000
bjatkaŕ bjatkaŕ 1.0000000
wohrěwa pśikłaźoš 0.3333333
wohrěwa wugrěwa 1.0000000
wohrěwa grějo 0.2000000
dwulětnu dwójolětnej 0.5000000
dwulětnu dwójolětnu 1.0000000
inteligentneho inteligentnego 1.0000000
socketa soketa 1.0000000
socketa pisaś 0.0163934
korbika kórbika 0.8000000
darmotna kóńc 0.0069930
darmotna dermotna 1.0000000
darmotna licha 0.0833333
protykow kalendarjow 1.0000000
burskeju burskej 1.0000000
posměwkom pósmjejkom 1.0000000
dodźerži zlubjenje 0.0588235
dodźerži źaržaś 0.0338983
wurisanju wuběźowanju 0.1724138
wurisanju wupadowańskem 1.0000000
nčińmy ngótujmy 1.0000000
dwubarbny dwójobarwny 1.0000000
80. 80. 1.0000000
skupinskich kupkowych 1.0000000
kombinuj kombiněruj 1.0000000
kombinuj kobiněruj 1.0000000
kombinuj konbiněruj 1.0000000
sćežory sćažory 1.0000000
septembrom septembrom 1.0000000
negaciski negaciski 1.0000000
přerězne pśerězne 1.0000000
jězdźa jězdźe 1.0000000
wšo kuždycke 0.2000000
wšo wótwuknuł 0.5000000
wšo za 0.0001234
wšo změniš 0.5000000
wšo było 0.0051282
wšo pšašaj 0.0454545
wšo mi 0.2000000
wšo to 0.0001871
wšo což 0.0019231
wšo wšo 0.6496350
wšo wše 0.0058824
wšo wšyknych 0.0068493
wšo wěcach 0.0555556
wšo wulicujom 0.1666667
wšo smějo 0.0114943
wšo wšykno 0.1235060
wšo NULL 0.0004644
wšo słyšali 0.0400000
titulom titulom 1.0000000
titulom titelom 1.0000000
zbrašenje brachy 0.3333333
směrnicu směrnicu 0.7777778
směrnicu směrnice 0.0222222
směrnicu njewopśimujo 0.1428571
spěwać spiwaś 0.9166667
hawbu hawbu 1.0000000
składuje spomnjejo 0.2500000
składuje składujo 0.9565217
składuje NULL 0.0006965
nawabi nawabiło 0.2500000
nawabi nawabił 1.0000000
nawabi jo 0.0000693
wołaš wołaš 1.0000000
wołaš źerjoš 0.2500000
wołaš kśikaš 1.0000000
wućahi wuśěgi 1.0000000
britannica britannica 1.0000000
njewočakwoanu njewócakanu 0.0555556
připóznawanske připóznawanske 1.0000000
připóznawanske pśipóznawańske 1.0000000
radebeulu radebeulu 1.0000000
nahladnosć naglědnosć 0.7500000
kultusoweje kultusoweje 1.0000000
njezapřijima njeregistrěrujo 1.0000000
1605153 1605153 1.0000000
filantropiske filantropiske 1.0000000
paletu paletu 1.0000000
přetorhnyć pśetergniś 1.0000000
přetorhnyć anulěrowaś 0.0444444
přetorhnyć pśetergnuś 0.9629630
bogna bogna 1.0000000
wikowanje wikowanje 0.8333333
zasłužće zasłužćo 1.0000000
ministrow ministarjow 1.0000000
klubach klubach 1.0000000
2.1.2 2.1.2 1.0000000
finančnym financnem 0.0769231
zbywacym zbywajucym 1.0000000
wobdźěłajće wobźěłajśo 1.0000000
wuknjacym wuknucym 1.0000000
wuknjacym wuknjecym 1.0000000
nječaporowe cajk 0.1000000
nječaporowe a 0.0000623
nječaporowe njecajk 0.2500000
nječaporowe ako 0.0003185
kwalitatiwnych kwalitatiwnych 1.0000000
zawinowali zawinowali 1.0000000
rajskich paradizowych 1.0000000
šerjenjam tšašydłam 1.0000000
złowólnym złosnym 0.5000000
pólske pólske 0.3333333
přewjeduja wuwijaju 0.0322581
přewjeduja pśewjedu 0.1428571
přewjeduja pśewjeduju 0.6923077
nješkitane nješćitane 1.0000000
wuchadźeli wuchadali 0.4000000
sćežka sćažka 0.1250000
pakćikach pakśikach 1.0000000
energijowohospodarskeho energijowogóspodaŕskego 1.0000000
sejmarja sejmarja 1.0000000
njestarosć njebój 0.1875000
njestarosć njestarosć 1.0000000
njestarosć njegótuj 0.5000000
njestarosć starosći 0.0416667
njestarosć starosćow 0.0666667
njestarosć žednych 0.0666667
njestarosć sebje 0.0024722
rybami rybami 1.0000000
kontrowersa kontrowersa 0.5000000
kontrowersa w 0.0001044
kontrowersa nastupnosći 0.0081967
nastorčił nastorčił 1.0000000
nastorčił póstarcył 0.5000000
chórowy chorowy 1.0000000
zabitych zabitych 1.0000000
woprawdźitu napšawdnu 1.0000000
woprawdźitu bytosć 0.3333333
zarywaja zarywaju 1.0000000
zapłaćenju zapłaśenju 1.0000000
njeporadźiła NULL 0.0002322
překlepany spjacony 1.0000000
překlepany pśeklapany 0.2857143
mjelčicy mjelcyno 1.0000000
macos macos 1.0000000
znjewužiwali znjewužywało 0.3333333
patricija patricija 1.0000000
wuradźowaštaj wobradowałej 1.0000000
wuradźowaštaj stej 0.0025773
lěze lězo 0.5000000
přebywaće pśebywaśo 1.0000000
rjekńće grońśo 0.1666667
njepřepruwowany ( 0.0009416
njepřepruwowany njepśeglědany 0.2000000
njepřepruwowany sydło 0.1250000
njepřepruwowany s 0.0005624
njepřepruwowany njepśespytany 1.0000000
njepřepruwowany pśeglědany 0.0909091
njepřepruwowany % 0.0005453
njepřepruwowany ) 0.0009398
dźěłałoj gromaźe 0.0128205
dźěłałoj źěłałej 1.0000000
rězbarske rězbaŕske 0.5000000
statutow wustawkow 0.0188679
master-dźěłach masterowych 1.0000000
master-dźěłach wótzamknjenjach 0.5000000
neptun juž 0.0070922
neptun neptum 1.0000000
neptun neptun 1.0000000
poselstwje wideopósołstwje 0.5000000
poselstwje jo 0.0001386
padow padow 1.0000000
zasozwjazanje zasejzwězanje 1.0000000
telemetrijowy telemetrijowy 1.0000000
preferuja preferěruju 1.0000000
bědy bědy 0.5000000
kodowych kodowych 1.0000000
ljubljana ljubljana 1.0000000
demokratiskemu demokratiskemu 1.0000000
y y 1.0000000
přenošeja pśenosuju 0.5000000
wužiwanskich wužywaśskich 1.0000000
wužiwanskich wužywańskich 1.0000000
wužiwanskich słužbnych 0.1000000
off-the-record off-the-record 1.0000000
nuzne nuzowyma 0.5000000
nuzne nuzowe 0.3333333
nuzne chwatali 0.3333333
nuzne nuznje 0.0625000
nuzne nuzne 1.0000000
dopomnjećow dopomnjeśow 1.0000000
lubje lubje 0.6666667
lubje wutšobnje 0.1000000
přetohrnył pśetergnuł 0.0333333
rozpušćenju rozpušćenje 0.0500000
rozpušćenju rozpušćenju 1.0000000
nadróžni drogowe 1.0000000
iihh brrr 0.5000000
serbšćinje zwjaseliś 0.1250000
serbšćinje kubłaju 0.2500000
serbšćinje serbšćinje 1.0000000
serbšćinje rěcy 0.0031104
serbšćinje serbskej 0.0142857
kopyčka měški 0.2000000
kritiskim kritiskim 1.0000000
dokumentuje pismje 0.1666667
dokumentuje dokumentěrujo 0.8095238
wobhonili wobgónili 1.0000000
šćežce sćažce 0.6000000
naprjedy nejpjerwjej 0.0071429
tokena tokena 1.0000000
wupomhacemu wupomagajucemu 1.0000000
wupińće wušaltujśo 1.0000000
wupińće wótšaltujśo 1.0000000
jakub jakub 0.6666667
jakub teke 0.0004312
jakub jakuba 0.0833333
nadróžne drozne 1.0000000
spušćeće spušćaśo 0.3333333
wobmjezpwać wobgranicowaś 0.0416667
prócow procow 1.0000000
ličby . 0.0000211
ličby ličby 1.0000000
ličby licby 0.9411765
ličby wobźěłało 0.0769231
dojednałoj zjadnałej 1.0000000
dojednałoj wobjadnej 0.6666667
dojednałoj dojadnali 0.0454545
dojednałoj dojadnałej 1.0000000
dojednałoj wobjadnałej 1.0000000
hnujaca gnujuca 1.0000000
hnujaca gnujuce 0.1250000
njepodpisany njepódpisany 1.0000000
sensibelny sensibelne 0.0666667
sensibelny za 0.0001234
sensibelny pšawidła 0.0103093
wuwiwarskeho wuwijaŕskego 1.0000000
wuwiwarskeho wuwijarskego 0.5000000
zawrjeskało zarjagotało 1.0000000
póstowe žednych 0.0333333
póstowe postowe 0.5714286
póstowe postowej 0.1666667
póstowe gołbje 0.5000000
póstowe njamóźośo 0.3333333
wužitnu filialnu 0.2500000
wužitnu wužytnej 0.2500000
wužitnu wužytnu 1.0000000
parkej parkoju 1.0000000
jewił jawiła 0.2500000
lampy lampy 0.6666667
18,6 18,6 1.0000000
rodźiš maš 0.0064516
rodźiš rad 0.0075188
serbowali powědali 0.0512821
serbowali serbski 0.0026918
serbowali serbowali 1.0000000
kontejneroweho kontejnerowego 1.0000000
přikazach pśikazach 1.0000000
přewulka pśewjelika 1.0000000
bolitej bólitej 1.0000000
aktualizowany aktualizěrował 0.0476190
jednotliwc jadnotliwc 0.8333333
namakać.je namakaś.jo 1.0000000
sfalšowane sfalšowane 1.0000000
wobstało wobstało 1.0000000
zarjadnišću instituciji 0.2500000
zarjadnišću zastojnstwje 0.1000000
runohódnym rownogódnem 1.0000000
informaciju informaciju 0.9047619
zuwa njejo 0.0005479
zuwa wuźaržanju 0.2500000
zuwa to 0.0001871
lěs góla 0.3750000
lěs how 0.0010288
lěs gólu 0.7272727
lěs błoto 0.3333333
lěs błota 0.0370370
lěs tak 0.0006431
polěpšenu pólěpšonu 1.0000000
polěpšenu polěpšenu 1.0000000
wusydlencow wusedlarjow 1.0000000
hesłowu gronidłowu 1.0000000
nanka nana 0.0526316
mokrych mokšych 1.0000000
zarjadniske zastojańske 1.0000000
zarjadniske zastojnstwowe 1.0000000
zarjadniske zastojnske 0.5000000
wotskazaće wótskažośo 1.0000000
metodach metodach 1.0000000
wšelakore wšakich 0.0138889
wšelakore wšakorake 0.2790698
wšelakore wjelerake 0.5000000
wšelakore wšakoraku 0.2500000
multiprocesowym multiprocesowem 1.0000000
multiprocesowym multiprocesowym 1.0000000
wobchad wobchadanja 0.1666667
wobchad wobchad 0.8518519
wobchad wobchadanje 0.4444444
delnja dolna 0.8095238
muzyczny muzyczny 1.0000000
kwotowe kwotowe 0.6666667
kwotowe k 0.0003378
kwotowe njedajo 0.0024331
přihotuju pśigótujom 1.0000000
přihotuju pśigótuju 0.0312500
startowanjom startowanim 1.0000000
woblubowane woblubowane 0.7692308
njestartujeće njestartujośo 1.0000000
niwow niwow 1.0000000
powołanju pówołanju 0.7894737
powołanju powołanju 1.0000000
powołanju powołanja 0.4000000
sławni znate 0.0108696
stawje stawje 1.0000000
stawje stawoju 0.1538462
stawje NULL 0.0002322
stawje situaciji 0.1666667
jenacy jadnake 0.1111111
jenacy wšyknych 0.0068493
jenacy jadnak 0.0526316
jenacy lubo 0.2500000
jenacy ma 0.0006840
zwobraznjenjom zwobraznjenim 0.7500000
delnjoserbšćiny dolnoserbskeje 0.0714286
delnjoserbšćiny rěcy 0.0015552
delnjoserbšćiny dolnoserbšćiny 1.0000000
delnjoserbšćiny znaśow 0.2500000
perpleksny perpleksny 1.0000000
cc-by-sa cc-by-sa 1.0000000
žněje žnějo 1.0000000
komercielnym komercielnym 1.0000000
mytowali mytowali 0.2500000
atributom atributom 1.0000000
předpołožili pśedpołožyli 1.0000000
podležał pódlažał 1.0000000
zdźěłowanske wótkubłańske 0.1666667
přesćěhowarja pśegónjowarja 1.0000000
wotrězku wótrězku 1.0000000
wotrězku wótstawku 1.0000000
premiumowy premiumowy 1.0000000
set set 1.0000000
připrawjenu pśicynjonu 1.0000000
hłubokotwarskich dłymokotwaŕskich 1.0000000
rejowali rejowali 0.5000000
awtentifikaciskim awtentifikaciskim 1.0000000
awtentifikaciskim awtentifikaciskem 1.0000000
wrotow namakaś 0.0045249
wrotow wrotow 0.6000000
wrotow wiźeś 0.0055556
připinaće pśipinaśo 1.0000000
zamolwjenska procowanja 0.0243902
warnuje warnujo 0.9166667
wotstawkam wótstawkam 1.0000000
psychologa psycholog 1.0000000
fasetach fasetach 1.0000000
multiperspektiwnemu multiperspektiwnemu 1.0000000
kopicu kopicu 0.2631579
kopicu kradu 0.0086957
memorykartkow memorykórtkow 1.0000000
niže nižej 1.0000000
vr vr 1.0000000
zdźěłowanski wótkubłański 0.1428571
sudana sudana 1.0000000
jězdźidła jězdźidła 1.0000000
jězdźidła pódšmarnuł 0.0338983
zadźerža wótewześu 0.1666667
zastupowaše zastupowašo 1.0000000
namyslene pómyslone 1.0000000
kralowa kralowa 0.5000000
zadarmo dermotny 0.0344828
zadarmo dermo 0.1363636
zadarmo darmo 1.0000000
zadarmo zadermo 0.5000000
zadarmo nic 0.0013263
zadarmo wótedaś 0.0666667
estetika estetika 1.0000000
statna statna 1.0000000
ćmowe śamne 0.6363636
ćmowe śmojte 1.0000000
bukečanow bukec 0.0526316
bukečanow wobydlari 0.3333333
bukečanow žednych 0.0333333
bukečanow tom 0.0007893
dobroćelskej dobrotnostnej 1.0000000
přetwarach pśetwarjenjach 1.0000000
wčera cora 0.9836066
postprodukciju postprodukciju 1.0000000
transparentnišo transparentnjej 1.0000000
nowowólba nowowólba 1.0000000
socialni socialne 0.0923077
pokłady za 0.0001234
pokłady pókładom 0.3333333
pokłady pókłady 0.8571429
streetball streetball 1.0000000
hospodarskostrukturnym góspodaŕskostrukturnem 1.0000000
hodowničku gódownicku 1.0000000
webstronje webstronje 1.0000000
webstronje webboku 1.0000000
augusta augusta 1.0000000
lubinskeho lubinskej 1.0000000
dekomprimowanju dekompriměrowanju 1.0000000
krabatowej krabatoweju 1.0000000
krabatowej krabatowej 1.0000000
krótka krotka 1.0000000
pachoł narski 0.0625000
pachoł ten 0.0008547
pachoł kjarl 0.1333333
pachoł młoźeńc 0.1666667
pachoł gólc 0.0769231
pachoł pachoł 0.8181818
dźesaćlětny źaseślětny 1.0000000
železniska zelezniska 1.0000000
zapis NULL 0.0002322
zapis noticu 0.3333333
zapis zapisk 0.0344828
zapis zarědnik 0.2162162
zapis zapis 1.0000000
předdopušćenski pśedpśipušćeński 1.0000000
barbje barwje 0.9285714
změrowani změrowane 1.0000000
serbstwje serbske 0.0019881
serbstwje to 0.0001871
kmjeny rody 1.0000000
awtonomne awtonomne 1.0000000
wožiwjeny žywy 0.0123457
mnohotnosć wjelerakosć 0.3888889
mnohotnosć wjeleserakosć 0.2500000
připóznatymi pśipóznatymi 1.0000000
kemšow namšy 0.0588235
zakónčena zakóńcone 0.1428571
linije linije 1.0000000
podzemju ilegaliśe 1.0000000
rozšěrjeneje rozšyrjoneje 1.0000000
njeakceptuja njeakceptěruju 1.0000000
wuznamjenjenju wuznamjenjenju 0.5000000
sadam sadam 1.0000000
słony słony 1.0000000
zniči znicy 1.0000000
zniči pśewobrośiło 1.0000000
zniči jo 0.0000693
zniči znicyjo 1.0000000
gpl gpl 1.0000000
marmelada slěwkowa 0.3333333
marmelada marmelada 0.8750000
marmelada wuglědajo 0.0277778
přihotowali pśigótowali 1.0000000
přihotowali psigótowali 1.0000000
porjeńšeja pśerědnjaju 1.0000000
inaktiwna inaktiwna 1.0000000
skonfigurowane skonfigurěrowane 1.0000000
potrjebu pótrjebu 0.8857143
potrjebu pótrjebnosć 0.3333333
wotsadźomne wotsajźiś 0.5000000
twarili twarili 1.0000000
pomhanje pomaganje 0.5000000
zasowužiwanje zasejwužywanje 1.0000000
zasowužiwanje nastupa 0.0256410
boršć boršć 1.0000000
wozrodźerjo wózroźowarje 1.0000000
wozrodźerjo su 0.0002199
naćiski nacerjenja 1.0000000
naćiski naraźenja 0.0092593
naćiski pśedłogi 0.1481481
umsch umsch 1.0000000
marxizma marxizma 1.0000000
awstralska awstralska 0.5000000
předźěłowanje pśeźěłowanje 0.9230769
předźěłowanje wobźěłowanje 0.1666667
kumšt wuměśe 1.0000000
kumšt kumšt 0.5000000
zestajeć zestajiś 0.1666667
zestajeć zestajaś 0.8333333
wobroćće wobrośćo 1.0000000
mandźelskej žeńskeju 0.6666667
mandźelskej manźelskeju 1.0000000
gmejnskej gmejnskem 0.2857143
gmejnskej gmejnskej 1.0000000
njehodźeše pórědne 0.1250000
njehodźeše njejo 0.0021918
njehodźeše góźeło 0.1428571
njehodźeše . 0.0000211
wotstronjeja wótpóraju 0.3000000
wotstronjeja wótwónoźuju 1.0000000
kwisa kwisa 1.0000000
zažiwjenja zažywjenja 0.5000000
pedagogowkow pedagogowkow 1.0000000
zahibał zapušćił 1.0000000
nowše nowše 0.8000000
sobustawskich cłonkojskich 0.6666667
sobustawskich cłonkojske 0.0833333
chołmje chołmje 1.0000000
manfredej mafredoju 1.0000000
www.openh264.org www.openh264.org 1.0000000
wodźić wózyś 0.5000000
wodźić wóźiś 1.0000000
wodźić wjasć 0.0178571
smolinach smólinach 1.0000000
smolinach su 0.0004398
inowatiwny inowatiwny 1.0000000
inowatiwny nałožował 0.3333333
kategorjiow kategorjiow 1.0000000
zapłaćenja z 0.0002705
zapłaćenja zapłaśenja 0.6428571
hóstnych śpy 0.0526316
woprawdźita napšawdna 0.5000000
woprawdźita wopšawdna 0.6666667
woprawdźita pšawy 0.0285714
zwjeseli zwjaselijotej 1.0000000
zwjeseli zawjaseli 1.0000000
zwjeseli rozwjaselijo 1.0000000
wróćicy wótměnje 1.0000000
počesćeny pócesćił 1.0000000
praži pjaco 0.3333333
naměstnicow zastupnikow 0.0344828
nul nul 0.6000000
raznje raznje 0.6250000
arabicuma arabicuma 1.0000000
prócował procował 1.0000000
njepředawamy njepśedawamy 1.0000000
strukturu strukturu 1.0000000
strukturu struktury 0.0357143
komisijow komisijow 1.0000000
datum datum 0.9600000
datum płaśiwosći 0.0476190
pěškoweho pěškowego 1.0000000
abonujeće se 0.0000696
abonujeće aboněrujośo 1.0000000
650 650 1.0000000
wóskowanju wóskowanju 1.0000000
c2pnb368w1 c2pnb368w1 1.0000000
předpisuje pśedpisujo 1.0000000
lóši lažčejšy 1.0000000
lóši lažcejšy 1.0000000
přichwata pśišli 0.0714286
přichwata su 0.0004398
wužiwane kótarež 0.0005640
wužiwane wužywane 0.6923077
wužiwane rozdźělone 0.1111111
api-naprašowanja api-napšašowanja 1.0000000
transgresiw transgresiw 1.0000000
kulowskeje kulojskeje 1.0000000
atomoweje atomoweje 1.0000000
popušćeja wuchadaju 0.1000000
wobłukowych wobłukowe 0.0909091
wobłukowych kupki 0.0045045
wobłukowych wobłuk 0.0250000
wobłukowych za 0.0001234
wobłukowych boku 0.0084034
studentskich studentskich 1.0000000
prochej prochoju 1.0000000
pohódnoćeja manuskripty 0.2000000
pohódnoćeja pógódnośuju 1.0000000
přesahnjenjach přesahnjenjach 1.0000000
lěhwow lěgwa 0.0714286
docpějće dojśpiśo 1.0000000
architekća architektow 0.3333333
architekća architekty 1.0000000
płun płun 1.0000000
prusej pšusoju 0.5000000
někotrymžkuli někotarymžkuli 1.0000000
hětu sebje 0.0012361
hětu budku 0.6666667
url-mjeno url-mě 1.0000000
klawěrje klawěrje 1.0000000
najwušim nejwušem 0.3333333
trěbnosć trjebnosć 1.0000000
socialneho socialnego 1.0000000
zawinowacy zawinujucy 1.0000000
eliptiska eliptiska 1.0000000
hrajnemu grajnemu 1.0000000
njepřeradźu za 0.0001234
njepřeradźu pśeraźiś 0.0625000
njepřeradźu sebje 0.0012361
njepřeradźu pśeraźijom 0.3333333
njepřeradźu to 0.0001871
njepřeradźu wobchowajom 0.0217391
pozbudźować pózbuźowaś 0.3333333
pozbudźować pógnuwaś 0.1666667
pozbudźować NULL 0.0002322
wobchowaja zachowaju 0.3333333
wobchowaja z 0.0001352
wobchowaja makanju 1.0000000
wobchowaja wobchowaju 0.1250000
wobchowaja našymi 0.0833333
wobchowaja w 0.0001044
moderěrowanej moderěrowanej 1.0000000
snědani snědanju 1.0000000
referenta referenta 1.0000000
referenta abo 0.0003934
wudźěłanje wuźěłanje 0.2000000
wjedniki wjedniki 0.0588235
delnjoserbskich gronjakow 0.3333333
delnjoserbskich dolnoserbskich 0.6666667
słužbu słužbu 1.0000000
milionow miliony 0.0714286
milionow milionow 0.9795918
słuchane to 0.0001871
słuchane rozmějucego 1.0000000
słuchane słyšane 0.2000000
rjadej rědoju 0.1428571
wosebiteje wokolina 0.1666667
wosebiteje wósebneje 1.0000000
wosebiteje wósebna 0.0526316
přijědźechu su 0.0004398
přijědźechu kólasowarje 0.2000000
biseksualny biseksualny 1.0000000
financielneho financielnego 1.0000000
žónske žeńske 0.0232558
žónske žeńskece 1.0000000
žónske žeński 0.3333333
wućahow wuśěgow 1.0000000
verwahrlosten over 0.3333333
njekomunikujeće njekomunicěrujośo 1.0000000
zaručeja zarucyjo 0.0454545
zaručeja se 0.0000696
zaručeja zarucyli 1.0000000
droganc mócny 0.0277778
droganc logan 1.0000000
wobjednawaše wobjadnašo 1.0000000
wěšćerstwo zwěšćelujo 1.0000000
wěšćerstwo zagranja 0.5000000
swědomjom wědobnosću 1.0000000
heitmann heitmann 1.0000000
woswjećili wóswěśili 1.0000000
ertnych wustnych 1.0000000
regionach regionach 1.0000000
zwoprawdźomne realizěrujobne 0.6666667
słóncu słyńcu 0.1666667
słóncu we 0.0005760
słóncu błyšći 0.1538462
słóncu kšanje 0.3333333
alfabet alfabet 1.0000000
swjatočnosć swětocnosć 1.0000000
ponowjenym wobnowjonem 1.0000000
pohibowanju gibanju 0.2500000
załoženych załožonych 1.0000000
stupacych stupajucych 1.0000000
zaktiwizował zaktiwěrował 1.0000000
telefonej telefonoju 1.0000000
zarjady amty 0.6666667
zarjady zastojnstwa 0.2150538
žołdźe žołźe 1.0000000
běž žeń 0.6666667
běž źi 0.0158730
wotrosćace wótrostujuce 1.0000000
žadyn zewšym 0.0062500
žadyn kowal 0.0312500
žadyn nikula 0.0714286
žadyn njestarajśo 0.2000000
žadyn nic 0.0092838
žadyn stawny 0.1428571
žadyn składowański 0.1428571
žadyn ale 0.0006489
žadyn namakało 0.0769231
žadyn žednu 0.0625000
žadyn NULL 0.0004644
žadyn nichten 0.0090090
žadyn žeden 0.7573529
žadyn maminego 0.5000000
žadyn lubjej 0.0058140
žadyn žednogo 0.1052632
žadyn šwicałka 0.0400000
žadyn se 0.0000696
žadyn žedna 0.0178571
žadyn štapcami 0.2000000
wumjenk wuměńk 0.0500000
protyki radu 0.0133333
protyki njejsui 0.5000000
protyki kalendera 1.0000000
protyki kalendery 1.0000000
protyki kalendarje 0.7692308
protyki kalendarja 1.0000000
njestandardna njestandardna 0.4285714
hübner hübner 1.0000000
předstajiłoj pśedstajiłej 0.6666667
minisuknju minikóšulu 1.0000000
wotinstalowanje wótinstalěrowanje 1.0000000
wotinstalowanje wótinstalowěranje 1.0000000
produkciskim produkciskem 1.0000000
produkciskim produkciskim 1.0000000
najkrótši nejkrotša 1.0000000
znjesć znjasć 1.0000000
fabrika fabrika 1.0000000
25-lětni 25-lětne 1.0000000
spřećiwja wopěra 1.0000000
dźěwinskim dźěwinskej 1.0000000
twórbu twóŕbu 1.0000000
hosća gósća 0.8333333
table-row table-row 1.0000000
požadachu pódali 0.2857143
požadachu pominanja 0.0444444
požadachu su 0.0004398
rozesłała rozesłała 1.0000000
886 886 1.0000000
kliknjeni kliknjeni 1.0000000
priwantnosć priwantnosć 1.0000000
wěšćenje wěšćenje 1.0000000
wěšćenje njejsom 0.0044643
yahoo yahoo 1.0000000
wotpowědnemu wótpowědnemu 1.0000000
wuzamknjewny wuzamknjony 0.3333333
wuzamknjewny se 0.0000696
prědowany zapowědany 1.0000000
includesubdomains includesubdomains 1.0000000
konfigurował konfigurěrował 0.8000000
konfigurował konfigurěrowany 0.0833333
konfigurował konfigurował 1.0000000
wuradźowała wobradowała 1.0000000
lubuja NULL 0.0002322
lubuja lubuju 0.4583333
dalej dalej 0.0015106
dalej źiśo 0.0322581
lěsnej swětlinje 0.2500000
lěsnej gólnej 1.0000000
lěsnej w 0.0001044
lěsnej gólneju 0.6666667
róžanta róžanta 1.0000000
wusměšowanje wusměšowanje 1.0000000
třěšna kšywowa 1.0000000
1980-tych 1980-tych 1.0000000
přitřihować pśirězowaś 1.0000000
jónkrótnje jadnoraznje 0.3333333
wothladali njewótglědali 1.0000000
fascinowani fasciněrowane 1.0000000
praskota praskota 1.0000000
šulerjo wukniki 0.9040404
šulerjo šule 0.0079051
šulerjo wuknikow 0.0129870
šulerjo tak 0.0012862
skoržiš žałosćiš 1.0000000
wujednanskim wujednańskimi 1.0000000
wětrnikarjej wětšnikarjoju 1.0000000
jednobarbne jadnobarwne 1.0000000
matomo matomo 1.0000000
wuznamjenjenjow wuznamjenjenjow 1.0000000
winowatosćow winowatosćow 0.7500000
winowatosćow zawězkow 0.5000000
potrjecheny pótrjefjony 0.7142857
top top 1.0000000
chorhojčki chórgoji 0.3333333
łužiscy łužyske 0.6111111
maš njasoš 1.0000000
maš ten 0.0008547
maš jen 0.0023310
maš dejš 0.1363636
maš móžoš 0.0042735
maš twój 0.0138889
maš maš 0.7935484
maš maśo 0.0044643
maš musał 0.0294118
maš móliš 0.1250000
maš se 0.0001391
maš ty 0.0077071
maš dejał 0.0052910
maš NULL 0.0004644
maš pśemóžoš 0.2500000
maš měł 0.0039841
maš sy 0.0084926
maš znajoš 0.0370370
maš dej 0.0043290
maš něnt 0.0034483
maš to 0.0005612
maš woblacony 0.5000000
składowane dostaś 0.0094340
składowane składowanych 0.3333333
składowane skłaźone 0.9400000
składowane skłaźonym 0.5000000
składowane k 0.0003378
składowane składowane 0.6000000
přirjadowanje pśirědowanje 1.0000000
spušćić spušćiś 0.1904762
spušćić wótpóraś 0.0571429
huth huth 1.0000000
zaklučowane skoděrowane 0.6774194
zaklučowane zaklucowane 1.0000000
zaklučowane šifrěrowane 0.7500000
zaklučowane šifrěrowany 1.0000000
wuwichu su 0.0006596
wuwichu wuwijali 0.0526316
wuprózdńće wuprozniśo 1.0000000
console.warn console.warn 1.0000000
hansa hansa 1.0000000
romskich romskich 1.0000000
dušepastyrkam dušepastyŕkam 1.0000000
getpreventdefault getpreventdefault 1.0000000
optimujće optiměrujśo 1.0000000
polěpšenej pólěpšoneju 1.0000000
dźěłu źěłoju 0.9166667
błudničkow błudnikow 1.0000000
atomowych atomowych 1.0000000
spodobaja spódobaju 0.4000000
spodobaja spodobaju 1.0000000
ruhla ruhla 1.0000000
zadźěła zaźěłujo 0.3333333
klučowymi klucowymi 1.0000000
babje babce 1.0000000
wróćomnych cesćejwužywańskich 1.0000000
wěčna nimjerne 0.1000000
wěčna nimjerna 1.0000000
zaběramy zaběramy 1.0000000
płaćenskimi płaśeńskimi 1.0000000
gadmorje gadmorje 0.7272727
gadmorje gadmor 0.1111111
gadmorje wustupowaś 0.0714286
gadmorje how 0.0020576
gadmorje pśeliš 0.0113636
njepraja njegronje 0.5000000
našimi našymi 0.8333333
root root 1.0000000
pakuja zapakuju 0.5000000
hrajenske part 0.0714286
hrajenske grajkajucy 0.0833333
kóžda kuždažkuli 1.0000000
kóžda kužda 0.9534884
kóžda kužde 0.0144928
kóžda wšykne 0.0027435
cejdejkow cejdejkow 1.0000000
periodika casopise 0.5000000
zahajić startowaś 0.0161290
zahajić zachopiś 0.1393443
přirodneho pśirodnego 1.0000000
zbožowniša glucnjejša 1.0000000
njepodaty njepódana 1.0000000
njepodaty njepódany 1.0000000
popisujomna se 0.0000696
popisujomna pópisaś 0.1428571
wurunane wurownane 1.0000000
pječeń zewšym 0.0062500
pječeń pjaceń 0.7647059
pječeń NULL 0.0004644
časopisami casopisami 1.0000000
spadowanje wóteběranje 1.0000000
tajne pótajmna 0.2500000
tajne kodowe 0.1111111
tajne kšajźne 0.6666667
tajne kšajźnych 1.0000000
tajne wójarska 0.5000000
tajne tajne 1.0000000
tajne pótajne 1.0000000
tajne pótajmne 0.6470588
produktiwne produktiwne 1.0000000
swita ten 0.0008547
swita źeń 0.0042017
swita swita 0.5000000
druheho drugego 0.6589147
druheho mócnjejšy 0.0666667
druheho NULL 0.0002322
druheho někogo 0.0277778
druheho njeznaju 0.1111111
druheho druge 0.0024155
druheho žedneje 0.0400000
druheho pórali 0.1250000
druheho howacej 0.0169492
druheho drugeje 0.0526316
druheho pšašaś 0.0172414
druheho druheho 1.0000000
wozbožić wucyniś 0.2500000
wozbožić glucnych 0.3333333
přistajenjow pśistajenjow 1.0000000
zwjeseliła zwjaseliła 0.3333333
přestań pśestań 0.7500000
přestań wopśestań 0.7500000
přestań wopśetań 1.0000000
ćahańca waźenje 1.0000000
ćahańca śěganje 1.0000000
wutestować pśetestowaś 1.0000000
wažny wažny 0.9456522
wažny wažne 0.0121457
wažny wažnu 0.1538462
wažny dobru 0.0232558
awtorka awtorka 1.0000000
maćerne maśeŕne 0.3333333
maćerne mamine 0.6666667
maćerne maśerne 1.0000000
komunikaciskich komunikaciskich 1.0000000
adresowym adresowem 0.9500000
adresowym adresowym 1.0000000
adresowym adresowrm 1.0000000
hra gra 1.0000000
hra kusoju 1.0000000
hra grajo 0.0243902
hra graśu 0.0625000
hra graśe 0.2878788
hra něnt 0.0034483
wužiwarjej wužywarjoju 1.0000000
wužiwarjej wužywarjow 0.0125000
wužiwarjej wužywarjeju 0.8000000
dwójne dwójne 1.0000000
ottendorfje-okrilli ottendorfje-okrilli 1.0000000
droždźi droždźejow 1.0000000
kabinetow kabinetowu 1.0000000
kabinetow kabinetow 1.0000000
wósom wósom 1.0000000
skótnym skótnym 1.0000000
rudolfa rudolfa 1.0000000
instrukcije tych 0.0044643
instrukcije instrukcije 1.0000000
instrukcije instrukcijach 1.0000000
produktowa produktowa 1.0000000
produktowa produktowy 0.2500000
pachole pachoł 0.0909091
pachole NULL 0.0002322
maturant maturant 1.0000000
wustejace felujuce 0.2727273
akademijach akademijach 1.0000000
konsola konsola 1.0000000
choral choral 1.0000000
widźiš-li wiźiš-li 1.0000000
sačkom setku 1.0000000
nowozałoženeho nowo 0.0540541
nowozałoženeho załožonego 0.5000000
wumyju wumyjom 1.0000000
.xml .xml 1.0000000
lacarusa lacarusa 1.0000000
gesty gesty 1.0000000
8-mjeńšinskeho 8-minutowego 1.0000000
n-njebě nje-njejsom 0.5000000
n-njebě k-kśěł 0.3333333
wudawaćelom wudawarjom 1.0000000
sudźik sudk 1.0000000
njewozjewi njewózjawijo 1.0000000
pohibujeće gibjošośo 1.0000000
popołdnjo wótpołdnjo 0.8333333
dojednanjom dojadnanim 1.0000000
předewzaćemi pśedewześami 1.0000000
taje tajo 1.0000000
wupruwowanych wuprobowanych 1.0000000
wupruwowanych wuproběrowanych 1.0000000
čiłym žywem 0.2500000
čiłym žywym 0.5000000
nowak-njechorński nowak-njechorński 1.0000000
pochadźam som 0.0017778
pochadźam pśidu 0.0200000
pochadźam póchadam 1.0000000
pochadźam ja 0.0021505
wuknyła wuknuła 0.8333333
nje-ascii-znamješko nje-ascii-znamuško 0.5000000
čuć cuju 0.0666667
čuć wustojaś 0.3333333
čuć cuś 0.9285714
chaosom chaosom 1.0000000
wopytowarja wopytowarja 1.0000000
dokonjanosće dospołnosći 1.0000000
słuchoknihow wótsłuchańskich 1.0000000
słuchoknihow knigłow 0.0212766
šabraku šabraku 1.0000000
marhaty pawliny 1.0000000
marhaty šeł 0.0500000
stat maminego 0.5000000
stat stat 0.9743590
biedermeierski biedermeierski 1.0000000
nabožno-narodneho nabóžno-narodnego 1.0000000
taler talaŕ 1.0000000
prezidentaj prezidenta 0.0714286
grafika grafika 1.0000000
zapalenju zapalenju 0.3333333
chcyjo kśějucy 1.0000000
sedźenju sejźenju 0.3333333
mesto mesto 1.0000000
nowostkow wóni 0.0017271
nowostkow źinsa 0.0030395
nowostkow nowinkow 1.0000000
nowostkow worduju 1.0000000
woswjeći wóswěśi 1.0000000
woswjeći był 0.0021645
ciono cion 1.0000000
nadróžny mawt 0.5000000
nadróžny nadrozny 1.0000000
oauth-klučow oauth-klucow 1.0000000
zmištrowachu su 0.0002199
zmištrowachu zwónoźeli 0.1666667
generalojo generale 1.0000000
generalojo wšyknym 0.0243902
generalojo generalam 1.0000000
pječenje aby 0.0002032
pječenje pjacenje 1.0000000
pječenje , 0.0000318
.ppt .ppt 1.0000000
rjadujće zastojśo 0.8235294
rjadujće rědujśo 1.0000000
wobhladowak.zeznajće wobglědowak.póznajśo 0.5000000
solidnu solidnu 1.0000000
začiniło zacyniło 1.0000000
prěničce prědnicce 1.0000000
sensibelne njewótwołujo 0.6666667
sensibelne sensibelne 0.9333333
trjebaja trjebaju 0.9600000
trjebaja pomc 0.3333333
trjebaja nosyli 0.1666667
pokład pókład 1.0000000
rjeńše rědnjejšy 1.0000000
rjeńše rědnjejše 1.0000000
započ se 0.0000696
započ zachop 1.0000000
započ kusack 0.1428571
započ pšašaj 0.0454545
započ pón 0.0044444
započ groń 0.0370370
započ no 0.0064516
započ powědaj 0.0370370
składowak składowak 0.8235294
składowak składowakoku 1.0000000
składowak składowakoju 0.7368421
składowak k 0.0003378
dorozumjenja komunikaciji 0.0714286
zrjadować zastojaś 0.1395349
zrjadować zrědowaś 0.8333333
měritku měritku 1.0000000
ambiwalentny ambiwalentny 1.0000000
njedowolu njedowólijom 0.5000000
rejował rejował 1.0000000
zwobraznjeja NULL 0.0002322
zwobraznjeja rejtariku 0.1111111
zwobraznjeja zwobraznjuju 0.8000000
zwobraznjeja pokazuju 0.0129870
property property 1.0000000
e-mejloweho we 0.0005760
e-mejloweho wótwołowanju 0.1428571
e-mejloweho menija 0.0370370
e-mejloweho kontowu 0.5000000
e-mejloweho e-mailowego 0.5454545
e-mejloweho postowem 0.1000000
e-mejloweho woknje 0.0322581
e-mejloweho serwerowych 0.2000000
sandbox sandbox 1.0000000
ondevicelight ondevicelight 1.0000000
dobrym dobrem 1.0000000
dobrym dobrej 0.1333333
dobrym dobre 0.0066225
dobrym dobrym 0.5714286
barikow barikow 1.0000000
přewodźachu pśewóźowachu 1.0000000
kotřiž NULL 0.0002322
kotřiž kenž 0.2079867
kotřiž kotarež 0.3333333
kotřiž ako 0.0006369
kotřiž kótarež 0.1026509
kotřiž dostaju 1.0000000
kotřiž ak 0.0289855
kotřiž běricnje 0.2500000
wobsahow wopśimjeśow 1.0000000
słowniku słowniku 1.0000000
s-s-słowa s-słowa 1.0000000
njebjesach tak 0.0006431
njebjesach njebju 0.2727273
njebjesach njebjach 0.5000000
sćěnach sćěnach 1.0000000
dwórskich słužabnych 0.0769231
lěkarkomaj nuzowyma 0.5000000
lěkarkomaj gójcowkoma 0.6666667
kołmaz carna 0.0769231
kołmaz byś 0.0013774
kołmaz mazany 0.1666667
kołmaz njetrjeba 0.0408163
kołmaz njok 0.0023923
kołmaz NULL 0.0002322
kołmaz tak 0.0006431
kołmaz źěža 0.1666667
kołmaz maz 0.6153846
1782 1782 1.0000000
wodnjatym togo 0.0009579
digitalna digitalna 1.0000000
1883 1883 1.0000000
wupožčić wupóžycaś 0.5000000
wupožčić wupóžycyś 0.7000000
xpath xpath 1.0000000
přispomnjenka swójo 0.0018587
přispomnjenka cośo 0.0016447
přispomnjenka rozgrono 0.0181818
přispomnjenka zachopiś 0.0081967
přispomnjenka ? 0.0002551
erta wust 0.2000000
zaklučowany skoděrowany 0.7272727
powšitkownosći wš 1.0000000
powšitkownosći za 0.0069085
powšitkownosći zjawnosći 0.0158730
powšitkownosći wše 0.2882353
powšitkownosći wykne 1.0000000
powšitkownosći wšykne 0.0054870
powšitkownosći pśi 0.0012895
powšitkownosći luźam 0.0232558
powšitkownosći wšě 0.4000000
powšitkownosći wšym 0.0294118
jimaca gnujucy 1.0000000
1713 1713 1.0000000
přebić deriś 0.5000000
přebić pśebiś 1.0000000
přebić riśi 1.0000000
přebić do 0.0003084
žłobiku žłobiku 1.0000000
žłobiku góletkowni 0.7142857
wukubłanskimaj wuwuceńskima 1.0000000
zadźěwaše jo 0.0001386
cyrkwinskeho cerkwinego 0.8333333
cyrkwinskeho cerkwinskego 1.0000000
njedóstach njejsom 0.0044643
hišće wrośiś 0.0434783
hišće pśekipnjo 0.5000000
hišće někakim 0.1428571
hišće derje 0.0042283
hišće šćipaś 0.5000000
hišće labujo 0.3333333
hišće zwónašk 0.1666667
hišće styriłopjenkate 0.1428571
hišće pótakem 0.0084746
hišće zmólka 0.0038760
hišće mějśo 0.0476190
hišće direktnje 0.0098039
hišće gniło 0.3333333
hišće pśikładowaś 0.3333333
hišće tašce 0.1666667
hišće caka 0.0212766
hišće dwětyźeński 0.5000000
hišće pomocy 0.0068966
hišće wobsejźarju 0.3333333
hišće budu 0.0033557
hišće plěsnjeś 0.5000000
hišće hiyće 1.0000000
hišće byłi 0.2000000
hišće cuznikam 0.2000000
hišće zwiskowa 0.3333333
hišće gumnje 0.0833333
hišće raz 0.0012422
hišće howhyšći 0.3333333
hišće niźi 0.0232558
hišće pśepózdźe 0.0833333
hišće pócakaj 0.0625000
hišće njewarnowaś 0.3333333
hišće hyšćidalšnu 0.5000000
hišće zas 0.0238095
hišće wjasela 0.1000000
hišće škjarcanja 1.0000000
hišće guslowarsku 0.1111111
hišće dotychměst 0.0344828
hišće móje 0.0108696
hišće wam 0.0018587
hišće padnjo 0.1764706
hišće hyšće 1.0000000
hišće zwětšego 0.0111111
hišće hišće 1.0000000
hišće wjelka 0.2500000
hišće pitśku 0.0091743
hišće něcomu 0.5000000
hišće pótrjebaś 0.0454545
hišće drugi 0.0126582
hišće NULL 0.0018574
hišće hyšći 0.9351433
hišće howac 0.0454545
hišće sam 0.0116279
hišće guslowaŕka 0.1111111
hišće piś 0.0357143
hišće namakajom 0.1000000
hišće njedosegaju 0.2000000
hišće njeskłaźone 0.1666667
hišće zežerjo 0.2000000
hišće cerkwiny 0.2000000
hišće guslowarske 0.3333333
hišće noch 1.0000000
hišće góźeś 0.1250000
hišće wužytny 0.0263158
hišće njesłušaju 0.0714286
chutnosć pówažnosć 1.0000000
schodźenkow schójźeńkow 0.6666667
přirunuja pśirownuju 1.0000000
słowach słowach 0.9714286
trajnej trajnej 1.0000000
trajnej trajuceju 1.0000000
kucharjo dali 0.0169492
kucharjo kucharje 1.0000000
gmbh gmbh 1.0000000
alike alike 1.0000000
druhi drugemu 0.0740741
druhi pśiducy 0.0196078
druhi zadoraś 0.0434783
druhi druga 0.0487805
druhi drugi 0.8101266
druhi někaku 0.1111111
druhi někakeje 0.0769231
druhi drugu 0.0161290
druhi druge 0.0193237
druhi druhi 1.0000000
warčka warcarja 1.0000000
rozpřestrěa rozpśestrěwa 0.4000000
njeerotisce njeerotiski 1.0000000
přerěznu zwěsćijomy 0.3333333
přerěznu pśerěznu 1.0000000
najwyši nejwušy 0.3571429
najwyši nejžwušy 1.0000000
alt alt 1.0000000
dwěsći dwěsćě 0.5000000
samokontrolowanje samokontrolěrowanje 1.0000000
zbrašenju zbrašnosći 0.5000000
nazwučowanych nazwucowanych 0.3333333
nazwučowanych z 0.0005409
fundamentalna fundamentalna 1.0000000
konja kónja 0.6363636
podlěža pódlaže 0.2307692
ličaki licaki 1.0000000
ličaki licadła 0.1666667
měnu pjenjezami 0.3333333
měnu tymi 0.0222222
měnu toś 0.0003019
empatija empatija 1.0000000
stanowarjow camparjow 1.0000000
openair-festiwal openair-festiwal 1.0000000
x2 x2 1.0000000
materialow , 0.0000318
materialow materialow 0.3333333
materialow kótarež 0.0005640
materialow góźe 0.0476190
lěnjoch gnilej 0.5000000
nutř jazora 0.0322581
nutř grodu 0.0714286
nutř na 0.0001139
nutř tam 0.0014205
nutř nutśi 0.0232558
nutř chyśiš 0.3333333
nutř njepušćiju 0.5000000
nutř nutś 0.7560976
nutř do 0.0009251
nutř cuznikam 0.2000000
nutř budy 0.5000000
nutř njedodajom 0.5000000
nutř pśilaś 0.5000000
nutř zasmykuju 0.5000000
nutř napšawdu 0.0028653
swětłej swětłej 0.7500000
swětłej zwobraznjenim 0.2500000
nahromadźili nagromaźili 1.0000000
navigator.mediadevices.getusermedia navigator.mediadevices.getusermedia 1.0000000
rozmnoži rozměwała 1.0000000
registrowana registrěrowanya 1.0000000
republika republiku 1.0000000
republika republika 1.0000000
wopytaštaj woglědali 0.0625000
wopytaštaj młodostnej 0.5000000
wopytaštaj su 0.0004398
wopytaštaj stej 0.0025773
^ awstralska 0.5000000
^ chrósćańska 0.5000000
^ ^ 1.0000000
^ NULL 0.0004644
^ premier 0.1666667
^ młoźinskem 0.1000000
wettinskich wettinskich 1.0000000
přiwjedł spórał 0.2000000
dypornak źiśelc 0.5000000
wjelku wjelku 1.0000000
njewočakuj njewótcakuj 1.0000000
dźělom źělom 0.5000000
the the 0.8666667
priwatnosćes spokazu 0.5000000
směł směł 0.3684211
směł njedejał 0.0666667
słódnym dobrym 0.1428571
robert robert 1.0000000
wšelakoru wjeleraku 0.2500000
milinarnja milinaŕnja 1.0000000
wuhotowarjo wugótowarje 1.0000000
teoretiske teoretiske 0.3333333
njenastawa njenastawa 1.0000000
marsu marsu 1.0000000
přihotuje pśigótujo 0.8095238
přihotuje cylinder 0.4000000
imigracija imigracija 1.0000000
linearny linearny 1.0000000
teoretiski teoretiske 0.6666667
zranjenjemi zranjenjami 1.0000000
zapodatu zapódanu 1.0000000
delegować delegěrowaś 1.0000000
powołanje pódla 0.0317460
powołanje wukubłanju 0.0625000
powołanje pówołanje 0.9583333
powołanje powołanje 1.0000000
powołanje wótkubłańske 0.1666667
powołanje pówołanja 0.0322581
najwyšeho nejhušego 1.0000000
najwyšeho nejwušego 0.8000000
najwyšeho nejžwušego 1.0000000
załoženju załoženju 0.8000000
załoženju wutwórjenju 0.1111111
pohanow tatanjow 1.0000000
hornjoserbšćinje górnoserbskej 0.0666667
hornjoserbšćinje górnoserbšćinje 1.0000000
wjeseliła wjaseliła 0.2000000
wjeseliła tomu 0.0022124
zapłaća zapłaśe 1.0000000
klon klon 1.0000000
bjezwokrjesne bźezwokrejsne 1.0000000
rumnosći rumnosći 0.0714286
rumnosći rumje 0.0952381
pěstować měś 0.0089286
pěstować woplěwaś 0.5000000
mašinu mašinu 0.8666667
njedobudźemy njedobydnjomy 1.0000000
zakćěj zakwiś 1.0000000
x.509 x.509 1.0000000
něwěrno nic 0.0053050
něwěrno wutamali 0.2500000
něwěrno ga 0.0068493
wužiwarska wužywaŕska 1.0000000
zrěčenskeho dogronowego 1.0000000
89,2 89,2 1.0000000
koleskom kólaskom 1.0000000
rańšeho zajtšnego 1.0000000
jednali jadnali 1.0000000
1540 1540 1.0000000
1540 až 0.0002495
rěčnikej rěcnikoju 1.0000000
nadźiju naźeju 0.6666667
nadźiju naźeji 0.2000000
nadźiju zwuraznił 0.6666667
najwjetšeho nejwětšego 1.0000000
najwjetšeho wulichowali 0.2500000
najwjetšeho NULL 0.0002322
najwjetšeho z 0.0001352
da wzeła 0.1000000
da póda 0.1428571
da ? 0.0005102
da pón 0.0088889
da póžytnik 0.1666667
da źaržyś 1.0000000
da šifrěrowane 0.2500000
da cołn 0.0256410
da coš 0.0068027
da teleportěrowaś 0.5000000
da NULL 0.0013931
da ratwa 0.1250000
da mója 0.0067568
da pušćijo 0.1111111
da móliš 0.1250000
da jo 0.0008318
da ga 0.1027397
da lažko 0.0072993
da ty 0.0057803
da chowaš 0.2500000
da krala 0.0070423
da wěš 0.0109890
da dała 0.0256410
da dał 0.0483871
da górnoserbskej 0.0666667
da mójom 0.0526316
da maš 0.0064516
da daś 0.0030769
da kus 0.0250000
da móžoš 0.0042735
da smějo 0.0114943
da guslowaŕstwom 0.2500000
da ten 0.0008547
da wuglědaš 0.1250000
da pomaga 0.0208333
da njejo 0.0005479
da pak 0.0026350
da wórjo 0.5000000
da zmóžnja 0.0158730
da dajo 0.4266212
załožbow załožbow 1.0000000
calendar calendar 1.0000000
złych złych 1.0000000
złych wužywaś 0.0024752
złych tek 0.0052083
nzeskupće nzrědujśo 1.0000000
přała žycyła 1.0000000
přała śi 0.0022883
lěhwowy nagótowaś 0.1666667
lěhwowy nama 0.0666667
dóstanjetej dostanjotej 0.6000000
paski filmy 0.2222222
wuzběhnjenych wuzwěgnjone 1.0000000
dwu- pla 0.0021645
dwu- swójo- 1.0000000
dwu- wěcejrěcnych 0.5000000
dwu- dwójo- 1.0000000
nporjedźe pórěźe 0.0196078
nporjedźe nalfabetiskem 0.5000000
wuklinčeć wuklincaś 1.0000000
mohorjeva mohorjeva 1.0000000
wudał wudał 0.7500000
wudał wudawał 0.2500000
wudał jatšam 0.3333333
nastudowała nastuděrowała 1.0000000
wopušćeće spušćaśo 0.3333333
szrjadowanje szastojanje 1.0000000
wóslacych wósłowych 1.0000000
malinkowej malinkowej 1.0000000
malinkowej malinkoweju 1.0000000
wukubła jo 0.0001386
woknowym woknowem 0.6666667
njewoprawnjena njewopšawnjona 1.0000000
sulfatowe sulfata 0.2000000
sulfatowe pśestupjone 0.5000000
mjezykulturna mjezykulturna 1.0000000
chcyše jo 0.0029114
chcyše ga 0.0017123
chcyše wón 0.0006798
chcyše kśěł 0.2452830
chcyše se 0.0000696
chcyše kśěło 0.2307692
chcyše by 0.0011111
chcyše dostaś 0.0094340
chcyše kśěła 0.2054795
prawow pšawow 1.0000000
webskenowanje webskannowanje 1.0000000
lubowacy lubujucy 1.0000000
wulosowanje wulosowanje 1.0000000
regionalnych regionalne 0.1176471
regionalnych regionalnych 1.0000000
njeskutki njestatki 1.0000000
nadawki gótujoš 0.0476190
nadawki nadawki 0.8652174
nadawki wšake 0.0101010
nadawki cas 0.0560000
nadawki słušnosći 0.3333333
přiwzał pśiwzeł 0.4444444
přiwzał starał 0.1000000
wodosportowe wódosportowe 1.0000000
wodosportowe wódnosportowe 1.0000000
srjedźowěka srjejźowěka 1.0000000
filis filisa 0.3333333
filis hyšći 0.0007541
filis filis 0.7500000
bity bity 1.0000000
njeleću nejleśijom 1.0000000
padnyła wupadnuło 1.0000000
padnyła padnuła 0.5714286
padnyła wopadnuła 1.0000000
pazorki pazorki 1.0000000
stus shows 1.0000000
rozesyłanska rozpósłańska 1.0000000
mašinelnje mašinelnje 1.0000000
hrube zelezo 0.2000000
zajimuja zajmuju 0.6666667
zajimuja griby 0.0454545
zajimuja zajmujo 0.0500000
01.09.2019 01.09.2019 1.0000000
zaktualizujemy zaktualizěrujomy 1.0000000
filtrowanju filtrowanju 1.0000000
zapřijmje zapśimjejo 0.1666667
kundroz kjandroz 1.0000000
nabił natykał 1.0000000
1841 1841 1.0000000
modlić njemódlimy 1.0000000
modlić NULL 0.0004644
modlić módliś 0.8333333
zakonjow kaznjow 0.6875000
zakonjow kaznjowu 1.0000000
dołhim někakim 0.1428571
dołhim dłujkem 0.6363636
dołhim dłujkim 0.5000000
dołhim casami 0.3333333
myšemi myšami 0.5000000
myšemi ratwami 1.0000000
myšemi wóna 0.0014663
myšemi dej 0.0043290
žel luto 0.9000000
žel wjelgin 0.0031596
žel wódaj 0.0909091
samopostajowanjom samopóstajenim 1.0000000
diskutujemy diskutěrujomy 1.0000000
klimowy pśigótowało 0.1666667
klimowy klimowy 0.7368421
klimowy klimowe 0.1428571
gumijowe gumijowe 1.0000000
bjezpłatnje dermotnje 0.3076923
danevirke danevirke 1.0000000
8.1 8.1 1.0000000
wušiknje šykownje 1.0000000
masowy masowy 1.0000000
wolerku wólaŕku 1.0000000
dočasne docasne 1.0000000
startowe startowe 0.8571429
přemałym pśemałym 1.0000000
koplowanski koplowański 1.0000000
principaj principa 0.3333333
doporučujemy pórucamy 0.1428571
softwary softwary 0.8750000
w3c-standardach w3c-standardach 1.0000000
spřistupnjenju spśistupnjenju 1.0000000
poćahowane póśěgnjone 0.8000000
poćahowane směr 0.1666667
attribution-sharealike attribution-sharealike 1.0000000
personalizowane spersonalizěrowane 1.0000000
personalizowane personalizěrowane 1.0000000
našeju našeju 0.1111111
ciwilistow ciwilistow 1.0000000
dźěłowa źěłowa 0.8823529
zdobytu pśiswójona 0.6666667
generelny generelny 1.0000000
zmysłami zmysłami 1.0000000
sydłoweho sedłowego 1.0000000
wotpowědował wótpowědował 0.8888889
delnjej dolnej 1.0000000
delnjej dolneju 1.0000000
dyrbjachmy smy 0.0122592
dyrbjachmy musyli 1.0000000
dyrbjachmy zarucyś 0.0800000
dyrbjachmy musali 0.0512821
dyrbjachmy dejali 0.0256410
wzmiće pón 0.0044444
wzmiće wzej 0.0222222
wzmiće wzejśo 0.9200000
wzmiće ale 0.0006489
enter enter 1.0000000
christian christian 1.0000000
gregorianskej gregorjaniskemu 1.0000000
kruty mócny 0.0833333
kruty pśirosćony 0.5000000
kruty kšuty 0.9166667
kruty wjelgin 0.0015798
kruty tłusty 0.0500000
nawjazałoj nawězałej 1.0000000
testowym testowem 0.6666667
testowym testowym 1.0000000
samokontrolu samokontrolu 0.5000000
ławki ławki 1.0000000
pop3 pop3-server 1.0000000
pop3 pop3-serwer 0.1666667
pop3 pop3 1.0000000
skriptoweje skriptoweje 1.0000000
rogowje rogow 0.3333333
uniformne uniforměrowane 1.0000000
běhu casu 0.0112994
běhu běgu 0.9508197
běhu cas 0.0060000
běhu NULL 0.0006965
šulerku wuknicu 1.0000000
połlěće woglědali 0.0312500
połlěće połlěśe 0.6666667
połlěće wušej 0.0080645
róle role 0.2000000
ćežemi śěžami 1.0000000
němcam nimcam 1.0000000
tym wubjeŕ 0.2000000
tym wšej 0.2000000
tym ložu 0.1666667
tym zapśěgnu 0.5000000
tym ptaškow 0.2000000
tym pśestań 0.1250000
tym tej 0.0200000
tym śěgnuli 0.1000000
tym stakim 0.0540541
tym wašych 0.0074074
tym dalše 0.1111111
tym tipni 0.0909091
tym póglědaś 0.1000000
tym karonu 0.3333333
tym pśeznaniś 0.0416667
tym pśeglědjśo 0.3333333
tym startujośo 0.0454545
tym něconawucyś 0.2500000
tym tomm 1.0000000
tym zda 0.0074074
tym pśemyslujom 0.2000000
tym škrodowy 0.2000000
tym njej 0.0519481
tym póznajośo 0.2500000
tym górjejo 0.3333333
tym senom 0.3333333
tym pśemyslowaś 0.0416667
tym spušćenje 0.1666667
tym tych 0.0044643
tym cajk 0.1000000
tym zawoborał 0.2500000
tym ty 0.0019268
tym měšćanske 0.2500000
tym NULL 0.0046436
tym wulicowała 0.0833333
tym njespóznajom 0.1428571
tym wóstajijom 0.0370370
tym pśemysluj 0.3333333
tym zajźowało 0.1666667
tym tym 0.6155203
tym nim 0.0062893
tym lisće 0.1818182
tym wucyniś 0.2500000
tym dopomnjeńka 0.1818182
tym złotom 0.2000000
tym pśijazny 0.1000000
tym zawoborujo 0.1428571
tym zawoboraś 0.1764706
tym njedosegnu 0.1538462
tym tom 0.6053670
tym togo 0.0057471
tym wójakam 0.1666667
mnozy wjele 0.0356415
mnozy młoge 0.3500000
mnozy někotare 0.0092593
mnozy zlicyjom 0.1250000
ćichim sćichim 1.0000000
ćichim w 0.0002087
ćichim śišynje 0.3333333
forn forn 0.5909091
forn forna 0.0666667
ministerskeje ministaŕskeje 1.0000000
ministerskeje ministarskeje 1.0000000
nabyli dojśpili 0.0666667
zrěčniwa powědata 0.6666667
domchowanki žnjownego 1.0000000
domchowanki swěźenja 0.0666667
rysowachu kreslili 0.5000000
zajimami zajmami 0.3333333
spionow zarkyranowych 0.5000000
nowinskim casnikowem 1.0000000
třělny muskeśe 1.0000000
třělny we 0.0005760
tuńšej tuńšej 1.0000000
zechcyło tak 0.0006431
zechcyło zekśěło 1.0000000
pozhubjowaše pózgubiła 1.0000000
chce-li co-li 1.0000000
chce-li co 0.0016353
chce-li gaž 0.0015936
duchownej duchowneju 1.0000000
přewozmje pśewzejo 0.9375000
přewozmje wótrubjo 0.5000000
přewozmje dostanjo 0.0153846
přewozmje tomu 0.0022124
napjelnjeni byli 0.0035587
napjelnjeni napołnjone 0.2500000
namołwa napominanje 0.1333333
2.100 2.100 1.0000000
ww.example.com ww.example.com 0.8333333
drježdźansko-mišnjanske drježdźańsko-mišnjańske 1.0000000
drježdźansko-mišnjanske drježdźańsko 1.0000000
drježdźansko-mišnjanske drježdźańsko-mišnańske 1.0000000
zbožowna glucna 0.5714286
zbožowna wuglědajo 0.0277778
njeswědomići njeswědobniwe 1.0000000
přehrěši jo 0.0000693
přehrěši wopśestali 0.5000000
licencydawarjo licencedawarje 1.0000000
rezerwowana rezerwěrowane 0.1111111
rezerwowana rezerwěrowana 1.0000000
zabył zabyli 0.1111111
zabył nejskerjej 0.0074074
zabył zabył 0.9583333
statnika statnika 0.7500000
zwoprawdźił zwopšawźił 1.0000000
zwoprawdźił zwopšawdnił 1.0000000
mikrofonej mikrofonoju 0.3333333
firma firma 1.0000000
wšitcy by 0.0011111
wšitcy wuškam 0.5000000
wšitcy wše 0.0058824
wšitcy byli 0.0035587
wšitcy su 0.0002199
wšitcy změjośo 0.1111111
wšitcy glucnje 0.1666667
wšitcy wócuśeś 0.2000000
wšitcy jadnak 0.0526316
wšitcy wócuśeli 0.3333333
wšitcy wšykne 0.1618656
private private 1.0000000
předawać pśedawaś 1.0000000
předawać pśedawać 1.0000000
jerjemi jerjegami 1.0000000
kamjencu kamjeńcu 1.0000000
imap-serwerej imap-serweroju 1.0000000
imap-serwerej ten 0.0008547
imap-serwerej imap 0.2000000
wužłobka depka 1.0000000
zhubju wupórajom 1.0000000
zhubju zgubiju 0.0714286
zhubju minuś 0.3333333
zhubju wóttud 0.1428571
zhubju šwyrnjom 1.0000000
zhubju zgubijom 0.7500000
prapremjeru prapremjeru 1.0000000
wokrjesej wokrejsoju 1.0000000
stronje boce 0.4285714
stronje bokoju 0.4594595
stronje boku 0.8907563
stronje stronje 0.9411765
stronje NULL 0.0004644
stronje bokue 1.0000000
stronje boka 0.0080000
stronje tom 0.0031571
stronje toś 0.0003019
weba webnałoženjow 0.2500000
weba weba 1.0000000
weba NULL 0.0002322
spušćichu spušćili 0.4000000
njeinkrementelny njeinkrementelny 1.0000000
klóštrom kloštrom 1.0000000
pedagogisce pedagogiski 0.0952381
zrudna tužne 0.2500000
zrudna śi 0.0022883
zrudna tužnjejša 1.0000000
zrudna zawěsće 0.0046296
zrudna skerjej 0.0200000
zrudna tužna 0.9523810
zrudna była 0.0076628
hrjadow grědow 1.0000000
zakonam kaznjam 0.1000000
zejlerja zejlerja 1.0000000
zejlerja zejlera 1.0000000
kromolanskim kromolańskem 0.7500000
chłostanskich powšyknych 0.3333333
chłostanskich chłostańskich 1.0000000
zmóžnja móžośo 0.0014347
zmóžnja zmóžnja 0.9285714
zmóžnja zmóžniju 0.9090909
zmóžnja pomaga 0.0208333
zmóžnja zmóžnijo 0.5666667
maxversion maxversion 1.0000000
lěwanćika lawendela 1.0000000
připosłuchanju pśisłuchanju 1.0000000
kupnu kupnu 1.0000000
šwórči tšašnje 0.0185185
šwórči głowa 0.0232558
šwórči mě 0.0007746
šwórči barcy 1.0000000
njepłaćiwymi njepłaśiwymi 1.0000000
stajiła stajiła 0.7142857
stajiła stajił 0.0217391
zapisanemu zapisanemu 1.0000000
šěsćadwaceći šesćadwaźasća 1.0000000
słabši togo 0.0009579
słabši wěcej 0.0016878
słabši słabše 1.0000000
słabši słabšy 1.0000000
słabši wósłabjeł 1.0000000
wobmjezowanjow wobgranicowanja 0.1034483
wobmjezowanjow wobgranicowanjow 0.8000000
ćeknyć wuběgnuś 0.3333333
ćeknyć wuběgaś 0.5000000
ćeknyć wuběgnjenja 0.3333333
biblije cytanje 0.0285714
biblije biblije 1.0000000
dźěćatstwa źiśetstwa 0.7142857
dźěćatstwa swój 0.0019881
dźěćatstwa cas 0.0020000
podšmórny pódšmarnuła 0.7894737
podšmórny pódšmarnjo 0.4000000
podšmórny jo 0.0046444
podšmórny pódšmarnuł 0.9491525
mosćik mósćik 1.0000000
přikazoweje pśikazoweje 1.0000000
dowoli dowólijo 0.5882353
mcs mcs 1.0000000
hrajkow ze 0.0005543
hrajkow słowami 0.0625000
hrajkow grajkow 1.0000000
zajědojćeneho zagaźonego 1.0000000
jakarta jakarta 1.0000000
probowe probowe 1.0000000
wubrance mustwoju 1.0000000
wubrance mustwje 0.3333333
english english 1.0000000
wuprawami zajězdami 1.0000000
wostudy wóstudy 1.0000000
url-mustry url-mustry 1.0000000
rozmołwneho graśa 0.0162602
rozmołwneho rozgrona 0.0357143
rozmołwneho rozgronowego 1.0000000
hlada tužnje 0.5000000
hlada paso 0.3333333
hlada rukoma 0.0357143
hlada glěda 0.2500000
hlada wobija 0.2222222
administratorej administratoroju 1.0000000
hustu gustego 0.2000000
hustu něco 0.0020661
nadźěłała pśiswójła 1.0000000
wurunać narownaś 0.3333333
wurunać wurownaś 1.0000000
wotmołwiła wótegroniś 0.0250000
wobkrućenje powěźeńka 0.0476190
wobkrućenje wobkšuśenje 1.0000000
wobkrućenje wobwěsćenje 0.2500000
wobkrućenje wobwěsćowanje 1.0000000
wobkrućenje wobtwarźenje 0.4545455
wobkrućenje jo 0.0000693
wotličenskej wótliceńskej 1.0000000
zaměra wótglědanja 0.3333333
zaměra zaměra 0.7857143
zaměra zaměr 0.0062112
zaměra nastupaju 0.0909091
janšojce-sewjer janšojce-pódpołnoc 1.0000000
formularnym formularnem 1.0000000
1.2 1.2 1.0000000
slědowacymi slědujucymi 1.0000000
smědźeše směł 0.2631579
smědźeše jo 0.0003466
rozkładu rozkładu 1.0000000
přisukać pśiwězaś 0.3333333
přisukać wótněta 0.5000000
debjerkami mólaŕkami 1.0000000
downloads downloads 1.0000000
jewišćowe jawišćowe 1.0000000
słužownikami słužabnikami 1.0000000
njepřeswědči njejo 0.0010959
njepřeswědči njespórajo 1.0000000
njepřeswědči k 0.0003378
njepřeswědči pśeznanił 0.5000000
njepřeswědči tomu 0.0022124
diagrama diagrama 1.0000000
zabili zabili 0.5000000
policistka policistka 1.0000000
jězdźenjom jězdźenju 1.0000000
měrće měŕśo 1.0000000
přesćěhowarjam pśeslědowakam 0.3333333
krótkodobnych krotkocasnych 1.0000000
wěnčki wěnaški 1.0000000
zawodowym zawodowym 1.0000000
wupjelnjenju wupołnjenju 1.0000000
wupjelnjenju wupołnjowanju 1.0000000
sčińće cyńśo 0.0232558
sčińće zwónoźćo 1.0000000
sčińće gótujśo 0.0833333
@ @ 1.0000000
hněwom gniwom 1.0000000
hd hd 1.0000000
introduction introduction 1.0000000
přičin zawinowane 0.5000000
přičin pśicyny 0.0740741
přičin pśicynow 0.4772727
přičin zawinow 0.2000000
přičin wěstosći 0.4285714
wuwiwanske wuwiśowe 0.3333333
wuwiwanske wuwijańske 1.0000000
nuzować nuzkaś 0.6666667
nuzować nuzowaś 1.0000000
nuzować pśisegi 0.5000000
hamtski amtski 0.2000000
štyriměstnowa styriměstnowa 1.0000000
kopředsyda kopśedsedaŕ 0.5000000
pobychmy smy 0.0017513
wuwiwanski wuwijański 1.0000000
wodowodow wódowódow 1.0000000
motiw motiw 1.0000000
instalaija instalaija 1.0000000
archeologiju archeologiju 1.0000000
politikar politikaŕ 1.0000000
skedźbnjała pokazała 0.0769231
wuwjazali wuwězali 1.0000000
troštować troštowaś 0.3333333
wučinjachu wugótowachu 1.0000000
mytowanych móžno 0.0091324
mytowanych mytowanych 0.5000000
mytowanych ako 0.0006369
wójna wójna 1.0000000
lehmann lehmann 1.0000000
wokabloweho wokablowego 1.0000000
překročić wótstawk 0.0714286
překročić pśekšocyś 0.6000000
jednostronska jadnobocna 1.0000000
katolikami katolikami 1.0000000
njepředstajomne njepśedstajobny 1.0000000
pasmo maka 0.1000000
pasmo conu 0.1818182
pasmo smugi 1.0000000
pasmo hupu 1.0000000
pasmo drapa 1.0000000
pasmo ta 0.0021413
pasmo cona 0.9166667
pasmo smugu 0.1666667
rozsyłanje rozesłanje 1.0000000
łužicomaj łužycoma 1.0000000
njenapadnu njepójdu 0.1666667
njenapadnu njenadpadnu 1.0000000
njenapadnu na 0.0001139
duši dušy 0.7500000
připokazanych pśipokazali 0.5000000
připokazanych pśipokazanych 1.0000000
njejendźelskorěčneho njeengelskorěcnego 1.0000000
płaćensku płaśeńsku 0.9166667
njeslědujeće njeslědujośo 0.5000000
njeslědujeće wěcej 0.0008439
próstwustajerja kenž 0.0033278
próstwustajerja , 0.0001272
próstwustajerja stajił 0.0434783
próstwustajerja pšosbu 0.0408163
próstwustajerja togo 0.0019157
spěšnym malsne 0.0666667
spěšnym spěšnym 1.0000000
spěšnym malsnym 1.0000000
spěšnym malsnem 1.0000000
razej raz 0.0024845
razej razoju 0.9090909
nachwilu nachylnje 0.1428571
nachwilu nachylu 0.9696970
přizynk pśizuk 1.0000000
njepřestawacym njepśestawajucym 1.0000000
zastawać zastojaś 0.0232558
eksperimentow eksperimentow 1.0000000
dźělimy źělimy 0.7777778
dźělimy swětowe 0.1538462
žlokanje žrěśe 0.5000000
žlokanje to 0.0001871
tuchwilnu tuchylnu 1.0000000
koncentraciskim koncentraciskem 1.0000000
institucija institucija 0.8333333
pomjenować pomjenjowaś 0.3750000
pomjenować pomjeniś 0.6153846
pomjenować pómjeniś 1.0000000
pomjenować NULL 0.0002322
e-mejli e-maili 1.0000000
e-mejli pódanych 0.2500000
našich našych 0.9770992
našich naše 0.0561224
našich pla 0.0043290
našich awgust 0.0357143
našich pśeśiwo 0.0057803
našich nejmjeńšy 0.1666667
zastawa zastawa 1.0000000
nutřkowneho nutśikownego 0.8571429
50. 50. 1.0000000
50. k 0.0003378
słužić drugego 0.0077519
słužić słužyś 0.6000000
słužić słužyli 0.2500000
słužić derje 0.0021142
kroćele kšacam 1.0000000
adresowu adresowe 0.0526316
adresowu adresowu 1.0000000
boha bogu 0.0666667
boha njeces 1.0000000
boha słužabniki 0.5000000
boha boga 0.8611111
přeproša pśepšosujo 0.6666667
přeproša pśepšosuju 0.5000000
přeproša pśepšosyju 0.3333333
słuži jo 0.0001386
słuži słužy 0.9210526
słuži kus 0.0250000
kup lěc 0.0025510
kup … 0.0050000
kup kup 0.5454545
februaru februarje 0.3333333
nósnik šantk 1.0000000
wobtwarjenska granicu 0.2500000
čunka čunka 1.0000000
přećahami pśeśěgami 1.0000000
mojich NULL 0.0004644
mojich mójich 0.7307692
mojich móje 0.0108696
njezhašeja njewulašuju 1.0000000
zebrać zajmjeś 1.0000000
nowymaj nowyma 1.0000000
změrcowskeho wurownańskego 0.9600000
změrcowskeho wujadnańskego 1.0000000
nowiny nowiny 0.5714286
nowiny casniki 1.0000000
nowiny casnika 1.0000000
nowiny medije 0.0571429
wottřasł wótśesł 1.0000000
atrakcija atrakcija 1.0000000
móroweho gójca 0.1000000
móroweho carnego 0.0769231
widejorozmołwu wideorozgrono 1.0000000
nadźěłachmy smy 0.0017513
karty kólasowarjow 0.0714286
karty kórtki 0.0714286
karty karty 0.3333333
karty kórty 0.9361702
woblěkaj woblac 0.1000000
sobotnej sobotnej 1.0000000
delnjošleski dolnošlazyński 1.0000000
wobstać wobstaś 1.0000000
wobstać zarkyranoju 0.0500000
wobstać měś 0.0223214
wobstać wobstoj 0.0094340
wobstać wobstojaś 0.8000000
powědachu su 0.0002199
powědachu mě 0.0007746
powědachu wulicowali 0.3333333
archiwowy archiwowy 1.0000000
połhodźinski połgóźinski 1.0000000
spytam proběrujom 0.5000000
spytam glědaś 0.0192308
spytam wobijam 0.2000000
spytam ja 0.0007168
spytam gótujom 0.1250000
spytam pón 0.0044444
spytam , 0.0001589
spytam wuproběrujom 0.7500000
spytam wopytajo 0.1111111
spytam wopytajom 0.7636364
spytam procujom 0.5000000
54 54 1.0000000
darjeny pósćony 0.3333333
zarjadowanskej zarědowańskej 1.0000000
ralbičanskej ralbičanskej 0.5000000
symbola až 0.0002495
symbola pótuskujośo 0.5000000
symbola symbola 1.0000000
symbola symbol 0.1012658
bilingualna bilingualna 1.0000000
twelga wótkubłała 0.1111111
twelga až 0.0002495
twelga twelga 1.0000000
twelga twjelga 0.9333333
twelga najmjeńki 0.2500000
twelga glucne 0.1000000
lacy bruslace 1.0000000
zběhanka zwiganje 1.0000000
kałanjom bóje 0.0714286
kałanjom wašogo 0.0045249
kałanjom štapanja 0.2000000
wozjewiće wózjawijośo 1.0000000
cajk cajk 0.1000000
cajk ten 0.0008547
mozilla.wukńće mozilla.wukniśo 1.0000000
integritowym integritowem 1.0000000
wotnowjeć wótnowjaś 0.3333333
krosnowarjo lězarje 1.0000000
trjebaše trjebał 0.1428571
trjebaše jo 0.0001386
wotćahnyć wótsajźiś 0.1111111
web-stronje web-stronje 1.0000000
pokaž pismo 0.0909091
pokaž pokaž 0.8461538
pokaž raz 0.0012422
pokaž źe 0.0111111
pokaž daj 0.0136986
pokaž zjaw 0.5000000
hłódna głodny 0.0769231
hłódna snaź 0.0026316
hłódna głodna 1.0000000
njemějachmy njemějachmy 1.0000000
jendźělskej engelskeju 1.0000000
wopušćiła ned 0.0051813
wopušćiła spušćiła 1.0000000
wopušćiła ak 0.0144928
wopušćiła jozemrěła 0.3333333
sudnicu sudnicu 1.0000000
zawinuja zawinuju 1.0000000
bazy bazy 1.0000000
bazy baze 1.0000000
błótam błotam 0.6000000
centrach centrach 1.0000000
timej timoju 1.0000000
zarjadowanjach zarědowanjach 0.8571429
38 38 1.0000000
tyšnosći tešnosći 0.5000000
zamkarja nawuknuł 0.0454545
zamkarja zamkarja 1.0000000
defektna defektna 1.0000000
rozłožić rozłožyś 1.0000000
rozłožić rozkłasć 0.5833333
rozłožić rozkładowaś 1.0000000
tworjenja politiskeje 0.5000000
tworjenja twórjenja 0.2857143
pochadźaceho póchadajucego 1.0000000
pušće pušćo 1.0000000
dokładneho dokradnego 1.0000000
młodźinski młoźinski 1.0000000
dešifrowanu dešifrěrowanu 1.0000000
jěmoj jě 0.0666667
wobuza wobuza 1.0000000
pokłoni pókłonił 1.0000000
zeznał póznał 0.3333333
zeznał wupóznał 1.0000000
zeznał budyšynje 0.0063694
zeznał w 0.0001044
zeznał zeznał 1.0000000
pušćeć wěcej 0.0008439
pušćeć ju 0.0025840
pušćeć njepušćijom 0.3333333
tankow tankow 1.0000000
hackerow hackerow 1.0000000
wjednikach wjednikach 0.5000000
stawiznow serbskich 0.0030488
stawiznow wulicowańkow 0.3333333
stawiznow stawiznow 0.8400000
stawiznow tšojeńkow 0.4000000
stawiznow stawiznach 0.0370370
hru grajki 0.1666667
hru gru 0.8000000
hru graśa 0.0081301
hru grajkanju 0.2000000
hru graśim 0.5000000
hru graśe 0.3939394
hru coš 0.0068027
zdźělenkach powěźeńkach 0.5000000
z.t z.t 0.5000000
premisu premisu 1.0000000
pedagogiku NULL 0.0004644
pedagogiku pedagogiku 0.5384615
wužiwaćelow wužywarjow 0.0125000
elegantnej elegantnej 1.0000000
trudla trudla 1.0000000
šifra šyfra 1.0000000
domchowankow domchowankow 1.0000000
njejsće wójakowanje 0.3333333
njejsće njejsćo 0.9690722
njejsće był 0.0021645
nałožował nałožował 0.6666667
nałožował NULL 0.0002322
składowanski składowański 0.8571429
polěpšenjach pólěpšenjach 1.0000000
elementarnym elementarnem 1.0000000
staramy staramy 1.0000000
powěsćowe powěsćowe 1.0000000
chcetej cotej 0.7647059
wopřijećom wopśimjeśim 0.1250000
humanistiske humanistiske 1.0000000
humanistiske duchnych 0.5000000
websydła websedłam 0.3913043
websydła websedła 0.9807692
websydła wěstotne 0.0212766
websydła websydła 0.8333333
websydła websydłam 0.6000000
pos pjas 0.5555556
normal normal 1.0000000
rtl rtl 1.0000000
tepju zatopijom 0.5000000
tepju pšawje 0.0055556
logiske logiski 0.6666667
logiske logiske 1.0000000
čitanske w 0.0002087
čitanske cytańske 0.0446429
čitanske wugbaśa 0.0588235
750 750 1.0000000
zachował zachował 1.0000000
zachował hobzwarnował 1.0000000
wumóženi wumóžone 1.0000000
wumóženi huzbóžnjone 1.0000000
leksice leksice 1.0000000
garzweiler garzweiler 1.0000000
mikławšo nikolas 1.0000000
škraholcow sćagłowowu 1.0000000
lubeho lubego 1.0000000
komunalneje komunalneje 1.0000000
prajimoj gronimej 1.0000000
frizerka frizerka 1.0000000
dawaja dawaju 0.6956522
dawaja dajo 0.0034130
dawaja wóni 0.0017271
dawaja dawa 0.0161290
wosebitosćam wósebnosćam 1.0000000
pokazowanju pokazowanju 1.0000000
kirbsoweho banjawego 1.0000000
maćerske maśeŕne 0.6666667
šesty šesty 1.0000000
dewiza dewiza 1.0000000
dźiwadłowu źiwadłowe 0.0588235
dźiwadłowu źiwadłowu 1.0000000
słódkej słodkeju 1.0000000
słódkej něžneju 1.0000000
wobrotnišćo wobrotnišćo 1.0000000
instalater instalater 1.0000000
spóznaća rěcy 0.0015552
spóznaća spóznawanja 0.5000000
spóznaća spóznaśa 0.9523810
kromolu kromolu 1.0000000
a3 a3 1.0000000
palace palace 1.0000000
muki muki 1.0000000
spali spalił 1.0000000
spali spalijo 1.0000000
spali njespalijo 1.0000000
paslow paslow 0.8333333
paslow žabine 0.5000000
paslow pasle 0.0588235
paslow pópadnuś 0.1428571
njepopadnu njepópadnu 1.0000000
hrozne groznje 0.3333333
hrozne tšašydło 0.0588235
hrozne grozne 0.4545455
hrozne napšawdu 0.0028653
wužiwajomneje wužywajobneje 1.0000000
wupisane wupisane 1.0000000
zuj rozuj 1.0000000
only njepóbitujo 0.1111111
tolerjom tolaŕ 1.0000000
njelubuju njelubujom 0.6666667
stajiće płaśobny 0.5000000
stajiće stajiśo 1.0000000
stajiće stajijośo 0.7500000
nakliknjeny nakliknjony 1.0000000
skener skanner 0.7500000
spóznachu su 0.0002199
spóznachu spóznali 0.1666667
wažnosće wažnosći 1.0000000
njeprawdźepodobnje njewěrobnje 1.0000000
znjewužiwał znjewužywajo 0.3333333
předaloko tu 0.0025000
předaloko źěru 0.0322581
předaloko njedosegnu 0.0769231
předaloko ja 0.0007168
inspirator inspirator 1.0000000
nawal nawal 1.0000000
forumowi forumowe 0.6666667
blokami blokami 1.0000000
čłowjekoweho cłowjeka 0.0256410
awdioklip awdioklip 1.0000000
šosar zastojnik 0.0333333
manifestowe manifestowe 1.0000000
přihłosowaše pśigłosowała 0.3333333
zamóžnosć a 0.0001868
zamóžnosć zamóžnosć 0.4615385
wosomnate wósymnaste 1.0000000
hnydomneje naměstneje 1.0000000
prezentujemy prezentěrujomy 1.0000000
zjawna zjawna 0.9545455
zjawna zjawne 0.0253165
zjawna zjawnu 0.0666667
selektorje selektorje 1.0000000
bahno para 0.2000000
bahno mě 0.0007746
bahno to 0.0001871
bahno zlětuju 1.0000000
bahno prima 0.1666667
bahno tonišćo 1.0000000
bahno bagno 1.0000000
awtorstwu awtorstwa 0.1428571
zakładnymi zakładnymi 1.0000000
njepłaća njepłaśe 1.0000000
přehnawaš pśegnawaś 1.0000000
kónčin stron 1.0000000
kónčin regionow 0.1818182
kónčin stronow 0.1724138
kónčin wokolinow 1.0000000
emisije emisije 1.0000000
aktiwistami aktiwistami 1.0000000
pistu pistu 1.0000000
franziska franziska 1.0000000
lětnej lětneju 1.0000000
lětnej lětnej 1.0000000
zrosćeneho zrosćoneje 0.3333333
saksko-anhaltska saksko-anhaltska 1.0000000
njewulkej njewjelikej 1.0000000
lesny něžne 1.0000000
rozdwoja rozdwóje 1.0000000
wěža na 0.0001139
wěža zeger 0.0208333
wěža torm 0.6923077
wěža tormje 0.2000000
widejodožiwjenja wideodožywjenja 1.0000000
pohódnoćeni pógódnośenje 0.0172414
celovecu celovecu 1.0000000
powšitkownowužitnym za 0.0001234
powšitkownowužitnym powšyknowužytne 0.3333333
bjezbarjernosć bźezbarjernosć 1.0000000
bjezbarjernosć bźezbariernosć 1.0000000
symanom symanom 1.0000000
přistupu pśistupu 1.0000000
mjerwjeńca mjerwjeńca 1.0000000
štomiki bomcyki 1.0000000
njeměła njeměła 1.0000000
njeměła njedejała 0.3571429
jutrownej jatšownej 1.0000000
jutrownej jatšowneju 0.3333333
kompjutera kompjutera 0.6666667
jenoz jano 0.0008340
wjerbje wjerbje 1.0000000
skazanja skazanja 0.2500000
knižku kniglicki 0.2000000
knižku zelarske 0.3333333
knižku knigły 0.0074074
zarjadnišćemi institucijami 0.0526316
zarjadnišćemi zastojnstwami 0.3000000
morwu njabogego 0.2500000
zajimc zajmc 1.0000000
sms-słužba sms-słužba 0.7500000
sms-słužba njejo 0.0005479
słownu słownu 1.0000000
10.000 10.000 1.0000000
dochadźacu pśichadajucu 0.5000000
dochadźacu dochadajucu 1.0000000
zakazał zakazał 1.0000000
tveiranowu póglědał 0.1250000
wočakuja wótcakuju 1.0000000
wočakuja wócakuju 0.8000000
2020 2020 1.0000000
hrajnymi grajkajucymi 1.0000000
hrajnymi grajnymi 0.6666667
herbert herbert 1.0000000
diagnosticěrować diagnosticěrowaś 1.0000000
wuhódała wugódała 0.5000000
wobstajnym wobstawnym 0.2727273
rěčnicomaj rěcnicoma 1.0000000
smogorjow-prjawoz smogorjow-prjawoz 1.0000000
etablěrowanymi etablěrowanymi 1.0000000
slědźenišćom instituciju 0.2500000
slědźenišćom slěźaŕskeju 1.0000000
rozrjadowanja rozrědowanja 1.0000000
škita góji 0.5000000
škita šćita 0.9230769
škita NULL 0.0002322
škita šćitujo 0.5000000
škita šćitanja 0.5000000
manuelne manuelne 1.0000000
božej bóžej 1.0000000
božej namšy 0.0588235
božej swěźeńskej 0.3333333
zamóženju zamóženju 1.0000000
wójska armeje 0.3333333
wójska zakłoje 0.2500000
wójska woblagnuło 0.3333333
wójska wójnstwa 1.0000000
wójska wójakow 0.0384615
wójska stupił 0.1111111
wójska wójska 1.0000000
mučni mucne 0.6250000
sponsorowane sponsorowane 0.5000000
kategoriji kategoriju 0.0666667
kategoriji NULL 0.0002322
kategoriji kategoriji 0.8695652
němscy nimske 0.2758621
mocow mócow 0.8095238
mocow mócy 0.0156250
słowaksku słowaksku 1.0000000
kategorije kategoriju 0.0666667
kategorije kategorije 0.9230769
slědowacym slědujucym 1.0000000
slědowacym slědujucej 0.1000000
slědowacym slědujucem 0.6666667
wobrazowu wobrazowu 1.0000000
zarjada amta 0.4062500
zarjada raźcownje 1.0000000
zarjada za 0.0002467
zarjada strowotnistwa 0.2000000
zarjada zastojnstwa 0.4408602
zarjada zarěda 1.0000000
zarjada dwóra 0.3333333
zarjada centruma 0.0206186
zarjada zarědnistwa 1.0000000
cipher cipher 1.0000000
zběrała zběrała 0.5000000
wikowarjach wikowarjach 1.0000000
podsmužkow pódsmužkow 1.0000000
wuskomyslni wobgranicowane 0.1111111
wuskomyslni w 0.0001044
wuskomyslni myslenju 1.0000000
kwalitatiwnje kwalitatiwnje 1.0000000
runostajeni NULL 0.0002322
palenc sliwowic 0.6666667
palenc paleńc 1.0000000
palenc z 0.0001352
jasnišo jasnjej 1.0000000
wuwzaćom wuwuześim 1.0000000
wuwzaćom wuwześim 0.2500000
wuwzaćom togo 0.0009579
wuwjedźeny wuwjeźony 1.0000000
narodniny narodny 0.1666667
narodniny narodniny 1.0000000
narodniny źeń 0.0084034
tveiranowy śi 0.0022883
tveiranowy twajrana 0.1363636
tveiranowy twajranowy 1.0000000
tveiranowy dom 0.0392157
tveiranowy a 0.0000623
tveiranowy / 0.0014815
tveiranowy rozglěduj 0.2500000
woblěhowanju město 0.0043290
wšelakorosć wjeleserakosć 0.2500000
wšelakorosć wjelerakosć 0.2222222
wšelakorosć wšakorakosć 1.0000000
wšelakorosć wšakorakosći 1.0000000
młodoserbskeho młodoserbskego 1.0000000
format format 0.9473684
format pak 0.0013175
w-wjele wje-wjele 0.3333333
w-wjele nje-njetrjebam 1.0000000
hrabała grabała 1.0000000
čelnjanom janom 0.6666667
sćěhowaštej stej 0.0051546
sćěhowaštej slědowałej 0.6666667
wusudźe wusuźe 1.0000000
špałty słupy 0.5000000
špałty słupa 0.3333333
dźělu źělu 0.9333333
widźech som 0.0008889
snano pśipadnje 0.0769231
snano snaź 0.8078947
snano pak 0.0013175
snano móžo 0.0081566
snano słowko 0.2500000
snano snano 1.0000000
snano až 0.0002495
snano na 0.0001139
snano mógali 0.0041667
snano NULL 0.0011609
snano byś 0.0027548
snano mógała 0.0324675
snano drje 0.0136986
snano ga 0.0034247
snano jo 0.0000693
snano nejskerjejwěcej 0.5000000
snano ty 0.0019268
snano někaki 0.0333333
snano mógło 0.0196078
snano nejskerjej 0.1703704
snano zajmujo 0.0500000
snano mógu 0.0013123
snano nekskerjej 1.0000000
snano njebudu 0.0080645
snano snaž 1.0000000
snano móžno 0.0136986
snano wótnowiś 0.0303030
snano ale 0.0006489
snano how 0.0010288
snano jo-lic 0.0178571
snano mógało 0.0136986
zwarju zwarijom 1.0000000
nbu njo 0.0434783
wobzamknyła wobzamknuła 0.8333333
njehódnoćacy njegódnośeca 1.0000000
powjerchu pówjerchu 1.0000000
korigowała korigěrowała 1.0000000
třiróžk tśirožk 1.0000000
stwomaj śpoma 1.0000000
böhlenje böhlenje 1.0000000
wjelbika jěźneje 1.0000000
wjelbika komorki 0.6666667
wjelbika komory 0.3333333
wjelbika w 0.0001044
wjelbika forotoweje 0.6666667
wjelbika komorce 0.1666667
posłužbje togo 0.0009579
posłužbje bok 0.0033898
posłužbje internetowego 0.1000000
posłužbje słužbywugbarja 0.5000000
schodźenki schójźeńki 0.8888889
systematiku systematiku 1.0000000
systematiku cele 0.0263158
přdać pśidaś 0.0095238
domenu domenu 1.0000000
skočić skócyś 1.0000000
zaručimy zarucyjomy 1.0000000
spjelnjena šulu 0.0238095
awtomatiski awtomatiski 0.0274725
wali jo 0.0000693
wali walijo 1.0000000
wali walił 0.2500000
zapopadnyli zapópadnuli 1.0000000
klienće klienśe 1.0000000
wjedźe wjeźo 0.8769231
wjedźe wen 0.0277778
wjedźe wašej 0.0158730
wjedźe drogujośo 0.2500000
wjedźe źo 0.0208955
wjedźe dowjeźo 0.2500000
wjedźe wjedu 0.0370370
wjedźe se 0.0000696
wjedźe ma 0.0013680
wjedźe śi 0.0022883
wjedźe srědkami 0.0909091
wotmołwami wótegronami 1.0000000
wotmołwami wótegrona 0.0161290
zaktualizowane aktualizěrowane 0.4000000
zaktualizowane zaktualizěrowali 0.1428571
zaktualizowane zaktualizěrowane 1.0000000
zaktualizowane zaktualizěrowało 0.3333333
spóznajemy póznajomy 1.0000000
spóznajemy spóznajomy 1.0000000
stajetej stajotej 1.0000000
wobchadźeće pólom 0.1111111
wobchadźeće wobchadaš 1.0000000
wobchadźeće wobchadaśo 0.6000000
přijimanje serwer 0.0076336
přijimanje dostawanje 1.0000000
přijimanje pśiwześe 0.2222222
přijimanje nabraśe 1.0000000
relewantneje relewantneje 1.0000000
dorozumili dorozměli 1.0000000
dorozumili w 0.0001044
dorozumili pśiměrjonej 0.1250000
ass0rd ass0rd 1.0000000
parametry parametry 0.8000000
stłóčenjom tusnjenim 1.0000000
stłóčenjom tłocenim 0.5000000
stłóčenjom tipnjenim 0.7500000
stłóčenjom tipowanim 0.5000000
pc pc 0.7500000
wojacy NULL 0.0002322
wojacy to 0.0001871
wojacy wójaki 0.8125000
wojacy móje 0.0108696
přeprosyła pśepšosyła 1.0000000
wopłokowadła womyjadła 1.0000000
zarjadniskeho zastojnskego 1.0000000
zarjadniskeho zastojnstwowego 1.0000000
zarjadniskeho zarědniskego 1.0000000
zarjadniskeho zastojańskego 1.0000000
wusłyšał wusłyšał 0.6666667
zdźěl daj 0.0136986
zdźěl wěsći 0.0048077
zdźěl k 0.0003378
wobknježachu wobkněžyli 1.0000000
horjeka górjejka 1.0000000
horjeka górjejce 0.9803922
horjeka wótgórjejka 0.5000000
čehodla cogodla 0.9375000
čehodla cogo 0.8888889
čehodla zbrašony 0.1000000
čehodla cog 0.2500000
čehodla NULL 0.0006965
čehodla čehodla 1.0000000
čehodla až 0.0002495
čehodla comu 0.0370370
čehodla a 0.0001868
čehodla dal 1.0000000
čehodla dla 0.1721854
čehodla pón 0.0044444
čehodla rycynu 1.0000000
spjelnjeja społnjuju 1.0000000
spjelnjeja NULL 0.0002322
spjelnjeja dopołnje 0.0135135
spjelnjeja społniju 1.0000000
wotpadnyli wótpadnułi 1.0000000
window.top window.top 1.0000000
palčiko krotuš 0.1428571
chłostajomnosć wugbaśim 0.2500000
chłostajomnosć chłostajobnosć 1.0000000
handrik hanrik 1.0000000
potenciale potenciale 1.0000000
enormny enormny 0.2500000
uchiha uchiha 1.0000000
njedostatk njedostatk 1.0000000
přisłód pśisłod 1.0000000
płótny płotowy 1.0000000
zwěsći-li zwěsći-li 1.0000000
zwěsći-li zwěsćijo 0.1333333
zwěsći-li až 0.0004990
zwěsći-li joli 0.0689655
wočakowanja wócakowanja 0.8888889
wočakowanja wótcakowanja 1.0000000
kompetentnu kompetentnu 1.0000000
bukowej bukoweju 1.0000000
dźesatkich źasetki 1.0000000
efekt efekt 1.0000000
wuzwolić wubraś 0.0724638
wuzwolić wubjeŕśo 0.0043668
wuzwolić faworit 0.2500000
wuzwolić wuzwoliś 1.0000000
wuzwolić wuzwóliś 0.7391304
