NULL o 0.0394802
p o 0.0001234
h o 0.0000411
o o 0.6521221
j o 0.0008225
i o 0.0183418
ó o 0.1904507
b o 0.0006169
ł o 0.0000823
ě o 0.0038658
ś o 0.0004935
w o 0.0000823
l o 0.0003290
a o 0.0307205
e o 0.0316664
y o 0.0079372
t o 0.0000411
u o 0.0204392
n o 0.0004524
k o 0.0006991
s o 0.0008225
c o 0.0003701
p h 0.0047305
NULL h 0.0405677
d h 0.0134748
ź h 0.0027236
h h 0.3213876
f h 0.0004300
j h 0.0209289
r h 0.0001433
i h 0.0007167
ž h 0.0015768
ł h 0.0027236
b h 0.0001433
m h 0.0116112
ś h 0.0032970
w h 0.0044438
š h 0.0011468
g h 0.5230791
l h 0.0160550
a h 0.0001433
z h 0.0071674
e h 0.0011468
u h 0.0060206
y h 0.0001433
t h 0.0012901
k h 0.0098911
c h 0.0035837
s h 0.0008601
n h 0.0005734
ž f 0.0016722
p f 0.0083612
NULL f 0.0016722
w f 0.0033445
m f 0.0033445
b f 0.0050167
z f 0.0033445
h f 0.0016722
f f 0.9715719
z j 0.0007179
e j 0.0000552
k j 0.0029821
s j 0.0010493
c j 0.0037552
n j 0.0123702
u j 0.0382152
y j 0.0001104
t j 0.0027060
š j 0.0008836
w j 0.0078971
a j 0.0003313
g j 0.0057433
l j 0.0015463
ł j 0.0002209
m j 0.0148001
b j 0.0004970
i j 0.0110448
ž j 0.0011597
ń j 0.0003313
ś j 0.0007179
ě j 0.0411973
ć j 0.0018776
d j 0.0001104
ź j 0.0057985
NULL j 0.0938259
p j 0.0022090
f j 0.0000552
j j 0.7419925
r j 0.0042523
o j 0.0001104
h j 0.0014358
a r 0.0002538
l r 0.0142108
g r 0.0039756
w r 0.0138724
š r 0.0747758
n r 0.0059212
k r 0.0069362
s r 0.0098968
c r 0.0058366
y r 0.0003384
t r 0.0043140
z r 0.0023685
j r 0.0021993
r r 0.7568093
d r 0.0026222
ŕ r 0.0515987
ź r 0.0012688
NULL r 0.0073592
p r 0.0126036
ś r 0.0066825
b r 0.0115040
ó r 0.0000846
m r 0.0012688
ł r 0.0015226
ž r 0.0004229
ń r 0.0013534
ź NULL 0.0027520
d NULL 0.0041281
ŕ NULL 0.0032107
ć NULL 0.0024768
p NULL 0.0112834
r NULL 0.1307220
j NULL 0.2204385
f NULL 0.0000917
h NULL 0.0075222
o NULL 0.1016421
ó NULL 0.0081644
b NULL 0.0086231
m NULL 0.0171544
ł NULL 0.0107330
ž NULL 0.0029355
ń NULL 0.0038529
i NULL 0.0415558
ě NULL 0.0950372
ś NULL 0.0132098
š NULL 0.0032107
w NULL 0.0661407
a NULL 0.0478855
l NULL 0.0034859
g NULL 0.0059628
e NULL 0.0271535
z NULL 0.0063297
n NULL 0.0351344
s NULL 0.0157784
c NULL 0.0182552
k NULL 0.0262361
t NULL 0.0081644
y NULL 0.0095404
u NULL 0.0411889
NULL p 0.0135715
p p 0.8846423
ź p 0.0015966
d p 0.0120746
o p 0.0005987
h p 0.0028939
f p 0.0014969
j p 0.0018960
ž p 0.0002994
ł p 0.0009979
ó p 0.0000998
b p 0.0021954
m p 0.0016964
ě p 0.0000998
ś p 0.0000998
w p 0.0177627
š p 0.0031933
g p 0.0242491
l p 0.0040914
a p 0.0019958
z p 0.0054885
u p 0.0002994
t p 0.0057878
s p 0.0078834
c p 0.0012973
k p 0.0008981
n p 0.0027941
o ć 0.0001650
r ć 0.0033003
j ć 0.0089109
p ć 0.0003300
NULL ć 0.0080858
ź ć 0.0023102
d ć 0.0046205
ŕ ć 0.0029703
ć ć 0.2097360
ś ć 0.6544554
ž ć 0.0004950
ń ć 0.0003300
b ć 0.0009901
ó ć 0.0001650
m ć 0.0067657
ł ć 0.0049505
l ć 0.0120462
g ć 0.0100660
š ć 0.0031353
w ć 0.0085809
t ć 0.0303630
u ć 0.0004950
n ć 0.0066007
s ć 0.0080858
c ć 0.0061056
k ć 0.0029703
z ć 0.0029703
i d 0.0001069
ń d 0.0006416
ž d 0.0047054
ł d 0.0001069
m d 0.0048123
b d 0.0034221
ś d 0.0002139
NULL d 0.0080205
p d 0.0072719
ź d 0.1934552
d d 0.6695541
ŕ d 0.0002139
o d 0.0002139
r d 0.0041707
j d 0.0372153
z d 0.0085552
u d 0.0020319
t d 0.0062025
c d 0.0056678
s d 0.0034221
k d 0.0035290
n d 0.0146508
w d 0.0087691
š d 0.0047054
g d 0.0047054
l d 0.0027805
a d 0.0008555
ć ź 0.0018477
w ź 0.0099778
ź ź 0.7812269
NULL ź 0.1067997
a ź 0.0051737
j ź 0.0254989
o ź 0.0029564
g ź 0.0121951
l ź 0.0033259
h ź 0.0022173
ł ź 0.0036955
i ź 0.0036955
ń ź 0.0014782
ž ź 0.0036955
c ź 0.0003695
n ź 0.0225425
u ź 0.0129342
ś ź 0.0003695
NULL ě 0.0022500
o ě 0.0250000
l ě 0.0040000
a ě 0.0642500
j ě 0.0037500
i ě 0.0735000
ó ě 0.0137500
e ě 0.0527500
u ě 0.0055000
ě ě 0.7192500
y ě 0.0360000
NULL i 0.0324096
ć i 0.0000671
w i 0.0000671
o i 0.0278467
h i 0.0007381
a i 0.0319399
j i 0.0021472
i i 0.6857680
ł i 0.0003355
e i 0.0788432
ó i 0.0012078
u i 0.0085218
y i 0.1186338
ě i 0.0094612
t i 0.0000671
ś i 0.0004026
s i 0.0002684
n i 0.0012749
t ń 0.0103093
ś ń 0.0041237
u ń 0.0103093
n ń 0.2061856
c ń 0.0268041
k ń 0.0082474
ž ń 0.0082474
ń ń 0.2618557
i ń 0.1587629
m ń 0.0020619
ó ń 0.0020619
h ń 0.0329897
j ń 0.2309278
a ń 0.0061856
NULL ń 0.0061856
p ń 0.0041237
ź ń 0.0185567
š ń 0.0020619
m ž 0.0144105
b ž 0.0008734
z ž 0.0441048
ł ž 0.0021834
ž ž 0.7545852
n ž 0.0104803
k ž 0.0139738
s ž 0.0192140
c ž 0.0323144
y ž 0.0004367
t ž 0.0048035
ś ž 0.0013100
w ž 0.0043668
š ž 0.0013100
d ž 0.0113537
ź ž 0.0065502
ć ž 0.0017467
NULL ž 0.0061135
p ž 0.0218341
j ž 0.0061135
r ž 0.0004367
a ž 0.0017467
l ž 0.0069869
h ž 0.0017467
g ž 0.0310044
h ł 0.0002106
l ł 0.0248526
g ł 0.0018955
r ł 0.0235889
j ł 0.0027380
a ł 0.0012637
NULL ł 0.0010531
p ł 0.0027380
ź ł 0.0016849
w ł 0.0046335
ŕ ł 0.0002106
d ł 0.0016849
ć ł 0.0006318
t ł 0.0027380
ś ł 0.0046335
n ł 0.0143218
s ł 0.0014743
c ł 0.0046335
k ł 0.0018955
ž ł 0.0002106
m ł 0.0052654
ł ł 0.8974305
z ł 0.0002106
ŕ b 0.0002563
d b 0.0058959
NULL b 0.0130736
p b 0.0169187
j b 0.0028198
r b 0.0023071
f b 0.0064086
h b 0.0007690
o b 0.0007690
b b 0.8349141
m b 0.0128172
ł b 0.0010254
w b 0.0266598
š b 0.0020508
l b 0.0169187
g b 0.0146116
e b 0.0017944
z b 0.0051269
n b 0.0066650
k b 0.0007690
s b 0.0041015
c b 0.0058959
t b 0.0174314
e ó 0.0166422
ó ó 0.4933921
s ó 0.0004895
u ó 0.0381791
ś ó 0.0009790
ě ó 0.0112580
y ó 0.0068527
d ó 0.0220264
NULL ó 0.0068527
a ó 0.0484581
o ó 0.3548703
n m 0.0069461
c m 0.0019162
s m 0.0032335
k m 0.0014371
t m 0.0033533
y m 0.0001198
u m 0.0031138
e m 0.0015569
z m 0.0040719
a m 0.0001198
l m 0.0007186
g m 0.0197605
w m 0.0051497
ś m 0.0020359
b m 0.0211976
m m 0.8752096
ž m 0.0004790
r m 0.0051497
j m 0.0159281
f m 0.0002395
h m 0.0013174
ź m 0.0001198
d m 0.0033533
NULL m 0.0200000
p m 0.0034731
r g 0.0293578
d g 0.0036697
c g 0.0018349
z g 0.0018349
k g 0.0293578
g g 0.9339450
b l 0.0020573
m l 0.0003429
ł l 0.0277730
ž l 0.0013715
ń l 0.0006858
ś l 0.0008572
d l 0.0073718
ŕ l 0.0027430
ź l 0.0008572
NULL l 0.0126864
p l 0.0003429
j l 0.0032573
r l 0.0135436
z l 0.0030859
n l 0.0096005
k l 0.0084005
s l 0.0063432
c l 0.0125150
t l 0.0037716
š l 0.0037716
w l 0.0106292
l l 0.8613064
g l 0.0066861
l a 0.0000362
o a 0.0414330
r a 0.0000724
a a 0.7515108
NULL a 0.0142211
ź a 0.0000362
d a 0.0025330
š a 0.0002533
ć a 0.0003619
ś a 0.0008323
ě a 0.0378144
y a 0.0096255
u a 0.0581147
n a 0.0002171
s a 0.0002171
c a 0.0001086
k a 0.0000724
ž a 0.0000362
i a 0.0154152
e a 0.0612267
ó a 0.0058259
ł a 0.0000362
j č 0.0162602
r č 0.0236833
h č 0.0169671
ć č 0.0155532
d č 0.0265111
ź č 0.0035348
NULL č 0.0049487
p č 0.0045953
ś č 0.0084836
ł č 0.0007070
m č 0.0021209
i č 0.0074231
ž č 0.0053022
ń č 0.0003535
g č 0.0045953
l č 0.0007070
w č 0.0116649
š č 0.0169671
k č 0.0318134
s č 0.0113114
c č 0.7207494
n č 0.0303994
y č 0.0014139
t č 0.0332273
z č 0.0007070
z š 0.0015275
y š 0.0038187
t š 0.0035642
u š 0.0002546
n š 0.0262220
k š 0.0106925
c š 0.0173116
s š 0.0972505
w š 0.0045825
š š 0.6474033
l š 0.0043279
g š 0.0020367
a š 0.0002546
ž š 0.0045825
i š 0.0005092
m š 0.0005092
b š 0.0081466
ł š 0.0188391
ś š 0.0038187
NULL š 0.0101833
p š 0.0002546
d š 0.0020367
ź š 0.0012729
h š 0.0071283
o š 0.0002546
j š 0.1224542
r š 0.0007637
ć w 0.0001113
ź w 0.0000556
d w 0.0078990
ŕ w 0.0004450
NULL w 0.0295934
p w 0.0067308
f w 0.0002225
r w 0.0026145
j w 0.0410525
h w 0.0057852
ł w 0.0006119
b w 0.0055627
m w 0.0021694
i w 0.0003338
ń w 0.0010013
ž w 0.0004450
ś w 0.0006119
w w 0.8390165
š w 0.0010569
a w 0.0001113
g w 0.0003338
l w 0.0024476
z w 0.0051733
s w 0.0060077
c w 0.0040051
k w 0.0019469
n w 0.0257551
u w 0.0002781
t w 0.0080102
y w 0.0006119
a u 0.0389658
r u 0.0008310
j u 0.0006464
o u 0.0483841
h u 0.0000923
l u 0.0000923
ć u 0.0007387
w u 0.0001847
NULL u 0.0105263
s u 0.0006464
n u 0.0015697
u u 0.7254848
ś u 0.0012004
t u 0.0039705
ě u 0.0440443
y u 0.0263158
ł u 0.0001847
ó u 0.0110803
e u 0.0442290
m u 0.0221607
i u 0.0186519
y y 0.5792554
ě y 0.0027638
ś y 0.0001626
u y 0.0729963
k y 0.0037392
c y 0.0003252
s y 0.0009755
i y 0.0284507
m y 0.0004877
ó y 0.0162575
e y 0.2163876
ł y 0.0102422
l y 0.0094294
o y 0.0130060
j y 0.0003252
r y 0.0004877
a y 0.0338156
NULL y 0.0061779
š y 0.0001626
w y 0.0008129
ć y 0.0037392
ś t 0.0083557
ž t 0.0005356
ń t 0.0013926
m t 0.0004285
ó t 0.0049277
b t 0.0102839
ł t 0.0022496
h t 0.0002142
o t 0.0003214
j t 0.0005356
r t 0.0026781
NULL t 0.0170327
p t 0.0055704
d t 0.0100696
ź t 0.0033208
ć t 0.0024638
t t 0.8472416
u t 0.0002142
n t 0.0372791
k t 0.0057847
c t 0.0082485
s t 0.0123192
e t 0.0002142
z t 0.0019282
l t 0.0018211
g t 0.0035351
a t 0.0070702
š t 0.0029995
w t 0.0009641
l k 0.0010420
g k 0.0155347
w k 0.0108932
š k 0.0035995
t k 0.0145875
u k 0.0009472
n k 0.0179975
c k 0.0321114
s k 0.0036942
k k 0.8282656
e k 0.0004736
z k 0.0039784
h k 0.0019892
o k 0.0019892
r k 0.0020839
j k 0.0103249
f k 0.0007578
NULL k 0.0196078
p k 0.0019892
ź k 0.0002842
ŕ k 0.0025575
d k 0.0026523
ć k 0.0079568
ś k 0.0014209
ž k 0.0005683
i k 0.0003789
m k 0.0009472
b k 0.0089040
ł k 0.0024628
z s 0.0192918
e s 0.0006002
u s 0.0000857
y s 0.0005144
t s 0.0015433
k s 0.0062591
s s 0.8582697
c s 0.0067736
n s 0.0004287
š s 0.0070308
w s 0.0101175
g s 0.0004287
l s 0.0048873
a s 0.0006859
m s 0.0100317
b s 0.0093458
ś s 0.0043728
p s 0.0191203
NULL s 0.0272657
d s 0.0060876
ź s 0.0012861
o s 0.0008574
h s 0.0010289
f s 0.0000857
j s 0.0021435
r s 0.0014576
ě c 0.0010376
ś c 0.0141108
ž c 0.0049803
ń c 0.0002075
i c 0.0008300
m c 0.0035277
ł c 0.0010376
o c 0.0014526
r c 0.0026977
j c 0.0095455
f c 0.0045653
p c 0.0004150
NULL c 0.0394273
ź c 0.0035277
d c 0.0002075
ć c 0.0020751
t c 0.0074704
y c 0.0002075
n c 0.0043578
s c 0.0039427
c c 0.8169745
k c 0.0605935
e c 0.0004150
z c 0.0002075
l c 0.0014526
g c 0.0002075
a c 0.0018676
š c 0.0012451
w c 0.0114132
ś n 0.0040228
i n 0.0001567
ž n 0.0003135
ń n 0.0746043
ł n 0.0042318
b n 0.0016718
m n 0.0027167
o n 0.0002090
r n 0.0028212
j n 0.0022465
p n 0.0026644
NULL n 0.0166658
ć n 0.0000522
ź n 0.0006792
d n 0.0039705
ŕ n 0.0018285
u n 0.0016718
t n 0.0026644
y n 0.0002612
s n 0.0010449
c n 0.0049632
k n 0.0075231
n n 0.8424325
z n 0.0019853
e n 0.0000522
g n 0.0004180
l n 0.0055901
a n 0.0005747
w n 0.0106578
š n 0.0013061
z z 0.8430289
e z 0.0001625
t z 0.0030874
y z 0.0003250
s z 0.0191745
c z 0.0081248
k z 0.0055249
n z 0.0103997
w z 0.0289243
š z 0.0019500
g z 0.0095873
l z 0.0017875
i z 0.0003250
ž z 0.0060123
ł z 0.0001625
b z 0.0074748
m z 0.0003250
p z 0.0149496
NULL z 0.0138122
ź z 0.0024374
d z 0.0061748
h z 0.0013000
f z 0.0001625
r z 0.0134872
j z 0.0013000
ś ř 0.9272548
s ř 0.0039500
ł ř 0.0003292
ó ř 0.0049375
e ř 0.0013167
o ř 0.0042791
a ř 0.0003292
r ř 0.0088874
j ř 0.0042791
p ř 0.0003292
NULL ř 0.0342330
š ř 0.0088874
d ř 0.0009875
o e 0.1736405
h e 0.0010378
a e 0.1220008
j e 0.0002076
NULL e 0.0120797
p e 0.0001245
d e 0.0000830
w e 0.0002491
š e 0.0000830
u e 0.0174346
y e 0.0126609
t e 0.0002076
ś e 0.0000830
ě e 0.0224990
s e 0.0003321
n e 0.0000415
i e 0.0323786
ł e 0.0001245
e e 0.5988792
b e 0.0000415
m e 0.0022416
ó e 0.0035699
