o NULL 0.1332778
o p 0.0002991
o h 0.0003729
o o 0.6547609
o j 0.0010871
o i 0.0334559
o ó 0.7312490
o b 0.0035080
o ł 0.0004049
o ě 0.0134209
o ś 0.0016015
o w 0.0001145
o l 0.0013154
o a 0.0280806
o e 0.0376234
o y 0.0288275
o t 0.0001095
o u 0.0401422
o n 0.0005870
o k 0.0016624
o s 0.0017373
o c 0.0012069
h p 0.0032901
h NULL 0.0392892
h d 0.0127631
h ź 0.0044486
h h 0.8359433
h f 0.0045181
h j 0.0079356
h r 0.0000898
h i 0.0003751
h ž 0.0055138
h ł 0.0038469
h b 0.0002339
h m 0.0093957
h ś 0.0030695
h w 0.0017745
h š 0.0020460
h g 0.6766178
h l 0.0184150
h a 0.0000376
h z 0.0081927
h e 0.0003909
h u 0.0033923
h y 0.0001494
h t 0.0009853
h k 0.0067475
h c 0.0033526
h s 0.0005212
h n 0.0002135
f ž 0.0005013
f p 0.0004985
f NULL 0.0001388
f w 0.0001145
f m 0.0002320
f b 0.0007016
f z 0.0003277
f h 0.0003729
f f 0.8750000
j z 0.0021301
j e 0.0000489
j k 0.0052807
j s 0.0016505
j c 0.0091189
j n 0.0119543
j u 0.0558921
j y 0.0002987
j t 0.0053646
j š 0.0040921
j w 0.0081855
j a 0.0002255
j g 0.0192843
j l 0.0046037
j ł 0.0008099
j m 0.0310869
j b 0.0021048
j i 0.0150026
j ž 0.0105263
j ń 0.0035971
j ś 0.0017350
j ě 0.1065106
j ć 0.0219355
j d 0.0002716
j ź 0.0245844
j NULL 0.2358739
j p 0.0039880
j f 0.0015060
j j 0.7302968
j r 0.0069114
j o 0.0000826
j h 0.0096943
r a 0.0001128
r l 0.0276225
r g 0.0087150
r w 0.0093875
r š 0.2260870
r n 0.0037357
r k 0.0080188
r s 0.0101633
r c 0.0092531
r y 0.0005975
r t 0.0055835
r z 0.0045879
r j 0.0014132
r r 0.8030697
r d 0.0042091
r ŕ 0.8100930
r ź 0.0035121
r NULL 0.0120783
r p 0.0148554
r ś 0.0105432
r b 0.0318054
r ó 0.0001579
r m 0.0017399
r ł 0.0036445
r ž 0.0025063
r ń 0.0095923
NULL ź 0.0070241
NULL d 0.0061100
NULL ŕ 0.0464807
NULL ć 0.0174194
NULL p 0.0122632
NULL r 0.1279059
NULL j 0.1306120
NULL f 0.0015060
NULL h 0.0305742
NULL o 0.0457511
NULL ó 0.0140534
NULL b 0.0219832
NULL m 0.0216912
NULL ł 0.0236890
NULL ž 0.0160401
NULL ń 0.0251799
NULL i 0.0339809
NULL ě 0.1479155
NULL ś 0.0192179
NULL š 0.0089514
NULL w 0.0412707
NULL a 0.0196226
NULL l 0.0062479
NULL g 0.0120527
NULL e 0.0144630
NULL z 0.0113059
NULL n 0.0204397
NULL s 0.0149409
NULL c 0.0266863
NULL k 0.0279679
NULL t 0.0097438
NULL y 0.0155340
NULL u 0.0362652
p NULL 0.0188810
p p 0.8838485
p ź 0.0037462
p d 0.0164291
p o 0.0002477
p h 0.0108128
p f 0.0225904
p j 0.0010327
p ž 0.0015038
p ł 0.0020247
p ó 0.0001579
p b 0.0051450
p m 0.0019719
p ě 0.0001428
p ś 0.0001335
p w 0.0101889
p š 0.0081841
p g 0.0450584
p l 0.0067412
p a 0.0007518
p z 0.0090120
p u 0.0002423
p t 0.0063499
p s 0.0068624
p c 0.0017433
p k 0.0008801
p n 0.0014943
ć o 0.0000413
ć r 0.0017952
ć j 0.0029351
ć p 0.0001994
ć NULL 0.0068027
ć ź 0.0032779
ć d 0.0038018
ć ŕ 0.0239044
ć ć 0.8200000
ć ś 0.5292940
ć ž 0.0015038
ć ń 0.0011990
ć b 0.0014032
ć ó 0.0001579
ć m 0.0047558
ć ł 0.0060741
ć l 0.0120026
ć g 0.0113110
ć š 0.0048593
ć w 0.0029765
ć t 0.0201445
ć u 0.0002423
ć n 0.0021347
ć s 0.0042564
ć c 0.0049618
ć k 0.0017602
ć z 0.0029494
d i 0.0000750
d ń 0.0035971
d ž 0.0220551
d ł 0.0002025
d m 0.0052198
d b 0.0074836
d ś 0.0002669
d NULL 0.0104123
d p 0.0067797
d ź 0.4235542
d d 0.8501018
d ŕ 0.0026560
d o 0.0000826
d r 0.0035006
d j 0.0189151
d z 0.0131083
d u 0.0015346
d t 0.0063499
d c 0.0071074
d s 0.0027797
d k 0.0032271
d n 0.0073113
d w 0.0046938
d š 0.0112532
d g 0.0081587
d l 0.0042749
d a 0.0003007
ź ć 0.0032258
ź w 0.0015455
ź ź 0.4949661
ź NULL 0.0401222
ź a 0.0005263
ź j 0.0037504
ź o 0.0003303
ź g 0.0061190
ź l 0.0014798
ź h 0.0022371
ź ł 0.0020247
ź i 0.0007501
ź ń 0.0023981
ź ž 0.0050125
ź c 0.0001341
ź n 0.0032554
ź u 0.0028269
ź ś 0.0001335
ě NULL 0.0012495
ě o 0.0041292
ě l 0.0026307
ě a 0.0096609
ě j 0.0008153
ě i 0.0220539
ě ó 0.0086847
ě e 0.0103098
ě u 0.0017769
ě ě 0.4107653
ě y 0.0215086
i NULL 0.0670554
i ć 0.0006452
i w 0.0000572
i o 0.0171360
i h 0.0041014
i a 0.0178934
i j 0.0017393
i i 0.7666342
i ł 0.0010124
i e 0.0574123
i ó 0.0028423
i u 0.0102577
i y 0.2640777
i ě 0.0201314
i t 0.0001095
i ś 0.0008007
i s 0.0003475
i n 0.0010140
ń t 0.0005474
ń ś 0.0002669
ń u 0.0004038
ń n 0.0053367
ń c 0.0017433
ń k 0.0003912
ń ž 0.0020050
ń ń 0.0761391
ń i 0.0057760
ń m 0.0001160
ń ó 0.0001579
ń h 0.0059657
ń j 0.0060876
ń a 0.0001128
ń NULL 0.0004165
ń p 0.0001994
ń ź 0.0021072
ń š 0.0002558
ž m 0.0038279
ž b 0.0004677
ž z 0.0165492
ž ł 0.0010124
ž ž 0.8661654
ž n 0.0012808
ž k 0.0031293
ž s 0.0038221
ž c 0.0099236
ž y 0.0001494
ž t 0.0012043
ž ś 0.0004004
ž w 0.0005724
ž š 0.0007673
ž d 0.0035302
ž ź 0.0035121
ž ć 0.0025806
ž NULL 0.0019436
ž p 0.0049850
ž j 0.0007610
ž r 0.0000898
ž a 0.0001504
ž l 0.0026307
ž h 0.0014914
ž g 0.0131652
ł h 0.0003729
ł l 0.0194015
ł g 0.0016688
ł r 0.0100530
ł j 0.0007066
ł a 0.0002255
ł NULL 0.0006942
ł p 0.0012961
ł ź 0.0018731
ł w 0.0012593
ł ŕ 0.0013280
ł d 0.0010862
ł ć 0.0019355
ł t 0.0014233
ł ś 0.0029361
ł n 0.0036290
ł s 0.0006081
ł c 0.0029502
ł k 0.0008801
ł ž 0.0005013
ł m 0.0028999
ł ł 0.8627252
ł z 0.0001639
b ŕ 0.0013280
b d 0.0031229
b NULL 0.0070804
b p 0.0065803
b j 0.0005979
b r 0.0008078
b f 0.0376506
b h 0.0011186
b o 0.0001239
b b 0.7616932
b m 0.0057998
b ł 0.0008099
b w 0.0059531
b š 0.0020460
b l 0.0108517
b g 0.0105693
b e 0.0003420
b z 0.0032771
b n 0.0013876
b k 0.0002934
b s 0.0013899
b c 0.0030844
b t 0.0074447
ó e 0.0016613
ó ó 0.1591663
ó s 0.0000869
ó u 0.0063000
ó ś 0.0002669
ó ě 0.0032838
ó y 0.0020911
ó d 0.0061100
ó NULL 0.0019436
ó a 0.0037215
ó o 0.0299364
m n 0.0030953
m c 0.0021456
m s 0.0023454
m k 0.0011735
m t 0.0030655
m y 0.0001494
m u 0.0021000
m e 0.0006352
m z 0.0055710
m a 0.0000376
m l 0.0009865
m g 0.0305952
m w 0.0024614
m ś 0.0022688
m b 0.0413938
m m 0.8476975
m ž 0.0020050
m r 0.0038596
m j 0.0072290
m f 0.0030120
m h 0.0041014
m ź 0.0002341
m d 0.0038018
m NULL 0.0231848
m p 0.0028913
g r 0.0014361
g d 0.0002716
g c 0.0001341
g z 0.0001639
g k 0.0015646
g g 0.0943816
l b 0.0028064
l m 0.0002320
l ł 0.0328002
l ž 0.0040100
l ń 0.0023981
l ś 0.0006673
l d 0.0058384
l ŕ 0.0212483
l ź 0.0011707
l NULL 0.0102735
l p 0.0001994
l j 0.0010327
l r 0.0070909
l z 0.0029494
l n 0.0029886
l k 0.0047917
l s 0.0032140
l c 0.0097895
l t 0.0024086
l š 0.0056266
l w 0.0035489
l l 0.8260441
l g 0.0072316
a l 0.0001644
a o 0.0472789
a r 0.0001795
a a 0.7806932
a NULL 0.0545606
a ź 0.0002341
a d 0.0095044
a š 0.0017903
a ć 0.0064516
a ś 0.0030695
a ě 0.1492005
a y 0.0397311
a u 0.1297149
a n 0.0003202
a s 0.0005212
a c 0.0004023
a k 0.0001956
a ž 0.0005013
a i 0.0319556
a e 0.0826737
a ó 0.0254224
a ł 0.0002025
č j 0.0025003
č r 0.0060138
č h 0.0178971
č ć 0.0283871
č d 0.0101833
č ź 0.0023414
č NULL 0.0019436
č p 0.0012961
č ś 0.0032030
č ł 0.0004049
č m 0.0006960
č i 0.0015753
č ž 0.0075188
č ń 0.0005995
č g 0.0024105
č l 0.0003288
č w 0.0018890
č š 0.0122762
č k 0.0088011
č s 0.0027797
č c 0.2734344
č n 0.0045896
č y 0.0005975
č t 0.0102912
č z 0.0003277
š z 0.0009831
š y 0.0022405
š t 0.0015327
š u 0.0000808
š n 0.0054969
š k 0.0041072
š c 0.0091189
š s 0.0331828
š w 0.0010303
š š 0.6503836
š l 0.0027951
š g 0.0014834
š a 0.0000376
š ž 0.0090226
š i 0.0001500
š m 0.0002320
š b 0.0074836
š ł 0.0149828
š ś 0.0020019
š NULL 0.0055532
š p 0.0000997
š d 0.0010862
š ź 0.0011707
š h 0.0104400
š o 0.0000413
š j 0.0261441
š r 0.0002693
w ć 0.0012903
w ź 0.0002341
w d 0.0192804
w ŕ 0.0106242
w NULL 0.0738581
w p 0.0120638
w f 0.0060241
w r 0.0042187
w j 0.0401131
w h 0.0387770
w ł 0.0022272
w b 0.0233863
w m 0.0045238
w i 0.0004501
w ń 0.0107914
w ž 0.0040100
w ś 0.0014680
w w 0.8633658
w š 0.0048593
w a 0.0000752
w g 0.0011126
w l 0.0072345
w z 0.0152384
w s 0.0093815
w c 0.0096554
w k 0.0034226
w n 0.0247091
w u 0.0004038
w t 0.0157653
w y 0.0016430
u a 0.0158635
u r 0.0008078
u j 0.0003805
u o 0.0216368
u h 0.0003729
u l 0.0001644
u ć 0.0051613
u w 0.0001145
u NULL 0.0158267
u s 0.0006081
u n 0.0009072
u u 0.6346014
u ś 0.0017350
u t 0.0047077
u ě 0.0681039
u y 0.0425691
u ł 0.0004049
u ó 0.0189484
u e 0.0234047
u m 0.0278390
u i 0.0151527
y y 0.5321882
y ě 0.0024272
y ś 0.0001335
y u 0.0362652
y k 0.0022492
y c 0.0002682
y s 0.0005212
y i 0.0131273
y m 0.0003480
y ó 0.0157903
y e 0.0650347
y ł 0.0127556
y l 0.0095363
y o 0.0033033
y j 0.0001087
y r 0.0002693
y a 0.0078190
y NULL 0.0052756
y š 0.0002558
y w 0.0002862
y ć 0.0148387
t ś 0.0104097
t ž 0.0025063
t ń 0.0077938
t m 0.0004640
t ó 0.0072635
t b 0.0224509
t ł 0.0042519
t h 0.0007457
t o 0.0001239
t j 0.0002718
t r 0.0022440
t NULL 0.0220741
t p 0.0051844
t d 0.0127631
t ź 0.0072583
t ć 0.0148387
t t 0.8658857
t u 0.0001615
t n 0.0185719
t k 0.0052807
t c 0.0103259
t s 0.0099896
t e 0.0000977
t z 0.0029494
t l 0.0027951
t g 0.0061190
t a 0.0024810
t š 0.0071611
t w 0.0005152
k l 0.0018086
k g 0.0304098
k w 0.0065827
k š 0.0097187
k t 0.0168601
k u 0.0008077
k n 0.0101398
k c 0.0454606
k s 0.0033878
k k 0.8550753
k e 0.0002443
k z 0.0068819
k h 0.0078300
k o 0.0008671
k r 0.0019747
k j 0.0059246
k f 0.0120482
k NULL 0.0287380
k p 0.0020937
k ź 0.0007024
k ŕ 0.0358566
k d 0.0038018
k ć 0.0541935
k ś 0.0020019
k ž 0.0030075
k i 0.0003001
k m 0.0011600
k b 0.0219832
k ł 0.0052642
s z 0.0368671
s e 0.0003420
s u 0.0000808
s y 0.0008962
s t 0.0019707
s k 0.0071387
s s 0.8695274
s c 0.0105941
s n 0.0002668
s š 0.0209719
s w 0.0067544
s g 0.0009271
s l 0.0093719
s a 0.0003007
s m 0.0135715
s b 0.0254911
s ś 0.0068064
s p 0.0222333
s NULL 0.0441483
s d 0.0096402
s ź 0.0035121
s o 0.0004129
s h 0.0044743
s f 0.0015060
s j 0.0013588
s r 0.0015259
c ě 0.0007139
c ś 0.0090751
c ž 0.0120301
c ń 0.0005995
c i 0.0003001
c m 0.0019719
c ł 0.0010124
c o 0.0002890
c r 0.0011669
c j 0.0025003
c f 0.0331325
c p 0.0001994
c NULL 0.0263779
c ź 0.0039803
c d 0.0001358
c ć 0.0064516
c t 0.0039413
c y 0.0001494
c n 0.0011207
c s 0.0016505
c c 0.5279603
c k 0.0285547
c e 0.0000977
c z 0.0001639
c l 0.0011509
c g 0.0001854
c a 0.0003383
c š 0.0015345
c w 0.0031483
n ś 0.0102763
n i 0.0002250
n ž 0.0030075
n ń 0.8561151
n ł 0.0164001
n b 0.0074836
n m 0.0060318
n o 0.0001652
n r 0.0048470
n j 0.0023372
n p 0.0050847
n NULL 0.0442871
n ć 0.0006452
n ź 0.0030438
n d 0.0103191
n ŕ 0.0464807
n u 0.0025846
n t 0.0055835
n y 0.0007468
n s 0.0017373
n c 0.0127397
n k 0.0140818
n n 0.8605508
n z 0.0062264
n e 0.0000489
n g 0.0014834
n l 0.0175929
n a 0.0004135
n w 0.0116772
n š 0.0063939
z z 0.8500737
z e 0.0000489
z t 0.0020801
z y 0.0002987
z s 0.0102502
z c 0.0067051
z k 0.0033249
z n 0.0034155
z w 0.0101889
z š 0.0030691
z g 0.0109401
z l 0.0018086
z i 0.0001500
z ž 0.0185464
z ł 0.0002025
z b 0.0107577
z m 0.0002320
z p 0.0091725
z NULL 0.0118006
z ź 0.0035121
z d 0.0051595
z h 0.0029828
z f 0.0015060
z r 0.0074500
z j 0.0004348
ř ś 0.3759509
ř s 0.0010424
ř ł 0.0002025
ř ó 0.0023685
ř e 0.0001954
ř o 0.0005368
ř a 0.0000376
ř r 0.0024235
ř j 0.0007066
ř p 0.0000997
ř NULL 0.0144384
ř š 0.0069054
ř d 0.0004073
e o 0.1727228
e h 0.0093214
e a 0.1104804
e j 0.0002718
e NULL 0.0403998
e p 0.0002991
e d 0.0002716
e w 0.0003434
e š 0.0005115
e u 0.0339229
e y 0.0455564
e t 0.0005474
e ś 0.0002669
e ě 0.0773844
e s 0.0006949
e n 0.0000534
e i 0.0585102
e ł 0.0006074
e e 0.7049252
e b 0.0002339
e m 0.0062638
e ó 0.0135797
