y ě 0.0361446
i ě 0.0745482
a ě 0.0609940
j ě 0.0040161
ě ě 0.7208835
NULL ě 0.0022590
l ě 0.0045181
e ě 0.0517068
ó ě 0.0143072
o ě 0.0253514
u ě 0.0052711
n l 0.0113072
ŕ l 0.0029125
b l 0.0020559
š l 0.0030838
r l 0.0135343
d l 0.0073668
NULL l 0.0118211
m l 0.0003426
j l 0.0029125
ž l 0.0011992
c l 0.0125064
ś l 0.0006853
g l 0.0068528
t l 0.0022272
k l 0.0085660
z l 0.0035977
ź l 0.0006853
p l 0.0003426
ć l 0.0001713
w l 0.0106219
l l 0.8624293
s l 0.0063389
ń l 0.0006853
ł l 0.0277540
n w 0.0257095
b w 0.0055092
ŕ w 0.0004452
r w 0.0027268
š w 0.0010573
NULL w 0.0291041
m w 0.0022816
d w 0.0079021
i w 0.0002226
c w 0.0041180
ś w 0.0006121
h w 0.0055648
j w 0.0409015
ž w 0.0004452
u w 0.0002782
g w 0.0004452
k w 0.0019477
t w 0.0079021
a w 0.0001113
z w 0.0053979
f w 0.0002226
ź w 0.0000556
p w 0.0063439
l w 0.0025598
w w 0.8398998
ć w 0.0001113
y w 0.0005008
ł w 0.0005565
s w 0.0061213
ń w 0.0009460
n ć 0.0071110
ŕ ć 0.0029767
ó ć 0.0001654
b ć 0.0009922
š ć 0.0029767
r ć 0.0034728
d ć 0.0046304
m ć 0.0066149
NULL ć 0.0081032
ž ć 0.0006615
j ć 0.0087647
ś ć 0.6540433
c ć 0.0061187
o ć 0.0001654
u ć 0.0004961
g ć 0.0100876
t ć 0.0302629
k ć 0.0028113
z ć 0.0029767
ź ć 0.0023152
p ć 0.0001654
ć ć 0.2101869
w ć 0.0087647
l ć 0.0119067
ń ć 0.0003307
s ć 0.0081032
ł ć 0.0047958
c y 0.0003254
i y 0.0278184
ś y 0.0001627
y y 0.5804457
j y 0.0001627
NULL y 0.0053685
w y 0.0008134
l y 0.0092728
ě y 0.0034163
m y 0.0001627
ć y 0.0037417
u y 0.0727184
ł y 0.0104116
o y 0.0136652
s y 0.0011388
a y 0.0335123
k y 0.0042297
e y 0.2157150
r y 0.0004880
š y 0.0001627
ó y 0.0162681
ć ł 0.0006333
w ł 0.0048554
l ł 0.0246992
s ł 0.0014777
ł ł 0.8978256
a ł 0.0012666
z ł 0.0002111
t ł 0.0027444
k ł 0.0018999
p ł 0.0021110
ź ł 0.0016888
j ł 0.0021110
ž ł 0.0002111
c ł 0.0048554
ś ł 0.0044332
d ł 0.0016888
NULL ł 0.0016888
m ł 0.0052776
g ł 0.0021110
n ł 0.0141440
r ł 0.0238548
ŕ ł 0.0002111
i ń 0.1544715
c ń 0.0304878
ś ń 0.0081301
h ń 0.0304878
j ń 0.2235772
ž ń 0.0101626
NULL ń 0.0040650
m ń 0.0020325
ł ń 0.0020325
u ń 0.0121951
ń ń 0.2581301
a ń 0.0081301
n ń 0.2073171
k ń 0.0142276
t ń 0.0121951
p ń 0.0040650
ó ń 0.0020325
ź ń 0.0162602
ź s 0.0012911
p s 0.0192804
k s 0.0062834
t s 0.0016354
f s 0.0000861
a s 0.0007747
z s 0.0194526
s s 0.8574626
l s 0.0049062
w s 0.0103288
y s 0.0006025
b s 0.0093820
r s 0.0014632
š s 0.0070580
n s 0.0004304
e s 0.0006025
o s 0.0010329
u s 0.0000861
g s 0.0004304
m s 0.0099845
NULL s 0.0269410
d s 0.0061112
h s 0.0011190
ś s 0.0042176
c s 0.0069719
j s 0.0020658
ŕ k 0.0025690
b k 0.0084681
š k 0.0035205
r k 0.0024738
e k 0.0004757
n k 0.0180780
o k 0.0020932
u k 0.0006660
g k 0.0153187
d k 0.0022835
m k 0.0006660
NULL k 0.0223597
ž k 0.0005709
j k 0.0096099
ś k 0.0011418
h k 0.0014272
c k 0.0319696
i k 0.0003806
ź k 0.0002854
p k 0.0019029
t k 0.0148430
k k 0.8279734
f k 0.0007612
z k 0.0038059
ń k 0.0002854
s k 0.0039010
ł k 0.0021884
ć k 0.0079924
l k 0.0010466
w k 0.0109420
e t 0.0002150
n t 0.0370808
š t 0.0029020
r t 0.0027945
ó t 0.0049441
b t 0.0103181
ž t 0.0005374
j t 0.0006449
ś t 0.0082760
h t 0.0003224
c t 0.0080610
d t 0.0099957
m t 0.0005374
NULL t 0.0164445
g t 0.0033319
o t 0.0003224
u t 0.0002150
z t 0.0018272
a t 0.0073087
t t 0.8483448
k t 0.0060189
p t 0.0055890
ź t 0.0032244
ć t 0.0025795
l t 0.0011823
w t 0.0009673
ń t 0.0015047
s t 0.0121453
ł t 0.0023646
h f 0.0016949
f f 0.9711864
z f 0.0033898
ž f 0.0016949
m f 0.0033898
NULL f 0.0016949
w f 0.0033898
p f 0.0084746
b f 0.0050847
k a 0.0000725
a a 0.7514415
ź a 0.0000363
ě a 0.0377879
l a 0.0002539
ć a 0.0004714
y a 0.0094651
ł a 0.0000363
s a 0.0002176
n a 0.0002901
e a 0.0611786
b a 0.0000363
ó a 0.0057661
r a 0.0000725
š a 0.0002539
NULL a 0.0143608
d a 0.0024660
ś a 0.0008341
i a 0.0154488
c a 0.0001088
o a 0.0409429
u a 0.0584587
g z 0.0096170
d z 0.0065200
NULL z 0.0151589
m z 0.0003260
j z 0.0011410
ž z 0.0061940
i z 0.0004890
c z 0.0083130
h z 0.0013040
b z 0.0076610
š z 0.0019560
r z 0.0120619
e z 0.0006520
n z 0.0101059
s z 0.0184189
ł z 0.0001630
l z 0.0017930
w z 0.0278729
y z 0.0003260
ź z 0.0016300
p z 0.0148329
t z 0.0030970
k z 0.0045640
z z 0.8456398
f z 0.0001630
ź ź 0.7804428
p ź 0.0007380
š ź 0.0003690
n ź 0.0221402
a ź 0.0051661
ł ź 0.0036900
u ź 0.0125461
o ź 0.0033210
ń ź 0.0018450
g ź 0.0125461
l ź 0.0036900
NULL ź 0.1059041
w ź 0.0103321
m ź 0.0003690
ć ź 0.0018450
c ź 0.0003690
i ź 0.0036900
h ź 0.0022140
j ź 0.0258303
ž ź 0.0029520
ś p 0.0000999
h p 0.0032957
c p 0.0012983
ž p 0.0002996
j p 0.0018975
m p 0.0016978
NULL p 0.0138820
d p 0.0122840
g p 0.0241686
o p 0.0006991
u p 0.0001997
n p 0.0029961
r p 0.0000999
š p 0.0031958
b p 0.0020973
ó p 0.0000999
w p 0.0181764
l p 0.0041945
ł p 0.0008988
s p 0.0078897
f p 0.0014981
a p 0.0018975
z p 0.0053930
k p 0.0008988
t p 0.0057925
p p 0.8834515
ź p 0.0015979
r ř 0.0089256
p ř 0.0003306
š ř 0.0089256
ó ř 0.0042975
o ř 0.0042975
ł ř 0.0003306
s ř 0.0046281
ś ř 0.9259504
j ř 0.0042975
NULL ř 0.0357025
e ř 0.0013223
d ř 0.0009917
l m 0.0006001
w m 0.0051608
y m 0.0001200
s m 0.0033605
t m 0.0034806
k m 0.0014402
f m 0.0002400
a m 0.0001200
z m 0.0040807
ź m 0.0001200
p m 0.0032405
d m 0.0030005
m m 0.8750600
NULL m 0.0208833
ž m 0.0004801
j m 0.0159626
ś m 0.0015602
h m 0.0016803
c m 0.0022804
u m 0.0030005
g m 0.0196831
e m 0.0015602
n m 0.0066011
ŕ m 0.0001200
b m 0.0213634
r m 0.0048008
d NULL 0.0041524
m NULL 0.0167020
ž NULL 0.0027683
j NULL 0.2203562
ś NULL 0.0121805
h NULL 0.0078435
c NULL 0.0181785
i NULL 0.0416167
o NULL 0.1019655
u NULL 0.0400480
g NULL 0.0055366
e NULL 0.0274984
n NULL 0.0363569
ŕ NULL 0.0032297
b NULL 0.0086740
ó NULL 0.0083049
š NULL 0.0037833
r NULL 0.1302021
ć NULL 0.0023069
ě NULL 0.0951370
w NULL 0.0668082
l NULL 0.0034142
y NULL 0.0094122
ń NULL 0.0035988
s NULL 0.0157793
ł NULL 0.0111655
t NULL 0.0085817
k NULL 0.0260220
f NULL 0.0000923
a NULL 0.0475224
z NULL 0.0062748
ź NULL 0.0032297
p NULL 0.0112577
p d 0.0071873
ź d 0.1945934
z d 0.0083673
a d 0.0008582
t d 0.0059000
k d 0.0033255
s d 0.0033255
ń d 0.0004291
ł d 0.0001073
w d 0.0083673
l d 0.0028964
š d 0.0046127
r d 0.0043982
ŕ d 0.0001073
b d 0.0033255
n d 0.0146964
g d 0.0048273
u d 0.0020382
o d 0.0002145
j d 0.0373310
ž d 0.0047200
c d 0.0059000
i d 0.0001073
ś d 0.0002145
d d 0.6687406
NULL d 0.0084746
m d 0.0049346
g h 0.5236729
u h 0.0058824
j h 0.0209469
ž h 0.0015782
i h 0.0007174
c h 0.0035868
ś h 0.0032999
h h 0.3212339
d h 0.0134864
NULL h 0.0404591
m h 0.0116212
š h 0.0008608
r h 0.0001435
b h 0.0002869
e h 0.0015782
n h 0.0005739
s h 0.0007174
ł h 0.0020086
y h 0.0001435
w h 0.0044476
l h 0.0154950
p h 0.0050215
ź h 0.0027260
z h 0.0074605
a h 0.0001435
f h 0.0004304
t h 0.0014347
k h 0.0100430
ó i 0.0014801
a i 0.0317546
t i 0.0000673
e i 0.0787809
n i 0.0010764
s i 0.0003364
u i 0.0085441
ł i 0.0003364
o i 0.0270452
j i 0.0020183
i i 0.6860872
h i 0.0009419
ś i 0.0003364
y i 0.1188778
ć i 0.0000673
w i 0.0000673
NULL i 0.0328310
ě i 0.0093515
z c 0.0002076
a c 0.0018688
f c 0.0045681
t c 0.0078904
k c 0.0604236
p c 0.0004153
ź c 0.0035299
y c 0.0002076
ć c 0.0020764
w c 0.0112126
l c 0.0016611
ě c 0.0010382
s c 0.0041528
ń c 0.0002076
ł c 0.0010382
e c 0.0004153
n c 0.0045681
š c 0.0012458
r c 0.0026993
j c 0.0099668
ž c 0.0049834
i c 0.0006229
c c 0.8158223
ś c 0.0147425
d c 0.0002076
NULL c 0.0388289
m c 0.0037375
g c 0.0004153
o c 0.0012458
m ž 0.0144673
NULL ž 0.0056993
d ž 0.0118369
ś ž 0.0013152
h ž 0.0017536
c ž 0.0324419
ž ž 0.7544936
j ž 0.0061377
g ž 0.0311267
n ž 0.0109601
b ž 0.0008768
r ž 0.0004384
š ž 0.0013152
l ž 0.0070145
w ž 0.0048224
ć ž 0.0021920
y ž 0.0004384
ł ž 0.0017536
s ž 0.0197282
k ž 0.0140289
t ž 0.0039456
a ž 0.0017536
z ž 0.0434020
ź ž 0.0065761
p ž 0.0214818
NULL j 0.0937138
m j 0.0145151
d j 0.0000552
i j 0.0109278
c j 0.0035874
ś j 0.0008831
h j 0.0012142
j j 0.7414868
ž j 0.0011038
u j 0.0387439
o j 0.0001656
g j 0.0056846
n j 0.0121420
e j 0.0000552
b j 0.0004967
r j 0.0040289
š j 0.0008279
w j 0.0078371
l j 0.0013246
ě j 0.0412274
ć j 0.0019317
y j 0.0001104
ł j 0.0002208
s j 0.0011590
ń j 0.0002760
k j 0.0030355
t j 0.0030355
z j 0.0007727
a j 0.0012694
f j 0.0000552
ź j 0.0057950
p j 0.0023180
p o 0.0001235
b o 0.0005350
ó o 0.1908230
a o 0.0314815
n o 0.0003704
k o 0.0008642
t o 0.0001235
e o 0.0315226
u o 0.0206173
ł o 0.0000823
o o 0.6511934
s o 0.0008642
c o 0.0003704
i o 0.0183951
h o 0.0000412
ś o 0.0008642
y o 0.0079835
j o 0.0007819
l o 0.0003292
NULL o 0.0386420
w o 0.0000823
ě o 0.0039095
ó u 0.0109900
r u 0.0010159
e u 0.0444219
t u 0.0037865
n u 0.0015700
a u 0.0397119
s u 0.0005541
o u 0.0483007
u u 0.7246029
ł u 0.0001847
ć u 0.0005541
m u 0.0214259
ě u 0.0439601
NULL u 0.0113594
l u 0.0000924
w u 0.0001847
j u 0.0007388
ś u 0.0013853
h u 0.0001847
y u 0.0263207
i u 0.0186553
c č 0.7220050
i č 0.0074653
ś č 0.0078208
h č 0.0170636
j č 0.0163526
ž č 0.0053324
NULL č 0.0049769
m č 0.0021330
d č 0.0270174
g č 0.0049769
n č 0.0287949
r č 0.0227515
š č 0.0170636
ŕ č 0.0007110
y č 0.0003555
w č 0.0113758
l č 0.0017775
ć č 0.0156417
ł č 0.0007110
s č 0.0113758
ń č 0.0003555
z č 0.0014220
k č 0.0309278
t č 0.0327053
p č 0.0056879
ź č 0.0031994
r g 0.0294118
g g 0.9319853
k g 0.0294118
d g 0.0055147
c g 0.0018382
z g 0.0018382
k n 0.0074314
t n 0.0026690
z n 0.0019887
a n 0.0003663
ź n 0.0006280
p n 0.0026690
l n 0.0055474
w n 0.0105192
ć n 0.0000523
y n 0.0002617
ł n 0.0043961
ń n 0.0746808
s n 0.0009420
n n 0.8426314
b n 0.0014654
ŕ n 0.0019364
r n 0.0028260
š n 0.0013084
m n 0.0027214
NULL n 0.0164329
d n 0.0038727
h n 0.0002093
ś n 0.0041344
c n 0.0049717
i n 0.0000523
ž n 0.0005757
j n 0.0022504
o n 0.0002093
u n 0.0018317
g n 0.0004187
a e 0.1224125
n e 0.0000416
t e 0.0001663
e e 0.5990523
p e 0.0001247
š e 0.0000416
b e 0.0000416
ó e 0.0034916
i e 0.0324632
h e 0.0009145
ś e 0.0000831
y e 0.0127193
j e 0.0002078
NULL e 0.0120958
w e 0.0002078
m e 0.0022861
ě e 0.0224458
d e 0.0001247
u e 0.0172500
ł e 0.0001247
o e 0.1733311
s e 0.0003741
NULL ó 0.0053895
ě ó 0.0117589
d ó 0.0220480
e ó 0.0161685
a ó 0.0485056
ś ó 0.0004900
y ó 0.0068594
u ó 0.0372366
ó ó 0.4928956
o ó 0.3581578
s ó 0.0004900
e b 0.0017926
n b 0.0061460
ŕ b 0.0002561
b b 0.8332907
š b 0.0023047
r b 0.0020487
d b 0.0056338
NULL b 0.0143406
m b 0.0135723
j b 0.0025608
ž b 0.0005122
c b 0.0046095
h b 0.0007682
u b 0.0002561
o b 0.0007682
g b 0.0145967
t b 0.0176697
k b 0.0007682
z b 0.0053777
f b 0.0064020
ź b 0.0002561
p b 0.0166453
l b 0.0171575
w b 0.0271447
s b 0.0038412
ł b 0.0012804
ń r 0.0013559
s r 0.0094915
ł r 0.0016102
l r 0.0143220
w r 0.0136441
y r 0.0003390
ź r 0.0012712
p r 0.0137288
t r 0.0046610
k r 0.0069492
z r 0.0022034
a r 0.0002542
g r 0.0042373
d r 0.0027119
m r 0.0010169
NULL r 0.0073729
ž r 0.0003390
j r 0.0027119
ś r 0.0066949
c r 0.0057627
ŕ r 0.0516102
b r 0.0114407
š r 0.0745763
r r 0.7559322
n r 0.0057627
s š 0.0965359
ł š 0.0196128
y š 0.0038207
l š 0.0043301
w š 0.0048395
p š 0.0002547
ź š 0.0012736
z š 0.0015283
t š 0.0035660
k š 0.0106979
g š 0.0022924
u š 0.0002547
j š 0.1232807
ž š 0.0045848
i š 0.0005094
c š 0.0170657
h š 0.0071319
ś š 0.0038207
d š 0.0020377
NULL š 0.0104432
m š 0.0005094
š š 0.6472236
r š 0.0010188
b š 0.0081508
n š 0.0252165
