t o 0.0001240
ř o 0.0004958
s o 0.0004132
o o 0.6550285
ě o 0.0040493
ź o 0.0003306
i o 0.0166515
n o 0.0001653
j o 0.0000826
c o 0.0002479
ć o 0.0000413
u o 0.0217751
š o 0.0000413
ó o 0.0299562
b o 0.0001240
h o 0.0000413
y o 0.0033468
d o 0.0001240
k o 0.0009090
NULL o 0.0461945
e o 0.1723411
a o 0.0472688
p o 0.0002479
t s 0.0099096
o s 0.0016516
ř s 0.0011300
s s 0.8695236
j s 0.0014777
n s 0.0019993
m s 0.0022601
c s 0.0015647
i s 0.0003477
ć s 0.0042594
ž s 0.0038248
u s 0.0005216
l s 0.0032163
š s 0.0332928
h s 0.0008693
ó s 0.0000869
b s 0.0014777
z s 0.0101704
d s 0.0027816
y s 0.0005216
NULL s 0.0152990
k s 0.0031293
e s 0.0007823
ł s 0.0006085
č s 0.0026947
r s 0.0099965
w s 0.0090403
p s 0.0070410
a s 0.0005216
ě ě 0.4114956
u ě 0.0674864
o ě 0.0132971
e ě 0.0773520
y ě 0.0022877
c ě 0.0008579
NULL ě 0.1475550
j ě 0.1066629
p ě 0.0001430
i ě 0.0195882
a ě 0.1499857
ó ě 0.0032885
h ś 0.0030745
ó ś 0.0002673
š ś 0.0020051
l ś 0.0006684
u ś 0.0017377
ć ś 0.5301430
ž ś 0.0006684
m ś 0.0020051
c ś 0.0092234
n ś 0.0106938
j ś 0.0016041
i ś 0.0008020
ź ś 0.0004010
s ś 0.0068173
o ś 0.0020051
ř ś 0.3762866
t ś 0.0096244
r ś 0.0082877
w ś 0.0014704
ł ś 0.0028071
č ś 0.0026734
p ś 0.0001337
a ś 0.0032081
ń ś 0.0004010
e ś 0.0002673
NULL ś 0.0205855
k ś 0.0018714
d ś 0.0001337
y ś 0.0001337
p t 0.0064714
ń t 0.0005484
w t 0.0150269
r t 0.0053746
č t 0.0102007
ł t 0.0013162
e t 0.0004387
k t 0.0167818
NULL t 0.0093232
d t 0.0070199
z t 0.0021937
b t 0.0073489
h t 0.0010969
u t 0.0048261
l t 0.0023034
š t 0.0013162
ž t 0.0012065
ć t 0.0201821
i t 0.0001097
c t 0.0040584
m t 0.0029615
j t 0.0055939
n t 0.0053746
s t 0.0021937
o t 0.0004387
t t 0.8662937
ń i 0.0057816
a i 0.0317615
h i 0.0003003
č i 0.0015768
w i 0.0003003
e i 0.0590179
š i 0.0002253
u i 0.0147920
k i 0.0003003
ź i 0.0007509
i i 0.7670071
n i 0.0002253
j i 0.0148671
NULL i 0.0340141
c i 0.0003003
y i 0.0132152
o i 0.0333383
z i 0.0001502
ě i 0.0220754
z ź 0.0035121
d ź 0.4237883
NULL ź 0.0081948
k ź 0.0007024
ł ź 0.0018731
č ź 0.0021072
r ź 0.0035121
w ź 0.0002341
ń ź 0.0021072
p ź 0.0037462
a ź 0.0002341
t ź 0.0070241
s ź 0.0035121
j ź 0.0238820
n ź 0.0028096
m ź 0.0002341
c ź 0.0039803
ź ź 0.4954343
ć ź 0.0032779
ž ź 0.0035121
l ź 0.0009365
š ź 0.0011707
h ź 0.0039803
b ź 0.0002341
y c 0.0002685
d c 0.0071141
z c 0.0068456
k c 0.0455034
NULL c 0.0269799
a c 0.0004027
p c 0.0018792
ń c 0.0018792
w c 0.0103356
r c 0.0089933
č c 0.2743624
ł c 0.0029530
s c 0.0104698
o c 0.0013423
t c 0.0093960
ź c 0.0001342
c c 0.5279195
m c 0.0021477
n c 0.0127517
j c 0.0087248
g c 0.0001342
l c 0.0092617
š c 0.0089933
ž c 0.0100671
ć c 0.0051007
b c 0.0029530
h c 0.0030872
NULL m 0.0222738
k m 0.0009281
z m 0.0002320
d m 0.0049884
y m 0.0002320
ł m 0.0030162
č m 0.0006961
r m 0.0017401
w m 0.0046404
ń m 0.0001160
p m 0.0020882
e m 0.0063805
j m 0.0312065
n m 0.0059165
m m 0.8477958
c m 0.0019722
i m 0.0001160
t m 0.0004640
s m 0.0132251
h m 0.0093968
b m 0.0055684
ć m 0.0047564
ž m 0.0038283
l m 0.0002320
š m 0.0002320
u m 0.0277262
f m 0.0002320
b ŕ 0.0013298
k ŕ 0.0359043
w ŕ 0.0093085
r ŕ 0.8111702
n ŕ 0.0452128
č ŕ 0.0013298
NULL ŕ 0.0478723
ł ŕ 0.0013298
d ŕ 0.0013298
l ŕ 0.0212766
ć ŕ 0.0239362
NULL j 0.1302930
k j 0.0057618
z j 0.0003805
d j 0.0188074
y j 0.0001087
r j 0.0014133
w j 0.0402239
ł j 0.0007066
č j 0.0022830
p j 0.0011415
ń j 0.0061423
e j 0.0002718
m j 0.0073382
c j 0.0023917
j j 0.7306083
n j 0.0023917
i j 0.0025548
ź j 0.0037506
ě j 0.0008154
s j 0.0012502
ř j 0.0007610
o j 0.0002718
t j 0.0003261
h j 0.0079361
b j 0.0005979
u j 0.0005436
š j 0.0261999
l j 0.0009784
ć j 0.0029896
ž j 0.0007610
o n 0.0005336
s n 0.0006403
t n 0.0188347
i n 0.0010138
ź n 0.0033614
m n 0.0029879
c n 0.0011738
n n 0.8609540
j n 0.0117917
š n 0.0054957
u n 0.0009071
l n 0.0027212
ć n 0.0021876
ž n 0.0013339
b n 0.0014406
h n 0.0002134
z n 0.0033614
d n 0.0073098
k n 0.0100843
NULL n 0.0207555
e n 0.0000534
p n 0.0012805
a n 0.0003735
ń n 0.0053356
r n 0.0035749
w n 0.0243304
ł n 0.0035215
č n 0.0044286
w g 0.0009271
r g 0.0087150
č g 0.0024105
ł g 0.0014834
p g 0.0456147
d g 0.0087150
z g 0.0109401
NULL g 0.0120527
k g 0.0302244
g g 0.0943816
š g 0.0014834
l g 0.0074170
ž g 0.0129798
ć g 0.0114964
h g 0.6758761
b g 0.0105693
s g 0.0009271
t g 0.0055628
c g 0.0003709
m g 0.0313369
j g 0.0190988
n g 0.0012980
ź g 0.0061190
e š 0.0005115
č š 0.0122762
r š 0.2263427
w š 0.0048593
ń š 0.0005115
p š 0.0079284
a š 0.0015345
z š 0.0028133
d š 0.0107417
y š 0.0002558
NULL š 0.0084399
k š 0.0099744
ć š 0.0048593
ž š 0.0005115
l š 0.0056266
š š 0.6496164
h š 0.0025575
b š 0.0023018
t š 0.0074169
s š 0.0212276
ř š 0.0069054
n š 0.0071611
j š 0.0040921
c š 0.0015345
p f 0.0226244
b f 0.0377074
h f 0.0045249
w f 0.0060332
f f 0.8748115
k f 0.0135747
NULL f 0.0015083
j f 0.0015083
m f 0.0015083
c f 0.0331825
z f 0.0015083
s f 0.0015083
b u 0.0000808
ó u 0.0062222
h u 0.0031515
š u 0.0001616
u u 0.6345051
ć u 0.0001616
i u 0.0099394
ź u 0.0029091
m u 0.0020202
j u 0.0555152
n u 0.0028283
ě u 0.0016162
s u 0.0000808
o u 0.0398384
t u 0.0000808
p u 0.0002424
a u 0.1301010
ń u 0.0004040
w u 0.0004040
e u 0.0340202
k u 0.0007273
NULL u 0.0370101
y u 0.0364444
d u 0.0015354
ź l 0.0014803
n l 0.0179276
j l 0.0042763
c l 0.0013158
m l 0.0009868
t l 0.0019737
s l 0.0090461
o l 0.0013158
ě l 0.0021382
b l 0.0108553
h l 0.0179276
ž l 0.0026316
ć l 0.0118421
u l 0.0001645
l l 0.8263158
š l 0.0027961
k l 0.0018092
NULL l 0.0064145
y l 0.0093750
d l 0.0039474
z l 0.0019737
a l 0.0011513
p l 0.0074013
č l 0.0003289
ł l 0.0195724
w l 0.0070724
r l 0.0279605
f ž 0.0005013
l ž 0.0040100
š ž 0.0090226
ž ž 0.8661654
ć ž 0.0015038
h ž 0.0040100
t ž 0.0025063
c ž 0.0120301
m ž 0.0020050
j ž 0.0105263
n ž 0.0030075
ź ž 0.0055138
w ž 0.0040100
r ž 0.0025063
č ž 0.0075188
ł ž 0.0005013
a ž 0.0005013
p ž 0.0020050
ń ž 0.0020050
d ž 0.0220551
z ž 0.0185464
NULL ž 0.0165414
k ž 0.0030075
i ć 0.0006456
k ć 0.0542285
ź ć 0.0032279
c ć 0.0064558
n ć 0.0006456
j ć 0.0232408
NULL ć 0.0187218
y ć 0.0148483
t ć 0.0161394
a ć 0.0058102
w ć 0.0012912
č ć 0.0284054
ł ć 0.0019367
u ć 0.0038735
ž ć 0.0025823
ć ć 0.8179471
ć b 0.0016306
e b 0.0002329
ž b 0.0004659
š b 0.0074540
f b 0.0006988
l b 0.0027952
h b 0.0002329
r b 0.0309807
w b 0.0235267
p b 0.0051246
b b 0.7591428
t b 0.0230608
z b 0.0107151
o b 0.0032611
d b 0.0076869
s b 0.0249243
NULL b 0.0216632
j b 0.0023294
n b 0.0074540
m b 0.0447240
k b 0.0218961
t ó 0.0072704
ě ó 0.0090090
ř ó 0.0023708
o ó 0.7316264
y ó 0.0158053
NULL ó 0.0139086
i ó 0.0028450
e ó 0.0135925
u ó 0.0189663
h ó 0.0003161
r ó 0.0001581
ó ó 0.1588431
ń ó 0.0001581
p ó 0.0001581
a ó 0.0249723
j h 0.0101351
NULL h 0.0319069
m h 0.0041291
k h 0.0071321
ź h 0.0026276
i h 0.0041291
t h 0.0007508
o h 0.0003754
s h 0.0056306
z h 0.0030030
h h 0.8415916
č h 0.0157658
ł h 0.0003754
w h 0.0379129
ń h 0.0056306
b h 0.0011261
p h 0.0071321
e h 0.0093844
f h 0.0003754
š h 0.0105105
u h 0.0003754
ž y 0.0001494
e y 0.0458757
š y 0.0022415
u y 0.0428870
č y 0.0005977
h y 0.0001494
r y 0.0005977
w y 0.0016438
ó y 0.0022415
a y 0.0397490
ě y 0.0210699
z y 0.0002989
s y 0.0008966
o y 0.0288404
y y 0.5316796
NULL y 0.0152421
n y 0.0007472
j y 0.0002989
m y 0.0001494
c y 0.0001494
i y 0.2644949
e d 0.0002717
w d 0.0188807
r d 0.0042108
č d 0.0101874
ł d 0.0009508
a d 0.0095083
p d 0.0160283
d d 0.8500407
z d 0.0051616
NULL d 0.0065200
k d 0.0035316
g d 0.0002717
š d 0.0010867
l d 0.0057050
ž d 0.0035316
ć d 0.0038033
h d 0.0129041
b d 0.0029883
ó d 0.0061125
ř d 0.0004075
s d 0.0101874
t d 0.0124966
c d 0.0002717
m d 0.0042108
j d 0.0002717
n d 0.0104591
k z 0.0070446
NULL z 0.0117955
z z 0.8500983
d z 0.0127785
p z 0.0093381
ł z 0.0001638
č z 0.0004915
r z 0.0040957
w z 0.0150721
j z 0.0022936
n z 0.0063893
m z 0.0057339
c z 0.0001638
t z 0.0027851
s z 0.0365334
b z 0.0032765
h z 0.0080275
ć z 0.0031127
ž z 0.0165465
š z 0.0009830
f z 0.0003277
l z 0.0027851
g z 0.0001638
t k 0.0053874
s k 0.0071506
o k 0.0018611
n k 0.0142032
j k 0.0048976
c k 0.0283084
m k 0.0011754
ž k 0.0032324
ć k 0.0017632
g k 0.0014693
š k 0.0041140
l k 0.0047017
b k 0.0002939
h k 0.0064649
y k 0.0021550
d k 0.0030365
z k 0.0031345
k k 0.8559115
NULL k 0.0278186
ń k 0.0004898
a k 0.0001959
p k 0.0009795
č k 0.0088158
ł k 0.0008816
w k 0.0037222
r k 0.0078362
f NULL 0.0001395
l NULL 0.0107392
u NULL 0.0152022
š NULL 0.0055788
ć NULL 0.0066946
ž NULL 0.0019526
b NULL 0.0071130
ó NULL 0.0019526
h NULL 0.0391911
ě NULL 0.0012552
o NULL 0.1338912
ř NULL 0.0142259
s NULL 0.0428173
t NULL 0.0217573
i NULL 0.0676430
ź NULL 0.0393305
m NULL 0.0224547
c NULL 0.0270572
j NULL 0.2382148
n NULL 0.0418410
e NULL 0.0397490
p NULL 0.0193863
a NULL 0.0543933
ń NULL 0.0002789
r NULL 0.0117155
w NULL 0.0757322
ł NULL 0.0009763
č NULL 0.0022315
y NULL 0.0050209
z NULL 0.0114365
d NULL 0.0104603
k NULL 0.0295676
c e 0.0000978
m e 0.0006355
j e 0.0000489
NULL e 0.0151552
i e 0.0565632
k e 0.0002933
ř e 0.0001956
s e 0.0003422
o e 0.0382303
ě e 0.0098753
t e 0.0000978
y e 0.0649719
h e 0.0003911
a e 0.0827182
b e 0.0002933
ó e 0.0016133
u e 0.0230750
e e 0.7054021
h a 0.0000751
ó a 0.0037574
u a 0.0161193
š a 0.0000376
ž a 0.0001503
c a 0.0002630
m a 0.0000751
j a 0.0002630
n a 0.0004133
i a 0.0179229
ź a 0.0005636
ř a 0.0000376
o a 0.0278425
s a 0.0003382
ě a 0.0095063
t a 0.0025926
w a 0.0000751
r a 0.0001127
ł a 0.0002254
a a 0.7803036
p a 0.0007891
ń a 0.0001127
e a 0.1108063
NULL a 0.0195386
d a 0.0003006
y a 0.0077779
h p 0.0033966
b p 0.0065934
l p 0.0001998
f p 0.0004995
š p 0.0000999
ć p 0.0000999
ž p 0.0048951
m p 0.0028971
c p 0.0000999
n p 0.0048951
j p 0.0039960
o p 0.0002997
ř p 0.0000999
s p 0.0222777
t p 0.0049950
r p 0.0171828
w p 0.0108891
ł p 0.0012987
č p 0.0011988
p p 0.8832168
ń p 0.0000999
e p 0.0002997
NULL p 0.0123876
k p 0.0020979
z p 0.0089910
d p 0.0069930
ń ń 0.0767386
č ń 0.0005995
w ń 0.0107914
r ń 0.0089928
ć ń 0.0011990
l ń 0.0023981
ź ń 0.0023981
n ń 0.8567146
j ń 0.0029976
NULL ń 0.0257794
t ń 0.0077938
d ń 0.0035971
p w 0.0102473
č w 0.0018892
ł w 0.0013739
w w 0.8634646
r w 0.0094458
e w 0.0002862
k w 0.0062400
NULL w 0.0409892
y w 0.0002862
d w 0.0048088
z w 0.0103046
b w 0.0058965
h w 0.0018319
ž w 0.0005725
ć w 0.0027479
l w 0.0035493
u w 0.0001145
f w 0.0001145
š w 0.0009160
ź w 0.0016029
i w 0.0000572
n w 0.0119647
j w 0.0082436
c w 0.0030341
m w 0.0024044
t w 0.0005152
o w 0.0001145
s w 0.0069842
k r 0.0019745
NULL r 0.1269072
y r 0.0002693
z r 0.0079878
d r 0.0032310
a r 0.0001795
r r 0.8028182
w r 0.0042183
ł r 0.0102316
č r 0.0061928
m r 0.0037695
c r 0.0015258
n r 0.0047568
j r 0.0069108
s r 0.0015258
ř r 0.0024233
t r 0.0022438
b r 0.0008078
h r 0.0002693
š r 0.0002693
l r 0.0073595
u r 0.0008078
g r 0.0014360
ć r 0.0017950
ž r 0.0000898
o ł 0.0004056
t ł 0.0040560
c ł 0.0006084
m ł 0.0004056
n ł 0.0166295
j ł 0.0008112
i ł 0.0010140
ź ł 0.0020280
l ł 0.0328534
š ł 0.0156155
ž ł 0.0010140
ć ł 0.0060840
h ł 0.0008112
b ł 0.0008112
d ł 0.0002028
z ł 0.0002028
y ł 0.0127763
NULL ł 0.0257554
k ł 0.0050700
e ł 0.0006084
w ł 0.0022308
r ł 0.0040560
č ł 0.0004056
ł ł 0.8633137
a ł 0.0004056
p ł 0.0018252
