o t 0.0003223
o ř 0.0039552
o s 0.0008580
o o 0.6523868
o ě 0.0246231
o ź 0.0029520
o i 0.0270815
o n 0.0002089
o j 0.0001105
o c 0.0012461
o ć 0.0001652
o u 0.0487376
o š 0.0002546
o ó 0.3553922
o b 0.0007690
o h 0.0001438
o y 0.0131900
o d 0.0003210
o k 0.0020879
o NULL 0.1020818
o e 0.1731280
o a 0.0413908
o p 0.0005999
s t 0.0122488
s o 0.0007819
s ř 0.0042848
s s 0.8582583
s j 0.0009390
s n 0.0012012
s m 0.0031093
s c 0.0037383
s i 0.0002688
s ć 0.0080952
s ž 0.0192308
s u 0.0005549
s l 0.0063519
s š 0.0975299
s h 0.0014382
s ó 0.0004902
s b 0.0043579
s z 0.0190120
s d 0.0034239
s y 0.0009770
s NULL 0.0160701
s k 0.0034165
s e 0.0003736
s ł 0.0014749
s č 0.0109968
s r 0.0097367
s w 0.0057913
s p 0.0080992
s a 0.0002171
ě ě 0.7231156
ě u 0.0436512
ě o 0.0038272
ě e 0.0224556
ě y 0.0026054
ě c 0.0012461
ě NULL 0.0942294
ě j 0.0412041
ě p 0.0001000
ě i 0.0092064
ě a 0.0379536
ě ó 0.0112745
ś h 0.0033079
ś ó 0.0009804
ś š 0.0038197
ś l 0.0008584
ś u 0.0012023
ś ć 0.6552123
ś ž 0.0021853
ś m 0.0017938
ś c 0.0143302
ś n 0.0041780
ś j 0.0006628
ś i 0.0004032
ś ź 0.0011070
ś s 0.0043758
ś o 0.0006173
ś ř 0.9278181
ś t 0.0077361
ś r 0.0052493
ś w 0.0006125
ś ł 0.0044248
ś č 0.0070947
ś p 0.0001000
ś a 0.0008683
ś ń 0.0061475
ś e 0.0000830
ś NULL 0.0140614
ś k 0.0013287
ś d 0.0001070
ś y 0.0001628
t p 0.0058994
t ń 0.0102459
t w 0.0076289
t r 0.0041487
t č 0.0329904
t ł 0.0025284
t e 0.0001660
t k 0.0145203
t NULL 0.0077611
t d 0.0068478
t z 0.0032499
t b 0.0171751
t h 0.0014382
t u 0.0040692
t l 0.0036052
t š 0.0030558
t ž 0.0048077
t ć 0.0303981
t i 0.0000672
t c 0.0076843
t m 0.0032289
t j 0.0028169
t n 0.0025590
t s 0.0017160
t o 0.0001646
t t 0.8486086
i ń 0.1577869
i a 0.0153045
i h 0.0005753
i č 0.0074495
i w 0.0002227
i e 0.0326249
i š 0.0007639
i u 0.0182188
i k 0.0003796
i ź 0.0036900
i i 0.6864458
i n 0.0001567
i j 0.0109362
i NULL 0.0413623
i c 0.0008307
i y 0.0286598
i o 0.0182716
i z 0.0003250
i ě 0.0738693
ź z 0.0024374
ź d 0.1936657
ź NULL 0.0031958
ź k 0.0002847
ź ł 0.0016856
ź č 0.0031926
ź r 0.0012700
ź w 0.0000557
ź ń 0.0184426
ź p 0.0015998
ź a 0.0000362
ź t 0.0032234
ź s 0.0012870
ź j 0.0056338
ź n 0.0006267
ź m 0.0001196
ź c 0.0035306
ź ź 0.7808118
ź ć 0.0023129
ź ž 0.0065559
ź l 0.0006867
ź š 0.0012732
ź h 0.0024450
ź b 0.0002563
c y 0.0003257
c d 0.0056709
c z 0.0082873
c k 0.0321723
c NULL 0.0183528
c a 0.0001085
c p 0.0013999
c ń 0.0286885
c w 0.0042878
c r 0.0056727
c č 0.7250798
c ł 0.0046355
c s 0.0066924
c o 0.0004115
c t 0.0075212
c ź 0.0003690
c c 0.8168224
c m 0.0019134
c n 0.0049614
c j 0.0035902
c g 0.0018382
c l 0.0118455
c š 0.0170614
c ž 0.0327797
c ć 0.0062779
c b 0.0056396
c h 0.0033079
m NULL 0.0175310
m k 0.0007592
m z 0.0003250
m d 0.0046009
m y 0.0003257
m ł 0.0054783
m č 0.0021284
m r 0.0012700
m w 0.0022274
m ń 0.0020492
m p 0.0017998
m e 0.0022829
m j 0.0148578
m n 0.0026635
m m 0.8739536
m c 0.0035306
m i 0.0000672
m t 0.0004298
m s 0.0097812
m h 0.0116496
m b 0.0123045
m ć 0.0067735
m ž 0.0144231
m l 0.0003433
m š 0.0005093
m u 0.0221030
m f 0.0033501
ŕ b 0.0002563
ŕ k 0.0025624
ŕ w 0.0003898
ŕ r 0.0516468
ŕ n 0.0017756
ŕ č 0.0003547
ŕ NULL 0.0032871
ŕ ł 0.0002107
ŕ d 0.0001070
ŕ l 0.0027468
ŕ ć 0.0029737
j NULL 0.2188641
j k 0.0100598
j z 0.0011375
j d 0.0370212
j y 0.0003257
j r 0.0022013
j w 0.0412073
j ł 0.0027391
j č 0.0148989
j p 0.0020998
j ń 0.2315574
j e 0.0002075
j m 0.0161445
j c 0.0091381
j j 0.7423916
j n 0.0022979
j i 0.0031584
j ź 0.0254613
j ě 0.0037688
j s 0.0019734
j ř 0.0046144
j o 0.0002058
j t 0.0006447
j h 0.0209981
j b 0.0028198
j u 0.0009248
j š 0.1227400
j l 0.0030901
j ć 0.0090864
j ž 0.0061189
n o 0.0004115
n s 0.0010296
n t 0.0379284
n i 0.0012768
n ź 0.0232472
n m 0.0066970
n c 0.0045691
n n 0.8426990
n j 0.0122066
n š 0.0262287
n u 0.0015722
n l 0.0087554
n ć 0.0067735
n ž 0.0109266
n b 0.0069213
n h 0.0005753
n z 0.0102372
n d 0.0146587
n k 0.0179368
n NULL 0.0355186
n e 0.0000415
n p 0.0023998
n a 0.0002533
n ń 0.2049180
n r 0.0056727
n w 0.0253926
n ł 0.0139064
n č 0.0294431
g w 0.0002784
g r 0.0039793
g č 0.0046116
g ł 0.0016856
g p 0.0245975
g d 0.0050289
g z 0.0095873
g NULL 0.0059350
g k 0.0154693
g g 0.9356618
g š 0.0020372
g l 0.0068670
g ž 0.0305944
g ć 0.0102429
g h 0.5242341
g b 0.0146116
g s 0.0004290
g t 0.0032234
g c 0.0004154
g m 0.0202105
g j 0.0056890
g n 0.0003656
g ź 0.0121771
š e 0.0000830
š č 0.0170273
š r 0.0749301
š w 0.0010580
š ń 0.0040984
š p 0.0030997
š a 0.0002171
š z 0.0017875
š d 0.0044939
š y 0.0001628
š NULL 0.0030131
š k 0.0037012
š ć 0.0031389
š ž 0.0008741
š l 0.0037768
š š 0.6468042
š h 0.0014382
š b 0.0023071
š t 0.0031159
š s 0.0071214
š ř 0.0088991
š n 0.0014623
š j 0.0008837
š c 0.0012461
f p 0.0014999
f b 0.0064086
f h 0.0004315
f w 0.0002227
f f 0.9715243
f k 0.0008541
f NULL 0.0000913
f j 0.0000552
f m 0.0001196
f c 0.0045691
f z 0.0001625
f s 0.0000858
u b 0.0002563
u ó 0.0377451
u h 0.0056091
u š 0.0005093
u u 0.7261630
u ć 0.0003304
u i 0.0082656
u ź 0.0132841
u m 0.0029897
u j 0.0379453
u n 0.0018279
u ě 0.0050251
u s 0.0000858
u o 0.0202881
u t 0.0001074
u p 0.0003000
u a 0.0582510
u ń 0.0102459
u w 0.0002784
u e 0.0174747
u k 0.0008541
u NULL 0.0418188
u y 0.0734408
u d 0.0020330
l ź 0.0033210
l n 0.0056925
l j 0.0014361
l c 0.0016615
l m 0.0007175
l t 0.0012894
l s 0.0047190
l o 0.0003292
l ě 0.0032663
l b 0.0169187
l h 0.0156767
l ž 0.0069930
l ć 0.0118949
l u 0.0000925
l l 0.8624893
l š 0.0043290
l k 0.0010439
l NULL 0.0035610
l y 0.0092819
l d 0.0025679
l z 0.0019500
l a 0.0002533
l p 0.0044996
l č 0.0007095
l ł 0.0250737
l w 0.0023945
l r 0.0143934
ž f 0.0016750
ž l 0.0013734
ž š 0.0045837
ž ž 0.7552448
ž ć 0.0004956
ž h 0.0011506
ž t 0.0005372
ž c 0.0049844
ž m 0.0004784
ž j 0.0011599
ž n 0.0003133
ž ź 0.0040590
ž w 0.0004455
ž r 0.0004233
ž č 0.0053210
ž ł 0.0002107
ž a 0.0000362
ž p 0.0004000
ž ń 0.0081967
ž d 0.0047079
ž z 0.0060123
ž NULL 0.0030131
ž k 0.0005694
ć i 0.0000672
ć k 0.0079719
ć ź 0.0018450
ć c 0.0020768
ć n 0.0000522
ć j 0.0019884
ć NULL 0.0026479
ć y 0.0037453
ć t 0.0026862
ć a 0.0003256
ć w 0.0001114
ć č 0.0156084
ć ł 0.0006321
ć u 0.0005549
ć ž 0.0017483
ć ć 0.2093177
b ć 0.0011565
b e 0.0000415
b ž 0.0008741
b š 0.0081487
b f 0.0050251
b l 0.0020601
b h 0.0001438
b r 0.0112607
b w 0.0056242
b p 0.0021998
b b 0.8354268
b t 0.0106372
b z 0.0074748
b o 0.0005761
b d 0.0035309
b s 0.0091806
b NULL 0.0084916
b j 0.0005523
b n 0.0016712
b m 0.0229610
b k 0.0089209
ó t 0.0049425
ó ě 0.0143216
ó ř 0.0049440
ó o 0.1904938
ó y 0.0162840
ó NULL 0.0080351
ó i 0.0012096
ó e 0.0035696
ó u 0.0110978
ó h 0.0002876
ó r 0.0000847
ó ó 0.4926471
ó ń 0.0020492
ó p 0.0001000
ó a 0.0057166
h j 0.0014913
h NULL 0.0077611
h m 0.0013155
h k 0.0018032
h ź 0.0025830
h i 0.0007392
h t 0.0002149
h o 0.0000412
h s 0.0012870
h z 0.0013000
h h 0.3224507
h č 0.0148989
h ł 0.0002107
h w 0.0056242
h ń 0.0307377
h b 0.0007690
h p 0.0018998
h e 0.0010377
h f 0.0016750
h š 0.0071301
h u 0.0000925
y ž 0.0004371
y e 0.0127428
y š 0.0038197
y u 0.0265421
y č 0.0014189
y h 0.0001438
y r 0.0003387
y w 0.0006125
y ó 0.0073529
y a 0.0096241
y ě 0.0354271
y z 0.0003250
y s 0.0005148
y o 0.0079424
y y 0.5793845
y NULL 0.0093134
y n 0.0002611
y j 0.0001105
y m 0.0001196
y c 0.0002077
y i 0.1189436
d e 0.0000830
d w 0.0077403
d r 0.0026247
d č 0.0266052
d ł 0.0014749
d a 0.0025327
d p 0.0117988
d d 0.6695913
d z 0.0061748
d NULL 0.0043828
d k 0.0024675
d g 0.0036765
d š 0.0020372
d l 0.0072103
d ž 0.0113636
d ć 0.0046258
d h 0.0136632
d b 0.0056396
d ó 0.0220588
d ř 0.0009888
d s 0.0064350
d t 0.0098850
d c 0.0004154
d m 0.0037072
d j 0.0001105
d n 0.0040213
z k 0.0040809
z NULL 0.0065741
z z 0.8431914
z d 0.0083458
z p 0.0056994
z ł 0.0002107
z č 0.0010642
z r 0.0021167
z w 0.0051231
z j 0.0007733
z n 0.0020368
z m 0.0041856
z c 0.0002077
z t 0.0018266
z s 0.0191334
z b 0.0051269
z h 0.0070473
z ć 0.0031389
z ž 0.0441434
z š 0.0015279
z f 0.0033501
z l 0.0029185
z g 0.0018382
k t 0.0059095
k s 0.0062634
k o 0.0007819
k n 0.0075726
k j 0.0027617
k c 0.0600208
k m 0.0014351
k ž 0.0144231
k ć 0.0029737
k g 0.0275735
k š 0.0106952
k l 0.0082403
k b 0.0007690
k h 0.0094923
k y 0.0035825
k d 0.0033169
k z 0.0051999
k k 0.8292683
k NULL 0.0259313
k ń 0.0102459
k a 0.0000724
k p 0.0009999
k č 0.0319262
k ł 0.0018963
k w 0.0021160
k r 0.0067733
NULL f 0.0016750
NULL l 0.0132189
NULL u 0.0100805
NULL š 0.0101859
NULL ć 0.0079300
NULL ž 0.0061189
NULL b 0.0130736
NULL ó 0.0068627
NULL h 0.0404142
NULL ě 0.0022613
NULL o 0.0395062
NULL ř 0.0336190
NULL s 0.0263406
NULL t 0.0167616
NULL i 0.0325919
NULL ź 0.1040590
NULL m 0.0192538
NULL c 0.0402908
NULL j 0.0943386
NULL n 0.0156674
NULL e 0.0118297
NULL p 0.0138986
NULL a 0.0141105
NULL ń 0.0040984
NULL r 0.0071120
NULL w 0.0302372
NULL ł 0.0014749
NULL č 0.0056758
NULL y 0.0058622
NULL z 0.0133247
NULL d 0.0080248
NULL k 0.0201196
e c 0.0004154
e m 0.0015547
e j 0.0000552
e NULL 0.0283053
e i 0.0777502
e k 0.0005694
e ř 0.0013184
e s 0.0006006
e o 0.0321811
e ě 0.0507538
e t 0.0002149
e y 0.2164143
e h 0.0011506
e a 0.0612178
e b 0.0015381
e ó 0.0161765
e u 0.0436512
e e 0.5989125
a h 0.0002876
a ó 0.0490196
a u 0.0396745
a š 0.0002546
a ž 0.0017483
a c 0.0014538
a m 0.0002392
a j 0.0003866
a n 0.0005745
a i 0.0320543
a ź 0.0055351
a ř 0.0003296
a o 0.0304938
a s 0.0007722
a ě 0.0635678
a t 0.0074138
a w 0.0001114
a r 0.0002540
a ł 0.0012642
a a 0.7513658
a p 0.0020998
a ń 0.0061475
a e 0.1224058
a NULL 0.0474799
a d 0.0008560
a y 0.0337079
p h 0.0048900
p b 0.0169187
p l 0.0003433
p f 0.0083752
p š 0.0002546
p ć 0.0001652
p ž 0.0214161
p m 0.0034681
p c 0.0002077
p n 0.0025590
p j 0.0022093
p o 0.0001235
p ř 0.0003296
p s 0.0191334
p t 0.0053723
p r 0.0145627
p w 0.0060697
p ł 0.0027391
p č 0.0042568
p p 0.8840116
p ń 0.0020492
p e 0.0001245
p NULL 0.0113221
p k 0.0019930
p z 0.0146246
p d 0.0074898
ń ń 0.2622951
ń č 0.0003547
ń w 0.0010023
ń r 0.0012700
ń ć 0.0003304
ń l 0.0006867
ń ź 0.0014760
ń n 0.0746292
ń j 0.0002762
ń NULL 0.0039262
ń t 0.0013968
ń d 0.0006420
w p 0.0178982
w č 0.0117063
w ł 0.0050569
w w 0.8399042
w r 0.0139700
w e 0.0002075
w k 0.0103445
w NULL 0.0653762
w y 0.0008142
w d 0.0089878
w z 0.0292493
w b 0.0264035
w h 0.0046023
w ž 0.0043706
w ć 0.0079300
w l 0.0106438
w u 0.0001850
w f 0.0033501
w š 0.0040744
w ź 0.0103321
w i 0.0000672
w n 0.0109150
w j 0.0079536
w c 0.0110073
w m 0.0050227
w t 0.0009670
w o 0.0000823
w s 0.0104676
r k 0.0020879
r NULL 0.1291088
r y 0.0004885
r z 0.0144621
r d 0.0038519
r a 0.0000724
r r 0.7573448
r w 0.0026172
r ł 0.0240202
r č 0.0244768
r m 0.0050227
r c 0.0035306
r n 0.0027679
r j 0.0042530
r s 0.0014586
r ř 0.0088991
r t 0.0026862
r b 0.0023071
r h 0.0004315
r š 0.0007639
r l 0.0140773
r u 0.0008323
r g 0.0294118
r ć 0.0033041
r ž 0.0004371
ł o 0.0000823
ł t 0.0021489
ł c 0.0006231
ł m 0.0002392
ł n 0.0042824
ł j 0.0002209
ł i 0.0003360
ł ź 0.0036900
ł l 0.0278112
ł š 0.0196078
ł ž 0.0021853
ł ć 0.0049562
ł h 0.0005753
ł b 0.0010254
ł d 0.0001070
ł z 0.0001625
ł y 0.0102589
ł NULL 0.0115961
ł k 0.0023726
ł e 0.0001245
ł w 0.0006125
ł r 0.0016933
ł č 0.0007095
ł ł 0.8969659
ł a 0.0000724
ł p 0.0008999
