kursisty kursanća 1.0000000
lorenz lorenz 1.0000000
lažownosći ležownosće 0.1538462
grunty ležownosće 0.7692308
lažownosćí ležownosće 0.0769231
stajaśo nastajiće 1.0000000
awtentifikaciski awtentifikaciski 1.0000000
šulskich šulskich 1.0000000
wjeraškow wjerškow 1.0000000
spěchowańskej spěchowanskeje 0.2222222
spěchowańskego spěchowanskeje 0.2222222
spěchowańskeje spěchowanskeje 0.5555556
wupóceraś wučerpać 1.0000000
wupósłany pósłany 0.1666667
pósłane pósłany 0.1666667
pósłany pósłany 0.6666667
do wósomdźesat 0.4000000
wósymźaset wósomdźesat 0.6000000
francojski francosce 1.0000000
njepósuźujo sejmje 0.0196078
sejmje sejmje 0.8823529
sejm sejmje 0.0196078
sejma sejmje 0.0392157
parlamenśe sejmje 0.0392157
źěłaŕstwa přemysła 1.0000000
wokablow wokablow 1.0000000
ekomiliny ekomiliny 1.0000000
ptaška ptaka 1.0000000
ruiny zbytki 0.5000000
zbytki zbytki 0.5000000
rampy rampy 1.0000000
šypki šipka 1.0000000
šesnasćo šěsnaće 1.0000000
barlinju-wartenbergu berlinje-wartenbergu 1.0000000
kandidatam kandidatam 1.0000000
pśedmjat předmjetom 1.0000000
połniś napjelnić 0.1250000
napołniła napjelnić 0.1250000
napołniś napjelnić 0.7500000
argumenta argumenta 1.0000000
werbow werbow 1.0000000
głowny hłowny 0.8727273
głowne hłowny 0.0545455
głownemu hłowny 0.0181818
główny hłowny 0.0181818
była hłowny 0.0363636
slěźeńskich slědźenskich 1.0000000
aktiwizował aktiwizował 0.0625000
aktiwěrował aktiwizował 0.9375000
wjeliku tajkale 0.3333333
maš tajkale 0.3333333
ty tajkale 0.3333333
pó přijimarjow 0.0909091
njamógu přijimarjow 0.0909091
dostawarje přijimarjow 0.2727273
dostawarjow přijimarjow 0.3636364
lisćinje přijimarjow 0.0909091
dostawarja přijimarjow 0.0909091
kusnuś bitten 0.5000000
kótarychž bitten 0.5000000
p-192 p-192 1.0000000
infostojnicach infostejnišćach 1.0000000
wjelgickano wurjadne 0.0666667
wurědne wurjadne 0.8666667
wuběrne wurjadne 0.0666667
NULL sebje 0.0307692
sami sebje 0.0153846
wobchowajom sebje 0.0153846
ze sebje 0.0153846
mějśo sebje 0.0153846
se sebje 0.1076923
sebje sebje 0.6615385
z sebje 0.0153846
ja sebje 0.0153846
pósobicy sebje 0.0307692
tebje sebje 0.0153846
sobu sebje 0.0153846
źiwaj sebje 0.0461538
słužytej słužitej 1.0000000
jo napomni 0.5000000
napominała napomni 0.5000000
napóraś wutwarimy 0.5000000
mócnjejše wutwarimy 0.5000000
kśudował krjudował 1.0000000
złem złym 0.2500000
złym złym 0.6250000
zły złym 0.1250000
njewósromośił njewohańbił 1.0000000
wótpósłaś wótpósłać 1.0000000
wrappers wrappers 1.0000000
licadłow ličakow 1.0000000
optiměrowaś optimizować 1.0000000
nejtšašnjej najstrašnišej 1.0000000
mrokawow mróčelow 1.0000000
wudrogował wupućowaše 1.0000000
ewangelskej ewangelskej 0.7500000
ewangelskeju ewangelskej 0.2500000
pśeblisko přeblisko 1.0000000
pśednosk přednošk 1.0000000
monarchiji monarchiji 1.0000000
. ambry 0.1000000
ambry ambry 0.7000000
do ambry 0.1000000
namakaś ambry 0.1000000
zagasćo hasńće 0.5000000
! hasńće 0.5000000
mjazywótkład mjezyskład 1.0000000
boršičanka boršičanka 1.0000000
nazgónjenjow nazhonjenjow 1.0000000
lěšće- lěšće- 1.0000000
wucycowaś wuklukować 1.0000000
globowe globowe 1.0000000
židźino židźino 1.0000000
naglěd napohlad 0.8222222
póglěd napohlad 0.1111111
wuglědanje napohlad 0.0222222
wenkowny napohlad 0.0444444
aktualizaciskem aktualizaciskim 1.0000000
wobkšuśenim wopodstatnjenjom 0.3333333
wobtwarźenim wopodstatnjenjom 0.6666667
parisu parisu 1.0000000
wšen wšón 0.3750000
wujšła wšón 0.0625000
wšyken wšón 0.2500000
ceły wšón 0.1250000
wšo wšón 0.1875000
pśewjeźomy přewjedźemy 0.1666667
pśewjedujomy přewjedźemy 0.3333333
NULL přewjedźemy 0.1666667
ako přewjedźemy 0.3333333
witśe jutře 1.0000000
matyjojce matyjojce 1.0000000
pórał procha 0.1250000
proch procha 0.1250000
malsnje procha 0.1250000
pšec procha 0.1250000
gruzle procha 0.1250000
procha procha 0.3750000
balonku balonku 1.0000000
doglědowańskego dohladowarskej 1.0000000
zabyty zabyty 1.0000000
pśewzejśo přewzajće 1.0000000
mudre mudru 0.5000000
mudru mudru 0.5000000
pyšniś debić 1.0000000
daś železnicy 0.5000000
zeleznice železnicy 0.5000000
kwośe kwoće 1.0000000
źinsajšnemu dźensnišemu 1.0000000
1947 1947 1.0000000
wopśimjeśa wobsahi 0.9736842
wopśimjeśe wobsahi 0.0263158
njepišćo njepisajće 1.0000000
wugótowanju wuhotowanju 0.9629630
wugótowanje wuhotowanju 0.0370370
artikloju artiklej 1.0000000
taki wjerch 0.0588235
wjerch wjerch 0.8823529
helski wjerch 0.0588235
text text 1.0000000
wótgrali wothrali 1.0000000
statnej statnej 0.8750000
statneju statnej 0.1250000
dale wuwiwała 0.3333333
wuwijała wuwiwała 0.6666667
łakosćony moch 0.0303030
mech moch 0.7272727
měki moch 0.0303030
jen moch 0.0303030
buźo moch 0.0303030
ten moch 0.1515152
wugótujośo wuhotujeće 1.0000000
dał dach 0.6000000
som dach 0.4000000
linkoju wotkazej 0.0526316
wótkazoju wotkazej 0.9473684
wuběgańce ćěkancy 0.7500000
by ćěkancy 0.2500000
rozrědowanem rozrjadowanym 1.0000000
sćěnu zašlahany 0.2500000
zastajili zašlahany 0.5000000
zarosćona zašlahany 0.2500000
rozglědujśo rozhladajće 1.0000000
wótwołowanje wotwołowanje 1.0000000
lawa lawy 0.2000000
lawy lawy 0.8000000
badp badp 1.0000000
jawiśo jewješe 0.1666667
nastało jewješe 0.3333333
jo jewješe 0.5000000
pisali pisali 1.0000000
css-kśidna css-lěsycy 1.0000000
appy appy 1.0000000
pyšnotku pyšenku 1.0000000
pśedsedarjami předsydami 1.0000000
twardy jakny 0.5000000
chytšy jakny 0.5000000
mjazsobnej mjezsobnej 1.0000000
krawc krawc 0.2500000
2014 krawc 0.2500000
šlodaŕ krawc 0.5000000
anulěrujośo cofnjeće 1.0000000
linethickness linethickness 1.0000000
a njewěcowne 0.3333333
njewěcowne njewěcowne 0.3333333
kuždycke njewěcowne 0.3333333
drobnostkow podrobnosćow 1.0000000
taše schowam 0.0714286
chowaś schowam 0.0714286
derje schowam 0.1428571
ja schowam 0.1428571
NULL schowam 0.0714286
zakšyto schowam 0.0714286
a schowam 0.0714286
wobchowajom schowam 0.0714286
schowajom schowam 0.2142857
wěsće schowam 0.0714286
mólece mylacy 1.0000000
až allow 1.0000000
zachowaju zachowaju 1.0000000
pśesegujucy stronske 0.5000000
strony stronske 0.5000000
pśiwobrośe wěnuja 0.1250000
zaběraju wěnuja 0.1250000
nadawkami wěnuja 0.2500000
zjawnymi wěnuja 0.2500000
ze wěnuja 0.2500000
złotych złotych 1.0000000
starosćow starosćemi 0.4000000
dla starosćemi 0.4000000
starosćami starosćemi 0.2000000
płachtu płat 0.0526316
sukno płat 0.9473684
zeleznicu železnicu 1.0000000
teologiske teologiske 1.0000000
warnoćic warnoćic 1.0000000
tepta tepta 1.0000000
zdušajuce zatrašowace 1.0000000
cross-origin cross-origin 1.0000000
kóńcna kónčna 1.0000000
nadawkow nadawkow 1.0000000
gasow hasow 1.0000000
video video 1.0000000
wulězć wulězć 1.0000000
8000 8000 1.0000000
lašowaś rozprawy 0.0153846
rozpšawy rozprawy 0.9692308
rozprawy rozprawy 0.0153846
słyšecym słyšacym 1.0000000
lajskich lajskich 1.0000000
wupłakaś wupłakać 1.0000000
wědoweje wědoweje 0.9600000
za wědoweje 0.0400000
wólažcyś wolóžić 0.7500000
wólažcujo wolóžić 0.1250000
wolažcyś wolóžić 0.1250000
dobrowólnu dobrowólnu 1.0000000
pśechad přechad 1.0000000
w paliło 0.5000000
paliło paliło 0.5000000
optimalna optimalna 1.0000000
šćitajśo škitajcé 1.0000000
pśibližnje přibližnje 0.6666667
něźi přibližnje 0.3333333
za tutomu 0.0238095
tej tutomu 0.0119048
slědom tutomu 0.0119048
tomu tutomu 0.5119048
tutomu tutomu 0.0119048
toś tutomu 0.4166667
k tutomu 0.0119048
ptaška ptačka 1.0000000
sucha sucha 1.0000000
nuzowe nuzowe 1.0000000
namakankami namakankami 1.0000000
kasami kasami 1.0000000
wagu wahu 1.0000000
góźinskich hodźinskich 1.0000000
pałkańska płokanska 1.0000000
odnorfowe odnorfowe 1.0000000
wótrědnice wotrjadnicy 1.0000000
statkom skutkom 0.3333333
pomocy skutkom 0.3333333
na skutkom 0.3333333
móžo móžeš 0.0049020
kuse móžeš 0.0049020
móžos móžeš 0.0147059
dołoj móžeš 0.0049020
NULL móžeš 0.0098039
zwucowanjow móžeš 0.0147059
wumějoš móžeš 0.0049020
mógała móžeš 0.0049020
móžóśo móžeš 0.0196078
mógał móžeš 0.0441176
móžoš móžeš 0.8333333
rejujo móžeš 0.0049020
pjerwjej móžeš 0.0049020
mógu móžeš 0.0049020
rozmějoš móžeš 0.0049020
/ móžeš 0.0049020
su móžeš 0.0049020
mózoš móžeš 0.0049020
móžośo móžeš 0.0049020
wósobje wosobje 0.7777778
wosobje wosobje 0.1111111
wósobnje wosobje 0.1111111
wótedaśa wotedaća 1.0000000
zapisowaś zapisować 1.0000000
zuk zwuk 1.0000000
naiwna naiwna 1.0000000
durinska durinska 1.0000000
pasioněrowanych pasioněrowanych 1.0000000
lěgwo lěhwo 0.6666667
logor lěhwo 0.1111111
natwarili lěhwo 0.1111111
městka lěhwo 0.1111111
megabyta megabytaj 1.0000000
matrix matrix 1.0000000
0.1 0.1 1.0000000
cyfru cyfru 1.0000000
bryzgowakom pryskadłom 0.5000000
wódowym pryskadłom 0.5000000
argumentěrowanju argumentowanju 1.0000000
kutšaka pohonča 1.0000000
za kupcowskich 0.5000000
produktow kupcowskich 0.5000000
tatanje ludy 0.1666667
ludy ludy 0.7500000
ludow ludy 0.0833333
1996 1996 1.0000000
pupkow klankow 1.0000000
wumucnjeło mučnu 1.0000000
pódzarědnik podrjadowak 1.0000000
zdawa wupada 0.0095238
něźi wupada 0.0095238
wóna wupada 0.0095238
wón wupada 0.0190476
woglědajo wupada 0.0095238
było wupada 0.0095238
zmuśone wupada 0.0095238
myta wupada 0.0095238
to wupada 0.0095238
wuglěda wupada 0.6285714
zazdaśim wupada 0.0095238
młynikaŕ wupada 0.0095238
wuglědajo wupada 0.1523810
wšedne wupada 0.0095238
ga wupada 0.0095238
jo wupada 0.0190476
by wupada 0.0095238
NULL wupada 0.0095238
derje wupada 0.0095238
wóno wupada 0.0095238
wuglědaju wupada 0.0285714
wólne wólnu 1.0000000
krotkorukawaty krótkorukawacy 1.0000000
styrjomi štyrjomi 0.2000000
styrimi štyrjomi 0.7000000
styri štyrjomi 0.1000000
njepokazuju njejewja 1.0000000
wulaś njekidnu 1.0000000
pó dźěławosć 0.0689655
źěłabnosć dźěławosć 0.7931034
źěła dźěławosć 0.0689655
pšawje dźěławosć 0.0689655
zmólka zmylk 0.8620690
pšosym zmylk 0.0034483
zmólku zmylk 0.1103448
zmylk zmylk 0.0034483
adresy zmylk 0.0034483
pśespytowanje zmylk 0.0034483
tymzmólkam zmylk 0.0034483
NULL zmylk 0.0103448
zaspiwaj zaspěwaj 1.0000000
mužu mužu 1.0000000
zacytali začitali 1.0000000
flastaŕ plestr 1.0000000
rewizory rewizorojo 1.0000000
wunuźonu wunuzowanu 1.0000000
spěchowanej spěchowanej 1.0000000
witaj-źiśownje witaj-pěstowarnje 1.0000000
wudany wudaty 0.3000000
wudaty wudaty 0.1000000
wudał wudaty 0.1000000
wudała wudaty 0.5000000
wobtwarjenje wobtwarjenje 1.0000000
wudaśa wudaća 1.0000000
źěłaś přemyslował 0.2500000
weto přemyslował 0.2500000
cu přemyslował 0.2500000
wobmyslił přemyslował 0.2500000
zgibadłowa zhibadłowa 1.0000000
wugbanych wukonjanych 1.0000000
bulank bulank 1.0000000
min-width min-width 1.0000000
njekomplicěrowanu njekomplikowane 0.6666667
njekomplicěrowane njekomplikowane 0.3333333
naraźiś namjetować 0.6250000
naraźowaś namjetować 0.3750000
alfabetizěrowanje alfabetizowanje 1.0000000
gniwaš złobiš 1.0000000
inowatiwne inowatiwne 1.0000000
pśepytuj přepytaj 0.5000000
pśespytuj přepytaj 0.5000000
pśepisujośo přepisujeće 1.0000000
zakopaś zahrjebać 1.0000000
wěcejrěcnych wjacerěčnych 1.0000000
bóžu bože 0.0256410
bogowa bože 0.0256410
bóže bože 0.7692308
bože bože 0.0256410
stupny bože 0.0256410
bóža bože 0.0769231
bóžych bože 0.0256410
bóze bože 0.0256410
jabłukowym zawitkom 0.5000000
zawitkom zawitkom 0.5000000
wobsłuž runjež 0.3333333
jan runjež 0.3333333
jano runjež 0.3333333
něco wohrožować 0.5000000
nacyniś wohrožować 0.5000000
žrědłu stražuju 0.1250000
kamjenja stražuju 0.1250000
kralojskim stražuju 0.1250000
tek stražuju 0.1250000
pśetrajom stražuju 0.1250000
nad stražuju 0.1250000
som stražuju 0.1250000
wachuju stražuju 0.1250000
pazorkow pazorkow 1.0000000
flacki blečki 1.0000000
regulěrowane regulowane 1.0000000
popcorn popcorn 1.0000000
žywjenja žiwjenjahódne 0.5000000
gódne žiwjenjahódne 0.5000000
softwaroweju softwarowej 1.0000000
neiß neiß 1.0000000
baslili paslachu 1.0000000
hmpff hmpff 1.0000000
ma woznamjenja 0.1111111
wóznamjenjuju woznamjenja 0.0185185
groni woznamjenja 0.0185185
wjelgin woznamjenja 0.0185185
wóznamjenijo woznamjenja 0.4259259
znani woznamjenja 0.0370370
NULL woznamjenja 0.0185185
drogotny woznamjenja 0.0185185
groniś woznamjenja 0.0370370
na woznamjenja 0.1111111
woznamjenijo woznamjenja 0.0185185
typk woznamjenja 0.0185185
co woznamjenja 0.0370370
ignorěrowany woznamjenja 0.0185185
wóznamjenjujo woznamjenja 0.0555556
prezentěrujo woznamjenja 0.0185185
markěrowaś woznamjenja 0.0185185
měsa mjasa 0.8571429
šło mjasa 0.1428571
wobejś wobeńć 0.4545455
wobinuś wobeńć 0.1818182
až wobeńć 0.0909091
NULL wobeńć 0.0909091
wobijaś wobeńć 0.1818182
uv-pšugam uv-pruham 1.0000000
wažniši wažniši 0.1666667
wažnjejše wažniši 0.3333333
wažnjejšy wažniši 0.1666667
wažnejše wažniši 0.3333333
nawjedował nawjedowaše 0.3888889
jo nawjedowaše 0.5000000
nawjedowała nawjedowaše 0.1111111
jadnańskego jednanskeho 1.0000000
dojadnatej dojednawatej 1.0000000
njjeo njeje 0.0006317
ťeden njeje 0.0006317
až njeje 0.0006317
njejsu njeje 0.0031586
chórosći njeje 0.0006317
wózjawjanje njeje 0.0006317
njejpo njeje 0.0006317
’ njeje 0.0006317
njamaju njeje 0.0006317
imap4 njeje 0.0006317
njeje njeje 0.0170562
šyśu njeje 0.0006317
hymaptego njeje 0.0006317
rubaś njeje 0.0006317
njewótegronijo njeje 0.0006317
njogo njeje 0.0006317
njabogi njeje 0.0006317
njedej njeje 0.0006317
pśedpisany njeje 0.0006317
kompatibelny njeje 0.0018951
wuchójźišćow njeje 0.0006317
njama njeje 0.0006317
kokulka njeje 0.0006317
njegronje njeje 0.0006317
dispoziji njeje 0.0006317
wěźeł njeje 0.0006317
napisa njeje 0.0006317
drožki njeje 0.0006317
zewšym njeje 0.0012634
mysl njeje 0.0006317
njedajo njeje 0.0138977
cogodla njeje 0.0006317
do njeje 0.0006317
spózy njeje 0.0006317
dopołnjony njeje 0.0006317
nejeje njeje 0.0006317
kjarcmje njeje 0.0006317
procesami njeje 0.0006317
njekašli njeje 0.0006317
njegóźi njeje 0.0012634
herman njeje 0.0006317
wawrje njeje 0.0006317
njepikajucy njeje 0.0006317
njesmějo njeje 0.0006317
wopěrał njeje 0.0006317
wobkšuśony njeje 0.0006317
stwórśina njeje 0.0006317
wótpórane njeje 0.0006317
css-barwa njeje 0.0006317
ist njeje 0.0006317
importěrowańska njeje 0.0006317
hympjo njeje 0.0006317
njejp njeje 0.0006317
kśěn njeje 0.0006317
njejo njeje 0.8951358
cele njeje 0.0006317
tykni njeje 0.0006317
njamógu njeje 0.0012634
png-dataja njeje 0.0006317
njej njeje 0.0018951
xhtml njeje 0.0006317
wěriła njeje 0.0006317
njewiźim njeje 0.0006317
wóstaj njeje 0.0006317
opml-dataja njeje 0.0006317
jo njeje 0.0132660
łužyskeje njeje 0.0006317
zymna njeje 0.0006317
byś njeje 0.0006317
NULL njeje 0.0082123
njoco njeje 0.0012634
móžny njeje 0.0031586
wólažcenjach powólnjenjach 1.0000000
bójał boješe 1.0000000
rěznikaŕni rěznistwu 1.0000000
cakajśo čakajće 1.0000000
kricku kerku 1.0000000
nordrhein-westfalskeje sewjerorynsko-westfalskeje 0.3333333
pódpołnocneje sewjerorynsko-westfalskeje 0.3333333
póryńsko-westfalskeje sewjerorynsko-westfalskeje 0.3333333
mrozowata huškata 1.0000000
pśijaśelna přećelna 0.1666667
pśijazna přećelna 0.6666667
, přećelna 0.1666667
orgele pišćele 1.0000000
kooperacija kooperacija 1.0000000
pśewóźowaŕkow přewodźerkow 1.0000000
wuchadnišćo wuchadźišćo 0.9090909
wuchaźišćo wuchadźišćo 0.0909091
koncepcija koncepcija 1.0000000
póśěgujo poćahuje 0.9230769
pósěgujo poćahuje 0.0769231
nětko uuuhh 1.0000000
cerwjenu čerwjena 0.2222222
cerwjene čerwjena 0.1111111
cerwjena čerwjena 0.6666667
gójaŕ hojer 0.5000000
hojer hojer 0.2500000
chórosći hojer 0.2500000
schadanja schadźenja 1.0000000
pśedpisane předpisane 1.0000000
argumentěrujo argumentuje 1.0000000
dopóznaśu dopóznaću 1.0000000
cysta ryzy 0.1111111
cysteju ryzy 0.1111111
cysty ryzy 0.0555556
cyste ryzy 0.2222222
sterjejšyńskich ryzy 0.0555556
cysto ryzy 0.3888889
cystego ryzy 0.0555556
pógódnośenim pohodnoćenjom 1.0000000
wopory wopory 1.0000000
konkretneje konkretneje 1.0000000
rana rana 1.0000000
pśinoskow přinoškam 0.5000000
pomocu přinoškam 0.5000000
gólańska holanska 1.0000000
25. 25. 1.0000000
měriś měrić 1.0000000
kosmosu kosmosu 1.0000000
njamógu njemóžeja 0.5000000
njejo njemóžeja 0.5000000
zbrašony drje 0.0073529
pśedłujko drje 0.0073529
NULL drje 0.0808824
napšawdu drje 0.0073529
se drje 0.0147059
sucha drje 0.0073529
musy drje 0.0073529
njeby drje 0.0073529
pśeklapanosću drje 0.0073529
drje drje 0.5000000
ga drje 0.0220588
źe drje 0.1250000
nejskerjej drje 0.0735294
mógał drje 0.0073529
pšawje drje 0.0073529
wutriksowaś drje 0.0073529
wužywał drje 0.0073529
labujo drje 0.0073529
napisane drje 0.0073529
uniforma drje 0.0073529
pótakem drje 0.0073529
daś drje 0.0073529
zazdaśim drje 0.0147059
mrětwa drje 0.0073529
słyšał drje 0.0073529
njeměrne drje 0.0073529
zawěsće drje 0.0220588
pali drje 0.0073529
pśidank přiwěšk 0.9090909
pśiłožk přiwěšk 0.0909091
cełodnjowskich cyłodnjowskich 1.0000000
wobźěłało přichodnemu 0.0714286
nejblišemu přichodnemu 0.0714286
pśiducemu přichodnemu 0.5714286
pśichodnemu přichodnemu 0.2857143
gósća hosćej 1.0000000
facebooka facebooka 1.0000000
idejam idejam 1.0000000
wustarkujo wustorči 1.0000000
premiumowe premiumowe 1.0000000
k wobknježenje 0.2000000
wobkněženje wobknježenje 0.8000000
sypjo próši 1.0000000
zwjazkowemu zwjazkowemu 0.0833333
zwězkowemu zwjazkowemu 0.9166667
wórješkami worješkami 1.0000000
wobzamknjo wobzamknje 1.0000000
wótwórjenje nowowotewrjenje 0.5000000
nowe nowowotewrjenje 0.5000000
zeznaśu zeznaću 0.3333333
zeznaśe zeznaću 0.3333333
zeznaśeju zeznaću 0.3333333
zawrośił zawróćił 1.0000000
pśisłušajucymi přisłušacymi 1.0000000
gwězdkow hwěžkow 1.0000000
zapisany zakótwjeny 0.0909091
zakórjenity zakótwjeny 0.1818182
wustajone zakótwjeny 0.2727273
kšuśe zakótwjeny 0.0909091
zakokulone zakótwjeny 0.1818182
wustajony zakótwjeny 0.1818182
13.1.1 13.1.1 1.0000000
górjenje mjerzanje 1.0000000
kontinuiśe kontinuiće 1.0000000
módliśo modlće 1.0000000
darniweju darniwej 1.0000000
romje romje 1.0000000
miliarźe miliardźe 1.0000000
wobśěžkanje pohóršk 1.0000000
NULL mějachmy 0.0400000
sym mějachmy 0.0400000
raz mějachmy 0.0400000
smy mějachmy 0.4400000
měli mějachmy 0.4000000
dejali mějachmy 0.0400000
rozkładowanja rozłožowanja 1.0000000
zelenych zelenych 1.0000000
jen mazaneho 0.0909091
płachty mazaneho 0.1818182
trik mazaneho 0.0909091
wumazaneje mazaneho 0.0909091
njerěšne mazaneho 0.0909091
njerěšneje mazaneho 0.3636364
rog mazaneho 0.0909091
rejowańske rejwanske 0.4444444
rejowaŕske rejwanske 0.5555556
póznawaś zaznać 1.0000000
źurjami chódba 0.3333333
tymi chódba 0.3333333
za chódba 0.3333333
głosa baritona 0.5000000
połnego baritona 0.5000000
segaju sahaja 0.5000000
dosegaju sahaja 0.5000000
słopotaś wjazoliš 0.5000000
buźoš wjazoliš 0.5000000
krajneje krajnoradneho 1.0000000
wobraznitosć wobrazliwosć 1.0000000
zasajźuju zasadźeja 1.0000000
grakałej zadźěrali 1.0000000
pśedstajony předstajeny 1.0000000
mamy-li mamy-li 1.0000000
windowsu windowsu 1.0000000
filutekoju fibble 1.0000000
póstajaś postajeć 0.3750000
póstajiś postajeć 0.6250000
dojki dejki 1.0000000
zwušyś zwyšić 1.0000000
pjakaŕkam pjekarkam 1.0000000
wótpócywanju wotpočowanju 1.0000000
type type 1.0000000
setattributenodens setattributenodens 1.0000000
wjeźotej wjedźetej 1.0000000
slěznem zadnjej 0.7500000
slědnej zadnjej 0.2500000
mytował mytował 1.0000000
temu temje 0.0416667
temje temje 0.9583333
wótekšyjo wotkrywa 0.6666667
pśichadajuce wotkrywa 0.3333333
kanclaje kenclije 1.0000000
ard ard 1.0000000
měsće městach 0.0666667
NULL městach 0.0666667
městach městach 0.8666667
interagěrujośo interagěrujeće 1.0000000
kóńcujo kóncuje 1.0000000
profilowego profiloweho 1.0000000
na twojeho 0.0434783
bogow twojeho 0.0434783
psom twojeho 0.0434783
twójogo twojeho 0.7391304
něco twojeho 0.0434783
njogo twojeho 0.0434783
NULL twojeho 0.0434783
mócnaŕstwo mócnarstwo 1.0000000
glědajucy dźiwajo 0.1666667
źiwajucy dźiwajo 0.8333333
zasajźona zasadźena 1.0000000
změrowany změrowany 1.0000000
policajskich policajskich 1.0000000
běrowami městnom 0.2222222
městnom městnom 0.7777778
flex flex 1.0000000
powědaš rěčiš 0.4827586
powědaś rěčiš 0.0689655
wěste rěčiš 0.0344828
rozgranjaš rěčiš 0.0344828
my rěčiš 0.0344828
ty rěčiš 0.0689655
móžoś rěčiš 0.0344828
se rěčiš 0.0344828
powědała rěčiš 0.0344828
což rěčiš 0.0344828
měniš rěčiš 0.0344828
dogroniś rěčiš 0.0344828
smy rěčiš 0.0344828
sy rěčiš 0.0344828
pórěźaś krjepjawy 0.2500000
kanu krjepjawy 0.2500000
/ krjepjawy 0.2500000
a krjepjawy 0.2500000
gólna lěsna 1.0000000
dnjownego dnjoweho 0.7500000
źiśownje dnjoweho 0.2500000
capy pazory 0.2000000
take pazory 0.2000000
pazory pazory 0.6000000
pśistup nastup 1.0000000
speech speech 1.0000000
njewótśěgni njewotćehń 1.0000000
dorozměśu dorozumjenju 0.6666667
dorozměśeju dorozumjenju 0.1666667
pśeśiwo dorozumjenju 0.1666667
namólował narysował 1.0000000
iv iv 0.5000000
wugel iv 0.2500000
raźił iv 0.2500000
administratorowe administratorowe 1.0000000
někim někim 1.0000000
ześěgnjośo sćehnjeće 1.0000000
wózjawjeńska wozjewjenska 1.0000000
c2pnb163v3 c2pnb163v3 1.0000000
wuměńkarje wuměnkarjo 1.0000000
pódwjarcornołužyskego zapadołužiskeho 1.0000000
gónjakom ćěrjakom 0.4000000
) ćěrjakom 0.2000000
treiber ćěrjakom 0.2000000
( ćěrjakom 0.2000000
śopło ćopło 0.7500000
how ćopło 0.2500000
wobchowanje wobchowowanje 0.5000000
wobchowowanje wobchowowanje 0.5000000
zapalono horliwišo 0.5000000
tomu horliwišo 0.5000000
wukniśo wukńće 1.0000000
zbóžko skoćata 0.0909091
nabyty skoćata 0.0909091
woły skoćata 0.3636364
jim skoćata 0.0909091
gramny skoćata 0.0909091
zwěrjeta skoćata 0.0909091
te skoćata 0.1818182
os os 1.0000000
printmedije printmedije 1.0000000
njepśigłosyjo-li njepřizwoli 1.0000000
kalendaŕ kalendra 1.0000000
fantastiskich fantastiskich 1.0000000
škódowanju škodowanju 1.0000000
słužbywugbaśa posłužbnistwa 1.0000000
zežywidła zežiwidła 0.1000000
zežywadła zežiwidła 0.2000000
loda zežiwidła 0.1000000
žywidła zežiwidła 0.6000000
wobraz.gif wobraz.gif 1.0000000
sarna sorna 1.0000000
natwarili natwarili 1.0000000
twóje twoji 1.0000000
wudobywali wudobyli 1.0000000
změrował wopokojił 1.0000000
buźotej budźetaj 1.0000000
zesrańca tajkemu 0.2000000
dla tajkemu 0.2000000
takemu tajkemu 0.6000000
wopśimjejo wobpřija 1.0000000
pśez błótach 0.0243902
drogowanje błótach 0.0975610
błotach błótach 0.8536585
NULL błótach 0.0243902
zarědujo-li zarjaduje-li 1.0000000
file.lastmodifieddate file.lastmodifieddate 1.0000000
wubrała zwubrała 0.5000000
now zwubrała 0.5000000
pśipisujo přidźěluje 1.0000000
znojł poćił 1.0000000
dobyśach dobyćach 1.0000000
walkowaś walkować 1.0000000
nagraśami natočenjemi 1.0000000
chórgojami chorhojemi 1.0000000
íframe-zasajźenja íframe-zasadźenja 1.0000000
atraktiwnjejše atraktiwniše 1.0000000
śěžkosćach ćežach 0.3333333
śěžach ćežach 0.6666667
nim ani 0.0053763
jadnučkego ani 0.0053763
nic ani 0.0107527
wócka ani 0.0053763
njamaš ani 0.0053763
njegmjo ani 0.0053763
žedneje ani 0.0053763
kjarloju ani 0.0053763
na ani 0.0053763
my ani 0.0053763
słowka ani 0.0053763
ani ani 0.0537634
njemysli ani 0.0107527
zewšym ani 0.0483871
zeschnuło ani 0.0053763
minutki ani 0.0053763
wót ani 0.0053763
wěstosću ani 0.0053763
wótprěwaś ani 0.0107527
njesměju ani 0.0053763
njekśěšo ani 0.0053763
słyšaś ani 0.0053763
teke ani 0.0161290
NULL ani 0.0161290
samo ani 0.0268817
danži ani 0.0053763
daniž ani 0.5215054
razka ani 0.1827957
tek ani 0.0053763
wachowali předchadnicy 0.1428571
pśechadniki předchadnicy 0.1428571
pśed předchadnicy 0.1428571
su předchadnicy 0.1428571
prědowniki předchadnicy 0.1428571
nama předchadnicy 0.1428571
ako předchadnicy 0.1428571
supermalsny superspěšny 1.0000000
pśepódał přepodał 0.7368421
pśepodał přepodał 0.2631579
chwatała chwataše 0.5000000
jo chwataše 0.5000000
box box 0.5000000
na box 0.2500000
pśikład box 0.2500000
pósrědnjonem sposrědkowanym 1.0000000
sobe sobe 1.0000000
dypka dypkaj 1.0000000
ansambloju ansamblej 1.0000000
njom chodźće 1.0000000
pśez wupjelnja 0.2500000
stawa wupjelnja 0.2500000
stajenje wupjelnja 0.2500000
połni wupjelnja 0.2500000
wótmětego wotměwaceho 1.0000000
wěstnotna wěstnotnu 0.3333333
wěstnotnu wěstnotnu 0.3333333
wěstotnu wěstnotnu 0.3333333
śišćarskego ćišćerskeho 0.3333333
śišćaŕskego ćišćerskeho 0.6666667
kresli rysuje 0.5000000
wopisujo rysuje 0.5000000
žeńsku mandźelsku 0.5000000
manźelsku mandźelsku 0.5000000
122 122 1.0000000
sekretarjach sekretarach 1.0000000
navida navida 1.0000000
betakanala betakanala 1.0000000
wurownańske změrcowske 1.0000000
słuchańskich słuchanskich 1.0000000
swěźeńsku swjedźensku 1.0000000
limity limity 1.0000000
ekologiju ekologiju 1.0000000
štrajk stawk 1.0000000
pówušćo powyšće 1.0000000
samosigněrowany samosignowany 1.0000000
krajinowego krajinoweho 1.0000000
tr tr 1.0000000
žaby łóju 1.0000000
mudry ženij 0.5000000
pśeliš ženij 0.5000000
styknułej stykowałoj 1.0000000
hortowych hortowych 1.0000000
wob dopołdnišeho 0.3333333
dopołdnjejšego dopołdnišeho 0.3333333
cas dopołdnišeho 0.3333333
jo přewjedźeše 0.6666667
pśewjadł přewjedźeše 0.3333333
wokognuśu wokomikej 1.0000000
pśeźěła předźěła 1.0000000
manoush manoush 1.0000000
co-co š-š-što 0.3333333
c-c-co š-š-što 0.6666667
marcel marcel 1.0000000
substantiw substantiw 1.0000000
zachadnosć zašłosć 1.0000000
zwarijo zwari 1.0000000
woblico znaty 0.0256410
znaty znaty 0.8205128
wuwołany znaty 0.0256410
s. znaty 0.0256410
južo znaty 0.0256410
NULL znaty 0.0256410
znata znaty 0.0256410
znate znaty 0.0256410
smy wobdźělichmy 1.0000000
rozšyrja šěri 0.5000000
rozšyrjujo šěri 0.5000000
wobškóźiła wobškodźiła 0.3333333
ms-exchange wobškodźiła 0.6666667
utf-8 utf-8 1.0000000
nnježli nprjedy 1.0000000
pósrědnjone posrědkowane 1.0000000
zrazonych zranjenych 0.2000000
zbrašonych zranjenych 0.6000000
a zranjenych 0.2000000
aktualne aktualna 0.0454545
aktualny aktualna 0.0454545
aktualna aktualna 0.9090909
wudawarjeju wudawarjej 1.0000000
papjerowu papjerowu 1.0000000
fararja pastora 1.0000000
serioznje chutnje 0.1111111
akutnje chutnje 0.1111111
napšawdu chutnje 0.0555556
pówažnje chutnje 0.7222222
mazany mazanu 0.5000000
njerěšnu mazanu 0.5000000
kumštna kumštna 1.0000000
pyšić pyšić 1.0000000
okcitancankam okcitančankam 1.0000000
pawoła pawoła 1.0000000
składłi składowali 0.0909091
składowali składowali 0.2727273
składli składowali 0.6363636
pominanja naroka 0.5000000
wupominanja naroka 0.5000000
dwójka dwójka 1.0000000
góli hole 0.1250000
góle hole 0.8750000
njejo přežiwiłoj 0.2500000
pśežywiłej přežiwiłoj 0.2500000
k přežiwiłoj 0.2500000
pśisamem přežiwiłoj 0.2500000
21 21 1.0000000
pisanego špektakula 0.5000000
graśa špektakula 0.5000000
nsdap nsdap 1.0000000
póchadajuce pochadźace 1.0000000
spómałšenje spomalenje 1.0000000
tek šikwanu 0.3333333
do šikwanu 0.3333333
rědneje šikwanu 0.3333333
pókšacowal pokročowal 1.0000000
šwjerc šwjerč 1.0000000
strukturěrowany strukturowany 1.0000000
pśedstajone předstajene 1.0000000
jo kecke 0.5000000
kecke kecke 0.5000000
až předchadny 0.2500000
pjerwjejšny předchadny 0.5000000
tym předchadny 0.2500000
symantec symantec 1.0000000
awtentifikaciska awtentifikaciska 0.6666667
awtentificěrowańsku awtentifikaciska 0.3333333
wótpósłaś wotesłać 0.5000000
wótesłaś wotesłać 0.5000000
mimo mimo 1.0000000
wobogaśiś wobohaćić 1.0000000
wjele zwučować 0.1000000
zwucowaś zwučować 0.9000000
wubraśe wuzwolenja 0.5000000
wólnosć wuzwolenja 0.5000000
zwuraznjuju zwuraznjeja 0.5714286
zwuraznjatej-li zwuraznjeja 0.2857143
raźi zwuraznjeja 0.1428571
powěsćowego powěsćoweho 0.8333333
tekstowy powěsćoweho 0.1666667
zaźaržało zadźeržało 1.0000000
wósobinska wosobinska 1.0000000
telefonowe telefonowe 0.3157895
telefonowy telefonowe 0.6842105
nejnišem najnišim 1.0000000
režija režija 1.0000000
religioznych nabožniskich 1.0000000
dosłowa dosłowa 1.0000000
zapakowanego zapakowaneho 1.0000000
bogatego bohateje 1.0000000
połojca połojca 1.0000000
~ ~ 1.0000000
šansa šansa 1.0000000
gratulěrowała gratulowała 1.0000000
klěco klaca 1.0000000
obligatoriskego winowatostneho 1.0000000
wóthrał wothrał 0.1250000
wótgrał wothrał 0.8750000
parkowanišća parkowanišća 1.0000000
kjarchoby kěrchowy 1.0000000
maria marja 0.5000000
marija marja 0.2142857
marja marja 0.2857143
wideowopśimjeśa widejowobsaha 1.0000000
marsowe marsowi 1.0000000
1280x800 1280x800 1.0000000
wósadnemu wosadnemu 1.0000000
naraźenjami namjetami 1.0000000
dojadnaneje dojednaneje 1.0000000
populisty populisća 1.0000000
marku hriwnu 1.0000000
płachśe płachće 1.0000000
wobwjertne wjerćace 1.0000000
animěrowaś animować 1.0000000
kontrolnej kontrolnej 1.0000000
wubrana wubrana 0.2000000
wubrany wubrana 0.8000000
rucne ručne 1.0000000
wulětnišća wulětnišća 1.0000000
šyjarnu šijawu 1.0000000
sekretarjoma sekretaromaj 1.0000000
statkowańskej dobje 0.0454545
planowanja dobje 0.0454545
dobje dobje 0.4545455
casu dobje 0.1363636
perioźe dobje 0.3181818
dokumenta dokumenta 1.0000000
pódkowy pódkowy 0.6666667
kopyta pódkowy 0.3333333
frank frank 1.0000000
góńtwam honjeńcam 1.0000000
rěšeńske kubłanišća 0.0200000
NULL kubłanišća 0.0200000
kubłanišći kubłanišća 0.0200000
kubłanišćo kubłanišća 0.0200000
kubłanišća kubłanišća 0.8800000
kubłanja kubłanišća 0.0200000
šulu kubłanišća 0.0200000
lekcijowu lekcijow 0.0833333
lekcijow lekcijow 0.9166667
sadach sadach 1.0000000
8.2.1 8.2.1 1.0000000
wuwiśowy wuwićowy 1.0000000
nowoměsćanaŕskej nowoměšćanskej 1.0000000
su wutworitej 0.5000000
wutwórili wutworitej 0.5000000
swětlinow swětlinow 1.0000000
deskriptor deskriptor 1.0000000
howacne hewake 1.0000000
jasne zrozumliwe 0.0909091
rozymliwe zrozumliwe 0.3636364
rozměśu zrozumliwe 0.1818182
k zrozumliwe 0.1818182
NULL zrozumliwe 0.1818182
wokomuźenim komdźenjom 1.0000000
ministaŕski ministerski 1.0000000
cookiejom plackom 1.0000000
łužyskeje łužiskeje 1.0000000
metropoli metropoli 0.5000000
wuwił metropoli 0.5000000
śišćanje ćišćenje 0.9166667
NULL ćišćenje 0.0833333
zastupnego městopředsydku 0.2500000
zastupnicu městopředsydku 0.2500000
pśedsedarku městopředsydku 0.2500000
pśedsedarja městopředsydku 0.2500000
serbskimi serbskimi 0.9710145
ze serbskimi 0.0144928
serbskim serbskimi 0.0144928
wódnjo nich 0.0069930
tom nich 0.0069930
pomjenili nich 0.0069930
NULL nich 0.0069930
nje nich 0.0559441
nich nich 0.9020979
šulow nich 0.0069930
połojca nich 0.0069930
dokóńcnje doskónčnje 0.8571429
ceło doskónčnje 0.1428571
mnichowa mnichowa 1.0000000
psm psm 1.0000000
lěpšemu lěpšemu 1.0000000
šyrokosć šěrokosć 0.8333333
šyrokosći šěrokosć 0.1666667
jancy jancy 1.0000000
cas traće 0.4000000
traśe traće 0.6000000
šćit wustawoškit 0.5000000
wustawowy wustawoškit 0.5000000
dispoziciji připokazanje 0.2000000
k připokazanje 0.2000000
pśipokazanje připokazanje 0.6000000
jan jano 1.0000000
migrantow migrantow 1.0000000
wótpisaś čisće 0.0500000
do čisće 0.0500000
wewšosć čisće 0.1000000
nowučke čisće 0.3500000
napśeśiwneju čisće 0.1000000
nowučki čisće 0.3500000
głosowanje hłosowanje 1.0000000
rědam nastrojam 1.0000000
http-głowu http-hłowu 1.0000000
filmowa filmowa 1.0000000
1915 1915 1.0000000
nigdy sčasom 0.0344828
jěsno sčasom 0.0689655
z sčasom 0.0344828
ja sčasom 0.0344828
scasom sčasom 0.2413793
we sčasom 0.0344828
zawcasa sčasom 0.4827586
casom sčasom 0.0344828
póstarało sčasom 0.0344828
dochaźe wotpósłanju 1.0000000
bjatkaŕ bjatkaŕ 1.0000000
pśikłaźoš wohrěwa 0.3333333
wugrěwa wohrěwa 0.3333333
grějo wohrěwa 0.3333333
dwójolětnej dwulětnu 0.4000000
dwójolětnu dwulětnu 0.6000000
inteligentnego inteligentneho 1.0000000
soketa socketa 0.5000000
pisaś socketa 0.5000000
kórbika korbika 1.0000000
kóńc darmotna 0.0909091
dermotna darmotna 0.8181818
licha darmotna 0.0909091
kalendarjow protykow 1.0000000
burskej burskeju 1.0000000
pósmjejkom posměwkom 1.0000000
zlubjenje dodźerži 0.3333333
źaržaś dodźerži 0.6666667
wuběźowanju wurisanju 0.6250000
wupadowańskem wurisanju 0.3750000
ngótujmy nčińmy 1.0000000
dwójobarwny dwubarbny 1.0000000
80. 80. 1.0000000
kupkowych skupinskich 1.0000000
kombiněruj kombinuj 0.4000000
kobiněruj kombinuj 0.2000000
konbiněruj kombinuj 0.4000000
sćažory sćežory 1.0000000
septembrom septembrom 1.0000000
negaciski negaciski 1.0000000
pśerězne přerězne 1.0000000
jězdźe jězdźa 1.0000000
kuždycke wšo 0.0072464
wótwuknuł wšo 0.0072464
za wšo 0.0072464
změniš wšo 0.0072464
było wšo 0.0144928
pšašaj wšo 0.0072464
mi wšo 0.0072464
to wšo 0.0072464
což wšo 0.0072464
wšo wšo 0.6449275
wše wšo 0.0072464
wšyknych wšo 0.0072464
wěcach wšo 0.0072464
wulicujom wšo 0.0072464
smějo wšo 0.0072464
wšykno wšo 0.2246377
NULL wšo 0.0144928
słyšali wšo 0.0072464
titulom titulom 0.1428571
titelom titulom 0.8571429
brachy zbrašenje 1.0000000
směrnicu směrnicu 0.7000000
směrnice směrnicu 0.1000000
njewopśimujo směrnicu 0.2000000
spiwaś spěwać 1.0000000
hawbu hawbu 1.0000000
spomnjejo składuje 0.0208333
składujo składuje 0.9166667
NULL składuje 0.0625000
nawabiło nawabi 0.3333333
nawabił nawabi 0.3333333
jo nawabi 0.3333333
wołaš wołaš 0.5000000
źerjoš wołaš 0.2500000
kśikaš wołaš 0.2500000
wuśěgi wućahi 1.0000000
britannica britannica 1.0000000
njewócakanu njewočakwoanu 1.0000000
připóznawanske připóznawanske 0.5000000
pśipóznawańske připóznawanske 0.5000000
radebeulu radebeulu 1.0000000
naglědnosć nahladnosć 1.0000000
kultusoweje kultusoweje 1.0000000
njeregistrěrujo njezapřijima 1.0000000
1605153 1605153 1.0000000
filantropiske filantropiske 1.0000000
paletu paletu 1.0000000
pśetergniś přetorhnyć 0.0344828
anulěrowaś přetorhnyć 0.0689655
pśetergnuś přetorhnyć 0.8965517
bogna bogna 1.0000000
wikowanje wikowanje 1.0000000
zasłužćo zasłužće 1.0000000
ministarjow ministrow 1.0000000
klubach klubach 1.0000000
2.1.2 2.1.2 1.0000000
financnem finančnym 1.0000000
zbywajucym zbywacym 1.0000000
wobźěłajśo wobdźěłajće 1.0000000
wuknucym wuknjacym 0.5000000
wuknjecym wuknjacym 0.5000000
cajk nječaporowe 0.2500000
a nječaporowe 0.2500000
njecajk nječaporowe 0.2500000
ako nječaporowe 0.2500000
kwalitatiwnych kwalitatiwnych 1.0000000
zawinowali zawinowali 1.0000000
paradizowych rajskich 1.0000000
tšašydłam šerjenjam 1.0000000
złosnym złowólnym 1.0000000
pólske pólske 1.0000000
wuwijaju přewjeduja 0.0833333
pśewjedu přewjeduja 0.1666667
pśewjeduju přewjeduja 0.7500000
nješćitane nješkitane 1.0000000
wuchadali wuchadźeli 1.0000000
sćažka sćežka 1.0000000
pakśikach pakćikach 1.0000000
energijowogóspodaŕskego energijowohospodarskeho 1.0000000
sejmarja sejmarja 1.0000000
njebój njestarosć 0.2307692
njestarosć njestarosć 0.1538462
njegótuj njestarosć 0.1538462
starosći njestarosć 0.0769231
starosćow njestarosć 0.0769231
žednych njestarosć 0.1538462
sebje njestarosć 0.1538462
rybami rybami 1.0000000
kontrowersa kontrowersa 0.3333333
w kontrowersa 0.3333333
nastupnosći kontrowersa 0.3333333
nastorčił nastorčił 0.6666667
póstarcył nastorčił 0.3333333
chorowy chórowy 1.0000000
zabitych zabitych 1.0000000
napšawdnu woprawdźitu 0.5000000
bytosć woprawdźitu 0.5000000
zarywaju zarywaja 1.0000000
zapłaśenju zapłaćenju 1.0000000
NULL njeporadźiła 1.0000000
spjacony překlepany 0.3333333
pśeklapany překlepany 0.6666667
mjelcyno mjelčicy 1.0000000
macos macos 1.0000000
znjewužywało znjewužiwali 1.0000000
patricija patricija 1.0000000
wobradowałej wuradźowaštaj 0.5000000
stej wuradźowaštaj 0.5000000
lězo lěze 1.0000000
pśebywaśo přebywaće 1.0000000
grońśo rjekńće 1.0000000
( njepřepruwowany 0.1250000
njepśeglědany njepřepruwowany 0.1250000
sydło njepřepruwowany 0.1250000
s njepřepruwowany 0.1250000
njepśespytany njepřepruwowany 0.1250000
pśeglědany njepřepruwowany 0.1250000
% njepřepruwowany 0.1250000
) njepřepruwowany 0.1250000
gromaźe dźěłałoj 0.5000000
źěłałej dźěłałoj 0.5000000
rězbaŕske rězbarske 1.0000000
wustawkow statutow 1.0000000
masterowych master-dźěłach 0.5000000
wótzamknjenjach master-dźěłach 0.5000000
juž neptun 0.2000000
neptum neptun 0.2000000
neptun neptun 0.6000000
wideopósołstwje poselstwje 0.5000000
jo poselstwje 0.5000000
padow padow 1.0000000
zasejzwězanje zasozwjazanje 1.0000000
telemetrijowy telemetrijowy 1.0000000
preferěruju preferuja 1.0000000
bědy bědy 1.0000000
kodowych kodowych 1.0000000
ljubljana ljubljana 1.0000000
demokratiskemu demokratiskemu 1.0000000
y y 1.0000000
pśenosuju přenošeja 1.0000000
wužywaśskich wužiwanskich 0.0588235
wužywańskich wužiwanskich 0.8823529
słužbnych wužiwanskich 0.0588235
off-the-record off-the-record 1.0000000
nuzowyma nuzne 0.1818182
nuzowe nuzne 0.0909091
chwatali nuzne 0.0909091
nuznje nuzne 0.0909091
nuzne nuzne 0.5454545
dopomnjeśow dopomnjećow 1.0000000
lubje lubje 0.5000000
wutšobnje lubje 0.5000000
pśetergnuł přetohrnył 1.0000000
rozpušćenje rozpušćenju 0.2500000
rozpušćenju rozpušćenju 0.7500000
drogowe nadróžni 1.0000000
brrr iihh 1.0000000
zwjaseliś serbšćinje 0.0156250
kubłaju serbšćinje 0.0156250
serbšćinje serbšćinje 0.8906250
rěcy serbšćinje 0.0312500
serbskej serbšćinje 0.0468750
měški kopyčka 1.0000000
kritiskim kritiskim 1.0000000
pismje dokumentuje 0.1052632
dokumentěrujo dokumentuje 0.8947368
wobgónili wobhonili 1.0000000
sćažce šćežce 1.0000000
nejpjerwjej naprjedy 1.0000000
tokena tokena 1.0000000
wupomagajucemu wupomhacemu 1.0000000
wušaltujśo wupińće 0.5000000
wótšaltujśo wupińće 0.5000000
jakub jakub 0.9090909
teke jakub 0.0454545
jakuba jakub 0.0454545
drozne nadróžne 1.0000000
spušćaśo spušćeće 1.0000000
wobgranicowaś wobmjezpwać 1.0000000
procow prócow 1.0000000
. ličby 0.0196078
ličby ličby 0.0196078
licby ličby 0.9411765
wobźěłało ličby 0.0196078
zjadnałej dojednałoj 0.1428571
wobjadnej dojednałoj 0.2857143
dojadnali dojednałoj 0.1428571
dojadnałej dojednałoj 0.2857143
wobjadnałej dojednałoj 0.1428571
gnujuca hnujaca 0.6666667
gnujuce hnujaca 0.3333333
njepódpisany njepodpisany 1.0000000
sensibelne sensibelny 0.3333333
za sensibelny 0.3333333
pšawidła sensibelny 0.3333333
wuwijaŕskego wuwiwarskeho 0.5000000
wuwijarskego wuwiwarskeho 0.5000000
zarjagotało zawrjeskało 1.0000000
žednych póstowe 0.0833333
postowe póstowe 0.6666667
postowej póstowe 0.0833333
gołbje póstowe 0.0833333
njamóźośo póstowe 0.0833333
filialnu wužitnu 0.1250000
wužytnej wužitnu 0.1250000
wužytnu wužitnu 0.7500000
parkoju parkej 1.0000000
jawiła jewił 1.0000000
lampy lampy 1.0000000
18,6 18,6 1.0000000
maš rodźiš 0.5000000
rad rodźiš 0.5000000
powědali serbowali 0.3333333
serbski serbowali 0.3333333
serbowali serbowali 0.3333333
kontejnerowego kontejneroweho 1.0000000
pśikazach přikazach 1.0000000
pśewjelika přewulka 1.0000000
bólitej bolitej 1.0000000
aktualizěrował aktualizowany 1.0000000
jadnotliwc jednotliwc 1.0000000
namakaś.jo namakać.je 1.0000000
sfalšowane sfalšowane 1.0000000
wobstało wobstało 1.0000000
instituciji zarjadnišću 0.3333333
zastojnstwje zarjadnišću 0.6666667
rownogódnem runohódnym 1.0000000
informaciju informaciju 1.0000000
njejo zuwa 0.3333333
wuźaržanju zuwa 0.3333333
to zuwa 0.3333333
góla lěs 0.3157895
how lěs 0.0526316
gólu lěs 0.4210526
błoto lěs 0.1052632
błota lěs 0.0526316
tak lěs 0.0526316
pólěpšonu polěpšenu 0.5000000
polěpšenu polěpšenu 0.5000000
wusedlarjow wusydlencow 1.0000000
gronidłowu hesłowu 1.0000000
nana nanka 1.0000000
mokšych mokrych 1.0000000
zastojańske zarjadniske 0.1333333
zastojnstwowe zarjadniske 0.7333333
zastojnske zarjadniske 0.1333333
wótskažośo wotskazaće 1.0000000
metodach metodach 1.0000000
wšakich wšelakore 0.0625000
wšakorake wšelakore 0.7500000
wjelerake wšelakore 0.1250000
wšakoraku wšelakore 0.0625000
multiprocesowem multiprocesowym 0.5000000
multiprocesowym multiprocesowym 0.5000000
wobchadanja wobchad 0.0357143
wobchad wobchad 0.8214286
wobchadanje wobchad 0.1428571
dolna delnja 1.0000000
muzyczny muzyczny 1.0000000
kwotowe kwotowe 0.5000000
k kwotowe 0.2500000
njedajo kwotowe 0.2500000
pśigótujom přihotuju 0.5000000
pśigótuju přihotuju 0.5000000
startowanim startowanjom 1.0000000
woblubowane woblubowane 1.0000000
njestartujośo njestartujeće 1.0000000
niwow niwow 1.0000000
pówołanju powołanju 0.7142857
powołanju powołanju 0.1904762
powołanja powołanju 0.0952381
znate sławni 1.0000000
stawje stawje 0.8529412
stawoju stawje 0.0588235
NULL stawje 0.0294118
situaciji stawje 0.0588235
jadnake jenacy 0.3333333
wšyknych jenacy 0.1666667
jadnak jenacy 0.1666667
lubo jenacy 0.1666667
ma jenacy 0.1666667
zwobraznjenim zwobraznjenjom 1.0000000
dolnoserbskeje delnjoserbšćiny 0.0689655
rěcy delnjoserbšćiny 0.0344828
dolnoserbšćiny delnjoserbšćiny 0.7586207
znaśow delnjoserbšćiny 0.1379310
perpleksny perpleksny 1.0000000
cc-by-sa cc-by-sa 1.0000000
žnějo žněje 1.0000000
komercielnym komercielnym 1.0000000
mytowali mytowali 1.0000000
atributom atributom 1.0000000
pśedpołožyli předpołožili 1.0000000
pódlažał podležał 1.0000000
wótkubłańske zdźěłowanske 1.0000000
pśegónjowarja přesćěhowarja 1.0000000
wótrězku wotrězku 0.9230769
wótstawku wotrězku 0.0769231
premiumowy premiumowy 1.0000000
set set 1.0000000
pśicynjonu připrawjenu 1.0000000
dłymokotwaŕskich hłubokotwarskich 1.0000000
rejowali rejowali 1.0000000
awtentifikaciskim awtentifikaciskim 0.5000000
awtentifikaciskem awtentifikaciskim 0.5000000
namakaś wrotow 0.2000000
wrotow wrotow 0.6000000
wiźeś wrotow 0.2000000
pśipinaśo připinaće 1.0000000
procowanja zamolwjenska 1.0000000
warnujo warnuje 1.0000000
wótstawkam wotstawkam 1.0000000
psycholog psychologa 1.0000000
fasetach fasetach 1.0000000
multiperspektiwnemu multiperspektiwnemu 1.0000000
kopicu kopicu 0.8333333
kradu kopicu 0.1666667
memorykórtkow memorykartkow 1.0000000
nižej niže 1.0000000
vr vr 1.0000000
wótkubłański zdźěłowanski 1.0000000
sudana sudana 1.0000000
jězdźidła jězdźidła 0.8333333
pódšmarnuł jězdźidła 0.1666667
wótewześu zadźerža 1.0000000
zastupowašo zastupowaše 1.0000000
pómyslone namyslene 1.0000000
kralowa kralowa 1.0000000
dermotny zadarmo 0.1250000
dermo zadarmo 0.3750000
darmo zadarmo 0.1250000
zadermo zadarmo 0.1250000
nic zadarmo 0.1250000
wótedaś zadarmo 0.1250000
estetika estetika 1.0000000
statna statna 1.0000000
śamne ćmowe 0.8750000
śmojte ćmowe 0.1250000
bukec bukečanow 0.2500000
wobydlari bukečanow 0.2500000
žednych bukečanow 0.2500000
tom bukečanow 0.2500000
dobrotnostnej dobroćelskej 1.0000000
pśetwarjenjach přetwarach 1.0000000
cora wčera 1.0000000
postprodukciju postprodukciju 1.0000000
transparentnjej transparentnišo 1.0000000
nowowólba nowowólba 1.0000000
socialne socialni 1.0000000
za pokłady 0.0714286
pókładom pokłady 0.0714286
pókłady pokłady 0.8571429
streetball streetball 1.0000000
góspodaŕskostrukturnem hospodarskostrukturnym 1.0000000
gódownicku hodowničku 1.0000000
webstronje webstronje 0.2222222
webboku webstronje 0.7777778
augusta augusta 1.0000000
lubinskej lubinskeho 1.0000000
dekompriměrowanju dekomprimowanju 1.0000000
krabatoweju krabatowej 0.5000000
krabatowej krabatowej 0.5000000
krotka krótka 1.0000000
narski pachoł 0.0625000
ten pachoł 0.0625000
kjarl pachoł 0.1250000
młoźeńc pachoł 0.0625000
gólc pachoł 0.1250000
pachoł pachoł 0.5625000
źaseślětny dźesaćlětny 1.0000000
zelezniska železniska 1.0000000
NULL zapis 0.0294118
noticu zapis 0.0294118
zapisk zapis 0.0588235
zarědnik zapis 0.4705882
zapis zapis 0.4117647
pśedpśipušćeński předdopušćenski 1.0000000
barwje barbje 1.0000000
změrowane změrowani 1.0000000
serbske serbstwje 0.5000000
to serbstwje 0.5000000
rody kmjeny 1.0000000
awtonomne awtonomne 1.0000000
žywy wožiwjeny 1.0000000
wjelerakosć mnohotnosć 0.8750000
wjeleserakosć mnohotnosć 0.1250000
pśipóznatymi připóznatymi 1.0000000
namšy kemšow 1.0000000
zakóńcone zakónčena 1.0000000
linije linije 1.0000000
ilegaliśe podzemju 1.0000000
rozšyrjoneje rozšěrjeneje 1.0000000
njeakceptěruju njeakceptuja 1.0000000
wuznamjenjenju wuznamjenjenju 1.0000000
sadam sadam 1.0000000
słony słony 1.0000000
znicy zniči 0.2000000
pśewobrośiło zniči 0.2000000
jo zniči 0.2000000
znicyjo zniči 0.4000000
gpl gpl 1.0000000
slěwkowa marmelada 0.1111111
marmelada marmelada 0.7777778
wuglědajo marmelada 0.1111111
pśigótowali přihotowali 0.8750000
psigótowali přihotowali 0.1250000
pśerědnjaju porjeńšeja 1.0000000
inaktiwna inaktiwna 1.0000000
skonfigurěrowane skonfigurowane 1.0000000
pótrjebu potrjebu 0.9687500
pótrjebnosć potrjebu 0.0312500
wotsajźiś wotsadźomne 1.0000000
twarili twarili 1.0000000
pomaganje pomhanje 1.0000000
zasejwužywanje zasowužiwanje 0.6666667
nastupa zasowužiwanje 0.3333333
boršć boršć 1.0000000
wózroźowarje wozrodźerjo 0.5000000
su wozrodźerjo 0.5000000
nacerjenja naćiski 0.2857143
naraźenja naćiski 0.1428571
pśedłogi naćiski 0.5714286
umsch umsch 1.0000000
marxizma marxizma 1.0000000
awstralska awstralska 1.0000000
pśeźěłowanje předźěłowanje 0.9230769
wobźěłowanje předźěłowanje 0.0769231
wuměśe kumšt 0.5000000
kumšt kumšt 0.5000000
zestajiś zestajeć 0.1666667
zestajaś zestajeć 0.8333333
wobrośćo wobroćće 1.0000000
žeńskeju mandźelskej 0.6666667
manźelskeju mandźelskej 0.3333333
gmejnskem gmejnskej 0.2222222
gmejnskej gmejnskej 0.7777778
pórědne njehodźeše 0.1428571
njejo njehodźeše 0.5714286
góźeło njehodźeše 0.1428571
. njehodźeše 0.1428571
wótpóraju wotstronjeja 0.5000000
wótwónoźuju wotstronjeja 0.5000000
kwisa kwisa 1.0000000
zažywjenja zažiwjenja 1.0000000
pedagogowkow pedagogowkow 1.0000000
zapušćił zahibał 1.0000000
nowše nowše 1.0000000
cłonkojskich sobustawskich 0.8888889
cłonkojske sobustawskich 0.1111111
chołmje chołmje 1.0000000
mafredoju manfredej 1.0000000
www.openh264.org www.openh264.org 1.0000000
wózyś wodźić 0.2500000
wóźiś wodźić 0.5000000
wjasć wodźić 0.2500000
smólinach smolinach 0.5000000
su smolinach 0.5000000
inowatiwny inowatiwny 0.6666667
nałožował inowatiwny 0.3333333
kategorjiow kategorjiow 1.0000000
z zapłaćenja 0.1818182
zapłaśenja zapłaćenja 0.8181818
śpy hóstnych 1.0000000
napšawdna woprawdźita 0.4285714
wopšawdna woprawdźita 0.2857143
pšawy woprawdźita 0.2857143
zwjaselijotej zwjeseli 0.1428571
zawjaseli zwjeseli 0.5714286
rozwjaselijo zwjeseli 0.2857143
wótměnje wróćicy 1.0000000
pócesćił počesćeny 1.0000000
pjaco praži 1.0000000
zastupnikow naměstnicow 1.0000000
nul nul 1.0000000
raznje raznje 1.0000000
arabicuma arabicuma 1.0000000
procował prócował 1.0000000
njepśedawamy njepředawamy 1.0000000
strukturu strukturu 0.8333333
struktury strukturu 0.1666667
komisijow komisijow 1.0000000
datum datum 0.9600000
płaśiwosći datum 0.0400000
pěškowego pěškoweho 1.0000000
se abonujeće 0.5000000
aboněrujośo abonujeće 0.5000000
650 650 1.0000000
wóskowanju wóskowanju 1.0000000
c2pnb368w1 c2pnb368w1 1.0000000
pśedpisujo předpisuje 1.0000000
lažčejšy lóši 0.5000000
lažcejšy lóši 0.5000000
pśišli přichwata 0.5000000
su přichwata 0.5000000
kótarež wužiwane 0.0909091
wužywane wužiwane 0.8181818
rozdźělone wužiwane 0.0909091
api-napšašowanja api-naprašowanja 1.0000000
transgresiw transgresiw 1.0000000
kulojskeje kulowskeje 1.0000000
atomoweje atomoweje 1.0000000
wuchadaju popušćeja 1.0000000
wobłukowe wobłukowych 0.2000000
kupki wobłukowych 0.2000000
wobłuk wobłukowych 0.2000000
za wobłukowych 0.2000000
boku wobłukowych 0.2000000
studentskich studentskich 1.0000000
prochoju prochej 1.0000000
manuskripty pohódnoćeja 0.5000000
pógódnośuju pohódnoćeja 0.5000000
přesahnjenjach přesahnjenjach 1.0000000
lěgwa lěhwow 1.0000000
dojśpiśo docpějće 1.0000000
architektow architekća 0.5000000
architekty architekća 0.5000000
płun płun 1.0000000
pšusoju prusej 1.0000000
někotarymžkuli někotrymžkuli 1.0000000
sebje hětu 0.3333333
budku hětu 0.6666667
url-mě url-mjeno 1.0000000
klawěrje klawěrje 1.0000000
nejwušem najwušim 1.0000000
trjebnosć trěbnosć 1.0000000
socialnego socialneho 1.0000000
zawinujucy zawinowacy 1.0000000
eliptiska eliptiska 1.0000000
grajnemu hrajnemu 1.0000000
za njepřeradźu 0.1666667
pśeraźiś njepřeradźu 0.1666667
sebje njepřeradźu 0.1666667
pśeraźijom njepřeradźu 0.1666667
to njepřeradźu 0.1666667
wobchowajom njepřeradźu 0.1666667
pózbuźowaś pozbudźować 0.3333333
pógnuwaś pozbudźować 0.3333333
NULL pozbudźować 0.3333333
zachowaju wobchowaja 0.1666667
z wobchowaja 0.1666667
makanju wobchowaja 0.1666667
wobchowaju wobchowaja 0.1666667
našymi wobchowaja 0.1666667
w wobchowaja 0.1666667
moderěrowanej moderěrowanej 1.0000000
snědanju snědani 1.0000000
referenta referenta 0.5000000
abo referenta 0.5000000
wuźěłanje wudźěłanje 1.0000000
wjedniki wjedniki 1.0000000
gronjakow delnjoserbskich 0.0909091
dolnoserbskich delnjoserbskich 0.9090909
słužbu słužbu 1.0000000
miliony milionow 0.0204082
milionow milionow 0.9795918
to słuchane 0.3333333
rozmějucego słuchane 0.3333333
słyšane słuchane 0.3333333
rědoju rjadej 1.0000000
wokolina wosebiteje 0.2000000
wósebneje wosebiteje 0.6000000
wósebna wosebiteje 0.2000000
su přijědźechu 0.5000000
kólasowarje přijědźechu 0.5000000
biseksualny biseksualny 1.0000000
financielnego financielneho 1.0000000
žeńske žónske 0.1666667
žeńskece žónske 0.6666667
žeński žónske 0.1666667
wuśěgow wućahow 1.0000000
over verwahrlosten 1.0000000
njekomunicěrujośo njekomunikujeće 1.0000000
zarucyjo zaručeja 0.3333333
se zaručeja 0.3333333
zarucyli zaručeja 0.3333333
mócny droganc 0.5000000
logan droganc 0.5000000
wobjadnašo wobjednawaše 1.0000000
zwěšćelujo wěšćerstwo 0.5000000
zagranja wěšćerstwo 0.5000000
wědobnosću swědomjom 1.0000000
heitmann heitmann 1.0000000
wóswěśili woswjećili 1.0000000
wustnych ertnych 1.0000000
regionach regionach 1.0000000
realizěrujobne zwoprawdźomne 1.0000000
słyńcu słóncu 0.2000000
we słóncu 0.2000000
błyšći słóncu 0.4000000
kšanje słóncu 0.2000000
alfabet alfabet 1.0000000
swětocnosć swjatočnosć 1.0000000
wobnowjonem ponowjenym 1.0000000
gibanju pohibowanju 1.0000000
załožonych załoženych 1.0000000
stupajucych stupacych 1.0000000
zaktiwěrował zaktiwizował 1.0000000
telefonoju telefonej 1.0000000
amty zarjady 0.0909091
zastojnstwa zarjady 0.9090909
žołźe žołdźe 1.0000000
žeń běž 0.8000000
źi běž 0.2000000
wótrostujuce wotrosćace 1.0000000
zewšym žadyn 0.0074074
kowal žadyn 0.0074074
nikula žadyn 0.0148148
njestarajśo žadyn 0.0074074
nic žadyn 0.0518519
stawny žadyn 0.0074074
składowański žadyn 0.0074074
ale žadyn 0.0074074
namakało žadyn 0.0074074
žednu žadyn 0.0222222
NULL žadyn 0.0148148
nichten žadyn 0.0074074
žeden žadyn 0.7629630
maminego žadyn 0.0074074
lubjej žadyn 0.0074074
žednogo žadyn 0.0296296
šwicałka žadyn 0.0074074
se žadyn 0.0074074
žedna žadyn 0.0074074
štapcami žadyn 0.0074074
wuměńk wumjenk 1.0000000
radu protyki 0.0400000
njejsui protyki 0.0400000
kalendera protyki 0.1600000
kalendery protyki 0.2800000
kalendarje protyki 0.4000000
kalendarja protyki 0.0800000
njestandardna njestandardna 1.0000000
hübner hübner 1.0000000
pśedstajiłej předstajiłoj 1.0000000
minikóšulu minisuknju 1.0000000
wótinstalěrowanje wotinstalowanje 0.8888889
wótinstalowěranje wotinstalowanje 0.1111111
produkciskem produkciskim 0.5000000
produkciskim produkciskim 0.5000000
nejkrotša najkrótši 1.0000000
znjasć znjesć 1.0000000
fabrika fabrika 1.0000000
25-lětne 25-lětni 1.0000000
wopěra spřećiwja 1.0000000
dźěwinskej dźěwinskim 1.0000000
twóŕbu twórbu 1.0000000
gósća hosća 1.0000000
table-row table-row 1.0000000
pódali požadachu 0.3333333
pominanja požadachu 0.3333333
su požadachu 0.3333333
rozesłała rozesłała 1.0000000
886 886 1.0000000
kliknjeni kliknjeni 1.0000000
priwantnosć priwantnosć 1.0000000
wěšćenje wěšćenje 0.5000000
njejsom wěšćenje 0.5000000
yahoo yahoo 1.0000000
wótpowědnemu wotpowědnemu 1.0000000
wuzamknjony wuzamknjewny 0.5000000
se wuzamknjewny 0.5000000
zapowědany prědowany 1.0000000
includesubdomains includesubdomains 1.0000000
konfigurěrował konfigurował 0.7272727
konfigurěrowany konfigurował 0.0909091
konfigurował konfigurował 0.1818182
wobradowała wuradźowała 1.0000000
NULL lubuja 0.0833333
lubuju lubuja 0.9166667
dalej dalej 0.5000000
źiśo dalej 0.5000000
swětlinje lěsnej 0.2000000
gólnej lěsnej 0.2000000
w lěsnej 0.2000000
gólneju lěsnej 0.4000000
róžanta róžanta 1.0000000
wusměšowanje wusměšowanje 1.0000000
kšywowa třěšna 1.0000000
1980-tych 1980-tych 1.0000000
pśirězowaś přitřihować 1.0000000
jadnoraznje jónkrótnje 1.0000000
njewótglědali wothladali 1.0000000
fasciněrowane fascinowani 1.0000000
praskota praskota 1.0000000
wukniki šulerjo 0.9675676
šule šulerjo 0.0108108
wuknikow šulerjo 0.0108108
tak šulerjo 0.0108108
žałosćiš skoržiš 1.0000000
wujednańskimi wujednanskim 1.0000000
wětšnikarjoju wětrnikarjej 1.0000000
jadnobarwne jednobarbne 1.0000000
matomo matomo 1.0000000
wuznamjenjenjow wuznamjenjenjow 1.0000000
winowatosćow winowatosćow 0.7500000
zawězkow winowatosćow 0.2500000
pótrjefjony potrjecheny 1.0000000
top top 1.0000000
chórgoji chorhojčki 1.0000000
łužyske łužiscy 1.0000000
njasoš maš 0.0064103
ten maš 0.0064103
jen maš 0.0064103
dejš maš 0.0192308
móžoš maš 0.0064103
twój maš 0.0064103
maš maš 0.7884615
maśo maš 0.0064103
musał maš 0.0064103
móliš maš 0.0064103
se maš 0.0128205
ty maš 0.0256410
dejał maš 0.0064103
NULL maš 0.0128205
pśemóžoš maš 0.0064103
měł maš 0.0064103
sy maš 0.0256410
znajoš maš 0.0064103
dej maš 0.0064103
něnt maš 0.0064103
to maš 0.0192308
woblacony maš 0.0064103
dostaś składowane 0.0172414
składowanych składowane 0.0172414
skłaźone składowane 0.8103448
skłaźonym składowane 0.0344828
k składowane 0.0172414
składowane składowane 0.1034483
pśirědowanje přirjadowanje 1.0000000
spušćiś spušćić 0.6666667
wótpóraś spušćić 0.3333333
huth huth 1.0000000
skoděrowane zaklučowane 0.8076923
zaklucowane zaklučowane 0.0384615
šifrěrowane zaklučowane 0.1153846
šifrěrowany zaklučowane 0.0384615
su wuwichu 0.7500000
wuwijali wuwichu 0.2500000
wuprozniśo wuprózdńće 1.0000000
console.warn console.warn 1.0000000
hansa hansa 1.0000000
romskich romskich 1.0000000
dušepastyŕkam dušepastyrkam 1.0000000
getpreventdefault getpreventdefault 1.0000000
optiměrujśo optimujće 1.0000000
pólěpšoneju polěpšenej 1.0000000
źěłoju dźěłu 1.0000000
błudnikow błudničkow 1.0000000
atomowych atomowych 1.0000000
spódobaju spodobaja 0.8000000
spodobaju spodobaja 0.2000000
ruhla ruhla 1.0000000
zaźěłujo zadźěła 1.0000000
klucowymi klučowymi 1.0000000
babce babje 1.0000000
cesćejwužywańskich wróćomnych 1.0000000
nimjerne wěčna 0.3333333
nimjerna wěčna 0.6666667
zaběramy zaběramy 1.0000000
płaśeńskimi płaćenskimi 1.0000000
gadmorje gadmorje 0.6153846
gadmor gadmorje 0.0769231
wustupowaś gadmorje 0.0769231
how gadmorje 0.1538462
pśeliš gadmorje 0.0769231
njegronje njepraja 1.0000000
našymi našimi 1.0000000
root root 1.0000000
zapakuju pakuja 1.0000000
part hrajenske 0.5000000
grajkajucy hrajenske 0.5000000
kuždažkuli kóžda 0.0425532
kužda kóžda 0.8723404
kužde kóžda 0.0425532
wšykne kóžda 0.0425532
cejdejkow cejdejkow 1.0000000
casopise periodika 1.0000000
startowaś zahajić 0.0555556
zachopiś zahajić 0.9444444
pśirodnego přirodneho 1.0000000
glucnjejša zbožowniša 1.0000000
njepódana njepodaty 0.6666667
njepódany njepodaty 0.3333333
se popisujomna 0.5000000
pópisaś popisujomna 0.5000000
wurownane wurunane 1.0000000
zewšym pječeń 0.0625000
pjaceń pječeń 0.8125000
NULL pječeń 0.1250000
casopisami časopisami 1.0000000
wóteběranje spadowanje 1.0000000
pótajmna tajne 0.0526316
kodowe tajne 0.0526316
kšajźne tajne 0.1052632
kšajźnych tajne 0.0526316
wójarska tajne 0.0526316
tajne tajne 0.0526316
pótajne tajne 0.0526316
pótajmne tajne 0.5789474
produktiwne produktiwne 1.0000000
ten swita 0.3333333
źeń swita 0.3333333
swita swita 0.3333333
drugego druheho 0.8762887
mócnjejšy druheho 0.0103093
NULL druheho 0.0103093
někogo druheho 0.0103093
njeznaju druheho 0.0103093
druge druheho 0.0103093
žedneje druheho 0.0103093
pórali druheho 0.0103093
howacej druheho 0.0103093
drugeje druheho 0.0206186
pšašaś druheho 0.0103093
druheho druheho 0.0103093
wucyniś wozbožić 0.5000000
glucnych wozbožić 0.5000000
pśistajenjow přistajenjow 1.0000000
zwjaseliła zwjeseliła 1.0000000
pśestań přestań 0.6000000
wopśestań přestań 0.3000000
wopśetań přestań 0.1000000
waźenje ćahańca 0.5000000
śěganje ćahańca 0.5000000
pśetestowaś wutestować 1.0000000
wažny wažny 0.9354839
wažne wažny 0.0322581
wažnu wažny 0.0215054
dobru wažny 0.0107527
awtorka awtorka 1.0000000
maśeŕne maćerne 0.2500000
mamine maćerne 0.5000000
maśerne maćerne 0.2500000
komunikaciskich komunikaciskich 1.0000000
adresowem adresowym 0.7307692
adresowym adresowym 0.1923077
adresowrm adresowym 0.0769231
gra hra 0.1111111
kusoju hra 0.0370370
grajo hra 0.0370370
graśu hra 0.0740741
graśe hra 0.7037037
něnt hra 0.0370370
wužywarjoju wužiwarjej 0.1000000
wužywarjow wužiwarjej 0.1000000
wužywarjeju wužiwarjej 0.8000000
dwójne dwójne 1.0000000
ottendorfje-okrilli ottendorfje-okrilli 1.0000000
droždźejow droždźi 1.0000000
kabinetowu kabinetow 0.4000000
kabinetow kabinetow 0.6000000
wósom wósom 1.0000000
skótnym skótnym 1.0000000
rudolfa rudolfa 1.0000000
tych instrukcije 0.0500000
instrukcije instrukcije 0.9000000
instrukcijach instrukcije 0.0500000
produktowa produktowa 0.8000000
produktowy produktowa 0.2000000
pachoł pachole 0.5000000
NULL pachole 0.5000000
maturant maturant 1.0000000
felujuce wustejace 1.0000000
akademijach akademijach 1.0000000
konsola konsola 1.0000000
choral choral 1.0000000
wiźiš-li widźiš-li 1.0000000
setku sačkom 1.0000000
nowo nowozałoženeho 0.5000000
załožonego nowozałoženeho 0.5000000
wumyjom wumyju 1.0000000
.xml .xml 1.0000000
lacarusa lacarusa 1.0000000
gesty gesty 1.0000000
8-minutowego 8-mjeńšinskeho 1.0000000
nje-njejsom n-njebě 0.5000000
k-kśěł n-njebě 0.5000000
wudawarjom wudawaćelom 1.0000000
sudk sudźik 1.0000000
njewózjawijo njewozjewi 1.0000000
gibjošośo pohibujeće 1.0000000
wótpołdnjo popołdnjo 1.0000000
dojadnanim dojednanjom 1.0000000
pśedewześami předewzaćemi 1.0000000
tajo taje 1.0000000
wuprobowanych wupruwowanych 0.5000000
wuproběrowanych wupruwowanych 0.5000000
žywem čiłym 0.3333333
žywym čiłym 0.6666667
nowak-njechorński nowak-njechorński 1.0000000
som pochadźam 0.2857143
pśidu pochadźam 0.1428571
póchadam pochadźam 0.1428571
ja pochadźam 0.4285714
wuknuła wuknyła 1.0000000
nje-ascii-znamuško nje-ascii-znamješko 1.0000000
cuju čuć 0.0666667
wustojaś čuć 0.0666667
cuś čuć 0.8666667
chaosom chaosom 1.0000000
wopytowarja wopytowarja 1.0000000
dospołnosći dokonjanosće 1.0000000
wótsłuchańskich słuchoknihow 0.5000000
knigłow słuchoknihow 0.5000000
šabraku šabraku 1.0000000
pawliny marhaty 0.5000000
šeł marhaty 0.5000000
maminego stat 0.0256410
stat stat 0.9743590
biedermeierski biedermeierski 1.0000000
nabóžno-narodnego nabožno-narodneho 1.0000000
talaŕ taler 1.0000000
prezidenta prezidentaj 1.0000000
grafika grafika 1.0000000
zapalenju zapalenju 1.0000000
kśějucy chcyjo 1.0000000
sejźenju sedźenju 1.0000000
mesto mesto 1.0000000
wóni nowostkow 0.2500000
źinsa nowostkow 0.2500000
nowinkow nowostkow 0.2500000
worduju nowostkow 0.2500000
wóswěśi woswjeći 0.6666667
był woswjeći 0.3333333
cion ciono 1.0000000
mawt nadróžny 0.5000000
nadrozny nadróžny 0.5000000
oauth-klucow oauth-klučow 1.0000000
su zmištrowachu 0.5000000
zwónoźeli zmištrowachu 0.5000000
generale generalojo 0.5000000
wšyknym generalojo 0.2500000
generalam generalojo 0.2500000
aby pječenje 0.2500000
pjacenje pječenje 0.5000000
, pječenje 0.2500000
.ppt .ppt 1.0000000
zastojśo rjadujće 0.9333333
rědujśo rjadujće 0.0666667
wobglědowak.póznajśo wobhladowak.zeznajće 1.0000000
solidnu solidnu 1.0000000
zacyniło začiniło 1.0000000
prědnicce prěničce 1.0000000
njewótwołujo sensibelne 0.1250000
sensibelne sensibelne 0.8750000
trjebaju trjebaja 0.9729730
pomc trjebaja 0.0135135
nosyli trjebaja 0.0135135
pókład pokład 1.0000000
rědnjejšy rjeńše 0.4000000
rědnjejše rjeńše 0.6000000
se započ 0.1111111
zachop započ 0.2222222
kusack započ 0.1111111
pšašaj započ 0.1111111
pón započ 0.1111111
groń započ 0.1111111
no započ 0.1111111
powědaj započ 0.1111111
składowak składowak 0.4666667
składowakoku składowak 0.0333333
składowakoju składowak 0.4666667
k składowak 0.0333333
komunikaciji dorozumjenja 1.0000000
zastojaś zrjadować 0.5454545
zrědowaś zrjadować 0.4545455
měritku měritku 1.0000000
ambiwalentny ambiwalentny 1.0000000
njedowólijom njedowolu 1.0000000
rejował rejował 1.0000000
NULL zwobraznjeja 0.1428571
rejtariku zwobraznjeja 0.1428571
zwobraznjuju zwobraznjeja 0.5714286
pokazuju zwobraznjeja 0.1428571
property property 1.0000000
we e-mejloweho 0.0769231
wótwołowanju e-mejloweho 0.0769231
menija e-mejloweho 0.0769231
kontowu e-mejloweho 0.0769231
e-mailowego e-mejloweho 0.4615385
postowem e-mejloweho 0.0769231
woknje e-mejloweho 0.0769231
serwerowych e-mejloweho 0.0769231
sandbox sandbox 1.0000000
ondevicelight ondevicelight 1.0000000
dobrem dobrym 0.5333333
dobrej dobrym 0.1333333
dobre dobrym 0.0666667
dobrym dobrym 0.2666667
barikow barikow 1.0000000
pśewóźowachu přewodźachu 1.0000000
NULL kotřiž 0.0031746
kenž kotřiž 0.3968254
kotarež kotřiž 0.0031746
ako kotřiž 0.0063492
kótarež kotřiž 0.5777778
dostaju kotřiž 0.0031746
ak kotřiž 0.0063492
běricnje kotřiž 0.0031746
wopśimjeśow wobsahow 1.0000000
słowniku słowniku 1.0000000
s-słowa s-s-słowa 1.0000000
tak njebjesach 0.1250000
njebju njebjesach 0.7500000
njebjach njebjesach 0.1250000
sćěnach sćěnach 1.0000000
słužabnych dwórskich 1.0000000
nuzowyma lěkarkomaj 0.3333333
gójcowkoma lěkarkomaj 0.6666667
carna kołmaz 0.0588235
byś kołmaz 0.0588235
mazany kołmaz 0.0588235
njetrjeba kołmaz 0.1176471
njok kołmaz 0.0588235
NULL kołmaz 0.0588235
tak kołmaz 0.0588235
źěža kołmaz 0.0588235
maz kołmaz 0.4705882
1782 1782 1.0000000
togo wodnjatym 1.0000000
digitalna digitalna 1.0000000
1883 1883 1.0000000
wupóžycaś wupožčić 0.2222222
wupóžycyś wupožčić 0.7777778
xpath xpath 1.0000000
swójo přispomnjenka 0.2000000
cośo přispomnjenka 0.2000000
rozgrono přispomnjenka 0.2000000
zachopiś přispomnjenka 0.2000000
? přispomnjenka 0.2000000
wust erta 1.0000000
skoděrowany zaklučowany 1.0000000
wš powšitkownosći 0.0084034
za powšitkownosći 0.4705882
zjawnosći powšitkownosći 0.0084034
wše powšitkownosći 0.4117647
wykne powšitkownosći 0.0084034
wšykne powšitkownosći 0.0336134
pśi powšitkownosći 0.0168067
luźam powšitkownosći 0.0084034
wšě powšitkownosći 0.0168067
wšym powšitkownosći 0.0168067
gnujucy jimaca 1.0000000
1713 1713 1.0000000
deriś přebić 0.2500000
pśebiś přebić 0.2500000
riśi přebić 0.2500000
do přebić 0.2500000
žłobiku žłobiku 0.2857143
góletkowni žłobiku 0.7142857
wuwuceńskima wukubłanskimaj 1.0000000
jo zadźěwaše 1.0000000
cerkwinego cyrkwinskeho 0.5555556
cerkwinskego cyrkwinskeho 0.4444444
njejsom njedóstach 1.0000000
wrośiś hišće 0.0007559
pśekipnjo hišće 0.0007559
někakim hišće 0.0007559
derje hišće 0.0015117
šćipaś hišće 0.0007559
labujo hišće 0.0007559
zwónašk hišće 0.0007559
styriłopjenkate hišće 0.0007559
pótakem hišće 0.0007559
zmólka hišće 0.0007559
mějśo hišće 0.0015117
direktnje hišće 0.0007559
gniło hišće 0.0007559
pśikładowaś hišće 0.0007559
tašce hišće 0.0007559
caka hišće 0.0007559
dwětyźeński hišće 0.0007559
pomocy hišće 0.0007559
wobsejźarju hišće 0.0007559
budu hišće 0.0007559
plěsnjeś hišće 0.0007559
hiyće hišće 0.0007559
byłi hišće 0.0007559
cuznikam hišće 0.0007559
zwiskowa hišće 0.0007559
gumnje hišće 0.0007559
raz hišće 0.0007559
howhyšći hišće 0.0007559
niźi hišće 0.0007559
pśepózdźe hišće 0.0007559
pócakaj hišće 0.0007559
njewarnowaś hišće 0.0007559
hyšćidalšnu hišće 0.0007559
zas hišće 0.0007559
wjasela hišće 0.0015117
škjarcanja hišće 0.0007559
guslowarsku hišće 0.0007559
dotychměst hišće 0.0007559
móje hišće 0.0007559
wam hišće 0.0007559
padnjo hišće 0.0022676
hyšće hišće 0.0015117
zwětšego hišće 0.0007559
hišće hišće 0.0015117
wjelka hišće 0.0007559
pitśku hišće 0.0007559
něcomu hišće 0.0007559
pótrjebaś hišće 0.0007559
drugi hišće 0.0015117
NULL hišće 0.0060469
hyšći hišće 0.9372638
howac hišće 0.0022676
sam hišće 0.0015117
guslowaŕka hišće 0.0007559
piś hišće 0.0007559
namakajom hišće 0.0007559
njedosegaju hišće 0.0007559
njeskłaźone hišće 0.0007559
zežerjo hišće 0.0015117
cerkwiny hišće 0.0007559
guslowarske hišće 0.0007559
noch hišće 0.0007559
góźeś hišće 0.0007559
wužytny hišće 0.0007559
njesłušaju hišće 0.0007559
pówažnosć chutnosć 1.0000000
schójźeńkow schodźenkow 1.0000000
pśirownuju přirunuja 1.0000000
słowach słowach 1.0000000
trajnej trajnej 0.5000000
trajuceju trajnej 0.5000000
dali kucharjo 0.1250000
kucharje kucharjo 0.8750000
gmbh gmbh 1.0000000
alike alike 1.0000000
drugemu druhi 0.0136986
pśiducy druhi 0.0068493
zadoraś druhi 0.0068493
druga druhi 0.0136986
drugi druhi 0.8767123
někaku druhi 0.0068493
někakeje druhi 0.0068493
drugu druhi 0.0068493
druge druhi 0.0547945
druhi druhi 0.0068493
warcarja warčka 1.0000000
rozpśestrěwa rozpřestrěa 1.0000000
njeerotiski njeerotisce 1.0000000
zwěsćijomy přerěznu 0.3333333
pśerěznu přerěznu 0.6666667
nejwušy najwyši 0.8333333
nejžwušy najwyši 0.1666667
alt alt 1.0000000
dwěsćě dwěsći 1.0000000
samokontrolěrowanje samokontrolowanje 1.0000000
zbrašnosći zbrašenju 1.0000000
nazwucowanych nazwučowanych 0.5000000
z nazwučowanych 0.5000000
fundamentalna fundamentalna 1.0000000
kónja konja 1.0000000
pódlaže podlěža 1.0000000
licaki ličaki 0.1250000
licadła ličaki 0.8750000
pjenjezami měnu 0.3333333
tymi měnu 0.3333333
toś měnu 0.3333333
empatija empatija 1.0000000
camparjow stanowarjow 1.0000000
openair-festiwal openair-festiwal 1.0000000
x2 x2 1.0000000
, materialow 0.2500000
materialow materialow 0.2500000
kótarež materialow 0.2500000
góźe materialow 0.2500000
gnilej lěnjoch 1.0000000
jazora nutř 0.0208333
grodu nutř 0.0208333
na nutř 0.0208333
tam nutř 0.0208333
nutśi nutř 0.0208333
chyśiš nutř 0.0208333
njepušćiju nutř 0.0208333
nutś nutř 0.6458333
do nutř 0.0625000
cuznikam nutř 0.0208333
budy nutř 0.0208333
njedodajom nutř 0.0416667
pśilaś nutř 0.0208333
zasmykuju nutř 0.0208333
napšawdu nutř 0.0208333
swětłej swětłej 0.7500000
zwobraznjenim swětłej 0.2500000
nagromaźili nahromadźili 1.0000000
navigator.mediadevices.getusermedia navigator.mediadevices.getusermedia 1.0000000
rozměwała rozmnoži 1.0000000
registrěrowanya registrowana 1.0000000
republiku republika 0.2222222
republika republika 0.7777778
woglědali wopytaštaj 0.3333333
młodostnej wopytaštaj 0.1666667
su wopytaštaj 0.3333333
stej wopytaštaj 0.1666667
awstralska ^ 0.1250000
chrósćańska ^ 0.2500000
^ ^ 0.1250000
NULL ^ 0.2500000
premier ^ 0.1250000
młoźinskem ^ 0.1250000
wettinskich wettinskich 1.0000000
spórał přiwjedł 1.0000000
źiśelc dypornak 1.0000000
wjelku wjelku 1.0000000
njewótcakuj njewočakuj 1.0000000
źělom dźělom 1.0000000
the the 1.0000000
spokazu priwatnosćes 1.0000000
směł směł 0.8750000
njedejał směł 0.1250000
dobrym słódnym 1.0000000
robert robert 1.0000000
wjeleraku wšelakoru 1.0000000
milinaŕnja milinarnja 1.0000000
wugótowarje wuhotowarjo 1.0000000
teoretiske teoretiske 1.0000000
njenastawa njenastawa 1.0000000
marsu marsu 1.0000000
pśigótujo přihotuje 0.9444444
cylinder přihotuje 0.0555556
imigracija imigracija 1.0000000
linearny linearny 1.0000000
teoretiske teoretiski 1.0000000
zranjenjami zranjenjemi 1.0000000
zapódanu zapodatu 1.0000000
delegěrowaś delegować 1.0000000
pódla powołanje 0.0246914
wukubłanju powołanje 0.0123457
pówołanje powołanje 0.8518519
powołanje powołanje 0.0864198
wótkubłańske powołanje 0.0123457
pówołanja powołanje 0.0123457
nejhušego najwyšeho 0.1666667
nejwušego najwyšeho 0.6666667
nejžwušego najwyšeho 0.1666667
załoženju załoženju 0.8888889
wutwórjenju załoženju 0.1111111
tatanjow pohanow 1.0000000
górnoserbskej hornjoserbšćinje 0.2500000
górnoserbšćinje hornjoserbšćinje 0.7500000
wjaseliła wjeseliła 0.6666667
tomu wjeseliła 0.3333333
zapłaśe zapłaća 1.0000000
klon klon 1.0000000
bźezwokrejsne bjezwokrjesne 1.0000000
rumnosći rumnosći 0.2500000
rumje rumnosći 0.7500000
měś pěstować 0.2000000
woplěwaś pěstować 0.8000000
mašinu mašinu 1.0000000
njedobydnjomy njedobudźemy 1.0000000
zakwiś zakćěj 1.0000000
x.509 x.509 1.0000000
nic něwěrno 0.4444444
wutamali něwěrno 0.1111111
ga něwěrno 0.4444444
wužywaŕska wužiwarska 1.0000000
dogronowego zrěčenskeho 1.0000000
89,2 89,2 1.0000000
kólaskom koleskom 1.0000000
zajtšnego rańšeho 1.0000000
jadnali jednali 1.0000000
1540 1540 0.5000000
až 1540 0.5000000
rěcnikoju rěčnikej 1.0000000
naźeju nadźiju 0.8421053
naźeji nadźiju 0.0526316
zwuraznił nadźiju 0.1052632
nejwětšego najwjetšeho 0.4000000
wulichowali najwjetšeho 0.2000000
NULL najwjetšeho 0.2000000
z najwjetšeho 0.2000000
wzeła da 0.0040000
póda da 0.0040000
? da 0.0080000
pón da 0.0080000
póžytnik da 0.0040000
źaržyś da 0.0040000
šifrěrowane da 0.0040000
cołn da 0.0040000
coš da 0.0040000
teleportěrowaś da 0.0040000
NULL da 0.0240000
ratwa da 0.0040000
mója da 0.0040000
pušćijo da 0.0040000
móliš da 0.0040000
jo da 0.0480000
ga da 0.2400000
lažko da 0.0040000
ty da 0.0120000
chowaš da 0.0040000
krala da 0.0040000
wěš da 0.0040000
dała da 0.0040000
dał da 0.0240000
górnoserbskej da 0.0040000
mójom da 0.0040000
maš da 0.0040000
daś da 0.0040000
kus da 0.0040000
móžoš da 0.0040000
smějo da 0.0040000
guslowaŕstwom da 0.0040000
ten da 0.0040000
wuglědaš da 0.0040000
pomaga da 0.0040000
njejo da 0.0040000
pak da 0.0080000
wórjo da 0.0040000
zmóžnja da 0.0080000
dajo da 0.5000000
załožbow załožbow 1.0000000
calendar calendar 1.0000000
złych złych 0.3333333
wužywaś złych 0.3333333
tek złych 0.3333333
nzrědujśo nzeskupće 1.0000000
žycyła přała 0.8000000
śi přała 0.2000000
nagótowaś lěhwowy 0.5000000
nama lěhwowy 0.5000000
dostanjotej dóstanjetej 1.0000000
filmy paski 1.0000000
wuzwěgnjone wuzběhnjenych 1.0000000
pla dwu- 0.0322581
swójo- dwu- 0.0322581
wěcejrěcnych dwu- 0.0322581
dwójo- dwu- 0.9032258
pórěźe nporjedźe 0.5000000
nalfabetiskem nporjedźe 0.5000000
wuklincaś wuklinčeć 1.0000000
mohorjeva mohorjeva 1.0000000
wudał wudał 0.8181818
wudawał wudał 0.0909091
jatšam wudał 0.0909091
nastuděrowała nastudowała 1.0000000
spušćaśo wopušćeće 1.0000000
szastojanje szrjadowanje 1.0000000
wósłowych wóslacych 1.0000000
malinkowej malinkowej 0.5000000
malinkoweju malinkowej 0.5000000
jo wukubła 1.0000000
woknowem woknowym 1.0000000
njewopšawnjona njewoprawnjena 1.0000000
sulfata sulfatowe 0.5000000
pśestupjone sulfatowe 0.5000000
mjezykulturna mjezykulturna 1.0000000
jo chcyše 0.4615385
ga chcyše 0.0109890
wón chcyše 0.0109890
kśěł chcyše 0.2857143
se chcyše 0.0109890
kśěło chcyše 0.0329670
by chcyše 0.0109890
dostaś chcyše 0.0109890
kśěła chcyše 0.1648352
pšawow prawow 1.0000000
webskannowanje webskenowanje 1.0000000
lubujucy lubowacy 1.0000000
wulosowanje wulosowanje 1.0000000
regionalne regionalnych 0.1111111
regionalnych regionalnych 0.8888889
njestatki njeskutki 1.0000000
gótujoš nadawki 0.0043478
nadawki nadawki 0.8652174
wšake nadawki 0.0043478
cas nadawki 0.1217391
słušnosći nadawki 0.0043478
pśiwzeł přiwzał 0.8000000
starał přiwzał 0.2000000
wódosportowe wodosportowe 0.6666667
wódnosportowe wodosportowe 0.3333333
srjejźowěka srjedźowěka 1.0000000
filisa filis 0.2000000
hyšći filis 0.2000000
filis filis 0.6000000
bity bity 1.0000000
nejleśijom njeleću 1.0000000
wupadnuło padnyła 0.1666667
padnuła padnyła 0.6666667
wopadnuła padnyła 0.1666667
pazorki pazorki 1.0000000
shows stus 1.0000000
rozpósłańska rozesyłanska 1.0000000
mašinelnje mašinelnje 1.0000000
zelezo hrube 1.0000000
zajmuju zajimuja 0.8000000
griby zajimuja 0.1000000
zajmujo zajimuja 0.1000000
01.09.2019 01.09.2019 1.0000000
zaktualizěrujomy zaktualizujemy 1.0000000
filtrowanju filtrowanju 1.0000000
zapśimjejo zapřijmje 1.0000000
kjandroz kundroz 1.0000000
natykał nabił 1.0000000
1841 1841 1.0000000
njemódlimy modlić 0.0769231
NULL modlić 0.1538462
módliś modlić 0.7692308
kaznjow zakonjow 0.6470588
kaznjowu zakonjow 0.3529412
někakim dołhim 0.1000000
dłujkem dołhim 0.7000000
dłujkim dołhim 0.1000000
casami dołhim 0.1000000
myšami myšemi 0.2000000
ratwami myšemi 0.4000000
wóna myšemi 0.2000000
dej myšemi 0.2000000
luto žel 0.9375000
wjelgin žel 0.0416667
wódaj žel 0.0208333
samopóstajenim samopostajowanjom 1.0000000
diskutěrujomy diskutujemy 1.0000000
pśigótowało klimowy 0.0625000
klimowy klimowy 0.8750000
klimowe klimowy 0.0625000
gumijowe gumijowe 1.0000000
dermotnje bjezpłatnje 1.0000000
danevirke danevirke 1.0000000
8.1 8.1 1.0000000
šykownje wušiknje 1.0000000
masowy masowy 1.0000000
wólaŕku wolerku 1.0000000
docasne dočasne 1.0000000
startowe startowe 1.0000000
pśemałym přemałym 1.0000000
koplowański koplowanski 1.0000000
principa principaj 1.0000000
pórucamy doporučujemy 1.0000000
softwary softwary 1.0000000
w3c-standardach w3c-standardach 1.0000000
spśistupnjenju spřistupnjenju 1.0000000
póśěgnjone poćahowane 0.6666667
směr poćahowane 0.3333333
attribution-sharealike attribution-sharealike 1.0000000
spersonalizěrowane personalizowane 0.3333333
personalizěrowane personalizowane 0.6666667
našeju našeju 1.0000000
ciwilistow ciwilistow 1.0000000
źěłowa dźěłowa 1.0000000
pśiswójona zdobytu 1.0000000
generelny generelny 1.0000000
zmysłami zmysłami 1.0000000
sedłowego sydłoweho 1.0000000
wótpowědował wotpowědował 1.0000000
dolnej delnjej 0.9714286
dolneju delnjej 0.0285714
smy dyrbjachmy 0.4375000
musyli dyrbjachmy 0.0625000
zarucyś dyrbjachmy 0.1250000
musali dyrbjachmy 0.1250000
dejali dyrbjachmy 0.2500000
pón wzmiće 0.0384615
wzej wzmiće 0.0384615
wzejśo wzmiće 0.8846154
ale wzmiće 0.0384615
enter enter 1.0000000
christian christian 1.0000000
gregorjaniskemu gregorianskej 1.0000000
mócny kruty 0.1764706
pśirosćony kruty 0.0588235
kšuty kruty 0.6470588
wjelgin kruty 0.0588235
tłusty kruty 0.0588235
nawězałej nawjazałoj 1.0000000
testowem testowym 0.6666667
testowym testowym 0.3333333
samokontrolu samokontrolu 1.0000000
ławki ławki 1.0000000
pop3-server pop3 0.3333333
pop3-serwer pop3 0.3333333
pop3 pop3 0.3333333
skriptoweje skriptoweje 1.0000000
rogow rogowje 1.0000000
uniforměrowane uniformne 1.0000000
casu běhu 0.0161290
běgu běhu 0.9354839
cas běhu 0.0241935
NULL běhu 0.0241935
wuknicu šulerku 1.0000000
woglědali połlěće 0.2500000
połlěśe połlěće 0.5000000
wušej połlěće 0.2500000
role róle 1.0000000
śěžami ćežemi 1.0000000
nimcam němcam 1.0000000
wubjeŕ tym 0.0008271
wšej tym 0.0008271
ložu tym 0.0008271
zapśěgnu tym 0.0008271
ptaškow tym 0.0008271
pśestań tym 0.0008271
tej tym 0.0033085
śěgnuli tym 0.0016543
stakim tym 0.0016543
wašych tym 0.0008271
dalše tym 0.0008271
tipni tym 0.0008271
póglědaś tym 0.0008271
karonu tym 0.0008271
pśeznaniś tym 0.0008271
pśeglědjśo tym 0.0008271
startujośo tym 0.0008271
něconawucyś tym 0.0008271
tomm tym 0.0008271
zda tym 0.0008271
pśemyslujom tym 0.0008271
škrodowy tym 0.0008271
njej tym 0.0033085
póznajośo tym 0.0008271
górjejo tym 0.0008271
senom tym 0.0008271
pśemyslowaś tym 0.0008271
spušćenje tym 0.0008271
tych tym 0.0008271
cajk tym 0.0008271
zawoborał tym 0.0057899
ty tym 0.0008271
měšćanske tym 0.0008271
NULL tym 0.0165426
wulicowała tym 0.0008271
njespóznajom tym 0.0008271
wóstajijom tym 0.0008271
pśemysluj tym 0.0008271
zajźowało tym 0.0008271
tym tym 0.2886683
nim tym 0.0008271
lisće tym 0.0016543
wucyniś tym 0.0008271
dopomnjeńka tym 0.0016543
złotom tym 0.0008271
pśijazny tym 0.0008271
zawoborujo tym 0.0008271
zawoboraś tym 0.0024814
njedosegnu tym 0.0016543
tom tym 0.6344086
togo tym 0.0049628
wójakam tym 0.0008271
wjele mnozy 0.7446809
młoge mnozy 0.1489362
někotare mnozy 0.0851064
zlicyjom mnozy 0.0212766
sćichim ćichim 0.5000000
w ćichim 0.2500000
śišynje ćichim 0.2500000
forn forn 0.9285714
forna forn 0.0714286
ministaŕskeje ministerskeje 0.5000000
ministarskeje ministerskeje 0.5000000
dojśpili nabyli 1.0000000
powědata zrěčniwa 1.0000000
žnjownego domchowanki 0.5000000
swěźenja domchowanki 0.5000000
kreslili rysowachu 1.0000000
zajmami zajimami 1.0000000
zarkyranowych spionow 1.0000000
casnikowem nowinskim 1.0000000
muskeśe třělny 0.5000000
we třělny 0.5000000
tuńšej tuńšej 1.0000000
tak zechcyło 0.5000000
zekśěło zechcyło 0.5000000
pózgubiła pozhubjowaše 1.0000000
co-li chce-li 0.3333333
co chce-li 0.3333333
gaž chce-li 0.3333333
duchowneju duchownej 1.0000000
pśewzejo přewozmje 0.8333333
wótrubjo přewozmje 0.0555556
dostanjo přewozmje 0.0555556
tomu přewozmje 0.0555556
byli napjelnjeni 0.5000000
napołnjone napjelnjeni 0.5000000
napominanje namołwa 1.0000000
2.100 2.100 1.0000000
ww.example.com ww.example.com 1.0000000
drježdźańsko-mišnjańske drježdźansko-mišnjanske 0.3333333
drježdźańsko drježdźansko-mišnjanske 0.3333333
drježdźańsko-mišnańske drježdźansko-mišnjanske 0.3333333
glucna zbožowna 0.8888889
wuglědajo zbožowna 0.1111111
njeswědobniwe njeswědomići 1.0000000
jo přehrěši 0.5000000
wopśestali přehrěši 0.5000000
licencedawarje licencydawarjo 1.0000000
rezerwěrowane rezerwowana 0.5000000
rezerwěrowana rezerwowana 0.5000000
zabyli zabył 0.0400000
nejskerjej zabył 0.0400000
zabył zabył 0.9200000
statnika statnika 1.0000000
zwopšawźił zwoprawdźił 0.6666667
zwopšawdnił zwoprawdźił 0.3333333
mikrofonoju mikrofonej 1.0000000
firma firma 1.0000000
by wšitcy 0.0078125
wuškam wšitcy 0.0078125
wše wšitcy 0.0078125
byli wšitcy 0.0078125
su wšitcy 0.0078125
změjośo wšitcy 0.0078125
glucnje wšitcy 0.0078125
wócuśeś wšitcy 0.0078125
jadnak wšitcy 0.0078125
wócuśeli wšitcy 0.0078125
wšykne wšitcy 0.9218750
private private 1.0000000
pśedawaś předawać 0.7500000
pśedawać předawać 0.2500000
jerjegami jerjemi 1.0000000
kamjeńcu kamjencu 1.0000000
imap-serweroju imap-serwerej 0.3333333
ten imap-serwerej 0.3333333
imap imap-serwerej 0.3333333
depka wužłobka 1.0000000
wupórajom zhubju 0.1250000
zgubiju zhubju 0.1250000
minuś zhubju 0.1250000
wóttud zhubju 0.1250000
šwyrnjom zhubju 0.1250000
zgubijom zhubju 0.3750000
prapremjeru prapremjeru 1.0000000
wokrejsoju wokrjesej 1.0000000
boce stronje 0.1546392
bokoju stronje 0.0876289
boku stronje 0.5463918
stronje stronje 0.1649485
NULL stronje 0.0103093
bokue stronje 0.0051546
boka stronje 0.0051546
tom stronje 0.0206186
toś stronje 0.0051546
webnałoženjow weba 0.0400000
weba weba 0.9200000
NULL weba 0.0400000
spušćili spušćichu 1.0000000
njeinkrementelny njeinkrementelny 1.0000000
kloštrom klóštrom 1.0000000
pedagogiski pedagogisce 1.0000000
tužne zrudna 0.0714286
śi zrudna 0.0357143
tužnjejša zrudna 0.0357143
zawěsće zrudna 0.0357143
skerjej zrudna 0.0357143
tužna zrudna 0.7142857
była zrudna 0.0714286
grědow hrjadow 1.0000000
kaznjam zakonam 1.0000000
zejlerja zejlerja 0.4000000
zejlera zejlerja 0.6000000
kromolańskem kromolanskim 1.0000000
powšyknych chłostanskich 0.5000000
chłostańskich chłostanskich 0.5000000
móžośo zmóžnja 0.0068493
zmóžnja zmóžnja 0.8013699
zmóžniju zmóžnja 0.0684932
pomaga zmóžnja 0.0068493
zmóžnijo zmóžnja 0.1164384
maxversion maxversion 1.0000000
lawendela lěwanćika 1.0000000
pśisłuchanju připosłuchanju 1.0000000
kupnu kupnu 1.0000000
tšašnje šwórči 0.2500000
głowa šwórči 0.2500000
mě šwórči 0.2500000
barcy šwórči 0.2500000
njepłaśiwymi njepłaćiwymi 1.0000000
stajiła stajiła 0.8333333
stajił stajiła 0.1666667
zapisanemu zapisanemu 1.0000000
šesćadwaźasća šěsćadwaceći 1.0000000
togo słabši 0.1250000
wěcej słabši 0.2500000
słabše słabši 0.1250000
słabšy słabši 0.3750000
wósłabjeł słabši 0.1250000
wobgranicowanja wobmjezowanjow 0.4285714
wobgranicowanjow wobmjezowanjow 0.5714286
wuběgnuś ćeknyć 0.5000000
wuběgaś ćeknyć 0.2500000
wuběgnjenja ćeknyć 0.2500000
cytanje biblije 0.5000000
biblije biblije 0.5000000
źiśetstwa dźěćatstwa 0.7142857
swój dźěćatstwa 0.1428571
cas dźěćatstwa 0.1428571
pódšmarnuła podšmórny 0.1056338
pódšmarnjo podšmórny 0.0281690
jo podšmórny 0.4718310
pódšmarnuł podšmórny 0.3943662
mósćik mosćik 1.0000000
pśikazoweje přikazoweje 1.0000000
dowólijo dowoli 1.0000000
mcs mcs 1.0000000
ze hrajkow 0.2500000
słowami hrajkow 0.2500000
grajkow hrajkow 0.5000000
zagaźonego zajědojćeneho 1.0000000
jakarta jakarta 1.0000000
probowe probowe 1.0000000
mustwoju wubrance 0.3333333
mustwje wubrance 0.6666667
english english 1.0000000
zajězdami wuprawami 1.0000000
wóstudy wostudy 1.0000000
url-mustry url-mustry 1.0000000
graśa rozmołwneho 0.3333333
rozgrona rozmołwneho 0.3333333
rozgronowego rozmołwneho 0.3333333
tužnje hlada 0.0714286
paso hlada 0.1428571
rukoma hlada 0.0714286
glěda hlada 0.5714286
wobija hlada 0.1428571
administratoroju administratorej 1.0000000
gustego hustu 0.5000000
něco hustu 0.5000000
pśiswójła nadźěłała 1.0000000
narownaś wurunać 0.0909091
wurownaś wurunać 0.9090909
wótegroniś wotmołwiła 1.0000000
powěźeńka wobkrućenje 0.0454545
wobkšuśenje wobkrućenje 0.5909091
wobwěsćenje wobkrućenje 0.0454545
wobwěsćowanje wobkrućenje 0.0454545
wobtwarźenje wobkrućenje 0.2272727
jo wobkrućenje 0.0454545
wótliceńskej wotličenskej 1.0000000
wótglědanja zaměra 0.1333333
zaměra zaměra 0.7333333
zaměr zaměra 0.0666667
nastupaju zaměra 0.0666667
janšojce-pódpołnoc janšojce-sewjer 1.0000000
formularnem formularnym 1.0000000
1.2 1.2 1.0000000
slědujucymi slědowacymi 1.0000000
směł smědźeše 0.5000000
jo smědźeše 0.5000000
rozkładu rozkładu 1.0000000
pśiwězaś přisukać 0.5000000
wótněta přisukać 0.5000000
mólaŕkami debjerkami 1.0000000
downloads downloads 1.0000000
jawišćowe jewišćowe 1.0000000
słužabnikami słužownikami 1.0000000
njejo njepřeswědči 0.2857143
njespórajo njepřeswědči 0.1428571
k njepřeswědči 0.1428571
pśeznanił njepřeswědči 0.2857143
tomu njepřeswědči 0.1428571
diagrama diagrama 1.0000000
zabili zabili 1.0000000
policistka policistka 1.0000000
jězdźenju jězdźenjom 1.0000000
měŕśo měrće 1.0000000
pśeslědowakam přesćěhowarjam 1.0000000
krotkocasnych krótkodobnych 1.0000000
wěnaški wěnčki 1.0000000
zawodowym zawodowym 1.0000000
wupołnjenju wupjelnjenju 0.5000000
wupołnjowanju wupjelnjenju 0.5000000
cyńśo sčińće 0.3333333
zwónoźćo sčińće 0.3333333
gótujśo sčińće 0.3333333
@ @ 1.0000000
gniwom hněwom 1.0000000
hd hd 1.0000000
introduction introduction 1.0000000
zawinowane přičin 0.0689655
pśicyny přičin 0.0689655
pśicynow přičin 0.7241379
zawinow přičin 0.0344828
wěstosći přičin 0.1034483
wuwiśowe wuwiwanske 0.2500000
wuwijańske wuwiwanske 0.7500000
nuzkaś nuzować 0.5714286
nuzowaś nuzować 0.1428571
pśisegi nuzować 0.2857143
amtski hamtski 1.0000000
styriměstnowa štyriměstnowa 1.0000000
kopśedsedaŕ kopředsyda 1.0000000
smy pobychmy 1.0000000
wuwijański wuwiwanski 1.0000000
wódowódow wodowodow 1.0000000
motiw motiw 1.0000000
instalaija instalaija 1.0000000
archeologiju archeologiju 1.0000000
politikaŕ politikar 1.0000000
pokazała skedźbnjała 1.0000000
wuwězali wuwjazali 1.0000000
troštowaś troštować 1.0000000
wugótowachu wučinjachu 1.0000000
móžno mytowanych 0.3333333
mytowanych mytowanych 0.3333333
ako mytowanych 0.3333333
wójna wójna 1.0000000
lehmann lehmann 1.0000000
wokablowego wokabloweho 1.0000000
wótstawk překročić 0.4000000
pśekšocyś překročić 0.6000000
jadnobocna jednostronska 1.0000000
katolikami katolikami 1.0000000
njepśedstajobny njepředstajomne 1.0000000
maka pasmo 0.0500000
conu pasmo 0.1000000
smugi pasmo 0.1000000
hupu pasmo 0.0500000
drapa pasmo 0.0500000
ta pasmo 0.0500000
cona pasmo 0.5500000
smugu pasmo 0.0500000
rozesłanje rozsyłanje 1.0000000
łužycoma łužicomaj 1.0000000
njepójdu njenapadnu 0.2500000
njenadpadnu njenapadnu 0.5000000
na njenapadnu 0.2500000
dušy duši 1.0000000
pśipokazali připokazanych 0.3333333
pśipokazanych připokazanych 0.6666667
njeengelskorěcnego njejendźelskorěčneho 1.0000000
płaśeńsku płaćensku 1.0000000
njeslědujośo njeslědujeće 0.5000000
wěcej njeslědujeće 0.5000000
kenž próstwustajerja 0.1666667
, próstwustajerja 0.3333333
stajił próstwustajerja 0.1666667
pšosbu próstwustajerja 0.1666667
togo próstwustajerja 0.1666667
malsne spěšnym 0.1111111
spěšnym spěšnym 0.2222222
malsnym spěšnym 0.2222222
malsnem spěšnym 0.4444444
raz razej 0.0909091
razoju razej 0.9090909
nachylnje nachwilu 0.0303030
nachylu nachwilu 0.9696970
pśizuk přizynk 1.0000000
njepśestawajucym njepřestawacym 1.0000000
zastojaś zastawać 1.0000000
eksperimentow eksperimentow 1.0000000
źělimy dźělimy 0.7777778
swětowe dźělimy 0.2222222
žrěśe žlokanje 0.7500000
to žlokanje 0.2500000
tuchylnu tuchwilnu 1.0000000
koncentraciskem koncentraciskim 1.0000000
institucija institucija 1.0000000
pomjenjowaś pomjenować 0.2000000
pomjeniś pomjenować 0.5333333
pómjeniś pomjenować 0.2000000
NULL pomjenować 0.0666667
e-maili e-mejli 0.5000000
pódanych e-mejli 0.5000000
našych našich 0.8888889
naše našich 0.0763889
pla našich 0.0138889
awgust našich 0.0069444
pśeśiwo našich 0.0069444
nejmjeńšy našich 0.0069444
zastawa zastawa 1.0000000
nutśikownego nutřkowneho 1.0000000
50. 50. 0.6666667
k 50. 0.3333333
drugego słužić 0.0416667
słužyś słužić 0.8750000
słužyli słužić 0.0416667
derje słužić 0.0416667
kšacam kroćele 1.0000000
adresowe adresowu 0.5000000
adresowu adresowu 0.5000000
bogu boha 0.0294118
njeces boha 0.0294118
słužabniki boha 0.0294118
boga boha 0.9117647
pśepšosujo přeproša 0.8000000
pśepšosuju přeproša 0.1000000
pśepšosyju přeproša 0.1000000
jo słuži 0.0526316
słužy słuži 0.9210526
kus słuži 0.0263158
lěc kup 0.1250000
… kup 0.1250000
kup kup 0.7500000
februarje februaru 1.0000000
šantk nósnik 1.0000000
granicu wobtwarjenska 1.0000000
čunka čunka 1.0000000
pśeśěgami přećahami 1.0000000
NULL mojich 0.0909091
mójich mojich 0.8636364
móje mojich 0.0454545
njewulašuju njezhašeja 1.0000000
zajmjeś zebrać 1.0000000
nowyma nowymaj 1.0000000
wurownańskego změrcowskeho 0.8000000
wujadnańskego změrcowskeho 0.2000000
nowiny nowiny 0.2857143
casniki nowiny 0.4285714
casnika nowiny 0.1428571
medije nowiny 0.1428571
wótśesł wottřasł 1.0000000
atrakcija atrakcija 1.0000000
gójca móroweho 0.5000000
carnego móroweho 0.5000000
wideorozgrono widejorozmołwu 1.0000000
smy nadźěłachmy 1.0000000
kólasowarjow karty 0.0212766
kórtki karty 0.0212766
karty karty 0.0212766
kórty karty 0.9361702
woblac woblěkaj 1.0000000
sobotnej sobotnej 1.0000000
dolnošlazyński delnjošleski 1.0000000
wobstaś wobstać 0.3888889
zarkyranoju wobstać 0.0555556
měś wobstać 0.2777778
wobstoj wobstać 0.0555556
wobstojaś wobstać 0.2222222
su powědachu 0.2500000
mě powědachu 0.2500000
wulicowali powědachu 0.5000000
archiwowy archiwowy 1.0000000
połgóźinski połhodźinski 1.0000000
proběrujom spytam 0.0172414
glědaś spytam 0.0172414
wobijam spytam 0.0172414
ja spytam 0.0172414
gótujom spytam 0.0172414
pón spytam 0.0172414
, spytam 0.0862069
wuproběrujom spytam 0.0517241
wopytajo spytam 0.0172414
wopytajom spytam 0.7241379
procujom spytam 0.0172414
54 54 1.0000000
pósćony darjeny 1.0000000
zarědowańskej zarjadowanskej 1.0000000
ralbičanskej ralbičanskej 1.0000000
až symbola 0.0909091
pótuskujośo symbola 0.0909091
symbola symbola 0.0909091
symbol symbola 0.7272727
bilingualna bilingualna 1.0000000
wótkubłała twelga 0.0285714
až twelga 0.0285714
twelga twelga 0.0857143
twjelga twelga 0.8000000
najmjeńki twelga 0.0285714
glucne twelga 0.0285714
bruslace lacy 1.0000000
zwiganje zběhanka 1.0000000
bóje kałanjom 0.3333333
wašogo kałanjom 0.3333333
štapanja kałanjom 0.3333333
wózjawijośo wozjewiće 1.0000000
cajk cajk 0.5000000
ten cajk 0.5000000
mozilla.wukniśo mozilla.wukńće 1.0000000
integritowem integritowym 1.0000000
wótnowjaś wotnowjeć 1.0000000
lězarje krosnowarjo 1.0000000
trjebał trjebaše 0.5000000
jo trjebaše 0.5000000
wótsajźiś wotćahnyć 1.0000000
web-stronje web-stronje 1.0000000
pismo pokaž 0.0625000
pokaž pokaž 0.6875000
raz pokaž 0.0625000
źe pokaž 0.0625000
daj pokaž 0.0625000
zjaw pokaž 0.0625000
głodny hłódna 0.1666667
snaź hłódna 0.1666667
głodna hłódna 0.6666667
njemějachmy njemějachmy 1.0000000
engelskeju jendźělskej 1.0000000
ned wopušćiła 0.1428571
spušćiła wopušćiła 0.5714286
ak wopušćiła 0.1428571
jozemrěła wopušćiła 0.1428571
sudnicu sudnicu 1.0000000
zawinuju zawinuja 1.0000000
bazy bazy 0.8461538
baze bazy 0.1538462
błotam błótam 1.0000000
centrach centrach 1.0000000
timoju timej 1.0000000
zarědowanjach zarjadowanjach 1.0000000
38 38 1.0000000
tešnosći tyšnosći 1.0000000
nawuknuł zamkarja 0.1666667
zamkarja zamkarja 0.8333333
defektna defektna 1.0000000
rozłožyś rozłožić 0.3333333
rozkłasć rozłožić 0.5833333
rozkładowaś rozłožić 0.0833333
politiskeje tworjenja 0.5000000
twórjenja tworjenja 0.5000000
póchadajucego pochadźaceho 1.0000000
pušćo pušće 1.0000000
dokradnego dokładneho 1.0000000
młoźinski młodźinski 1.0000000
dešifrěrowanu dešifrowanu 1.0000000
jě jěmoj 1.0000000
wobuza wobuza 1.0000000
pókłonił pokłoni 1.0000000
póznał zeznał 0.2727273
wupóznał zeznał 0.1818182
budyšynje zeznał 0.0909091
w zeznał 0.0909091
zeznał zeznał 0.3636364
wěcej pušćeć 0.3333333
ju pušćeć 0.3333333
njepušćijom pušćeć 0.3333333
tankow tankow 1.0000000
hackerow hackerow 1.0000000
wjednikach wjednikach 1.0000000
serbskich stawiznow 0.0370370
wulicowańkow stawiznow 0.0740741
stawiznow stawiznow 0.7777778
tšojeńkow stawiznow 0.0740741
stawiznach stawiznow 0.0370370
grajki hru 0.0277778
gru hru 0.1111111
graśa hru 0.0277778
grajkanju hru 0.0277778
graśim hru 0.0555556
graśe hru 0.7222222
coš hru 0.0277778
powěźeńkach zdźělenkach 1.0000000
z.t z.t 1.0000000
premisu premisu 1.0000000
NULL pedagogiku 0.2222222
pedagogiku pedagogiku 0.7777778
wužywarjow wužiwaćelow 1.0000000
elegantnej elegantnej 1.0000000
trudla trudla 1.0000000
šyfra šifra 1.0000000
domchowankow domchowankow 1.0000000
wójakowanje njejsće 0.0104167
njejsćo njejsće 0.9791667
był njejsće 0.0104167
nałožował nałožował 0.6666667
NULL nałožował 0.3333333
składowański składowanski 1.0000000
pólěpšenjach polěpšenjach 1.0000000
elementarnem elementarnym 1.0000000
staramy staramy 1.0000000
powěsćowe powěsćowe 1.0000000
cotej chcetej 1.0000000
wopśimjeśim wopřijećom 1.0000000
humanistiske humanistiske 0.5000000
duchnych humanistiske 0.5000000
websedłam websydła 0.0526316
websedła websydła 0.8947368
wěstotne websydła 0.0058480
websydła websydła 0.0292398
websydłam websydła 0.0175439
pjas pos 1.0000000
normal normal 1.0000000
rtl rtl 1.0000000
zatopijom tepju 0.5000000
pšawje tepju 0.5000000
logiski logiske 0.6666667
logiske logiske 0.3333333
w čitanske 0.2222222
cytańske čitanske 0.5555556
wugbaśa čitanske 0.2222222
750 750 1.0000000
zachował zachował 0.5000000
hobzwarnował zachował 0.5000000
wumóžone wumóženi 0.5000000
huzbóžnjone wumóženi 0.5000000
leksice leksice 1.0000000
garzweiler garzweiler 1.0000000
nikolas mikławšo 1.0000000
sćagłowowu škraholcow 1.0000000
lubego lubeho 1.0000000
komunalneje komunalneje 1.0000000
gronimej prajimoj 1.0000000
frizerka frizerka 1.0000000
dawaju dawaja 0.8421053
dajo dawaja 0.0526316
wóni dawaja 0.0526316
dawa dawaja 0.0526316
wósebnosćam wosebitosćam 1.0000000
pokazowanju pokazowanju 1.0000000
banjawego kirbsoweho 1.0000000
maśeŕne maćerske 1.0000000
šesty šesty 1.0000000
dewiza dewiza 1.0000000
źiwadłowe dźiwadłowu 0.5000000
źiwadłowu dźiwadłowu 0.5000000
słodkeju słódkej 0.5000000
něžneju słódkej 0.5000000
wobrotnišćo wobrotnišćo 1.0000000
instalater instalater 1.0000000
rěcy spóznaća 0.0454545
spóznawanja spóznaća 0.0454545
spóznaśa spóznaća 0.9090909
kromolu kromolu 1.0000000
a3 a3 1.0000000
palace palace 1.0000000
muki muki 1.0000000
spalił spali 0.2500000
spalijo spali 0.5000000
njespalijo spali 0.2500000
paslow paslow 0.6250000
žabine paslow 0.1250000
pasle paslow 0.1250000
pópadnuś paslow 0.1250000
njepópadnu njepopadnu 1.0000000
groznje hrozne 0.1250000
tšašydło hrozne 0.1250000
grozne hrozne 0.6250000
napšawdu hrozne 0.1250000
wužywajobneje wužiwajomneje 1.0000000
wupisane wupisane 1.0000000
rozuj zuj 1.0000000
njepóbitujo only 1.0000000
tolaŕ tolerjom 1.0000000
njelubujom njelubuju 1.0000000
płaśobny stajiće 0.1428571
stajiśo stajiće 0.4285714
stajijośo stajiće 0.4285714
nakliknjony nakliknjeny 1.0000000
skanner skener 1.0000000
su spóznachu 0.5000000
spóznali spóznachu 0.5000000
wažnosći wažnosće 1.0000000
njewěrobnje njeprawdźepodobnje 1.0000000
znjewužywajo znjewužiwał 1.0000000
tu předaloko 0.2500000
źěru předaloko 0.2500000
njedosegnu předaloko 0.2500000
ja předaloko 0.2500000
inspirator inspirator 1.0000000
nawal nawal 1.0000000
forumowe forumowi 1.0000000
blokami blokami 1.0000000
cłowjeka čłowjekoweho 1.0000000
awdioklip awdioklip 1.0000000
zastojnik šosar 1.0000000
manifestowe manifestowe 1.0000000
pśigłosowała přihłosowaše 1.0000000
a zamóžnosć 0.1428571
zamóžnosć zamóžnosć 0.8571429
wósymnaste wosomnate 1.0000000
naměstneje hnydomneje 1.0000000
prezentěrujomy prezentujemy 1.0000000
zjawna zjawna 0.8750000
zjawne zjawna 0.0833333
zjawnu zjawna 0.0416667
selektorje selektorje 1.0000000
para bahno 0.0714286
mě bahno 0.0714286
to bahno 0.0714286
zlětuju bahno 0.0714286
prima bahno 0.0714286
tonišćo bahno 0.4285714
bagno bahno 0.2142857
awtorstwa awtorstwu 1.0000000
zakładnymi zakładnymi 1.0000000
njepłaśe njepłaća 1.0000000
pśegnawaś přehnawaš 1.0000000
stron kónčin 0.0769231
regionow kónčin 0.3076923
stronow kónčin 0.3846154
wokolinow kónčin 0.2307692
emisije emisije 1.0000000
aktiwistami aktiwistami 1.0000000
pistu pistu 1.0000000
franziska franziska 1.0000000
lětneju lětnej 0.5000000
lětnej lětnej 0.5000000
zrosćoneje zrosćeneho 1.0000000
saksko-anhaltska saksko-anhaltska 1.0000000
njewjelikej njewulkej 1.0000000
něžne lesny 1.0000000
rozdwóje rozdwoja 1.0000000
na wěža 0.0769231
zeger wěža 0.0769231
torm wěža 0.6923077
tormje wěža 0.1538462
wideodožywjenja widejodožiwjenja 1.0000000
pógódnośenje pohódnoćeni 1.0000000
celovecu celovecu 1.0000000
za powšitkownowužitnym 0.5000000
powšyknowužytne powšitkownowužitnym 0.5000000
bźezbarjernosć bjezbarjernosć 0.6666667
bźezbariernosć bjezbarjernosć 0.3333333
symanom symanom 1.0000000
pśistupu přistupu 1.0000000
mjerwjeńca mjerwjeńca 1.0000000
bomcyki štomiki 1.0000000
njeměła njeměła 0.3750000
njedejała njeměła 0.6250000
jatšownej jutrownej 0.8888889
jatšowneju jutrownej 0.1111111
kompjutera kompjutera 1.0000000
jano jenoz 1.0000000
wjerbje wjerbje 1.0000000
skazanja skazanja 1.0000000
kniglicki knižku 0.3333333
zelarske knižku 0.3333333
knigły knižku 0.3333333
institucijami zarjadnišćemi 0.2500000
zastojnstwami zarjadnišćemi 0.7500000
njabogego morwu 1.0000000
zajmc zajimc 1.0000000
sms-słužba sms-słužba 0.7500000
njejo sms-słužba 0.2500000
słownu słownu 1.0000000
10.000 10.000 1.0000000
pśichadajucu dochadźacu 0.5000000
dochadajucu dochadźacu 0.5000000
zakazał zakazał 1.0000000
póglědał tveiranowu 1.0000000
wótcakuju wočakuja 0.6363636
wócakuju wočakuja 0.3636364
2020 2020 1.0000000
grajkajucymi hrajnymi 0.5000000
grajnymi hrajnymi 0.5000000
herbert herbert 1.0000000
diagnosticěrowaś diagnosticěrować 1.0000000
wugódała wuhódała 1.0000000
wobstawnym wobstajnym 1.0000000
rěcnicoma rěčnicomaj 1.0000000
smogorjow-prjawoz smogorjow-prjawoz 1.0000000
etablěrowanymi etablěrowanymi 1.0000000
instituciju slědźenišćom 0.5000000
slěźaŕskeju slědźenišćom 0.5000000
rozrědowanja rozrjadowanja 1.0000000
góji škita 0.0129870
šćita škita 0.9350649
NULL škita 0.0129870
šćitujo škita 0.0259740
šćitanja škita 0.0129870
manuelne manuelne 1.0000000
bóžej božej 0.8000000
namšy božej 0.1000000
swěźeńskej božej 0.1000000
zamóženju zamóženju 1.0000000
armeje wójska 0.1000000
zakłoje wójska 0.1000000
woblagnuło wójska 0.1000000
wójnstwa wójska 0.1000000
wójakow wójska 0.2000000
stupił wójska 0.1000000
wójska wójska 0.3000000
mucne mučni 1.0000000
sponsorowane sponsorowane 1.0000000
kategoriju kategoriji 0.0454545
NULL kategoriji 0.0454545
kategoriji kategoriji 0.9090909
nimske němscy 1.0000000
mócow mocow 0.9444444
mócy mocow 0.0555556
słowaksku słowaksku 1.0000000
kategoriju kategorije 0.0400000
kategorije kategorije 0.9600000
slědujucym slědowacym 0.5000000
slědujucej slědowacym 0.0714286
slědujucem slědowacym 0.4285714
wobrazowu wobrazowu 1.0000000
amta zarjada 0.2000000
raźcownje zarjada 0.0307692
za zarjada 0.0307692
strowotnistwa zarjada 0.0153846
zastojnstwa zarjada 0.6307692
zarěda zarjada 0.0153846
dwóra zarjada 0.0307692
centruma zarjada 0.0307692
zarědnistwa zarjada 0.0153846
cipher cipher 1.0000000
zběrała zběrała 1.0000000
wikowarjach wikowarjach 1.0000000
pódsmužkow podsmužkow 1.0000000
wobgranicowane wuskomyslni 0.3333333
w wuskomyslni 0.3333333
myslenju wuskomyslni 0.3333333
kwalitatiwnje kwalitatiwnje 1.0000000
NULL runostajeni 1.0000000
sliwowic palenc 0.5000000
paleńc palenc 0.2500000
z palenc 0.2500000
jasnjej jasnišo 1.0000000
wuwuześim wuwzaćom 0.2500000
wuwześim wuwzaćom 0.5000000
togo wuwzaćom 0.2500000
wuwjeźony wuwjedźeny 1.0000000
narodny narodniny 0.1000000
narodniny narodniny 0.8000000
źeń narodniny 0.1000000
śi tveiranowy 0.0625000
twajrana tveiranowy 0.3750000
twajranowy tveiranowy 0.1250000
dom tveiranowy 0.2500000
a tveiranowy 0.0625000
/ tveiranowy 0.0625000
rozglěduj tveiranowy 0.0625000
město woblěhowanju 1.0000000
wjeleserakosć wšelakorosć 0.0909091
wjelerakosć wšelakorosć 0.3636364
wšakorakosć wšelakorosć 0.4545455
wšakorakosći wšelakorosć 0.0909091
młodoserbskego młodoserbskeho 1.0000000
format format 0.9473684
pak format 0.0526316
wje-wjele w-wjele 0.5000000
nje-njetrjebam w-wjele 0.5000000
grabała hrabała 1.0000000
janom čelnjanom 1.0000000
stej sćěhowaštej 0.5000000
slědowałej sćěhowaštej 0.5000000
wusuźe wusudźe 1.0000000
słupy špałty 0.6666667
słupa špałty 0.3333333
źělu dźělu 1.0000000
som widźech 1.0000000
pśipadnje snano 0.0026247
snaź snano 0.8057743
pak snano 0.0026247
móžo snano 0.0131234
słowko snano 0.0026247
snano snano 0.0052493
až snano 0.0026247
na snano 0.0026247
mógali snano 0.0026247
NULL snano 0.0131234
byś snano 0.0052493
mógała snano 0.0131234
drje snano 0.0026247
ga snano 0.0052493
jo snano 0.0026247
nejskerjejwěcej snano 0.0026247
ty snano 0.0026247
někaki snano 0.0026247
mógło snano 0.0026247
nejskerjej snano 0.0603675
zajmujo snano 0.0026247
mógu snano 0.0026247
nekskerjej snano 0.0026247
njebudu snano 0.0026247
snaž snano 0.0157480
móžno snano 0.0078740
wótnowiś snano 0.0026247
ale snano 0.0026247
how snano 0.0026247
jo-lic snano 0.0026247
mógało snano 0.0026247
zwarijom zwarju 1.0000000
njo nbu 1.0000000
wobzamknuła wobzamknyła 1.0000000
njegódnośeca njehódnoćacy 1.0000000
pówjerchu powjerchu 1.0000000
korigěrowała korigowała 1.0000000
tśirožk třiróžk 1.0000000
śpoma stwomaj 1.0000000
böhlenje böhlenje 1.0000000
jěźneje wjelbika 0.2307692
komorki wjelbika 0.3076923
komory wjelbika 0.1538462
w wjelbika 0.0769231
forotoweje wjelbika 0.1538462
komorce wjelbika 0.0769231
togo posłužbje 0.2500000
bok posłužbje 0.2500000
internetowego posłužbje 0.2500000
słužbywugbarja posłužbje 0.2500000
schójźeńki schodźenki 1.0000000
systematiku systematiku 0.5000000
cele systematiku 0.5000000
pśidaś přdać 1.0000000
domenu domenu 1.0000000
skócyś skočić 1.0000000
zarucyjomy zaručimy 1.0000000
šulu spjelnjena 1.0000000
awtomatiski awtomatiski 1.0000000
jo wali 0.3333333
walijo wali 0.3333333
walił wali 0.3333333
zapópadnuli zapopadnyli 1.0000000
klienśe klienće 1.0000000
wjeźo wjedźe 0.7600000
wen wjedźe 0.0133333
wašej wjedźe 0.0133333
drogujośo wjedźe 0.0133333
źo wjedźe 0.0933333
dowjeźo wjedźe 0.0133333
wjedu wjedźe 0.0133333
se wjedźe 0.0133333
ma wjedźe 0.0266667
śi wjedźe 0.0133333
srědkami wjedźe 0.0266667
wótegronami wotmołwami 0.9375000
wótegrona wotmołwami 0.0625000
aktualizěrowane zaktualizowane 0.3333333
zaktualizěrowali zaktualizowane 0.1666667
zaktualizěrowane zaktualizowane 0.3333333
zaktualizěrowało zaktualizowane 0.1666667
póznajomy spóznajemy 0.5000000
spóznajomy spóznajemy 0.5000000
stajotej stajetej 1.0000000
pólom wobchadźeće 0.2000000
wobchadaš wobchadźeće 0.2000000
wobchadaśo wobchadźeće 0.6000000
serwer přijimanje 0.1111111
dostawanje přijimanje 0.4444444
pśiwześe přijimanje 0.2222222
nabraśe přijimanje 0.2222222
relewantneje relewantneje 1.0000000
dorozměli dorozumili 0.3333333
w dorozumili 0.3333333
pśiměrjonej dorozumili 0.3333333
ass0rd ass0rd 1.0000000
parametry parametry 1.0000000
tusnjenim stłóčenjom 0.1666667
tłocenim stłóčenjom 0.1666667
tipnjenim stłóčenjom 0.5000000
tipowanim stłóčenjom 0.1666667
pc pc 1.0000000
NULL wojacy 0.0238095
to wojacy 0.0238095
wójaki wojacy 0.9285714
móje wojacy 0.0238095
pśepšosyła přeprosyła 1.0000000
womyjadła wopłokowadła 1.0000000
zastojnskego zarjadniskeho 0.3333333
zastojnstwowego zarjadniskeho 0.5238095
zarědniskego zarjadniskeho 0.0476190
zastojańskego zarjadniskeho 0.0952381
wusłyšał wusłyšał 1.0000000
daj zdźěl 0.3333333
wěsći zdźěl 0.3333333
k zdźěl 0.3333333
wobkněžyli wobknježachu 1.0000000
górjejka horjeka 0.0377358
górjejce horjeka 0.9433962
wótgórjejka horjeka 0.0188679
cogodla čehodla 0.4881657
cogo čehodla 0.2366864
zbrašony čehodla 0.0029586
cog čehodla 0.0029586
NULL čehodla 0.0088757
čehodla čehodla 0.0029586
až čehodla 0.0029586
comu čehodla 0.0029586
a čehodla 0.0088757
dal čehodla 0.0059172
dla čehodla 0.2307692
pón čehodla 0.0029586
rycynu čehodla 0.0029586
społnjuju spjelnjeja 0.5555556
NULL spjelnjeja 0.1111111
dopołnje spjelnjeja 0.1111111
społniju spjelnjeja 0.2222222
wótpadnułi wotpadnyli 1.0000000
window.top window.top 1.0000000
krotuš palčiko 1.0000000
wugbaśim chłostajomnosć 0.5000000
chłostajobnosć chłostajomnosć 0.5000000
hanrik handrik 1.0000000
potenciale potenciale 1.0000000
enormny enormny 1.0000000
uchiha uchiha 1.0000000
njedostatk njedostatk 1.0000000
pśisłod přisłód 1.0000000
płotowy płótny 1.0000000
zwěsći-li zwěsći-li 0.2500000
zwěsćijo zwěsći-li 0.2500000
až zwěsći-li 0.2500000
joli zwěsći-li 0.2500000
wócakowanja wočakowanja 0.8888889
wótcakowanja wočakowanja 0.1111111
kompetentnu kompetentnu 1.0000000
bukoweju bukowej 1.0000000
źasetki dźesatkich 1.0000000
efekt efekt 1.0000000
wubraś wuzwolić 0.2000000
wubjeŕśo wuzwolić 0.0400000
faworit wuzwolić 0.0400000
wuzwoliś wuzwolić 0.0400000
wuzwóliś wuzwolić 0.6800000
