ě y 0.0215247
ě i 0.0223291
ě a 0.0091443
ě j 0.0008709
ě ě 0.4107551
ě NULL 0.0012474
ě l 0.0029552
ě e 0.0100803
ě ó 0.0089962
ě o 0.0041815
ě u 0.0016986
l n 0.0035270
l ŕ 0.0224571
l b 0.0028156
l š 0.0046166
l r 0.0071203
l d 0.0058639
l NULL 0.0095634
l m 0.0002330
l j 0.0009254
l ž 0.0035176
l c 0.0098158
l ś 0.0005363
l g 0.0074198
l t 0.0014253
l k 0.0049116
l z 0.0034392
l ź 0.0009361
l p 0.0001997
l ć 0.0006439
l w 0.0035479
l l 0.8264653
l s 0.0032295
l ń 0.0024024
l ł 0.0328334
w n 0.0246887
w b 0.0232285
w ŕ 0.0105680
w r 0.0044164
w š 0.0048730
w NULL 0.0724879
w m 0.0047758
w d 0.0193645
w i 0.0003007
w c 0.0099502
w ś 0.0014749
w h 0.0373134
w j 0.0400087
w ž 0.0040201
w u 0.0004044
w g 0.0014840
w k 0.0034381
w t 0.0155685
w a 0.0000753
w z 0.0158860
w f 0.0060976
w ź 0.0002340
w p 0.0113829
w l 0.0075521
w w 0.8636910
w ć 0.0012878
w y 0.0013453
w ł 0.0020268
w s 0.0096011
w ń 0.0102102
ć n 0.0022979
ć ŕ 0.0237781
ć ó 0.0001578
ć b 0.0014078
ć š 0.0046166
ć r 0.0018927
ć d 0.0038184
ć m 0.0046593
ć NULL 0.0067914
ć ž 0.0020101
ć j 0.0028850
ć ś 0.5303030
ć c 0.0049751
ć o 0.0000414
ć u 0.0002427
ć g 0.0113152
ć t 0.0200636
ć k 0.0016699
ć z 0.0029479
ć ź 0.0032764
ć p 0.0000999
ć ć 0.8184160
ć w 0.0030329
ć l 0.0118207
ć ń 0.0012012
ć s 0.0042769
ć ł 0.0058776
y c 0.0002689
y i 0.0128562
y ś 0.0001341
y y 0.5333333
y j 0.0000544
y NULL 0.0045738
y w 0.0002861
y l 0.0093581
y ě 0.0030034
y m 0.0001165
y ć 0.0148100
y u 0.0361563
y ł 0.0129712
y o 0.0034777
y s 0.0006110
y a 0.0077519
y k 0.0025540
y e 0.0648855
y r 0.0002704
y š 0.0002565
y ó 0.0157828
ł ć 0.0019317
ł w 0.0013162
ł l 0.0192087
ł s 0.0006110
ł ł 0.8619781
ł a 0.0002258
ł z 0.0001638
ł t 0.0014253
ł k 0.0008841
ł p 0.0009985
ł ź 0.0018722
ł j 0.0005443
ł ž 0.0005025
ł c 0.0030926
ł ś 0.0028158
ł d 0.0010910
ł NULL 0.0011088
ł m 0.0029121
ł g 0.0018549
ł n 0.0035804
ł r 0.0101848
ł ŕ 0.0013210
ń i 0.0057139
ń c 0.0020169
ń ś 0.0005363
ń h 0.0055970
ń j 0.0059877
ń ž 0.0025126
ń NULL 0.0002772
ń m 0.0001165
ń ł 0.0002027
ń u 0.0004853
ń ń 0.0762763
ń a 0.0001505
ń n 0.0054508
ń k 0.0006876
ń t 0.0006578
ń p 0.0001997
ń ó 0.0001578
ń ź 0.0018722
s ź 0.0035104
s p 0.0223665
s k 0.0071709
s t 0.0020831
s f 0.0015244
s a 0.0003387
s z 0.0370128
s s 0.8695121
s l 0.0093581
s w 0.0068670
s y 0.0010463
s b 0.0255748
s r 0.0015322
s š 0.0210310
s n 0.0002672
s e 0.0003425
s o 0.0004968
s u 0.0000809
s g 0.0009275
s m 0.0135119
s NULL 0.0433818
s d 0.0096823
s h 0.0048507
s ś 0.0065701
s c 0.0108915
s j 0.0013064
k ŕ 0.0356671
k b 0.0208822
k š 0.0094896
k r 0.0023434
k e 0.0002447
k n 0.0101534
k o 0.0009108
k u 0.0005662
k g 0.0298646
k d 0.0032729
k m 0.0008154
k NULL 0.0325710
k ž 0.0030151
k j 0.0054978
k ś 0.0016090
k h 0.0055970
k c 0.0451795
k i 0.0003007
k ź 0.0007021
k p 0.0019970
k t 0.0171034
k k 0.8548134
k f 0.0121951
k z 0.0065509
k ń 0.0018018
k s 0.0035786
k ł 0.0046615
k ć 0.0540889
k l 0.0018059
k w 0.0065808
t e 0.0000979
t n 0.0184364
t š 0.0069249
t r 0.0023434
t ó 0.0072601
t b 0.0225246
t ž 0.0025126
t j 0.0003266
t ś 0.0103245
t h 0.0011194
t c 0.0100847
t d 0.0126824
t m 0.0005824
t NULL 0.0212058
t g 0.0057503
t o 0.0001242
t u 0.0001618
t z 0.0027841
t a 0.0025589
t t 0.8653656
t k 0.0055010
t p 0.0051922
t ź 0.0070208
t ć 0.0154540
t l 0.0018059
t w 0.0005150
t ń 0.0084084
t s 0.0098630
t ł 0.0044589
f h 0.0003731
f f 0.8734756
f z 0.0003275
f ž 0.0005025
f m 0.0002330
f NULL 0.0001386
f w 0.0001144
f p 0.0004993
f b 0.0007039
a k 0.0001965
a a 0.7797471
a ź 0.0002340
a ě 0.1490275
a l 0.0011492
a ć 0.0083709
a y 0.0390135
a ł 0.0002027
a s 0.0005237
a n 0.0004275
a e 0.0825504
a b 0.0002346
a ó 0.0250947
a r 0.0001803
a š 0.0017953
a NULL 0.0548857
a d 0.0092731
a ś 0.0030839
a i 0.0320277
a c 0.0004034
a o 0.0467417
a u 0.1303891
z g 0.0109442
z d 0.0054548
z NULL 0.0128898
z m 0.0002330
z j 0.0003810
z ž 0.0190955
z i 0.0002255
z c 0.0068576
z h 0.0029851
z b 0.0110277
z š 0.0030777
z r 0.0066697
z e 0.0001957
z n 0.0033132
z s 0.0098630
z ł 0.0002027
z l 0.0018059
z w 0.0097854
z y 0.0002990
z ź 0.0023403
z p 0.0090864
z t 0.0020831
z k 0.0027505
z z 0.8496561
z f 0.0015244
ź ź 0.4949684
ź p 0.0001997
ź š 0.0002565
ź n 0.0032063
ź a 0.0005268
ź ł 0.0020268
ź u 0.0027501
ź o 0.0003726
ź ń 0.0030030
ź g 0.0063068
ź l 0.0016418
ź NULL 0.0397782
ź w 0.0016023
ź m 0.0001165
ź ć 0.0032196
ź c 0.0001345
ź i 0.0007518
ź h 0.0022388
ź j 0.0038104
ź ž 0.0040201
p ś 0.0001341
p h 0.0123134
p c 0.0017480
p ž 0.0015075
p j 0.0010342
p m 0.0019802
p NULL 0.0192654
p d 0.0167735
p g 0.0448896
p o 0.0002898
p u 0.0001618
p n 0.0016032
p r 0.0000901
p š 0.0082072
p b 0.0049273
p ó 0.0001578
p w 0.0104149
p l 0.0068954
p ł 0.0018241
p s 0.0068953
p f 0.0228659
p a 0.0007150
p z 0.0088438
p k 0.0008841
p t 0.0063590
p p 0.8832751
p ź 0.0037444
ř r 0.0024335
ř p 0.0000999
ř š 0.0069249
ř ó 0.0020518
ř o 0.0005382
ř ł 0.0002027
ř s 0.0012220
ř ś 0.3755699
ř j 0.0007076
ř NULL 0.0149688
ř e 0.0001957
ř d 0.0004091
m l 0.0008209
m w 0.0024607
m y 0.0001495
m s 0.0024439
m t 0.0031795
m k 0.0011788
m f 0.0030488
m a 0.0000376
m z 0.0055683
m ź 0.0002340
m p 0.0026960
m d 0.0034092
m m 0.8492720
m NULL 0.0241164
m ž 0.0020101
m j 0.0072397
m ś 0.0017431
m h 0.0052239
m c 0.0025548
m u 0.0020222
m g 0.0304211
m e 0.0006361
m n 0.0029391
m ŕ 0.0013210
m b 0.0417644
m r 0.0036052
NULL d 0.0061366
NULL m 0.0210833
NULL ž 0.0150754
NULL j 0.1299875
NULL ś 0.0176991
NULL h 0.0317164
NULL c 0.0264892
NULL i 0.0339072
NULL o 0.0457481
NULL u 0.0351047
NULL g 0.0111297
NULL e 0.0145821
NULL n 0.0210549
NULL ŕ 0.0462351
NULL b 0.0220554
NULL ó 0.0142045
NULL š 0.0105155
NULL r 0.1271744
NULL ć 0.0160979
NULL ě 0.1474542
NULL w 0.0414306
NULL l 0.0060745
NULL y 0.0152466
NULL ń 0.0234234
NULL s 0.0149254
NULL ł 0.0245237
NULL t 0.0101963
NULL k 0.0277014
NULL f 0.0015244
NULL a 0.0193798
NULL z 0.0111366
NULL ź 0.0081910
NULL p 0.0121817
d p 0.0066900
d ź 0.4245261
d z 0.0127743
d a 0.0003010
d t 0.0060300
d k 0.0030452
d s 0.0027058
d ń 0.0024024
d ł 0.0002027
d w 0.0044635
d l 0.0044328
d š 0.0110285
d r 0.0036954
d ŕ 0.0013210
d b 0.0072736
d n 0.0073211
d g 0.0083472
d u 0.0015368
d o 0.0000828
d j 0.0189429
d ž 0.0221106
d c 0.0073955
d i 0.0000752
d ś 0.0002682
d d 0.8501296
d NULL 0.0109494
d m 0.0053582
h g 0.6770543
h u 0.0033163
h j 0.0079473
h ž 0.0055276
h i 0.0003759
h c 0.0033616
h ś 0.0030839
h h 0.8354478
h d 0.0128188
h NULL 0.0390852
h m 0.0094351
h š 0.0015389
h r 0.0000901
h b 0.0004693
h e 0.0005383
h n 0.0002138
h s 0.0004364
h ł 0.0028375
h y 0.0001495
h w 0.0017740
h l 0.0177311
h p 0.0034948
h ź 0.0044465
h z 0.0085162
h a 0.0000376
h f 0.0045732
h t 0.0010964
h k 0.0068762
i ó 0.0034722
i a 0.0177617
i t 0.0001096
i e 0.0573008
i n 0.0008550
i s 0.0004364
i u 0.0102726
i ł 0.0010134
i o 0.0166432
i j 0.0016330
i i 0.7667093
i h 0.0052239
i ś 0.0006704
i y 0.2641256
i ć 0.0006439
i w 0.0000572
i NULL 0.0676369
i ě 0.0198799
c z 0.0001638
c a 0.0003387
c f 0.0335366
c t 0.0041662
c k 0.0285855
c p 0.0001997
c ź 0.0039785
c y 0.0001495
c ć 0.0064392
c w 0.0030901
c l 0.0013134
c ě 0.0007151
c s 0.0017457
c ń 0.0006006
c ł 0.0010134
c e 0.0000979
c n 0.0011757
c š 0.0015389
c r 0.0011717
c j 0.0026128
c ž 0.0120603
c i 0.0002255
c c 0.5283044
c ś 0.0095200
c d 0.0001364
c NULL 0.0259182
c m 0.0020967
c g 0.0003710
c o 0.0002484
ž m 0.0038439
ž NULL 0.0018018
ž d 0.0036820
ž ś 0.0004023
ž h 0.0014925
ž c 0.0099502
ž ž 0.8648241
ž j 0.0007621
ž g 0.0131701
ž n 0.0013360
ž b 0.0004693
ž r 0.0000901
ž š 0.0007694
ž l 0.0026268
ž w 0.0006295
ž ć 0.0032196
ž y 0.0001495
ž ł 0.0008107
ž s 0.0039277
ž k 0.0031434
ž t 0.0009867
ž a 0.0001505
ž z 0.0162136
ž ź 0.0035104
ž p 0.0048927
j NULL 0.2353430
j m 0.0306348
j d 0.0001364
j i 0.0148861
j c 0.0087401
j ś 0.0021453
j h 0.0082090
j j 0.7313157
j ž 0.0100503
j u 0.0567823
j o 0.0001242
j g 0.0191059
j n 0.0117565
j e 0.0000489
j b 0.0021117
j r 0.0065795
j š 0.0038471
j w 0.0081259
j l 0.0039402
j ě 0.1068364
j ć 0.0225370
j y 0.0002990
j ł 0.0008107
j s 0.0018329
j ń 0.0030030
j k 0.0054028
j t 0.0060300
j z 0.0022928
j a 0.0008655
j f 0.0015244
j ź 0.0245729
j p 0.0041937
o p 0.0002996
o b 0.0030502
o ó 0.7318497
o a 0.0287875
o n 0.0004809
o k 0.0020629
o t 0.0003289
o e 0.0374829
o u 0.0405241
o ł 0.0004054
o o 0.6551296
o s 0.0018329
o c 0.0012102
o i 0.0336065
o h 0.0003731
o ś 0.0028158
o y 0.0289985
o j 0.0010342
o l 0.0013134
o NULL 0.1301455
o w 0.0001144
o ě 0.0135870
u ó 0.0187816
u r 0.0009914
u e 0.0235369
u t 0.0044951
u n 0.0009085
u a 0.0161812
u s 0.0005237
u o 0.0216527
u u 0.6346356
u ł 0.0004054
u ć 0.0038635
u m 0.0270239
u ě 0.0680778
u NULL 0.0170478
u l 0.0001642
u w 0.0001144
u j 0.0004355
u ś 0.0020113
u h 0.0007463
u y 0.0426009
u i 0.0151868
č c 0.2730940
č i 0.0015788
č ś 0.0029499
č h 0.0179104
č j 0.0025039
č ž 0.0075377
č NULL 0.0019404
č m 0.0006989
č d 0.0103641
č g 0.0025969
č n 0.0043285
č r 0.0057684
č š 0.0123108
č ŕ 0.0026420
č y 0.0001495
č w 0.0018312
č l 0.0008209
č ć 0.0283323
č ł 0.0004054
č s 0.0027931
č ń 0.0006006
č z 0.0006551
č k 0.0085462
č t 0.0100866
č p 0.0015976
č ź 0.0021062
g r 0.0014421
g g 0.0940456
g k 0.0015717
g d 0.0004091
g c 0.0001345
g z 0.0001638
n k 0.0139489
n t 0.0055915
n z 0.0062234
n a 0.0002634
n ź 0.0028083
n p 0.0050924
n l 0.0174027
n w 0.0115021
n ć 0.0006439
n y 0.0007474
n ł 0.0170247
n ń 0.8570571
n s 0.0015711
n n 0.8604179
n b 0.0065697
n ŕ 0.0488771
n r 0.0048671
n š 0.0064119
n m 0.0060571
n NULL 0.0435204
n d 0.0100914
n h 0.0014925
n ś 0.0105927
n c 0.0127740
n i 0.0000752
n ž 0.0055276
n j 0.0023406
n o 0.0001656
n u 0.0028310
n g 0.0014840
e a 0.1108226
e n 0.0000534
e t 0.0004385
e e 0.7052261
e p 0.0002996
e š 0.0002565
e b 0.0002346
e ó 0.0132576
e i 0.0587174
e h 0.0082090
e ś 0.0002682
e y 0.0457399
e j 0.0002722
e NULL 0.0403326
e w 0.0002861
e m 0.0064065
e ě 0.0772311
e d 0.0004091
e u 0.0335679
e ł 0.0006080
e o 0.1726422
e s 0.0007855
ó NULL 0.0015246
ó ě 0.0034325
ó d 0.0061366
ó e 0.0016148
ó a 0.0037254
ó ś 0.0001341
ó y 0.0020927
ó u 0.0061474
ó ó 0.1587753
ó o 0.0302641
ó s 0.0000873
b e 0.0003425
b n 0.0012825
b ŕ 0.0013210
b b 0.7634913
b š 0.0023083
b r 0.0007210
b d 0.0030001
b NULL 0.0077616
b m 0.0061736
b j 0.0005443
b ž 0.0010050
b c 0.0024203
b h 0.0011194
b u 0.0000809
b o 0.0001242
b g 0.0105732
b t 0.0075650
b k 0.0002947
b z 0.0034392
b f 0.0381098
b ź 0.0002340
b p 0.0064903
b l 0.0109998
b w 0.0060658
b s 0.0013092
b ł 0.0010134
r ń 0.0096096
r s 0.0097757
r ł 0.0038508
r l 0.0277459
r w 0.0092132
r y 0.0005979
r ź 0.0035104
r p 0.0161757
r t 0.0060300
r k 0.0080550
r z 0.0042581
r a 0.0001129
r g 0.0092747
r d 0.0043638
r m 0.0013978
r NULL 0.0120582
r ž 0.0020101
r j 0.0017419
r ś 0.0105927
r c 0.0091435
r ŕ 0.8044914
r b 0.0316753
r š 0.2256989
r r 0.8039658
r n 0.0036338
š s 0.0330802
š ł 0.0156060
š y 0.0022422
š l 0.0027910
š w 0.0010873
š p 0.0000999
š ź 0.0011701
š z 0.0009826
š t 0.0015349
š k 0.0041257
š g 0.0016694
š u 0.0000809
š j 0.0263459
š ž 0.0090452
š i 0.0001504
š c 0.0090090
š h 0.0104478
š ś 0.0020113
š d 0.0010910
š NULL 0.0056826
š m 0.0002330
š š 0.6517056
š r 0.0003605
š b 0.0075082
š n 0.0052904
