p ě 0.0001430
e ě 0.0772090
ó ě 0.0032885
c ě 0.0008579
NULL ě 0.1475550
a ě 0.1499857
u ě 0.0674864
i ě 0.0194452
o ě 0.0134401
ě ě 0.4114956
y ě 0.0024307
j ě 0.1066629
d š 0.0107444
c š 0.0015349
e š 0.0005116
ž š 0.0005116
s š 0.0212331
w š 0.0048606
k š 0.0099770
ć š 0.0048606
b š 0.0023024
h š 0.0025582
r š 0.2264006
t š 0.0074188
a š 0.0015349
NULL š 0.0084421
p š 0.0079304
l š 0.0056280
n š 0.0069071
ř š 0.0069071
ń š 0.0005116
č š 0.0122794
z š 0.0028140
y š 0.0002558
j š 0.0040931
š š 0.6497826
r y 0.0005977
ě y 0.0210699
š y 0.0022415
h y 0.0001494
j y 0.0002989
y y 0.5316796
z y 0.0002989
o y 0.0288404
m y 0.0001494
č y 0.0005977
u y 0.0428870
i y 0.2644949
n y 0.0007472
s y 0.0008966
w y 0.0016438
e y 0.0458757
ž y 0.0001494
NULL y 0.0150926
a y 0.0397490
ó y 0.0023909
c y 0.0001494
p j 0.0011414
l j 0.0009784
ł j 0.0007066
t j 0.0003261
NULL j 0.1300685
n j 0.0023916
i j 0.0025546
z j 0.0003805
ń j 0.0061420
č j 0.0024459
ř j 0.0007610
š j 0.0261985
ě j 0.0008153
j j 0.7306229
y j 0.0001087
ž j 0.0007610
e j 0.0002718
w j 0.0402761
s j 0.0013045
c j 0.0023916
d j 0.0188064
ź j 0.0037504
k j 0.0057615
u j 0.0005979
m j 0.0072834
b j 0.0006522
o j 0.0002718
ć j 0.0028807
r j 0.0014132
h j 0.0079356
k z 0.0070457
c z 0.0001639
d z 0.0127806
ž z 0.0165492
s z 0.0365394
w z 0.0150746
h z 0.0078650
r z 0.0040963
m z 0.0057349
b z 0.0031132
ć z 0.0031132
g z 0.0001639
n z 0.0063903
t z 0.0027855
NULL z 0.0119613
p z 0.0093397
l z 0.0027855
ł z 0.0001639
j z 0.0022940
š z 0.0009831
č z 0.0004916
f z 0.0003277
z z 0.8502376
k f 0.0135747
NULL f 0.0015083
c f 0.0331825
w f 0.0060332
s f 0.0015083
p f 0.0226244
h f 0.0045249
j f 0.0015083
m f 0.0015083
b f 0.0377074
z f 0.0015083
f f 0.8748115
ć ń 0.0011990
č ń 0.0005995
ń ń 0.0767386
j ń 0.0029976
r ń 0.0089928
t ń 0.0077938
d ń 0.0035971
NULL ń 0.0257794
w ń 0.0107914
l ń 0.0023981
ź ń 0.0023981
n ń 0.8567146
k i 0.0003003
n i 0.0002253
ź i 0.0007509
u i 0.0147920
i i 0.7670071
c i 0.0003003
NULL i 0.0340141
a i 0.0317615
w i 0.0003003
e i 0.0590179
y i 0.0132152
j i 0.0148671
h i 0.0003003
ě i 0.0220754
š i 0.0002253
o i 0.0333383
č i 0.0015768
ń i 0.0057816
z i 0.0001502
š n 0.0054960
j n 0.0118457
z n 0.0033616
ń n 0.0053359
č n 0.0044288
i n 0.0009605
n n 0.8608932
ł n 0.0035217
l n 0.0027213
p n 0.0014407
NULL n 0.0207033
t n 0.0186223
a n 0.0003735
r n 0.0035750
h n 0.0002134
ć n 0.0021877
o n 0.0005336
b n 0.0014407
m n 0.0029881
u n 0.0009071
k n 0.0101916
ź n 0.0033616
w n 0.0243317
s n 0.0006403
ž n 0.0013340
e n 0.0000534
d n 0.0073102
c n 0.0012273
n ł 0.0164300
i ł 0.0010142
p ł 0.0018256
ł ł 0.8634888
l ł 0.0328600
t ł 0.0040568
a ł 0.0004057
NULL ł 0.0255578
š ł 0.0156187
y ł 0.0127789
j ł 0.0008114
z ł 0.0002028
č ł 0.0004057
ź ł 0.0020284
k ł 0.0050710
ž ł 0.0010142
e ł 0.0006085
w ł 0.0022312
c ł 0.0006085
d ł 0.0002028
r ł 0.0040568
h ł 0.0008114
m ł 0.0004057
o ł 0.0004057
b ł 0.0008114
ć ł 0.0062880
y l 0.0093781
j l 0.0042777
ě l 0.0026324
š l 0.0027970
č l 0.0003291
z l 0.0019743
n l 0.0179335
NULL l 0.0064166
a l 0.0011517
t l 0.0019743
ł l 0.0195788
l l 0.8265877
p l 0.0069102
h l 0.0176045
r l 0.0279697
o l 0.0013162
b l 0.0108588
m l 0.0009872
ć l 0.0118460
k l 0.0018098
ź l 0.0014808
u l 0.0001645
c l 0.0013162
d l 0.0039487
w l 0.0070747
s l 0.0090490
ž l 0.0026324
z p 0.0089910
f p 0.0004995
ř p 0.0000999
ń p 0.0000999
č p 0.0012987
š p 0.0000999
j p 0.0039960
p p 0.8832168
ł p 0.0012987
l p 0.0001998
t p 0.0049950
NULL p 0.0124875
n p 0.0048951
ć p 0.0000999
m p 0.0028971
o p 0.0002997
b p 0.0065934
r p 0.0171828
h p 0.0033966
e p 0.0002997
ž p 0.0048951
w p 0.0107892
s p 0.0222777
d p 0.0068931
c p 0.0000999
k p 0.0020979
k NULL 0.0293173
ź NULL 0.0393690
u NULL 0.0153567
c NULL 0.0270836
d NULL 0.0103309
s NULL 0.0429987
w NULL 0.0758062
ž NULL 0.0019545
e NULL 0.0397878
h NULL 0.0392294
r NULL 0.0117269
b NULL 0.0071199
o NULL 0.1337428
m NULL 0.0223370
ć NULL 0.0067011
n NULL 0.0420215
i NULL 0.0679883
ó NULL 0.0019545
t NULL 0.0219182
a NULL 0.0544465
ł NULL 0.0009772
l NULL 0.0107497
p NULL 0.0188469
y NULL 0.0050258
j NULL 0.2380288
ě NULL 0.0012565
š NULL 0.0055843
ń NULL 0.0002792
č NULL 0.0022337
ř NULL 0.0142398
f NULL 0.0001396
z NULL 0.0114477
y a 0.0077412
j a 0.0002630
š a 0.0000376
ě a 0.0095073
ń a 0.0001127
ř a 0.0000376
n a 0.0004134
i a 0.0179249
ó a 0.0037954
t a 0.0025553
a a 0.7803540
NULL a 0.0195784
p a 0.0007516
ł a 0.0002255
h a 0.0000752
r a 0.0001127
m a 0.0000752
o a 0.0278456
ź a 0.0005637
u a 0.0160460
c a 0.0002630
d a 0.0003006
ž a 0.0001503
e a 0.1108940
s a 0.0003006
w a 0.0000752
r t 0.0054843
h t 0.0010969
o t 0.0001097
b t 0.0073489
m t 0.0031809
ć t 0.0201821
k t 0.0168915
u t 0.0048261
w t 0.0151366
s t 0.0021937
ž t 0.0012065
e t 0.0004387
c t 0.0040584
d t 0.0068005
š t 0.0014259
j t 0.0054843
z t 0.0021937
ń t 0.0005484
č t 0.0100910
n t 0.0053746
i t 0.0001097
l t 0.0023034
ł t 0.0014259
p t 0.0064714
NULL t 0.0093232
t t 0.8662937
u ó 0.0189633
i ó 0.0028445
NULL ó 0.0139064
a ó 0.0249684
t ó 0.0072693
ó ó 0.1588180
e ó 0.0135904
p ó 0.0001580
h ó 0.0003161
y ó 0.0158028
r ó 0.0001580
ě ó 0.0090076
ř ó 0.0023704
o ó 0.7316688
ń ó 0.0001580
k r 0.0019745
u r 0.0008078
ž r 0.0000898
s r 0.0015258
w r 0.0041285
c r 0.0015258
d r 0.0033208
r r 0.8028182
h r 0.0001795
g r 0.0014360
m r 0.0037695
b r 0.0008078
ć r 0.0017950
n r 0.0047568
ł r 0.0102316
l r 0.0073595
a r 0.0001795
t r 0.0022438
NULL r 0.1269969
š r 0.0002693
j r 0.0069108
y r 0.0002693
z r 0.0080775
č r 0.0061030
ř r 0.0024233
w ŕ 0.0093085
l ŕ 0.0212766
ł ŕ 0.0013298
d ŕ 0.0013298
ć ŕ 0.0239362
NULL ŕ 0.0492021
b ŕ 0.0013298
r ŕ 0.8111702
k ŕ 0.0359043
n ŕ 0.0452128
k h 0.0071321
ź h 0.0026276
u h 0.0003754
i h 0.0041291
NULL h 0.0319069
t h 0.0007508
ł h 0.0003754
p h 0.0071321
w h 0.0379129
s h 0.0056306
e h 0.0093844
j h 0.0101351
h h 0.8415916
š h 0.0105105
b h 0.0011261
o h 0.0003754
č h 0.0157658
ń h 0.0056306
m h 0.0041291
f h 0.0003754
z h 0.0030030
g g 0.0943816
b g 0.0105693
m g 0.0313369
ć g 0.0114964
r g 0.0087150
h g 0.6758761
s g 0.0009271
w g 0.0009271
ž g 0.0129798
c g 0.0003709
d g 0.0087150
k g 0.0302244
ź g 0.0061190
z g 0.0109401
č g 0.0024105
š g 0.0014834
j g 0.0190988
l g 0.0074170
ł g 0.0014834
p g 0.0456147
NULL g 0.0120527
t g 0.0055628
n g 0.0012980
c ś 0.0092246
d ś 0.0001337
s ś 0.0068182
w ś 0.0014706
ž ś 0.0006684
e ś 0.0002674
k ś 0.0018717
ź ś 0.0004011
u ś 0.0014706
o ś 0.0020053
m ś 0.0020053
ć ś 0.5302139
h ś 0.0030749
r ś 0.0082888
ó ś 0.0002674
NULL ś 0.0201872
t ś 0.0101604
a ś 0.0032086
l ś 0.0006684
ł ś 0.0028075
p ś 0.0001337
n ś 0.0106952
i ś 0.0008021
ń ś 0.0004011
č ś 0.0026738
ř ś 0.3763369
y ś 0.0001337
j ś 0.0016043
š ś 0.0020053
u ć 0.0038735
i ć 0.0006456
n ć 0.0006456
k ć 0.0542285
ź ć 0.0032279
NULL ć 0.0187218
t ć 0.0161394
a ć 0.0058102
c ć 0.0064558
w ć 0.0012912
ž ć 0.0025823
ł ć 0.0019367
j ć 0.0232408
y ć 0.0148483
ć ć 0.8179471
č ć 0.0284054
n o 0.0001653
i o 0.0166928
p o 0.0002479
ó o 0.0299562
NULL o 0.0461532
a o 0.0471862
t o 0.0001240
ě o 0.0040906
š o 0.0000413
y o 0.0033468
j o 0.0000826
ř o 0.0005371
k o 0.0009090
ź o 0.0003306
u o 0.0217337
s o 0.0003719
e o 0.1723824
c o 0.0002479
d o 0.0001240
h o 0.0000413
o o 0.6550698
b o 0.0001240
ć o 0.0000413
p b 0.0051246
l b 0.0027952
ž b 0.0004659
e b 0.0002329
s b 0.0249243
w b 0.0235267
t b 0.0230608
NULL b 0.0216632
d b 0.0074540
k b 0.0218961
n b 0.0074540
f b 0.0006988
z b 0.0107151
m b 0.0447240
b b 0.7591428
o b 0.0034941
ć b 0.0016306
š b 0.0074540
r b 0.0309807
j b 0.0023294
h b 0.0002329
i m 0.0001160
n m 0.0059151
NULL m 0.0222686
t m 0.0004639
l m 0.0002320
ł m 0.0030155
p m 0.0022037
j m 0.0311993
y m 0.0002320
š m 0.0002320
ń m 0.0001160
č m 0.0006959
z m 0.0002320
f m 0.0002320
u m 0.0276038
k m 0.0009279
d m 0.0052192
c m 0.0019717
s m 0.0132220
w m 0.0046393
ž m 0.0038274
e m 0.0062630
h m 0.0093946
r m 0.0017397
ć m 0.0047553
b m 0.0055672
m m 0.8477151
ń u 0.0004040
y u 0.0365223
j u 0.0557531
š u 0.0001616
ě u 0.0016160
a u 0.1301713
t u 0.0000808
NULL u 0.0367647
ó u 0.0062217
p u 0.0002424
i u 0.0099386
n u 0.0028281
ć u 0.0001616
m u 0.0020200
b u 0.0000808
o u 0.0399160
h u 0.0032321
d u 0.0015352
e u 0.0339367
s u 0.0000808
w u 0.0004040
u u 0.6342922
ź u 0.0029089
k u 0.0007272
n k 0.0142018
p k 0.0009794
ł k 0.0008815
l k 0.0047013
a k 0.0001959
t k 0.0053869
NULL k 0.0278159
š k 0.0041136
y k 0.0021548
j k 0.0050930
z k 0.0031342
č k 0.0088149
ń k 0.0003918
k k 0.8558276
ž k 0.0032321
s k 0.0071499
w k 0.0037218
d k 0.0030362
c k 0.0283056
r k 0.0078355
h k 0.0065622
g k 0.0014691
ć k 0.0017630
m k 0.0011753
b k 0.0002938
o k 0.0017630
n ź 0.0028090
NULL ź 0.0081929
a ź 0.0002341
t ź 0.0070225
l ź 0.0009363
ł ź 0.0018727
p ź 0.0037453
j ź 0.0238764
š ź 0.0011704
č ź 0.0021067
ń ź 0.0021067
z ź 0.0035112
k ź 0.0007022
ź ź 0.4953184
c ź 0.0039794
d ź 0.4236891
w ź 0.0002341
s ź 0.0035112
ž ź 0.0035112
h ź 0.0039794
r ź 0.0037453
b ź 0.0002341
m ź 0.0002341
ć ź 0.0032772
p s 0.0070398
l s 0.0032157
ł s 0.0006084
ó s 0.0000869
a s 0.0005215
t s 0.0099079
NULL s 0.0152095
n s 0.0019990
i s 0.0003476
z s 0.0101686
č s 0.0026942
ř s 0.0011298
š s 0.0333739
y s 0.0005215
j s 0.0014775
ž s 0.0038241
e s 0.0007822
s s 0.8693725
w s 0.0090388
c s 0.0015644
d s 0.0028681
k s 0.0032157
u s 0.0005215
m s 0.0022597
b s 0.0014775
o s 0.0017382
ć s 0.0042586
r s 0.0099948
h s 0.0007822
ć w 0.0027484
m w 0.0024048
o w 0.0001145
b w 0.0058403
h w 0.0018322
r w 0.0093902
d w 0.0048669
c w 0.0029774
ž w 0.0005726
e w 0.0002863
w w 0.8635557
s w 0.0069854
u w 0.0001145
ź w 0.0016032
k w 0.0061265
č w 0.0018895
z w 0.0103063
f w 0.0001145
y w 0.0002863
j w 0.0083023
š w 0.0009161
t w 0.0005153
NULL w 0.0409390
p w 0.0102491
ł w 0.0013742
l w 0.0035500
i w 0.0000573
n w 0.0120813
s e 0.0003422
e e 0.7055344
ó e 0.0016623
c e 0.0000978
NULL e 0.0150582
t e 0.0000978
a e 0.0827222
k e 0.0002933
u e 0.0230762
i e 0.0565171
b e 0.0002933
o e 0.0381832
m e 0.0006356
ř e 0.0001956
ě e 0.0098758
j e 0.0000489
y e 0.0649751
h e 0.0003911
k ž 0.0030090
ź ž 0.0055165
d ž 0.0215647
c ž 0.0120361
w ž 0.0040120
ž ž 0.8665998
h ž 0.0040120
r ž 0.0025075
ć ž 0.0015045
m ž 0.0020060
n ž 0.0030090
NULL ž 0.0165496
a ž 0.0005015
t ž 0.0025075
ł ž 0.0005015
l ž 0.0040120
p ž 0.0020060
j ž 0.0105316
š ž 0.0090271
ń ž 0.0020060
č ž 0.0075226
z ž 0.0185557
f ž 0.0005015
h d 0.0130364
r d 0.0042097
b d 0.0029875
m d 0.0042097
ć d 0.0038023
g d 0.0002716
k d 0.0036665
c d 0.0002716
d d 0.8498099
s d 0.0101847
w d 0.0188756
ž d 0.0035307
e d 0.0002716
j d 0.0002716
š d 0.0010864
č d 0.0101847
ř d 0.0004074
z d 0.0051602
n d 0.0104563
ó d 0.0061108
NULL d 0.0065182
t d 0.0124932
a d 0.0095057
ł d 0.0009506
l d 0.0057034
p d 0.0160239
w c 0.0103342
s c 0.0104684
ž c 0.0100658
c c 0.5278486
d c 0.0071131
k c 0.0454972
ź c 0.0001342
g c 0.0001342
o c 0.0013421
b c 0.0029526
m c 0.0021474
ć c 0.0051000
r c 0.0089921
h c 0.0030868
ł c 0.0029526
l c 0.0092605
p c 0.0018789
NULL c 0.0269762
a c 0.0004026
t c 0.0093947
n c 0.0127500
z c 0.0068447
ń c 0.0018789
č c 0.2743256
š c 0.0089921
j c 0.0088579
y c 0.0002684
