ě p 0.0001000
ě e 0.0224122
ě ó 0.0112580
ě c 0.0012461
ě NULL 0.0943413
ě a 0.0379564
ě u 0.0436754
ě i 0.0091392
ě o 0.0038685
ě ě 0.7223896
ě y 0.0027678
ě j 0.0411927
š d 0.0044944
š c 0.0012461
š e 0.0000830
š ž 0.0008741
š s 0.0071214
š w 0.0010581
š k 0.0037009
š ć 0.0031395
š b 0.0023077
š h 0.0014386
š r 0.0749238
š t 0.0031159
š a 0.0002171
š NULL 0.0030167
š p 0.0031009
š l 0.0037768
š n 0.0014101
š ř 0.0088962
š ń 0.0041068
š č 0.0170213
š z 0.0017872
š y 0.0001628
š j 0.0008835
š š 0.6464749
y r 0.0003386
y ě 0.0353916
y š 0.0038178
y h 0.0001439
y j 0.0001104
y y 0.5792901
y z 0.0003249
y o 0.0079427
y m 0.0001196
y č 0.0014184
y u 0.0265569
y i 0.1189436
y n 0.0002611
y s 0.0005148
y w 0.0006126
y e 0.0127418
y ž 0.0004371
y NULL 0.0092330
y a 0.0096248
y ó 0.0078316
y c 0.0002077
j p 0.0021006
j l 0.0030901
j ł 0.0027386
j t 0.0006447
j NULL 0.2187586
j n 0.0022980
j i 0.0031584
j z 0.0011373
j ń 0.2320329
j č 0.0159574
j ř 0.0046129
j š 0.1226775
j ě 0.0037651
j j 0.7422419
j y 0.0003256
j ž 0.0061189
j e 0.0002075
j w 0.0412652
j s 0.0020592
j c 0.0091381
j d 0.0370251
j ź 0.0254613
j k 0.0100588
j u 0.0010179
j m 0.0160230
j b 0.0030769
j o 0.0002058
j ć 0.0087574
j r 0.0022012
j h 0.0210042
z k 0.0040805
z c 0.0002077
z d 0.0083467
z ž 0.0441434
z s 0.0191334
z w 0.0051234
z h 0.0069055
z r 0.0021165
z m 0.0041851
z b 0.0048718
z ć 0.0031395
z g 0.0018382
z n 0.0020369
z t 0.0018266
z NULL 0.0066734
z p 0.0057017
z l 0.0029185
z ł 0.0002107
z j 0.0007731
z š 0.0015271
z č 0.0010638
z f 0.0033501
z z 0.8430544
f k 0.0008541
f NULL 0.0000914
f c 0.0045691
f w 0.0002228
f s 0.0000858
f p 0.0015005
f h 0.0004316
f j 0.0000552
f m 0.0001196
f b 0.0064103
f z 0.0001625
f f 0.9715243
ń ć 0.0003305
ń č 0.0003546
ń ń 0.2628337
ń j 0.0002761
ń r 0.0012699
ń t 0.0013968
ń d 0.0006421
ń NULL 0.0039309
ń w 0.0010024
ń l 0.0006867
ń ź 0.0014760
ń n 0.0746331
i k 0.0003796
i n 0.0001567
i ź 0.0036900
i u 0.0182289
i i 0.6864458
i c 0.0008307
i NULL 0.0414115
i a 0.0153056
i w 0.0002228
i e 0.0326222
i y 0.0286552
i j 0.0109332
i h 0.0005755
i ě 0.0737952
i š 0.0007636
i o 0.0182724
i č 0.0074468
i ń 0.1581109
i z 0.0003249
n š 0.0262153
n j 0.0122584
n z 0.0102356
n ń 0.2053388
n č 0.0294326
n i 0.0012096
n n 0.8426385
n ł 0.0139035
n l 0.0087554
n p 0.0027008
n NULL 0.0354694
n t 0.0374987
n a 0.0002533
n r 0.0056722
n h 0.0005755
n ć 0.0067746
n o 0.0004115
n b 0.0069231
n m 0.0066962
n u 0.0015731
n k 0.0181249
n ź 0.0232472
n w 0.0253940
n s 0.0010296
n ž 0.0109266
n e 0.0000415
n d 0.0146602
n c 0.0047767
ł n 0.0042304
ł i 0.0003360
ł p 0.0009003
ł ł 0.8967769
ł l 0.0278112
ł t 0.0021489
ł a 0.0000724
ł NULL 0.0115184
ł š 0.0195979
ł y 0.0102572
ł j 0.0002209
ł z 0.0001625
ł č 0.0007092
ł ź 0.0036900
ł k 0.0023724
ł ž 0.0021853
ł e 0.0001245
ł w 0.0006126
ł c 0.0006231
ł d 0.0001070
ł r 0.0016932
ł h 0.0005755
ł m 0.0002391
ł o 0.0000823
ł b 0.0010256
ł ć 0.0051223
l y 0.0092804
l j 0.0014357
l ě 0.0040161
l š 0.0043268
l č 0.0007092
l z 0.0019496
l n 0.0056928
l NULL 0.0035652
l a 0.0002533
l t 0.0012894
l ł 0.0250685
l l 0.8624893
l p 0.0042013
l h 0.0153935
l r 0.0143921
l o 0.0003292
l b 0.0169231
l m 0.0007174
l ć 0.0118969
l k 0.0010438
l ź 0.0033210
l u 0.0000925
l c 0.0016615
l d 0.0025682
l w 0.0023946
l s 0.0047190
l ž 0.0069930
p z 0.0146223
p f 0.0083752
p ř 0.0003295
p ń 0.0020534
p č 0.0046099
p š 0.0002545
p j 0.0022087
p p 0.8843653
p ł 0.0027386
p l 0.0003433
p t 0.0053723
p NULL 0.0114270
p n 0.0025591
p ć 0.0001652
p m 0.0034677
p o 0.0001235
p b 0.0169231
p r 0.0145615
p h 0.0048914
p e 0.0001245
p ž 0.0214161
p w 0.0060144
p s 0.0191334
p d 0.0073836
p c 0.0002077
p k 0.0019928
NULL k 0.0199279
NULL ź 0.1040590
NULL u 0.0101786
NULL c 0.0402908
NULL d 0.0079187
NULL s 0.0264264
NULL w 0.0302389
NULL ž 0.0061189
NULL e 0.0118287
NULL h 0.0404258
NULL r 0.0071114
NULL b 0.0130769
NULL o 0.0394255
NULL m 0.0191319
NULL ć 0.0079313
NULL n 0.0157205
NULL i 0.0327263
NULL ó 0.0068527
NULL t 0.0168690
NULL a 0.0141115
NULL ł 0.0014746
NULL l 0.0132189
NULL p 0.0135041
NULL y 0.0058613
NULL j 0.0941469
NULL ě 0.0022590
NULL š 0.0101807
NULL ń 0.0041068
NULL č 0.0056738
NULL ř 0.0336079
NULL f 0.0016750
NULL z 0.0133225
a y 0.0335396
a j 0.0003865
a š 0.0002545
a ě 0.0635040
a ń 0.0061602
a ř 0.0003295
a n 0.0005745
a i 0.0320543
a ó 0.0494371
a t 0.0073063
a a 0.7513840
a NULL 0.0476278
a p 0.0020006
a ł 0.0012640
a h 0.0002877
a r 0.0002540
a m 0.0002391
a o 0.0304951
a ź 0.0055351
a u 0.0395114
a c 0.0014538
a d 0.0008561
a ž 0.0017483
a e 0.1224786
a s 0.0006864
a w 0.0001114
t r 0.0042330
t h 0.0014386
t o 0.0000412
t b 0.0171795
t m 0.0034677
t ć 0.0304032
t k 0.0146138
t u 0.0040714
t w 0.0076850
t s 0.0017160
t ž 0.0048077
t e 0.0001660
t c 0.0076843
t d 0.0066346
t š 0.0033087
t j 0.0027609
t z 0.0032494
t ń 0.0102669
t č 0.0326241
t n 0.0025591
t i 0.0000672
t l 0.0036052
t ł 0.0027386
t p 0.0059018
t NULL 0.0077704
t t 0.8486086
ó u 0.0111039
ó i 0.0012096
ó NULL 0.0080446
ó a 0.0057170
ó t 0.0049425
ó ó 0.4919236
ó e 0.0035694
ó p 0.0001000
ó h 0.0002877
ó y 0.0162813
ó r 0.0000847
ó ě 0.0143072
ó ř 0.0049423
ó o 0.1905428
ó ń 0.0020534
r k 0.0020877
r u 0.0008328
r ž 0.0004371
r s 0.0014586
r w 0.0025617
r c 0.0035306
r d 0.0039593
r r 0.7572807
r h 0.0002877
r g 0.0294118
r m 0.0050221
r b 0.0023077
r ć 0.0033047
r n 0.0027681
r ł 0.0240152
r l 0.0140773
r a 0.0000724
r t 0.0026862
r NULL 0.1293537
r š 0.0007636
r j 0.0042518
r y 0.0004884
r z 0.0146223
r č 0.0241135
r ř 0.0088962
ŕ w 0.0003898
ŕ l 0.0027468
ŕ ł 0.0002107
ŕ d 0.0001070
ŕ ć 0.0029742
ŕ NULL 0.0033824
ŕ b 0.0002564
ŕ r 0.0516424
ŕ k 0.0025622
ŕ n 0.0017757
h k 0.0018030
h ź 0.0025830
h u 0.0000925
h i 0.0007392
h NULL 0.0077704
h t 0.0002149
h ł 0.0002107
h p 0.0019006
h w 0.0056245
h s 0.0012870
h e 0.0010376
h j 0.0014909
h h 0.3225435
h š 0.0071265
h b 0.0007692
h o 0.0000412
h č 0.0148936
h ń 0.0308008
h m 0.0013153
h f 0.0016750
h z 0.0012998
g g 0.9356618
g b 0.0146154
g m 0.0202081
g ć 0.0102445
g r 0.0039790
g h 0.5243850
g s 0.0004290
g w 0.0002784
g ž 0.0305944
g c 0.0004154
g d 0.0050294
g k 0.0154678
g ź 0.0121771
g z 0.0095857
g č 0.0046099
g š 0.0020361
g j 0.0056875
g l 0.0068670
g ł 0.0016853
g p 0.0246074
g NULL 0.0059420
g t 0.0032234
g n 0.0003656
ś c 0.0143302
ś d 0.0001070
ś s 0.0043758
ś w 0.0006126
ś ž 0.0021853
ś e 0.0000830
ś k 0.0013285
ś ź 0.0011070
ś u 0.0010179
ś o 0.0006173
ś m 0.0017936
ś ć 0.6553206
ś h 0.0033089
ś r 0.0052489
ś ó 0.0009790
ś NULL 0.0138038
ś t 0.0081659
ś a 0.0008684
ś l 0.0008584
ś ł 0.0044238
ś p 0.0001000
ś n 0.0041782
ś i 0.0004032
ś ń 0.0061602
ś č 0.0070922
ś ř 0.9275124
ś y 0.0001628
ś j 0.0006626
ś š 0.0038178
ć u 0.0005552
ć i 0.0000672
ć n 0.0000522
ć k 0.0079712
ć ź 0.0018450
ć NULL 0.0026511
ć t 0.0026862
ć a 0.0003257
ć c 0.0020768
ć w 0.0001114
ć ž 0.0017483
ć ł 0.0006320
ć j 0.0019879
ć y 0.0037447
ć ć 0.2093523
ć č 0.0156028
o n 0.0002089
o i 0.0271487
o p 0.0006002
o ó 0.3548703
o NULL 0.1021117
o a 0.0413214
o t 0.0003223
o ě 0.0248494
o š 0.0002545
o y 0.0131879
o j 0.0001104
o ř 0.0042834
o k 0.0020877
o ź 0.0029520
o u 0.0486722
o s 0.0007722
o e 0.1731551
o c 0.0012461
o d 0.0003210
o h 0.0001439
o o 0.6524548
o b 0.0007692
o ć 0.0001652
b p 0.0022007
b l 0.0020601
b ž 0.0008741
b e 0.0000415
b s 0.0091806
b w 0.0056245
b t 0.0106372
b NULL 0.0085017
b d 0.0034243
b k 0.0089201
b n 0.0016713
b f 0.0050251
b z 0.0074736
b m 0.0229583
b b 0.8356410
b o 0.0006173
b ć 0.0011566
b š 0.0081446
b r 0.0112597
b j 0.0005522
b h 0.0001439
m i 0.0000672
m n 0.0026636
m NULL 0.0175519
m t 0.0004298
m l 0.0003433
m ł 0.0054771
m p 0.0019006
m j 0.0148537
m y 0.0003256
m š 0.0005090
m ń 0.0020534
m č 0.0021277
m z 0.0003249
m f 0.0033501
m u 0.0220228
m k 0.0007592
m d 0.0048154
m c 0.0035306
m s 0.0097812
m w 0.0022275
m ž 0.0144231
m e 0.0022412
m h 0.0116530
m r 0.0012699
m ć 0.0067746
m b 0.0123077
m m 0.8739687
u ń 0.0102669
u y 0.0735917
u j 0.0381005
u š 0.0005090
u ě 0.0050201
u a 0.0582914
u t 0.0001074
u NULL 0.0415943
u ó 0.0376897
u p 0.0003001
u i 0.0082656
u n 0.0018280
u ć 0.0003305
u m 0.0029894
u b 0.0002564
u o 0.0203301
u h 0.0057546
u d 0.0020332
u e 0.0174317
u s 0.0000858
u w 0.0002784
u u 0.7263810
u ź 0.0132841
u k 0.0008541
k n 0.0075730
k p 0.0010003
k ł 0.0018959
k l 0.0082403
k a 0.0000724
k t 0.0059095
k NULL 0.0259622
k š 0.0106897
k y 0.0035819
k j 0.0028713
k z 0.0051990
k č 0.0319149
k ń 0.0082136
k k 0.8291896
k ž 0.0144231
k s 0.0062634
k w 0.0021162
k d 0.0033173
k c 0.0600208
k r 0.0067728
k h 0.0096389
k g 0.0275735
k ć 0.0029742
k m 0.0014349
k b 0.0007692
k o 0.0007408
ź n 0.0006267
ź NULL 0.0031996
ź a 0.0000362
ź t 0.0032234
ź l 0.0006867
ź ł 0.0016853
ź p 0.0016005
ź j 0.0056322
ź š 0.0012726
ź č 0.0031915
ź ń 0.0184805
ź z 0.0024370
ź k 0.0002847
ź ź 0.7808118
ź c 0.0035306
ź d 0.1936865
ź w 0.0000557
ź s 0.0012870
ź ž 0.0065559
ź h 0.0024457
ź r 0.0013546
ź b 0.0002564
ź m 0.0001196
ź ć 0.0023133
s p 0.0081024
s l 0.0063519
s ł 0.0014746
s ó 0.0004895
s a 0.0002171
s t 0.0122488
s NULL 0.0159978
s n 0.0012012
s i 0.0002688
s z 0.0190089
s č 0.0109929
s ř 0.0042834
s š 0.0977348
s y 0.0009769
s j 0.0009387
s ž 0.0192308
s e 0.0003735
s s 0.8582583
s w 0.0057916
s c 0.0037383
s d 0.0035313
s k 0.0035111
s u 0.0005552
s m 0.0031089
s b 0.0043590
s o 0.0008231
s ć 0.0080965
s r 0.0097359
s h 0.0012948
w ć 0.0079313
w m 0.0050221
w o 0.0000823
w b 0.0261538
w h 0.0046037
w r 0.0138842
w d 0.0090958
w c 0.0107996
w ž 0.0043706
w e 0.0002075
w w 0.8398953
w s 0.0104676
w u 0.0001851
w ź 0.0103321
w k 0.0101537
w č 0.0117021
w z 0.0292445
w f 0.0033501
w y 0.0008141
w j 0.0080066
w š 0.0040723
w t 0.0009670
w NULL 0.0653625
w p 0.0179054
w ł 0.0050558
w l 0.0106438
w i 0.0000672
w n 0.0110200
e s 0.0006006
e e 0.5989458
e ó 0.0166422
e c 0.0004154
e NULL 0.0281561
e t 0.0002149
e a 0.0612223
e k 0.0005694
e u 0.0436754
e i 0.0776830
e b 0.0015385
e o 0.0321412
e m 0.0015545
e ř 0.0013180
e ě 0.0507028
e j 0.0000552
e y 0.2163790
e h 0.0011509
ž k 0.0005694
ž ź 0.0040590
ž d 0.0046014
ž c 0.0049844
ž w 0.0004455
ž ž 0.7552448
ž h 0.0011509
ž r 0.0004233
ž ć 0.0004957
ž m 0.0004783
ž n 0.0003134
ž NULL 0.0030167
ž a 0.0000362
ž t 0.0005372
ž ł 0.0002107
ž l 0.0013734
ž p 0.0004001
ž j 0.0011596
ž š 0.0045813
ž ń 0.0082136
ž č 0.0053191
ž z 0.0060114
ž f 0.0016750
d h 0.0138110
d r 0.0026244
d b 0.0056410
d m 0.0037068
d ć 0.0046266
d g 0.0036765
d k 0.0025622
d c 0.0004154
d d 0.6696629
d s 0.0064350
d w 0.0077407
d ž 0.0113636
d e 0.0000830
d j 0.0001104
d š 0.0020361
d č 0.0265957
d ř 0.0009885
d z 0.0061738
d n 0.0040215
d ó 0.0220264
d NULL 0.0043880
d t 0.0098850
d a 0.0025328
d ł 0.0014746
d l 0.0072103
d p 0.0118035
c w 0.0042880
c s 0.0066924
c ž 0.0327797
c c 0.8168224
c d 0.0056715
c k 0.0321693
c ź 0.0003690
c g 0.0018382
c o 0.0004115
c b 0.0056410
c m 0.0019132
c ć 0.0062789
c r 0.0056722
c h 0.0033089
c ł 0.0046345
c l 0.0118455
c p 0.0014004
c NULL 0.0183746
c a 0.0001086
c t 0.0075212
c n 0.0049616
c z 0.0082859
c ń 0.0287474
c č 0.7248227
c š 0.0170527
c j 0.0036444
c y 0.0003256
