
\data\
ngram 1=36
ngram 2=864
ngram 3=5588
ngram 4=14915
ngram 5=23365

\1-grams:
-0.9939447	</s>
-99	<s>	-2.80852
-99	<unk>
-1.093517	a	-0.9694209
-1.903462	b	-0.6546981
-1.653612	c	-0.798829
-1.650797	d	-0.666786
-1.204492	e	-0.8522075
-2.691116	f	-0.4851043
-1.794045	g	-0.7088235
-2.090368	h	-0.3027507
-1.392451	i	-0.8529825
-1.252129	j	-0.6170199
-1.513108	k	-0.8221161
-1.734985	l	-0.7299438
-1.584029	m	-0.6916329
-1.247151	n	-0.8290946
-1.131118	o	-0.9023006
-1.524071	p	-0.755499
-1.469936	r	-0.7102916
-1.453938	s	-0.811615
-1.559789	t	-0.7497816
-1.425807	u	-0.7761873
-1.274107	w	-0.6729603
-1.69381	y	-0.6890942
-1.733539	z	-0.6243364
-1.712532	ó	-0.4704572
-2.325956	ć	-0.4515518
-1.720659	ě	-0.5906061
-1.821814	ł	-0.6388537
-2.291999	ń	-0.488782
-2.639309	ŕ	-0.394611
-1.640765	ś	-0.6557413
-1.922457	š	-0.72212
-2.116082	ź	-0.6945463
-2.216843	ž	-0.5807685

\2-grams:
-1.938615	<s> a	-1.200131
-1.704601	<s> b	-1.547092
-1.573092	<s> c	-1.687034
-1.312869	<s> d	-1.888743
-2.321908	<s> e	-0.9995428
-2.091819	<s> f	-1.372785
-1.469103	<s> g	-1.720023
-2.286883	<s> h	-1.193498
-2.044189	<s> i	-1.424677
-1.873278	<s> j	-1.587471
-1.287805	<s> k	-1.762657
-1.897448	<s> l	-1.623238
-1.433591	<s> m	-1.677561
-1.044175	<s> n	-1.885136
-2.523457	<s> o	-0.9552034
-0.7568587	<s> p	-2.267153
-1.437031	<s> r	-1.911661
-1.099569	<s> s	-1.887779
-1.584425	<s> t	-1.618516
-3.438118	<s> u	-0.329412
-0.7455686	<s> w	-2.241516
-1.041844	<s> z	-2.013953
-4.580351	<s> ć
-2.589844	<s> ł	-1.105803
-2.295223	<s> ś	-1.154285
-2.046328	<s> š	-0.9779337
-1.894912	<s> ź	-1.693286
-2.158044	<s> ž	-1.170061
-1.263093	a </s>
-1.746792	a a	-0.1338839
-1.570115	a b	-0.3221627
-1.319865	a c	-0.425572
-1.372035	a d	-0.433707
-1.908658	a e	-0.07077482
-2.392804	a f	-0.1055928
-1.536051	a g	-0.3900292
-2.698025	a h
-2.087491	a i	-0.1559097
-1.372206	a j	-0.5375295
-1.362981	a k	-0.5772154
-1.323573	a l	-0.3782946
-1.316127	a m	-0.603959
-1.258122	a n	-0.6589191
-2.002141	a o
-1.514424	a p	-0.3252789
-1.292912	a r	-0.5603309
-1.395662	a s	-0.5069127
-1.366355	a t	-0.5636576
-2.014768	a u	-0.1439973
-1.457185	a w	-0.354655
-2.221806	a y	0
-1.481688	a z	-0.3430747
-2.493106	a ó
-2.010087	a ć	-0.1309324
-1.399391	a ł	-0.5359771
-1.411201	a ń	-0.7147101
-1.435524	a ŕ	-0.9822934
-1.390374	a ś	-0.6306431
-1.467281	a š	-0.5903096
-1.549734	a ź	-0.3552226
-1.581377	a ž	-0.4327728
-1.332874	b </s>
-1.007881	b a	-0.4261285
-2.165402	b b	0
-2.046542	b c	-0.09961045
-1.992369	b d	-0.05851972
-1.28465	b e	-0.29378
-2.056168	b g	-0.06173787
-2.324701	b h	0
-1.213618	b i	-0.3264912
-1.15949	b j	-0.6242744
-1.66932	b k	-0.05637441
-1.329162	b l	-0.5303699
-2.007087	b m	-0.1052747
-1.221721	b n	-0.61375
-0.9742416	b o	-0.3321498
-1.970919	b p	-0.2841049
-1.388248	b r	-0.4631195
-1.649656	b s	-0.1632795
-1.992703	b t	0
-1.100924	b u	-0.3089152
-1.80002	b w	-0.09200114
-1.122408	b y	-0.4106833
-2.088456	b z	0
-1.481543	b ó	-0.2539823
-1.3736	b ě	-0.4938053
-1.745788	b ł	-0.3536492
-2.039464	b ś	0
-1.900637	b š	-0.07918407
-2.159667	b ź	0
-1.094591	c </s>
-1.006991	c a	-0.6255503
-2.246347	c b	-0.2291132
-1.677096	c c	-0.2929622
-0.8875412	c e	-0.5034348
-1.130096	c h	-0.560442
-1.269786	c i	-0.3235315
-1.900353	c j	0
-1.359941	c k	-0.5795299
-1.791156	c l	-0.1410605
-2.051572	c m	-0.1216711
-1.283728	c n	-0.6639166
-0.9581875	c o	-0.5550652
-1.994624	c r	0
-2.083599	c s
-2.152404	c t
-1.180326	c u	-0.4618837
-1.879657	c w	-0.3232444
-0.9932247	c y	-0.6267163
-1.647615	c ć	-0.6912211
-1.605833	c ě	-0.6912212
-1.943493	c ł	-0.2005557
-2.200971	c ś
-1.273133	d </s>
-1.01093	d a	-0.7036993
-2.185557	d b	0
-2.0128	d c	-0.07054269
-2.063187	d d	0
-1.11976	d e	-0.3112504
-1.892343	d g	-0.15177
-1.39576	d i	-0.3138048
-1.770053	d j	0
-1.472885	d k	-0.3141734
-1.312333	d l	-0.5787168
-2.024761	d m	-0.08212696
-1.15356	d n	-0.7808863
-1.017392	d o	-0.417493
-1.801446	d p	-0.1753188
-1.184926	d r	-0.4568368
-1.588799	d s	-0.1569849
-2.010195	d t	0
-1.209855	d u	-0.3820586
-1.52783	d w	-0.1990336
-1.271365	d y	-0.4148145
-2.050329	d z	-0.04686521
-2.096466	d ó	-0.08696009
-1.573088	d ě	-0.4475118
-1.36079	d ł	-0.5030241
-2.113918	d ś
-1.68242	d š	-0.2221212
-1.479844	d ź	-0.340919
-2.289017	d ž	-0.1572391
-1.134581	e </s>
-1.669308	e a	-0.07686492
-1.618116	e b	-0.08531654
-1.423515	e c	-0.4797618
-1.423281	e d	-0.1535428
-1.855219	e e	-0.06509818
-1.892123	e f	-0.1582617
-1.308871	e g	-0.3442379
-2.056858	e h	-0.3034402
-1.802016	e i	-0.1505793
-1.174142	e j	-0.4838878
-1.358463	e k	-0.3111727
-1.245749	e l	-0.4206989
-1.318229	e m	-0.443702
-1.206523	e n	-0.3876214
-1.688798	e o	-0.1352378
-1.537707	e p	-0.2052776
-1.194738	e r	-0.5485232
-1.32895	e s	-0.3538461
-1.316333	e t	-0.478629
-1.693434	e u	-0.2439874
-1.525584	e w	-0.2487801
-2.358802	e y
-1.490985	e z	-0.2318866
-2.658297	e ć
-1.708771	e ł	-0.4146464
-1.593361	e ń	-0.5714018
-2.099416	e ŕ	-0.09331594
-1.636383	e ś	-0.2635085
-1.619472	e š	-0.2062327
-2.203684	e ź	-0.06706995
-1.737823	e ž	-0.2035654
-1.069894	f a	-0.05022526
-0.8671376	f e	-0.3202309
-1.768059	f g
-0.8312761	f i	-0.2339955
-1.52124	f j	0
-1.66072	f k
-1.338144	f l	-0.1772738
-0.9183576	f o	-0.2365571
-1.052043	f r	-0.2125621
-1.632513	f s
-1.595813	f t	0
-1.148588	f u	-0.1544196
-1.638882	f y	0
-1.744088	f ě	0
-1.347665	g </s>
-1.047559	g a	-0.456041
-2.203753	g b	0
-1.763032	g d	-0.2367508
-1.131486	g e	-0.3157445
-2.157708	g g
-1.120983	g i	-0.3433149
-1.789875	g j	0
-1.078	g l	-0.5031157
-1.983927	g m	0
-1.103292	g n	-0.6092025
-1.05394	g o	-0.2286403
-1.953453	g p	-0.2841049
-1.09426	g r	-0.5979216
-1.971107	g s
-2.036166	g t
-1.124356	g u	-0.3049791
-1.804574	g w	0
-2.034375	g y	0
-1.017971	g ó	-0.5390104
-1.779685	g ě	-0.2044738
-1.2805	g ł	-0.3875786
-2.274904	g ź
-1.14561	h </s>
-1.213485	h a	-0.08100805
-1.283061	h e	-0.0601846
-1.613566	h g
-1.690606	h h	-0.2841049
-1.385244	h i	-0.1197916
-1.567339	h k
-1.520279	h l	-0.04274372
-1.46864	h m	0
-1.351304	h n	-0.04719011
-0.9414214	h o	-0.1338148
-1.421475	h r	-0.1463987
-1.59306	h t	0
-0.9386725	h u	-0.09040956
-1.416871	h w	0
-1.578005	h y	-0.04218873
-1.513335	h ó	-0.1048358
-1.672122	h ě
-1.714294	h ł	0
-1.634716	h ś
-1.750706	h š	0
-1.829066	h ž	0
-1.205861	i </s>
-1.465851	i a	-0.1358281
-1.654859	i b	-0.2324648
-1.360502	i c	-0.4545201
-1.474033	i d	-0.3318585
-1.499502	i e	-0.3550685
-1.740903	i f	-0.3365197
-1.453421	i g	-0.1910578
-2.566917	i h
-2.139408	i i
-1.252785	i j	-0.692209
-1.34881	i k	-0.3697704
-1.274748	i l	-0.3535072
-1.246377	i m	-0.4892557
-1.180355	i n	-0.5369424
-1.44631	i o	-0.1905463
-1.609362	i p	-0.1148199
-1.55826	i r	-0.1049071
-1.276077	i s	-0.4411231
-1.264381	i t	-0.3433498
-1.590933	i u	-0.6119148
-1.367296	i w	-0.3869767
-2.299662	i y
-1.515489	i z	-0.4259194
-2.460869	i ć	-0.3232444
-2.314655	i ě	-0.2841049
-1.522326	i ł	-0.7724909
-2.454161	i ń	-0.2072982
-1.385291	i ś	-0.5695583
-1.567218	i š	-0.3081986
-1.942728	i ź	-0.1463999
-2.061744	i ž	-0.2009651
-1.245347	j </s>
-0.9186358	j a	-0.6163347
-2.119193	j b	0
-1.781311	j c	-0.2134144
-1.660117	j d	-0.1637506
-0.9154082	j e	-0.4092888
-2.143275	j g	0
-2.278138	j h
-1.375392	j i	-0.2742925
-1.742338	j j	0
-1.534971	j k	-0.3036498
-1.806053	j l	-0.08403672
-1.551917	j m	-0.1564276
-1.450541	j n	-0.4343948
-1.009548	j o	-0.5888479
-1.977358	j p	0
-1.893852	j r	-0.1596252
-1.449173	j s	-0.1526148
-1.546361	j t	-0.2404598
-1.105433	j u	-0.3695316
-1.619203	j w	-0.07466932
-2.086322	j y
-2.043621	j z	-0.03091372
-2.097389	j ó
-2.242329	j ć
-1.277237	j ě	-0.3394429
-2.084926	j ł	-0.06288987
-1.314681	j ś	-0.4034612
-1.713053	j š	-0.255294
-1.736999	j ź	-0.3136563
-2.218294	j ž	0
-1.026135	k </s>
-1.009411	k a	-0.661359
-1.682004	k c	-0.3616638
-1.147355	k e	-0.4493169
-2.612391	k f
-2.341547	k g
-1.037093	k i	-0.5750241
-1.719982	k j	-0.3027884
-2.07457	k k
-1.32304	k l	-0.5931534
-2.112045	k m	-0.1124921
-1.302167	k n	-0.5261713
-0.9843259	k o	-0.5808337
-2.127105	k p	0
-1.402063	k r	-0.3902394
-1.582334	k s	-0.1981799
-1.665482	k t	-0.2610232
-1.039232	k u	-0.5999759
-1.490914	k w	-0.3110855
-2.164355	k y	-0.1134532
-2.308351	k z
-1.426695	k ó	-0.2872915
-1.996561	k ě	-0.2044738
-1.523431	k ł	-0.5659216
-2.53709	k ń
-1.679912	k ś	-0.3510349
-1.400868	k š	-0.4712641
-1.236578	l </s>
-0.9422741	l a	-0.589077
-1.699381	l b	-0.1414429
-1.661745	l c	-0.21551
-2.103508	l d	0
-0.9903531	l e	-0.5056748
-2.387528	l f	0
-2.109468	l g	-0.07789062
-0.9221968	l i	-0.5690224
-1.55813	l k	-0.3601623
-1.9031	l l	-0.04299973
-2.066969	l m	-0.08096048
-1.386451	l n	-0.6047952
-0.9470354	l o	-0.4770686
-2.032009	l p
-1.616125	l s	-0.1822857
-1.847612	l t	-0.1549277
-1.030067	l u	-0.4255693
-1.899929	l w	0
-1.891413	l y	0
-2.14524	l z
-2.337524	l ć	-0.2841049
-1.026135	l ě	-0.4034255
-1.753941	l ś	-0.377603
-1.807162	l š	-0.0859376
-2.207247	l ź
-2.418562	l ž	0
-1.086239	m </s>
-1.021567	m a	-0.4111049
-1.930694	m b	-0.1419142
-1.863095	m c	-0.2944343
-2.080311	m d	-0.2841049
-1.130382	m e	-0.3882406
-2.266141	m h
-1.282228	m i	-0.2767658
-1.112979	m j	-0.7515893
-1.95534	m k	-0.1164433
-1.88826	m l	-0.1066184
-1.724956	m m	-0.3116576
-1.329842	m n	-0.532504
-1.14233	m o	-0.415793
-1.620314	m p	-0.3027289
-1.68971	m r	-0.3901912
-1.53187	m s	-0.2042801
-2.079657	m t	0
-1.161186	m u	-0.3276686
-1.83603	m w
-1.104998	m y	-0.4081082
-1.319524	m ó	-0.3951799
-1.185528	m ě	-0.4946523
-2.101942	m ł	-0.2005557
-2.074797	m ś
-1.692137	m š	-0.1192086
-2.368947	m ź	0
-1.981949	m ž	-0.3071629
-1.355097	n </s>
-1.00623	n a	-0.6888312
-2.26687	n b	0
-1.641624	n c	-0.3150203
-1.783707	n d	-0.1376569
-0.990249	n e	-0.7497956
-2.413429	n f	-0.1033889
-1.727715	n g	-0.1570117
-2.494598	n h
-1.018525	n i	-0.7945568
-1.022645	n j	-0.9818324
-1.516128	n k	-0.2813154
-2.201593	n l	-0.1541094
-2.232053	n m
-1.98347	n n	0
-1.010619	n o	-0.643561
-2.19162	n p
-1.929004	n r	0
-1.736264	n s	-0.1698258
-1.571677	n t	-0.3515087
-1.035338	n u	-0.5640948
-1.748783	n w	-0.08100465
-1.063335	n y	-0.8024333
-2.022712	n z
-1.349531	n ě	-0.2443098
-2.210624	n ś	-0.1481932
-2.423654	n š
-2.103064	n ź	-0.2019161
-2.350896	n ž	-0.03185168
-1.172528	o </s>
-1.728508	o a	-0.03490111
-1.404729	o b	-0.2277746
-1.438654	o c	-0.428332
-1.391325	o d	-0.4236802
-1.844043	o e	-0.08073708
-2.053399	o f	-0.1168634
-1.423198	o g	-0.5326622
-2.265226	o h	-0.2065301
-2.162326	o i
-1.291695	o j	-0.5129135
-1.380302	o k	-0.4648955
-1.39663	o l	-0.3633988
-1.306012	o m	-0.4983149
-1.256941	o n	-0.4660558
-1.657125	o o	-0.1817243
-1.403684	o p	-0.3487996
-1.297481	o r	-0.3988181
-1.353533	o s	-0.3772008
-1.286469	o t	-0.3887734
-2.153489	o u	-0.1617783
-1.244098	o w	-0.5944151
-1.87909	o y	-0.0464266
-1.559053	o z	-0.0837149
-2.427913	o ó
-2.327205	o ě	-0.1523242
-1.565799	o ł	-0.1285201
-1.946346	o ń	-0.3195987
-2.16828	o ŕ	-0.3071629
-1.413506	o ś	-0.3683649
-1.572083	o š	-0.3256252
-1.580903	o ź	-0.3746729
-1.550719	o ž	-0.283902
-1.277545	p </s>
-1.124984	p a	-0.4545482
-1.761468	p c	-0.1127887
-2.179175	p d
-1.230116	p e	-0.2460477
-2.258292	p g
-1.141114	p i	-0.4783361
-1.178157	p j	-0.6731483
-1.725646	p k	-0.3473956
-1.469869	p l	-0.4707319
-2.138371	p m	0
-1.495111	p n	-0.2362995
-1.061735	p o	-0.4677235
-1.842729	p p	-0.1119719
-1.235341	p r	-0.465473
-1.621507	p s	-0.1843058
-1.570569	p t	-0.2322586
-1.263677	p u	-0.3295152
-1.288552	p y	-0.458953
-1.327928	p ó	-0.4097877
-1.468482	p ě	-0.228935
-1.537624	p ł	-0.3605632
-1.250036	p ś	-0.4800289
-1.301005	p š	-0.4290141
-1.338979	r </s>
-1.048725	r a	-0.4811835
-1.858898	r b	-0.171229
-1.637188	r c	-0.2785646
-1.636659	r d	-0.1553109
-1.125777	r e	-0.4183496
-2.447346	r f	0
-1.837549	r g	-0.09688846
-2.411911	r h
-1.174459	r i	-0.4546265
-1.133173	r j	-0.748881
-1.547095	r k	-0.3515721
-1.945798	r l	-0.2259264
-1.561106	r m	-0.2375845
-1.526353	r n	-0.4130856
-1.055103	r o	-0.6090893
-2.045628	r p	0
-1.744514	r r
-1.592054	r s	-0.2584108
-1.61797	r t	-0.3331905
-1.178263	r u	-0.3096103
-1.662118	r w	-0.1899229
-1.20088	r y	-0.3105501
-2.114738	r z	0
-1.72479	r ó	-0.1020932
-1.132411	r ě	-0.4446133
-2.281679	r ł	0
-1.634749	r ś	-0.298991
-1.862178	r š	-0.1352135
-2.254079	r ź	-0.1404949
-2.360937	r ž	-0.02267775
-1.21113	s </s>
-1.16252	s a	-0.433223
-2.234997	s b	-0.04971927
-1.548232	s c	-0.3607827
-2.249113	s d	0
-1.158179	s e	-0.3217427
-2.475854	s f	-0.1539758
-2.331046	s g
-1.380769	s i	-0.32327
-1.965708	s j
-1.050376	s k	-0.5811567
-1.505707	s l	-0.3965363
-1.489581	s m	-0.3409629
-1.291665	s n	-0.6308249
-1.106568	s o	-0.4647664
-1.328161	s p	-0.4135914
-1.792736	s r	-0.2240873
-1.78748	s s	-0.1375339
-1.052735	s t	-0.6645283
-1.350202	s u	-0.2949235
-1.360801	s w	-0.387235
-1.414703	s y	-0.3049985
-2.29785	s z	0
-2.162086	s ó	-0.3232444
-1.402443	s ć	-0.5850647
-1.681609	s ě	-0.4481831
-1.385264	s ł	-0.5427847
-1.2407	t </s>
-1.124756	t a	-0.7024643
-2.352638	t b	0
-1.941375	t c	-0.1505206
-2.208066	t d	0
-1.048044	t e	-0.5886823
-2.464185	t f	-0.2841049
-2.166992	t g	-0.11616
-2.048655	t h	-0.06881389
-1.299614	t i	-0.3037205
-1.885131	t j	0
-1.383809	t k	-0.4208288
-1.748057	t l	-0.2949049
-1.91608	t m	-0.06454137
-1.305563	t n	-0.8212925
-0.990504	t o	-0.4337896
-2.03283	t p	-0.02256649
-1.251209	t r	-0.6536757
-1.681038	t s	-0.1823631
-1.797406	t t	-0.1141318
-1.171592	t u	-0.3580061
-1.280496	t w	-0.4499463
-1.105286	t y	-0.5780753
-2.196691	t z	0
-2.246673	t ó
-1.447297	t ě	-0.8875158
-1.554281	t ł	-0.3356894
-1.533216	t ś	-0.2101509
-1.462876	t š	-0.4378079
-2.274825	t ź	-0.1931929
-2.481799	t ž	0
-1.044452	u </s>
-1.536976	u a	-0.3839137
-1.346888	u b	-0.3189319
-1.304035	u c	-0.3715178
-1.36051	u d	-0.3338262
-1.858868	u e	-0.1111829
-2.526671	u f	0
-1.614177	u g	-0.1642237
-1.992806	u i
-1.098961	u j	-0.6958593
-1.3772	u k	-0.244568
-1.309626	u l	-0.3014419
-1.418584	u m	-0.2483648
-1.306837	u n	-0.2083644
-1.823555	u o
-1.44673	u p	-0.2466463
-1.262398	u r	-0.2360375
-1.260709	u s	-0.4261766
-1.382653	u t	-0.2295421
-2.049946	u u
-1.474074	u w	-0.2138258
-2.276594	u y
-1.556677	u z	-0.2804777
-2.57003	u ć
-2.182415	u ě	-0.3232444
-2.228527	u ł	-0.04424905
-2.372668	u ń	0
-2.42376	u ŕ
-1.424711	u ś	-0.4022181
-1.44634	u š	-0.3211628
-1.455168	u ź	-0.4955553
-1.707772	u ž	-0.227016
-1.579162	w </s>
-0.9821623	w a	-0.5618205
-2.270883	w b
-1.858098	w c	-0.1613969
-2.019266	w d	-0.0946601
-1.080837	w e	-0.4019327
-2.144974	w g
-1.082564	w i	-0.4759368
-1.065665	w j	-0.7756679
-1.699094	w k	-0.4024256
-1.884093	w l	-0.2207744
-2.032283	w m
-1.414702	w n	-0.2921239
-1.046792	w o	-0.4071178
-2.042861	w p
-1.68455	w r	-0.1426774
-1.950154	w s	-0.03879157
-1.971743	w t	0
-1.134346	w u	-0.381075
-1.822574	w w
-1.404265	w y	-0.2926229
-1.584043	w z	-0.1776944
-1.185657	w ó	-0.3494007
-2.234815	w ć	-0.06320794
-1.083788	w ě	-0.4474825
-2.095741	w ł	-0.3232444
-2.315692	w ń	-0.2841049
-2.014261	w ś	-0.2015117
-1.691509	w š	-0.3120225
-2.269592	w ź	-0.0713573
-1.010995	y </s>
-1.527392	y a	-0.08392361
-1.938869	y b	-0.1358345
-1.191478	y c	-0.4168923
-1.657523	y d	-0.1928831
-1.757076	y e	-0.1607477
-2.388574	y f	0
-2.096566	y g	0
-1.667935	y i	-0.08584615
-1.300454	y j	-0.3972358
-1.347804	y k	-0.4274164
-1.226706	y l	-0.2075425
-1.158811	y m	-0.4001106
-1.29931	y n	-0.51245
-1.440527	y p	-0.2282176
-1.383906	y r	-0.1305827
-1.30061	y s	-0.2243486
-1.244377	y t	-0.5020375
-1.986094	y u	0
-1.305382	y w	-0.2886834
-2.16807	y y
-1.894998	y z	-0.06867775
-2.441775	y ć
-1.478516	y ł	-0.3987581
-1.643735	y ń	-0.2282296
-2.383001	y ŕ	0
-1.323002	y ś	-0.5029768
-1.386548	y š	-0.2829111
-2.375084	y ź	0
-2.308709	y ž	-0.2841049
-1.291241	z </s>
-1.027684	z a	-0.38505
-1.522552	z b	-0.2343887
-2.066413	z c
-1.316623	z d	-0.3157938
-1.074608	z e	-0.2726107
-1.33026	z g	-0.3119286
-2.186276	z h
-1.37708	z i	-0.1661291
-1.394192	z j	-0.4096877
-1.536817	z k	-0.2184664
-1.582739	z l	-0.1360973
-1.553547	z m	-0.1943554
-1.110492	z n	-0.6717418
-1.117115	z o	-0.3752314
-1.932231	z p	-0.06973994
-1.610425	z r	-0.2469444
-1.846395	z s	0
-1.751344	z t	-0.1061673
-1.285344	z u	-0.2999279
-1.255208	z w	-0.4056646
-1.321153	z y	-0.2223337
-2.113757	z z
-2.243777	z ć	0
-1.580309	z ě	-0.1782539
-1.697797	z ł	-0.1660807
-2.344719	z ń	0
-2.211245	z š	0
-2.323256	z ž	0
-1.215123	ó </s>
-1.486293	ó a
-1.934373	ó b	0
-1.290548	ó c	-0.2140307
-1.369335	ó d	-0.1164364
-1.825151	ó g	-0.06662807
-2.091818	ó h	0
-1.719944	ó i
-1.203093	ó j	-0.1481895
-1.803243	ó k	0
-1.3831	ó l	-0.2840897
-1.848744	ó m	0
-1.429163	ó n	-0.130489
-1.48903	ó o
-1.756203	ó p	0
-1.258237	ó r	-0.2124589
-1.090182	ó s	-0.1833615
-1.210555	ó t	-0.01510495
-1.442827	ó w	-0.07445121
-1.382882	ó z	-0.08952737
-1.980999	ó ł
-1.948986	ó ń	-0.1170102
-1.98737	ó ŕ	0
-1.221891	ó ś	-0.184989
-1.513442	ó š	-0.118765
-1.534567	ó ź	-0.1207219
-1.265137	ó ž	-0.3145316
-0.8465338	ć </s>
-1.139422	ć a	-0.1600209
-0.9674661	ć e	-0.253935
-0.9999005	ć i	-0.1572997
-1.622019	ć k	0
-0.6655275	ć o	-0.3131501
-1.642607	ć t
-1.438134	ć u	-0.3071629
-1.694976	ć y
-1.705183	ć ć	-0.2841049
-1.523927	ć ě	0
-1.58283	ć ś
-1.803118	ć ź	0
-1.297831	ě </s>
-1.612678	ě a	0
-2.079278	ě b	-0.02999819
-1.444215	ě c	-0.1747149
-1.183229	ě d	-0.2834084
-1.704885	ě e
-1.335199	ě g	-0.3128533
-1.570724	ě j	-0.2114124
-1.252701	ě k	-0.3786262
-1.388271	ě l	-0.1673239
-1.876843	ě m	-0.07690483
-1.410381	ě n	-0.1248546
-1.845606	ě p	-0.07165138
-0.8740907	ě r	-0.539789
-1.291428	ě s	-0.2307691
-1.427926	ě t	-0.3198341
-1.875178	ě u
-1.582334	ě w	-0.1154807
-1.536376	ě z	-0.2930667
-2.308702	ě ć
-1.337606	ě ł	-0.2394726
-1.85958	ě ń	-0.06157707
-2.243009	ě ŕ	-0.1405347
-1.442154	ě ś	-0.2483378
-1.477205	ě š	-0.3351659
-1.301251	ě ź	-0.5175062
-1.497351	ě ž	-0.3364957
-0.9712132	ł </s>
-0.8104749	ł a	-0.3657849
-2.120847	ł b
-1.870538	ł c	-0.07054269
-1.86947	ł d	0
-0.9471431	ł e	-0.7492132
-2.076086	ł g	0
-1.752569	ł i	-0.3232444
-1.516292	ł k	-0.3448686
-1.90313	ł m	0
-1.709639	ł n	-0.02914091
-0.7741377	ł o	-0.4615132
-1.936509	ł p
-1.783846	ł s	-0.3071629
-1.891352	ł t	0
-1.072326	ł u	-0.3328738
-1.018957	ł y	-0.3999757
-1.959962	ł ó
-2.237568	ł ć
-2.042279	ł ě
-2.230999	ł ń
-2.001959	ł ś
-2.127946	ł š	0
-2.082426	ł ź	-0.1493015
-2.101974	ł ž	0
-0.7025904	ń </s>
-1.099005	ń c	-0.2812612
-1.557684	ń i
-1.445444	ń k	-0.3032339
-1.414108	ń o	0
-0.9703069	ń s	-0.2898792
-1.089629	ń t	-0.1187714
-0.8250718	ń ś	-0.6081929
-1.117533	ń š	-0.1762636
-0.6631269	ŕ </s>
-1.57512	ŕ b	0
-1.410949	ŕ c	-0.09961045
-1.355348	ŕ j
-1.069295	ŕ k	-0.225829
-1.019086	ŕ n	-0.1741736
-1.060195	ŕ s	-0.3071629
-0.9333569	ŕ ś	-0.5450931
-1.578651	ŕ š	0
-1.023908	ś </s>
-1.081389	ś a	-0.3149453
-1.890767	ś c	-0.2285258
-2.026679	ś d
-0.7835485	ś e	-0.3626318
-2.011559	ś g
-1.020107	ś i	-0.4391624
-1.831696	ś k	-0.1039056
-1.989087	ś l	-0.2841049
-1.68079	ś m	-0.1196498
-1.559041	ś n	-0.1098865
-0.795867	ś o	-0.5378989
-1.539851	ś p	-0.03532523
-1.912382	ś s	0
-1.910964	ś t
-1.228414	ś u	-0.3764493
-1.789942	ś w
-2.068148	ś z
-2.057993	ś ó
-1.632953	ś ć	-0.2735701
-1.116658	ś ě	-0.3498417
-2.103551	ś ź	-0.2841049
-1.392091	š </s>
-0.9831328	š a	-0.3638048
-1.819259	š c	-0.300449
-2.059206	š d	0
-0.9759492	š e	-0.538347
-1.53767	š i	-0.1469731
-1.197899	š k	-0.4338316
-1.840369	š l	-0.1379256
-1.580777	š m	-0.4481831
-1.236915	š n	-0.6444777
-1.086362	š o	-0.3511128
-1.941453	š p	-0.1505402
-1.962001	š r
-1.280287	š t	-0.3384323
-1.068428	š u	-0.3451434
-1.676978	š w	-0.09999143
-0.9460198	š y	-0.5577465
-2.160131	š ó
-1.047852	š ć	-0.5698737
-2.027896	š ě	0
-1.859819	š ł	-0.2349284
-1.031836	ź </s>
-0.8749197	ź a	-0.4039927
-1.669681	ź b	-0.08327202
-1.996978	ź c	0
-0.805516	ź e	-0.6191747
-0.9021498	ź i	-0.6230505
-1.928732	ź k
-1.964598	ź m
-1.669991	ź n	-0.1282947
-0.9778192	ź o	-0.5559764
-1.096785	ź u	-0.4109783
-1.927251	ź y
-1.933635	ź ó
-1.331507	ź ć	-0.6912211
-1.117547	ź ě	-0.3989654
-1.991209	ź ś
-0.9082133	ž </s>
-1.026508	ž a	-0.3246101
-1.694897	ž b	-0.2928291
-1.831544	ž c	-0.112023
-1.511781	ž d	-0.1149113
-1.049123	ž e	-0.4671818
-2.146568	ž h
-1.361059	ž i	-0.06716964
-1.187318	ž k	-0.5193672
-1.929471	ž l	0
-1.860994	ž m
-1.144049	ž n	-0.5662824
-1.074053	ž o	-0.4004036
-1.890809	ž p
-1.800573	ž r	-0.1577973
-1.126337	ž u	-0.414853
-1.640602	ž w	-0.1505882
-1.064376	ž y	-0.4819775
-1.995978	ž ó
-1.582548	ž ć	-0.5450931
-1.659463	ž ě	-0.09891477

\3-grams:
-1.367538	<s> a b	-0.4564128
-1.903886	<s> a c	-0.1414575
-1.16947	<s> a d	-0.574438
-2.354437	<s> a f
-1.780313	<s> a g	-0.2498711
-0.5497001	<s> a k	-1.173754
-1.509059	<s> a l	-0.2684464
-1.240508	<s> a m	-0.4343611
-0.8882651	<s> a n	-0.6083505
-2.214981	<s> a p
-1.075209	<s> a r	-0.5631024
-1.834489	<s> a s	-0.1312096
-1.696652	<s> a t	-0.6977739
-2.320953	<s> a u
-0.7237517	<s> a w	-0.9846185
-2.143263	<s> a y	-0.3967439
-2.33527	<s> a z	-0.2341182
-0.6930765	a a </s>
-0.936261	a a a	-0.1321561
-1.426796	a a r	0
-0.9232714	b a </s>
-1.38333	b a c	-0.3967439
-1.39953	b a d	-0.06580366
-1.59771	b a g	-0.08969923
-1.294832	b a j	-0.1394225
-1.646767	b a k
-1.28296	b a l	-0.1846076
-0.9718292	b a m	-0.5051105
-1.265341	b a n	-0.1714213
-0.9688231	b a r	-0.2380574
-1.547357	b a s	-0.1017118
-1.535503	b a t	-0.04514815
-1.694827	b a w
-1.907816	b a z	0
-1.14425	b a ł	-0.2616285
-1.417484	b a ŕ	-0.1343057
-1.142837	b a ś	-0.2468556
-1.699675	b a š	0
-0.835947	c a </s>
-1.818831	c a b	-0.1352569
-1.022342	c a c	-0.7946839
-1.997585	c a d	0
-1.734028	c a j	0
-1.129418	c a k	-0.4246673
-0.8398983	c a m	-0.6419184
-1.327702	c a n	-0.0952754
-1.251598	c a r	-0.1465022
-1.133309	c a s	-0.2153521
-1.731182	c a t
-1.358596	c a ł	-0.1562633
-1.031178	c a ń	-0.5386384
-1.478582	c a ŕ	-0.08383636
-1.467651	c a ś	-0.3967439
-1.642532	c a š	-0.1347014
-1.02857	d a </s>
-1.382815	d a c	-0.5728351
-2.23975	d a g	0
-1.038098	d a j	-0.4584592
-1.584015	d a k	-0.05530653
-1.108765	d a l	-0.2500617
-1.382088	d a m	-0.3901065
-0.9652233	d a n	-0.4202331
-1.19498	d a r	-0.2227193
-1.258049	d a t	-0.2674409
-1.120683	d a w	-0.4348944
-1.159443	d a ł	-0.6075972
-1.399076	d a ń	-0.107076
-1.266483	d a ŕ	-0.2799048
-1.11514	d a ś	-0.5480116
-1.76422	d a š	-0.0817375
-1.612916	e a g	0
-1.039358	e a k	-0.1396835
-1.029204	e a l	0
-1.027208	e a m	-0.1360453
-1.44322	e a t	0
-1.53405	e a w	0
-0.9890653	f a </s>
-1.62034	f a b	0
-1.370091	f a c	0
-1.413206	f a k	0
-1.366352	f a m	0
-0.9972017	f a r	0
-1.445888	f a s	0
-1.50741	f a w	0
-1.517506	f a š	0
-1.058729	g a </s>
-1.60638	g a b	-0.1334164
-1.197068	g a c	-0.3439471
-1.651634	g a d	-0.07135685
-1.075738	g a j	-0.3356054
-1.12843	g a l	-0.4118061
-1.196285	g a m	-0.2089245
-1.0065	g a n	-0.190419
-1.2726	g a r	-0.09410181
-1.546161	g a s	-0.06219828
-1.395774	g a t	-0.06348127
-1.694412	g a w
-1.079439	g a ł	-0.2935157
-1.40858	g a ń	-0.2341182
-1.561329	g a ŕ	-0.1343057
-1.139503	g a ś	-0.1414032
-2.005775	g a ź	0
-1.749366	g a ž	0
-1.218993	h a c	0
-1.453043	h a d	0
-1.095083	h a j	-0.05000413
-1.443989	h a k	0
-1.220513	h a l	0
-1.217452	h a m	0
-1.192537	h a n	0
-1.207708	h a r	0
-1.480399	h a ł	0
-1.492209	h a ń	0
-1.516532	h a ŕ	0
-1.471382	h a ś	0
-1.273689	h a š	0
-1.630742	h a ź	0
-1.671879	i a g	0
-0.8759503	i a l	-0.1550803
-0.7447925	i a n	-0.03942865
-1.502183	i a t	0
-1.229106	i a ń	-0.2341182
-1.209027	j a </s>
-2.003459	j a b	0
-1.145296	j a c	-0.2651281
-1.224059	j a d	-0.2955405
-1.98708	j a g	-0.1629394
-1.311905	j a j	-0.2560482
-1.310498	j a k	-0.1979119
-1.354849	j a l	-0.5209506
-1.302949	j a m	-0.339291
-1.171525	j a n	-0.260435
-1.856417	j a p	0
-1.110348	j a r	-0.2470016
-1.367427	j a s	-0.1280496
-1.420965	j a t	-0.1416685
-1.696132	j a w	-0.03197984
-1.597514	j a z	-0.01714948
-1.269373	j a ł	-0.4944306
-1.270876	j a ń	-0.4584641
-1.320904	j a ŕ	-0.3581078
-1.188057	j a ś	-0.5728351
-1.277541	j a š	-0.3721558
-2.166069	j a ź	0
-2.008728	j a ž	0
-0.9082412	k a </s>
-2.044968	k a b	0
-0.9496241	k a c	-0.4372729
-3.054163	k a f	0
-1.183434	k a j	-0.4063428
-1.938076	k a k	-0.1830647
-1.447257	k a l	-0.3066313
-0.9300938	k a m	-0.6864485
-1.139053	k a n	-0.198889
-1.895681	k a p	0
-1.287825	k a r	-0.2453447
-1.956572	k a s
-1.256232	k a t	-0.2477374
-1.873725	k a w	-0.06428964
-1.359581	k a z	-0.3073553
-1.302346	k a ł	-0.3000318
-1.533474	k a ń	-0.3167897
-1.263892	k a ŕ	-0.3727626
-1.259016	k a ś	-0.5017694
-1.736274	k a š	-0.07155028
-1.765776	k a ž	-0.06246328
-0.9947221	l a </s>
-1.91388	l a b
-1.03066	l a c	-0.2155041
-1.707037	l a d	0
-1.776875	l a g	-0.1307278
-1.484309	l a j	-0.07125915
-1.278008	l a k	-0.1756074
-1.683476	l a l	-0.2718052
-1.030239	l a m	-0.4029467
-1.088187	l a n	-0.08944707
-1.626736	l a p	-0.1397898
-1.170456	l a r	-0.1292626
-1.410298	l a s	-0.1104546
-1.482647	l a t	-0.1169199
-2.603845	l a u	0
-1.506694	l a w	-0.1134771
-2.1176	l a y
-1.869018	l a z	0
-1.719742	l a ł	-0.1216948
-1.413759	l a ń	-0.3167897
-1.418986	l a ŕ	-0.2249922
-1.489368	l a ś	-0.339452
-1.355346	l a š	-0.1367726
-1.903939	l a ź
-1.255241	l a ž	-0.1874564
-1.00984	m a </s>
-1.248859	m a c	-0.1917543
-1.63335	m a d	0
-1.82393	m a g	-0.1282247
-2.013512	m a i	-0.2341182
-1.40748	m a j	-0.2111207
-1.325153	m a k	-0.04633621
-1.141752	m a l	-0.1749966
-1.095303	m a m	-0.3526926
-1.17932	m a n	-0.1072876
-1.693505	m a p	-0.1288569
-1.013937	m a r	-0.194751
-1.413804	m a s	-0.1147833
-1.200064	m a t	-0.1431757
-1.434939	m a z	-0.3122941
-1.414787	m a ł	-0.1969954
-1.758039	m a ń
-1.661579	m a ŕ	0
-1.4124	m a ś	-0.2021511
-1.536421	m a š	-0.07433368
-1.960839	m a ź	0
-1.567322	m a ž	-0.08080813
-0.8487298	n a </s>
-2.005694	n a b	-0.0319041
-1.151162	n a c	-0.405613
-1.672227	n a d	-0.06298111
-1.722755	n a g	-0.1402
-1.317412	n a j	-0.2275847
-1.492422	n a k	-0.08163142
-1.223433	n a l	-0.252913
-1.222391	n a m	-0.2248688
-1.402011	n a n	-0.2856003
-1.451941	n a p	-0.162947
-1.219043	n a r	-0.3187689
-1.274619	n a s	-0.3031747
-1.316505	n a t	-0.1855437
-1.44277	n a w	-0.09931549
-1.707456	n a z	-0.0611879
-1.432434	n a ł	-0.3409024
-1.584924	n a ń	-0.2376084
-1.27969	n a ŕ	-0.4607702
-1.371933	n a ś	-0.1931704
-1.444462	n a š	-0.110101
-1.617037	n a ź	-0.1420204
-2.011029	n a ž	0
-0.9171296	o a l	-0.1202976
-1.351028	o a m	0
-1.516589	o a z	0
-1.300737	p a </s>
-1.317354	p a c	-0.1207874
-0.9408364	p a d	-0.5014116
-1.757009	p a g	0
-1.331348	p a j	-0.08216703
-1.247235	p a k	-0.06270893
-1.061099	p a l	-0.367535
-1.316306	p a m	0
-1.39253	p a n	-0.08968957
-1.746771	p a p	0
-1.231174	p a r	-0.08896564
-1.440177	p a s	-0.03629332
-1.247959	p a t	0
-1.919447	p a u	0
-1.600458	p a w	0
-1.338138	p a ł	-0.249871
-1.340989	p a ń	-0.2823728
-1.452195	p a ŕ	-0.1752275
-1.183377	p a ś	-0.4063988
-1.634308	p a ź	-0.2718052
-1.117791	r a </s>
-1.732514	r a b	-0.1912729
-1.156465	r a c	-0.4770269
-1.276054	r a d	-0.2872968
-2.873987	r a f	0
-1.864706	r a g	-0.04362106
-1.321541	r a j	-0.2996697
-1.370607	r a k	-0.1560062
-1.313177	r a l	-0.1653523
-1.190025	r a m	-0.2211262
-1.061046	r a n	-0.3116989
-1.856077	r a p	0
-1.752462	r a r	-0.1302554
-1.325304	r a s	-0.08945915
-1.27521	r a t	-0.157976
-1.446404	r a w	-0.03771546
-1.290621	r a z	-0.3653315
-1.279991	r a ł	-0.5543517
-1.585548	r a ń	-0.07761061
-1.510853	r a ŕ	-0.1145587
-1.32447	r a ś	-0.4625116
-1.836366	r a š	-0.01872275
-1.298167	r a ź	-0.3815251
-2.004856	r a ž	0
-0.8377817	s a </s>
-2.180015	s a a	0
-1.024552	s a c	-0.1177573
-1.496119	s a d	-0.1250911
-0.9785116	s a j	-0.326163
-1.492492	s a k	0
-1.2381	s a l	-0.0644339
-1.083903	s a m	-0.1812986
-1.319564	s a n	-0.05016673
-1.331241	s a r	-0.07953265
-1.163301	s a t	-0.2539725
-1.835587	s a u
-1.506804	s a ł	-0.1225185
-1.51129	s a ń	-0.08702597
-1.520294	s a ŕ	-0.07858887
-1.503327	s a ś	-0.2718052
-1.55844	s a ź	-0.1079261
-1.025197	t a </s>
-1.538983	t a b	-0.1066169
-1.224866	t a c	-0.44395
-1.73693	t a d
-1.142581	t a j	-0.2040286
-1.283608	t a k	-0.09200555
-1.277375	t a l	-0.2152001
-1.062954	t a m	-0.3935442
-1.169845	t a n	-0.3061457
-1.919615	t a p	0
-1.028252	t a r	-0.2195986
-1.746774	t a s	0
-1.344152	t a t	-0.1216327
-1.626051	t a w	-0.03330906
-1.34971	t a ł	-0.4253446
-1.507519	t a ń	-0.08647263
-1.148972	t a ŕ	-0.4197437
-1.348228	t a ś	-0.2120935
-1.360074	t a š	-0.1945554
-0.9703076	u a c	-0.2341182
-0.4626934	u a l	-0.2031976
-0.9582213	u a n
-0.965201	u a r	-0.1302554
-1.137172	w a </s>
-1.31954	w a b	-0.3700511
-1.186421	w a c	-0.3502968
-1.725112	w a d	-0.1816567
-1.793064	w a g	-0.1534985
-1.291696	w a j	-0.2842153
-1.720919	w a k	-0.08895528
-1.108352	w a l	-0.2414246
-1.281656	w a m	-0.4422971
-1.136408	w a n	-0.258549
-1.038426	w a r	-0.2370957
-1.605127	w a s	-0.3967439
-1.349185	w a t	-0.1126073
-2.086679	w a ć	-0.2341182
-1.155429	w a ł	-0.06562376
-1.42668	w a ń	-0.2817306
-1.431715	w a ŕ	-0.4211193
-1.353797	w a ś	-0.3559157
-1.43796	w a š	-0.1023217
-1.650308	w a ź	-0.1267111
-1.383825	w a ž	-0.2742253
-0.6562111	y a </s>
-1.113459	z a </s>
-1.649904	z a b	-0.05436521
-1.182064	z a c	-0.2485905
-1.757085	z a d	0
-1.903296	z a e	0
-1.489936	z a g	-0.1042448
-2.472541	z a i	0
-1.192427	z a j	-0.1647952
-1.670825	z a k	-0.02756558
-1.249536	z a l	-0.1564649
-0.9860792	z a m	-0.2713911
-1.400065	z a n	-0.1257661
-1.484285	z a p	-0.06883448
-1.241962	z a r	-0.1491181
-1.265813	z a s	-0.1497218
-1.439705	z a t	-0.0567383
-1.278118	z a w	-0.1349149
-1.866738	z a z	0
-1.197423	z a ł	-0.4024639
-1.454337	z a ń	-0.2376084
-1.598939	z a ŕ	-0.2718052
-1.346612	z a ś	-0.1436035
-1.85233	z a š	0
-1.769102	z a ź	-0.1185629
-1.966427	z a ž	0
-1.228799	ć a </s>
-1.253879	ć a c	-0.2341182
-1.696072	ć a g	0
-1.532227	ć a j	0
-0.9693608	ć a k	-0.06063779
-1.255453	ć a l
-1.116771	ć a m	-0.2718052
-1.226516	ć a n	-0.05216648
-1.452933	ć a r	0
-1.29044	ć a ń	-0.2341182
-1.299408	ć a ŕ	-0.05856187
-1.282507	ć a ś	-0.1138569
-1.346774	ć a ž	-0.09070403
-1.481688	ě a z	0
-0.7720873	ł a </s>
-1.757943	ł a b	-0.03679211
-1.227916	ł a c	-0.2617836
-1.550748	ł a d	-0.04912959
-1.901836	ł a g	0
-1.420968	ł a j	-0.2488405
-1.546639	ł a k	-0.1304998
-1.528208	ł a l	-0.2718052
-1.052061	ł a m	-0.2891404
-1.287764	ł a n	-0.2569147
-1.354635	ł a p	-0.1529219
-1.392798	ł a r	-0.1600462
-1.668812	ł a s	0
-1.548176	ł a t	0
-1.702239	ł a w	0
-1.596838	ł a z
-1.328197	ł a ł	-0.2740768
-1.331164	ł a ń	-0.3167897
-1.337087	ł a ŕ	-0.09077865
-1.175054	ł a ś	-0.1977099
-1.591165	ł a š	-0.1268399
-1.748432	ł a ź	0
-0.7664773	ś a </s>
-0.9406761	ś a c	-0.2647659
-1.377435	ś a d
-0.8482638	ś a m	-0.313225
-1.330436	ś a n	-0.06901012
-1.345559	ś a r	-0.2341182
-1.796633	ś a z	0
-1.242871	ś a ń	-0.08702597
-1.248956	ś a ŕ	-0.1091269
-1.411317	ś a š	-0.1202954
-0.7537107	š a </s>
-1.322098	š a c	-0.03599007
-1.593582	š a d	0
-1.232229	š a j	-0.1736072
-1.474272	š a k	-0.03978328
-1.008165	š a l	-0.2293755
-1.320914	š a m	-0.1817598
-1.123514	š a n	-0.1185378
-1.878228	š a p	0
-1.313405	š a r	-0.1771027
-1.605784	š a s	0
-1.360959	š a w	-0.05196987
-1.488685	š a ł	-0.1225185
-1.493203	š a ń	-0.08702597
-1.62564	š a ŕ	-0.1244441
-1.236297	š a ś	-0.2910165
-1.363478	š a š	-0.1164276
-1.018169	ź a </s>
-1.433728	ź a c	-0.2341182
-1.776199	ź a j	0
-1.451887	ź a k
-1.14223	ź a m	-0.1553403
-1.278735	ź a n	-0.2341182
-0.6916676	ź a r	-0.3570824
-0.8059437	ź a s	-0.2988625
-1.466415	ź a ł	-0.1216948
-1.470971	ź a ń	-0.2341182
-1.332885	ź a ŕ	-0.07858887
-1.462885	ź a ś	-0.2341182
-0.812924	ž a </s>
-1.477905	ž a b	0
-1.696645	ž a d	0
-1.860661	ž a g	0
-1.405798	ž a j	-0.2341182
-1.687591	ž a k	0
-1.252898	ž a l	-0.2718052
-1.250436	ž a m	-0.2563357
-1.082721	ž a n	-0.1127046
-0.979545	ž a r	-0.2581341
-0.9976727	ž a ł	-0.1421476
-1.421674	ž a ń	-0.2341182
-1.431151	ž a ŕ	-0.2341182
-1.273747	ž a ś	-0.2718052
-0.8399677	<s> b a	-0.791259
-1.502381	<s> b e	-0.5811999
-1.388276	<s> b i	-0.2705358
-2.047156	<s> b j	-0.5728352
-1.005737	<s> b l	-0.9046203
-0.858069	<s> b o	-0.8425113
-0.8266547	<s> b r	-0.8731591
-0.9573191	<s> b u	-0.740386
-1.202421	<s> b y	-0.6342962
-1.065284	<s> b ó	-0.6486778
-1.362228	<s> b ě	-0.4073492
-1.454936	<s> b ł	-0.572712
-1.372385	<s> b ź	-1.257082
-1.229139	a b a	-0.05133031
-1.114084	a b e	-0.05266986
-0.8337412	a b i	-0.1252822
-1.082586	a b j	-0.21667
-1.476399	a b k	-0.08182961
-1.378017	a b l	-0.1101047
-1.099095	a b n	-0.1462979
-0.9521837	a b o	-0.07145155
-1.247521	a b r	-0.1713972
-1.971819	a b s	0
-0.9939253	a b y	-0.11446
-1.568478	a b ó	-0.1263137
-1.521215	a b ě	-0.1217857
-1.657706	a b ł	-0.1180787
-2.2228	a b š	0
-0.9742416	b b o	0
-1.122408	b b y	0
-0.8587902	c b a	-0.08851515
-0.9088336	c b j	-0.2341182
-0.9261221	c b n	0
-1.203355	c b o	0
-0.8908811	c b u	-0.2341182
-0.8976622	c b y	-0.2341182
-1.3736	d b ě	0
-1.418107	e b </s>
-0.8232762	e b a	-0.01253851
-2.250718	e b b	0
-2.077685	e b d	0
-1.249095	e b i	-0.06701447
-1.100506	e b j	-0.06201717
-1.754636	e b k	0
-1.297562	e b l	0
-1.25274	e b n	-0.1509503
-1.023697	e b o	0
-2.056235	e b p	0
-1.059816	e b r	-0.05156045
-1.734972	e b s	0
-1.194511	e b u	-0.01613305
-1.885337	e b w	0
-1.298823	e b y	-0.1205384
-1.566859	e b ó	0
-1.31424	e b ě	-0.09195654
-1.007881	g b a	0
-1.285463	i b </s>
-1.124714	i b a	-0.03267654
-0.973242	i b e	-0.2341182
-1.233491	i b i	0
-1.391954	i b j	0
-0.8653653	i b l	-0.128558
-1.237279	i b n	-0.05569348
-1.006956	i b o	-0.07903685
-1.160191	i b r	0
-1.176908	i b u	0
-1.07238	i b y	-0.1190342
-1.606065	i b ě	0
-1.329162	j b l	0
-0.8012806	l b a	-0.2341182
-0.8734351	l b e	-0.2341182
-0.8580621	l b i	0
-1.363164	l b n	0
-1.149795	m b a	0
-1.426564	m b e	0
-0.8580621	m b i	0
-0.790066	m b o	0
-0.8925387	m b r	0
-1.28465	n b e	0
-0.9035634	o b a	-0.2346185
-2.393176	o b b	0
-1.731558	o b c	-0.1688482
-2.220143	o b d	0
-1.391104	o b e	-0.1489215
-2.283942	o b g	0
-2.552475	o b h	0
-1.272536	o b i	-0.08155442
-1.118937	o b j	-0.4380734
-1.897094	o b k	0
-1.53713	o b l	-0.1802361
-2.234861	o b m	0
-0.904808	o b n	-0.4002844
-0.972067	o b o	-0.07394391
-2.198693	o b p	0
-1.166222	o b r	-0.2521721
-1.796	o b s	-0.06160957
-2.220478	o b t	0
-1.163642	o b u	-0.06227677
-2.027795	o b w	0
-1.055737	o b y	-0.1669149
-1.91884	o b z	0
-1.420504	o b ě	-0.07491788
-1.973562	o b ł	0
-2.267239	o b ś	0
-2.128412	o b š	0
-2.387442	o b ź	0
-1.131992	r b </s>
-1.17911	r b a	0
-0.9450672	r b i	0
-1.093806	r b n
-0.8665137	r b o	-0.03760613
-1.820885	r b s	0
-0.9116898	r b u	0
-1.054086	r b y	-0.2341182
-2.071866	r b š	0
-1.0576	s b a	0
-0.7474804	s b u	-0.2341182
-1.172127	s b y	0
-1.007881	t b a	0
-1.122408	t b y	0
-1.3736	t b ě	0
-1.745788	t b ł	0
-1.45074	u b </s>
-0.9828925	u b a	-0.08268154
-1.426514	u b e
-0.833205	u b i	-0.2184381
-0.8243555	u b j	-0.3725317
-1.423808	u b k
-1.326385	u b l	-0.2718052
-1.392891	u b n
-1.055049	u b o	-0.1182779
-1.347322	u b r	-0.1234347
-1.577388	u b s
-1.22746	u b u	-0.1502236
-1.335263	u b y	-0.2341182
-1.470158	u b ě	-0.04904748
-2.06472	u b ł	0
-1.642079	u b š	-0.0521851
-0.8012806	y b a	0
-1.349452	y b i	0
-0.8449739	y b j	-0.2341182
-0.8293731	y b u	0
-0.7911291	z b a	-0.0974604
-1.145715	z b i	-0.1661847
-1.563551	z b l	0
-1.036336	z b o	0
-1.622637	z b r	0
-0.814925	z b u	-0.0902062
-0.974947	z b y	-0.1791287
-1.231545	z b ó	-0.1203439
-1.201244	z b ě	-0.1188394
-1.213618	ó b i	0
-1.388248	ó b r	0
-1.122408	ó b y	0
-0.8002738	ě b a
-2.086166	ě b g	0
-1.189488	ě b j	0
-1.251719	ě b n	0
-1.122408	ŕ b y	0
-1.091153	ź b a	0
-0.8445809	ź b j	-0.2341182
-1.412434	ź b l	0
-0.8595642	ź b n	-0.07532299
-1.057514	ź b o	0
-1.184196	ź b u	0
-1.20568	ź b y	0
-0.9069183	ž b a
-0.9619424	ž b j	-0.2341182
-0.9811041	ž b n	-0.1246529
-0.8930184	ž b o	-0.2341182
-0.94213	ž b u
-0.7970314	ž b y	-0.1677084
-0.8701175	<s> c a	-1.057175
-0.5522835	<s> c e	-1.202623
-0.6499334	<s> c h	-1.043367
-2.02182	<s> c i	-0.1857254
-1.105476	<s> c o	-0.5256926
-2.374276	<s> c r	-0.4936539
-1.446473	<s> c u	-0.624225
-2.266827	<s> c w	-0.5728351
-0.8451433	<s> c y	-0.9409384
-1.108693	<s> c ł	-1.639782
-1.104239	a c </s>
-1.086318	a c a	-0.1092355
-2.102668	a c c	0
-0.9700637	a c e	-0.2884366
-0.6152064	a c h	-0.5057263
-0.9877319	a c i	-0.4695409
-1.14338	a c k	-0.2480421
-1.353599	a c n	-0.253286
-1.128286	a c o	-0.1370493
-1.42981	a c u	-0.02917325
-2.305229	a c w	0
-1.083233	a c y	-0.03034322
-1.870533	a c ć	-0.2341182
-1.106602	b c a	0
-0.5115035	b c e	0
-1.229706	b c h	0
-0.2544431	c c e	-0.4936539
-1.25115	c c o	0
-0.5849306	d c e	0
-1.200638	d c h	0
-1.02873	d c o	0
-1.063767	d c y	0
-1.334882	e c </s>
-0.8218254	e c a	-0.3750464
-0.6165383	e c e	-0.4738545
-1.107829	e c h	-0.06373151
-1.402193	e c i	0
-1.57085	e c k	0
-1.252941	e c n	-0.1849644
-1.270575	e c o	-0.07011737
-1.119185	e c u	-0.493654
-2.359419	e c w	0
-0.7742355	e c y	-0.4558683
-1.295981	i c </s>
-1.035284	i c a	-0.1482669
-2.700867	i c b	0
-1.610891	i c c	-0.2718051
-1.002946	i c e	-0.3162654
-0.8264048	i c h	-0.3812193
-1.086309	i c i	-0.132866
-1.035398	i c k	-0.2862345
-1.621479	i c n	-0.04377772
-1.022852	i c o	-0.214351
-1.223383	i c u	-0.4024638
-0.9770691	i c y	-0.2252166
-1.122889	i c ě	-0.639782
-1.034744	j c </s>
-0.9955943	j c a	-0.0677308
-0.6865367	j c e	-0.2625
-1.049377	j c h	0
-1.127856	j c k	0
-1.104826	j c n	-0.2341182
-0.9718789	j c o	-0.1198398
-1.249205	k c e	0
-0.2302406	k c i	-0.2099036
-1.098894	l c </s>
-0.9337589	l c a	-0.1103084
-0.8873563	l c e	-0.2718052
-0.7720351	l c o	-0.2032222
-0.6715154	l c y	-0.1389493
-0.8923634	m c </s>
-0.7141777	m c a	-0.1711677
-0.8151219	m c e	-0.2341182
-0.8440813	m c o	-0.1198398
-0.857424	m c y	0
-1.198724	n c </s>
-0.916598	n c a	-0.02633914
-0.7817006	n c e	-0.1465534
-1.21703	n c h	0
-0.9884699	n c i	-0.1339382
-2.106176	n c l	0
-1.287907	n c n	-0.1077955
-0.8995826	n c o	-0.06374397
-1.116197	n c u	-0.09255643
-1.039848	n c y	-0.08825959
-1.395113	n c ě	-0.2341182
-1.467032	o c </s>
-0.9566756	o c a	-0.1515642
-0.8744585	o c e	-0.2607996
-0.8193192	o c h	-0.1968314
-1.55639	o c i	-0.08540939
-1.724739	o c l
-1.166082	o c n	-0.2041361
-0.7954826	o c o	-0.2746051
-1.145421	o c u	-0.2718052
-0.846205	o c y	-0.1840457
-2.075947	o c ć	0
-2.371825	o c ł	0
-0.8305108	p c e	-0.2341182
-0.9253327	p c h
-0.966156	p c i	-0.1295527
-0.861473	p c o	0
-1.106013	p c y	0
-0.9829053	r c a	-0.1104155
-0.5484626	r c e	-0.408628
-1.161583	r c h	-0.02190197
-1.06257	r c i
-2.330137	r c m	0
-0.8231909	r c o	-0.04851603
-1.098838	r c y	-0.0381665
-1.094439	s c a	0
-0.7738273	s c e	-0.09039403
-0.8274933	s c h	-0.1472939
-1.189165	s c i	0
-0.5209793	s c y	-0.3822143
-1.966616	s c ě	0
-1.157512	t c a	0
-1.038062	t c e	0
-0.7095194	t c h	-0.06365085
-0.8179719	t c o	-0.1310538
-0.8305572	t c y	0
-1.432881	u c </s>
-0.9263235	u c a	-0.203824
-2.617865	u c b	0
-0.9589282	u c e	-0.2106771
-0.747529	u c h	-0.2823765
-1.52333	u c i	-0.06092811
-1.424889	u c k	-0.1528088
-0.9729089	u c n	-0.3089269
-1.260715	u c o	-0.07102889
-1.114986	u c u	-0.101379
-0.7713116	u c y	-0.2498999
-1.977351	u c ě	0
-0.7163801	w c a	0
-0.6826751	w c e	-0.2718052
-0.8605892	w c y	-0.2341182
-0.9213269	y c a	-0.09870109
-1.110671	y c e	0
-0.4638598	y c h	-0.3247375
-0.9822495	y c k	-0.1826565
-1.143082	y c o	-0.1164053
-1.361106	y c u	-0.2341182
-1.021697	y c y	-0.1013552
-0.8370474	ó c a	-0.05551242
-1.891126	ó c c	0
-1.101572	ó c e	0
-1.344126	ó c h	0
-1.241975	ó c k	-0.06080457
-1.068112	ó c n	-0.09038357
-0.8222062	ó c o	-0.1164053
-1.038431	ó c u	-0.07252147
-0.8329781	ó c y	-0.05147773
-1.026914	ě c </s>
-1.101269	ě c a	-0.1339668
-1.031444	ě c e	0
-0.7818184	ě c h	-0.1383392
-2.075068	ě c j	0
-1.260233	ě c k	-0.2341182
-1.231819	ě c n	-0.04709975
-0.8410698	ě c o	-0.07190768
-1.355041	ě c u	0
-0.9856182	ě c y	-0.08548724
-0.5849306	ł c e	-0.2341182
-1.02873	ł c o	0
-0.9012597	ń c </s>
-0.8760483	ń c a	-0.1614609
-0.8355458	ń c e	-0.147261
-1.279694	ń c k	0
-2.072417	ń c l	0
-1.251709	ń c n	-0.112976
-0.8603866	ń c o	-0.213622
-1.076759	ń c u	-0.1514482
-1.005951	ń c y	-0.04833567
-1.928876	ń c ć	0
-0.5115035	ŕ c e	-0.2341182
-0.6245283	ś c </s>
-0.7320207	ś c e	0
-0.7556259	ś c o	-0.1198398
-0.6945524	š c e	-0.2341182
-0.7849426	š c i
-0.5593663	š c y	-0.2718051
-1.006991	ź c a	0
-0.9581875	ź c o	0
-0.4848409	ž c e	-0.0678291
-1.07021	ž c o	0
-1.292349	ž c u	0
-1.105248	ž c y	0
-0.9378288	<s> d a	-1.059758
-1.029863	<s> d e	-0.8989832
-1.432662	<s> d i	-0.6420966
-2.015597	<s> d l	-0.5417302
-1.952851	<s> d n	-1.049956
-0.3076168	<s> d o	-1.363346
-0.9299688	<s> d r	-1.223023
-1.575078	<s> d u	-0.5835001
-1.385552	<s> d w	-1.045739
-1.960628	<s> d y	-0.4884421
-2.531394	<s> d ó	-0.1079017
-1.432192	<s> d ł	-1.271805
-2.862406	<s> d ź	-0.2718052
-1.17632	a d </s>
-0.9012061	a d a	-0.2841021
-2.619264	a d b	0
-1.368526	a d e	-0.07633314
-2.32605	a d g	0
-1.606954	a d i	0
-1.634785	a d k	-0.1057105
-1.335972	a d l	-0.2563357
-1.756835	a d m	0
-0.9608599	a d n	-0.5930389
-1.01737	a d o	-0.3215343
-1.885107	a d p	0
-1.300762	a d r	-0.1639598
-1.010018	a d u	-0.2064134
-1.150024	a d w	-0.2289147
-1.175987	a d y	-0.639782
-1.130449	a d ł	-0.2621235
-2.116127	a d š	0
-0.6751325	b d a	0
-1.075912	b d o	0
-1.01093	d d a	0
-1.365794	e d </s>
-0.82726	e d a	-0.2130454
-2.166342	e d c	0
-1.017107	e d e	-0.04026084
-1.274214	e d i	-0.04752724
-1.923596	e d j	0
-1.445408	e d k	-0.05903712
-1.383165	e d l	-0.04156458
-2.178304	e d m	0
-1.026633	e d n	-0.3297968
-0.9264003	e d o	-0.05552326
-1.69616	e d p	-0.07562036
-1.323489	e d r	-0.142753
-1.623563	e d s	-0.02600479
-1.432146	e d u	-0.07086706
-1.463563	e d w	-0.09974143
-1.468767	e d y	-0.0945767
-2.203872	e d z	0
-1.403441	e d ł	-0.1314623
-1.835962	e d š	0
-1.35651	g d e	0
-0.3455577	g d y	-0.244008
-0.7455723	i d a	-0.07065503
-1.024151	i d e	-0.1081678
-1.400612	i d i	0
-1.073874	i d l	-0.1594398
-1.175155	i d n	-0.08139005
-0.9906129	i d o	-0.06677306
-1.320211	i d u	0
-1.297232	i d ě	-0.2718052
-0.9663229	i d ł	-0.3967439
-1.430731	i d ź
-1.17468	j d a	0
-0.9715782	j d e
-1.476083	j d l	0
-1.317311	j d n	0
-1.181143	j d o	0
-1.348676	j d r	0
-0.5203983	j d u	-0.4936539
-0.2843412	m d e
-0.9064136	n d a	-0.07539518
-1.076189	n d e	-0.1295798
-1.180781	n d i	0
-1.0266	n d o	0
-0.9671679	n d r	-0.07748725
-1.347512	n d u	0
-1.053378	n d ě	-0.2718052
-1.073999	o d </s>
-0.8738024	o d a	-0.2434894
-1.282413	o d e	-0.05366519
-1.254685	o d i	-0.0469352
-1.54325	o d k	-0.08688131
-1.345141	o d l	-0.1336178
-0.9941528	o d n	-0.3347413
-0.8750119	o d o	-0.2770142
-1.206786	o d r	-0.1091229
-1.725602	o d s	-0.2341182
-0.9515212	o d u	-0.1976253
-1.228608	o d y	-0.4024638
-1.719978	o d ě	-0.2341182
-2.1061	o d š	0
-1.903524	o d ź	0
-0.7565157	r d a	0
-1.009283	r d i	0
-1.089095	r d n	-0.06039805
-0.9048516	r d o	-0.08740129
-1.11133	r d u	0
-1.426676	r d y	0
-1.184926	s d r	0
-1.28637	u d </s>
-0.7063212	u d a	-0.1161812
-1.228257	u d e	0
-1.729586	u d i	0
-1.806711	u d k	0
-1.299229	u d l	-0.2718052
-0.9119521	u d n	-0.1288173
-0.8828828	u d o	-0.1329715
-1.373721	u d r	-0.02074936
-1.118057	u d u	-0.1688375
-1.861656	u d w	0
-1.021061	u d y	-0.08649074
-1.906915	u d ě	0
-0.5618348	w d a	-0.04266806
-1.49042	w d i	0
-1.24822	w d n	0
-1.112052	w d o	0
-1.304515	w d u	0
-1.505216	y d l	0
-1.346443	y d n	0
-0.4127783	y d ł	-0.2563358
-0.6459264	z d a	-0.1059838
-1.788678	z d k	0
-1.469354	z d n	0
-1.057732	z d o	0
-1.253993	z d r	0
-1.263935	z d u
-1.843624	z d w	0
-1.287019	z d y	0
-0.6230931	z d ź	-0.3372558
-1.313905	ó d </s>
-0.9573591	ó d a	-0.1171426
-2.179624	ó d d	0
-1.236196	ó d e	0
-2.008779	ó d g	0
-1.589321	ó d k	0
-1.332257	ó d l	-0.1286018
-0.9040689	ó d n	-0.3092785
-0.8664489	ó d o	-0.08863258
-1.917882	ó d p	0
-1.269381	ó d r	-0.1695864
-1.705235	ó d s	0
-2.126631	ó d t	0
-1.165189	ó d u	-0.07302664
-1.644266	ó d w	0
-1.188382	ó d y	-0.1470979
-2.166765	ó d z	0
-1.477226	ó d ł	0
-1.798856	ó d š	0
-1.337045	ě d </s>
-0.7272918	ě d a	-0.199625
-2.296208	ě d c	0
-2.053462	ě d j	0
-1.413163	ě d k	-0.08487943
-1.353705	ě d l
-0.8237008	ě d n	-0.3297969
-1.103897	ě d o	-0.1714561
-1.468334	ě d r	0
-0.921428	ě d u	-0.338752
-1.20265	ě d y	-0.2718052
-1.373116	ě d ł	0
-1.15356	ł d n	0
-1.588799	ł d s	0
-1.017392	š d o	0
-1.125841	ž d a	0
-1.234671	ž d e	0
-0.9175681	ž d l
-1.132303	ž d o	0
-1.324766	ž d u	0
-1.386277	ž d y	0
-0.7584677	ž d ź	-0.1783337
-1.751543	<s> e f	-0.1789067
-1.784108	<s> e j	-0.2718052
-0.4922283	<s> e k	-0.9643708
-1.175502	<s> e l	-0.8360766
-1.225337	<s> e m	-0.144451
-0.6813285	<s> e n	-0.8915232
-1.67887	<s> e s	-0.09547152
-1.225192	<s> e t	-0.5573658
-0.9924329	<s> e u	-1.025133
-1.151122	<s> e w	-0.636547
-0.7552049	a e w	-0.1336483
-1.13319	b e </s>
-1.19592	b e g	-0.2341182
-0.8405241	b e j	-0.1260721
-1.023374	b e l	-0.09174882
-0.6307605	b e r	-0.03444883
-1.198254	b e t	-0.08094104
-2.031604	b e ž	0
-0.5768913	c e </s>
-2.121551	c e b	0
-1.598707	c e c	-0.1157593
-1.727472	c e d	0
-1.671048	c e g	-0.2341182
-1.19752	c e j	-0.09843661
-1.696429	c e k
-1.529411	c e l	-0.08581421
-1.675945	c e m	-0.1441158
-0.7756721	c e n	-0.3897966
-1.472013	c e p	-0.1310797
-1.076751	c e r	-0.1489563
-1.15867	c e s	-0.1594653
-1.674957	c e t	0
-1.836367	c e ł	-0.03636467
-1.267738	c e ń	-0.3590156
-2.602851	c e ŕ	0
-1.009963	d e </s>
-1.650159	d e a
-1.929367	d e b	0
-1.734765	d e c	0
-1.561663	d e d
-2.203373	d e f	0
-1.386832	d e g	-0.2718052
-0.6767341	d e j	-0.2176059
-1.532843	d e k	0
-1.223221	d e l	-0.1122429
-1.390279	d e m	-0.0940458
-1.025666	d e n	-0.1283
-2.000049	d e o	0
-0.8417232	d e r	-0.213667
-1.640201	d e s	0
-2.004684	d e u	0
-1.836835	d e w	0
-1.930723	d e š	0
-1.423561	e e k	0
-0.7151093	e e n
-0.9571674	f e j	-0.04649655
-0.9962767	f e k	-0.135135
-1.56598	f e l	0
-0.6688651	f e r	-0.1432194
-0.8103506	f e s	-0.2341182
-1.152747	f e t	-0.2341182
-1.057294	g e </s>
-1.108182	g e g	-0.2718052
-1.489887	g e j	0
-1.091406	g e l	0
-1.261446	g e m	0
-0.7115793	g e n	-0.1039284
-1.359048	g e o
-0.8015549	g e r	-0.05279287
-1.644695	g e s	0
-1.909105	g e ń	0
-0.9119765	h e j	0
-0.9177921	h e r	0
-0.9314042	i e </s>
-1.117591	i e l	-0.2341182
-0.7743186	i e n	-0.1965715
-0.7725391	i e r	-0.031418
-0.7890495	i e t
-0.9257889	j e </s>
-1.924023	j e a	-0.09679033
-1.900544	j e b	-0.0702911
-1.164616	j e c	-0.1894596
-1.320871	j e d	-0.08306055
-2.264508	j e e	0
-2.009261	j e f	0
-1.726957	j e g	-0.08059181
-2.211305	j e i	0
-1.083156	j e j	-0.2466682
-1.307441	j e k	-0.1319426
-1.412507	j e l	-0.08134651
-1.437415	j e m	-0.06113443
-1.127907	j e n	-0.3586369
-1.603475	j e p	-0.0488974
-1.265826	j e r	-0.1411342
-1.365204	j e s	-0.09261218
-1.36178	j e t	-0.1605477
-1.494607	j e w	-0.07281561
-1.486401	j e z	-0.03581133
-1.64614	j e ł	-0.1118539
-1.286984	j e ń	-0.3226528
-2.066151	j e ŕ	-0.1181342
-1.517703	j e ś	-0.1261874
-1.774868	j e š	-0.02940598
-1.906368	j e ź	-0.05614616
-1.652191	j e ž	-0.0287838
-0.6556178	k e </s>
-1.319824	k e c	-0.2064419
-1.872598	k e d	0
-0.8529724	k e g	-0.7946839
-0.8865854	k e j	-0.6185926
-1.544151	k e l	-0.04978054
-0.9579083	k e m	-0.4642489
-1.267534	k e n	-0.07240852
-1.987024	k e p	0
-1.264102	k e r	-0.06905765
-1.577889	k e t
-1.696322	k e ś	-0.2341182
-2.653001	k e ź	0
-0.8644839	l e </s>
-1.86823	l e a	-0.2341182
-1.848158	l e b	0
-1.175919	l e c	-0.2822697
-1.758263	l e d	0
-2.397798	l e f	0
-1.464324	l e g	-0.1172181
-1.083749	l e j	-0.1786445
-1.166531	l e k	-0.1513498
-1.218995	l e m	-0.19632
-0.9340524	l e n	-0.3046741
-1.683022	l e p	0
-1.331316	l e r	-0.15443
-1.601581	l e s	0
-1.218633	l e t	-0.1364098
-1.527005	l e w	-0.2744558
-1.99666	l e z	0
-1.426456	l e ń	-0.3349944
-1.142846	l e ś	-0.2247319
-1.848709	l e š	0
-1.892883	l e ž
-1.3747	m e </s>
-1.510833	m e c	0
-1.204066	m e d	-0.3967439
-1.179595	m e g	-0.1530492
-0.7224627	m e j	-0.2953183
-1.432728	m e l
-1.335455	m e m	-0.07714508
-0.9605685	m e n	-0.2896122
-0.9584136	m e r	-0.08672188
-1.471513	m e s	0
-0.978479	m e t	-0.1290875
-0.6641207	n e </s>
-0.7043317	n e g	-0.8107981
-0.6996543	n e j	-0.4834548
-1.556982	n e l	-0.09174882
-0.7618775	n e m	-0.8447731
-1.275952	n e r	-0.148859
-1.573259	n e t	-0.09147073
-2.443229	n e u	0
-2.240781	n e z	0
-0.637224	o e </s>
-1.774171	o e u	0
-1.069036	p e </s>
-1.368775	p e a
-1.669562	p e c	0
-1.307651	p e d	-0.06026035
-1.554919	p e g	0
-1.215918	p e j	0
-1.604511	p e k	0
-0.5289581	p e r	-0.08822949
-1.122828	p e t	-0.09090874
-1.015012	r e </s>
-1.153556	r e a	-0.1713187
-1.660559	r e c	-0.1384325
-1.538818	r e d	0
-1.832305	r e f	-0.06533605
-0.9483106	r e g	-0.4003751
-0.9736072	r e j	-0.2452918
-1.513425	r e k	-0.06953739
-1.56355	r e l	0
-1.17808	r e m	-0.1377054
-1.086728	r e n	-0.1771262
-1.713328	r e p	-0.06733777
-1.110584	r e s	-0.1049117
-1.177686	r e t	-0.1473397
-1.708078	r e w	0
-1.562926	r e z	-0.09049527
-2.037822	r e š	0
-1.631819	r e ž	-0.1261994
-0.7604168	s e </s>
-1.442594	s e b	-0.1565321
-1.394461	s e c	-0.09819841
-1.018256	s e d	-0.2703805
-1.112419	s e g	-0.2051512
-1.144906	s e j	-0.1277861
-1.507194	s e k	0
-1.334926	s e l	-0.06405804
-1.591832	s e m	0
-1.319545	s e n	-0.1684604
-1.706101	s e p	0
-1.314758	s e r	-0.07166148
-1.590725	s e t	-0.05690012
-2.015176	s e u	0
-1.684091	s e z
-1.776177	s e ł	-0.2341182
-1.437344	s e ń	-0.1589031
-1.328878	s e ś	-0.1726609
-1.941215	s e š	0
-1.711285	s e ź
-1.004807	t e </s>
-2.25799	t e a	0
-1.881048	t e b	0
-1.52188	t e c	-0.3967439
-2.011963	t e d	0
-0.9511103	t e g	-0.4228055
-0.8479763	t e j	-0.4328357
-1.505206	t e k	-0.04397658
-1.160201	t e l	-0.2544984
-1.026807	t e m	-0.2656323
-1.102167	t e n	-0.1383967
-2.277481	t e o	0
-0.8778991	t e r	-0.2174511
-1.497015	t e s	-0.1736791
-1.30271	t e t	-0.08582745
-2.114266	t e w	0
-1.695261	t e z	-0.1333003
-1.881528	t e š	0
-0.5689173	u e l	-0.2341182
-1.074979	w e </s>
-1.621883	w e b	0
-1.113169	w e g	-0.1848302
-2.458791	w e h	0
-0.8168632	w e j	-0.4530464
-1.20929	w e l	0
-1.114896	w e m	-0.304548
-0.8208855	w e n	-0.2555055
-0.933825	w e r	-0.1691519
-1.515087	w e s	0
-1.431102	w e z	-0.09049527
-0.4516515	y e r
-0.7637405	z e </s>
-1.890727	z e b	0
-1.383528	z e c
-1.507023	z e d	0
-1.338071	z e g
-1.275189	z e j	-0.02488329
-1.474335	z e k	0
-1.18273	z e l	-0.1684616
-1.342054	z e m	0
-0.9950836	z e n	-0.080456
-1.558849	z e p
-1.285476	z e r	-0.1370444
-1.346558	z e s	-0.08020612
-1.451795	z e t	0
-1.966044	z e u	0
-1.406974	z e z	-0.08455545
-1.622782	z e ł	-0.08209515
-1.581386	z e ń
-1.449799	z e ś	-0.03885969
-1.892083	z e š	0
-2.010434	z e ž	0
-0.6146104	ć e </s>
-1.135225	ć e c	-0.08227795
-1.428077	ć e j	0
-1.499684	ć e l	0
-1.075171	ć e n	-0.1608593
-0.9171597	ć e r	0
-1.962706	ć e ł	0
-1.168642	ć e ń	-0.1085588
-0.6604883	ł e </s>
-0.7376426	ł e g	-0.639782
-0.4654758	ł e j	-0.5894313
-0.9198281	ł e m	-0.4024638
-0.6525872	ś e </s>
-1.458835	ś e b	-0.03908402
-1.413417	ś e c	-0.0713526
-1.785913	ś e d	0
-1.509534	ś e g	0.02180526
-1.099957	ś e j	-0.1117953
-1.721095	ś e k	0
-1.182391	ś e l	-0.1680991
-1.62048	ś e m	-0.0141378
-1.172519	ś e n	-0.3184471
-1.900339	ś e p	0
-1.245432	ś e r	-0.08342554
-1.518388	ś e s	-0.0206378
-1.512851	ś e t	-0.02331917
-1.888216	ś e w	0
-1.853617	ś e z	0
-1.257835	ś e ł	-0.2594649
-1.614483	ś e ń	-0.2718052
-2.462048	ś e ŕ	0
-1.108096	ś e ś	-0.1709494
-1.982104	ś e š	0
-2.566316	ś e ź	0
-1.807316	ś e ž	0
-0.6876025	š e </s>
-1.405599	š e c	-0.1093474
-1.961628	š e d	0
-0.9398378	š e g	-0.7946839
-0.8091487	š e j	-0.5558239
-0.896764	š e m	-0.639782
-0.9771714	š e n	-0.4305881
-1.597242	š e p	0
-1.600496	š e r	0
-1.66689	š e s	-0.09582308
-1.85468	š e t	0
-1.449815	š e ł	-0.3967439
-0.7648835	ź e </s>
-0.9904732	ź e c	-0.4410995
-1.236114	ź e j	-0.1144764
-1.029059	ź e l	-0.2180507
-0.8038233	ź e n	-0.4980625
-1.745732	ź e w	-0.2341182
-2.11016	ź e z	0
-1.313447	ź e ł	-0.3994039
-0.949699	ź e ń	-0.4537616
-1.209018	ź e ś	-0.5728351
-1.432006	ź e š	-0.1815111
-0.6651292	ž e </s>
-1.286671	ž e c	-0.249871
-1.444548	ž e d	0
-1.776053	ž e g	0
-1.065055	ž e j	-0.3967439
-1.261368	ž e m	-0.03531434
-0.6719227	ž e n	-0.5098411
-1.358917	ž e r	-0.1348249
-1.003029	ž e ń	-0.2071089
-0.7175618	<s> f a	-0.6736284
-1.171522	<s> f e	-0.6698488
-0.6795813	<s> f i	-0.8601415
-1.013142	<s> f l	-0.6851587
-0.7312101	<s> f o	-0.7494253
-0.9890604	<s> f r	-0.7473752
-0.8933883	<s> f u	-0.8995984
-2.165722	<s> f y	-0.2718052
-0.6813917	a f e	0
-0.9368688	a f i	0
-0.736091	a f r
-1.84968	a f ě	0
-0.9473976	e f e	0
-0.6722263	e f i	0
-1.679501	e f j	0
-1.496405	e f l	0
-0.5843605	e f o	-0.1021359
-1.30685	e f u	0
-1.063158	i f a	0
-0.852472	i f e	-0.1224147
-0.3578465	i f i	-0.3461615
-1.004439	i f o
-1.388563	i f r	0
-1.069894	l f a	0
-0.6688161	n f i	0
-1.441532	n f l	0
-1.021747	n f o	0
-0.736091	n f r	0
-0.829878	o f e	0
-0.6882222	o f i	-0.05615181
-1.455007	o f l	0
-0.7175896	o f o	0
-1.712677	o f t	0
-0.8671376	r f e	0
-0.416616	s f o	-0.2341182
-0.254302	t f i
-0.9183576	u f o	0
-1.052043	u f r	0
-1.313669	<s> g a	-0.5774263
-2.761359	<s> g d	-0.2718052
-1.791017	<s> g e	-0.4478964
-1.723804	<s> g i	-0.9020553
-1.750669	<s> g j	-1.116903
-1.234673	<s> g l	-0.8496624
-2.217699	<s> g m	-0.6977739
-1.456042	<s> g n	-0.6867788
-1.860702	<s> g o	-0.3760494
-0.5992889	<s> g r	-1.417107
-1.235876	<s> g u	-1.001961
-1.876513	<s> g w	-0.9988039
-1.979131	<s> g y	-0.9086272
-0.4604611	<s> g ó	-1.383516
-0.9942498	<s> g ł	-1.241423
-0.8009583	a g a	-0.0946316
-1.209672	a g e	-0.04319075
-1.070235	a g i	-0.1102965
-1.291274	a g l	-0.07038334
-0.8806577	a g n	-0.09214179
-1.175404	a g o	-0.09410363
-0.9606652	a g r	-0.1642072
-1.071285	a g u	-0.1530264
-1.158343	a g ó	0
-1.191492	a g ě	-0.3967439
-1.39564	a g ł	0
-1.139737	b g l	0
-1.115678	b g o	0
-0.6939221	b g r	-0.1081609
-1.079709	b g ó	0
-1.22977	d g l	0
-0.4405934	d g ó	-0.172196
-1.51046	e g </s>
-0.9553103	e g a	-0.04768784
-2.10727	e g d	0
-1.156528	e g i	-0.04382932
-1.271528	e g l	-0.05390742
-1.150854	e g n	-0.0613203
-0.4321312	e g o	-0.4916451
-1.278852	e g r	-0.1526775
-1.292011	e g u	-0.06137134
-1.339667	e g ó	0
-1.645458	e g ě	-0.2341182
-1.624738	e g ł	0
-0.9560094	i g a	-0.04164698
-1.95409	i g d	0
-1.229632	i g e	0
-0.9805837	i g i	0
-1.199542	i g l	0
-0.8737902	i g n	-0.06134512
-1.08454	i g o	-0.12777
-1.208861	i g r	0
-1.225715	i g u	0
-1.067316	i g ó	-0.1647118
-1.292459	i g ě	-0.2718052
-1.176298	i g ł	-0.09520788
-1.09426	j g r	0
-1.017971	j g ó	0
-0.6214234	l g a
-1.131831	l g o	0
-1.011887	n g </s>
-0.9185283	n g a	0
-0.9491711	n g e	-0.2341182
-0.9209912	n g o	0
-0.9360428	n g r	0
-1.281368	n g u	0
-1.250374	o g </s>
-1.036789	o g a	-0.1562812
-1.122236	o g e	-0.1593931
-1.051351	o g i	-0.2630603
-1.189865	o g l	-0.4936539
-1.424996	o g n	-0.05776671
-0.7707895	o g o	-0.3087204
-0.889905	o g r	-0.5979007
-0.992645	o g u	-0.2650334
-1.030345	o g ó	-0.2228947
-1.348421	o g ł	-0.1533443
-0.9212471	r g a	-0.02804176
-1.228375	r g e	0
-0.7958903	r g i	0
-1.20018	r g n	0
-1.150829	r g o	0
-0.949143	r g u	0
-0.7425102	t g l	-0.2341182
-0.7463861	t g r	-0.1081609
-1.134131	t g ó	0
-1.39666	t g ł	0
-0.7064296	u g a	-0.053475
-2.367977	u g b	0
-1.120994	u g e	0
-1.116254	u g i	-0.0769222
-1.242223	u g l	0
-1.267515	u g n	0
-0.9624259	u g o	-0.09625222
-1.258484	u g r	0
-0.9873103	u g u	-0.2718052
-1.182195	u g ó	0
-1.181587	u g ł	-0.1019662
-1.103448	z g a
-1.00711	z g i	-0.09416758
-1.118166	z g l	-0.2341182
-1.41522	z g n	0
-1.106577	z g o
-0.8473389	z g r	-0.335517
-1.00823	z g u	-0.1361642
-0.7201532	z g ó	-0.2085908
-1.202731	z g ł	0
-1.114187	ó g a	0
-0.9447917	ó g i	0
-0.92928	ó g l	0
-0.9385259	ó g n	-0.2341182
-1.190984	ó g u	0
-1.084599	ó g ó	0
-1.347128	ó g ł	0
-0.9775686	ě g </s>
-0.914548	ě g a	-0.1085339
-1.085468	ě g i	-0.1232733
-1.390853	ě g l	0
-0.7287596	ě g n	-0.3589824
-1.061572	ě g o	-0.2718052
-0.8213511	ě g u	-0.2597982
-2.117428	ě g w	0
-1.017971	ł g ó	0
-0.9511289	<s> h a	-0.2731759
-1.324431	<s> h e	-0.1680373
-1.234292	<s> h i	-0.2624435
-2.110143	<s> h m	-0.2341182
-0.5937026	<s> h o	-0.4130578
-0.5125369	<s> h u	-0.4380324
-0.7751436	<s> h y	-0.5598782
-1.953899	<s> h ó	-0.2718052
-1.520279	b h l	0
-1.038293	c h </s>
-0.9027281	c h a	-0.3472066
-1.469552	c h e	-0.05978439
-1.233486	c h i	-0.04729123
-1.690567	c h l	-0.06594197
-1.521166	c h m	-0.09327745
-1.384486	c h n	-0.1528417
-0.8655745	c h o	-0.3100797
-1.50953	c h r	-0.1813967
-1.33536	c h t	-0.1698308
-0.9969013	c h u	-0.4936539
-1.238021	c h w	-0.3683228
-1.000174	c h y	-0.3694027
-1.416236	c h ó	-0.1888658
-1.742079	c h ł	-0.2718052
-2.311148	c h š	0
-2.389508	c h ž	0
-0.2520676	e h o	-0.3967439
-0.2862512	h h </s>
-0.3471851	o h o	-0.2718052
-1.351875	t h e	0
-0.7406794	t h i
-1.490289	t h r	0
-1.007486	t h u	0
-0.9386725	ó h u	0
-1.11386	<s> i d	-0.9583805
-1.397045	<s> i g	-0.9086273
-1.978284	<s> i l	-0.3967439
-0.9040182	<s> i m	-0.7256973
-0.1514425	<s> i n	-1.171992
-2.14253	<s> i t	-0.2718052
-2.012516	<s> i z	-0.3967439
-0.4587628	a i n	-0.1328559
-1.98135	b i b	0
-1.214862	b i c	-0.05303078
-1.080655	b i j	-0.1510975
-1.211958	b i k	-0.08288814
-1.000171	b i l	-0.2655693
-1.435944	b i m	-0.2341182
-0.9127414	b i n	-0.1007206
-1.53086	b i o	-0.1373782
-1.884751	b i r	0
-1.451494	b i s	0
-0.9982579	b i t	-0.2250328
-1.415086	b i ł	-0.1325665
-1.73622	b i ń	-0.2341182
-1.018383	b i ś	-0.5728351
-1.893709	b i š	0
-1.38292	c i </s>
-1.195879	c i a	-0.2084228
-1.202126	c i e	-0.2563358
-1.590372	c i f	0
-0.9530193	c i j	-0.1979296
-1.259311	c i n	-0.08712916
-0.8408574	c i o	-0.4182998
-1.553259	c i p	0
-1.881791	c i r	0
-0.9570944	c i s	-0.3003996
-1.149357	c i t	-0.09725533
-1.67916	c i ě	-0.2341182
-1.274575	d i a	-0.06253244
-1.240819	d i c	-0.2341182
-1.276968	d i d	-0.1736172
-1.506289	d i f	0
-1.409349	d i g	0
-0.9559793	d i j	-0.05164492
-1.363033	d i k	0
-1.169499	d i n	-0.08712916
-1.26873	d i o	0
-1.44965	d i r	-0.2341182
-1.209615	d i s	-0.1611458
-1.321086	d i t	0
-1.13647	d i u	-0.396744
-1.371671	d i w	0
-1.43393	d i z	0
-0.8194596	e i </s>
-0.6467477	e i m	0
-1.330934	e i n	0
-0.905977	f i c	-0.2563358
-1.708029	f i d	0
-1.209837	f i g	-0.1368863
-0.9994919	f i j	-0.04907493
-1.021001	f i k	-0.06974972
-1.157999	f i l	-0.08788543
-1.243692	f i n	0
-1.394559	f i r	-0.2341182
-1.158442	f i s	-0.1218134
-1.284096	f i t	0
-1.756321	f i ł	0
-0.6851206	g i </s>
-1.151641	g i b	-0.1118579
-1.412954	g i c	-0.2341182
-0.9718591	g i j	-0.1140087
-1.235049	g i m	-0.1111068
-1.066291	g i n	-0.1224127
-1.44476	g i o	0
-0.9760247	g i s	-0.335517
-1.37252	g i t	0
-1.934248	g i u	0
-1.039363	h i l	0
-1.030681	h i m	0
-0.8571845	h i n	-0.1328559
-1.03976	h i s	0
-1.384172	h i t	0
-1.487087	h i w	0
-0.6100637	j i </s>
-0.7993918	j i c	-0.127441
-1.527078	j i j	0
-1.54904	j i l	0
-0.9085588	j i m	-0.1326609
-1.206133	j i n	0
-1.538673	j i t	0
-1.796618	j i ł	0
-1.659583	j i ś	0
-0.4378038	k i </s>
-0.8628777	k i c	-0.4335645
-1.670128	k i d
-1.678354	k i e	-0.1320402
-1.584173	k i j
-1.849772	k i l	0
-0.8102275	k i m	-0.4331796
-1.550089	k i n
-1.190695	k i s	-0.06998231
-1.58935	k i t	0
-1.631991	k i w
-2.636768	k i ž	0
-1.004157	l i </s>
-1.824721	l i a	0
-2.223881	l i b	0
-0.9940243	l i c	-0.2779132
-1.828022	l i d	-0.09302016
-1.838061	l i e	-0.1271742
-2.309926	l i f	0
-2.022443	l i g	0
-1.233831	l i j	-0.5728352
-1.169421	l i k	-0.1373234
-1.331815	l i l	-0.6977739
-1.232735	l i m	-0.3315632
-1.026566	l i n	-0.2247604
-2.015332	l i o	0
-1.609737	l i p	-0.02618436
-1.452838	l i s	-0.1887293
-1.38556	l i t	-0.1009788
-1.251288	l i w	-0.3404591
-1.4328	l i z	-0.2436416
-2.218986	l i ć	-0.2341182
-1.226002	l i ł	-0.554352
-1.138422	l i ś	-0.5682977
-1.440018	l i š	-0.04664387
-2.15704	l i ž	-0.0907939
-1.004357	m i </s>
-1.149647	m i c	0
-1.476187	m i g	-0.2341182
-1.12277	m i j	-0.1447802
-1.300908	m i k	0
-1.275041	m i l	-0.1042868
-1.523143	m i m	0
-0.7316659	m i n	-0.2086706
-1.019648	m i s	-0.2197591
-1.392748	m i t	-0.1382636
-1.867699	m i u	0
-1.499252	m i z	-0.2341182
-1.799091	m i ł	0
-1.843984	m i š	0
-2.33851	m i ž	0
-1.017413	n i </s>
-1.047949	n i c	-0.6186094
-2.090343	n i d	0
-2.048551	n i f	0
-2.080113	n i g	0
-1.084166	n i j	-0.7449166
-0.9537399	n i k	-0.8462536
-1.284975	n i l	-0.8738651
-1.35964	n i m	-0.2342211
-1.496737	n i n	-0.2656989
-2.403919	n i p	0
-1.109435	n i s	-0.7391937
-1.24914	n i t	-0.2874615
-1.295219	n i w	-0.3066897
-1.982627	n i z	-0.1188679
-1.150602	n i ł	-0.5672743
-1.028862	n i ś	-0.8819169
-1.240971	n i š	-0.3614006
-2.737284	n i ź	0
-1.916232	n i ž	-0.1027809
-1.436881	p i </s>
-0.9514998	p i j	-0.267333
-1.61804	p i k
-0.954325	p i l	-0.2451511
-1.564923	p i m
-1.05138	p i n	-0.225129
-1.663003	p i o	-0.2341182
-1.708025	p i r	0
-0.8253332	p i s	-0.4445284
-1.462123	p i t	-0.0627764
-1.501905	p i w	-0.1552914
-1.176818	p i ł	-0.4636906
-1.084558	p i ś	-0.2646003
-1.10458	p i š	-0.4230728
-1.290962	r i </s>
-1.543746	r i a	-0.08040985
-1.749717	r i b	-0.0521528
-1.265853	r i c	-0.2558714
-1.361982	r i e	-0.1690877
-1.774942	r i f
-1.675895	r i g	0
-1.186635	r i j	-0.2840573
-1.109163	r i k	-0.2748979
-1.310971	r i l	-0.3359033
-1.136503	r i m	-0.2057185
-1.222756	r i n	-0.1078831
-1.672886	r i o	0
-1.734913	r i p
-1.247341	r i s	-0.2457682
-1.189121	r i t	-0.215541
-1.856471	r i u	-0.2341182
-1.637519	r i w	-0.05434407
-1.293145	r i z	-0.04045307
-1.23249	r i ł	-0.3744557
-1.160447	r i ś	-0.5187164
-1.571937	r i š	-0.02259093
-1.52514	s i b	-0.1329876
-2.064173	s i f	0
-1.150322	s i g	-0.09978987
-0.9960831	s i j	-0.143564
-1.414009	s i k
-1.2458	s i m	0
-1.083127	s i n	-0.07655744
-1.030642	s i o	-0.2563357
-0.9136143	s i s	-0.183706
-1.37428	s i t	0
-1.132482	s i w	-0.05416291
-1.480666	s i z
-1.429918	s i ś	-0.2341182
-1.408774	t i </s>
-1.958579	t i b	0
-1.216821	t i c	-0.1265897
-1.467314	t i f	-0.2718051
-1.434812	t i j
-1.016779	t i k	-0.1788942
-1.578468	t i l	0
-1.081398	t i m	-0.1306544
-1.163166	t i n	-0.08989133
-1.528859	t i o	0
-1.591744	t i p	0
-0.8188724	t i s	-0.5987584
-1.441053	t i t	0
-1.01979	t i w	-0.2240445
-1.4146	t i z	-0.2718051
-1.689012	t i ś	0
-1.414812	w i </s>
-1.851135	w i b	0
-1.100091	w i c	-0.1869591
-1.230575	w i d	-0.1287561
-1.495819	w i g	-0.07116223
-1.192429	w i j	-0.3403459
-1.210967	w i k	-0.335517
-1.343361	w i l	-0.1834681
-1.648668	w i m	-0.2341182
-0.9870632	w i n	-0.2234026
-2.034196	w i r	0
-1.139124	w i s	-0.1209774
-1.086023	w i t	-0.1363612
-2.06687	w i u	0
-1.843232	w i w	0
-1.399193	w i z	-0.1104453
-1.400451	w i ł	-0.3687149
-1.055905	w i ś	-0.2064365
-1.680405	w i š	-0.1249042
-1.353097	w i ź	-0.4636907
-1.350227	y i t	0
-0.6684039	y i w	-0.2341182
-1.631981	z i a	0
-1.526631	z i c	0
-1.640162	z i d	0
-0.6713167	z i j	-0.08751172
-0.9874736	z i k	-0.2341182
-1.440877	z i l	0
-0.9723232	z i s	-0.2718052
-1.757062	z i u	0
-1.170391	ć i </s>
-1.517801	ć i c	0
-1.05528	ć i j	-0.09403196
-1.200266	ć i l	-0.2341182
-1.403677	ć i m	0
-0.8810845	ć i n	-0.1966499
-1.766662	ć i p	0
-1.42168	ć i t	0
-1.236249	ć i w	0
-1.286461	ć i ł	-0.1080885
-1.242707	ć i ś	-0.06775272
-1.29882	ć i š
-0.2560944	ł i </s>
-1.05511	ś i </s>
-1.824766	ś i b	0
-1.132716	ś i c	-0.1996816
-1.623043	ś i d	0
-1.733791	ś i g	-0.05394589
-1.170618	ś i j	-0.2849396
-1.340229	ś i k	-0.08087808
-1.117986	ś i l	-0.282548
-1.062472	ś i m	-0.1888802
-1.153539	ś i n	-0.2382619
-1.806227	ś i p	0
-1.784019	ś i r	-0.1243618
-1.415316	ś i s	-0.005503841
-1.5319	ś i t	-0.07645319
-1.344993	ś i w	-0.0860374
-1.76429	ś i z	-0.05849139
-1.290905	ś i ł	-0.4274328
-1.136541	ś i ś	-0.343477
-1.15952	ś i š	-0.1828288
-1.917011	ś i ź	0
-1.108404	š i f	-0.2341182
-1.0382	š i k
-0.9893876	š i n	0
-0.8982904	š i š	-0.1249042
-0.9383502	ź i </s>
-1.399268	ź i c	-0.1761291
-0.9914057	ź i j	-0.3554207
-1.679668	ź i k	-0.156973
-1.048124	ź i l	-0.6977739
-1.105879	ź i m	-0.3604969
-1.035083	ź i n	-0.2392834
-1.375065	ź i t	-0.2744296
-1.196924	ź i w	-0.1182466
-1.07249	ź i ł	-0.5350462
-0.9111576	ź i ś	-0.310968
-1.316154	ź i š	-0.2563358
-0.7481727	ž i ś
-0.1791303	<s> j a	-1.126804
-1.230132	<s> j e	-0.420408
-1.738364	<s> j i	-0.3235676
-1.269871	<s> j o	-0.3010741
-1.867729	<s> j s	-0.1492941
-1.312623	<s> j u	-0.3222964
-0.8872173	<s> j ě	-0.6993787
-2.316622	<s> j ś	-0.1321219
-1.026502	a j </s>
-1.126589	a j a	-0.1658009
-1.407047	a j c	-0.03516293
-1.290182	a j e	-0.1190244
-1.548372	a j i	-0.02968098
-1.38119	a j k	-0.1962765
-1.475131	a j m	-0.1707839
-1.718012	a j n	-0.08439809
-0.8749293	a j o	-0.6069536
-1.568037	a j s	-0.04164182
-1.887117	a j t	0
-0.7719675	a j u	-0.8085694
-0.9066465	a j ś	-0.5615281
-1.322578	a j š	-0.2105055
-1.403314	a j ź	-0.1432931
-0.750563	b j a	-0.0495544
-0.3283848	b j e	-0.241592
-1.051326	b j o	-0.1015559
-0.899917	b j u	-0.2341182
-0.9186358	d j a	0
-1.277237	d j ě	0
-0.8965559	e j </s>
-1.159694	e j a	-0.1459275
-2.179124	e j b	0
-1.934048	e j c	-0.127129
-1.630522	e j d	0.01127906
-1.016436	e j e	-0.52011
-2.006757	e j g	-0.06760427
-1.781278	e j i	-0.1188694
-1.605285	e j k	-0.1173795
-1.773642	e j l	-0.1178896
-1.523208	e j m	-0.1118595
-1.276564	e j n	-0.2156971
-1.188002	e j o	-0.4681127
-1.574854	e j p	-0.1671081
-2.118524	e j r	-0.2341182
-1.234366	e j s	-0.1380906
-1.450716	e j t	-0.05196974
-0.9604542	e j u	-0.5730163
-1.622903	e j w	-0.106803
-1.678734	e j z	-0.1093936
-1.815529	e j ě
-1.300878	e j ś	-0.1680048
-1.302644	e j š	-0.4574414
-1.551141	e j ź	-0.165048
-2.199085	e j ž	0
-1.009548	f j o	0
-0.9186358	g j a	0
-1.295996	i j </s>
-0.698467	i j a	-0.3718695
-0.9245293	i j e	-0.7946839
-1.222733	i j i	-0.2613782
-1.801521	i j k
-1.326167	i j n	-0.1683964
-0.6578251	i j o	-0.6583247
-2.141382	i j s	0
-0.7132186	i j u	-0.671021
-1.969446	i j ě	0
-1.724664	i j ś	-0.2341182
-0.2502027	k j a	-0.278327
-0.6188336	m j a	-0.1251303
-0.3558689	m j e	-0.4003125
-0.7699963	m j o	-0.1224353
-1.338117	m j u	-0.2341182
-0.6306273	n j a	-0.5550323
-0.5650303	n j e	-0.4512833
-1.90358	n j i
-2.72417	n j j	0
-0.6339912	n j o	-0.5507022
-0.7152389	n j u	-0.9086273
-1.256673	o j </s>
-1.054395	o j a	-0.07640152
-1.25356	o j c	-0.1765452
-1.156544	o j e	-0.2084326
-1.618465	o j i	-0.1188694
-1.810983	o j k
-1.740206	o j l	-0.125773
-1.818008	o j m	-0.1295901
-1.646146	o j n	-0.04489866
-1.19059	o j o	-0.1804373
-0.8704355	o j s	-0.8158732
-1.112926	o j t	-0.431587
-0.6981863	o j u	-0.9012583
-1.201625	o j ś	-0.2187332
-1.720855	o j š	0
-1.884617	o j ź	-0.1248607
-0.7964894	p j a	-0.1219655
-0.2957673	p j e	-0.2518022
-0.7121347	p j o	-0.2586361
-1.778582	p j u	0
-0.6554921	r j a	-0.2709112
-0.4846943	r j e	-0.3325502
-0.6619744	r j o	-0.3054856
-0.8864208	r j u	-0.4478964
-0.9178164	u j </s>
-1.254032	u j a	-0.07469838
-1.461304	u j e
-1.83882	u j k	-0.05898125
-1.843754	u j m	-0.2341182
-0.6128531	u j o	-0.9684892
-0.6179436	u j u	-1.002014
-1.745692	u j ě
-0.7365239	u j ś	-0.6754749
-2.408912	u j š	0
-2.432858	u j ź	0
-0.5324252	w j a	-0.2984668
-0.3844092	w j e	-0.4647889
-0.9085709	w j o	-0.318303
-1.13704	w j u	-0.1608957
-1.266255	y j </s>
-1.009668	y j a	0
-1.123018	y j e	-0.2341182
-0.4564256	y j o	-0.3907971
-0.8011389	y j u	-0.336987
-1.12969	y j ś	-0.2718052
-0.3280672	z j a	-0.3110559
-0.7893206	z j e	-0.2718052
-1.086005	z j w	-0.2341182
-1.686924	z j ě	0
-1.073971	ó j </s>
-0.8695532	ó j a	-0.07090848
-1.530887	ó j c	0
-1.808307	ó j d	0
-0.9501369	ó j e	-0.1613657
-1.261585	ó j i	-0.1583628
-1.954242	ó j l	0
-1.463358	ó j m	-0.1295901
-1.598731	ó j n	0
-1.190917	ó j o	-0.05954406
-1.597363	ó j s	0
-1.69455	ó j t	0
-1.25112	ó j u	-0.1109258
-1.767393	ó j w	0
-1.425426	ó j ě	0
-1.092965	ó j ś	-0.2563358
-1.513376	ó j š	0
-1.169	ó j ź	-0.04892299
-1.012709	ě j </s>
-0.889014	ě j a	-0.09609589
-0.7916093	ě j o	-0.1750755
-0.8185716	ě j u	-0.1608957
-1.031952	ě j ś	-0.2341182
-0.9324954	<s> k a	-0.9009115
-2.221918	<s> k e	-0.3175705
-2.127734	<s> k i	-0.1180614
-1.78361	<s> k j	-1.257082
-1.232412	<s> k l	-0.9912737
-2.471125	<s> k m	-0.639782
-1.186734	<s> k n	-1.411074
-0.6723044	<s> k o	-1.092388
-0.9354262	<s> k r	-1.300269
-0.8441526	<s> k u	-1.113474
-1.794538	<s> k w	-0.6508901
-0.8481603	<s> k ó	-1.092913
-2.313832	<s> k ł	-0.4478964
-1.490165	<s> k ś	-0.9408118
-1.255587	<s> k š	-1.014473
-0.9550472	a k </s>
-0.8725582	a k a	-0.3353233
-1.638795	a k c	-0.335517
-1.265282	a k e	-0.127382
-0.9280568	a k i	-0.5494471
-1.454257	a k l	-0.1272036
-1.552485	a k n	-0.08078115
-0.8234676	a k o	-0.2439965
-1.979279	a k r	0
-1.50275	a k s	-0.1237222
-1.120652	a k t	-0.3065847
-0.9875818	a k u	-0.304964
-1.862523	a k ó	0
-1.609691	a k ł	-0.2028328
-1.515578	a k ś	-0.1562006
-1.580676	a k š	-0.07054001
-0.7657232	b k a	-0.08800261
-1.358541	b k n	0
-0.8954179	b k o
-1.736287	b k ś	0
-1.457243	b k š	0
-1.037564	c k </s>
-0.5938945	c k a	-0.3731264
-1.36968	c k e	0
-0.8379827	c k i	-0.2998322
-0.6945237	c k o	-0.3589554
-0.8382999	c k u	-0.5728351
-0.9892416	d k </s>
-0.9841182	d k a	-0.1989975
-1.300048	d k e	-0.1216787
-0.8876837	d k i	-0.3297959
-0.6640398	d k o	-0.2425765
-2.441278	d k p	0
-1.896508	d k s	0
-0.8037044	d k u	-0.2602669
-1.805087	d k w	0
-1.740868	d k ó	0
-1.437306	d k ł	-0.2341182
-1.242943	e k </s>
-1.233572	e k a	-0.04411762
-1.647783	e k c	-0.2341182
-1.306086	e k e	-0.1216787
-1.139703	e k i	-0.1537046
-1.501451	e k l	-0.1268477
-1.61334	e k n	0
-0.8037171	e k o	-0.161051
-1.411588	e k r	0
-1.082967	e k s	-0.1732268
-1.091125	e k t	-0.2112347
-0.980472	e k u	-0.05697875
-1.578753	e k w	0
-1.737867	e k ó	0
-1.189058	e k ś	-0.1799581
-1.260203	e k š	-0.1142725
-1.015132	i k </s>
-0.6958954	i k a	-0.3230294
-1.411844	i k e	0
-0.9627315	i k i	-0.2319315
-1.486048	i k l	-0.1268477
-1.839995	i k m
-1.597309	i k n	-0.08078115
-0.7852783	i k o	-0.2765862
-1.645048	i k r	-0.1262716
-1.952105	i k s	0
-1.744304	i k t	-0.09321633
-0.8702503	i k u	-0.2667114
-1.860684	i k w	0
-1.655941	i k ó
-1.550603	i k ł	-0.2718051
-1.770639	i k š	0
-0.810067	j k </s>
-0.8059227	j k a	-0.07747281
-1.141113	j k e	-0.04888465
-0.812718	j k i	-0.1748935
-0.7994783	j k o	-0.08296797
-1.705713	j k r	0
-1.095035	j k u	0
-0.7687389	l k a	-0.249871
-0.7742537	l k i	-0.3967439
-1.683202	l k l	0
-0.7634938	l k o	-0.273145
-0.6563151	l k u	-0.2648455
-1.41861	m k n	0
-0.5024114	m k o	-0.1334626
-1.155675	m k u	0
-1.126248	n k </s>
-0.7279178	n k a	-0.248792
-1.963319	n k c	0
-0.88754	n k i	-0.3297959
-1.373281	n k l
-0.7234895	n k o	-0.396744
-1.683379	n k r	0
-0.8880386	n k u	-0.3440267
-1.173934	o k </s>
-0.9329367	o k a	-0.1334416
-2.146899	o k c	0
-1.212549	o k e	-0.3967439
-1.041886	o k i	-0.2608646
-1.364381	o k l	-0.07717573
-1.358575	o k n	-0.1075086
-0.7182511	o k o	-0.1895154
-1.272107	o k r	-0.09378055
-1.739618	o k s
-1.767512	o k t	-0.2341182
-0.8191024	o k u	-0.1938152
-1.564938	o k w	-0.13027
-1.89159	o k ó	0
-1.84723	o k ě	-0.2341182
-1.988327	o k ł	0
-1.38431	o k š	-0.149267
-0.9733448	p k </s>
-0.8269299	p k a	-0.1465035
-0.8349198	p k i	-0.2718051
-0.6610625	p k o	-0.2563357
-0.8355222	p k u	-0.2718051
-0.9829009	r k </s>
-0.7895369	r k a	-0.3506509
-1.296967	r k e
-0.7947959	r k i	-0.3967427
-1.674612	r k l	0
-0.7845323	r k o	-0.3128357
-0.8804716	r k u	-0.1511224
-1.842486	r k w	0
-1.527961	r k y	-0.1169054
-2.348133	r k ě	0
-1.455802	s k </s>
-0.8080567	s k a	-0.3111196
-0.7178304	s k e	-0.7515013
-0.7678903	s k i	-0.7471408
-1.809249	s k j	-0.2718051
-1.825159	s k l
-0.8283705	s k o	-0.2648529
-1.861804	s k r	0
-2.246639	s k t	0
-0.9115722	s k u	-0.3812756
-1.464345	s k ó	-0.1588954
-1.598869	s k ł	-0.3967439
-1.982025	s k š	0
-0.9386309	t k </s>
-0.7040659	t k a	-0.2502665
-1.568184	t k e	0
-0.7548358	t k i	-0.3619799
-0.7011142	t k o	-0.2730708
-0.9410814	t k u	-0.1417108
-1.847523	t k ó	0
-1.94426	t k ł	0
-1.821697	t k š	0
-1.282118	u k </s>
-0.8249913	u k a	-0.1422447
-1.566682	u k c	-0.2341182
-1.07028	u k i	-0.3967439
-1.150543	u k n	-0.1077048
-0.7633343	u k o	-0.2280568
-1.333797	u k r	-0.1262262
-1.562286	u k t	-0.0931842
-0.8314893	u k u	-0.2997197
-1.767999	u k ł	0
-1.645436	u k š	0
-0.9039053	w k </s>
-0.740443	w k a	-0.2084889
-0.7461962	w k i	-0.3967439
-0.7349742	w k o	-0.2071078
-0.9077772	w k u	-0.2718051
-0.729452	y k </s>
-0.8150603	y k a	-0.07921328
-1.214032	y k i	-0.2341182
-0.983041	y k n	-0.0748592
-0.5878608	y k o	-0.2605882
-1.21501	y k u
-1.096048	z k </s>
-0.621928	z k a	-0.1145453
-0.9750178	z k i	-0.1023931
-0.9556193	z k o	-0.1429812
-0.8261867	z k u	-0.1679355
-1.645161	z k ó	0
-1.741897	z k ł	0
-1.037093	ó k i	0
-1.523431	ó k ł	0
-1.400868	ó k š	0
-0.9843259	ć k o	0
-0.8305365	ě k a	-0.06387061
-1.139992	ě k i	-0.04900181
-1.680793	ě k n	0
-0.6189529	ě k o	-0.1744104
-0.549666	ě k u	-0.4024638
-0.7385921	ł k a	-0.1049229
-1.085599	ł k e
-0.7444363	ł k i	-0.3967439
-0.733038	ł k o	-0.04478869
-0.9052389	ł k u	-0.1679355
-0.8966646	ń k </s>
-0.7449362	ń k a	-0.1867663
-0.9006785	ń k i	-0.2341182
-0.8807549	ń k o	-0.06041209
-0.7528051	ń k u	-0.1679355
-0.584625	ŕ k a	-0.2094965
-0.9105352	ŕ k i	-0.1023931
-0.8913956	ŕ k o	-0.1591624
-0.91128	ŕ k u	-0.2341182
-0.5310653	ś k o	0
-0.9257553	š k </s>
-0.7063589	š k a	-0.2879523
-1.293009	š k i	-0.2341182
-2.153814	š k j	0
-1.756871	š k l	0
-0.7628273	š k o	-0.1774384
-0.9870975	š k r	-0.1590922
-1.035264	š k u	-0.3967439
-0.9897448	š k ó	-0.2670751
-1.061465	ž k </s>
-0.7904982	ž k a	-0.1592165
-1.243313	ž k e	-0.1636424
-0.7954255	ž k i	-0.3590156
-0.7858058	ž k o	-0.1594606
-0.6305889	ž k u	-0.4381636
-0.7317133	<s> l a	-0.6139734
-1.330072	<s> l e	-0.3363712
-0.5857122	<s> l i	-0.902639
-1.21225	<s> l o	-0.5021699
-0.6902189	<s> l u	-0.9510311
-2.391025	<s> l y	-0.1368971
-0.637623	<s> l ě	-0.8618444
-1.379078	a l </s>
-0.9489195	a l a	-0.1434755
-2.077675	a l b	0
-1.905765	a l c	0
-0.9579545	a l e	-0.1736166
-2.765822	a l f	0
-2.487763	a l g	0
-0.6322993	a l i	-0.4322496
-1.562905	a l k	0
-1.007316	a l n	-0.31832
-0.9179783	a l o	-0.2703062
-1.88974	a l s	0
-1.960372	a l t	0
-1.182424	a l u	-0.1120397
-2.269707	a l y	0
-1.241702	a l ě	-0.1247635
-1.93491	a l ś
-1.601659	a l š	-0.05645434
-0.9119886	b l a	-0.04243552
-0.9246889	b l e	-0.07717076
-0.5817163	b l i	-0.166608
-0.7188231	b l o	-0.1653267
-1.087152	b l u	0
-0.9334842	b l ě	-0.09312335
-1.083335	c l a	0
-0.6525431	c l i	-0.2341182
-0.6793184	c l ě	0
-0.6101853	d l a	-0.1672061
-0.5591646	d l e	-0.3325538
-0.6079962	d l i	-0.1452622
-1.237103	d l o	-0.2341182
-1.272309	d l u	-0.2341182
-0.9398901	e l </s>
-0.9007648	e l a	-0.3308446
-1.866117	e l c	-0.02301807
-0.9088051	e l e	-0.2005257
-1.011887	e l i	-0.1870923
-1.5147	e l k	-0.17876
-1.036322	e l n	-0.3627946
-0.7834465	e l o	-0.4461507
-1.305288	e l s	-0.3067995
-1.083918	e l u	-0.3785384
-1.559905	e l ě	0
-1.892515	e l ś	-0.2341182
-2.227861	e l š	0
-0.8372786	f l a	-0.04243552
-0.7094647	f l e	-0.1361914
-0.8291394	f l i	0
-0.8391761	f l o
-1.207341	f l u	0
-0.8647251	g l a	-0.07698099
-1.516993	g l d	-0.2341182
-1.128251	g l e	-0.09283412
-0.8600247	g l i	-0.1239223
-1.226915	g l o	-0.124074
-1.268421	g l u	-0.09512408
-0.4025942	g l ě	-0.7241029
-0.704999	h l a
-0.9649405	h l i	0
-1.068878	h l ě	0
-1.064797	i l a	-0.1047976
-1.082317	i l e	0
-0.4991546	i l i	-0.2676507
-1.627788	i l l	0
-2.420476	i l m	0
-1.064688	i l n	-0.3024938
-0.8946536	i l o	-0.1424205
-2.201119	i l t	0
-1.095871	i l u	0
-1.224756	i l ě	-0.1304807
-0.7382098	j l i	-0.2341182
-1.114104	j l u	0
-0.7711408	j l ě	-0.1337664
-0.7641991	k l a	-0.1428409
-0.8607396	k l e	-0.06202628
-0.6888037	k l i	-0.1857286
-0.7650017	k l o	-0.03848246
-0.777873	k l u	-0.1753784
-1.267318	k l ě	-0.03539691
-0.9852738	l l a	0
-1.033353	l l e	0
-0.7064433	l l o	0
-1.069134	l l ě	0
-0.6325033	m l a	0
-1.096972	m l e	0
-0.7758749	m l i	0
-1.132753	m l ě	0
-0.4172457	n l i	-0.2341182
-1.101145	n l o	0
-1.382383	o l </s>
-0.9738612	o l a	-0.05968899
-1.663151	o l c
-0.8651938	o l e	-0.1292802
-0.9055722	o l i	-0.07173868
-1.921529	o l k	0
-1.71483	o l l	0
-1.060385	o l n	-0.1186031
-0.7631013	o l o	-0.3712919
-1.979524	o l s	0
-1.392778	o l u	0
-2.263328	o l w	0
-0.8211865	o l ě	-0.333215
-0.8222216	p l a	-0.08417512
-0.6317291	p l e	-0.128838
-0.7079873	p l i	-0.1054994
-0.8234382	p l o	-0.07800215
-1.134807	p l u	-0.1392628
-1.133109	p l ě	-0.2341182
-0.5944352	r l a	-0.09067489
-0.7439197	r l i	0
-0.7520685	r l o	-0.2341182
-1.101974	s l a	-0.04242221
-0.7854869	s l e	-0.1981899
-0.7027444	s l i	-0.1248757
-0.8615744	s l o	-0.1577343
-1.259615	s l u	-0.2341182
-0.6568285	s l ě	-0.3133277
-0.9759014	t l a
-0.5596588	t l e	-0.2080293
-0.5497805	t l i	-0.02759016
-1.24194	t l o	0
-1.324972	t l u	0
-1.321039	t l ě	0
-1.206807	u l </s>
-0.7356556	u l a	-0.07364967
-1.033466	u l e	-0.2078266
-0.7751192	u l i	-0.1300922
-1.60333	u l k
-0.9459223	u l o	-0.1792835
-1.621295	u l s	0
-1.497887	u l t	-0.06064072
-1.260539	u l u	-0.1732059
-0.9020169	u l ě	-0.2758054
-2.720004	u l ž	0
-0.4956041	w l a	-0.1374182
-0.6581346	w l i	0
-0.7826663	y l a	-0.08027845
-1.15231	y l e	0
-0.5680528	y l i	-0.3881337
-1.765673	y l k	0
-2.110642	y l l	0
-1.317869	y l n	-0.06241849
-0.8860374	y l o	-0.1531828
-1.23761	y l u	0
-0.5893854	z l i	-0.09065579
-0.7765862	z l u	0
-1.353011	ó l </s>
-0.8842892	ó l a	-0.1441784
-1.983471	ó l b	0
-1.494344	ó l c	-0.04758397
-0.8178771	ó l e	-0.0522255
-0.8013148	ó l i	-0.154753
-1.84222	ó l k	0
-0.9761769	ó l n	-0.2292868
-0.8857015	ó l o	-0.1539933
-1.900215	ó l s	0
-1.14186	ó l u	-0.2341182
-1.310224	ó l ě	0
-2.03803	ó l ś	0
-1.158221	ě l </s>
-1.024603	ě l a	0
-1.04981	ě l e	-0.117964
-0.5830345	ě l i	-0.1798003
-1.208086	ě l n	-0.06208649
-1.114359	ě l o	0
-1.197391	ě l u	0
-1.288253	ě l ś	-0.2341182
-0.2764783	ś l ě	-0.2341182
-0.65809	š l a	-0.140377
-0.6525431	š l i	-0.1336196
-1.030067	ž l u	0
-1.026135	ž l ě	0
-0.7318818	<s> m a	-0.9109027
-1.40243	<s> m e	-0.4137333
-1.162534	<s> m i	-0.8148057
-0.9027477	<s> m j	-1.499406
-2.317764	<s> m l	-0.1380814
-2.949088	<s> m m	-0.2341182
-2.266507	<s> m n	-0.2720375
-1.221161	<s> m o	-0.5991045
-2.00548	<s> m r	-0.6713091
-1.233608	<s> m u	-0.6440457
-1.419936	<s> m y	-0.6110256
-0.6387335	<s> m ó	-1.226011
-0.9680591	<s> m ě	-0.8700174
-1.223481	<s> m ł	-1.362885
-2.939037	<s> m š	-0.2341182
-0.7708443	a m </s>
-1.049812	a m a	-0.169089
-1.855191	a m b	0
-1.108804	a m e	-0.2050482
-0.7848372	a m i	-0.5407966
-1.25314	a m j	-0.1674276
-1.858841	a m k	-0.1671358
-1.555898	a m n	-0.1044538
-1.155167	a m o	-0.09967943
-1.79138	a m p	-0.08452523
-2.293669	a m r	0
-1.902285	a m s	0
-1.874751	a m t	-0.1696941
-1.497425	a m u	-0.09286967
-0.8347182	a m y	-0.8355422
-1.688502	a m ó	-0.1590552
-1.41284	a m ě	-0.1964221
-2.296096	a m š	0
-0.5377024	b m a
-1.210272	b m y	0
-1.290803	b m ě	0
-1.143238	c m a	0
-0.7838038	c m i
-0.7507126	c m j	-0.2341182
-1.226669	c m y	0
-1.364355	d m i	0
-1.195106	d m j	0
-0.6453274	d m ě
-0.6883563	e m </s>
-1.18557	e m a	-0.04995926
-1.666709	e m b	-0.2718052
-1.220382	e m e	-0.2109559
-1.365607	e m i	-0.05255453
-1.014849	e m j	-0.3806978
-1.773544	e m n	0
-1.144912	e m o	-0.06555808
-1.765923	e m p
-1.787832	e m r	-0.2341182
-1.975572	e m s	0
-0.6700805	e m u	-0.3986399
-1.426484	e m y	-0.07533772
-1.641165	e m ó	-0.07415307
-1.335415	e m ě	-0.0899113
-2.425651	e m ž	0
-1.130382	g m e	0
-1.104998	h m y	0
-0.7266071	i m </s>
-0.7810528	i m a	-0.1999962
-2.35235	i m c	0
-1.134121	i m e	-0.1462105
-0.925778	i m i	-0.3721187
-1.308961	i m j	-0.2390942
-1.819098	i m n	0
-1.136736	i m o	-0.07079541
-1.603053	i m p	-0.1559446
-1.734032	i m s	-0.2341182
-1.56644	i m u	0
-0.9511355	i m y	-0.4039609
-1.229194	i m ě	-0.2152417
-2.181393	i m š	0
-0.842054	j m </s>
-1.083741	j m a	-0.08525444
-2.019522	j m c	0
-1.128396	j m j	-0.2341182
-1.48627	j m n	0
-1.141718	j m o	-0.121493
-1.688297	j m s	0
-1.317614	j m u	0
-0.735224	j m y	-0.4936539
-1.211919	j m ó	0
-2.258369	j m ł	0
-0.5764659	k m ó	-0.2341182
-1.102528	l m a	0
-0.6385085	l m o	-0.2341182
-0.4479687	m m </s>
-0.688658	m m m	-0.05078213
-0.7396577	o m </s>
-0.7721212	o m a	-0.3409758
-2.019048	o m b	0
-2.003089	o m c	-0.2341182
-1.19113	o m e	-0.2059513
-1.278329	o m i	-0.1100165
-1.305897	o m j	-0.5728351
-1.225835	o m n	-0.2067677
-1.099431	o m o	-0.1451665
-1.781088	o m p	-0.05759157
-1.893733	o m s
-1.147337	o m u	-0.2626892
-1.016763	o m y	-0.3477922
-1.438898	o m ó	-0.200089
-1.40296	o m ě	-0.1210351
-2.600257	o m ł	0
-2.190452	o m š	0
-1.104998	p m y	0
-1.082346	r m </s>
-0.6594975	r m a	-0.08178865
-0.9582128	r m e	-0.1330986
-1.519812	r m i	0
-1.350564	r m j	0
-0.7979233	r m o	-0.09794124
-1.112238	r m u	0
-1.423113	r m ě	0
-0.8420967	s m a	-0.08652987
-1.16449	s m e	-0.1250766
-0.8635726	s m j	-0.335517
-0.8697576	s m o	-0.1002505
-1.035606	s m u	-0.09348216
-0.759409	s m ě	-0.1042949
-1.225728	t m u	0
-1.169539	t m y	0
-0.7114788	t m ě	-0.01957172
-1.158057	u m </s>
-0.9127499	u m a	-0.1165026
-1.044744	u m e	-0.1791544
-1.364113	u m i
-1.039091	u m j	-0.2390942
-1.554223	u m l
-1.578207	u m n	0
-0.7935669	u m o	-0.2247239
-1.868679	u m p	0
-1.510929	u m r	-0.2341182
-1.409551	u m u	0
-1.036448	u m y	-0.1029309
-1.381291	u m ó	-0.1049561
-1.315855	u m ě	-0.0245559
-1.940502	u m š	0
-0.6816781	y m </s>
-0.7753853	y m a	-0.2946772
-2.330804	y m b	0
-1.454946	y m e	-0.07386564
-0.8990496	y m i	-0.313695
-1.224174	y m j	-0.2563357
-1.750034	y m l	0
-1.291538	y m n	-0.07991087
-1.36103	y m o	0
-1.679762	y m p	0
-1.93198	y m s	0
-1.369757	y m u	-0.1281095
-1.126155	y m y	-0.3349399
-1.814416	y m ź	-0.2341182
-1.767736	y m ž	-0.1006069
-1.085328	z m a	-0.07373231
-1.324738	z m e	0
-1.06861	z m i	-0.183055
-1.133255	z m j	0
-1.023106	z m o	0
-1.029823	z m u	0
-1.129262	z m y	-0.2341182
-1.079124	z m ó	-0.1144319
-0.8859313	z m ě	-0.1214457
-1.021567	ó m a	0
-1.112979	ó m j	0
-1.104998	ó m y	0
-1.319524	ó m ó	0
-0.6161847	ě m a	-0.05224533
-1.863095	ł m c	0
-0.7507126	ś m j	-0.2341182
-1.26198	ś m o	0
-0.7661721	ś m ě	-0.2341182
-0.3180776	š m a	-0.4936539
-0.6512294	š m e	-0.09970328
-0.4784182	<s> n a	-1.466902
-3.188765	<s> n d	-0.2718052
-1.064795	<s> n e	-1.694391
-1.484715	<s> n i	-0.8120003
-0.3689796	<s> n j	-2.202649
-1.207937	<s> n o	-1.026275
-3.433291	<s> n p
-3.34189	<s> n s
-1.797068	<s> n u	-0.6125793
-2.69912	<s> n w	-0.3387519
-2.738646	<s> n y	-0.1749942
-3.407951	<s> n z
-1.459251	<s> n ě	-0.8991478
-1.456123	a n </s>
-0.9992977	a n a	-0.5517001
-1.338139	a n c	-0.2475155
-1.442232	a n d	-0.1585187
-1.017247	a n e	-0.7668138
-2.180338	a n g	0
-1.000751	a n i	-0.3223248
-0.9460357	a n j	-1.037723
-1.219334	a n k	-0.4152433
-1.890712	a n n	-0.1780487
-1.019829	a n o	-0.4284231
-1.343311	a n s	-0.3486271
-1.256497	a n t	-0.1766256
-1.230296	a n u	-0.2095763
-2.407702	a n w	0
-1.069706	a n y	-0.5779557
-2.01041	a n ě	-0.2341182
-1.767975	a n ź	-0.4936539
-2.117149	a n ž	0
-1.026466	b n a	-0.165705
-0.6628824	b n e	-0.6075973
-1.136143	b n i	-0.0758272
-1.137297	b n j	-0.1053987
-0.9420164	b n o	-0.2530776
-0.8126419	b n u	-0.4047731
-0.7132633	b n y	-0.6599851
-0.9201413	c n a	-0.3835577
-0.7558751	c n e	-0.7241026
-1.079364	c n i	-0.09981541
-0.8072858	c n j	-0.4537764
-0.9208258	c n o	-0.3205677
-0.9245741	c n u	-0.4680811
-0.8118277	c n y	-0.6792907
-0.9759305	d n a	-0.1524309
-0.8300188	d n e	-0.5907229
-0.8759035	d n i	-0.3254189
-0.793928	d n j	-0.6075977
-0.9228395	d n o	-0.2437167
-0.834361	d n u	-0.323314
-0.8803997	d n y	-0.6977739
-1.235182	e n </s>
-1.100768	e n a	-0.1185008
-2.021411	e n b	-0.2341182
-1.27332	e n c	-0.2131793
-1.364389	e n d	-0.09599159
-1.265376	e n e	-0.1551746
-1.747876	e n g	-0.06539868
-0.9144784	e n i	-0.227763
-0.8854628	e n j	-0.5364856
-1.333223	e n k	-0.2279892
-1.102015	e n o	-0.244696
-2.316625	e n r	0
-1.360032	e n s	-0.1495858
-1.052116	e n t	-0.2875469
-1.363073	e n u	-0.1145142
-1.376507	e n y	-0.07226577
-1.731982	e n ě	0
-1.626923	e n ś	-0.1477662
-1.996218	e n ź	-0.2341182
-2.738518	e n ž	0
-0.8491073	g n a	-0.1720636
-1.303009	g n e
-0.6619604	g n i	-0.2138412
-0.7168633	g n j	-0.3996217
-1.045668	g n o	-0.04596549
-0.7809032	g n u	-0.2872367
-1.289238	g n ě	-0.09751893
-1.065715	h n i	0
-1.057809	h n o	0
-0.7312873	h n u	-0.04746954
-1.446354	i n </s>
-0.8840346	i n a	-0.3678115
-1.618203	i n c	-0.1137647
-1.818135	i n d	-0.06785265
-1.069836	i n e	-0.1674612
-1.891505	i n f	-0.1801919
-1.632312	i n g	-0.2098473
-1.21567	i n i	-0.0839964
-1.076928	i n j	-0.1595422
-1.478671	i n k	-0.1521595
-0.9110548	i n o	-0.3489893
-0.9671203	i n s	-0.3412102
-1.765896	i n t	-0.05906672
-1.005953	i n u	-0.2675693
-2.285725	i n w	0
-1.175291	i n y	-0.5128574
-1.29012	i n ě	-0.6397819
-2.887838	i n ž	0
-0.9233103	j n a	-0.1237489
-0.9183916	j n e	-0.2191217
-0.8222915	j n i	-0.2204216
-1.066965	j n j	-0.1648194
-1.062026	j n o	-0.04630204
-1.239951	j n s	-0.2563358
-0.9319507	j n u	-0.2639611
-0.832374	j n y	-0.2688607
-1.143202	k n a	-0.1297963
-1.136608	k n e	-0.1116603
-0.7466612	k n i	-0.1804938
-0.6326721	k n j	-0.6075972
-1.005932	k n o	-0.0984192
-0.8207646	k n u	-0.3253512
-1.16561	k n y	0
-1.405976	k n ě	-0.07248664
-0.9322549	l n a	-0.5728351
-0.7976298	l n e	-0.6239877
-1.020243	l n i	-0.1479885
-0.8635506	l n j	-0.3008973
-0.8617044	l n o	-0.1893769
-0.9374825	l n u	-0.3431424
-0.8071819	l n y	-0.5728352
-0.8726828	m n a	-0.2074665
-0.8691847	m n e	-0.3372559
-0.9836084	m n i	-0.0684427
-0.789402	m n j	-0.5350466
-0.8736259	m n o	-0.2736057
-0.9880967	m n u	-0.1145142
-0.8843837	m n y	-0.3132248
-0.990249	n n e	0
-1.010619	n n o	0
-1.035338	n n u	0
-1.356848	o n </s>
-0.8289872	o n a	-0.3810209
-2.10768	o n c	0
-1.977846	o n d
-0.9020513	o n e	-0.4303641
-2.879485	o n f	0
-1.961341	o n g	-0.2341182
-1.033189	o n i	-0.1873849
-1.274826	o n j	-0.2141302
-1.242184	o n k	-0.3100434
-0.9333697	o n o	-0.3459913
-1.62749	o n s	-0.1490691
-1.481819	o n t	-0.1564389
-1.117819	o n u	-0.7489265
-1.967728	o n w	-0.2341182
-0.9120497	o n y	-0.8089246
-1.441315	o n ě	-0.2675924
-1.24253	p n a	0
-0.8845567	p n e	-0.2341182
-1.021785	p n i	-0.02881388
-0.8960913	p n j	-0.06659925
-1.018063	p n o	-0.2341182
-0.7486277	p n u	-0.1295372
-0.9098042	p n y	-0.1439219
-1.58583	p n ě	0
-0.8323919	r n a	-0.1785509
-2.054709	r n c	0
-0.8295343	r n e	-0.4197449
-0.987597	r n i	-0.1331263
-0.9051853	r n j	-0.3994038
-1.929213	r n k	0
-0.9856488	r n o	-0.1100582
-0.9916523	r n u	-0.1704968
-0.84192	r n y	-0.3297408
-0.774388	s n a	-0.191248
-0.7302104	s n e	-0.7111378
-1.006186	s n i	-0.1456654
-0.9368884	s n j	-0.2603007
-1.087744	s n o	-0.2736057
-0.9390054	s n u	-0.3355171
-0.8822775	s n y	-0.5963163
-1.439503	s n ě	-0.07380103
-0.8355362	t n a	-0.2991247
-0.7594703	t n e	-0.6201048
-1.112783	t n i	-0.2301186
-0.8371802	t n j	-0.5350736
-1.040514	t n o	-0.1745968
-0.8384135	t n u	-0.2928753
-0.8016095	t n y	-0.7155029
-1.701098	t n ě	-0.2341182
-0.7852448	u n a	0
-1.019635	u n d	-0.08793876
-1.123	u n e
-1.936079	u n g	0
-0.8916115	u n i	-0.07774651
-0.8928774	u n j	-0.1312301
-1.724492	u n k	0
-1.134299	u n o	0
-1.780041	u n t	0
-1.147692	u n u	0
-1.162439	u n y	-0.2341182
-0.9214668	w n a	-0.03829326
-0.9165006	w n e	-0.3687151
-0.9252021	w n i	-0.1610991
-1.064496	w n j	-0.05457008
-2.493717	w n l	0
-1.059517	w n o	-0.06439969
-0.82479	w n u	-0.1496649
-0.8310622	w n y	-0.396744
-1.462921	y n </s>
-0.7100525	y n a	-0.3096755
-1.554574	y n c	-0.2341182
-1.058485	y n e	-0.1454602
-1.29825	y n i	0
-0.9711002	y n j	-0.2574818
-1.060101	y n k	-0.1866136
-0.8205112	y n o	-0.1984416
-1.535896	y n t	-0.08446576
-1.074164	y n u	-0.3967439
-1.083372	y n y	-0.2108687
-0.7224602	z n a	-0.2609263
-0.8645766	z n e	-0.4936538
-0.9298697	z n i	-0.1627843
-0.8151112	z n j	-0.3336312
-0.9286512	z n o	-0.2204266
-1.004429	z n u	-0.2588094
-0.9364309	z n y	-0.3967439
-1.166065	ó n </s>
-1.136719	ó n a	0
-1.772113	ó n c	0
-1.120738	ó n e	0
-0.7629379	ó n i	-0.08517711
-0.7639814	ó n j	-0.2977282
-1.032979	ó n o	-0.06182383
-1.193824	ó n y	0
-1.131085	ě n a	0
-0.9780716	ě n e
-0.8662928	ě n i	-0.06047801
-0.9937344	ě n j	-0.08340481
-0.8634543	ě n o	-0.1301353
-1.696532	ě n t	0
-0.9997065	ě n u
-1.012554	ě n y	-0.2341182
-1.035371	ł n a	0
-0.7944403	ł n e	-0.04960981
-1.047666	ł n i	0
-1.051786	ł n j	0
-1.03976	ł n o	0
-1.064479	ł n u	0
-1.092476	ł n y	0
-1.164423	ŕ n e	0
-0.5635555	ŕ n i	-0.09607625
-0.7329904	ŕ n j	-0.0837234
-0.7240407	ś n a	-0.2341182
-0.7196137	ś n e	-0.2341182
-1.128411	ś n i	0
-1.132532	ś n j	0
-0.9846565	š n a	-0.4936539
-0.7629197	š n e	-0.5905637
-0.7666128	š n i	-0.2450245
-0.9881459	š n j	-0.2977283
-0.7656012	š n o	-0.1407152
-1.246473	š n u	-0.2718052
-0.8347652	š n y	-0.4936538
-0.7954748	ź n e	-0.05242603
-0.8047093	ź n i	0
-1.138914	ź n o	0
-0.81001	ź n u	-0.2341182
-1.19163	ź n y	0
-0.9512698	ž n a	-0.3528104
-0.7945347	ž n e	-0.3994038
-0.9541791	ž n i	-0.09104098
-0.7391888	ž n j	-0.3416296
-0.9523156	ž n o	-0.4024638
-1.203978	ž n u	-0.2718052
-0.8781558	ž n y	-0.400375
-1.304218	ž n ě	-0.1110042
-1.513535	<s> o b	-0.181521
-1.086768	<s> o c	-0.7489264
-1.849658	<s> o d
-1.233627	<s> o f	-0.639782
-1.51018	<s> o k	-0.2341182
-0.7086071	<s> o p	-0.5660594
-0.2958237	<s> o r	-0.8801095
-0.9866204	b o c	-0.2326463
-1.150168	b o g	-0.1889759
-1.231545	b o j	-0.0778077
-1.053433	b o k	-0.1914941
-1.72878	b o l	0
-1.379365	b o m	-0.07337619
-1.473929	b o n	0
-1.989275	b o o	0
-1.125803	b o r	-0.04706436
-1.396892	b o s	-0.1772869
-1.371803	b o t	0
-0.7173099	b o w	-0.4213453
-1.550054	b o ś	-0.1304753
-1.913053	b o ź	0
-1.116182	c o </s>
-1.959794	c o b	0
-1.58398	c o g	-0.2718052
-1.024827	c o j	-0.3578151
-1.026637	c o m	-0.2344906
-0.8925828	c o n	-0.4825196
-1.650968	c o o	0
-1.577183	c o p	-0.133146
-1.294093	c o r	-0.1491793
-1.532055	c o t	0
-2.708554	c o u	0
-0.624976	c o w	-0.6423594
-1.770059	c o z	0
-1.772646	c o ł	0
-1.430226	c o ś	-0.2643939
-1.629552	c o š	-0.2718051
-1.766829	c o ž	-0.129298
-1.811585	d o a	-0.1375583
-0.9904865	d o b	-0.3501664
-1.690733	d o c	-0.1179683
-1.411958	d o d	-0.1773364
-1.564013	d o g	-0.1941253
-1.022987	d o j	-0.1334968
-1.304	d o k	-0.08473162
-1.553563	d o l	-0.1272353
-0.9368217	d o m	-0.1747603
-1.492104	d o n	0
-1.41554	d o p	-0.08842323
-1.382325	d o r	-0.0705957
-1.084529	d o s	-0.1789572
-1.506021	d o t	-0.08377862
-0.8913965	d o w	-0.3772852
-1.983292	d o ł	0
-2.363839	d o ń	0
-1.752187	d o š	0
-1.998396	d o ź	0
-1.608921	d o ž	-0.2718052
-0.938264	e o </s>
-1.526562	e o d	0
-0.8100894	e o l	-0.3967439
-1.12866	e o m	-0.1258353
-1.125909	e o r
-1.488771	e o s	0
-1.379336	e o w	0
-1.616859	f o k	0
-1.633187	f o l	0
-0.9617988	f o n	-0.08884733
-0.4821679	f o r	-0.3951794
-1.59009	f o s	0
-1.523027	f o t	0
-1.120875	f o w
-1.087259	g o </s>
-1.148093	g o d	-0.04122352
-1.651838	g o g	0
-1.123118	g o j	-0.08238122
-1.272681	g o m	-0.1235527
-1.369838	g o n
-1.124688	g o r	-0.0433083
-1.289768	g o s	-0.08510756
-1.384979	g o t	0
-0.7883464	g o w	-0.2405943
-1.787693	g o z	0
-1.794439	g o ł	0
-1.508912	g o ź	-0.2341182
-1.498397	g o ž	-0.08802939
-1.107656	h o </s>
-1.194908	h o b	-0.05498599
-1.344291	h o c
-1.525139	h o d	0
-1.337878	h o g	0
-1.277832	h o j	0
-1.32654	h o l	0
-1.284849	h o m	0
-1.329589	h o p	0
-1.280682	h o r	0
-1.307298	h o s
-1.275241	h o t	0
-1.137669	h o w	-0.05966995
-1.692868	h o z	0
-1.392091	h o ł	0
-1.547321	h o ś	0
-1.714718	h o ź	0
-1.684533	h o ž	0
-1.581871	i o d	0
-1.282458	i o g
-1.268332	i o k	0
-1.27382	i o l	0
-0.6366799	i o n	-0.2628085
-1.276148	i o p	0
-1.238343	i o r	0
-1.234078	i o t
-1.749599	i o z	0
-2.136892	i o ń	0
-0.9445819	j o </s>
-1.249888	j o b	-0.3342955
-1.669295	j o c	-0.1288559
-1.510361	j o d	-0.1132102
-1.519281	j o g	-0.1112879
-1.379744	j o j	-0.3479032
-1.761808	j o k	0
-1.511879	j o l	-0.1301991
-0.9271152	j o m	-0.4607862
-1.068663	j o n	-0.6120272
-1.773944	j o p	0
-1.481264	j o r	-0.1375926
-1.311778	j o s	-0.1894772
-1.229585	j o t	-0.4191611
-1.066822	j o w	-0.4079224
-1.846613	j o z	-0.0422563
-1.135663	j o ś	-0.7489264
-1.151243	j o š	-0.4284734
-0.996224	k o </s>
-2.079554	k o a	0
-1.586169	k o b	-0.100174
-1.594567	k o c	-0.1868327
-1.373095	k o d	-0.269139
-2.175576	k o f	0
-1.590802	k o g	-0.2021078
-0.9626639	k o j	-0.5290658
-1.579813	k o k	-0.08445579
-1.584091	k o l	-0.1114081
-0.9033836	k o m	-0.6123659
-1.404269	k o n	-0.1807462
-2.237959	k o o	0
-1.275932	k o p	-0.1411299
-1.306234	k o r	-0.135253
-1.227745	k o s	-0.273103
-1.354418	k o t	-0.3137738
-0.8303016	k o w	-0.8738316
-2.139886	k o z	0
-2.010939	k o ł	-0.1277835
-1.885804	k o š	-0.07005628
-1.878301	k o ž
-1.330872	l o </s>
-1.397482	l o b	0
-1.118896	l o d	-0.1374679
-1.401743	l o g	-0.2109073
-1.104865	l o j	-0.2357751
-1.191148	l o k	-0.08732775
-1.045479	l o m	-0.2302982
-0.8567147	l o n	-0.4428182
-1.629825	l o r	0
-1.384923	l o s	-0.1076459
-1.624146	l o t
-0.7011327	l o w	-0.45196
-1.890575	l o ś	0
-2.049152	l o š	0
-1.202861	m o </s>
-1.514129	m o b	-0.2718052
-1.382294	m o c	-0.06184366
-1.508788	m o d	-0.07314082
-1.378074	m o g	-0.04262746
-0.9334664	m o j	-0.3124361
-1.26091	m o k	-0.01210833
-1.510913	m o l	-0.06205813
-1.033774	m o m	-0.2524524
-1.449664	m o n	-0.06803837
-1.630602	m o p	0
-1.159333	m o r	-0.1318743
-1.603931	m o s	0
-1.463536	m o t	-0.04156732
-0.8856022	m o w	-0.4327657
-1.568688	m o z	-0.09773865
-1.713289	m o ź	0
-1.295075	m o ž	-0.2146583
-1.044874	n o </s>
-1.592414	n o a	-0.1381766
-1.773193	n o b	-0.06617975
-1.324385	n o c	-0.1299175
-2.068654	n o e	-0.2341182
-1.322217	n o g	-0.1170322
-1.163352	n o j	-0.3296875
-1.629327	n o k	-0.1759272
-1.880274	n o l	0
-1.060545	n o m	-0.4113629
-1.416119	n o n	-0.1906705
-1.449666	n o p	-0.1559361
-1.25098	n o r	-0.1565136
-0.8478125	n o s	-0.3749916
-1.597152	n o t	-0.06219787
-0.8600026	n o w	-0.4512413
-1.964643	n o ł	-0.2341182
-1.639641	n o ś	-0.03626087
-1.681807	n o š	-0.168298
-2.224464	n o ź	0
-1.401401	n o ž	-0.1093459
-0.9417507	o o </s>
-0.9943938	o o k	0
-0.9977729	o o l	-0.2341182
-1.585408	o o p	0
-0.8041526	o o r	-0.1397039
-1.413572	p o d	-0.05485275
-1.700263	p o g
-1.385541	p o j	-0.1718119
-1.025038	p o k	-0.4471677
-1.30473	p o l	-0.2578602
-0.851547	p o m	-0.4204675
-1.615025	p o n	0
-1.691081	p o p	-0.05127766
-1.068355	p o r	-0.1664958
-1.403481	p o s	-0.08510756
-1.520004	p o t	-0.08477297
-0.8132607	p o w	-0.3790752
-1.758199	p o z	-0.2341182
-0.9466804	p o ł	-0.2750507
-1.52642	r o </s>
-1.364824	r o b	-0.1365303
-1.524058	r o c	-0.07823867
-1.204788	r o d	-0.3835403
-1.930409	r o f	-0.04476612
-1.520239	r o g	-0.1772524
-1.190433	r o j	-0.2405818
-1.509094	r o k	-0.117633
-1.744693	r o l	-0.06147814
-1.080103	r o m	-0.2412724
-1.107841	r o n	-0.2528294
-1.51527	r o p	-0.02952653
-1.791225	r o r
-1.158187	r o s	-0.4874602
-1.340677	r o t	-0.04238673
-0.9586474	r o w	-0.4546689
-1.139922	r o z	-0.1838458
-2.078654	r o ń	0
-1.619349	r o ś	-0.2035153
-1.553006	r o š	-0.1067251
-1.274104	r o ź	-0.3296168
-1.54883	r o ž	-0.1548791
-1.011049	s o </s>
-1.482095	s o b	-0.1097602
-1.33298	s o c	-0.3967439
-2.518165	s o f	0
-0.9144363	s o j	-0.5697519
-1.845069	s o k	0
-1.323889	s o l	-0.1587685
-1.032615	s o m	-0.3150851
-1.096641	s o n	-0.2407899
-1.616188	s o p	0
-1.190749	s o r	-0.06731761
-1.561499	s o t	0
-0.7104637	s o w	-0.4415802
-1.679139	s o ł	-0.03469359
-1.01317	t o </s>
-1.650692	t o b	0
-1.663872	t o c	0
-1.760005	t o d	-0.07272159
-2.487188	t o f	0
-1.657946	t o g	-0.1271065
-0.9567754	t o j	-0.2508891
-1.502891	t o k	-0.07909537
-1.647452	t o l	-0.09008826
-0.9582485	t o m	-0.4600152
-1.585764	t o n	0
-1.318632	t o p	-0.153508
-1.072264	t o r	-0.3010628
-1.179148	t o s	-0.3383135
-1.720259	t o t	0
-0.7241725	t o w	-0.5902097
-1.771569	t o ś	0
-1.175153	w o </s>
-0.9506822	w o b	-0.1933035
-1.6286	w o c	0
-1.476159	w o d	-0.1019031
-1.48623	w o g	-0.0466238
-1.204027	w o j	-0.06992086
-1.472558	w o k	-0.07110289
-1.293968	w o l	-0.09692219
-1.207105	w o m	-0.2404939
-1.544247	w o n	-0.1291743
-1.295442	w o p	-0.08946773
-1.271149	w o r	-0.130697
-1.463554	w o s	-0.1116936
-1.268362	w o t	-0.06197405
-1.08813	w o w	-0.4126678
-1.922883	w o y	-0.2341182
-1.67431	w o z	-0.07904388
-1.083764	w o ł	-0.40138
-1.728023	w o ś	-0.2341182
-1.681778	w o ź	-0.2718052
-1.304449	z o </s>
-1.203733	z o j	-0.0778077
-1.771862	z o l	0
-0.8231439	z o m	-0.416445
-1.030024	z o n	-0.09682602
-1.037382	z o r	-0.07902294
-0.5681236	z o w	-0.3001214
-2.254322	z o y	0
-1.94103	z o ł	0
-0.4367505	ć o </s>
-1.717879	ć o b	0
-1.704475	ć o d	0
-1.604845	ć o j	0
-1.258165	ć o m	-0.2341182
-1.087379	ć o n	-0.147958
-0.9124356	ć o w	-0.1685015
-0.8108544	ł o </s>
-1.582775	ł o b	0
-1.900167	ł o c	0
-1.174835	ł o d	-0.1782036
-1.33808	ł o g	-0.1721991
-1.225638	ł o j	-0.0895692
-1.687834	ł o k
-1.228791	ł o m	-0.1819529
-1.296853	ł o n	-0.1255138
-1.700006	ł o p	-0.2341182
-1.758994	ł o r	0
-1.108352	ł o s	-0.09440663
-1.404092	ł o t	-0.2106559
-1.090349	ł o w	-0.254619
-1.636835	ł o z	-0.2718052
-2.407859	ł o ń	0
-1.335993	ł o ś	-0.1655728
-1.778406	ł o š	0
-1.367275	ł o ź	-0.1191075
-1.132413	ł o ž	-0.2333435
-0.3826742	ś o </s>
-1.558622	ś o c	-0.2341182
-2.381941	ś o e	0
-1.829594	ś o j	0
-1.366122	ś o m	-0.1235527
-0.8345019	ś o n	-0.3253596
-1.212872	ś o p	-0.1987475
-0.9749583	ś o w	-0.2615598
-0.9822391	š o </s>
-1.228047	š o b	-0.05546797
-1.532703	š o c	0
-1.389934	š o g	-0.08209789
-1.20021	š o j	-0.02994233
-1.507509	š o k	0
-1.007776	š o m	-0.1600145
-1.084358	š o n	-0.3370374
-1.495304	š o s	-0.02222395
-0.763999	š o w	-0.3513113
-1.916911	š o ł	0
-1.522081	š o ś	-0.2341182
-1.260129	š o š	-0.05513414
-0.9309584	ź o </s>
-1.421007	ź o b	-0.2718052
-1.847671	ź o j	0
-0.9468018	ź o m	-0.3981034
-0.8216249	ź o n	-0.5327529
-1.020513	ź o t	-0.5728351
-0.8204967	ź o w	-0.2317469
-1.034844	ź o ś	-0.5728351
-1.146782	ź o š	-0.4936539
-2.106695	ź o ž	0
-0.9009492	ž o </s>
-1.319266	ž o g	-0.2718052
-1.125118	ž o j	-0.2563358
-1.128219	ž o m	-0.1641702
-0.7766371	ž o n	-0.3293284
-1.419562	ž o r	0
-1.686873	ž o t	0
-0.7752504	ž o w	-0.396755
-1.966202	ž o ł	0
-1.316789	ž o ś	-0.1151279
-1.516413	ž o š	-0.2341182
-1.570203	<s> p a	-0.7535886
-2.482809	<s> p c	-0.8760087
-2.269605	<s> p e	-0.6608931
-1.840677	<s> p i	-0.6960878
-1.826081	<s> p j	-1.428152
-2.114159	<s> p l	-0.8458364
-1.097429	<s> p o	-1.253705
-1.255286	<s> p r	-1.413172
-2.502277	<s> p s	-0.3764493
-2.500484	<s> p t	-1.073438
-2.160308	<s> p u	-0.5315745
-2.055341	<s> p y	-1.201224
-0.6053753	<s> p ó	-1.617755
-2.085758	<s> p ě	-0.7179901
-1.760517	<s> p ł	-1.321884
-0.3442155	<s> p ś	-2.216454
-1.369439	<s> p š	-1.415892
-0.8300835	a p a	-0.1018258
-1.712882	a p c
-1.127507	a p i	-0.1209231
-0.99275	a p j	-0.2620724
-1.541443	a p k	-0.1572401
-1.609278	a p l	0
-1.82039	a p n	0
-0.8193471	a p o	-0.1617421
-1.07256	a p r	-0.04400459
-1.650149	a p t
-1.398172	a p u	0
-1.541921	a p ó	-0.05339522
-1.318567	a p ě	-0.1804586
-1.862903	a p ł	0
-1.259489	a p ś	-0.011849
-1.527839	a p š	-0.05180043
-0.2929738	b p ś	0
-1.300303	d p a	0
-0.7743282	d p i	-0.1760997
-0.9054226	d p o	0
-1.410659	d p r	0
-1.011489	d p ě	-0.2341182
-0.9636028	d p ś	-0.1089166
-1.383844	e p </s>
-0.7766078	e p a	-0.06752218
-1.966746	e p c	0
-1.308155	e p i	-0.05022347
-1.329749	e p j	-0.2341182
-1.675147	e p l	0
-1.0522	e p o	-0.05796959
-1.008932	e p r	-0.249871
-1.190461	e p t	-0.01926862
-1.261108	e p u	-0.1145607
-1.389487	e p y	-0.1098484
-1.409103	e p ó	-0.02555965
-1.471889	e p ě
-1.742901	e p ł	0
-1.25558	e p ś	-0.2341182
-1.275711	e p š	-0.07879159
-0.2945063	g p </s>
-1.278622	i p </s>
-1.093395	i p a	0
-1.100701	i p i	-0.06853438
-1.226749	i p j	-0.1246
-1.218784	i p l	-0.124404
-1.372506	i p n	-0.2341182
-0.9422812	i p o	-0.1641071
-1.257287	i p r	-0.2341182
-1.271724	i p u	0
-1.284017	i p y	-0.2341182
-1.442748	i p ó	0
-1.362433	i p ě	0
-1.652444	i p ł	0
-1.290037	i p š	0
-1.178157	j p j	0
-1.235341	j p r	0
-1.327928	j p ó	0
-1.250036	j p ś	0
-1.124984	k p a	0
-0.8206425	m p a	-0.0410546
-1.152344	m p e	0
-0.8242295	m p i	0
-1.131854	m p j	0
-1.228716	m p l	-0.1202624
-1.080453	m p o	0
-1.154322	m p r	-0.1197743
-1.016119	m p u	0
-0.9807444	o p a	-0.06676681
-1.810506	o p c	0
-1.050775	o p e	-0.1985765
-1.087357	o p i	-0.1303474
-1.160442	o p j	-0.240606
-1.310621	o p l	-0.0555977
-2.487171	o p m	0
-1.57862	o p n	-0.1179022
-1.12549	o p o	-0.2450224
-1.109147	o p r	-0.1929213
-1.760946	o p s	0
-1.740289	o p t	0
-1.261567	o p u	-0.1477855
-1.367484	o p y	-0.04625845
-1.380497	o p ó	-0.1172131
-1.694488	o p ě	-0.2341182
-1.726156	o p ł	0.01839226
-1.112226	o p ś	-0.2034712
-1.190637	o p š	-0.5728351
-0.5734364	p p y	-0.2341182
-1.141114	r p i	0
-1.178157	r p j	0
-1.495111	r p n	0
-1.235341	r p r	0
-1.480446	s p </s>
-1.066613	s p a	-0.09188394
-0.9358826	s p e	-0.3132249
-1.070891	s p i	-0.06925307
-1.428835	s p j	-0.2341182
-1.419616	s p l	-0.08459623
-0.7970443	s p o	-0.2507058
