
\data\
ngram 1=36
ngram 2=838
ngram 3=5449
ngram 4=14401
ngram 5=23014

\1-grams:
-0.9866774	</s>
-99	<s>	-2.822834
-99	<unk>
-1.079494	a	-0.9609838
-1.920342	b	-0.6704602
-1.826425	c	-0.7872863
-1.539219	d	-0.6721227
-1.131478	e	-0.8897126
-2.729879	f	-0.5361804
-2.769527	g	-0.524652
-1.667979	h	-0.677719
-1.343279	i	-0.905342
-1.282279	j	-0.6071796
-1.493767	k	-0.8158646
-1.744854	l	-0.710247
-1.58999	m	-0.689862
-1.228733	n	-0.8231417
-1.12291	o	-0.9011519
-1.511293	p	-0.7063984
-1.448335	r	-0.7235605
-1.441492	s	-0.8018106
-1.54704	t	-0.7325746
-1.508133	u	-0.7730304
-1.257963	w	-0.7158378
-1.729734	y	-0.589018
-1.721293	z	-0.59716
-2.210219	ó	-0.5696149
-1.729661	ć	-0.7637342
-2.086658	č	-0.7337832
-1.911729	ě	-0.6375272
-1.832751	ł	-0.649683
-2.925342	ń	-0.5570971
-2.0244	ř	-0.2859474
-1.977625	š	-0.7620165
-2.085665	ź	-0.3378906
-2.159556	ž	-0.6193372

\2-grams:
-1.96419	<s> a	-1.117225
-1.713782	<s> b	-1.518465
-1.902585	<s> c	-1.389887
-1.244149	<s> d	-1.987354
-2.36056	<s> e	-0.8773133
-2.148732	<s> f	-1.261967
-2.534994	<s> g	-0.9374073
-1.473813	<s> h	-1.592297
-2.029294	<s> i	-1.395825
-1.831126	<s> j	-1.593911
-1.278206	<s> k	-1.865975
-1.908779	<s> l	-1.496474
-1.429797	<s> m	-1.617719
-1.045822	<s> n	-1.935442
-2.559808	<s> o	-0.9150268
-0.7554167	<s> p	-2.284153
-1.437121	<s> r	-1.91925
-1.055605	<s> s	-1.78067
-1.589241	<s> t	-1.479644
-3.578067	<s> u	-0.2831041
-0.7624273	<s> w	-2.317639
-1.02372	<s> z	-2.04826
-2.25339	<s> ć	-1.281165
-1.86371	<s> č	-1.448243
-2.626873	<s> ł	-0.920079
-1.979749	<s> š	-1.009748
-4.517689	<s> ź
-2.139104	<s> ž	-1.186184
-1.20409	a </s>
-1.862539	a a	-0.09377225
-1.503745	a b	-0.2682801
-1.259846	a c	-0.5399707
-1.299755	a d	-0.3466399
-2.01112	a e
-2.568892	a f	0
-1.756686	a g	-0.2024757
-1.584511	a h	-0.3761487
-2.127403	a i	-0.2692663
-1.334029	a j	-0.3843034
-1.296746	a k	-0.4283745
-1.274153	a l	-0.3852299
-1.284691	a m	-0.5341955
-1.193548	a n	-0.6830025
-1.476153	a p	-0.3111859
-1.258691	a r	-0.562205
-1.330615	a s	-0.3727163
-1.300244	a t	-0.601807
-2.229886	a u	-0.05209286
-1.311677	a w	-0.4519641
-2.431423	a y
-1.493287	a z	-0.346653
-1.439938	a ć	-0.4489731
-1.648618	a č	-0.3197793
-1.332776	a ł	-0.4422382
-1.758078	a ń	-0.09120494
-1.536552	a š	-0.3638132
-1.742735	a ž	-0.3166955
-1.320747	b </s>
-1.030145	b a	-0.4183128
-2.188755	b b	0
-2.211664	b c	0
-1.996543	b d	0
-1.288302	b e	-0.2289296
-2.070747	b h	-0.07541463
-1.185101	b i	-0.3157407
-1.087862	b j	-0.5842941
-1.752409	b k	-0.07613789
-1.225831	b l	-0.449627
-2.026913	b m	0
-1.166076	b n	-0.5602943
-0.9725371	b o	-0.360855
-1.905238	b p	-0.1057661
-1.363356	b r	-0.4149092
-1.628269	b s	-0.1673149
-2.001314	b t	0
-1.172548	b u	-0.2375369
-1.80407	b w	-0.07007325
-1.127762	b y	-0.4082041
-2.098716	b z	0
-1.655615	b ó	-0.1548129
-2.15881	b ć	0
-2.327283	b č
-1.416508	b ě	-0.4035987
-1.722453	b ł	-0.2782557
-1.883333	b š	-0.09688888
-2.35297	b ž	0
-1.025292	c </s>
-1.04046	c a	-0.5946386
-2.151432	c c	0
-0.8285809	c e	-0.3869662
-1.005828	c h	-0.4019617
-1.102177	c i	-0.32676
-1.920221	c j
-1.525657	c k	-0.1069338
-1.66499	c l	-0.2672484
-1.337469	c n	-0.2683617
-1.046667	c o	-0.3167673
-1.922465	c p	-0.1383264
-2.031081	c r
-2.090036	c t
-1.115221	c u	-0.5445559
-0.9361063	c y	-0.3687832
-2.315747	c č
-2.049339	c ě	-0.1444967
-2.153603	c ł	0
-1.28214	d </s>
-1.024959	d a	-0.6856646
-2.231255	d b	0
-1.907964	d c	-0.1710689
-1.954085	d d	-0.05631309
-1.201485	d e	-0.2035373
-2.020541	d h	-0.1852734
-1.355014	d i	-0.271198
-1.840956	d j	0
-1.430511	d k	-0.4366317
-1.33002	d l	-0.3821177
-1.724095	d m	-0.03579895
-1.255649	d n	-0.7532269
-1.053008	d o	-0.4228693
-1.938419	d p	-0.07872412
-1.261694	d r	-0.4465063
-1.529531	d s	-0.1598084
-2.06827	d t
-1.177678	d u	-0.3247524
-1.53205	d w	-0.1995478
-1.328762	d y	-0.3936242
-1.758231	d z	-0.1277772
-1.97886	d ó	-0.1340534
-2.137848	d ć
-2.173219	d č	-0.1251795
-2.29114	d ě
-1.534732	d ł	-0.3362744
-2.282256	d ń	-0.1583697
-1.701879	d š	-0.2031876
-1.040467	d ź	-0.7035276
-2.39995	d ž
-1.204078	e </s>
-1.67936	e a	-0.06840745
-1.578861	e b	-0.06145656
-1.499988	e c	-0.2370909
-1.445333	e d	-0.07494658
-1.906729	e e	0
-1.815107	e f	-0.178118
-1.815702	e g	-0.2538006
-1.264231	e h	-0.3909168
-2.059488	e i	-0.1893899
-1.198869	e j	-0.4479153
-1.385592	e k	-0.1816286
-1.212616	e l	-0.3393232
-1.259906	e m	-0.454998
-1.192848	e n	-0.614638
-1.757869	e o	-0.1469292
-1.540683	e p	-0.2153012
-1.19681	e r	-0.5334922
-1.249362	e s	-0.4292643
-1.297291	e t	-0.4497765
-1.848023	e u	-0.2134058
-1.463699	e w	-0.2037821
-1.649867	e z	-0.05207855
-1.461647	e ć	-0.307163
-1.86379	e č	-0.09724051
-2.14233	e ł	-0.08106425
-1.562008	e ń	-0.3191673
-1.444465	e š	-0.215547
-1.735211	e ž	-0.2106343
-1.389242	f </s>
-0.9992083	f a	-0.04674301
-1.844573	f b
-0.8181717	f e	-0.3147074
-1.946829	f g
-0.842548	f i	-0.2518283
-1.695909	f k
-1.200606	f l	-0.2112532
-1.552993	f n
-0.9353201	f o	-0.196116
-1.063904	f r	-0.257791
-1.670901	f s
-1.719787	f t	0
-1.17521	f u	-0.134972
-1.789712	f y	0
-1.391975	g </s>
-0.899112	g a	-0.1314846
-1.04308	g e	-0.2036155
-1.989164	g g	0
-1.714455	g h
-0.9399672	g i	-0.2291054
-1.738538	g l	-0.266243
-1.686937	g m	-0.1496528
-1.515321	g n	-0.07217672
-0.8533243	g o	-0.138312
-1.019913	g r	-0.2727381
-1.687073	g s
-0.896414	g u	-0.1667954
-1.814979	g y	0
-1.936065	g ó
-1.872705	g ě	0
-1.180702	h </s>
-1.03311	h a	-0.4632046
-2.167392	h c	0
-1.590367	h d	-0.2690764
-1.141656	h e	-0.2557366
-1.928868	h h	-0.1791735
-1.104993	h i	-0.2705036
-1.834633	h j	0
-1.982672	h k	0
-1.176504	h l	-0.5004357
-1.897324	h m	-0.05840782
-1.201475	h n	-0.3684457
-0.9857264	h o	-0.4189795
-1.116466	h r	-0.4616058
-1.948119	h s
-2.016408	h t	0
-1.121965	h u	-0.2407791
-1.724352	h w	-0.1027109
-2.120179	h y
-1.193018	h ó	-0.4214366
-2.120142	h ć
-2.129346	h ě	0
-1.223749	h ł	-0.3691056
-2.123912	h ń	-0.1007452
-2.26812	h ź
-2.290404	h ž	0
-1.263479	i </s>
-1.486373	i a	-0.1767817
-1.623984	i b	-0.2031706
-1.337482	i c	-0.3878725
-1.448831	i d	-0.3660887
-1.574985	i e	-0.2080553
-1.817429	i f	-0.3040895
-1.603556	i g	-0.2306232
-2.257356	i h	-0.06563607
-1.275402	i j	-0.6147079
-1.317771	i k	-0.5414011
-1.311714	i l	-0.2634468
-1.282572	i m	-0.4853439
-1.1646	i n	-0.5810168
-1.499687	i o	-0.2126628
-1.544636	i p	-0.08161521
-1.535633	i r	-0.07040262
-1.271858	i s	-0.4249148
-1.260188	i t	-0.482501
-2.275541	i u
-1.313732	i w	-0.4228075
-1.406703	i z	-0.4441768
-2.655773	i ó
-1.333132	i ć	-0.7382695
-1.589709	i č	-0.3623657
-2.464569	i ě	-0.266243
-1.440823	i ł	-0.6441562
-2.522067	i ń	-0.04786734
-1.477641	i š	-0.4743352
-1.871993	i ž	-0.2891596
-1.129877	j </s>
-0.9323013	j a	-0.5605824
-2.116596	j b	-0.02558686
-1.645927	j c	-0.208127
-1.927538	j d	0
-0.8980724	j e	-0.4577775
-2.000684	j h	0
-1.143945	j i	-0.3835621
-1.784182	j j
-1.825802	j k	-0.1294333
-2.039846	j l	0
-1.597492	j m	-0.1382555
-1.474896	j n	-0.3199986
-1.012985	j o	-0.3409928
-1.910453	j p	-0.07604064
-1.908744	j r	0
-1.400575	j s	-0.1763832
-1.699575	j t	-0.18394
-1.06497	j u	-0.2993321
-1.575078	j w	-0.07329734
-2.028205	j z	-0.09741847
-1.839118	j ó	-0.07677679
-1.324888	j ć	-0.3762129
-1.824346	j č	-0.1920025
-1.286485	j ě	-0.272696
-2.137946	j š	0
-2.194606	j ž	-0.266243
-1.084386	k </s>
-0.9641194	k a	-0.735318
-1.856426	k c	-0.3540667
-1.069565	k e	-0.534308
-2.608711	k f
-1.03701	k i	-0.6052049
-1.964343	k j
-2.150008	k k
-1.262157	k l	-0.5019417
-1.6403	k m	-0.2690901
-1.270591	k n	-0.6295251
-0.9689872	k o	-0.5275316
-2.119962	k p
-1.333616	k r	-0.5076853
-1.681289	k s	-0.1094617
-1.7069	k t	-0.211133
-1.013373	k u	-0.5519482
-1.624542	k w	-0.2460034
-2.242189	k y	0
-2.294106	k z
-1.564908	k ó	-0.1995005
-1.741132	k ć	-0.2529097
-2.208625	k ě	-0.1444967
-1.492145	k ł	-0.4516739
-1.717909	k ń	-0.2863775
-1.883271	k ř	-0.2616805
-2.421794	k š
-1.100101	l </s>
-0.9794877	l a	-0.4243256
-1.941126	l b	-0.04911339
-1.690686	l c	-0.2846849
-1.83147	l d	-0.176842
-0.9698463	l e	-0.5490949
-2.276575	l f	0
-2.441392	l g	0
-2.175686	l h
-0.9586018	l i	-0.5831385
-1.897541	l j	0
-1.493513	l k	-0.3440637
-2.167839	l l	-0.06937176
-2.002798	l m	-0.1550028
-1.381536	l n	-0.6002597
-0.9520993	l o	-0.3609113
-2.031885	l p
-1.482826	l s	-0.2339175
-1.834441	l t	-0.07217296
-1.064047	l u	-0.3831615
-1.804485	l w	0
-1.771451	l y	-0.09761533
-2.208356	l z
-1.986669	l ó	-0.0521775
-1.596972	l ć	-0.4625018
-1.970333	l č	-0.1092694
-1.181167	l ě	-0.3572396
-2.56566	l ń	0
-2.156243	l š	-0.04074713
-2.333723	l ž	0
-1.15965	m </s>
-1.040727	m a	-0.3924128
-1.926678	m b	-0.1728848
-2.191591	m c	-0.2027538
-1.959547	m d	-0.1040276
-1.094155	m e	-0.4169308
-2.109357	m h	0
-1.152581	m i	-0.3416937
-1.094782	m j	-0.7458363
-1.934522	m k	-0.0792914
-1.76017	m l	-0.10719
-1.834592	m m	-0.07667282
-1.252355	m n	-0.4290155
-1.048515	m o	-0.3714488
-1.699213	m p	-0.2266068
-1.678391	m r	-0.2713535
-1.527145	m s	-0.2774842
-2.077909	m t	0
-1.171027	m u	-0.2480907
-1.858904	m w
-1.085358	m y	-0.3935987
-2.138634	m z	0
-1.389162	m ó	-0.2670733
-2.195979	m ć
-1.956301	m č	-0.1206515
-1.376123	m ě	-0.3978214
-1.907017	m ł	-0.2609808
-2.440141	m ń	0
-2.141122	m š	0
-2.318624	m ž	-0.2662429
-1.349477	n </s>
-1.004078	n a	-0.5446699
-2.365755	n b	0
-1.600341	n c	-0.3864427
-1.619518	n d	-0.2916464
-1.02471	n e	-0.7647316
-2.141794	n f	-0.1157336
-2.143266	n g	-0.105797
-2.241836	n h	-0.266243
-1.044868	n i	-0.7049232
-1.039946	n j	-0.9332768
-1.510557	n k	-0.3721716
-1.892	n l	-0.2680544
-2.239912	n m
-1.967898	n n
-1.023694	n o	-0.613037
-2.185559	n p
-2.139953	n r
-1.501966	n s	-0.2543481
-1.682924	n t	-0.2740461
-1.039929	n u	-0.4294468
-1.919143	n w	-0.07582781
-1.048895	n y	-0.8111975
-1.886925	n z	-0.1993182
-2.10454	n ó	-0.04726506
-2.01167	n ć	-0.1807771
-1.564255	n č	-0.2247317
-1.667263	n ě	-0.09916949
-2.27311	n š	-0.08357869
-2.450607	n ž	-0.1458181
-1.174095	o </s>
-1.604579	o a	-0.03215137
-1.491806	o b	-0.08740741
-1.456923	o c	-0.3121285
-1.408864	o d	-0.3063995
-1.843091	o e	-0.1110836
-1.83465	o f	-0.1070496
-1.77098	o g	-0.2419153
-1.541337	o h	-0.4963206
-2.123338	o i	0
-1.331654	o j	-0.5773757
-1.333485	o k	-0.3471841
-1.350362	o l	-0.3490214
-1.260244	o m	-0.4585978
-1.264012	o n	-0.3073043
-1.581836	o o	-0.1896304
-1.381133	o p	-0.3664309
-1.250512	o r	-0.3803153
-1.350822	o s	-0.4856816
-1.360477	o t	-0.2229819
-2.241954	o u	0
-1.182956	o w	-0.6890979
-2.129881	o y	0
-1.480145	o z	-0.1108685
-1.583966	o ć	-0.5143828
-1.697016	o č	-0.3096755
-2.533995	o ě
-1.487287	o ł	-0.1666911
-2.12172	o ń	-0.007398218
-1.527131	o š	-0.3195313
-1.569856	o ž	-0.2618604
-1.298769	p </s>
-1.069586	p a	-0.4261048
-1.869591	p c	-0.1088399
-1.162507	p e	-0.2100282
-1.137347	p i	-0.3776209
-1.190281	p j	-0.6952351
-1.662905	p k	-0.2127877
-1.415895	p l	-0.3904321
-1.496346	p n	-0.2082245
-1.053097	p o	-0.4470817
-2.048503	p p
-1.093235	p r	-0.5616299
-1.562362	p s	-0.1185592
-1.512686	p t	-0.2201583
-1.21924	p u	-0.3119074
-1.861988	p w
-1.473002	p y	-0.3156577
-1.388191	p ó	-0.3047189
-2.12619	p ć	-0.266243
-2.265601	p č	0
-1.6442	p ě	-0.1586091
-1.423293	p ł	-0.3750584
-2.505977	p ń
-1.290189	p ř	-0.4387366
-1.898244	p š	-0.09446767
-2.371902	p ž
-1.258075	r </s>
-1.045541	r a	-0.5408527
-1.689584	r b	-0.2291142
-1.757551	r c	-0.2396917
-1.779646	r d	-0.1771562
-1.195806	r e	-0.3438768
-2.507352	r f	0
-1.940425	r g	-0.09194714
-2.166434	r h	-0.07060145
-1.140536	r i	-0.3491145
-1.132845	r j	-0.7661576
-1.556923	r k	-0.3152614
-1.837141	r l	-0.2487056
-1.795692	r m	-0.1315426
-1.439553	r n	-0.4328099
-1.052823	r o	-0.4675699
-2.001981	r p	-0.03104736
-1.842493	r r	-0.1511317
-1.544947	r s	-0.2416437
-1.698521	r t	-0.2273104
-1.157103	r u	-0.3688341
-1.879695	r w	0
-1.273543	r y	-0.3056617
-2.197389	r z	0
-1.357608	r ó	-0.337354
-1.740413	r ć	-0.2267414
-1.790329	r č	-0.1136004
-1.228567	r ě	-0.3526829
-2.313056	r ł	0
-2.525547	r ń
-1.881443	r š	-0.1210916
-2.048222	r ž	-0.08136196
-1.270092	s </s>
-1.161513	s a	-0.4035734
-2.389188	s b
-1.160002	s c	-0.585821
-2.127901	s d	0
-1.221076	s e	-0.2419292
-2.497172	s f	-0.09558503
-1.38827	s i	-0.2534947
-1.062492	s k	-0.5420653
-1.534203	s l	-0.267407
-1.57238	s m	-0.3294339
-1.266875	s n	-0.5328948
-1.146493	s o	-0.3303381
-1.413372	s p	-0.3546212
-2.002157	s r	-0.1598469
-2.065514	s s	0
-1.084405	s t	-0.5813828
-1.243962	s u	-0.3210752
-1.372072	s w	-0.3320264
-1.179843	s y	-0.4195672
-2.285349	s z	0
-2.500577	s ó	0
-1.435548	s ć	-0.3515614
-2.378641	s č	-0.08927172
-2.002639	s ě	-0.2706172
-1.442969	s ł	-0.4911151
-2.345211	s ń	-0.266243
-2.484334	s ž
-1.190267	t </s>
-1.042375	t a	-0.5467882
-2.352446	t b	0
-1.588198	t c	-0.135663
-2.081955	t d	-0.1484081
-1.06939	t e	-0.4172411
-2.484542	t f	-0.2662429
-1.917183	t h	-0.03149179
-1.239826	t i	-0.2827424
-1.899773	t j	0
-1.357398	t k	-0.4920049
-1.578705	t l	-0.1874072
-1.889983	t m	-0.08818633
-1.248951	t n	-0.7079208
-1.031664	t o	-0.3997486
-2.063714	t p	-0.03899615
-1.225526	t r	-0.6228322
-1.584747	t s	-0.2427456
-1.766776	t t	-0.1219906
-1.179741	t u	-0.3360757
-1.254468	t w	-0.3774016
-1.170413	t y	-0.5400643
-2.190524	t z	0
-2.033123	t ó	-0.1108911
-2.195067	t ć	-0.07421369
-2.015872	t č	-0.203933
-2.176407	t ě	-0.2692663
-1.737353	t ł	-0.2043358
-1.491297	t ř	-0.3353476
-1.996805	t š	-0.2052862
-1.06136	u </s>
-1.464736	u a	-0.2250454
-1.412588	u b	-0.2340573
-1.309817	u c	-0.4483596
-1.31806	u d	-0.315502
-1.787284	u e	-0.1518481
-2.539027	u f	0
-2.543164	u g
-1.761478	u h	-0.07100336
-1.938883	u i
-1.08875	u j	-0.9243548
-1.411405	u k	-0.1695897
-1.305235	u l	-0.3310952
-1.463126	u m	-0.1071639
-1.302024	u n	-0.1415453
-1.780728	u o	-0.2692663
-1.452395	u p	-0.2012326
-1.253608	u r	-0.2524317
-1.252866	u s	-0.3425512
-1.382654	u t	-0.3065133
-2.143694	u u
-1.404489	u w	-0.2764764
-2.293182	u y
-1.572894	u z	-0.2032235
-1.43757	u ć	-0.2734242
-1.736206	u č	-0.2859042
-2.396263	u ě	0
-1.889524	u ł	-0.1746644
-2.391385	u ń	-0.03856638
-1.346976	u š	-0.2724462
-2.477102	u ź
-1.553163	u ž	-0.2108047
-1.464953	w </s>
-0.9324571	w a	-0.57479
-2.230407	w b	-0.266243
-1.893924	w c	-0.1702265
-2.039523	w d	-0.05581683
-1.13012	w e	-0.3043132
-2.5187	w g	0
-1.084804	w i	-0.4569488
-1.102197	w j	-0.631656
-1.794007	w k	-0.3172142
-1.648777	w l	-0.09502352
-2.116508	w m
-1.517844	w n	-0.2985516
-0.9738268	w o	-0.4356829
-2.064018	w p
-1.517325	w r	-0.2400339
-1.773179	w s	-0.1134671
-2.088253	w t	0
-1.181323	w u	-0.2946303
-1.264472	w y	-0.5029163
-1.742372	w z	-0.1900886
-1.416167	w ó	-0.2737923
-1.744049	w ć	-0.3375631
-1.686886	w č	-0.2413838
-1.205826	w ě	-0.3186022
-2.087263	w ł	-0.266243
-1.521362	w š	-0.3294999
-0.9587402	y </s>
-1.577962	y a	0
-1.976864	y b	-0.04362573
-1.127346	y c	-0.459987
-1.395644	y d	-0.08969621
-1.64216	y e
-2.372425	y f
-2.376732	y g
-1.978524	y h	0
-1.399146	y j	-0.1376803
-1.459619	y k	-0.1650081
-1.300484	y l	-0.2448545
-1.045643	y m	-0.2962143
-1.318913	y n	-0.2121267
-1.634995	y o
-1.390337	y p	-0.1326145
-1.316289	y r	-0.1140427
-1.261627	y s	-0.174254
-1.397081	y t	-0.1922379
-1.929676	y u
-1.390794	y w	-0.183733
-1.728723	y z	-0.06287106
-1.425163	y ć	-0.3707169
-2.019427	y č	-0.07201868
-1.519618	y ł	-0.3270207
-2.390604	y ń	0
-1.378716	y š	-0.3506953
-2.170212	y ž	-0.1825014
-1.348016	z </s>
-0.9790385	z a	-0.36057
-1.472715	z b	-0.2518832
-2.074671	z c	-0.266243
-1.134044	z d	-0.3304281
-1.102917	z e	-0.2025261
-1.52072	z h	-0.1890471
-1.222883	z i	-0.1598362
-1.494834	z j	-0.2914968
-1.483733	z k	-0.1105196
-1.631688	z l	-0.2719215
-1.505597	z m	-0.2069148
-1.124052	z n	-0.6372431
-1.069609	z o	-0.371883
-1.905184	z p	-0.03973657
-1.659757	z r	-0.1604637
-1.79275	z s	0
-1.849492	z t	-0.07248735
-1.352616	z u	-0.3288133
-1.350707	z w	-0.2525811
-1.274919	z y	-0.2354442
-2.07984	z z	0
-1.932595	z ć	-0.1292962
-2.179435	z ě
-1.546149	z ł	-0.1941279
-2.418212	z ń	0
-2.209056	z š	0
-2.278328	z ž	0
-1.45849	ó </s>
-1.629686	ó c	-0.1033422
-1.092608	ó d	-0.1952288
-2.235887	ó f
-1.466525	ó h	-0.07226116
-1.159769	ó j	-0.158986
-1.161578	ó l	-0.1430263
-0.9366359	ó n	-0.2139173
-1.188753	ó r	-0.1649734
-1.187732	ó s	-0.2506993
-1.347335	ó t	-0.1017361
-1.372463	ó z	-0.1534998
-1.808735	ó ć	-0.06374174
-1.314849	ó č	-0.1254702
-1.959576	ó ł
-1.96525	ó ń	-0.1695426
-1.309239	ó š	-0.1284
-1.125641	ó ž	-0.1624729
-0.9351481	ć </s>
-0.9202785	ć a	-0.4547497
-1.964888	ć d	-0.266243
-0.6373835	ć e	-0.6354297
-2.089549	ć h
-0.8909501	ć i	-0.5782142
-1.871901	ć j
-1.924912	ć l	-0.2692663
-2.052335	ć m	0
-1.469962	ć n	-0.1755926
-1.050934	ć o	-0.5235825
-1.975816	ć r
-1.917277	ć s	-0.1526942
-2.030347	ć t	0
-1.131733	ć u	-0.6192806
-1.855466	ć w
-1.46362	ć ć	-0.5702963
-1.389882	ć ě	-0.1186618
-1.168381	č </s>
-0.8163503	č a	-0.5181931
-2.121299	č b	-0.2141414
-1.420516	č c	-0.6372432
-2.027934	č d
-0.8844189	č e	-0.6069162
-0.9022998	č i	-0.5772005
-1.019704	č k	-0.7286566
-2.132801	č l	0
-1.894323	č m	-0.08301125
-1.276339	č n	-0.5381116
-1.046016	č o	-0.345224
-1.923711	č r	0
-1.969687	č s
-1.087426	č u	-0.3926669
-1.808621	č w	0
-1.49678	č ć	-0.5702963
-1.96968	č ł	-0.2692663
-2.370291	č ń	0
-1.103958	ě </s>
-1.64311	ě a
-2.126496	ě b	-0.06904162
-1.393331	ě c	-0.2555588
-1.254742	ě d	-0.2241337
-1.444283	ě h	-0.188521
-1.36622	ě j	-0.2772531
-1.489377	ě k	-0.3304817
-1.274801	ě l	-0.226753
-1.367411	ě m	-0.1017429
-1.486342	ě n	-0.07358977
-1.582936	ě p	-0.09096044
-0.9099492	ě r	-0.5108052
-1.198656	ě s	-0.3068461
-1.425498	ě t	-0.1209643
-1.359285	ě w	-0.252062
-1.531774	ě z	-0.09467788
-1.452271	ě ć	-0.3135017
-1.826059	ě č	-0.0855584
-1.463579	ě ł	-0.1686668
-2.416455	ě ń	0
-1.3429	ě š	-0.2986386
-1.486804	ě ž	-0.1858459
-0.989809	ł </s>
-0.8523786	ł a	-0.4303557
-2.082788	ł b	0
-1.932112	ł c	0
-1.91916	ł d	-0.04406489
-1.051919	ł e	-0.6058958
-1.983587	ł h	-0.05551789
-1.433981	ł k	-0.2481729
-1.945702	ł m	-0.02922583
-1.542515	ł n	-0.1215124
-0.7770855	ł o	-0.4595701
-1.953951	ł p	0
-1.783644	ł s	-0.198934
-1.975795	ł t	0
-1.030033	ł u	-0.2379981
-1.780275	ł w	0
-1.078589	ł y	-0.4804397
-2.072013	ł z	0
-1.226382	ł ó	-0.2735594
-2.076197	ł ć	0
-2.218181	ł č	0
-2.233655	ł ń	-0.266243
-2.100626	ł š	-0.1806206
-2.00426	ł ž	-0.07803115
-0.6656741	ń </s>
-1.903927	ń b
-1.16492	ń c	-0.2680545
-1.244925	ń d	-0.4911151
-1.678112	ń k	0
-1.597876	ń m	-0.2692663
-1.550561	ń s	-0.1772684
-1.246018	ń t	-0.1871789
-0.5950788	ń ć	-0.8528429
-1.446473	ń č	-0.1299925
-1.438674	ń š	-0.2572927
-1.06347	ř </s>
-1.061663	ř a	0
-1.318936	ř d	0
-0.9843891	ř e	-0.03181647
-1.051103	ř i	-0.104367
-1.221493	ř j
-1.304251	ř k	0
-1.142482	ř o	0
-1.309005	ř u	0
-1.36987	ř ć
-1.30104	ř ě	0
-1.436414	ř ž
-1.300937	š </s>
-1.005851	š a	-0.4715042
-2.059868	š c	0
-0.9687792	š e	-0.5681015
-0.9676647	š i	-0.5533401
-1.195418	š k	-0.4958654
-1.452386	š l	-0.4026468
-1.97556	š m	-0.1813948
-1.277315	š n	-0.3944623
-1.011925	š o	-0.4438087
-2.025846	š p	-0.266243
-2.033533	š r
-1.237201	š t	-0.3824772
-1.073566	š u	-0.5604702
-1.80457	š w	-0.1208954
-2.199359	š y
-2.287459	š ó	0
-1.113146	š ć	-0.4477885
-2.345551	š č
-1.464783	š ě	-0.1210031
-1.614394	š ł	-0.3963885
-2.308284	š š
-1.060527	ź </s>
-1.042704	ź a	0
-1.345378	ź b	0
-1.276552	ź d
-1.063888	ź e	-0.02043261
-1.218494	ź i	0
-1.288742	ź m
-1.175523	ź n	0
-1.129372	ź o	0
-1.268542	ź u	0
-1.317074	ź y
-1.317061	ź ć	0
-1.344316	ź ě	0
-0.9226404	ž </s>
-0.9093705	ž a	-0.4309037
-1.8906	ž b	-0.2169583
-1.867693	ž c	-0.2692663
-1.771602	ž d	-0.05643589
-0.9489487	ž e	-0.3659714
-1.052203	ž i	-0.4158728
-1.113465	ž k	-0.5892789
-1.959297	ž l	-0.2662429
-1.124856	ž n	-0.5611529
-1.01828	ž o	-0.3856004
-1.817687	ž r	-0.09981781
-1.165691	ž u	-0.3618506
-1.700622	ž w
-2.185876	ž ó	0
-1.315567	ž ć	-0.6372431
-2.06413	ž č	-0.07795502
-2.097916	ž ě
-2.067088	ž ł	0
-2.273857	ž ń	0

\3-grams:
-1.431029	<s> a b	-0.4336635
-1.787647	<s> a c	-0.1221024
-1.141847	<s> a d	-0.5914786
-2.388341	<s> a f
-1.866772	<s> a g	-0.2324844
-0.5797594	<s> a k	-1.488176
-1.481078	<s> a l	-0.2785076
-1.56351	<s> a m	-0.2775664
-0.8435477	<s> a n	-0.693272
-2.199574	<s> a p
-0.9974603	<s> a r	-0.633117
-1.803909	<s> a s	-0.1295699
-1.666146	<s> a t	-0.7191686
-2.364438	<s> a u
-0.6784469	<s> a w	-1.066623
-2.309534	<s> a z	-0.2324844
-0.6877012	a a a	-0.07618745
-0.8591642	b a </s>
-1.104836	b a c	-0.6611767
-1.589771	b a d
-1.672957	b a g	-0.2931999
-1.734794	b a h	0
-1.276123	b a j	-0.05284071
-1.50556	b a k	-0.08432336
-1.259437	b a l	-0.1915978
-1.109983	b a m	-0.3803501
-1.23426	b a n	-0.07111986
-0.9466131	b a r	-0.2621935
-1.607722	b a s	0
-1.370671	b a t	-0.08823726
-1.596769	b a w	0
-1.9116	b a z	0
-1.13725	b a ć	-0.3525664
-1.190534	b a ł	-0.1446449
-1.71362	b a š	0
-0.6147261	c a </s>
-0.7158831	c a c	-0.7703211
-1.164357	c a j	-0.2873175
-0.6189526	c a m	-0.5768397
-1.152167	c a r	-0.04154833
-0.9804834	d a </s>
-1.335011	d a c	-0.4241248
-1.429712	d a d	-0.3668814
-2.44235	d a g	0
-1.069425	d a j	-0.3713192
-1.765295	d a k	-0.1336523
-1.06276	d a l	-0.2565156
-1.208246	d a m	-0.4571308
-1.094195	d a n	-0.1831526
-1.150855	d a r	-0.3335224
-1.108921	d a t	-0.3935179
-1.158407	d a w	-0.4051667
-1.07937	d a ć	-0.5034909
-1.161201	d a ł	-0.6611764
-1.966157	d a ń	0
-1.384543	d a š	-0.2564147
-1.825093	e a g	0
-1.035448	e a k	-0.1388495
-1.028783	e a l	0
-1.031922	e a m	-0.1312887
-1.368652	e a t	0
-1.380085	e a w	0
-1.061245	f a </s>
-1.550488	f a b	0
-1.306589	f a c	0
-1.343489	f a k	0
-1.320896	f a l	0
-1.090074	f a m
-1.305434	f a r	0
-1.377358	f a s	0
-1.35842	f a w	0
-1.10567	f a ł	-0.2324844
-1.583295	f a š	0
-1.002806	g a </s>
-1.152413	g a d
-1.165121	g a j
-1.146627	g a m
-0.9992388	g a n	-0.06036289
-1.020377	g a r	-0.05233357
-1.874219	g a ž	0
-1.023617	h a </s>
-1.74102	h a b
-1.033089	h a c	-0.2743801
-1.633507	h a d	-0.1223106
-1.09802	h a j	-0.2044564
-1.548347	h a k	-0.08927176
-1.147959	h a l	-0.2712462
-1.036993	h a m	-0.2712315
-1.13035	h a n	-0.0817315
-1.295862	h a r	-0.04422645
-1.79382	h a s	0
-1.412203	h a t	-0.06752124
-1.774882	h a w	0
-1.05749	h a ć	-0.3224831
-1.80295	h a č	-0.09465709
-1.15923	h a ł	-0.1622899
-1.842115	h a ń
-1.267146	h a š	-0.3033023
-1.164562	i a d
-1.933467	i a g	0
-0.8437139	i a l	-0.1928523
-0.7028775	i a n	-0.1115873
-1.174522	i a s
-1.477026	i a t	0
-0.8449008	j a </s>
-2.064327	j a b	0
-0.9493729	j a c	-0.5663093
-1.271042	j a d	-0.05440727
-1.831769	j a h	0
-1.137365	j a k	-0.220825
-1.081849	j a m	-0.4103791
-1.067634	j a n	-0.251222
-1.515153	j a p	0
-1.670732	j a r	0
-1.20476	j a s	-0.1363433
-1.084032	j a t	-0.411218
-1.468074	j a w	0
-1.792793	j a z	-0.04349247
-1.767809	j a ć	-0.2324844
-1.039999	j a ł	-0.5283023
-0.8527645	k a </s>
-1.913259	k a b	-0.07138071
-1.008303	k a c	-0.5994202
-1.89071	k a d	-0.09789173
-0.970787	k a j	-0.6412886
-1.814563	k a k	-0.06415734
-1.332227	k a l	-0.2463935
-0.9671184	k a m	-0.6729956
-1.131116	k a n	-0.2128657
-1.901516	k a p	-0.02392896
-1.205981	k a r	-0.2901112
-1.910036	k a s	0
-1.291088	k a t	-0.2833518
-1.516653	k a w	-0.03886712
-1.42049	k a z	-0.4006528
-1.227883	k a ć	-0.6911399
-1.677369	k a č	-0.06962891
-1.394554	k a ł	-0.2138112
-1.565046	k a š	-0.1513631
-1.997773	k a ž	0
-0.746519	l a </s>
-0.8368511	l a c	-0.3122277
-1.545605	l a d	-0.02761561
-1.773323	l a h	0
-1.561976	l a j	-0.05226135
-1.220794	l a k	-0.2483827
-0.9886642	l a m	-0.1854649
-0.9746946	l a n	-0.08759557
-1.463898	l a p	-0.1276518
-1.525101	l a r	-0.04609682
-1.560375	l a s	0
-1.305329	l a t	-0.05545426
-1.413177	l a w	-0.08985447
-1.705561	l a ć
-1.79958	l a č	0
-1.647597	l a ł
-0.9069144	m a </s>
-1.497647	m a c	-0.05088258
-1.517548	m a d	-0.06042046
-2.149098	m a g	0
-1.129645	m a j	-0.2036972
-1.598646	m a k	0
-1.187241	m a l	-0.1984382
-1.272746	m a m	-0.3092791
-0.9053289	m a n	-0.1717001
-1.183456	m a r	-0.1174786
-1.723028	m a s	0
-1.123218	m a t	-0.1104746
-1.70409	m a w	0
-1.440256	m a z	-0.1061513
-1.221872	m a ć	-0.3154752
-1.771468	m a č
-1.200693	m a ł	-0.2550983
-1.451145	m a š	-0.06373115
-0.7900509	n a </s>
-2.048415	n a b	0
-1.126331	n a c	-0.5078806
-1.365364	n a d	-0.1243816
-2.301355	n a g	0
-1.701862	n a h	-0.0993465
-1.101487	n a j	-0.1396571
-1.509819	n a k	-0.08225855
-1.165788	n a l	-0.2617822
-1.16742	n a m	-0.3127229
-1.400432	n a n	-0.1465206
-1.670625	n a p	-0.1471224
-1.24884	n a r	-0.1960857
-1.74751	n a s	-0.0340193
-1.132066	n a t	-0.4215517
-1.514661	n a w	-0.1011194
-1.675938	n a z	-0.01952116
-1.11268	n a ć	-0.3829355
-1.885562	n a č	-0.08570327
-1.372856	n a ł	-0.4529008
-2.302748	n a ń	0
-1.688719	n a š	-0.09402898
-2.287405	n a ž	0
-1.306304	o a l	0
-0.9285836	o a t
-1.525438	o a z	0
-1.105748	p a </s>
-1.36544	p a c	-0.1047195
-0.9683506	p a d	-0.3161531
-1.811028	p a g
-1.134164	p a j	-0.1560623
-1.126681	p a k	-0.1180171
-0.9645902	p a l	-0.3149933
-1.50612	p a m	-0.03628913
-1.046486	p a n	-0.1767312
-1.691765	p a p	-0.06109212
-1.266464	p a r	-0.1235095
-1.287704	p a s	-0.118687
-1.380821	p a t	0
-1.925117	p a u	0
-1.737782	p a w	0
-1.315467	p a ć	-0.3595888
-1.770286	p a č	0
-1.530049	p a ł	-0.04505935
-1.806121	p a ž
-1.118402	r a </s>
-1.70515	r a b	-0.09522478
-1.197401	r a c	-0.418474
-1.204261	r a d	-0.3434669
-3.109745	r a f	0
-1.946549	r a g	0
-1.883875	r a h	-0.03272857
-2.178545	r a i	-0.2324844
-1.172301	r a j	-0.3475858
-1.394378	r a k	-0.1591114
-1.239942	r a l	-0.06995851
-1.164944	r a m	-0.350201
-1.030954	r a n	-0.2786625
-1.836073	r a p	0
-1.447006	r a r	-0.1333857
-1.345783	r a s	-0.1510248
-1.244792	r a t	-0.1581492
-1.20621	r a w	-0.1559087
-1.437213	r a z	-0.2446863
-1.267017	r a ć	-0.4198422
-2.012311	r a č	0
-1.346243	r a ł	-0.3281944
-2.298931	r a ń	0
-1.605497	r a š	-0.2155462
-1.769984	r a ž	-0.06410612
-0.9702761	s a </s>
-2.266112	s a a	0
-1.032118	s a c	-0.2462082
-0.9859114	s a d	-0.3426485
-1.142078	s a h	-0.3204432
-1.370516	s a j	-0.1505746
-1.495183	s a k	-0.05991568
-1.094632	s a l	-0.1082642
-1.03652	s a m	-0.1805976
-1.318481	s a n	-0.01907314
-1.476351	s a r	-0.09056108
-1.170274	s a t	-0.1310836
-1.895621	s a u
-1.403026	s a ć	-0.09189008
-1.749729	s a č	-0.125772
-1.512246	s a ł	-0.04344654
-0.942252	t a </s>
-2.026873	t a a
-1.628607	t a b	-0.1035918
-1.110051	t a c	-0.456728
-1.761046	t a d
-3.115681	t a f	0
-0.9292497	t a j	-0.4171099
-1.380125	t a k	-0.1316097
-1.249889	t a l	-0.1632188
-1.076017	t a m	-0.3394429
-1.139074	t a n	-0.2425644
-1.770249	t a p	-0.09799014
-1.15086	t a r	-0.1667445
-1.701791	t a s	-0.094088
-1.381046	t a t	-0.1087618
-1.316088	t a w	-0.1526069
-1.133419	t a ć	-0.4530849
-1.836034	t a č	-0.07603319
-1.389351	t a ł	-0.4181387
-2.304867	t a ń	0
-1.795132	t a š	-0.2221054
-0.9853996	u a c	-0.2324844
-0.6478029	u a l	-0.2931999
-0.9670678	u a n
-0.9850974	u a r	-0.1353637
-1.119187	w a </s>
-1.370164	w a b	-0.3585356
-1.16931	w a c	-0.46024
-1.47696	w a d	-0.2689114
-1.828788	w a h	-0.1968567
-1.33855	w a j	-0.3419701
-1.330182	w a k	-0.2370833
-1.058821	w a l	-0.3635325
-1.219017	w a m	-0.5277118
-1.047386	w a n	-0.2783056
-2.050943	w a p	0
-1.056767	w a r	-0.2926418
-1.586027	w a s	-0.07154524
-1.330991	w a t	-0.1817414
-2.068077	w a z	0
-1.243813	w a ć	-0.4519951
-1.851857	w a č	-0.155069
-1.279369	w a ł	-0.2951726
-1.886377	w a ń
-1.255823	w a š	-0.2783028
-1.479841	w a ž	-0.2387808
-1.186886	z a </s>
-1.611198	z a b	-0.06464018
-1.280009	z a c	-0.2046939
-1.388861	z a d	-0.08234134
-1.945081	z a h	0
-1.225073	z a j	-0.1681018
-1.509156	z a k	-0.08239263
-1.285031	z a l	-0.1381126
-1.038843	z a m	-0.1774479
-1.255315	z a n	-0.1339262
-1.453754	z a p	-0.07217623
-1.279599	z a r	-0.0943751
-1.303818	z a s	-0.06194529
-1.389065	z a t	-0.0958349
-1.297698	z a w	-0.09482238
-1.698048	z a z	-0.0670611
-1.179405	z a ć	-0.05738437
-1.502134	z a č	-0.2870651
-1.099078	z a ł	-0.4529008
-1.82167	z a ń	-0.1340545
-1.625124	z a š	-0.04266296
-1.699277	z a ž	-0.1378206
-0.671602	ć a </s>
-0.9038181	ć a c	-0.4705666
-1.534642	ć a d	-0.09594218
-0.9315926	ć a h	-0.5430773
-1.048219	ć a m	-0.4692911
-0.9587218	ć a n	-0.2658801
-1.428531	ć a t	0
-1.948037	ć a z	0
-1.149988	ć a ł	-0.07766822
-0.6982024	č a </s>
-1.026824	č a c	-0.358692
-1.200313	č a k	-0.1678812
-1.197894	č a m	-0.1505082
-0.6973784	č a n	-0.471656
-1.994346	č a p	0
-1.464133	č a r	-0.1012675
-1.036389	č a s	-0.1776723
-1.480183	č a t	-0.04519147
-1.207228	č a ł	-0.2894758
-0.8009909	ł a </s>
-1.934101	ł a b	0
-1.05828	ł a c	-0.4532982
-1.563854	ł a d	-0.01766921
-1.793106	ł a h	-0.2324844
-1.442943	ł a j	-0.2018198
-1.56234	ł a k	-0.08432336
-1.420956	ł a l	-0.1829849
-0.9354743	ł a m	-0.4692911
-1.218182	ł a n	-0.2931253
-1.643537	ł a p
-1.236047	ł a r	-0.3687773
-1.564099	ł a t	-0.02683249
-1.249187	ł a w	-0.07918155
-1.923643	ł a z	0
-1.084386	ł a ć	-0.2720581
-1.123119	ł a ł	-0.5150486
-1.666813	ł a š	-0.1254926
-1.299755	ř a d	0
-1.584511	ř a h	0
-1.330615	ř a s	0
-0.4716679	š a </s>
-1.041197	š a c	-0.247051
-1.171026	š a k	-0.1501141
-1.166095	š a l	-0.07702732
-1.16842	š a m	-0.2678864
-1.029004	š a n	-0.1206635
-1.783181	š a w	0
-1.178483	š a ł	-0.3283593
-1.259846	ź a c	0
-1.296746	ź a k	0
-1.284691	ź a m	0
-1.193548	ź a n	0
-1.258691	ź a r	0
-1.332776	ź a ł	0
-0.6046292	ž a </s>
-0.8279704	ž a c	-0.3901098
-1.007402	ž a d	-0.2267504
-1.727649	ž a k	0
-1.300297	ž a m	-0.1847041
-0.9885759	ž a n	-0.1418415
-1.291676	ž a r	-0.1951603
-1.138054	ž a ł	-0.2272725
-0.9123335	<s> b a	-0.6605715
-1.749234	<s> b e	-0.4537537
-1.396401	<s> b i	-0.2537855
-1.182582	<s> b j	-1.439328
-0.9570807	<s> b l	-0.8948843
-0.7702746	<s> b o	-0.7407777
-0.8599091	<s> b r	-0.8884779
-0.9322511	<s> b u	-0.8033964
-1.082627	<s> b y	-0.6205572
-1.531016	<s> b ó	-0.2863275
-1.247652	<s> b ě	-0.6141284
-1.378127	<s> b ł	-0.6777967
-1.039723	a b a	-0.01628833
-1.118713	a b e	-0.04321183
-0.9393224	a b i	-0.1037941
-0.9829924	a b j	-0.3164538
-1.207431	a b l	-0.1089727
-1.434356	a b n	0
-0.9468748	a b o	-0.04620808
-1.250515	a b r	-0.2795376
-1.896549	a b s	0
-1.319727	a b u	-0.1304428
-0.9940007	a b y	-0.1229844
-1.627863	a b ó	0
-1.530942	a b ě	0
-1.517519	a b ł	-0.04933203
-2.151613	a b š	0
-1.127762	b b y	0
-1.416508	d b ě	0
-0.9213561	e b a	-0.04963392
-2.250212	e b b	0
-2.058	e b d	0
-1.074416	e b i	-0.1456128
-1.037221	e b j	-0.1571388
-1.317262	e b l
-1.227533	e b n	0
-1.156088	e b o	0
-1.966694	e b p	0
-1.013795	e b r	-0.04870147
-1.689726	e b s	0
-1.286227	e b u	0
-1.865527	e b w	0
-1.258924	e b y	0
-1.508744	e b ó
-1.308699	e b ě	-0.03997862
-1.248643	i b </s>
-0.8836868	i b a	-0.04504782
-1.12769	i b e	-0.1347942
-1.087802	i b i	0
-1.130713	i b j	-0.2324844
-1.10424	i b l	-0.2931999
-0.9867496	i b o	-0.120055
-1.266865	i b r	0
-1.177196	i b u	0
-1.063086	i b y	-0.2931998
-1.619679	i b ě	0
-1.251417	j b l	0
-1.191663	j b n	0
-0.8023146	j b o
-0.7818758	l b i	0
-1.136975	l b j	0
-1.21519	l b n	0
-0.8639095	m b i	0
-0.6756178	m b o	0
-0.9029738	m b r	-0.08722486
-1.288302	n b e	0
-0.8464382	o b a	-0.1152031
-2.276163	o b b	0
-2.299072	o b c	0
-2.083951	o b d	0
-1.437787	o b e	-0.04321183
-2.158155	o b h	0
-1.171164	o b i	-0.03340448
-1.063993	o b j	-0.2135648
-1.839816	o b k	0
-1.478136	o b l	-0.05616104
-2.11432	o b m	0
-1.255782	o b n	-0.1645852
-0.9165132	o b o	-0.06393707
-1.225245	o b r	-0.1132835
-1.715676	o b s	0
-2.088722	o b t	0
-1.090968	o b u	-0.0289247
-1.891478	o b w	0
-1.150352	o b y	-0.08947492
-2.186123	o b z	0
-2.246217	o b ć	0
-1.498029	o b ě	-0.07524157
-1.605425	o b ł	0
-1.970741	o b š	0
-2.440377	o b ž	0
-1.002384	r b a	-0.09393296
-0.8987789	r b i	-0.06315593
-1.026982	r b j	-0.08482137
-1.39519	r b n	0
-0.836557	r b o	-0.1289242
-1.320884	r b s	0
-0.8956828	r b u	-0.0773642
-1.143809	r b y	-0.2324844
-2.112447	r b š	0
-1.030145	t b a	0
-0.9725371	t b o	0
-1.127762	t b y	0
-1.416508	t b ě	0
-1.722453	t b ł	0
-1.39854	u b </s>
-0.9536847	u b a	-0.1384072
-1.141594	u b e	-0.1420254
-0.8516921	u b i	-0.1969614
-0.9739249	u b j	-0.1806858
-1.261057	u b l	-0.1152077
-1.311009	u b n	0
-1.12285	u b o	-0.04818312
-1.32076	u b r	-0.1209973
-1.53216	u b s
-1.235027	u b u	0
-1.211885	u b y	-0.1743324
-1.650566	u b ě	0
-1.956511	u b ł	0
-1.461088	u b š	-0.1183371
-0.2873435	w b o	0
-0.7448493	y b a	0
-1.228727	y b i	0
-1.131487	y b j	0
-1.269456	y b l	0
-1.171388	y b y	0
-1.092603	z b a	-0.2324844
-1.170352	z b i	-0.08847553
-1.477714	z b l	0
-1.056903	z b n	-0.09729528
-0.9753485	z b o	-0.1372554
-1.242948	z b r	-0.1209973
-0.8953683	z b u	-0.1392215
-1.143192	z b y	0
-1.907498	z b ó	0
-0.8136729	z b ě	-0.2686163
-0.8739656	č b a	-0.08536592
-0.8948128	č b j	-0.2324844
-0.9203094	č b n	-0.03445905
-1.186679	č b o	0
-0.9222823	č b u	-0.2324844
-0.9082063	č b y	-0.2324844
-0.8204733	ě b a
-0.8384813	ě b j
-1.235118	ě b n	0
-1.041579	ě b o	0
-1.185101	ł b i	0
-1.030145	ź b a	0
-1.087862	ź b j	0
-1.225831	ź b l	0
-1.166076	ź b n	0
-0.9725371	ź b o	0
-1.172548	ź b u	0
-0.8973785	ž b a	0
-0.9463661	ž b n	-0.07615411
-0.8735909	ž b o	-0.2324844
-0.8189223	ž b u	-0.1231783
-0.9335434	ž b y	-0.2324844
-2.059664	<s> c a	-0.07080308
-1.05617	<s> c e	-0.7271755
-0.2791219	<s> c h	-1.040426
-1.306378	<s> c i	-0.5234854
-2.535367	<s> c l
-1.452908	<s> c o	-0.2035641
-1.523044	<s> c u	-0.9300219
-0.6044136	<s> c y	-1.045913
-1.550282	a c </s>
-1.06594	a c a	-0.3604226
-2.691402	a c c	0
-0.716853	a c e	-0.3507518
-0.6331604	a c h	-0.5053574
-0.9852729	a c i	-0.4534496
-1.868186	a c k	0
-1.87744	a c n	0
-1.640161	a c o	-0.05467445
-2.462436	a c p	0
-0.9868061	a c u	-0.8574713
-0.7761391	a c y	-0.9824097
-1.005828	b c h	0
-1.046667	c c o	0
-0.3709376	d c e	-0.2931999
-1.176897	d c h	0
-0.8287212	e c </s>
-1.083608	e c a	-0.1849559
-0.973706	e c e	0
-0.6682569	e c h	-0.07699281
-1.110786	e c i	0
-1.086439	e c o	0
-0.9030698	e c y	-0.4181386
-0.8285809	h c e	0
-0.9361063	h c y	0
-1.321428	i c </s>
-1.024831	i c a	-0.2975523
-1.10621	i c e	-0.03339174
-0.5930628	i c h	-0.4966648
-0.970504	i c i	-0.1621538
-1.64454	i c k
-1.026454	i c o	-0.3167748
-2.310338	i c p	0
-1.127002	i c u	-0.206222
-0.8763759	i c y	-0.7191686
-1.611993	i c ě	-0.2931999
-0.6490855	j c e	-0.2931999
-1.213955	j c h	0
-0.4948067	j c y	-0.4181386
-1.182648	k c e	0
-0.227345	k c i	-0.2160887
-1.040976	l c </s>
-0.942169	l c a	-0.1452351
-0.9374499	l c e
-0.7791364	l c o	-0.3470676
-1.080923	l c u	-0.2324844
-0.6369142	l c y	-0.331427
-0.8161346	m c </s>
-0.8211281	m c a	-0.07080308
-0.8231381	m c o	-0.2324844
-0.7843505	m c y	-0.2324844
-0.8932672	n c </s>
-0.8978083	n c a	-0.1535613
-0.9074737	n c e	-0.121644
-1.113487	n c h	0
-1.021105	n c i	-0.1139953
-1.343312	n c l	0
-1.366482	n c n	-0.1427418
-1.1345	n c o	-0.08643088
-0.9186098	n c u	-0.4181387
-0.9571209	n c y	-0.2522457
-1.251362	o c </s>
-0.8559099	o c e	-0.1834399
-0.444479	o c h	-0.2508105
-1.293485	o c i	-0.08529343
-1.502482	o c l	0
-1.649598	o c n	0
-1.174695	o c o	-0.106256
-1.550243	o c p	0
-1.427349	o c u	0
-0.9913509	o c y	-0.08968304
-1.1493	p c a	0
-0.7420971	p c e	0
-0.8414778	p c i	-0.1290386
-1.155507	p c o	0
-0.785917	p c y	-0.08957399
-0.621581	r c e	-0.3068008
-0.8610319	r c h	-0.1133834
-1.04914	r c i
-0.8731621	r c o	-0.1097849
-1.157908	r c u	0
-0.9785178	r c y	-0.08957399
-1.36688	s c </s>
-0.458161	s c e	-0.7450076
-0.9698858	s c h	-0.1922287
-1.400033	s c i	0
-0.4666168	s c y	-0.6994038
-0.8796857	t c a
-0.6878915	t c e	-0.2931999
-0.7480128	t c h	-0.06917091
-1.089591	u c e	-0.2324844
-0.2112008	u c h	-0.4406543
-1.195634	u c i	-0.08529343
-0.8446169	w c </s>
-0.8499236	w c a	-0.2678864
-0.8516969	w c e	-0.2324844
-0.9614591	w c o	-0.2324844
-0.8109275	w c y	-0.1553357
-1.042665	y c e
-0.2193802	y c h	-0.3447505
-1.797457	y c n	0
-1.145986	y c u	-0.2324844
-0.2686631	z c e
-0.9339241	ó c </s>
-1.143802	ó c a	0
-0.6862743	ó c n	-0.1700111
-1.15001	ó c o	0
-1.218563	ó c u	0
-1.039448	ó c y	0
-2.256945	ó c ł	0
-0.09492431	č c e	-0.6611767
-1.296019	ě c a	0
-0.4005592	ě c h	-0.1453376
-1.102074	ě c n	-0.07582361
-1.040735	ě c u	-0.2324844
-1.191665	ě c y	0
-0.9361063	ł c y	0
-0.8513783	ń c a	-0.07042807
-0.6602134	ń c e	-0.2931999
-0.8760366	ń c u	-0.2324844
-0.6965616	ń c y	-0.2931999
-0.8285809	š c e	0
-0.2660907	ž c e	-0.2931999
-1.004375	<s> d a	-1.053509
-1.087986	<s> d e	-0.9654214
-1.509158	<s> d i	-0.6487198
-1.989013	<s> d l	-0.6794739
-2.032316	<s> d n	-0.6337746
-0.4488976	<s> d o	-1.411054
-1.136256	<s> d r	-1.047562
-1.51342	<s> d u	-0.7271802
-1.399588	<s> d w	-0.9979225
-1.658496	<s> d y	-0.780697
-1.438131	<s> d ó	-1.059117
-0.6820449	<s> d ź	-1.709284
-1.415884	a d </s>
-1.026323	a d a	-0.38916
-2.577895	a d b	0
-2.001891	a d c	-0.2324844
-1.250805	a d e	-0.272662
-1.67237	a d i	-0.06953562
-1.853359	a d j	-0.131067
-1.373934	a d k	-0.2650197
-1.530523	a d l	-0.1790825
-1.937625	a d m	0
-1.072445	a d n	-0.6869833
-0.9672557	a d o	-0.4410132
-2.010883	a d p	0
-1.408997	a d r	-0.1021872
-1.059003	a d u	-0.3605532
-1.31909	a d w	-0.148107
-1.125146	a d y	-0.3824246
-1.394226	a d ł	-0.2415698
-1.928635	a d š	-0.1293248
-0.9079299	a d ź	-0.3835945
-1.024959	b d a	0
-1.053008	b d o	0
-1.040467	b d ź	0
-1.081272	d d a	0
-0.7003682	d d o
-1.442874	e d </s>
-0.9698298	e d a	-0.1466185
-1.982911	e d c	0
-1.199557	e d e	-0.06193554
-1.257401	e d i	0
-1.915902	e d j	0
-1.527078	e d k	-0.08278903
-1.248843	e d l	-0.0462811
-1.65676	e d m	-0.1347638
-1.221423	e d n	-0.1356856
-1.049025	e d o	-0.01058219
-1.722419	e d p	-0.09310056
-1.353092	e d r	-0.1635192
-1.576282	e d s	0
-1.37632	e d u	0
-1.57746	e d w	-0.04815815
-1.470668	e d y	0
-1.833178	e d z	0
-2.053807	e d ó	0
-2.248165	e d č	0
-1.473594	e d ł	-0.1046589
-1.776826	e d š	0
-0.8646443	e d ź	-0.1105376
-0.5873308	h d y	-0.2562594
-0.5567774	h d ź	-0.4181386
-0.7614207	i d a	-0.1402885
-1.072813	i d e	-0.08768153
-1.284322	i d i	0
-1.388349	i d l	-0.07217201
-1.250404	i d n	-0.109408
-0.9217793	i d o	-0.2169948
-1.627783	i d r	0
-1.316951	i d u	-0.077598
-1.010197	i d ł	-0.4140144
-0.8346367	i d ź	-0.126707
-1.33002	j d l	0
-1.053008	j d o	0
-1.261694	j d r	0
-0.4032761	l d ź
-0.5808859	m d e	0
-1.144495	m d ź	0
-0.6828019	n d a	-0.1577683
-1.27213	n d i	0
-1.046872	n d o	-0.1378135
-0.94187	n d r	-0.08199182
-1.093274	n d u	0
-0.7753105	n d ź	-0.2039395
-1.26123	o d </s>
-0.9476508	o d a	-0.3519085
-2.260484	o d d	0
-1.240051	o d e	-0.07660113
-2.326941	o d h	0
-1.363596	o d i	-0.07646963
-1.494211	o d k	-0.1223397
-1.461805	o d l	-0.02285039
-1.869741	o d m
-1.076008	o d n	-0.4323034
-0.953532	o d o	-0.1856384
-2.244819	o d p	0
-1.337134	o d r	-0.1057121
-1.789439	o d s	-0.05551235
-1.111732	o d u	-0.2870795
-1.83845	o d w	0
-1.087595	o d y	-0.5724511
-2.064631	o d z	0
-1.841132	o d ł	0
-2.008279	o d š	0
-0.8833016	o d ź	-0.5232341
-1.10285	r d </s>
-1.202116	r d a	0
-0.9970698	r d i	0
-1.093267	r d n	-0.04660368
-0.9050037	r d o	0
-1.354834	r d u	0
-1.11882	r d y	-0.2324844
-0.9001803	r d ź	-0.1389017
-1.261694	s d r	0
-0.450767	t d ź	-0.2324844
-1.49415	u d </s>
-1.06166	u d a	-0.1341728
-1.363499	u d e	-0.122413
-1.530763	u d i	-0.09171419
-1.746013	u d k	0
-1.51855	u d l
-0.9056467	u d n	-0.3205914
-0.8700933	u d o	-0.2399726
-1.39055	u d r	-0.0317514
-1.845033	u d s	0
-1.213915	u d u	-0.1367836
-1.847552	u d w	0
-1.054677	u d y	-0.08351845
-1.850234	u d ł	0
-2.017381	u d š	0
-0.7311875	u d ź	-0.3498224
-1.080776	w d a	0
-1.41083	w d i	0
-1.108824	w d o	0
-0.6974048	w d ź	-0.08349657
-0.9348896	y d a	-0.03788623
-1.520208	y d k	0
-1.041628	y d l	-0.2517949
-1.345345	y d n	0
-1.042507	y d o	-0.1296091
-1.619227	y d s	0
-1.267374	y d u	0
-1.088739	y d ł	-0.1517503
-2.371952	y d ń	0
-1.035958	y d ź	-0.1232281
-0.6598944	z d a	-0.09263885
-1.291866	z d n	-0.08908239
-0.9457279	z d o	-0.04597356
-1.29416	z d r	0
-1.508106	z d u	0
-1.862478	z d w	0
-1.318296	z d y
-0.5983391	z d ź	-0.3148315
-0.9423803	ó d </s>
-1.220188	ó d a	0
-1.15964	ó d k	-0.03592467
-1.525249	ó d l	0
-0.6364219	ó d n	-0.4170661
-1.231022	ó d r	-0.04979487
-1.72476	ó d s	0
-1.897108	ó d š	0
-1.128712	ó d ź	-0.08593154
-0.2944334	ć d ź	-0.2324844
-1.342981	ě d </s>
-1.125275	ě d a	-0.0258389
-1.28738	ě d k	-0.2116026
-1.364765	ě d l
-0.8599987	ě d n	-0.3773707
-0.902507	ě d o	-0.2169948
-1.046461	ě d u	-0.2678863
-2.397352	ě d č	0
-0.816616	ě d ź	-0.3293836
-1.299714	ł d n	0
-1.097073	ł d o	0
-1.573596	ł d s	0
-0.7476361	ł d ź	-0.1232281
-0.4436285	ń d u	-0.5150486
-0.4341252	ń d ź	-0.2774184
-1.081395	ž d a	0
-1.257921	ž d e	0
-1.386456	ž d l	0
-1.109444	ž d o	0
-1.234114	ž d u	0
-1.385198	ž d y	0
-0.6949484	ž d ź	-0.1562556
-2.091559	<s> e e	-0.2324844
-1.725046	<s> e f	-0.1891038
-1.77005	<s> e h	-0.1386538
-0.4433466	<s> e k	-0.9986003
-1.129423	<s> e l	-0.8574713
-1.2269	<s> e m	-0.09853926
-1.218075	<s> e n	-0.7703212
-1.21863	<s> e r	-0.7703211
-1.763667	<s> e s	-0.1335335
-1.182123	<s> e t	-0.5689164
-0.9576782	<s> e u	-1.046528
-1.071888	<s> e w	-0.628992
-1.026758	b e h	-0.09008655
-1.008601	b e j	-0.1849705
-1.132738	b e l	-0.1324501
-0.6052409	b e r	0
-1.162826	b e t	-0.07513652
-1.790938	b e ń	0
-1.673394	b e š	0
-0.5245517	c e </s>
-1.965828	c e b	0
-1.628054	c e d	0
-1.651197	c e h	0
-0.9560226	c e j	-0.3020505
-1.445884	c e m	0
-1.015848	c e n	-0.181273
-1.241729	c e p	-0.2247044
-1.172215	c e r	-0.185995
-1.636328	c e s	0
-1.461906	c e t	-0.1628884
-1.351958	c e ć	-0.1880888
-1.627675	c e š	0
-0.924956	d e </s>
-1.782399	d e b	0
-1.703526	d e c	0
-2.018644	d e f	0
-1.286265	d e h	-0.2931999
-0.6897808	d e j	-0.2383251
-1.439888	d e k	0
-1.351208	d e l	-0.05846595
-1.2844	d e m	-0.1312127
-1.254133	d e n	-0.1328726
-1.114978	d e r	-0.04254371
-1.452899	d e s	0
-1.667237	d e w	0
-1.512808	d e ń	0
-1.466159	d e š	0
-1.264231	e e h	0
-1.385592	e e k	0
-0.9774585	f e j	-0.02568435
-0.8210595	f e k	-0.1939013
-0.7931268	f e r	-0.1643198
-0.8019623	f e s	-0.2324844
-1.133726	f e t
-0.8432441	g e j	-0.2931999
-1.416232	g e l	0
-0.5079032	g e n	-0.1272742
-0.8208725	h e </s>
-0.830549	h e h	-0.3318743
-0.9108317	h e j	-0.177527
-1.188176	h e l
-1.205973	h e m	0
-1.180376	h e n	-0.0412958
-1.79642	h e p	0
-1.181957	h e r	-0.0534081
-1.505099	h e s	0
-1.719436	h e w	0
-1.717383	h e ć	0
-1.817745	h e ń	0
-0.9306107	i e l	-0.2931999
-0.7417128	i e n	-0.2056794
-0.9264203	i e r
-1.457417	i e s	0
-0.9512146	i e t
-1.08062	j e </s>
-2.019687	j e a	-0.09521428
-1.874527	j e b	-0.1137877
-1.589254	j e c	-0.1540788
-1.17925	j e d	-0.3425724
-2.364507	j e e	0
-2.272884	j e f	0
-1.515437	j e h	-0.108648
-2.517265	j e i	0
-1.217408	j e j	-0.2877756
-1.408471	j e k	-0.1353246
-1.220374	j e l	-0.2641877
-1.153784	j e m	-0.3131347
-1.216087	j e n	-0.5645463
-1.950634	j e p	-0.01902723
-1.216958	j e r	-0.2139466
-1.374538	j e s	-0.1738624
-1.237079	j e t	-0.2639817
-1.424532	j e w	-0.1284061
-1.623115	j e z	-0.1189033
-1.112347	j e ć	-0.2866014
-1.65769	j e č	-0.09559116
-2.600108	j e ł	0
-1.515455	j e ń	-0.2577525
-1.179151	j e š	-0.4670254
-1.761173	j e ž	-0.06231425
-0.8946078	k e </s>
-1.400845	k e c	-0.1363982
-1.266574	k e d	-0.286666
-0.9015598	k e h	-0.8160787
-0.6061543	k e j	-0.7109234
-1.32642	k e l	-0.0784945
-1.141197	k e m	-0.2775645
-1.461653	k e n	0
-2.074991	k e p	0
-1.214223	k e r	-0.04646554
-1.680482	k e ć	-0.2324844
-1.452942	k e č	-0.4181387
-0.9174148	l e </s>
-1.926935	l e b	0
-1.447667	l e c	-0.2155794
-1.521781	l e d	-0.03521097
-2.364202	l e f	0
-1.721662	l e g	-0.1294633
-1.74364	l e h	-0.2324844
-1.122861	l e j	-0.3443954
-1.353407	l e k	-0.1691639
-1.70849	l e l	0
-1.06251	l e m	-0.4273217
-1.085703	l e n	-0.4725801
-1.455363	l e p	-0.07762118
-1.161842	l e r	-0.41681
-1.172077	l e s	-0.1494621
-1.399696	l e t	-0.04843585
-1.866272	l e w	0
-1.96054	l e z	0
-1.121854	l e ć	-0.4995886
-1.729859	l e č	-0.06803106
-1.820091	l e ń	-0.08871134
-1.303647	l e š	-0.186266
-1.484879	l e ž	-0.2837658
-1.32391	m e </s>
-1.546803	m e c
-1.096419	m e d	-0.2927201
-2.232632	m e g	0
-1.451308	m e h	-0.2324844
-0.7200543	m e j	-0.2219079
-1.426221	m e l
-1.676837	m e m	0
-0.8239771	m e n	-0.3286674
-0.9626465	m e r	-0.08530561
-0.9018107	m e t	-0.303388
-1.861395	m e š	0
-0.6658182	n e </s>
-0.6864215	n e h	-1.19629
-0.6481615	n e j	-0.9122349
-1.773515	n e l	-0.2324844
-0.8692024	n e m	-0.7873463
-1.669427	n e n
-1.319905	n e r	-0.1476476
-1.792178	n e s	0
-1.54816	n e t	-0.06308372
-2.612754	n e u	0
-1.885696	n e w
-2.226378	n e ć	0
-0.6258482	o e u	-0.2324844
-1.138611	p e </s>
-1.409743	p e a
-1.710016	p e c	0
-1.340932	p e d	-0.08921981
-1.136599	p e j	-0.2931999
-1.59562	p e k	0
-1.141876	p e l
-0.6299722	p e r	-0.1324949
-1.172147	p e t	-0.09415574
-1.057741	r e </s>
-1.139793	r e a	-0.1170901
-1.55031	r e c	-0.0545665
-1.379352	r e d	-0.07383959
-1.808646	r e e
-1.780105	r e f	-0.06018566
-1.65283	r e g	-0.08558319
-1.218075	r e h	-0.5150486
-0.9066885	r e j	-0.1766579
-1.500064	r e k	-0.06877975
-1.478089	r e l	0
-1.436226	r e m	-0.06182902
-1.054807	r e n	-0.08396018
-1.667948	r e p	-0.06576626
-1.213173	r e s	-0.08867344
-1.147972	r e t	-0.1437108
-1.535173	r e w	0
-1.605229	r e z	-0.09322222
-2.207667	r e č	0
-1.788342	r e š	0
-1.75172	r e ž	0
-1.382299	s e </s>
-1.430715	s e b	-0.2012397
-1.219911	s e d	-0.2169488
-0.7253512	s e j	-0.5112014
-1.475719	s e k	0
-0.9624127	s e l	-0.06165868
-1.320208	s e m	0
-1.043326	s e n	-0.1157338
-1.782612	s e p	0
-1.044378	s e r	-0.09900936
-2.089952	s e u	0
-1.03851	t e </s>
-2.096601	t e a	0
-1.785378	t e b	0
-1.486032	t e c	-0.2797736
-1.862574	t e d	0
-1.873115	t e g	0
-1.002488	t e h	-0.5951157
-0.763144	t e j	-0.4968876
-1.453037	t e k	-0.06871609
-1.294296	t e l	-0.1328263
-1.048298	t e m	-0.1929133
-1.086948	t e n	-0.1173135
-2.17511	t e o	0
-1.496328	t e p	-0.09272275
-1.037158	t e r	-0.1730259
-1.534106	t e s	-0.103578
-1.558419	t e t	-0.130842
-1.88094	t e w	0
-1.697691	t e z	-0.1368182
-1.979249	t e ń	0
-2.152452	t e ž	0
-0.4707422	u e l	-0.2324844
-1.069648	w e </s>
-1.4733	w e b	-0.02256377
-0.9677047	w e h	-0.5150486
-1.068174	w e j	-0.2745709
-1.2286	w e l	0
-1.246825	w e m	-0.1852863
-0.8629831	w e n	-0.3278809
-0.7891176	w e r	-0.1760514
-1.553675	w e s	0
-1.95418	w e z	0
-0.978502	z e </s>
-1.55725	z e f
-1.103966	z e h	-0.03326687
-1.082564	z e j	-0.060834
-1.087247	z e l	-0.1354737
-1.102616	z e m	-0.05279568
-1.219275	z e n	0
-1.306076	z e r	0
-1.099287	z e s	-0.1664912
-1.361341	z e t	-0.2324844
-1.381144	z e z	-0.1947237
-1.764534	z e ń	0
-1.646991	z e š	0
-1.937737	z e ž	0
-0.6057727	ć e </s>
-2.214291	ć e b	0
-2.080763	ć e d	0
-1.169335	ć e h	-0.4996838
-1.218101	ć e j	-0.3730664
-1.78862	ć e k	-0.2324844
-1.107961	ć e l	-0.3144974
-1.229955	ć e m	-0.4910544
-0.9774213	ć e n	-0.5598952
-1.157967	ć e r	-0.3116978
-1.65198	ć e t
-1.138258	ć e ć	-0.3672269
-1.750482	ć e ń	0
-1.335142	ć e š	-0.3155672
-1.286461	ć e ž	-0.2820456
-0.7864611	č e </s>
-1.24815	č e h	-0.3318743
-1.071984	č e j	-0.2266622
-1.011209	č e l	-0.2898283
-1.247234	č e m	-0.2192668
-0.7519667	č e n	-0.5335134
-1.008998	č e r	-0.1853194
-1.24497	č e s	-0.1181655
-1.105484	č e ć	-0.2819273
-1.700466	č e š	-0.2324844
-0.4925251	ł e </s>
-0.5555721	ł e h	-0.7191687
-0.7057849	ł e j	-0.4181386
-1.196877	ř e </s>
-1.610678	ř e b	0
-1.531805	ř e c	0
-1.477149	ř e d	0
-1.296048	ř e h	0
-1.230685	ř e j	0
-1.417408	ř e k	0
-1.291723	ř e m	0
-1.19101	ř e n	-0.06677384
-1.339565	ř e p	-0.05393201
-1.228626	ř e r	0
-1.2198	ř e s	-0.04087901
-1.329107	ř e t	0
-1.312446	ř e w	-0.01010092
-1.681683	ř e z	0
-1.31168	ř e ć	-0.08156639
-1.895607	ř e č	0
-2.174147	ř e ł	0
-1.593825	ř e ń	0
-1.476281	ř e š	0
-1.767027	ř e ž	0
-0.774034	š e </s>
-0.9747447	š e h	-0.8574712
-0.8291308	š e j	-0.6911339
-1.435438	š e l	-0.1376713
-1.017735	š e m	-0.4538249
-0.9278033	š e n	-0.4605472
-1.818931	š e p	0
-1.170948	š e r	-0.1635965
-2.031801	š e w	0
-1.145077	š e ć	-0.4348933
-1.70702	š e ń	-0.1315561
-1.501911	š e š	-0.2810608
-1.520421	ź e c	0
-1.219301	ź e j	0
-1.233049	ź e l	0
-1.280339	ź e m	0
-1.21328	ź e n	0
-1.561116	ź e p	0
-1.217242	ź e r	0
-1.269795	ź e s	0
-1.317723	ź e t	0
-1.484132	ź e w	0
-1.482079	ź e ć	0
-1.582441	ź e ń	0
-1.464897	ź e š	0
-1.197148	ź e ž	-0.130193
-0.914351	ž e </s>
-1.423313	ž e d
-1.45768	ž e h	0
-1.331873	ž e j	-0.2678864
-1.07742	ž e l	-0.1376713
-1.202296	ž e m	-0.03709992
-0.7037722	ž e n	-0.4968181
-1.183512	ž e r	-0.2322595
-1.663262	ž e t	0
-0.8806026	ž e ć	-0.5150487
-1.810436	ž e š	0
-0.5621448	<s> f a	-0.668343
-1.84806	<s> f e	-0.1272193
-0.6466625	<s> f i	-0.9294237
-1.656938	<s> f l	-0.2112677
-0.6837402	<s> f o	-0.7606272
-0.9335701	<s> f r	-0.6870083
-0.9219146	<s> f u	-1.278477
-2.16996	<s> f y	-0.2931999
-0.842548	a f i	0
-1.200606	a f l	0
-0.9353201	a f o	0
-1.17521	a f u	0
-1.02024	e f a
-0.8399491	e f e	0
-0.7067935	e f i	-0.07062486
-1.378724	e f l	0
-0.6203296	e f o	-0.1202384
-1.353328	e f u	0
-1.303298	i f a	0
-0.8967432	i f e	0
-0.330145	i f i	-0.4897365
-0.9449207	i f o
-1.367993	i f r	0
-0.9992083	l f a	0
-0.7190214	n f i	0
-1.31634	n f l	0
-1.051054	n f o	0
-0.6592292	n f r	0
-0.8861145	o f a
-0.8021603	o f e	-0.08944355
-0.7158048	o f i	-0.05482363
-0.8586224	o f o	0
-1.826836	o f t	0
-0.8181717	r f e	0
-0.5365748	s f o	-0.2324844
-0.2707191	t f i	-0.2324844
-1.063904	u f r	0
-1.046048	<s> g a	-0.2664616
-0.9737247	<s> g e	-0.5564412
-1.94074	<s> g l	-0.2324844
-1.170439	<s> g m	-0.7191687
-1.592713	<s> g o
-0.2882153	<s> g r	-0.8465701
-1.619524	<s> g u
-0.9282871	<s> g y	-0.930022
-0.9438301	a g a
-0.9277276	a g e	0
-0.967768	a g i	-0.133617
-1.24481	a g m
-1.717796	a g n	0
-0.8390986	a g o	-0.1207879
-0.9180057	a g r	-0.03204012
-0.9422166	a g u	-0.2324844
-1.275281	a g ě	-0.2324844
-0.6903066	e g a
-0.8645455	e g i	-0.03514737
-0.5644212	e g o	-0.1112385
-1.273714	e g r	0
-0.9487577	e g u	0
-0.9399672	g g i	0
-0.985429	i g a	0
-1.273703	i g e	0
-2.219787	i g g	0
-0.9146347	i g i	0
-0.8753554	i g n	-0.1589088
-0.6320978	i g o	-0.2793565
-1.048517	i g r	-0.2324844
-0.9839247	i g u	0
-0.8533243	l g o	0
-1.004909	n g a	0
-0.823314	n g e	0
-0.7527521	n g o	-0.2324844
-1.12571	n g r	0
-0.7704877	n g u	0
-0.9598501	o g a	0
-1.0271	o g e	0
-0.9801418	o g i	-0.06808281
-0.8431223	o g o	-0.1432859
-0.5225361	o g r	-0.5942299
-0.7140641	r g a	0
-0.8402811	r g i	0
-0.8213164	r g u	0
-0.896414	w g u	0
-1.073996	<s> h a	-0.566408
-2.20111	<s> h d	-0.4720064
-1.29633	<s> h e	-0.7692909
-1.237396	<s> h i	-0.7283034
-1.422461	<s> h l	-0.8083658
-2.819934	<s> h m	-0.2931999
-1.502869	<s> h n	-0.5461333
-0.5387332	<s> h o	-1.175634
-0.7727351	<s> h r	-1.18483
-1.452415	<s> h u	-0.6906847
-1.819055	<s> h w	-0.8241888
-3.006802	<s> h y
-0.9962282	<s> h ó	-1.064731
-0.9385157	<s> h ł	-1.321228
-1.134083	a h </s>
-0.7680535	a h a	-0.2713204
-1.001973	a h i	-0.2126294
-1.552653	a h l	0
-0.9320796	a h n	-0.1587684
-0.8190994	a h o	-0.1587975
-1.356214	a h r	-0.1316023
-0.8444819	a h u	-0.2643988
-1.569167	a h ó	0
-1.410564	a h ł	0
-1.251919	b h l	0
-1.061141	b h o	0
-0.6503454	b h r	-0.2324844
-0.9445825	c h </s>
-0.8872225	c h a	-0.3057795
-1.833844	c h c	-0.2678864
-1.109113	c h e	-0.2002947
-1.100302	c h i	-0.2153584
-2.236594	c h j	0
-1.951697	c h k	-0.1829241
-1.408884	c h l	-0.02551837
-1.354881	c h m	-0.1813391
-1.324066	c h n	-0.2371433
-0.9101491	c h o	-0.248223
-1.293908	c h r	-0.07834113
-1.607027	c h t	-0.1824607
-1.011823	c h u	-0.4074539
-1.339861	c h w	-0.4692912
-1.608236	c h ó	-0.129092
-2.531308	c h ě	0
-1.55382	c h ł	-0.1772799
-2.692366	c h ž	0
-1.361778	d h l	0
-0.621919	d h o	-0.2324844
-0.662024	d h ó	-0.2324844
-1.981284	e h d	0
-1.368744	e h e
-1.49591	e h i	0
-1.285995	e h l	-0.1575924
-1.607575	e h m	-0.1358656
-0.9251425	e h n	-0.1729785
-0.3700083	e h o	-0.4792522
-1.261501	e h r	-0.1501283
-1.394336	e h ó	-0.2324844
-1.614666	e h ł	0
-1.636042	e h ń	-0.02594987
-0.4182641	h h </s>
-0.9410961	i h a	0
-1.656003	i h d	0
-1.17063	i h i	0
-1.24214	i h l	0
-0.8132638	i h o	-0.07740681
-0.9769545	i h u	-0.1317611
-1.258654	i h ó	0
-1.289385	i h ł	0
-1.104993	j h i	0
-1.116466	j h r	0
-1.121965	j h u	0
-1.193018	j h ó	0
-1.03311	m h a	0
-0.3012646	n h r	0
-1.185584	o h </s>
-0.8884186	o h a	-0.05868701
-1.066904	o h e	-0.1174487
-0.9735953	o h i	-0.3076547
-1.328725	o h l	-0.2678864
-1.339854	o h n	-0.05595095
-0.6845008	o h o	-0.2491282
-1.059996	o h r	-0.03926942
-1.061529	o h u	-0.2705701
-1.336125	o h ó	-0.1432163
-1.443388	o h ł	0
-1.103712	r h a	0
-1.272076	r h n	0
-0.6236497	r h o	0
-2.194513	r h ń	0
-1.173148	t h e	0
-0.8447303	t h i
-1.207996	t h l	0
-1.147958	t h r	0
-1.22451	t h ó	0
-1.255241	t h ł	0
-1.065383	u h </s>
-0.999003	u h a	-0.09070121
-1.049024	u h e	0
-1.175997	u h i	0
-1.247507	u h l	0
-1.272478	u h n	0
-0.8794211	u h o	-0.1004546
-1.040449	u h u	-0.2324844
-1.264022	u h ó	0
-1.193018	y h ó	0
-0.9338065	z h a	-0.09528483
-1.294041	z h i	0
-1.098403	z h l	-0.09907462
-1.108845	z h n	0
-0.7647228	z h o	-0.2285014
-0.9656552	z h r	-0.1822832
-0.9676247	z h u	-0.145927
-1.382065	z h ó	0
-1.412796	z h ł	0
-0.8641214	ó h </s>
-0.821439	ó h a	0
-1.177255	ó h i	0
-1.248765	ó h l	0
-1.057988	ó h o	0
-1.29601	ó h ł	0
-1.02971	ě h </s>
-0.9759939	ě h a	-0.06752332
-1.778888	ě h d	0
-1.108858	ě h i	-0.2324844
-1.389996	ě h n	0
-0.6956993	ě h o	-0.2679983
-1.304987	ě h r	0
-0.84393	ě h u	-0.2678864
-1.912873	ě h w	0
-2.312433	ě h ń	0
-0.6956358	ł h a	0
-1.197174	ł h e	0
-1.160511	ł h i	0
-1.041244	ł h o	0
-1.177483	ł h u	0
-1.130109	<s> i d	-0.971895
-1.420565	<s> i g	-0.930022
-2.012858	<s> i l	-0.4181386
-0.9084008	<s> i m	-0.7507197
-0.149629	<s> i n	-1.201929
-2.290273	<s> i s	-0.2324844
-2.173373	<s> i t	-0.2931999
-2.030443	<s> i z	-0.4181386
-0.302	a i n	-0.08840466
-1.254655	b i </s>
-1.939724	b i b	0
-1.279158	b i c	-0.06841388
-1.398423	b i j	-0.07692765
-1.077542	b i k	-0.07955271
-1.004183	b i l	-0.3818296
-1.48771	b i m	-0.1261541
-1.041348	b i n	-0.1903509
-1.598668	b i o	-0.1359453
-1.481538	b i s	0
-1.2535	b i t	-0.09173927
-1.629473	b i w	0
-0.9455631	b i ć	-0.4529007
-1.218267	b i č	-0.1351785
-1.192091	b i ł	-0.3666181
-1.588635	b i š	-0.08089964
-1.227544	c i a	-0.1369876
-1.012795	c i e	-0.2595173
-2.144189	c i f	0
-0.8344366	c i j	-0.4600803
-1.638474	c i l	0
-1.285354	c i n	-0.0629662
-0.8573876	c i o	-0.5306308
-1.546932	c i p	0
-1.862393	c i r	0
-0.9724032	c i s	-0.2430085
-1.327222	c i t	-0.08562066
-1.709059	c i ě	-0.2324844
-1.33121	d i a	-0.08472263
-1.277084	d i c	-0.1319448
-1.318666	d i d	-0.1333939
-1.846183	d i e	0
-1.55446	d i f	0
-1.489576	d i g	0
-0.9055503	d i j	-0.3683099
-1.116043	d i k	-0.1013015
-1.065546	d i n	-0.0370235
-1.335487	d i o	0
-1.464101	d i r	-0.2324844
-1.102148	d i s	-0.1884915
-1.244206	d i t	0
-1.3629	d i w	0
-0.6750142	e i m	0
-0.6574041	e i n	-0.1313304
-1.245394	f i c	-0.2324844
-1.195576	f i g	-0.1322315
-1.109344	f i j	-0.1267576
-0.8257597	f i k	-0.204118
-1.121339	f i l	-0.08699224
-1.16734	f i n	-0.0629662
-1.31471	f i r	-0.2324844
-1.108137	f i s	-0.1811951
-1.212599	f i t	0
-1.174858	g i </s>
-0.7485382	g i j	-0.1760033
-1.546876	g i k	0
-1.511677	g i m	0
-0.8535728	g i n	-0.1617187
-1.249586	g i o	0
-1.056905	g i s	-0.1884915
-1.173615	g i t	0
-0.7625201	h i </s>
-0.9451261	h i b	-0.1595117
-1.12907	h i c	-0.4181386
-1.287783	h i l	0
-0.9980295	h i m	-0.262608
-1.081787	h i n	-0.09517527
-1.542361	h i s	0
-1.530691	h i t	0
-1.584236	h i w	0
-1.295367	h i ć	-0.1117298
-1.711327	h i ł	0
-1.748145	h i š	0
-2.142496	h i ž	0
-0.975062	j i </s>
-1.11025	j i c	-0.1222454
-1.270221	j i l	-0.2931999
-0.7447371	j i m	-0.2962533
-1.30447	j i n	-0.08701131
-1.091129	j i t	-0.1758681
-1.378323	j i w	-0.1319906
-0.9881735	j i ć	-0.3601467
-1.311721	j i ł	-0.2574735
-1.322068	j i š	-0.1335366
-0.4850783	k i </s>
-0.8920403	k i c	-0.464668
-1.683394	k i d	-0.1256779
-1.62647	k i l	0
-0.7648841	k i m	-0.5356877
-1.553506	k i n
-1.133526	k i s	-0.1587546
-1.340248	k i t	-0.1301249
-1.627384	k i w	0
-1.636057	k i ć	-0.008335799
-1.799654	k i ž	-0.1240059
-1.025161	l i </s>
-1.692591	l i a	-0.1844174
-1.999668	l i b
-1.394003	l i c	-0.2517949
-1.822121	l i d	-0.1465002
-1.976071	l i e	0
-2.400568	l i f	0
-2.186695	l i g	0
-1.444411	l i j	-0.1780318
-1.331629	l i k	-0.09359625
-1.279466	l i l	-0.5276782
-1.324241	l i m	-0.4350058
-1.09869	l i n	-0.1398183
-2.082825	l i o	0
-1.864053	l i p	0
-1.378404	l i s	-0.1746979
-1.375439	l i t	-0.1804971
-1.030591	l i w	-0.5411264
-1.40859	l i z	-0.2078429
-1.157858	l i ć	-0.7703211
-1.05206	l i č	-0.3946227
-1.209688	l i ł	-0.6813803
-1.257196	l i š	-0.07583648
-2.098426	l i ž	0
-0.9073119	m i </s>
-1.39915	m i c	0
-1.614678	m i g	-0.2324844
-1.370768	m i j	-0.07262333
-1.13691	m i k	-0.09895867
-1.243445	m i l	-0.1994642
-1.45995	m i m	-0.2324844
-0.8890543	m i n	-0.1614284
-1.124902	m i s	-0.2705941
-1.446968	m i t	-0.1287557
-1.272175	m i z	-0.1424557
-1.250308	m i ć	-0.2119632
-1.609208	m i č	0
-1.441575	m i ł	-0.2574736
-1.290881	m i š	-0.1174833
-0.9972556	n i </s>
-2.328907	n i b	0
-0.9646654	n i c	-0.5966694
-2.069225	n i f	0
-2.148186	n i h	-0.06186493
-1.730489	n i j	-0.05153535
-1.001316	n i k	-0.9774461
-1.344375	n i l	-0.8160787
-1.33965	n i m	-0.3878953
-1.595186	n i n	-0.2047182
-2.249559	n i p	0
-1.084601	n i s	-0.6688353
-1.431116	n i t	-0.305783
-1.442171	n i w	-0.2355939
-1.780496	n i z	-0.1424557
-1.115059	n i ć	-0.6939931
-1.255586	n i č	-0.4348146
-1.150646	n i ł	-0.4443679
-0.9910722	n i š	-0.7558858
-1.892476	n i ž	-0.1431098
-1.0677	p i </s>
-1.52284	p i c	-0.09300773
-1.402374	p i j	-0.1014683
-1.512142	p i k	-0.1257548
-1.078017	p i l	-0.1384143
-0.9180969	p i n	-0.1677173
-1.602405	p i o	-0.2324844
-1.618001	p i r	0
-0.7932869	p i s	-0.480892
-1.256427	p i t	0
-1.509923	p i w	0
-1.170164	p i ć	-0.2353553
-1.640097	p i č	-0.2324844
-1.311077	p i ł	-0.3283594
-1.825607	p i ń	-0.2324844
-1.592478	p i š	0
-1.133623	r i </s>
-1.503018	r i a	-0.104734
-1.804965	r i b	0
-1.570017	r i c	-0.1787634
-1.710895	r i d
-1.41745	r i e	-0.1613161
-1.88851	r i f
-1.7949	r i g	0
-1.855927	r i h	-0.1276156
-1.255727	r i j	-0.1994309
-1.268289	r i k	-0.1798393
-1.436659	r i l	-0.1754957
-1.138092	r i m	-0.107445
-1.367535	r i n	-0.03346835
-1.651391	r i o	0
-1.764523	r i p
-1.086437	r i s	-0.1932507
-1.083967	r i t	-0.08594897
-1.556836	r i w	-0.09325112
-1.223094	r i z	-0.08408654
-1.098572	r i ć	-0.4462087
-1.78794	r i č	0
-1.383696	r i ł	-0.3415902
-1.500087	r i š	-0.1209426
-1.425966	s i b	-0.2324844
-2.070924	s i f	0
-1.288518	s i g	-0.1900243
-0.9136803	s i j	-0.05950722
-1.292292	s i m	0
-1.141573	s i n
-1.079687	s i o	-0.4181386
-1.186734	s i s	-0.2324844
-1.281255	s i t
-1.0396	s i w	-0.1176841
-1.348296	s i z
-1.316164	s i ć	-0.2324844
-1.906726	t i b	0
-1.384278	t i c	0
-1.587345	t i e
-1.527902	t i f	-0.2931999
-1.445479	t i j
-1.027754	t i k	-0.2014158
-1.594456	t i l	0
-1.107331	t i m	-0.1293933
-1.302982	t i n	0
-1.556491	t i o	0
-1.827379	t i p	0
-0.7830355	t i s	-0.6528705
-1.208274	t i t	-0.2678864
-1.026968	t i w	-0.1294715
-1.252128	t i z	-0.3601467
-1.204644	w i </s>
-1.290198	w i c	-0.2815105
-1.124959	w i d	-0.2547783
-1.720967	w i g	-0.1322629
-1.574682	w i j	-0.1330264
-1.285329	w i k	-0.1806962
-1.104731	w i l	-0.2745714
-1.452949	w i m	-0.4181386
-0.9931208	w i n	-0.2411065
-1.992582	w i r	0
-1.20661	w i s	-0.1719328
-1.203863	w i t	-0.1798367
-1.465171	w i w	-0.1887871
-1.306019	w i z	-0.1699579
-1.160603	w i ć	-0.2550938
-1.432622	w i č	-0.1491773
-1.240509	w i ł	-0.5694061
-1.409159	w i š	-0.08516123
-1.930075	w i ž
-1.646209	z i a	0
-1.497318	z i c	0
-1.608667	z i d	0
-0.6714442	z i j	-0.08693153
-1.001502	z i k	-0.1209361
-1.47155	z i l	0
-0.9906346	z i s	-0.2931999
-1.492968	z i ć	0
-0.9721755	ć i </s>
-1.191366	ć i c	-0.2364715
-1.853617	ć i j	0
-1.125367	ć i k	-0.3042247
-1.12452	ć i l	-0.5276782
-1.120298	ć i m	-0.4155096
-1.100551	ć i n	-0.2769779
-2.12285	ć i p	0
-1.447528	ć i s	-0.2269187
-1.443707	ć i t	-0.2324844
-1.124803	ć i w	-0.1940835
-1.984917	ć i z	0
-1.023347	ć i ć	-0.6611767
-2.167923	ć i č	0
-1.083776	ć i ł	-0.7006853
-1.036593	ć i š	-0.2407572
-0.8799071	č i </s>
-2.201184	č i b	0
-1.249571	č i c	-0.3548547
-1.108123	č i l	-0.4765257
-1.239174	č i m	-0.2742086
-0.9051951	č i n	-0.3984742
-1.324093	č i s	-0.1520429
-1.046531	č i t	-0.4066556
-1.69172	č i w	0
-1.055663	č i ć	-0.6289921
-2.16691	č i č	0
-0.9715165	č i ł	-0.2548957
-1.329458	č i ń	-0.2743075
-1.488841	č i š	-0.05603378
-1.282622	ř i </s>
-1.728351	ř i b	0
-1.322555	ř i c	-0.06841388
-1.269679	ř i d	0
-1.587009	ř i h	-0.02444186
-1.379769	ř i j	0
-1.218482	ř i k	-0.09960574
-1.309006	ř i l	-0.07811631
-1.386939	ř i m	0
-1.224437	ř i n	-0.08701131
-1.417656	ř i p	0
-1.414027	ř i r	0
-1.2873	ř i s	-0.02491409
-1.280774	ř i t	-0.03524186
-1.310081	ř i w	-0.02497974
-1.51107	ř i z	0
-1.320294	ř i ć	0
-1.694076	ř i č	0
-1.54519	ř i ł	0
-2.626434	ř i ń	0
-1.389571	ř i š	0
-1.52115	ř i ž	-0.05532297
-0.7208351	š i </s>
-2.177324	š i b	0
-0.8730856	š i c	-0.7228315
-1.875043	š i f	-0.2324844
-1.828743	š i j	0
-1.436664	š i k	-0.07200842
-1.233018	š i l	-0.5942299
-0.8351041	š i m	-0.7122859
-1.132528	š i n	-0.2704
-2.097976	š i p	0
-1.661507	š i s	0
-1.813528	š i t	0
-1.588082	š i w	-0.1281314
-1.043037	š i ć	-0.5942299
-1.176731	š i ł	-0.4532983
-1.761101	š i š	0
-1.337482	ź i c	0
-1.275402	ź i j	0
-1.317771	ź i k	0
-1.311714	ź i l	0
-1.282572	ź i m	0
-1.1646	ź i n	0
-1.260188	ź i t	0
-1.313732	ź i w	0
-1.406703	ź i z	0
-1.333132	ź i ć	0
-1.440823	ź i ł	0
-1.477641	ź i š	0
-0.9243332	ž i </s>
-1.432972	ž i c	-0.0651298
-1.691275	ž i j	0
-1.520881	ž i k
-1.270156	ž i l	-0.4181386
-0.9896998	ž i m	-0.4167748
-1.43497	ž i n	-0.1065545
-1.496528	ž i s	0
-1.058383	ž i t	-0.183852
-1.158118	ž i w	-0.1936325
-0.9339902	ž i ć	-0.2550938
-1.640472	ž i č	0
-1.012166	ž i ł	-0.5430775
-1.312792	ž i š	-0.1867711
-0.8954157	<s> j a	-0.6770479
-0.2767848	<s> j e	-1.138886
-1.719326	<s> j i	-0.3786778
-1.939401	<s> j o	-0.1336202
-2.537782	<s> j s	-0.2324844
-1.069089	<s> j u	-0.5983196
-1.41793	<s> j ó	-0.8699463
-0.7520052	<s> j ě	-0.8896127
-0.8912657	a j </s>
-0.8845542	a j a	-0.3756993
-2.5009	a j b	0
-1.50295	a j c	-0.3470676
-2.311841	a j d	0
-1.027432	a j e	-0.2678286
-2.02757	a j h	-0.05698425
-1.235503	a j i	-0.2787595
-1.964248	a j j
-1.345217	a j k	-0.2740318
-2.42415	a j l	0
-1.494614	a j m	-0.09831724
-1.469817	a j n	-0.1774227
-0.9569408	a j o	-0.617711
-2.294756	a j p	0
-2.293048	a j r	0
-1.790957	a j s	-0.01220914
-1.637192	a j t	-0.04675774
-1.113986	a j u	-0.5136369
-1.959381	a j w	0
-2.034096	a j z	0
-0.9713395	a j ć	-0.6605338
-1.670788	a j ě	0
-2.52225	a j š	0
-2.067325	a j ž	-0.2324844
-0.6846439	b j a	-0.161243
-0.3227563	b j e	-0.3020498
-1.728239	b j i	0
-1.162614	b j o	-0.125849
-1.001933	b j u	-0.1614544
-0.7162442	e j </s>
-0.843895	e j a	-0.4024339
-1.998351	e j d
-0.7910753	e j e	-0.4740866
-2.448599	e j h	0
-1.290624	e j i	-0.1382774
-1.971098	e j k	-0.07754464
-2.023336	e j l	0
-1.891395	e j m	-0.05101098
-1.364186	e j n	-0.2150117
-1.090058	e j o	-0.1541407
-1.44043	e j s	-0.02688363
-1.01991	e j u	-0.4783331
-1.882063	e j w	0
-1.264573	e j ć	-0.6611767
-2.272261	e j č	0
-1.73632	e j ě	-0.1218658
-2.050278	e j ž	-0.2324844
-0.9323013	h j a	0
-1.084249	i j </s>
-0.7266433	i j a	-0.5387985
-0.6985424	i j e	-0.5992606
-1.148227	i j i	-0.3185347
-2.2122	i j m	0
-1.369997	i j n	-0.3292066
-0.7892707	i j o	-0.4730958
-1.771926	i j s	-0.2324844
-0.857604	i j u	-0.930022
-2.453826	i j ó	0
-1.632022	i j ć	-0.2931998
-1.901193	i j ě	0
-1.012985	l j o	0
-0.7347096	m j a	-0.1165109
-0.2846199	m j e	-0.4505714
-0.822926	m j o	-0.429856
-1.364161	m j u	-0.2324844
-0.6042183	n j a	-0.4756729
-0.5153735	n j e	-0.383665
-1.768907	n j i	-0.2324844
-0.7182465	n j o	-0.3905832
-0.7467527	n j u	-0.7938023
-2.772395	n j ó	0
-1.135549	o j </s>
-0.9638319	o j a	-0.2567373
-1.639574	o j c
-0.8655531	o j e	-0.2454363
-1.069128	o j i	-0.2523353
-2.052271	o j n	0
-0.6372432	o j o	-0.4728341
-1.676213	o j s
-1.007646	o j t	-0.4012029
-1.198049	o j u	-0.3375456
-1.266482	o j ć	-0.1834126
-1.675365	o j č	0
-1.621201	o j ě	-0.03378021
-0.4797351	p j a	-0.2678039
-0.3388819	p j e	-0.4322778
-1.124202	p j u	-0.09659313
-0.5916361	r j a	-0.3823096
-0.4302149	r j e	-0.4060363
-0.8568544	r j o	-0.2869471
-0.9414272	r j u	-0.2442499
-1.632393	r j ó	0
-0.9833401	u j </s>
-0.7341099	u j a	-0.7208627
-1.99877	u j c	-0.2324844
-0.7124488	u j e	-0.9809331
-0.8535622	u j o	-0.7529448
-0.8312692	u j u	-0.7001818
-0.7720519	u j ć	-0.8268652
-2.210839	u j ě	0
-0.5189893	w j a	-0.4268099
-0.3569055	w j e	-0.4749369
-1.36617	w j o	0
-1.09316	w j u	-0.2583644
-0.7718194	y j a	-0.08477311
-0.8597522	y j e
-1.281625	y j i	0
-0.7999149	y j o	0
-0.9335056	y j u	-0.2324844
-1.462569	y j ć	0
-0.796456	z j a	-0.1379447
-0.497582	z j e	-0.3302371
-0.986482	z j i	-0.2324844
-1.082976	z j w	-0.2324844
-0.736816	ó j </s>
-2.275582	ó j b	0
-1.057058	ó j e	0
-1.126179	ó j i	0
-1.282775	ó j m
-1.250601	ó j n	0
-1.099001	ó j s	-0.1242134
-1.201468	ó j ć	-0.2324844
-1.983332	ó j č	0
-0.7006423	ě j a	-0.5150486
-0.6048452	ě j e	-0.416157
-1.421198	ě j i	0
-2.103055	ě j k	0
-1.290238	ě j o	0
-0.8481745	ě j u	-0.4181386
-1.089596	ě j ć	-0.2931998
-0.9827223	<s> k a	-0.8401353
-1.623263	<s> k e	-0.6929742
-1.995764	<s> k i	-0.1527183
-1.25049	<s> k l	-0.9769277
-1.794256	<s> k m	-0.8126776
-1.173393	<s> k n	-1.29883
-0.4921665	<s> k o	-1.248841
-0.8278652	<s> k r	-1.326289
-0.846405	<s> k u	-1.151851
-1.826192	<s> k w	-0.6806933
-1.257888	<s> k ó	-0.9312862
-3.111148	<s> k ć
-2.363353	<s> k ě	-0.7703211
-2.329218	<s> k ł	-0.2413965
-1.57102	<s> k ř	-0.9229892
-0.9327108	a k </s>
-0.8344697	a k a	-0.4144638
-1.656079	a k c	-0.3470676
-1.158815	a k e	-0.2154076
-0.9880269	a k i	-0.4236451
-1.511118	a k l	-0.08499095
-1.912029	a k m	-0.2324844
-1.51431	a k n	-0.1641902
-0.835241	a k o	-0.3580186
-1.676888	a k r	-0.1520831
-1.50087	a k s	-0.09778401
-1.058968	a k t	-0.4040294
-1.018193	a k u	-0.2909431
-1.905638	a k w
-1.993282	a k ó	0
-1.824368	a k ć	0
-1.846412	a k ł	-0.2324844
-1.145702	b k e	0
-0.8227021	b k i	-0.2324844
-1.346729	b k n	0
-0.8983225	b k r	-0.2324844
-0.8956531	c k </s>
-0.8503374	c k a
-1.176498	c k e	0
-0.7371021	c k o	-0.1327693
-1.022919	d k </s>
-0.8789487	d k a	-0.3333418
-1.279895	d k e	-0.1301017
-0.730629	d k i	-0.4714158
-0.6575425	d k o	-0.2049516
-0.8011591	d k u	-0.2634182
-1.928776	d k ł	0
-1.30728	e k </s>
-1.167408	e k a	-0.06226271
-1.672838	e k c	-0.2324844
-1.233467	e k e	-0.06964989
-1.274288	e k i
-1.201648	e k l	-0.124808
-1.821929	e k m	0
-1.425764	e k n	-0.07448378
-0.9938976	e k o	-0.1263386
-1.225802	e k r	-0.05824143
-1.081549	e k s	-0.1954677
-1.084118	e k t	-0.1968675
-0.9427627	e k u	-0.05864707
-1.597468	e k w	0
-1.746536	e k ó	0
-1.319819	e k ć	-0.1539993
-1.541606	e k ł	-0.09719203
-1.679887	e k ř	-0.2324844
-0.9641194	h k a	0
-1.069565	h k e	0
-1.03701	h k i	0
-1.013373	h k u	0
-0.9123409	i k </s>
-0.6622487	i k a	-0.4449267
-1.255421	i k e	-0.3184166
-0.9466227	i k i	-0.4529449
-1.667078	i k l	-0.03329668
-1.422276	i k n	-0.1702164
-0.7633268	i k o	-0.3760834
-1.702876	i k r	0
-1.843747	i k t	-0.1338089
-0.8645362	i k u	-0.3610301
-1.818957	i k w	0
-1.771884	i k ł	-0.2324844
-2.25931	i k ń	0
-0.8249973	j k a	-0.01592958
-1.198998	j k e	0
-0.8518029	j k i	-0.009547681
-0.7078856	j k o	-0.03203524
-1.46305	j k r	0
-1.142807	j k u	0
-0.6797478	l k a	-0.3372921
-1.174527	l k e	-0.04330708
-0.8999977	l k i	-0.1897035
-1.255165	l k l	0
-0.7691944	l k o	-0.1450865
-0.7792042	l k u	-0.3542682
-0.7640604	m k a
-1.349882	m k n	0
-1.048279	m k o	0
-0.7799218	m k u	0
-1.797201	m k ń	0
-0.8110028	n k </s>
-0.7880518	n k a	-0.2174723
-2.228598	n k c	0
-1.220412	n k e	-0.08957286
-0.8737251	n k i	-0.3464771
-1.405854	n k l
-0.8578789	n k o	-0.2942123
-1.436168	n k r	0
-0.8684337	n k u	-0.3255416
-1.189545	o k </s>
-0.960372	o k a	-0.1143644
-2.20361	o k c	0
-1.042367	o k e	-0.2867398
-1.097994	o k i	-0.3135246
-1.35006	o k l	-0.1830283
-1.987484	o k m	0
-1.588685	o k n	-0.06727909
-0.7036827	o k o	-0.1961476
-1.168865	o k r	-0.2077262
-1.774827	o k t	-0.2324844
-0.8038018	o k u	-0.2328041
-1.437932	o k w	-0.1748169
-1.912092	o k ó	0
-1.696459	o k ł	-0.05703542
-0.7475679	p k a	-0.1288982
-0.8928639	p k i	-0.2324844
-0.5700104	p k o	-0.2678863
-1.226161	p k u	0
-1.188527	r k </s>
-0.8108387	r k a	-0.2928325
-0.8332316	r k e	-0.1444912
-0.9136838	r k i	-0.3464771
-1.577419	r k l	0
-0.8119686	r k o	-0.2332712
-0.8218319	r k u	-0.3069882
-1.939803	r k w	0
-2.55745	r k y	0
-2.523886	r k ě	0
-1.469466	s k </s>
-0.7569728	s k a	-0.3488933
-0.745464	s k e	-0.6853063
-0.7227763	s k i	-0.7651533
-1.778651	s k n	-0.2324844
-0.851988	s k o	-0.2877072
-1.810876	s k r	0
-2.248965	s k t	0
-0.9143531	s k u	-0.2897466
-1.604324	s k ó	-0.1912427
-1.590299	s k ł	-0.223719
-2.425337	s k ř	0
-0.9599759	t k </s>
-0.7383447	t k a	-0.2929719
-1.028364	t k e	-0.2441893
-0.7906304	t k i	-0.3328897
-1.545434	t k l
-1.549323	t k n	0
-0.7806619	t k o	-0.353067
-1.825621	t k r	0
-1.69235	t k s
-0.9462067	t k u	-0.4038981
-1.984149	t k ł	0
-2.209914	t k ń	0
-1.158996	u k </s>
-0.8878596	u k a	-0.07232171
-1.547256	u k c	-0.2324844
-1.228238	u k e	-0.1174501
-1.009532	u k i	-0.4181386
-1.337676	u k l	0
-1.80989	u k m	0
-1.244481	u k n	-0.1309847
-0.750265	u k o	-0.3527759
-1.372902	u k r	-0.1215465
-1.511012	u k t	-0.06830294
-0.9998014	u k u	-0.09420574
-1.661734	u k ł	0
-0.9483801	w k </s>
-0.9021297	w k a	-0.1573433
-1.049228	w k e	-0.2324844
-0.7699998	w k i	-0.4181386
-0.7512297	w k o	-0.3319958
-0.9220251	w k u	-0.2931999
-0.6341608	y k a	-0.03770928
-1.435599	y k n	0
-0.6351759	y k o	-0.1355131
-1.882917	y k ń	0
-1.068491	z k </s>
-0.7728466	z k a	-0.1000651
-1.180084	z k e	0
-0.9485217	z k i	-0.1068654
-0.9190784	z k o	-0.1944996
-1.444136	z k r	0
-0.9385868	z k u	-0.2931999
-1.602664	z k ł	0
-0.8365099	č k </s>
-0.634044	č k a	-0.4689237
-1.460671	č k e	0
-0.6804621	č k i	-0.5254955
-0.822777	č k o	-0.4130762
-0.8284422	č k u	-0.7191686
-0.558319	ě k a	-0.1548561
-0.9829166	ě k i	-0.1068654
-1.064675	ě k n	-0.0454077
-0.8459046	ě k o	-0.0585154
-0.8610128	ě k u	-0.1282539
-0.6704388	ł k a	-0.147374
-0.9835528	ł k e
-0.8585731	ł k i	-0.2931999
-0.9392979	ł k o	-0.127412
-0.8505648	ł k u	-0.2931999
-0.9641194	ń k a	0
-1.03701	ń k i	0
-0.9641194	ř k a	0
-0.9689872	ř k o	0
-1.101402	š k </s>
-0.8054825	š k a	-0.159542
-1.338917	š k e	0
-0.8190885	š k i	-0.3697658
-1.758023	š k l	0
-0.6034935	š k o	-0.4322686
-1.162192	š k r	-0.2324845
-0.9720801	š k u	-0.5150486
-1.535368	š k ó	-0.1366224
-0.9561275	ž k </s>
-0.7675585	ž k a	-0.3847973
-1.658844	ž k e	0
-0.7775782	ž k i	-0.3657947
-0.7682735	ž k o	-0.2706566
-0.6035216	ž k u	-0.5782369
-1.275707	<s> l a	-0.2375266
-1.012388	<s> l e	-0.4263727
-0.6531204	<s> l i	-0.7748417
-0.970124	<s> l o	-0.6084207
-0.7218871	<s> l u	-1.034002
-1.680832	<s> l ó	-0.3253756
-0.527284	<s> l ě	-0.9620799
-1.258806	a l </s>
-1.064711	a l a	-0.1100127
-2.326356	a l b	0
-1.78695	a l c
-0.9511412	a l e	-0.1939595
-2.661805	a l f	0
-2.826622	a l g	0
-0.6708183	a l i	-0.3764333
-1.445747	a l k	-0.08065057
-1.01402	a l n	-0.5297695
-0.916003	a l o	-0.2616222
-1.816404	a l s	0
-1.823547	a l t	-0.08372003
-1.133762	a l u	-0.0605298
-1.808618	a l y	-0.1122007
-1.869203	a l ć	-0.2324844
-1.647585	a l č	-0.14543
-1.360563	a l ě	-0.06247534
-2.031239	a l š	0
-1.114978	b l a	-0.07990599
-0.7663938	b l e	-0.08320626
-0.5753034	b l i	-0.1714239
-0.8495023	b l o	-0.2570565
-0.9910719	b l u	-0.03229509
-1.019658	b l ě	-0.07305097
-0.673766	c l e	0
-0.79238	c l i	0
-0.789972	c l o	-0.2324844
-0.8618365	c l ě	0
-0.6362687	d l a	-0.4336691
-0.6349419	d l e	-0.1791812
-0.6960157	d l i	-0.1310261
-1.87563	d l k	0
-1.26307	d l u	-0.2324844
-1.199877	d l ě	-0.1686825
-1.089406	e l </s>
-1.166313	e l a	-0.2894926
-2.030009	e l c	0
-0.8064914	e l e	-0.2046408
-1.991793	e l f
-2.780716	e l g	0
-0.8619909	e l i	-0.229863
-1.921154	e l j	-0.2324844
-1.297375	e l k	-0.2149931
-1.945949	e l m
-0.9945118	e l n	-0.4845073
-0.963826	e l o	-0.3295248
-1.219491	e l s	-0.2525343
-1.268035	e l u	-0.3493377
-1.706972	e l ć	0.0232681
-2.309656	e l č	0
-1.310106	e l ě	-0.05234306
-2.904983	e l ń	0
-2.495566	e l š	0
-2.673046	e l ž	0
-0.7390414	f l a	-0.06003355
-0.7360392	f l e	-0.09633175
-0.8463073	f l i	0
-0.8435964	f l o	0
-1.2753	f l u	0
-0.2850095	g l o	0
-0.4238173	h l a	-0.4550882
-0.8088394	h l e	-0.1487965
-0.7141796	h l i	-0.1156009
-1.186574	h l o	-0.06630549
-1.236545	h l u
-1.681603	h l ě	0
-1.334139	i l </s>
-1.153169	i l a	-0.1326391
-0.81546	i l e	-0.2552937
-0.5452619	i l i	-0.295348
-1.75696	i l k	0
-1.768379	i l l	0
-2.266244	i l m	0
-1.168395	i l n	-0.3433623
-1.052067	i l o	-0.1846491
-2.097888	i l t	0
-1.090658	i l u	-0.03229509
-1.460768	i l ě	-0.1233834
-0.9698463	j l e	0
-1.064047	j l u	0
-1.181167	j l ě	0
-1.365062	k l </s>
-0.7922003	k l a	-0.101476
-0.6737441	k l e	-0.1403548
-0.6240125	k l i	-0.2597085
-1.199971	k l o	0
-0.8051074	k l u	-0.1205976
-2.48861	k l ó	0
-1.683109	k l ě	0
-1.048859	l l a	0
-1.039218	l l e	0
-0.6172776	l l i	0
-1.021471	l l o	0
-0.7259521	m l e
-1.065792	m l i	0
-2.093859	m l ó	0
-0.779923	m l ě	0
-0.4729174	n l i	-0.2931999
-0.613402	n l o	0
-1.468352	o l </s>
-0.8837861	o l a	-0.2644159
-1.740078	o l c	-0.1042066
-0.7983574	o l e	-0.1421713
-0.9274681	o l i	-0.08062613
-1.67095	o l k	0
-1.837092	o l l	0
-1.622274	o l n	-0.1265487
-0.72569	o l o	-0.3392368
-1.831848	o l s	0
-1.075493	o l u	-0.2464554
-2.153506	o l w	0
-2.33569	o l ó	0
-1.945994	o l ć	0
-1.806875	o l č	-0.1300974
-1.034014	o l ě	-0.2558553
-0.7829952	p l a	-0.1469369
-0.6902509	p l e	-0.08805199
-0.6882816	p l i	-0.1150303
-0.777104	p l o	-0.03953186
-1.195749	p l u	0
-0.9097069	r l a	0
-0.7870399	r l e	-0.2931999
-0.4798966	r l i	-0.06735872
-1.312752	r l u	0
-1.043696	s l a	-0.1598343
-0.6395653	s l e	-0.1571167
-0.791844	s l i	-0.09248182
-1.314276	s l n	0
-1.03057	s l o	-0.1774031
-1.175914	s l u	0
-1.864379	s l ć	0
-0.9622738	s l ě	-0.2216561
-0.985218	t l a	0
-0.7189209	t l e	-0.04454455
-0.7159105	t l i	-0.03327364
-0.971887	t l o
-1.023665	t l u	0
-1.414727	u l </s>
-0.8033043	u l a	-0.08379154
-0.851648	u l e	-0.2515101
-0.8491769	u l i	-0.1420431
-1.602572	u l k	-0.04754889
-1.712631	u l n	0
-0.7128261	u l o	-0.3763853
-1.598618	u l s	0
-1.55159	u l t	-0.1734595
-0.9988427	u l u	-0.4140144
-1.512263	u l ě	0
-0.7994766	w l e	0
-0.6729552	w l i	-0.1331491
-0.6528981	y l a	-0.1936474
-1.103987	y l e	0
-0.575115	y l i	-0.2521791
-1.738367	y l k	0
-1.268468	y l n	-0.05219838
-1.094761	y l o
-0.2805423	z l i	-0.1246657
-2.084152	ó l b	0
-1.250776	ó l c	-0.07773976
-0.9083775	ó l e	-0.1306982
-0.8529268	ó l n	-0.08870983
-1.204409	ó l s	-0.1134743
-1.207073	ó l u	0
-1.290374	ó l č
-0.3032016	ć l ě	-0.2931999
-0.9520993	č l o	0
-1.189477	ě l </s>
-0.8950276	ě l a	-0.05692956
-0.8918148	ě l e	-0.1158912
-0.564993	ě l i	-0.2856948
-1.306046	ě l n	-0.07089135
-1.110142	ě l o	-0.1149586
-1.171307	ě l u	-0.1272754
-1.823725	ě l ć	0
-0.8690888	š l a	-0.09738275
-0.9894865	š l e	-0.1353178
-0.3061814	š l i	-0.2257101
-0.2857627	ž l i	0
-0.7533131	<s> m a	-0.9657486
-1.517278	<s> m e	-0.41298
-1.075803	<s> m i	-0.9603004
-0.8353006	<s> m j	-1.767902
-2.407923	<s> m l	-0.2013608
-1.865941	<s> m n	-0.4912478
-0.8545843	<s> m o	-0.9401494
-2.094022	<s> m r	-0.4537683
-1.310843	<s> m u	-0.5777295
-1.3619	<s> m y	-0.7414801
-0.9478647	<s> m ó	-1.048478
-0.8783131	<s> m ě	-0.9317782
-1.27142	<s> m ł	-1.165032
-3.052508	<s> m š
-0.7097333	a m </s>
-1.140543	a m a	-0.1434506
-1.850222	a m b	0
-1.1534	a m e	-0.13265
-0.8401793	a m i	-0.6341203
-1.273517	a m j	-0.4720063
-1.85153	a m k	-0.134021
-1.721977	a m n	-0.08647763
-0.9415667	a m o	-0.1248642
-1.929198	a m p	0
-1.922005	a m r	0
-1.862749	a m s	0
-2.612104	a m t	0
-1.374653	a m u	-0.05379511
-0.8087777	a m y	-0.6041825
-1.923357	a m ó	0
-1.790734	a m ě	-0.05660352
-1.094782	b m j	0
-1.085358	b m y	0
-1.18838	d m i	0
-1.130581	d m j	0
-0.7918851	d m o
-1.121156	d m y	0
-1.57553	e m </s>
-1.225851	e m a	-0.03701819
-1.736173	e m b	-0.2931999
-1.099939	e m e	-0.2198228
-0.87536	e m i	-0.3452883
-0.9918741	e m j	-0.5353595
-0.9383626	e m o	-0.09454164
-1.823976	e m p
-1.817345	e m r	-0.2324844
-1.982143	e m s	0
-0.724151	e m u	-0.5375963
-0.9038719	e m y	-0.5026745
-1.701285	e m ó	0
-1.694947	e m ě	-0.03968327
-2.59612	e m š	0
-0.4577602	g m e	0
-1.152563	h m e	0
-0.8581387	h m m	-0.1206857
-1.143765	h m y	0
-0.9986138	i m </s>
-0.7676901	i m a	-0.2568416
-2.676934	i m c	0
-1.192546	i m e	-0.0743974
-0.8976384	i m i	-0.2706617
-1.418109	i m j	-0.2931999
-1.585945	i m n	0
-0.9267371	i m o	-0.2289428
-1.771545	i m p	-0.124621
-1.456737	i m u	-0.1314366
-0.7734059	i m y	-0.4693506
-1.381443	i m ě	-0.1872387
-1.882419	i m ž	0
-0.9889998	j m a	-0.1354595
-0.9239368	j m i	0
-0.9048512	j m j	-0.2931999
-0.992676	j m o	0
-0.9015763	j m y	-0.2931999
-1.527417	j m ó	0
-2.045272	j m ł	0
-0.3829746	k m a	-0.5150487
-0.9252482	k m ó	-0.2324844
-0.6080031	l m a	-0.1364381
-1.203517	l m o	0
-0.7575186	l m y	-0.2324844
-0.6578285	m m </s>
-0.7416413	o m </s>
-0.8110495	o m a	-0.3764833
-2.018193	o m b	0
-1.88335	o m d	-0.1946666
-1.366828	o m e	-0.05285564
-2.567955	o m h	0
-1.141813	o m i	-0.1003286
-1.232311	o m j	-0.236229
-2.218768	o m l	0
-0.9981435	o m n	-0.6144329
-1.076428	o m o	-0.1496979
-1.825935	o m p	-0.03006168
-2.136989	o m r	0
-1.877614	o m s	-0.2324844
-1.195664	o m u	-0.275378
-1.127502	o m y	-0.2854193
-1.568388	o m ó	-0.1925364
-1.454901	o m ě	-0.2133798
-2.365615	o m ł	0
-2.898739	o m ń	0
-0.8686839	r m a	-0.03716606
-0.887154	r m e	-0.1302944
-1.284124	r m i	0
-1.226324	r m j	0
-0.9784293	r m o	0
-1.029923	r m u	0
-0.994802	r m y	-0.2324844
-0.9168055	s m a	-0.1239995
-1.180825	s m e
-1.108942	s m i	-0.2931999
-0.9334151	s m j	-0.06522518
-0.8099298	s m o	-0.08644827
-1.219152	s m u	-0.09105845
-0.9306217	s m y	-0.1377468
-1.718596	s m ó	0
-0.9990417	s m ě	-0.1527088
-0.8201996	t m </s>
-0.7905056	t m o	0
-1.173544	t m y	0
-1.464309	t m ě	0
-1.217048	u m </s>
-0.9610758	u m e	-0.1889174
-1.124758	u m i	0
-1.097409	u m j	-0.02300382
-1.867334	u m l	0
-1.266099	u m n	0
-0.9441641	u m o	0
-1.097382	u m p	-0.1257666
-1.785555	u m r	0
-1.223333	u m u	-0.1314366
-1.174212	u m y	0
-1.496325	u m ó	0
-1.483287	u m ě	0
-0.6012271	y m </s>
-0.7966772	y m a	-0.4375276
-2.222892	y m b	0
-1.390369	y m e	0
-0.7504035	y m i	-0.241834
-1.324439	y m j	-0.06910303
-1.400522	y m n	0
-1.299392	y m o
-1.82336	y m s	0
-2.434849	y m z	0
-2.614838	y m ž	0
-1.084497	z m a
-1.114235	z m e	0
-1.047239	z m i	-0.1249851
-1.022862	z m j	-0.1374195
-1.45927	z m n	0
-0.8601044	z m o	0
-1.154158	z m u	0
-1.018709	z m y	-0.1864443
-1.249081	z m ó	-0.1140788
-1.124609	z m ě	-0.133688
-1.152581	ć m i	0
-1.048515	ć m o	0
-1.123739	č m a	0
-0.6190847	č m j	-0.2931999
-1.168369	č m y	0
-0.7948799	ě m </s>
-0.9255756	ě m a	-0.06983882
-2.293334	ě m c	0
-1.254324	ě m i	0
-1.117263	ě m n	-0.08262742
-1.628888	ě m s	0
-1.04812	ě m y	-0.1044617
-2.058043	ě m č	0
-2.541884	ě m ń	0
-1.181807	ł m i	0
-0.8277158	ł m o
-1.200253	ł m u	0
-1.114583	ł m y	0
-1.985526	ł m č	0
-0.2956302	ń m y	-0.2931999
-0.4337912	š m ó	-0.2931999
-0.3798217	<s> n a	-1.591082
-3.000356	<s> n d	-0.1915147
-2.64864	<s> n e	-0.2324844
-1.690264	<s> n i	-0.5388912
-0.3736172	<s> n j	-2.38191
-1.232737	<s> n o	-1.011211
-3.283942	<s> n p
-3.248165	<s> n s
-1.823257	<s> n u	-0.6506099
-2.718359	<s> n w	-0.3601467
-2.815225	<s> n y	-0.1001299
-3.382693	<s> n z
-2.203516	<s> n ó	-0.5730901
-1.31138	<s> n ě	-1.089571
-1.544855	a n </s>
-1.023355	a n a	-0.4045864
-1.192765	a n c	-0.4515291
-1.413482	a n d	-0.210864
-1.006934	a n e	-0.7920071
-2.318775	a n g	0
-1.115296	a n i	-0.2933781
-1.193122	a n j	-0.9042133
-1.134514	a n k	-0.5199138
-1.045904	a n o	-0.4510099
-1.043869	a n s	-0.5046848
-1.469276	a n t	-0.1534158
-1.114553	a n u	-0.3836848
-1.092508	a n y	-0.7207835
-1.807201	a n ć	-0.2795312
-1.580093	a n č	-0.1719038
-2.178842	a n ě	-0.2324844
-1.823115	a n š	-0.1265821
-3.133609	a n ž	0
-0.9220685	b n a	-0.2808765
-0.6872218	b n e	-0.5825405
-0.8563123	b n i	-0.1086588
-1.373628	b n j	-0.05968557
-1.124339	b n o	-0.1351374
-1.017772	b n u	-0.5150486
-0.6459532	b n y	-0.5107964
-1.053441	c n a	-0.1267865
-0.677937	c n e	-0.2718533
-2.510198	c n h	0
-1.072612	c n i	-0.05014828
-1.308308	c n j	0
-1.062779	c n o	-0.2324844
-1.070341	c n u	-0.2324844
-0.6825123	c n y	-0.2409745
-0.9308121	d n a	-0.1877241
-0.8791499	d n e	-0.5673653
-0.8816438	d n i	-0.3660099
-0.8322866	d n j	-0.5757465
-0.9336815	d n o	-0.1604657
-0.881042	d n u	-0.7703211
-0.7893317	d n y	-0.4320542
-1.067134	e n a	-0.2429633
-2.16718	e n b	-0.2324844
-1.136302	e n c	-0.3677778
-1.400492	e n d	-0.2324845
-1.038503	e n e	-0.4750091
-0.9560372	e n i	-0.2148734
-1.010625	e n j	-0.5519785
-1.322794	e n k	-0.4334204
-1.144564	e n o	-0.1956712
-1.129881	e n s	-0.318856
-1.182439	e n t	-0.3713456
-1.148169	e n u	-0.5942298
-1.150115	e n y	-0.7539306
-1.512752	e n ć	-0.2931999
-1.689226	e n č	-0.118904
-1.076254	g n a	0
-0.6320687	g n o	0
-1.112105	g n u	0
-0.9114481	h n a	-0.1474368
-0.9222199	h n i	-0.03293092
-0.9209593	h n j	-0.2277017
-0.9167213	h n o	-0.1780737
-0.7629744	h n u	-0.1089951
-0.9232432	h n y	-0.2446544
-2.472986	h n ó	0
-1.358968	h n ě	-0.1720988
-1.270391	i n </s>
-0.9021958	i n a	-0.5691767
-1.890493	i n c	-0.06503887
-1.896666	i n d	-0.06781278
-1.127915	i n e	-0.1265456
-2.005591	i n f	-0.1934267
-1.792689	i n g	-0.1006878
-1.311847	i n i	-0.1031396
-1.032957	i n j	-0.4099793
-1.2896	i n k	-0.3901039
-0.9271078	i n o	-0.4780002
-0.9433364	i n s	-0.5719588
-1.735422	i n t	-0.1378426
-0.9529479	i n u	-0.4452043
-2.50016	i n w	0
-1.005988	i n y	-0.4523299
-2.145272	i n č	0
-3.031624	i n ž	0
-1.131601	j n a	-0.1267865
-0.8039463	j n e	-0.2165824
-0.9181288	j n i	-0.2517949
-0.9165548	j n j	-0.1731168
-1.054608	j n o	-0.0788421
-1.213068	j n s	-0.07232118
-1.151746	j n u	-0.09040271
-0.8100233	j n y	-0.4529007
-1.340344	k n e
-0.9666182	k n i	-0.09434795
-0.5815712	k n j	-0.5293071
-1.078803	k n o	-0.05842998
-0.7972019	k n u	-0.6611767
-0.6270891	k n y	-0.3602011
-0.9994891	l n a	-0.5150486
-0.8434257	l n e	-0.5564412
-0.7836891	l n i	-0.3084365
-0.9194871	l n j	-0.3029513
-0.8432575	l n o	-0.236674
-1.008122	l n u	-0.5150486
-0.8473333	l n y	-0.5430772
-1.132821	m n a	-0.04184392
-0.8828976	m n e	-0.257599
-0.8876399	m n i	-0.1339827
-0.7978391	m n j	-0.4161548
-0.8826542	m n o	-0.08177207
-1.24234	m n u	-0.2324844
-0.7256708	m n y	-0.1610796
-1.18935	o n </s>
-0.8639333	o n a	-0.4538849
-1.75292	o n c	-0.08719935
-1.116973	o n e	-0.05816519
-2.449098	o n f	0
-2.450571	o n g	0
-0.9965302	o n i	-0.2805582
-1.121359	o n j	-0.1974193
-1.276374	o n k	-0.131053
-0.9572715	o n o	-0.3494078
-1.105187	o n s	-0.3607108
-1.473812	o n t	-0.1970232
-1.299315	o n u	-0.2678864
-2.226448	o n w	0
-1.23483	o n y	-0.306908
-2.318974	o n ć	0
-1.84781	o n č	0
-1.294846	o n ě	-0.240399
-2.044568	o n š	-0.2324844
-1.232934	p n e	0
-0.9735036	p n i	0
-0.6887172	p n j	-0.07914637
-0.9643762	p n o
-0.9713969	p n u	0
-0.8627121	p n y	-0.06263402
-0.9099829	r n a	-0.2113807
-2.033151	r n c	0
-0.9999639	r n e	-0.1780746
-0.7850806	r n i	-0.2723344
-0.9177983	r n j	-0.4444669
-1.106066	r n o	-0.06827755
-0.9177946	r n u	-0.33215
-0.7856967	r n y	-0.2620693
-1.997065	r n č	0
-0.8057399	s n a	-0.2298142
-0.8091126	s n e	-0.5188713
-0.8122804	s n i	-0.2649966
-0.9449092	s n j	-0.2525872
-1.273959	s n o	-0.1879015
-2.215819	s n t	0
-1.030968	s n u	-0.5150486
-0.8128984	s n y	-0.4025826
-1.613148	s n ě	-0.09494445
-0.9038545	t n a	-0.3040722
-0.8238569	t n e	-0.5734925
-0.8653622	t n i	-0.4097739
-0.864838	t n j	-0.650238
-0.954316	t n o	-0.2556307
-1.010778	t n u	-0.5082414
-0.7565346	t n y	-0.5629467
-2.375184	t n ě	0
-1.033722	u n a	-0.05290475
-1.052741	u n d	-0.03408356
-2.284811	u n g	0
-0.9190103	u n i	-0.04097723
-0.9172258	u n j	-0.2678863
-1.351992	u n k	0
-1.043748	u n o	-0.03193957
-1.82447	u n t	0
-1.051878	u n u	-0.002897203
-1.138505	u n y	0
-1.705801	u n č	0
-1.060802	w n a	-0.1876269
-0.8189782	w n e	-0.3862458
-0.8240505	w n i	-0.201756
-1.077238	w n j	-0.09768522
-2.190552	w n l	0
-1.069882	w n o	-0.07589093
-0.9316588	w n u	-0.2529688
-0.8250426	w n y	-0.4189453
-0.9158673	y n </s>
-0.9731254	y n a	0
-1.296608	y n c	-0.2324844
-0.9824347	y n e	-0.1266201
-0.9409162	y n k	-0.1094407
-1.235821	y n o	0
-1.270481	y n s	-0.1479285
-1.315349	y n t
-0.7122304	z n a	-0.3090158
-0.9535308	z n e	-0.3741169
-0.8836789	z n i	-0.2058136
-0.8199922	z n j	-0.3396941
-0.9533319	z n o	-0.1964195
-0.9564673	z n u	-0.33215
-0.9581589	z n y	-0.2323434
-0.7917085	ó n </s>
-1.217995	ó n a	0
-1.389096	ó n c	-0.07697137
-1.394299	ó n d	0
-1.253863	ó n j	0
-1.232433	ó n k	-0.1377457
-1.059598	ó n o	0
-1.715883	ó n s	0
-1.151987	ó n u	-0.2324844
-1.157168	ó n y	-0.2324844
-0.9155601	ó n č	-0.09746745
-0.723206	ć n e	-0.1278518
-0.8541967	ć n i	0
-1.215538	ć n j	0
-0.7295358	ć n y	-0.1324002
-0.9373412	č n a	-0.5150486
-0.7187117	č n e	-0.5059488
-0.8582712	č n i	-0.1723945
-0.9459782	č n j	-0.349208
-1.052507	č n o	-0.1032166
-0.9459741	č n u	-0.5150486
-0.8590273	č n y	-0.2948148
-0.8879992	ě n i	-0.08365772
-0.9899399	ě n j	-0.2324842
-1.584146	ě n k	0
-1.96559	ě n l	0
-0.8800449	ě n o	-0.1273564
-0.9899317	ě n u	0
-1.637845	ě n č	0
-0.7740871	ł n a	-0.08224179
-1.146222	ł n e	0
-1.166381	ł n i	0
-1.161458	ł n j	0
-0.8969697	ł n o	-0.08267262
-0.7876402	ł n y	-0.09528771
-0.8569659	š n a	-0.5150486
-0.8618036	š n e	-0.3192991
-0.7765535	š n i	-0.2164674
-0.7756604	š n j	-0.2481749
-0.9735057	š n o	-0.2848115
-0.9808749	š n y	-0.3283594
-2.499003	š n ó	0
-1.02471	ź n e	0
-1.044868	ź n i	0
-1.048895	ź n y	0
-0.7343207	ž n a	-0.4357785
-0.8521705	ž n e	-0.4692912
-0.9277648	ž n i	-0.2134997
-0.8549436	ž n j	-0.2939799
-1.114749	ž n o	-0.2635841
-1.120181	ž n u	-0.4181386
-0.8565356	ž n y	-0.5694063
-1.450958	ž n ě	-0.1972231
-1.715144	<s> o b	-0.2931999
-1.190295	<s> o c	-0.6611767
-1.206236	<s> o f	-0.6611767
-1.493095	<s> o k	-0.2324844
-0.6749932	<s> o p	-0.5782825
-0.2870177	<s> o r	-0.8650062
-1.577274	b o d	-0.08631419
-1.14405	b o h	-0.2227278
-1.194573	b o j	-0.1228176
-1.303325	b o k	-0.07985497
-1.455471	b o l	-0.1914705
-1.413248	b o m	-0.07962377
-1.624867	b o n	0
-1.657301	b o o	-0.2324844
-1.020518	b o r	-0.05187124
-1.308872	b o s	-0.287383
-1.551815	b o t	0
-0.6469848	b o w	-0.4566329
-1.508222	b o z	0
-1.543889	b o ć	-0.1352661
-1.615676	b o ł
-1.366866	b o ž	-0.2324844
-1.210236	c o </s>
-1.522122	c o f
-1.650253	c o k	0
-0.9533777	c o m	-0.1692884
-1.352459	c o n	-0.2324844
-1.238617	c o r	0
-1.271253	c o s	0
-1.677244	c o t	0
-2.558722	c o u	0
-0.4796367	c o w	-0.4324781
-1.796912	c o z	0
-1.843899	c o š	0
-1.743505	d o a	0
-1.090679	d o b	-0.2802415
-1.672926	d o c	-0.1464159
-1.556788	d o d	-0.04950953
-1.61081	d o h	-0.1593972
-1.127302	d o j	-0.1862215
-1.197774	d o k	-0.1559877
-1.614227	d o l	-0.09096324
-0.8768539	d o m	-0.2010105
-1.359071	d o n	-0.04059838
-1.401518	d o p	-0.05664975
-1.47915	d o r	-0.08937393
-1.131024	d o s	-0.3369483
-1.534592	d o t	0
-0.8659192	d o w	-0.2983792
-1.781395	d o č	-0.1221504
-1.433935	d o ł	-0.2079044
-1.950001	d o š	0
-1.621184	d o ž	-0.2931999
-0.4964117	e o l	-0.4181386
-1.529601	f o k	0
-1.546478	f o l	0
-0.9953792	f o n	-0.1138519
-0.5710623	f o r	-0.3540422
-1.546938	f o s	0
-1.556593	f o t	0
-0.9746677	f o w	-0.132444
-1.909292	g o g	0
-1.004751	g o j	-0.2931999
-1.111687	g o r	-0.2324844
-0.6596234	g o w	-0.2376772
-1.237826	h o </s>
-1.910786	h o b	0
-1.024502	h o d	-0.3202001
-1.960317	h o h	0
-1.129102	h o j	-0.1544114
-1.132508	h o l	-0.0938464
-1.114952	h o m	-0.2249593
-1.367576	h o n	-0.1743871
-1.646232	h o p	0
-1.053802	h o r	-0.09684592
-1.204438	h o s	-0.3129987
-1.1343	h o t	-0.2004682
-0.9897974	h o w	-0.2779272
-1.697276	h o z	0
-1.633111	h o ć	-0.1073179
-1.70074	h o ł	0
-1.536955	h o ń	-0.173039
-1.738664	h o ž	0
-1.621527	i o d	0
-1.219576	i o k	0
-1.225228	i o l	0
-0.5880539	i o n	-0.2195833
-1.235162	i o p	0
-1.189615	i o r	0
-1.289489	i o ć
-0.7656744	j o </s>
-1.832799	j o b	0
-1.797916	j o c	0
-1.576584	j o d	0
-1.88233	j o h	0
-1.540729	j o j	-0.2324844
-0.7749454	j o m	-0.3472681
-1.605005	j o n	0
-1.722126	j o p	0
-1.256706	j o r	-0.07192689
-1.284916	j o s	-0.04728537
-1.554513	j o t	-0.2324844
-0.7275859	j o w	-0.4093408
-1.490674	j o z	-0.09025718
-1.82828	j o ł	0
-1.010544	k o </s>
-1.984645	k o a	0
-1.926565	k o b	0
-1.820148	k o c	0
-1.244979	k o d	-0.2344595
-2.080724	k o f	0
-1.704705	k o h	-0.1836154
-1.154217	k o j	-0.3407007
-1.632877	k o k	-0.08225843
-1.460577	k o l	-0.2056776
-0.926028	k o m	-0.4710769
-1.316068	k o n	-0.1828589
-2.109368	k o o	0
-1.241047	k o p	-0.1090742
-1.312969	k o r	-0.09304202
-1.194785	k o s	-0.2163016
-1.237976	k o t	-0.1857576
-0.8074079	k o w	-0.7780179
-1.920143	k o z	0
-2.111498	k o ć	0
-2.026809	k o č	-0.05045988
-1.924085	k o ł	-0.1138584
-2.649251	k o ń	0
-1.700494	k o š	-0.0849462
-1.868956	k o ž	-0.02946948
-1.18336	l o </s>
-1.96549	l o a	0
-1.852717	l o b	0
-1.817834	l o c	0
-1.358744	l o d	-0.09282026
-1.428812	l o g	-0.266623
-1.582317	l o j	0
-1.225648	l o k	-0.0943916
-0.9353493	l o m	-0.3725361
-1.122798	l o n	-0.07856129
-1.451753	l o r	-0.06852181
-1.342685	l o s	-0.145602
-1.597255	l o t
-0.5720872	l o w	-0.5478137
-2.482631	l o ń	0
-1.337273	m o </s>
-1.609757	m o b	-0.2931999
-1.251469	m o c	-0.1432597
-1.326418	m o d	-0.07862715
-1.82886	m o g
-1.912786	m o h	0
-1.043686	m o j	-0.2898808
-1.405093	m o k	-0.07065506
-1.158721	m o l	-0.1897541
-1.030948	m o m	-0.3453795
-1.498335	m o n	-0.08998264
-1.559341	m o p	-0.0842211
-1.079249	m o r	-0.07974272
-1.41162	m o s	-0.1779813
-1.415185	m o t	0
-0.8955395	m o w	-0.4148106
-1.604773	m o z	-0.1042753
-1.750126	m o ć
-2.068465	m o č	0
-1.607835	m o ł	-0.2931999
-1.89858	m o š	0
-1.641162	m o ž	-0.2324844
-1.061821	n o </s>
-1.879596	n o b
-1.619083	n o c	-0.1367472
-1.238784	n o h	-0.1784877
-1.576798	n o j	-0.0911584
-1.577475	n o k	-0.08291649
-1.719179	n o l	-0.1332119
-1.007974	n o m	-0.4105319
-1.747777	n o n	-0.1360497
-1.404207	n o p	-0.2351283
-1.305467	n o r	-0.1218086
-0.7987644	n o s	-0.5588872
-1.399535	n o t	-0.09995443
-0.8058264	n o w	-0.4495333
-1.626054	n o z
-1.924544	n o ć	0
-1.856249	n o č	-0.2931999
-1.187758	n o š	-0.26019
-1.650616	n o ž	-0.03217415
-0.9492076	o o </s>
-1.523116	o o k	0
-0.9983124	o o l	-0.2324844
-1.043489	o o o	-0.1333826
-1.570763	o o p	0
-0.9722648	o o r	0
-0.9520276	o o w
-1.938888	p o b	0
-1.750792	p o c	-0.0489447
-1.121264	p o d	-0.08346358
-1.894424	p o g
-1.538709	p o h	-0.140824
-1.677845	p o j	0
-1.109618	p o k	-0.3001119
-1.477013	p o l	-0.07464965
-1.203986	p o m	-0.245627
-1.442835	p o n	-0.06090601
-1.384421	p o p	-0.09540009
-1.094694	p o r	-0.2199685
-1.112449	p o s	-0.1746194
-1.22642	p o t	-0.1658318
-0.997481	p o w	-0.2808632
-1.409963	p o z	-0.1895061
-1.815658	p o ć	-0.1218572
-1.576464	p o č	-0.1084555
-1.082929	p o ł	-0.2498382
-1.787786	p o š	0
-1.706723	p o ž	-0.102051
-1.297198	r o </s>
-1.196254	r o b	-0.2054902
-1.708213	r o c	-0.1661132
-1.094955	r o d	-0.3369799
-1.847275	r o f	-0.1557715
-1.946115	r o g	0
-1.59499	r o h	-0.05829199
-2.590909	r o i	0
-1.346263	r o j	-0.189655
-1.521763	r o k	-0.14389
-1.654689	r o l	-0.1144193
-1.036058	r o m	-0.2808421
-1.262858	r o n	-0.09260482
-1.670816	r o p	-0.1053119
-1.174506	r o s	-0.4445724
-1.434147	r o t	-0.03099201
-0.8788508	r o w	-0.3924049
-1.194675	r o z	-0.1211054
-1.402032	r o ć	-0.1571456
-1.636014	r o č	-0.02993691
-2.58929	r o ń	0
-1.59069	r o š	-0.02997236
-1.757846	r o ž	-0.04300604
-0.98118	s o </s>
-1.433746	s o b	-0.1187739
-1.126068	s o c	-0.2259975
-1.739202	s o d	0
-2.164988	s o f	0
-1.663823	s o k	0
-1.385815	s o l	-0.2324844
-0.9252849	s o m	-0.2440018
-1.445656	s o n	-0.06131727
-1.503361	s o p	0
-1.34554	s o r	-0.05052415
-1.690815	s o t	0
-0.6315463	s o w	-0.5518717
-1.810483	s o z	0
-1.432371	s o ł	0
-1.041339	t o </s>
-1.643953	t o b
-1.697081	t o d	-0.04906604
-2.170729	t o g	0
-1.502883	t o h	-0.1836154
-1.571493	t o j	0
-1.572405	t o k	-0.1231081
-1.580714	t o l	-0.08265274
-0.8364916	t o m	-0.3697499
-1.536474	t o n	0
-1.78485	t o o
-1.681418	t o p	0
-0.9320103	t o r	-0.2935329
-1.444245	t o s	-0.2678863
-1.760226	t o t	0
-0.7267213	t o w	-0.5469244
-1.735332	t o z
-1.983715	t o ć	0
-1.833822	t o č	-0.02125207
-1.284632	t o ł	-0.1159356
-1.758951	t o š	-0.2324844
-1.779325	t o ž	-0.131991
-0.3033288	u o w	-0.2931999
-1.300997	w o </s>
-1.103669	w o b	-0.2115529
-1.802206	w o c	-0.01999384
-1.297456	w o d	-0.3485322
-1.751262	w o h	-0.04285742
-1.348493	w o j	-0.1448699
-1.428816	w o k	-0.03995821
-1.353359	w o l	-0.1932361
-1.207762	w o m	-0.3233861
-1.329569	w o n	-0.1700352
-1.36103	w o p	-0.1987598
-1.261412	w o r	-0.1702272
-1.174778	w o s	-0.1144895
-1.176399	w o t	-0.1391737
-0.9901603	w o w	-0.2831538
-1.310582	w o z	-0.1883079
-1.869112	w o ć	0
-1.808845	w o č	-0.1270887
-1.249539	w o ł	-0.2801497
-1.605803	w o ž	-0.1079625
-1.182394	z o </s>
-1.354383	z o j
-1.360881	z o l	0
-1.209871	z o m	-0.1859566
-0.7279404	z o r	-0.07946377
-0.5013394	z o w	-0.3628422
-2.501764	z o y	0
-0.8229837	ć o </s>
-1.43355	ć o c	-0.2324844
-0.6232457	ć o m	-0.4880602
-1.787594	ć o n	0
-0.9453219	ć o p	-0.2136471
-1.874405	ć o s	0
-0.6182039	ć o w	-0.367224
-1.678709	č o k	0
-0.9818477	č o l	0
-0.8387222	č o m	-0.1647029
-1.146673	č o r	-0.06919613
-0.5273501	č o w	-0.4148306
-1.341585	č o ł	0
-0.7927752	ł o </s>
-1.346392	ł o b	-0.09450426
-1.239751	ł o d	-0.1932325
-1.64221	ł o h	-0.1682165
-1.038031	ł o j	-0.3360794
-1.643296	ł o k	-0.1231081
-1.652854	ł o l	-0.1332119
-1.079315	ł o m	-0.2761118
-1.290221	ł o n	-0.03303836
-1.578696	ł o p	-0.1356669
-1.710082	ł o r	0
-1.094667	ł o s	-0.1552388
-1.569465	ł o t	-0.1373045
-1.013499	ł o w	-0.3359641
-1.720919	ł o z	-0.2324844
-1.656785	ł o ć	0
-1.188196	ł o ž	-0.3801542
-1.456923	ř o c	0
-1.260244	ř o m	0
-0.7351859	š o </s>
-1.852673	š o d	0
-1.30424	š o j
-1.425597	š o k	0
-1.109072	š o m	-0.1323842
-1.435492	š o t
-0.5841714	š o w	-0.3724741
-0.9125322	š o ł	-0.4351475
-1.456923	ź o c	0
-1.408864	ź o d	0
-1.843091	ź o e	0
-1.260244	ź o m	0
-1.264012	ź o n	0
-1.350822	ź o s	0
-1.182956	ź o w	0
-1.123605	ž o </s>
-1.217888	ž o h	-0.1964593
-1.171317	ž o j	-0.1327127
-0.847618	ž o m	-0.159296
-1.270436	ž o n	-0.04453212
-1.265124	ž o r	0
-0.539107	ž o w	-0.3941568
-1.872887	ž o ł	0
-1.617787	<s> p a	-0.79131
-2.240968	<s> p e	-0.5763698
-1.797452	<s> p i	-0.6538842
-1.753791	<s> p j	-1.523649
-2.167131	<s> p l	-0.6986098
-0.5126791	<s> p o	-1.636375
-0.9564674	<s> p r	-1.617196
-2.852569	<s> p s	-0.2580124
-2.502305	<s> p t	-1.094832
-1.887752	<s> p u	-0.7349346
-2.044477	<s> p y	-1.293192
-1.801594	<s> p ó	-0.876776
-2.472241	<s> p č	-0.9135098
-2.25779	<s> p ě	-0.6813788
-1.70836	<s> p ł	-1.270924
-0.3563784	<s> p ř	-2.428787
-3.661567	<s> p š	-0.2324844
-0.8590245	a p a	-0.1194145
-1.692941	a p c	-0.1248707
-1.083311	a p i	-0.1063804
-0.8810865	a p j	-0.5689163
-1.507187	a p k	-0.1606222
-1.544751	a p l	-0.06902485
-0.8049779	a p o	-0.100077
-0.9898304	a p r	-0.04490907
-1.823872	a p t	0
-1.35744	a p u	0
-1.699376	a p ó	0
-1.734479	a p ł	0
-1.235562	a p ř	-0.06698707
-0.5911978	b p ř	0
-0.5387018	c p ě	-0.1416503
-1.14831	d p a	0
-0.8526409	d p i	-0.2324844
-1.131822	d p o	0
-1.722924	d p ě	0
-0.8895449	d p ř	-0.2324844
-0.8921962	e p a	-0.110684
-2.084893	e p c	0
-1.093734	e p i	-0.1464856
-1.112576	e p j	-0.3470677
-0.9655833	e p o	-0.1094482
-0.9785979	e p r	-0.1879737
-1.072576	e p t	-0.0570685
-1.26611	e p u	-0.1292305
-1.36392	e p y	-0.04873002
-1.603492	e p ó	0
-2.341491	e p ć	0
-1.540854	e p ě	0
-1.638594	e p ł	0
-1.392828	e p ř	0
-1.038525	i p a	-0.06993717
-1.070753	i p i	-0.06359979
-1.271896	i p j	0
-1.74452	i p k	0
-1.176422	i p l	-0.1223361
-1.030284	i p o	-0.09014888
-1.050073	i p r	-0.1260912
-1.106209	i p u	0
-1.31472	i p y	-0.2324844
-1.469806	i p ó	0
-1.504908	i p ł	0
-1.979859	i p š	0
-0.6540406	j p i
-1.129138	j p o	0
-1.169276	j p r	0
-1.03745	m p a	0
-1.081469	m p e	0
-0.9642302	m p i	0
-1.093669	m p j	0
-1.177103	m p l	-0.122437
-0.9318384	m p o	0
-1.049124	m p r	-0.1260912
-0.9921017	m p u	0
-1.568637	o p </s>
-0.9676986	o p a	-0.05625346
-2.236022	o p c	0
-0.9882493	o p e	-0.2272021
-1.183588	o p i	-0.363821
-1.20074	o p j	-0.3601466
-1.63087	o p l	0
-1.862777	o p n	0
-0.8321424	o p o	-0.2000392
-0.9732567	o p r	-0.3194907
-1.697625	o p s	-0.08677444
-1.676353	o p t	0
-1.209535	o p u	-0.08505954
-1.658355	o p y	-0.1210161
-1.61686	o p ó	0
-1.729678	o p ě	-0.2324844
-1.534336	o p ł	-0.01110616
-1.011321	o p ř	-0.5150486
-1.100634	r p a	0
-1.168395	r p i	0
-1.221328	r p j	0
-1.446942	r p l	0
-1.527393	r p n	0
-1.084145	r p o	0
-0.8413149	r p r	0
-1.115472	s p a	-0.09450002
-0.8913696	s p e	-0.2476691
-1.038867	s p i	-0.1335667
-1.301399	s p j	-0.08253515
-1.392365	s p l	0
-0.8103232	s p o	-0.211356
-1.253431	s p r	-0.1472138
-1.404237	s p u	-0.1292305
-1.236274	s p y	-0.2795538
-1.382689	s p ó	-0.1366852
-0.9516618	s p ě	-0.3529921
-1.64481	s p ř	0
-1.108582	t p a	0
-1.176343	t p i	0
-1.092094	t p o	0
-1.132231	t p r	0
-0.9091298	t p ó	-0.1096196
-1.462289	t p ł	0
-1.300075	u p </s>
-1.067018	u p a	-0.1175885
-2.070824	u p c	0
-1.237059	u p e	0
-1.094197	u p i	-0.09870262
-1.250767	u p j	-0.07525432
-1.617128	u p l	0
-1.199399	u p n	-0.132401
-0.7684636	u p o	-0.1725752
-1.294468	u p r	0
-1.264587	u p u	-0.08708578
-1.071807	u p y	-0.1658206
-1.589423	u p ó	0
-1.652573	u p ć	-0.2324844
-1.624525	u p ł	0
-1.491421	u p ř	0
-0.6962839	y p a	-0.1908898
-1.269962	y p i	0
-1.795519	y p k	0
-0.8658048	y p o
-1.11744	y p t	0
-1.109323	z p a	0
-0.9102226	z p o	-0.09272019
-0.9249943	z p r	0
-1.258976	z p u	0
-1.329925	z p ř	0
-0.9134646	ě p i	-0.1666161
-0.9295703	ě p j	-0.2324844
-1.753865	ě p k	0
-0.8989784	ě p r	-0.2324844
-1.989204	ě p š	0
-0.29718	š p a	0
-1.010593	<s> r a	-0.8562756
-0.8552335	<s> r e	-0.8577683
-2.694478	<s> r i
-1.034244	<s> r j	-1.564266
-0.3914418	<s> r o	-1.526026
-1.101809	<s> r u	-0.8336289
-1.64742	<s> r y	-0.5579399
-1.457853	<s> r ó	-0.7015451
-0.9162685	<s> r ě	-1.21146
-1.008616	a r </s>
-1.02978	a r a	-0.2903562
-2.039156	a r b	-0.02906238
-1.468983	a r c	-0.103534
-1.775941	a r d	-0.04755691
-1.36801	a r e	-0.07177823
-2.129969	a r g	0
-1.35148	a r i	-0.1274028
-1.018175	a r j	-0.8268027
-1.120848	a r k	-0.4245946
-2.096595	a r l	0
-2.357897	a r m	0
-1.144583	a r n	-0.5572418
-1.189259	a r o	-0.2115106
-1.031964	a r s	-0.6714817
-1.462771	a r t	-0.04320194
-1.175725	a r u	-0.2028868
-1.332286	a r y	-0.1022959
-1.643296	a r ć	-0.3361121
-1.958912	a r č
-1.78072	a r ě	-0.2324844
-1.982861	a r š	-0.03635451
-0.6633401	b r a	-0.1873099
-1.193062	b r e	-0.06314815
-1.017687	b r i
-1.167906	b r j	-0.2931999
-0.8833597	b r o	-0.09075239
-0.9081961	b r u	-0.06811252
-1.330879	b r y	-0.04649387
-1.365795	b r ó	-0.130187
-1.205295	b r ě	-0.06826761
-0.7487006	d r a	-0.2776107
-1.052326	d r e	-0.08063966
-0.95191	d r i	-0.08062421
-1.146973	d r j	-0.2324844
-0.8027378	d r o	-0.1151269
-1.991454	d r s	0
-0.9551517	d r u	-0.2076019
-1.455355	d r y
-1.379301	d r ó	-0.1825487
-1.175088	d r ě	-0.1052371
-1.162111	e r </s>
-1.049538	e r a	-0.224651
-1.510755	e r b	-0.09941429
-1.32089	e r c	-0.2284727
-1.911623	e r d	-0.08693876
-1.381555	e r e	-0.08690681
-2.210433	e r f	-0.2324844
-1.959107	e r g	0
-1.304903	e r i	-0.07480255
-1.069716	e r j	-0.7325327
-1.207156	e r k	-0.5540103
-2.046442	e r l	0
-1.916929	e r m	0
-1.192528	e r n	-0.3294126
-1.113027	e r o	-0.3731827
-1.78264	e r p	-0.04270516
-2.048574	e r r
-1.066586	e r s	-0.3614624
-1.512204	e r t	-0.1231069
-1.310806	e r u	-0.08706945
-1.634937	e r w	-0.1107359
-1.731667	e r y	-0.2324844
-2.012246	e r z	-0.05066483
-2.005135	e r ć	0.009350047
-2.027108	e r č	0
-1.462028	e r ě	-0.1227922
-1.943114	e r š	0
-2.119052	e r ž	-0.02323224
-0.8613932	f r a	0
-1.031165	f r e
-0.6914107	f r o	-0.2324844
-1.017479	f r u
-0.923938	f r y	-0.1195475
-0.6598258	g r a	-0.06918337
-0.9926235	g r e	-0.09450359
-1.092045	g r i
-0.7810537	g r o	-0.1068572
-0.9813272	g r u	-0.1312955
-0.5626966	h r a	-0.3174513
-1.341166	h r i	-0.1393259
-1.23413	h r j	-0.1644144
-1.901158	h r n	0
-0.6563113	h r o	-0.3003854
-1.618709	h r u	0
-0.9791728	h r y	-0.2050984
-1.430127	h r ó	0
-1.095171	h r ě	-0.04483703
-1.059299	i r a	0
-1.266209	i r e	0
-1.106329	i r i	-0.2324844
-1.203247	i r j	0
-1.627325	i r k	0
-1.063088	i r o	0
-1.768923	i r t	0
-0.8425073	i r u	0
-1.194644	i r ó	-0.2324844
-1.132845	j r j	0
